<?xml version="1.0"?>
<opencv_storage>
<my_svm type_id="opencv-ml-svm">
  <svm_type>C_SVC</svm_type>
  <kernel><type>LINEAR</type></kernel>
  <C>1.</C>
  <term_criteria><epsilon>2.2204460492503131e-016</epsilon>
    <iterations>100</iterations></term_criteria>
  <var_all>4544</var_all>
  <var_count>4544</var_count>
  <class_count>2</class_count>
  <class_labels type_id="opencv-matrix">
    <rows>1</rows>
    <cols>2</cols>
    <dt>i</dt>
    <data>
      0 255</data></class_labels>
  <sv_total>1</sv_total>
  <support_vectors>
    <_>
      -7.03602154e-007 -7.03602154e-007 -9.15742362e-007
      -4.41435077e-007 -4.41435077e-007 -3.01733166e-007
      -8.95929517e-008 -8.95929517e-008 -5.89874674e-007 0.
      -4.86998772e-007 -2.02349793e-006 -4.86998772e-007
      -1.49626476e-006 -1.44967009e-006 -1.44967009e-006
      -5.89874674e-007 -5.89874674e-007 0. -3.01733166e-007 0. 0.
      -5.89874674e-007 -9.24088852e-007 -7.74618286e-007
      -3.34214178e-007 -1.66942232e-006 -1.33520814e-006
      -1.33520814e-006 -1.33520814e-006 -4.40404108e-007
      -4.40404108e-007 -1.00926593e-006 -1.00926593e-006 0. 0. 0. 0.
      -1.00926593e-006 -1.31099910e-006 -8.95929517e-008
      -8.95929517e-008 0. 0. 0. 0. 0. 0. -1.26575083e-006
      -9.64017659e-007 0. 0. 0. 0. 0. 0. 0. -2.27183520e-007
      -2.27183520e-007 0. 0. 0. 0. -2.27183520e-007 0. 0.
      -7.17897478e-007 0. 0. 0. 0. 0. 0. 0. 0. 0. 0. -3.34214178e-007
      -3.34214178e-007 -3.34214178e-007 0. 0. 0. 0. 0. 0. 0. 0. 0. 0. 0.
      0. 0. 0. 0. 0. 7.84315333e-008 7.84315333e-008 1.18947696e-007
      2.93547409e-008 2.93547409e-008 1.18947696e-007 -8.93800745e-007
      -8.93800745e-007 -6.66617211e-007 0. 0. -1.00926593e-006
      -1.00926593e-006 0. 0. 0. 0. 0. 0. 0. 0. 0. 0. 0. 0. 0. 0. 0. 0.
      0. 0. 0. 0. 0. 0. 0. 0. 0. 1.10912868e-006 1.10912868e-006 0. 0.
      0. 0. 0. 0. 0. 0. 0. 0. 0. 0. 0. 0. 0. 0. 0. 0. 0. 0. 0. 0. 0. 0.
      0. 0. 0. 0. 0. 0. 0. 0. 0. 0. 0. 0. 0. 0. 0. 0. 0. 0. 0. 0. 0. 0.
      0. 0. 0. 0. 0. 0. 0. 0. 0. 0. 0. 0. 0. 0. 0. 0. 0. 0. 0. 0. 0. 0.
      0. 0. 0. 0. 0. 0. 0. 0. 0. 0. 0. 0. 0. 0. 0. 0. 0. 0. 0. 0. 0. 0.
      0. 0. 0. 0. 0. 0. 0. 0. 0. 0. 0. 0. 0. 0. 0. 0. 0. 0. 0. 0. 0. 0.
      0. 0. 0. 0. 0. 0. 0. 0. 6.63573519e-006 3.87356567e-006
      6.83831956e-007 -1.56650245e-007 -3.38925747e-006 4.11322645e-007
      2.38383063e-006 2.66747611e-006 -1.74216029e-006 -6.64312893e-007
      -3.20509048e-006 3.30906857e-007 -3.64566858e-007 -4.34315461e-006
      -1.52294763e-006 -2.44109719e-006 -7.31312184e-006
      -5.19656351e-006 -3.22139954e-007 2.05850756e-006 -1.18376261e-006
      -2.94428128e-006 -2.32471712e-006 -2.54765638e-007
      -6.08264963e-006 -5.09513256e-006 -2.64540017e-006 1.29071611e-006
      2.02350088e-006 1.82258191e-006 -5.97721794e-007 -2.34012396e-006
      -1.40693010e-006 -6.30907437e-007 1.80847621e-007 -2.22739050e-006
      -1.06411778e-006 -5.32619481e-007 -3.86385227e-006
      -3.64535799e-006 -1.00507080e-007 -2.61386094e-006
      -5.94463199e-006 -4.45757678e-006 -3.88272065e-006
      -1.75531909e-006 4.28437170e-006 3.42188764e-006 -3.58712754e-007
      -1.03698483e-007 -2.72636066e-006 -3.01575892e-006
      -1.22171775e-006 -2.60859792e-006 -2.33674132e-006
      -3.10146811e-006 5.50511686e-007 1.80236839e-007 1.92859488e-006
      1.85659712e-006 3.73402486e-006 2.94439428e-006 2.76023979e-006
      2.21277810e-006 1.35376115e-006 -6.54741939e-007 2.54670823e-007
      -1.39199460e-006 2.17325010e-006 3.25409076e-007 3.21535799e-006
      5.54731378e-006 -1.48417189e-006 -3.91293315e-006 -8.53702829e-007
      1.10861106e-006 1.06872960e-006 5.15965496e-007 3.56158267e-007
      3.63413392e-006 -1.94501285e-006 -6.47014701e-007 -2.56651902e-006
      -4.19517892e-006 -3.54133954e-006 1.64868936e-006 2.72238162e-006
      2.81721805e-006 1.72645605e-006 1.68118390e-006 3.21023231e-006
      -1.43120360e-007 4.55479767e-006 2.31498711e-006 -1.05969420e-007
      1.45444938e-006 1.43917487e-006 1.65239555e-006 1.75368177e-006
      -3.36499556e-006 -2.30465321e-006 -3.39203143e-006
      -1.23306779e-006 -3.51875258e-007 -1.08429720e-006
      -1.44271257e-006 -5.29279532e-007 2.72398279e-006 -2.91901074e-007
      -2.93099515e-006 -2.54837641e-006 1.05714071e-006 1.64741687e-006
      1.31004765e-006 0. -2.27183520e-007 -3.84200945e-007
      -8.24677855e-008 -9.43368605e-007 -1.36073675e-006
      -1.51713982e-006 -1.51713982e-006 -1.21540666e-006
      -1.31891727e-006 -1.31891727e-006 -1.09173368e-006
      -1.30828982e-006 -1.22582207e-006 -6.47406978e-007
      -8.77801654e-007 -5.92157619e-007 1.25739859e-007 2.39980523e-006
      6.19657214e-007 4.15780619e-007 -1.30609396e-006 -2.08469623e-006
      -1.19385743e-006 4.07261768e-006 3.27536372e-006 4.19382013e-006
      6.25120902e-006 3.53833479e-006 1.79020185e-006 2.73437558e-006
      3.81111136e-006 -1.71677513e-007 -8.52137475e-007 1.67977009e-006
      2.53150097e-006 1.71403954e-007 -9.05331774e-007 -1.16922877e-006
      -1.28358408e-006 -3.16729302e-006 -4.21619552e-006
      -5.51955100e-006 -3.32996774e-006 -1.35330299e-006
      -1.76042602e-006 -1.36035837e-007 6.35279264e-007 -1.27499288e-006
      -2.04868691e-008 -2.69427971e-007 -1.85164629e-006
      -3.77110200e-006 -2.36939877e-006 4.55809555e-007 -2.17980073e-006
      2.12548593e-006 4.47413913e-006 4.34378853e-006 -8.49436390e-007
      -1.90063213e-006 -2.66367238e-006 -9.89939849e-007 3.70279452e-007
      -6.53173871e-008 -7.16130614e-007 -4.48586889e-006
      -4.89994545e-006 -3.00388706e-006 -8.86797068e-007
      -1.26578630e-006 -2.76450555e-006 -3.04264222e-006
      -3.01052683e-006 -2.30394153e-006 -2.93610947e-006
      -4.86475210e-006 -3.76662183e-006 -3.01302020e-006
      -1.07465655e-006 3.05788308e-006 -2.19949061e-006 -2.05554102e-006
      -3.80134611e-006 -1.81924861e-006 2.61440192e-007 5.57094199e-006
      -1.99192669e-007 -5.45605531e-007 -1.16113313e-006
      -2.71020735e-006 -3.38174095e-006 -2.85806846e-006
      -1.24353335e-007 -2.61700302e-006 -1.38991027e-006
      -1.37958000e-006 -2.16452395e-006 -3.24704274e-006
      -5.90323816e-006 -4.22294761e-006 -4.67878363e-006
      -4.42678993e-006 -3.42990938e-006 -4.09270206e-006
      -4.36946351e-007 2.58516457e-006 3.90758214e-006 1.96337533e-006
      2.07138010e-006 5.16998568e-007 -2.11208817e-006 -1.49552818e-006
      -2.13295334e-006 -3.30636908e-006 2.75523212e-006 5.41518011e-006
      6.17763408e-006 3.32038098e-006 3.25880387e-006 3.13070518e-006
      5.35488915e-008 4.48925357e-006 2.89849049e-006 1.99997157e-006
      7.91207640e-007 3.96984888e-007 5.45577905e-007 2.31060767e-007
      4.81981374e-007 1.29740602e-006 9.47397609e-007 1.23979555e-006
      -4.22834273e-006 3.26063059e-006 3.26063059e-006 1.88202387e-006
      1.31891727e-006 1.31891727e-006 1.09173368e-006 7.18415151e-007
      6.35947345e-007 -5.29098288e-005 -5.29098288e-005 -5.29098288e-005
      -5.29098288e-005 -5.29098288e-005 -5.29098288e-005
      -5.29098288e-005 -5.29098288e-005 -5.29098288e-005
      -5.29098288e-005 -5.29098288e-005 -5.29098288e-005
      -5.29098288e-005 -5.29098288e-005 -5.29098288e-005
      -5.29098288e-005 -5.29098288e-005 -5.29098288e-005
      -5.29098288e-005 -5.29098288e-005 -5.29098288e-005
      -5.29098288e-005 -5.29098288e-005 -5.29098288e-005
      -5.29098288e-005 -5.29098288e-005 -5.29098288e-005
      -5.29098288e-005 -5.29098288e-005 -5.29098288e-005
      -5.29098288e-005 -5.29098288e-005 -5.29098288e-005
      -5.29098288e-005 -5.29098288e-005 -5.29098288e-005
      -5.29098288e-005 -5.29098288e-005 -5.29098288e-005
      -5.29098288e-005 -5.29098288e-005 -5.29098288e-005
      -5.29098288e-005 -5.29098288e-005 -5.29098288e-005
      -5.29098288e-005 -5.29098288e-005 -5.29098288e-005
      -5.29098288e-005 -5.29098288e-005 -5.29098288e-005
      -5.29098288e-005 -5.29098288e-005 -5.29098288e-005
      -5.29098288e-005 -5.29098288e-005 -6.10094175e-005
      -5.25518590e-005 -6.06393914e-005 -4.41826887e-005
      -5.13668347e-005 -6.67549539e-005 -4.27419473e-005 1.17448099e-005
      1.80883762e-005 1.80883762e-005 1.80883762e-005 1.80883762e-005
      1.80883762e-005 1.80883762e-005 1.80883762e-005 1.80883762e-005
      1.80883762e-005 1.80883762e-005 1.80883762e-005 1.80883762e-005
      1.80883762e-005 1.80883762e-005 1.80883762e-005 1.80883762e-005
      1.80883762e-005 1.80883762e-005 1.80883762e-005 1.80883762e-005
      1.80883762e-005 1.80883762e-005 1.80883762e-005 1.80883762e-005
      1.80883762e-005 1.80883762e-005 1.80883762e-005 1.80883762e-005
      1.80883762e-005 1.80883762e-005 1.80883762e-005 1.80883762e-005
      1.80883762e-005 1.80883762e-005 1.80883762e-005 1.80883762e-005
      1.80883762e-005 1.80883762e-005 1.80883762e-005 1.80883762e-005
      1.80883762e-005 1.80883762e-005 1.80883762e-005 1.80883762e-005
      1.80883762e-005 1.80883762e-005 1.80883762e-005 1.80883762e-005
      1.80883762e-005 1.80883762e-005 1.80883762e-005 1.80883762e-005
      1.80883762e-005 1.80883762e-005 1.80883762e-005 1.80883762e-005
      2.27644359e-005 1.20397317e-005 1.67924045e-005 2.50989833e-005
      3.92213406e-006 1.66743903e-005 1.76800331e-005 1.91121926e-005
      1.80883762e-005 1.80883762e-005 1.80883762e-005 1.80883762e-005
      1.80883762e-005 1.80883762e-005 1.80883762e-005 1.80883762e-005
      1.80883762e-005 1.80883762e-005 1.80883762e-005 1.80883762e-005
      1.80883762e-005 1.80883762e-005 1.80883762e-005 1.80883762e-005
      1.80883762e-005 1.80883762e-005 1.80883762e-005 1.80883762e-005
      1.80883762e-005 1.80883762e-005 1.80883762e-005 1.80883762e-005
      1.80883762e-005 1.80883762e-005 1.80883762e-005 1.80883762e-005
      1.80883762e-005 1.80883762e-005 1.80883762e-005 1.80883762e-005
      1.80883762e-005 1.80883762e-005 1.80883762e-005 1.80883762e-005
      1.80883762e-005 1.80883762e-005 1.80883762e-005 1.80883762e-005
      1.80883762e-005 1.80883762e-005 1.80883762e-005 1.80883762e-005
      1.80883762e-005 1.80883762e-005 1.80883762e-005 1.80883762e-005
      1.80883762e-005 1.80883762e-005 1.80883762e-005 1.80883762e-005
      1.80883762e-005 1.80883762e-005 1.80883762e-005 1.80883762e-005
      1.80883762e-005 1.80883762e-005 1.80883762e-005 1.80883762e-005
      1.80883762e-005 1.80883762e-005 1.80883762e-005 1.80883762e-005
      1.80883762e-005 1.80883762e-005 1.80883762e-005 1.80883762e-005
      1.80883762e-005 1.80883762e-005 1.80883762e-005 1.80883762e-005
      1.80883762e-005 1.80883762e-005 1.80883762e-005 1.80883762e-005
      1.80883762e-005 1.80883762e-005 1.80883762e-005 1.80883762e-005
      1.80883762e-005 1.80883762e-005 1.80883762e-005 1.80883762e-005
      1.80883762e-005 1.80883762e-005 1.80883762e-005 1.80883762e-005
      1.80883762e-005 1.80883762e-005 1.80883762e-005 1.80883762e-005
      1.80883762e-005 1.80883762e-005 1.80883762e-005 1.80883762e-005
      1.80883762e-005 1.80883762e-005 1.80883762e-005 1.80883762e-005
      1.80883762e-005 1.80883762e-005 1.80883762e-005 1.80883762e-005
      1.80883762e-005 1.80883762e-005 1.80883762e-005 1.80883762e-005
      1.80883762e-005 1.80883762e-005 1.80883762e-005 1.80883762e-005
      1.90738901e-005 1.61680327e-005 1.58624425e-005 1.74636170e-005
      1.89180591e-005 1.62028500e-005 4.40096919e-005 3.43907268e-005
      3.42368730e-005 3.42368730e-005 3.42368730e-005 3.42368730e-005
      3.42368730e-005 3.42368730e-005 3.42368730e-005 3.42368730e-005
      3.42368730e-005 3.42368730e-005 3.42368730e-005 3.42368730e-005
      3.42368730e-005 3.42368730e-005 3.42368730e-005 3.42368730e-005
      3.42368730e-005 3.42368730e-005 3.42368730e-005 3.42368730e-005
      3.42368730e-005 3.42368730e-005 3.42368730e-005 3.42368730e-005
      3.42368730e-005 3.42368730e-005 3.42368730e-005 3.42368730e-005
      3.42368730e-005 3.42368730e-005 3.42368730e-005 3.42368730e-005
      3.42368730e-005 3.42368730e-005 3.42368730e-005 3.42368730e-005
      3.42368730e-005 3.42368730e-005 3.42368730e-005 3.42368730e-005
      3.42368730e-005 3.42368730e-005 3.42368730e-005 3.42368730e-005
      3.42368730e-005 3.42368730e-005 3.42368730e-005 3.42368730e-005
      3.42368730e-005 3.42368730e-005 3.42368730e-005 3.42368730e-005
      3.42368730e-005 3.42368730e-005 3.42368730e-005 3.42368730e-005
      2.54650477e-005 8.88332215e-005 7.59172544e-005 7.40484611e-005
      8.54791360e-005 7.73258798e-005 8.03514704e-005 8.56608967e-005
      8.17200707e-005 8.17200707e-005 8.17200707e-005 8.17200707e-005
      8.17200707e-005 8.17200707e-005 8.17200707e-005 8.17200707e-005
      8.17200707e-005 8.17200707e-005 8.17200707e-005 8.17200707e-005
      8.17200707e-005 8.17200707e-005 8.17200707e-005 8.17200707e-005
      8.17200707e-005 8.17200707e-005 8.17200707e-005 8.17200707e-005
      8.17200707e-005 8.17200707e-005 8.17200707e-005 8.17200707e-005
      8.17200707e-005 8.17200707e-005 8.17200707e-005 8.17200707e-005
      8.17200707e-005 8.17200707e-005 8.17200707e-005 8.17200707e-005
      8.17200707e-005 8.17200707e-005 8.17200707e-005 8.17200707e-005
      8.17200707e-005 8.17200707e-005 8.17200707e-005 8.17200707e-005
      8.17200707e-005 8.17200707e-005 8.17200707e-005 8.17200707e-005
      8.17200707e-005 8.17200707e-005 8.17200707e-005 8.17200707e-005
      8.13179577e-005 8.61720036e-005 8.33886152e-005 -2.45623869e-005
      5.51419987e-007 -2.57289921e-005 -1.49202069e-005 -8.69468386e-006
      -1.33126678e-005 -1.33126678e-005 -1.33126678e-005
      -1.33126678e-005 -1.33126678e-005 -1.33126678e-005
      -1.33126678e-005 -1.33126678e-005 -1.33126678e-005
      -1.33126678e-005 -1.33126678e-005 -1.33126678e-005
      -1.33126678e-005 -1.33126678e-005 -1.33126678e-005
      -1.33126678e-005 -1.33126678e-005 -1.33126678e-005
      -1.33126678e-005 -1.33126678e-005 -1.33126678e-005
      -1.33126678e-005 -1.33126678e-005 -1.33126678e-005
      -1.33126678e-005 -1.33126678e-005 -1.33126678e-005
      -1.33126678e-005 -1.33126678e-005 -1.33126678e-005
      -1.33126678e-005 -1.33126678e-005 -1.33126678e-005
      -1.33126678e-005 -1.33126678e-005 -1.33126678e-005
      -1.33126678e-005 -1.33126678e-005 -1.33126678e-005
      -1.33126678e-005 -1.33126678e-005 -1.33126678e-005
      -1.33126678e-005 -1.33126678e-005 -1.33126678e-005
      -1.33126678e-005 -1.33126678e-005 -1.33126678e-005
      -1.35798882e-005 -1.38444875e-005 -1.04714500e-005
      -1.44675505e-005 8.05932286e-005 7.57800590e-005 8.28753473e-005
      7.60115872e-005 7.76941524e-005 7.76941524e-005 7.76941524e-005
      7.76941524e-005 7.76941524e-005 7.76941524e-005 7.76941524e-005
      7.76941524e-005 7.76941524e-005 7.76941524e-005 7.76941524e-005
      7.76941524e-005 7.76941524e-005 7.76941524e-005 7.76941524e-005
      7.76941524e-005 7.76941524e-005 7.76941524e-005 7.76941524e-005
      7.76941524e-005 7.76941524e-005 7.76941524e-005 7.76941524e-005
      7.76941524e-005 7.76941524e-005 7.76941524e-005 7.76941524e-005
      7.76941524e-005 7.76941524e-005 7.76941524e-005 7.76941524e-005
      7.76941524e-005 7.76941524e-005 7.76941524e-005 7.76941524e-005
      7.76941524e-005 7.76941524e-005 7.76941524e-005 7.76941524e-005
      7.76941524e-005 7.76941524e-005 7.76941524e-005 7.76941524e-005
      7.76941524e-005 7.76941524e-005 7.76941524e-005 7.76941524e-005
      7.76941524e-005 7.61991614e-005 7.60693365e-005 7.26750368e-005
      8.38893902e-005 -2.08614329e-005 -5.08246103e-006 -8.80262087e-006
      -1.23825330e-005 -9.02426927e-006 -9.02426927e-006
      -9.02426927e-006 -9.02426927e-006 -9.02426927e-006
      -9.02426927e-006 -9.02426927e-006 -9.02426927e-006
      -9.02426927e-006 -9.02426927e-006 -9.02426927e-006
      -9.02426927e-006 -9.02426927e-006 -9.02426927e-006
      -9.02426927e-006 -9.02426927e-006 -9.02426927e-006
      -9.02426927e-006 -9.02426927e-006 -9.02426927e-006
      -9.02426927e-006 -9.02426927e-006 -9.02426927e-006
      -9.02426927e-006 -9.02426927e-006 -9.02426927e-006
      -9.02426927e-006 -9.02426927e-006 -9.02426927e-006
      -9.02426927e-006 -9.02426927e-006 -9.02426927e-006
      -9.02426927e-006 -9.02426927e-006 -9.02426927e-006
      -9.02426927e-006 -9.02426927e-006 -9.02426927e-006
      -9.02426927e-006 -9.02426927e-006 -9.02426927e-006
      -9.02426927e-006 -9.02426927e-006 -9.02426927e-006
      -9.02426927e-006 -9.02426927e-006 -9.02426927e-006
      -9.02426927e-006 -6.03968317e-007 -1.19615916e-005
      -2.24655219e-006 1.73481949e-005 1.07551232e-005 1.83165248e-005
      1.61127173e-005 1.45201875e-005 1.80883762e-005 1.80883762e-005
      1.80883762e-005 1.80883762e-005 1.80883762e-005 1.80883762e-005
      1.80883762e-005 1.80883762e-005 1.80883762e-005 1.80883762e-005
      1.80883762e-005 1.80883762e-005 1.80883762e-005 1.80883762e-005
      1.80883762e-005 1.80883762e-005 1.80883762e-005 1.80883762e-005
      1.80883762e-005 1.80883762e-005 1.80883762e-005 1.80883762e-005
      1.80883762e-005 1.80883762e-005 1.80883762e-005 1.72075688e-005
      1.85287809e-005 1.89691855e-005 1.80883762e-005 1.80883762e-005
      1.85287809e-005 1.72075688e-005 1.80883762e-005 1.80883762e-005
      1.85287809e-005 1.76479716e-005 1.76479716e-005 1.85287809e-005
      1.80883762e-005 1.80883762e-005 1.76479716e-005 1.76479716e-005
      1.89691855e-005 1.72075688e-005 1.85287809e-005 1.76479716e-005
      1.76479716e-005 1.89691855e-005 2.32004841e-005 1.25223587e-005
      1.59532919e-005 1.85287809e-005 1.61415664e-005 2.27735854e-005
      2.10119706e-005 1.70358799e-005 1.80883762e-005 1.80883762e-005
      1.80883762e-005 1.80883762e-005 1.80883762e-005 1.80883762e-005
      1.80883762e-005 1.80883762e-005 1.80883762e-005 1.80883762e-005
      1.80883762e-005 1.80883762e-005 1.80883762e-005 1.80883762e-005
      1.80883762e-005 1.80883762e-005 1.80883762e-005 1.80883762e-005
      1.80883762e-005 1.80883762e-005 1.80883762e-005 1.80883762e-005
      1.80883762e-005 1.80883762e-005 1.88633785e-005 1.85287809e-005
      1.76479716e-005 1.80883762e-005 1.80883762e-005 1.85287809e-005
      1.72075688e-005 1.88633785e-005 2.00787854e-005 1.69787745e-005
      1.84229757e-005 1.68729694e-005 1.60979671e-005 2.11883871e-005
      1.73133740e-005 1.85287809e-005 1.89685343e-005 1.59925494e-005
      1.79837753e-005 1.93879059e-005 1.52801840e-005 2.22174203e-005
      1.65998044e-005 1.88007416e-005 1.86126417e-005 1.81722371e-005
      1.81722371e-005 1.86126417e-005 1.86126417e-005 1.77318325e-005
      1.77318325e-005 1.81722371e-005 1.81722371e-005 1.81722371e-005
      1.81722371e-005 1.81722371e-005 1.81722371e-005 1.81722371e-005
      1.81722371e-005 1.81722371e-005 1.81722371e-005 1.81722371e-005
      1.81722371e-005 1.81722371e-005 1.81722371e-005 1.81722371e-005
      1.81722371e-005 1.81722371e-005 1.98280486e-005 1.85068347e-005
      1.69568302e-005 1.70626354e-005 1.65164256e-005 1.90530445e-005
      1.69568302e-005 1.85068347e-005 1.72914279e-005 1.86126417e-005
      1.81722371e-005 1.89472394e-005 1.98280486e-005 1.86126417e-005
      1.72914279e-005 1.81722371e-005 1.72914279e-005 1.78376376e-005
      1.81722371e-005 1.73972348e-005 1.82780423e-005 2.01626463e-005
      1.72914279e-005 1.81722371e-005 1.96087640e-005 1.34433540e-005
      3.02655390e-005 2.62741869e-005 2.39612491e-005 2.49543900e-005
      2.22396247e-005 2.37054901e-005 2.39062920e-005 2.39062920e-005
      2.39062920e-005 2.39062920e-005 2.39062920e-005 2.39062920e-005
      2.39062920e-005 2.39062920e-005 2.39062920e-005 2.39062920e-005
      2.39062920e-005 2.39062920e-005 2.39062920e-005 2.39062920e-005
      2.39062920e-005 2.39062920e-005 2.39062920e-005 2.39062920e-005
      2.39062920e-005 2.39062920e-005 2.39062920e-005 2.39062920e-005
      2.39062920e-005 2.39062920e-005 2.25992026e-005 2.45754891e-005
      2.35716925e-005 2.59883818e-005 2.28883728e-005 2.34658874e-005
      2.45896117e-005 2.41492089e-005 2.37088043e-005 2.58967011e-005
      2.15812834e-005 2.59883818e-005 2.28883728e-005 2.46812942e-005
      2.38146094e-005 2.37088043e-005 1.83308111e-005 1.99552960e-005
      1.98470152e-005 1.37076822e-005 3.28382739e-005 4.56405869e-005
      4.60503579e-005 3.88695917e-005 4.21362674e-005 4.21362674e-005
      4.21362674e-005 4.21362674e-005 4.21362674e-005 4.21362674e-005
      4.21362674e-005 4.21362674e-005 4.21362674e-005 4.21362674e-005
      4.21362674e-005 4.21362674e-005 4.21362674e-005 4.21362674e-005
      4.21362674e-005 4.21362674e-005 4.21362674e-005 4.21362674e-005
      4.21362674e-005 4.21362674e-005 4.21362674e-005 4.21362674e-005
      4.21362674e-005 4.21362674e-005 4.16958610e-005 4.21362674e-005
      4.16958610e-005 4.13612652e-005 4.44612742e-005 4.13612652e-005
      4.36862720e-005 4.01458565e-005 4.16958610e-005 4.22420708e-005
      4.43554673e-005 4.14670685e-005 4.09208587e-005 4.33516725e-005
      3.92650472e-005 4.41266748e-005 4.14501483e-005 3.31459814e-005
      3.45961525e-005 5.94151679e-005 2.06028835e-005 5.78920590e-005
      4.44989455e-005 7.20788148e-006 1.29838972e-005 1.29838972e-005
      1.29838972e-005 1.29838972e-005 1.29838972e-005 1.29838972e-005
      1.29838972e-005 1.29838972e-005 1.29838972e-005 1.29838972e-005
      1.29838972e-005 1.29838972e-005 1.29838972e-005 1.29838972e-005
      1.29838972e-005 1.29838972e-005 1.29838972e-005 1.29838972e-005
      1.29838972e-005 1.29838972e-005 1.29838972e-005 1.29838972e-005
      1.29838972e-005 1.29838972e-005 1.29838972e-005 1.29838972e-005
      1.29838972e-005 1.29838972e-005 1.29838972e-005 1.29838972e-005
      1.29838972e-005 1.29838972e-005 1.29838972e-005 1.29838972e-005
      1.29838972e-005 1.29838972e-005 1.29838972e-005 1.29838972e-005
      1.29838972e-005 1.29838972e-005 1.29838972e-005 1.29838972e-005
      1.29838972e-005 1.29838972e-005 1.29838972e-005 1.29838972e-005
      1.29838972e-005 1.29838972e-005 -5.78836807e-005 -5.78836807e-005
      -5.78836807e-005 -5.78836807e-005 -5.78836807e-005
      -5.78836807e-005 -5.78836807e-005 -5.78836807e-005
      -5.78836807e-005 -5.78836807e-005 -5.78836807e-005
      -5.78836807e-005 -5.78836807e-005 -5.78836807e-005
      -5.78836807e-005 -5.78836807e-005 -5.78836807e-005
      -5.78836807e-005 -5.78836807e-005 -5.78836807e-005
      -5.78836807e-005 -5.78836807e-005 -5.78836807e-005
      -5.78836807e-005 -5.78836807e-005 -5.78836807e-005
      -5.78836807e-005 -5.78836807e-005 -5.78836807e-005
      -5.78836807e-005 -5.78836807e-005 -5.78836807e-005
      -5.78836807e-005 -5.78836807e-005 -5.78836807e-005
      -5.78836807e-005 -5.78836807e-005 -5.78836807e-005
      -5.78836807e-005 -5.78836807e-005 -5.78836807e-005
      -5.78836807e-005 -5.78836807e-005 -5.78836807e-005
      -5.78836807e-005 -5.78836807e-005 -5.78836807e-005
      -5.78836807e-005 1.80883762e-005 1.80883762e-005 1.80883762e-005
      1.80883762e-005 1.80883762e-005 1.80883762e-005 1.80883762e-005
      1.80883762e-005 1.80883762e-005 1.80883762e-005 1.80883762e-005
      1.80883762e-005 1.80883762e-005 1.80883762e-005 1.80883762e-005
      1.80883762e-005 1.80883762e-005 1.80883762e-005 1.80883762e-005
      1.80883762e-005 1.80883762e-005 1.80883762e-005 1.80883762e-005
      1.80883762e-005 1.80883762e-005 1.80883762e-005 1.80883762e-005
      1.80883762e-005 1.80883762e-005 1.80883762e-005 1.80883762e-005
      1.80883762e-005 1.80883762e-005 1.80883762e-005 1.80883762e-005
      1.80883762e-005 1.80883762e-005 1.80883762e-005 1.80883762e-005
      1.80883762e-005 1.80817806e-005 1.89410748e-005 2.07771554e-005
      1.94437307e-005 2.05464967e-005 1.37249117e-005 1.90038900e-005
      2.02805659e-005 1.80883762e-005 1.80883762e-005 1.80883762e-005
      1.80883762e-005 1.80883762e-005 1.80883762e-005 1.80883762e-005
      1.80883762e-005 1.80883762e-005 1.80883762e-005 1.80883762e-005
      1.80883762e-005 1.80883762e-005 1.80883762e-005 1.80883762e-005
      1.80883762e-005 1.80883762e-005 1.80883762e-005 1.80883762e-005
      1.80883762e-005 1.80883762e-005 1.80883762e-005 1.80883762e-005
      1.80883762e-005 1.80883762e-005 1.72075688e-005 1.85287809e-005
      1.80883762e-005 1.80883762e-005 1.76479716e-005 1.85287809e-005
      1.80883762e-005 1.76479716e-005 1.85287809e-005 1.80883762e-005
      1.80883762e-005 1.80883762e-005 1.80883762e-005 1.85287809e-005
      1.76479716e-005 2.59880544e-005 1.64923804e-005 2.12319974e-005
      1.89852362e-005 2.20953207e-005 1.02510967e-005 2.47973439e-005
      1.30343833e-005 1.80883762e-005 1.80883762e-005 1.80883762e-005
      1.80883762e-005 1.80883762e-005 1.80883762e-005 1.80883762e-005
      1.80883762e-005 1.80883762e-005 1.80883762e-005 1.80883762e-005
      1.80883762e-005 1.80883762e-005 1.80883762e-005 1.80883762e-005
      1.80883762e-005 1.97441877e-005 1.84229757e-005 1.68729694e-005
      1.69787745e-005 1.64325647e-005 1.89691855e-005 1.68729694e-005
      1.84229757e-005 1.72075688e-005 1.85287809e-005 1.80883762e-005
      1.88633785e-005 1.97441877e-005 1.85287809e-005 1.72075688e-005
      1.80883762e-005 1.72075688e-005 1.77537786e-005 1.80883762e-005
      1.73133740e-005 1.81941814e-005 2.00787854e-005 1.72075688e-005
      1.80883762e-005 1.61584703e-005 2.11982660e-005 -1.73900048e-006
      1.07004307e-005 4.34747335e-007 1.34034881e-005 3.91507820e-006
      7.78307913e-006 4.23027541e-006 4.23027541e-006 4.23027541e-006
      4.23027541e-006 4.23027541e-006 4.23027541e-006 4.23027541e-006
      4.23027541e-006 4.23027541e-006 4.23027541e-006 4.23027541e-006
      4.23027541e-006 4.23027541e-006 4.23027541e-006 4.23027541e-006
      4.23027541e-006 4.76236119e-006 4.47319189e-006 4.23027541e-006
      4.23027541e-006 4.23027541e-006 4.23027541e-006 4.47319189e-006
      4.76236119e-006 5.53736345e-006 2.92318691e-006 5.00527767e-006
      3.45527269e-006 2.68026997e-006 7.33028537e-006 3.69818940e-006
      3.98735847e-006 1.71368242e-006 1.12899688e-005 3.90353352e-006
      9.08327638e-006 1.35201833e-006 1.70682847e-006 3.32412128e-005
      3.80621750e-005 3.77299730e-005 3.77299730e-005 3.77299730e-005
      3.77299730e-005 3.77299730e-005 3.77299730e-005 3.77299730e-005
      3.77299730e-005 3.77299730e-005 3.77299730e-005 3.77299730e-005
      3.77299730e-005 3.77299730e-005 3.77299730e-005 3.77299730e-005
      3.77299730e-005 3.77299730e-005 3.72441391e-005 3.79728881e-005
      3.82158069e-005 3.77299730e-005 3.77299730e-005 3.79728881e-005
      3.72441391e-005 3.77299730e-005 3.72441391e-005 3.79728881e-005
      3.82158069e-005 3.77299730e-005 3.77299730e-005 3.79728881e-005
      3.72441391e-005 3.79728881e-005 3.74870542e-005 3.79728881e-005
      3.77299730e-005 3.74870542e-005 3.79728881e-005 3.79728881e-005
      3.77299730e-005 3.40475235e-005 -2.28898425e-005 -2.99084859e-005
      -2.91865817e-005 -3.76842581e-005 -2.66251100e-005
      -3.31747324e-005 -2.77408981e-005 -2.97519127e-005
      -2.97519127e-005 -2.97519127e-005 -2.97519127e-005
      -2.97519127e-005 -2.97519127e-005 -2.97519127e-005
      -2.97519127e-005 -2.97519127e-005 -2.97519127e-005
      -2.97519127e-005 -2.97519127e-005 -2.97519127e-005
      -2.97519127e-005 -2.97519127e-005 -2.97519127e-005
      -2.97519127e-005 -2.93115081e-005 -2.93115081e-005
      -3.01923174e-005 -2.97519127e-005 -2.97519127e-005
      -3.01923174e-005 -2.93115081e-005 -2.93115081e-005
      -3.10731230e-005 -2.93115081e-005 -3.01923174e-005
      -2.88711035e-005 -3.06327202e-005 -2.88711035e-005
      -3.01923174e-005 -2.87895818e-005 -1.95448465e-005
      -4.19984462e-005 4.61972304e-005 3.23931054e-005 4.31586741e-005
      4.12938280e-005 4.16988878e-005 4.53868779e-005 4.53868779e-005
      4.53868779e-005 4.53868779e-005 4.53868779e-005 4.53868779e-005
      4.53868779e-005 4.53868779e-005 4.53868779e-005 4.53868779e-005
      4.53868779e-005 4.53868779e-005 4.53868779e-005 4.53868779e-005
      4.53868779e-005 4.53868779e-005 4.48774481e-005 4.48774481e-005
      4.48774481e-005 4.48774481e-005 4.48774481e-005 4.48774481e-005
      4.48774481e-005 4.48774481e-005 4.53868779e-005 4.53868779e-005
      4.53868779e-005 4.53868779e-005 4.53868779e-005 4.53868779e-005
      4.53868779e-005 4.53868779e-005 3.92664988e-005 4.63935467e-005
      4.69068727e-005 3.74643605e-005 -2.08689653e-005 -2.84942980e-005
      -2.92851328e-005 -2.17096695e-005 -2.34163999e-005
      -2.34163999e-005 -2.34163999e-005 -2.34163999e-005
      -2.34163999e-005 -2.34163999e-005 -2.34163999e-005
      -2.34163999e-005 -2.34163999e-005 -2.34163999e-005
      -2.34163999e-005 -2.34163999e-005 -2.34163999e-005
      -2.34163999e-005 -2.34163999e-005 -2.34163999e-005
      -2.34163999e-005 -2.34163999e-005 -2.34163999e-005
      -2.34163999e-005 -2.34163999e-005 -2.34163999e-005
      -2.34163999e-005 -2.34163999e-005 -2.34163999e-005
      -2.34163999e-005 -2.34163999e-005 -2.34163999e-005
      -2.34163999e-005 -2.34163999e-005 -2.34163999e-005
      -2.34163999e-005 -1.35485607e-005 -2.48658580e-005
      -1.90353221e-005 -2.03445634e-005 1.65158435e-005 1.55146517e-005
      1.82206386e-005 6.26131214e-006 1.80883762e-005 1.80883762e-005
      1.80883762e-005 1.80883762e-005 1.80883762e-005 1.80883762e-005
      1.80883762e-005 1.80883762e-005 1.80883762e-005 1.80883762e-005
      1.80883762e-005 1.80883762e-005 1.80883762e-005 1.80883762e-005
      1.80883762e-005 1.80883762e-005 1.80883762e-005 1.80883762e-005
      1.80883762e-005 1.80883762e-005 1.80883762e-005 1.80883762e-005
      1.80883762e-005 1.80883762e-005 1.80883762e-005 1.80883762e-005
      1.80883762e-005 1.80883762e-005 1.80883762e-005 1.80883762e-005
      1.80883762e-005 1.80883762e-005 1.83949323e-005 1.60676482e-005
      1.79833805e-005 1.97846821e-005 1.77541624e-005 2.01714702e-005
      1.55429098e-005 2.06673540e-005 1.80883762e-005 1.80883762e-005
      1.80883762e-005 1.80883762e-005 1.80883762e-005 1.80883762e-005
      1.80883762e-005 1.80883762e-005 1.80883762e-005 1.72075688e-005
      1.85287809e-005 1.89691855e-005 1.80883762e-005 1.80883762e-005
      1.85287809e-005 1.72075688e-005 1.80883762e-005 1.80883762e-005
      1.85287809e-005 1.76479716e-005 1.76479716e-005 1.85287809e-005
      1.80883762e-005 1.80883762e-005 1.76479716e-005 1.76479716e-005
      1.89691855e-005 1.72075688e-005 1.85287809e-005 1.76479716e-005
      1.76479716e-005 1.89691855e-005 2.32126895e-005 4.92678992e-005
      3.14437675e-005 4.94090200e-005 5.24556999e-005 4.92592771e-005
      4.55260670e-005 4.90499988e-005 4.70655868e-005 4.70655868e-005
      4.70655868e-005 4.70655868e-005 4.70655868e-005 4.70655868e-005
      4.70655868e-005 4.70655868e-005 4.78405891e-005 4.75059896e-005
      4.66251840e-005 4.70655868e-005 4.70655868e-005 4.75059896e-005
      4.61847776e-005 4.78405891e-005 4.90559978e-005 4.59559851e-005
      4.74001863e-005 4.58501818e-005 4.50751795e-005 5.01655959e-005
      4.62905846e-005 4.75059896e-005 3.55597149e-005 4.53146422e-005
      4.77269350e-005 4.67695500e-005 4.49150466e-005 5.54045328e-005
      2.88669412e-006 2.44798666e-005 1.80883762e-005 1.80883762e-005
      1.80883762e-005 1.80883762e-005 1.80883762e-005 1.80883762e-005
      1.80883762e-005 1.80883762e-005 1.88633785e-005 1.88633785e-005
      1.80883762e-005 1.65383717e-005 1.73133740e-005 1.80883762e-005
      1.73133740e-005 1.96383808e-005 1.80883762e-005 1.80883762e-005
      1.80883762e-005 1.80883762e-005 1.80883762e-005 1.80883762e-005
      1.80883762e-005 1.80883762e-005 1.88633785e-005 1.73133740e-005
      1.80883762e-005 1.73133740e-005 1.73133740e-005 1.96383808e-005
      1.80883762e-005 1.80883762e-005 1.49825419e-005 2.39409383e-005
      2.76671071e-005 2.60196666e-005 2.57024949e-005 2.46867457e-005
      2.08931942e-005 2.80718705e-005 2.49902205e-005 2.49902205e-005
      2.49902205e-005 2.49902205e-005 2.49902205e-005 2.49902205e-005
      2.49902205e-005 2.49902205e-005 2.52331356e-005 2.41094112e-005
      2.54306233e-005 2.47473035e-005 2.47473035e-005 2.45498159e-005
      2.56735402e-005 2.52331356e-005 2.47927328e-005 2.54306233e-005
      2.49902205e-005 2.47473035e-005 2.47473035e-005 2.49902205e-005
      2.56735402e-005 2.47927328e-005 2.91870783e-005 2.03674044e-005
      2.48739125e-005 2.96731814e-005 3.54427066e-005 7.94753248e-007
      2.43388204e-005 4.80395556e-006 1.11321187e-005 1.11321187e-005
      1.11321187e-005 1.11321187e-005 1.11321187e-005 1.11321187e-005
      1.11321187e-005 1.11321187e-005 1.06917141e-005 1.11321187e-005
      1.06917141e-005 1.11321187e-005 1.11321187e-005 1.11321187e-005
      1.11321187e-005 1.06917141e-005 1.06917141e-005 1.20129271e-005
      1.02513104e-005 1.20129271e-005 1.06917141e-005 1.15725225e-005
      9.81090579e-006 1.15725225e-005 1.30803774e-005 3.13997543e-006
      1.37121488e-005 4.54433984e-006 1.30791368e-005 2.17585766e-005
      3.36220683e-006 -2.28811150e-005 -2.81840839e-005 -2.81840839e-005
      -2.81840839e-005 -2.81840839e-005 -2.81840839e-005
      -2.81840839e-005 -2.81840839e-005 -2.81840839e-005
      -2.81840839e-005 -2.81840839e-005 -2.81840839e-005
      -2.81840839e-005 -2.81840839e-005 -2.81840839e-005
      -2.81840839e-005 -2.81840839e-005 -2.81840839e-005
      -2.81840839e-005 -2.81840839e-005 -2.81840839e-005
      -2.81840839e-005 -2.81840839e-005 -2.81840839e-005
      -2.81840839e-005 -2.81840839e-005 -2.81840839e-005
      -2.81840839e-005 -2.81840839e-005 -2.81840839e-005
      -2.81840839e-005 -2.81840839e-005 -2.81840839e-005
      -2.81840839e-005 -2.81840839e-005 -2.81840839e-005
      -2.81840839e-005 -2.81840839e-005 -2.81840839e-005
      -2.81840839e-005 -2.81840839e-005 -2.81840839e-005
      -2.81840839e-005 -2.81840839e-005 -2.81840839e-005
      -2.81840839e-005 -2.81840839e-005 -2.81840839e-005
      -2.81840839e-005 -2.81840839e-005 -2.81840839e-005
      -2.81840839e-005 -2.81840839e-005 -2.81840839e-005
      -2.81840839e-005 -2.81840839e-005 -2.81840839e-005
      -2.81840839e-005 -2.81840839e-005 -2.81840839e-005
      -2.81840839e-005 -2.81840839e-005 -2.81840839e-005
      -2.81840839e-005 -2.81840839e-005 1.80883762e-005 1.80883762e-005
      1.80883762e-005 1.80883762e-005 1.80883762e-005 1.80883762e-005
      1.80883762e-005 1.80883762e-005 1.80883762e-005 1.80883762e-005
      1.80883762e-005 1.80883762e-005 1.80883762e-005 1.80883762e-005
      1.80883762e-005 1.80883762e-005 1.80883762e-005 1.80883762e-005
      1.80883762e-005 1.80883762e-005 1.80883762e-005 1.80883762e-005
      1.80883762e-005 1.80883762e-005 1.62153920e-005 1.94792174e-005
      1.89107668e-005 2.15610416e-005 1.64325120e-005 1.48951813e-005
      1.79639064e-005 1.93238757e-005 1.80883762e-005 1.80883762e-005
      1.80883762e-005 1.80883762e-005 1.80883762e-005 1.80883762e-005
      1.80883762e-005 1.80883762e-005 1.80883762e-005 1.72075688e-005
      1.85287809e-005 1.80883762e-005 1.80883762e-005 1.76479716e-005
      1.85287809e-005 1.80883762e-005 1.76479716e-005 1.85287809e-005
      1.80883762e-005 1.80883762e-005 1.80883762e-005 1.80883762e-005
      1.85287809e-005 1.76479716e-005 2.27809542e-005 2.01942330e-005
      2.00096565e-005 1.51510794e-005 2.56909898e-005 -2.46328159e-006
      1.34672746e-005 2.66262987e-006 5.96994641e-006 4.64873438e-006
      3.09872894e-006 3.20453455e-006 2.65832500e-006 5.19494370e-006
      3.09872894e-006 4.64873438e-006 3.43332749e-006 4.75453999e-006
      4.31413582e-006 5.08913809e-006 5.96994641e-006 4.75453999e-006
      3.43332749e-006 4.31413582e-006 3.43332749e-006 3.97953727e-006
      4.31413582e-006 3.53913310e-006 4.41994143e-006 6.30454497e-006
      3.43332749e-006 4.31413582e-006 -4.68497592e-006 2.05089964e-006
      2.38098910e-005 1.63807053e-005 2.61414571e-005 1.57020841e-005
      1.73315657e-005 1.73166991e-005 1.88633785e-005 1.85287809e-005
      1.76479716e-005 1.80883762e-005 1.80883762e-005 1.85287809e-005
      1.72075688e-005 1.88633785e-005 1.85422869e-005 1.69787745e-005
      1.84229757e-005 1.84094697e-005 1.76344656e-005 2.11883871e-005
      1.57768754e-005 1.69922823e-005 1.90332066e-005 1.33218864e-005
      1.93365267e-005 2.06755612e-005 2.24403684e-005 1.53033634e-005
      2.15531672e-005 8.26087671e-006 1.80883762e-005 1.67217349e-005
      1.87716978e-005 1.94550175e-005 1.80883762e-005 1.80883762e-005
      1.87716978e-005 1.67217349e-005 1.80883762e-005 1.76025424e-005
      1.87716978e-005 1.81338055e-005 1.76479716e-005 1.85287809e-005
      1.83312932e-005 1.76025424e-005 1.78908886e-005 1.74050547e-005
      1.92121006e-005 1.72075688e-005 1.82858639e-005 1.78908886e-005
      1.78908886e-005 1.89691855e-005 1.61105563e-005 -7.17624571e-005
      -8.25412062e-005 -6.59313664e-005 -7.80562914e-005
      -7.66236626e-005 -7.19561431e-005 -7.26050930e-005
      -7.48014936e-005 -7.48014936e-005 -7.48014936e-005
      -7.48014936e-005 -7.48014936e-005 -7.48014936e-005
      -7.48014936e-005 -7.48014936e-005 -7.48014936e-005
      -7.48014936e-005 -7.48014936e-005 -7.48014936e-005
      -7.48014936e-005 -7.48014936e-005 -7.48014936e-005
      -7.48014936e-005 -7.00987875e-005 -9.00019004e-005
      -7.15082788e-005 7.25362115e-005 7.27015504e-005 6.89903172e-005
      6.75986739e-005 7.94992957e-005 7.26781509e-005 7.26781509e-005
      7.26781509e-005 7.26781509e-005 7.26781509e-005 7.26781509e-005
      7.26781509e-005 7.26781509e-005 7.26781509e-005 7.26781509e-005
      7.26781509e-005 7.26781509e-005 7.26781509e-005 7.26781509e-005
      7.26781509e-005 7.26781509e-005 7.27825900e-005 7.36202928e-005
      7.30123647e-005 7.34124842e-005 4.02154365e-005 4.06155596e-005
      4.00076278e-005 4.08453343e-005 4.05935898e-005 4.05935898e-005
      4.05935898e-005 4.05935898e-005 4.05935898e-005 4.05935898e-005
      4.05935898e-005 4.05935898e-005 4.05935898e-005 4.05935898e-005
      4.05935898e-005 4.05935898e-005 4.05935898e-005 4.05935898e-005
      4.05935898e-005 4.05935898e-005 3.66626555e-005 4.73008949e-005
      4.06396066e-005 3.80281490e-005 2.03578456e-005 1.73998160e-005
      1.13585120e-005 2.31058784e-005 1.80883762e-005 1.80883762e-005
      1.80883762e-005 1.80883762e-005 1.80883762e-005 1.80883762e-005
      1.80883762e-005 1.80883762e-005 1.80883762e-005 1.80883762e-005
      1.80883762e-005 1.80883762e-005 1.80883762e-005 1.80883762e-005
      1.80883762e-005 1.80883762e-005 1.84225901e-005 1.89691855e-005
      1.52526336e-005 2.10175713e-005 1.87568039e-005 1.80756397e-005
      1.78511218e-005 1.98748694e-005 1.80883762e-005 1.80883762e-005
      1.85287809e-005 1.76479716e-005 1.76479716e-005 1.85287809e-005
      1.80883762e-005 1.80883762e-005 1.76479716e-005 1.76479716e-005
      1.89691855e-005 1.72075688e-005 1.85287809e-005 1.76479716e-005
      1.76479716e-005 1.89691855e-005 2.13667972e-005 -3.86879947e-006
      1.46963312e-005 1.07264659e-005 -6.11907399e-006 5.35594791e-006
      2.71977819e-006 1.38908013e-006 6.30454497e-006 3.20453455e-006
      4.64873438e-006 3.09872894e-006 2.32372645e-006 7.41414578e-006
      3.53913310e-006 4.75453999e-006 6.33851232e-006 -3.10487007e-006
      8.41895258e-007 2.84838984e-006 3.89829637e-007 2.47354933e-006
      2.23663628e-005 1.64930061e-005 1.80883762e-005 1.80883762e-005
      1.65518777e-005 1.73268800e-005 1.73268800e-005 1.80883762e-005
      1.96248748e-005 1.96248748e-005 1.96248748e-005 1.88498725e-005
      1.80883762e-005 1.73133740e-005 1.73133740e-005 1.96383808e-005
      1.80883762e-005 1.80883762e-005 1.44373389e-005 1.21513331e-005
      6.35082324e-005 5.73641883e-005 5.39810499e-005 6.13431475e-005
      4.45823207e-005 6.45570763e-005 5.56226878e-005 5.77970786e-005
      5.88931762e-005 5.86502574e-005 5.71137607e-005 5.58201755e-005
      5.80399974e-005 5.71591881e-005 6.19949642e-005 6.24886161e-005
      4.94079504e-005 5.89082920e-005 5.09370184e-005 5.45189650e-005
      6.41574879e-005 6.93310867e-005 6.86140920e-005 6.86140920e-005
      6.86140920e-005 6.86140920e-005 6.86140920e-005 6.86140920e-005
      6.86140920e-005 6.86140920e-005 7.90128688e-005 6.51533192e-005
      6.61998201e-005 7.41540498e-005 6.85891209e-005 8.13464867e-005
      5.82569119e-005 4.96414723e-005 3.19160936e-005 3.59543919e-005
      2.92308487e-005 4.01219513e-005 2.73081168e-005 1.08577762e-004
      1.25747887e-004 5.77770406e-005 2.76798073e-005 2.97647330e-005
      3.29000068e-005 2.49854966e-005 1.18323202e-004 1.07542110e-004
      1.12728660e-004 3.37105339e-005 3.56067176e-005 3.56067176e-005
      3.56067176e-005 3.56067176e-005 3.56067176e-005 3.56067176e-005
      3.56067176e-005 3.56067176e-005 3.56067176e-005 3.56067176e-005
      3.56067176e-005 3.56067176e-005 3.56067176e-005 3.56067176e-005
      3.56067176e-005 3.56067176e-005 2.05686183e-006 2.05686183e-006
      2.05686183e-006 2.05686183e-006 2.05686183e-006 2.05686183e-006
      2.05686183e-006 2.05686183e-006 -4.07973721e-006 1.16139481e-005
      -7.72499516e-006 6.46648687e-006 -3.78860364e-007 4.73085402e-006
      2.56549629e-006 1.26606437e-005 1.76479716e-005 1.85287809e-005
      1.80883762e-005 1.80883762e-005 1.80883762e-005 1.80883762e-005
      1.85287809e-005 1.76479716e-005 1.48638564e-005 1.69770210e-005
      1.51706263e-005 1.74242632e-005 2.44115581e-005 -2.02582687e-005
      -3.07864284e-005 -1.98806210e-005 -2.40152749e-005
      -2.42440674e-005 -2.39094679e-005 -2.46844702e-005
      -2.38036628e-005 -2.19190588e-005 -2.47902772e-005
      -2.39094679e-005 -2.64616501e-005 -2.49647746e-005 1.69115935e-006
      7.50047820e-006 2.26944348e-006 5.75946342e-006 8.34428010e-006
      4.73510272e-006 3.71255351e-006 5.70935299e-006 1.18637881e-005
      -3.05458616e-006 1.68242477e-005 9.05230991e-007 -8.76520935e-005
      -7.88403777e-005 -8.46213661e-005 -9.40199825e-005
      -9.15916316e-005 -9.32952244e-005 -9.47383960e-005
      -9.18581500e-005 -9.27383517e-005 -9.13171243e-005
      -9.26492139e-005 3.59803307e-005 1.96989586e-005 2.55001924e-005
      3.19326064e-005 2.84739090e-005 3.72107206e-005 3.94344097e-005
      2.43204777e-005 3.97683834e-005 2.76381961e-005 5.20316353e-005
      5.50983641e-005 5.67862407e-005 4.38289971e-005 4.37652925e-005
      4.54821202e-005 5.46030824e-005 4.83963559e-005 4.96141220e-005
      6.76783748e-005 6.69466535e-005 6.28681737e-005 7.14504422e-005
      6.58759309e-005 7.37938026e-005 6.80137018e-005 7.65215445e-005
      -5.13874111e-005 -4.11320761e-005 -4.68110520e-005
      -4.31199660e-005 -4.36932714e-005 -3.30943549e-005
      -4.54306246e-005 -1.06697107e-005 -7.06645505e-006
      -5.02883131e-006 -1.19263377e-005 2.18453579e-006 -1.71575684e-005
      1.53006458e-005 2.29693469e-005 1.68939350e-005 2.60130455e-005
      1.38213209e-005 1.93784599e-005 2.48860379e-005 1.95208468e-005
      1.19511642e-005 -3.00663873e-004 -2.83310335e-004 -3.07426701e-004
      -2.40908805e-004 -2.34708335e-004 4.87357393e-005 1.31537563e-005
      1.31537563e-005 1.31537563e-005 1.31537563e-005 1.31537563e-005
      1.31537563e-005 1.31537563e-005 1.31537563e-005 1.31537563e-005
      1.23787540e-005 1.47037617e-005 1.16037509e-005 1.39287586e-005
      1.31537563e-005 1.31537563e-005 1.23787540e-005 1.31537563e-005
      1.31537563e-005 1.31537563e-005 1.31537563e-005 1.31537563e-005
      1.31537563e-005 1.31537563e-005 1.31537563e-005 1.16037509e-005
      1.62537672e-005 1.08287486e-005 1.31537563e-005 1.54787631e-005
      1.23787540e-005 1.39287586e-005 1.23787540e-005 1.31537563e-005
      1.31537563e-005 1.31537563e-005 1.31537563e-005 1.31537563e-005
      1.31537563e-005 1.31537563e-005 1.31537563e-005 1.23787540e-005
      1.31537563e-005 1.31537563e-005 1.39287586e-005 1.16037509e-005
      1.47037617e-005 1.23787540e-005 1.31537563e-005 1.31537563e-005
      1.31537563e-005 1.31537563e-005 1.31537563e-005 1.31537563e-005
      1.31537563e-005 1.31537563e-005 1.31537563e-005 5.07633422e-006
      2.90748703e-005 9.40774316e-006 1.46616976e-005 9.64594801e-006
      6.41613997e-006 1.24885482e-005 -2.58123425e-008 -3.36268477e-006
      -3.36268477e-006 -3.36268477e-006 -3.36268477e-006
      -3.36268477e-006 -3.36268477e-006 -3.36268477e-006
      -3.36268477e-006 -3.36268477e-006 -3.36268477e-006
      -3.36268477e-006 -3.36268477e-006 -3.36268477e-006
      -3.36268477e-006 -3.36268477e-006 -3.36268477e-006
      -3.36268477e-006 -3.36268477e-006 -3.36268477e-006
      -3.36268477e-006 -3.36268477e-006 -3.36268477e-006
      -3.36268477e-006 -3.36268477e-006 -3.36268477e-006
      -3.36268477e-006 -3.36268477e-006 -3.36268477e-006
      -3.36268477e-006 -3.36268477e-006 -3.36268477e-006
      -3.36268477e-006 -3.36268477e-006 -3.36268477e-006
      -3.36268477e-006 -3.36268477e-006 -3.36268477e-006
      -3.36268477e-006 -3.36268477e-006 -3.36268477e-006
      -3.36268477e-006 -3.36268477e-006 -3.36268477e-006
      -3.36268477e-006 -3.36268477e-006 -3.36268477e-006
      -3.36268477e-006 -3.36268477e-006 -3.36268477e-006
      -3.36268477e-006 -3.36268477e-006 -3.36268477e-006
      -3.36268477e-006 -3.36268477e-006 -3.36268477e-006
      -3.36268477e-006 -9.11641746e-006 7.52083270e-006 -1.29391958e-006
      -9.33177762e-006 5.13698205e-006 -5.05451644e-005 -6.63203973e-005
      -5.00240385e-005 -5.32007762e-005 -5.32007762e-005
      -5.32007762e-005 -5.32007762e-005 -5.32007762e-005
      -5.32007762e-005 -5.32007762e-005 -5.32007762e-005
      -5.32007762e-005 -5.32007762e-005 -5.32007762e-005
      -5.32007762e-005 -5.32007762e-005 -5.32007762e-005
      -5.32007762e-005 -5.32007762e-005 -5.32007762e-005
      -5.32007762e-005 -5.32007762e-005 -5.32007762e-005
      -5.32007762e-005 -5.32007762e-005 -5.32007762e-005
      -5.32007762e-005 -5.32007762e-005 -5.32007762e-005
      -5.32007762e-005 -5.32007762e-005 -5.32007762e-005
      -5.32007762e-005 -5.32007762e-005 -5.32007762e-005
      -5.32007762e-005 -5.32007762e-005 -5.32007762e-005
      -5.32007762e-005 -5.32007762e-005 -5.32007762e-005
      -5.32007762e-005 -5.32007762e-005 -5.32007762e-005
      -5.32007762e-005 -5.32007762e-005 -5.32007762e-005
      -5.32007762e-005 -5.32007762e-005 -5.32007762e-005
      -5.32007762e-005 -5.32007762e-005 -5.32007762e-005
      -5.32007762e-005 -5.32007762e-005 -5.32007762e-005
      -5.32007762e-005 -5.32007762e-005 -5.32007762e-005
      -5.00663919e-005 -6.37697449e-005 2.41627076e-005 1.94561508e-005
      -4.65044423e-006 1.73064127e-005 1.12222360e-005 2.01978655e-005
      8.62360775e-006 8.62360775e-006 8.62360775e-006 8.62360775e-006
      8.62360775e-006 8.62360775e-006 8.62360775e-006 8.62360775e-006
      8.62360775e-006 8.62360775e-006 8.62360775e-006 8.62360775e-006
      8.62360775e-006 8.62360775e-006 8.62360775e-006 8.62360775e-006
      8.62360775e-006 8.62360775e-006 8.62360775e-006 8.62360775e-006
      8.62360775e-006 8.62360775e-006 8.62360775e-006 8.62360775e-006
      8.62360775e-006 8.62360775e-006 8.62360775e-006 8.62360775e-006
      8.62360775e-006 8.62360775e-006 8.62360775e-006 8.62360775e-006
      8.62360775e-006 8.62360775e-006 8.62360775e-006 8.62360775e-006
      8.62360775e-006 8.62360775e-006 8.62360775e-006 8.62360775e-006
      8.62360775e-006 8.62360775e-006 8.62360775e-006 8.62360775e-006
      8.62360775e-006 8.62360775e-006 8.62360775e-006 8.62360775e-006
      6.71003909e-006 1.34174552e-005 7.98358360e-006 8.61955050e-006
      5.42663747e-006 9.70179826e-006 -2.14471784e-005 -1.39739732e-005
      -1.79310719e-005 -1.79310719e-005 -1.79310719e-005
      -1.79310719e-005 -1.79310719e-005 -1.79310719e-005
      -1.79310719e-005 -1.79310719e-005 -1.79310719e-005
      -1.79310719e-005 -1.79310719e-005 -1.79310719e-005
      -1.79310719e-005 -1.79310719e-005 -1.79310719e-005
      -1.79310719e-005 -1.79310719e-005 -1.79310719e-005
      -1.79310719e-005 -1.79310719e-005 -1.79310719e-005
      -1.79310719e-005 -1.79310719e-005 -1.79310719e-005
      -1.79310719e-005 -1.79310719e-005 -1.79310719e-005
      -1.79310719e-005 -1.79310719e-005 -1.79310719e-005
      -1.79310719e-005 -1.79310719e-005 -1.79310719e-005
      -1.79310719e-005 -1.79310719e-005 -1.79310719e-005
      -1.79310719e-005 -1.79310719e-005 -1.79310719e-005
      -1.79310719e-005 -1.79310719e-005 -1.79310719e-005
      -1.79310719e-005 -1.79310719e-005 -1.79310719e-005
      -1.79310719e-005 -1.79310719e-005 -1.79310719e-005
      -1.79310719e-005 -1.79310719e-005 -1.79310719e-005
      -1.79310719e-005 -1.79310719e-005 -1.79310719e-005
      -1.79310719e-005 -1.79310719e-005 -1.78704522e-005 9.46609362e-005
      8.00529306e-005 7.27028018e-005 9.53152849e-005 7.32046828e-005
      7.68108148e-005 9.22929685e-005 8.21633439e-005 8.21633439e-005
      8.21633439e-005 8.21633439e-005 8.21633439e-005 8.21633439e-005
      8.21633439e-005 8.21633439e-005 8.33495433e-005 8.00615744e-005
      8.84551409e-005 8.35578248e-005 7.79085094e-005 8.66069749e-005
      7.77135647e-005 8.61251174e-005 8.29383425e-005 8.21633439e-005
      8.21633439e-005 8.29383425e-005 8.29383425e-005 8.13883380e-005
      8.13883380e-005 8.13883380e-005 8.21633439e-005 8.21633439e-005
      8.21633439e-005 8.21633439e-005 8.21633439e-005 8.21633439e-005
      8.21633439e-005 8.21633439e-005 8.78522187e-005 8.19234265e-005
      7.96630629e-005 7.90266786e-005 7.60257753e-005 8.41994843e-005
      8.56837360e-005 8.27193217e-005 8.13883380e-005 8.13883380e-005
      8.13883380e-005 8.30279387e-005 8.30279387e-005 8.21633439e-005
      8.20737478e-005 8.28487537e-005 8.61414592e-005 7.66805824e-005
      7.67410966e-005 -3.38321552e-005 -4.62962234e-005 -6.03129702e-005
      -3.29371251e-005 -4.63916149e-005 -4.54886249e-005
      -4.54886249e-005 -4.54886249e-005 -4.54886249e-005
      -4.54886249e-005 -4.54886249e-005 -4.54886249e-005
      -4.54886249e-005 -4.54886249e-005 -4.54886249e-005
      -4.54886249e-005 -4.54886249e-005 -4.54886249e-005
      -4.54886249e-005 -4.54886249e-005 -4.54886249e-005
      -4.54886249e-005 -4.54886249e-005 -4.54886249e-005
      -4.54886249e-005 -4.54886249e-005 -4.54886249e-005
      -4.54886249e-005 -4.54886249e-005 -4.54886249e-005
      -4.54886249e-005 -4.54886249e-005 -4.54886249e-005
      -4.54886249e-005 -4.54886249e-005 -4.54886249e-005
      -4.54886249e-005 -4.54886249e-005 -4.54886249e-005
      -4.54886249e-005 -4.54886249e-005 -4.54886249e-005
      -4.54886249e-005 -4.54886249e-005 -4.54886249e-005
      -4.54886249e-005 -4.54886249e-005 -4.54886249e-005
      -4.54886249e-005 -4.54886249e-005 -4.54886249e-005
      -4.54886249e-005 -4.54886249e-005 -4.06981126e-005
      -3.83460902e-005 -4.82845790e-005 -5.38107561e-005 6.80138837e-005
      6.26778274e-005 5.50026161e-005 5.51064477e-005 5.77589490e-005
      5.77589490e-005 5.77589490e-005 5.77589490e-005 5.77589490e-005
      5.77589490e-005 5.77589490e-005 5.77589490e-005 5.77589490e-005
      5.77589490e-005 5.77589490e-005 5.77589490e-005 5.77589490e-005
      5.77589490e-005 5.77589490e-005 5.77589490e-005 5.77589490e-005
      5.77589490e-005 5.77589490e-005 5.77589490e-005 5.77589490e-005
      5.77589490e-005 5.77589490e-005 5.77589490e-005 5.77589490e-005
      5.77589490e-005 5.77589490e-005 5.77589490e-005 5.77589490e-005
      5.77589490e-005 5.77589490e-005 5.77589490e-005 5.77589490e-005
      5.77589490e-005 5.77589490e-005 5.77589490e-005 5.77589490e-005
      5.77589490e-005 5.77589490e-005 5.77589490e-005 5.77589490e-005
      5.77589490e-005 5.77589490e-005 5.77589490e-005 5.77589490e-005
      5.77589490e-005 5.77589490e-005 5.77589490e-005 5.87610375e-005
      6.07346919e-005 5.51974008e-005 5.79549560e-005 7.04944068e-006
      1.41508381e-005 8.92591834e-006 9.16676163e-006 8.53974780e-006
      8.53974780e-006 8.53974780e-006 8.53974780e-006 8.53974780e-006
      8.53974780e-006 8.53974780e-006 8.53974780e-006 8.53974780e-006
      8.53974780e-006 8.53974780e-006 8.53974780e-006 8.53974780e-006
      8.53974780e-006 8.53974780e-006 8.53974780e-006 8.53974780e-006
      8.53974780e-006 8.53974780e-006 8.53974780e-006 8.53974780e-006
      8.53974780e-006 8.53974780e-006 8.53974780e-006 8.53974780e-006
      8.53974780e-006 8.53974780e-006 8.53974780e-006 8.53974780e-006
      8.53974780e-006 8.53974780e-006 8.53974780e-006 8.53974780e-006
      8.53974780e-006 8.53974780e-006 8.53974780e-006 8.53974780e-006
      8.53974780e-006 8.53974780e-006 8.53974780e-006 8.53974780e-006
      8.53974780e-006 8.53974780e-006 8.53974780e-006 8.53974780e-006
      8.53974780e-006 8.53974780e-006 8.53974780e-006 1.03096072e-005
      7.48959337e-006 5.89026013e-006 1.11579084e-005 4.43362342e-006
      9.00257510e-006 6.79224331e-006 7.69457347e-006 8.62360775e-006
      8.62360775e-006 8.62360775e-006 8.62360775e-006 8.62360775e-006
      8.62360775e-006 8.62360775e-006 8.62360775e-006 8.62360775e-006
      8.62360775e-006 8.62360775e-006 8.62360775e-006 8.62360775e-006
      8.62360775e-006 8.62360775e-006 8.62360775e-006 8.62360775e-006
      8.62360775e-006 8.62360775e-006 8.62360775e-006 8.62360775e-006
      8.62360775e-006 8.62360775e-006 8.62360775e-006 8.62360775e-006
      8.62360775e-006 8.62360775e-006 8.62360775e-006 8.62360775e-006
      8.62360775e-006 8.62360775e-006 8.62360775e-006 8.62360775e-006
      8.62360775e-006 8.62360775e-006 8.62360775e-006 8.62360775e-006
      8.62360775e-006 8.62360775e-006 8.62360775e-006 8.62360775e-006
      8.62360775e-006 8.62360775e-006 8.62360775e-006 8.62360775e-006
      8.62360775e-006 8.62360775e-006 8.62360775e-006 4.97439851e-006
      5.33693219e-006 6.25096709e-006 9.18445312e-006 4.26713541e-006
      1.24642456e-005 2.12972691e-006 1.41124801e-005 8.62360775e-006
      8.62360775e-006 8.62360775e-006 8.62360775e-006 8.62360775e-006
      8.62360775e-006 8.62360775e-006 8.62360775e-006 8.47889260e-006
      8.70607619e-006 7.62142190e-006 1.06279804e-005 6.61923605e-006
      9.17142734e-006 9.62579452e-006 8.76119884e-006 8.62360775e-006
      8.62360775e-006 8.62360775e-006 8.62360775e-006 8.62360775e-006
      8.62360775e-006 8.62360775e-006 8.62360775e-006 9.48820343e-006
      8.85079135e-006 8.16924148e-006 7.07360277e-006 1.06279804e-005
      7.75901299e-006 8.62360775e-006 8.94038476e-006 8.62360775e-006
      8.62360775e-006 8.62360775e-006 8.62360775e-006 8.62360775e-006
      8.62360775e-006 8.62360775e-006 8.62360775e-006 7.81270774e-006
      3.64629454e-006 9.04099670e-006 6.89077581e-007 1.36036806e-005
      1.16299998e-005 -3.67067078e-005 -3.03344168e-005 -3.55822776e-005
      -3.55822776e-005 -3.55822776e-005 -3.55822776e-005
      -3.55822776e-005 -3.55822776e-005 -3.55822776e-005
      -3.55822776e-005 -3.55822776e-005 -3.55822776e-005
      -3.55822776e-005 -3.55822776e-005 -3.55822776e-005
      -3.55822776e-005 -3.55822776e-005 -3.55822776e-005
      -3.55822776e-005 -3.55822776e-005 -3.55822776e-005
      -3.55822776e-005 -3.55822776e-005 -3.55822776e-005
      -3.55822776e-005 -3.55822776e-005 -3.55822776e-005
      -3.55822776e-005 -3.55822776e-005 -3.55822776e-005
      -3.55822776e-005 -3.55822776e-005 -3.55822776e-005
      -3.55822776e-005 -3.55822776e-005 -3.55822776e-005
      -3.55822776e-005 -3.55822776e-005 -3.55822776e-005
      -3.55822776e-005 -3.55822776e-005 -3.55822776e-005
      -3.55822776e-005 -3.55822776e-005 -3.55822776e-005
      -3.55822776e-005 -3.55822776e-005 -3.55822776e-005
      -3.55822776e-005 -3.55822776e-005 -3.44479340e-005
      -3.77662182e-005 -9.11977186e-005 -1.17425181e-004
      -1.00274476e-004 -1.17507487e-004 -9.48336092e-005
      -8.61282460e-005 -1.03359387e-004 -1.03359387e-004
      -1.03359387e-004 -1.03359387e-004 -1.03359387e-004
      -1.03359387e-004 -1.03359387e-004 -1.03359387e-004
      -1.03359387e-004 -1.03359387e-004 -1.03359387e-004
      -1.03359387e-004 -1.03359387e-004 -1.03359387e-004
      -1.03359387e-004 -1.03359387e-004 -1.03359387e-004
      -1.03359387e-004 -1.03359387e-004 -1.03359387e-004
      -1.03359387e-004 -1.03359387e-004 -1.03359387e-004
      -1.03359387e-004 -1.03359387e-004 -1.03359387e-004
      -1.03359387e-004 -1.03359387e-004 -1.03359387e-004
      -1.03359387e-004 -1.03359387e-004 -1.03359387e-004
      -1.03359387e-004 -1.03359387e-004 -1.03359387e-004
      -1.03359387e-004 -1.03359387e-004 -1.03359387e-004
      -1.03359387e-004 -1.03359387e-004 -1.05200415e-004
      -9.54336501e-005 -1.03154547e-004 -1.05132713e-004
      -1.06989828e-004 -4.58447576e-005 -5.10829741e-005
      -5.47870332e-005 -5.32007762e-005 -5.32007762e-005
      -5.32007762e-005 -5.32007762e-005 -5.32007762e-005
      -5.32007762e-005 -5.32007762e-005 -5.32007762e-005
      -5.32007762e-005 -5.32007762e-005 -5.32007762e-005
      -5.32007762e-005 -5.32007762e-005 -5.32007762e-005
      -5.32007762e-005 -5.32007762e-005 -5.32007762e-005
      -5.32007762e-005 -5.32007762e-005 -5.32007762e-005
      -5.32007762e-005 -5.32007762e-005 -5.32007762e-005
      -5.32007762e-005 -5.32007762e-005 -5.32007762e-005
      -5.32007762e-005 -5.32007762e-005 -5.32007762e-005
      -5.32007762e-005 -5.32007762e-005 -5.32007762e-005
      -5.32007762e-005 -5.32007762e-005 -5.32007762e-005
      -5.32007762e-005 -5.32007762e-005 -5.32007762e-005
      -5.32007762e-005 -5.32007762e-005 -4.15798640e-005
      -4.93609332e-005 -6.20674764e-005 -4.48634091e-005
      -4.59322655e-005 -5.20471731e-005 -5.20863141e-005 2.17409979e-005
      2.00243230e-005 2.00243230e-005 2.00243230e-005 2.00243230e-005
      2.00243230e-005 2.00243230e-005 2.00243230e-005 2.00243230e-005
      2.00243230e-005 2.00243230e-005 2.00243230e-005 2.00243230e-005
      2.00243230e-005 2.00243230e-005 2.00243230e-005 2.00243230e-005
      2.00243230e-005 2.00243230e-005 2.00243230e-005 2.00243230e-005
      2.00243230e-005 2.00243230e-005 2.00243230e-005 2.00243230e-005
      2.00243230e-005 2.00243230e-005 2.00243230e-005 2.00243230e-005
      2.00243230e-005 2.00243230e-005 2.00243230e-005 2.00243230e-005
      2.00243230e-005 2.00243230e-005 2.00243230e-005 2.00243230e-005
      2.00243230e-005 2.00243230e-005 2.00243230e-005 2.00243230e-005
      2.00243230e-005 2.00243230e-005 2.00243230e-005 2.00243230e-005
      2.00243230e-005 2.00243230e-005 2.00243230e-005 2.00243230e-005
      1.25947394e-004 1.25947394e-004 1.25947394e-004 1.25947394e-004
      1.25947394e-004 1.25947394e-004 1.25947394e-004 1.25947394e-004
      1.25947394e-004 1.26181942e-004 1.25857798e-004 1.25863502e-004
      1.25684310e-004 1.26036990e-004 1.26092345e-004 1.26036990e-004
      1.25947394e-004 1.25947394e-004 1.25947394e-004 1.25947394e-004
      1.25947394e-004 1.25947394e-004 1.25947394e-004 1.25947394e-004
      1.25947394e-004 1.25947394e-004 1.25947394e-004 1.25947394e-004
      1.25947394e-004 1.25947394e-004 1.26036990e-004 1.25947394e-004
      1.26092345e-004 1.26092345e-004 1.26092345e-004 1.26092345e-004
      1.26092345e-004 1.26092345e-004 1.26092345e-004 1.26092345e-004
      1.26036990e-004 1.25947394e-004 1.25947394e-004 1.25947394e-004
      1.25947394e-004 1.25857798e-004 1.25947394e-004 1.26036990e-004
      8.62360775e-006 8.62360775e-006 8.62360775e-006 8.62360775e-006
      8.62360775e-006 8.62360775e-006 8.62360775e-006 8.62360775e-006
      8.62360775e-006 8.62360775e-006 8.62360775e-006 8.62360775e-006
      8.62360775e-006 8.62360775e-006 8.62360775e-006 8.62360775e-006
      8.62360775e-006 8.62360775e-006 8.62360775e-006 8.62360775e-006
      8.62360775e-006 8.62360775e-006 8.62360775e-006 8.62360775e-006
      8.62360775e-006 8.62360775e-006 8.62360775e-006 8.62360775e-006
      8.62360775e-006 8.62360775e-006 8.62360775e-006 8.62360775e-006
      8.62360775e-006 8.62360775e-006 8.62360775e-006 8.62360775e-006
      8.62360775e-006 8.62360775e-006 8.62360775e-006 8.62360775e-006
      9.53050312e-006 1.14796721e-005 4.02961314e-006 6.94657865e-006
      8.80061270e-006 1.03019356e-005 1.41436276e-005 -3.36143676e-005
      -3.83585830e-005 -3.83585830e-005 -3.83585830e-005
      -3.83585830e-005 -3.83585830e-005 -3.83585830e-005
      -3.83585830e-005 -3.83585830e-005 -3.83585830e-005
      -3.83585830e-005 -3.83585830e-005 -3.83585830e-005
      -3.83585830e-005 -3.83585830e-005 -3.83585830e-005
      -3.83585830e-005 -3.83585830e-005 -3.83585830e-005
      -3.83585830e-005 -3.83585830e-005 -3.83585830e-005
      -3.83585830e-005 -3.83585830e-005 -3.83585830e-005
      -3.83585830e-005 -3.83585830e-005 -3.83585830e-005
      -3.83585830e-005 -3.83585830e-005 -3.83585830e-005
      -3.83585830e-005 -3.83585830e-005 -3.83585830e-005
      -3.83585830e-005 -3.83585830e-005 -3.83585830e-005
      -3.83585830e-005 -3.83585830e-005 -3.83585830e-005
      -3.83585830e-005 -3.10288378e-005 -3.56367382e-005
      -3.34137221e-005 -3.58452889e-005 -3.58421021e-005 5.55330043e-005
      5.59725268e-005 4.82756768e-005 5.38588392e-005 5.38588392e-005
      5.38588392e-005 5.38588392e-005 5.38588392e-005 5.38588392e-005
      5.38588392e-005 5.38588392e-005 5.38588392e-005 5.38588392e-005
      5.38588392e-005 5.38588392e-005 5.38588392e-005 5.38588392e-005
      5.38588392e-005 5.38588392e-005 5.38588392e-005 5.38588392e-005
      5.38588392e-005 5.38588392e-005 5.38588392e-005 5.38588392e-005
      5.38588392e-005 5.38588392e-005 5.38588392e-005 5.38588392e-005
      5.38588392e-005 5.38588392e-005 5.38588392e-005 5.38588392e-005
      5.38588392e-005 5.38588392e-005 5.38588392e-005 5.38588392e-005
      5.38588392e-005 5.38588392e-005 5.38588392e-005 5.38588392e-005
      5.38588392e-005 5.38588392e-005 4.52078275e-005 5.56729465e-005
      -2.82776432e-006 -9.29348607e-006 1.08419454e-005 -7.14698899e-007
      -7.27534552e-006 -2.84194607e-006 -3.36268477e-006
      -3.36268477e-006 -3.36268477e-006 -3.36268477e-006
      -3.36268477e-006 -3.36268477e-006 -3.36268477e-006
      -3.36268477e-006 -3.36268477e-006 -3.36268477e-006
      -3.36268477e-006 -3.36268477e-006 -3.36268477e-006
      -3.36268477e-006 -3.36268477e-006 -3.36268477e-006
      -3.36268477e-006 -3.36268477e-006 -3.36268477e-006
      -3.36268477e-006 -3.36268477e-006 -3.36268477e-006
      -3.36268477e-006 -3.36268477e-006 -3.36268477e-006
      -3.36268477e-006 -3.36268477e-006 -3.36268477e-006
      -3.36268477e-006 -3.36268477e-006 -3.36268477e-006
      -3.36268477e-006 -3.40519000e-006 -7.44394220e-006
      -1.95511404e-007 1.10636620e-005 -8.96101483e-006 -6.80599305e-006
      1.18971502e-005 -1.05265588e-006 8.62360775e-006 8.62360775e-006
      8.62360775e-006 8.62360775e-006 8.62360775e-006 8.62360775e-006
      8.62360775e-006 8.62360775e-006 8.62360775e-006 8.62360775e-006
      8.62360775e-006 8.62360775e-006 8.62360775e-006 8.62360775e-006
      8.62360775e-006 8.62360775e-006 8.62360775e-006 8.62360775e-006
      8.62360775e-006 8.62360775e-006 8.62360775e-006 8.62360775e-006
      8.62360775e-006 8.62360775e-006 8.62360775e-006 8.62360775e-006
      8.62360775e-006 8.62360775e-006 8.62360775e-006 8.62360775e-006
      8.62360775e-006 8.62360775e-006 8.62360775e-006 8.62360775e-006
      8.62360775e-006 8.62360775e-006 8.62360775e-006 8.62360775e-006
      8.62360775e-006 8.62360775e-006 3.66001541e-006 -7.36735892e-005
      -9.26037974e-005 -7.52935084e-005 -7.62640557e-005
      -7.50372346e-005 -6.49641297e-005 -7.34989080e-005
      -7.23973062e-005 -7.36817383e-005 -7.36817383e-005
      -7.33937341e-005 -7.30292595e-005 -7.45792640e-005
      -7.45792640e-005 -7.52621781e-005 -7.38042654e-005
      -7.38042654e-005 -7.38042654e-005 -7.38042654e-005
      -7.38042654e-005 -7.38042654e-005 -7.38042654e-005
      -7.38042654e-005 -7.42586271e-005 -7.10248860e-005
      -7.38042654e-005 -7.43520795e-005 -7.38042654e-005
      -7.48064485e-005 -7.35770809e-005 -7.48064485e-005
      -7.51172192e-005 -7.49437386e-005 -7.49437386e-005
      -7.28843079e-005 -7.28843079e-005 -7.36593065e-005
      -7.38042654e-005 -7.37121736e-005 -7.68835307e-005
      -7.59865870e-005 -7.35822759e-005 1.08924733e-005 8.72126930e-006
      1.75810637e-005 7.31445823e-007 1.54648733e-005 8.62360775e-006
      8.62360775e-006 8.62360775e-006 8.62360775e-006 8.62360775e-006
      8.62360775e-006 8.62360775e-006 8.62360775e-006 8.62360775e-006
      8.62360775e-006 8.62360775e-006 8.62360775e-006 8.62360775e-006
      8.62360775e-006 8.62360775e-006 8.62360775e-006 8.62360775e-006
      8.62360775e-006 8.62360775e-006 8.62360775e-006 8.62360775e-006
      8.62360775e-006 8.62360775e-006 8.62360775e-006 8.62360775e-006
      8.62360775e-006 8.62360775e-006 8.62360775e-006 8.62360775e-006
      8.62360775e-006 8.62360775e-006 8.62360775e-006 5.79866037e-006
      3.03219713e-006 3.48371373e-006 2.73389905e-005 -6.53899260e-005
      -4.37672170e-005 -4.21990735e-005 -4.78019974e-005
      -4.69545121e-005 -4.69545121e-005 -4.69545121e-005
      -4.69545121e-005 -4.69545121e-005 -4.69545121e-005
      -4.69545121e-005 -4.69545121e-005 -4.69545121e-005
      -4.69545121e-005 -4.69545121e-005 -4.69545121e-005
      -4.69545121e-005 -4.69545121e-005 -4.69545121e-005
      -4.69545121e-005 -4.69545121e-005 -4.69545121e-005
      -4.69545121e-005 -4.69545121e-005 -4.69545121e-005
      -4.69545121e-005 -4.69545121e-005 -4.69545121e-005
      -4.69545121e-005 -4.69545121e-005 -4.69545121e-005
      -4.69545121e-005 -4.69545121e-005 -4.69545121e-005
      -4.69545121e-005 -4.69545121e-005 -4.15090399e-005
      -4.78221955e-005 -3.79182566e-005 -4.32122906e-005
      -6.46259796e-005 -6.48325295e-005 -5.83908150e-005
      -6.50864167e-005 -6.14670425e-005 -6.22420412e-005
      -6.22420412e-005 -6.14670425e-005 -6.14670425e-005
      -6.30170471e-005 -6.30170471e-005 -6.22420412e-005
      -6.22420412e-005 -6.22420412e-005 -6.22420412e-005
      -6.22420412e-005 -6.22420412e-005 -6.22420412e-005
      -6.22420412e-005 -6.22420412e-005 -6.22420412e-005
      -5.99170344e-005 -6.22420412e-005 -6.30170471e-005
      -6.22420412e-005 -6.30170471e-005 -6.22420412e-005
      -6.30170471e-005 -6.22420412e-005 -6.30170471e-005
      -6.30170471e-005 -6.14670425e-005 -6.14670425e-005
      -6.22420412e-005 -6.22420412e-005 -6.14670425e-005
      -5.39349858e-005 -7.21899851e-005 -4.90656021e-005
      -4.17707452e-005 -4.11399851e-005 -4.17094852e-005
      -4.20870638e-005 -4.68606850e-005 -3.67179782e-005
      -3.67179782e-005 -3.67179782e-005 -3.67179782e-005
      -3.67179782e-005 -3.67179782e-005 -3.67179782e-005
      -3.67179782e-005 -3.74929805e-005 -3.74929805e-005
      -3.74929805e-005 -3.59429760e-005 -3.59429760e-005
      -3.67179782e-005 -3.67179782e-005 -3.59429760e-005
      -3.67179782e-005 -3.67179782e-005 -3.67179782e-005
      -3.67179782e-005 -3.67179782e-005 -3.67179782e-005
      -3.67179782e-005 -3.67179782e-005 -3.74929805e-005
      -3.67179782e-005 -3.67179782e-005 -3.59429760e-005
      -3.82679827e-005 -3.51679701e-005 -3.74929805e-005
      -3.67179782e-005 -4.18418604e-005 4.06874933e-005 1.72536675e-005
      2.90843309e-005 3.64862899e-005 1.82919794e-005 3.16635233e-005
      2.89559903e-005 2.50604426e-005 2.50604426e-005 2.50604426e-005
      2.50604426e-005 2.50604426e-005 2.50604426e-005 2.50604426e-005
      2.50604426e-005 2.50604426e-005 2.50604426e-005 2.50604426e-005
      2.50604426e-005 2.50604426e-005 2.50604426e-005 2.50604426e-005
      2.50604426e-005 2.50604426e-005 2.50604426e-005 2.50604426e-005
      2.50604426e-005 2.50604426e-005 2.50604426e-005 2.50604426e-005
      2.50604426e-005 3.58297839e-005 1.88984613e-005 3.11521217e-005
      3.54109507e-005 2.09414247e-005 2.46487307e-005 -1.45757484e-004
      -1.66382655e-004 -1.55362533e-004 -1.55362533e-004
      -1.55362533e-004 -1.55362533e-004 -1.55362533e-004
      -1.55362533e-004 -1.55362533e-004 -1.55362533e-004
      -1.55507485e-004 -1.55507485e-004 -1.55507485e-004
      -1.55507485e-004 -1.55507485e-004 -1.55507485e-004
      -1.55507485e-004 -1.55507485e-004 -1.55362533e-004
      -1.55362533e-004 -1.55362533e-004 -1.55362533e-004
      -1.55362533e-004 -1.55362533e-004 -1.55362533e-004
      -1.55871952e-004 -1.55507485e-004 -1.55507485e-004
      -1.55507485e-004 -1.55507485e-004 -1.55507485e-004
      -1.55507485e-004 -1.55507485e-004 -1.55507485e-004
      -1.61700518e-004 -1.49585569e-004 -6.62919847e-005
      -4.68391518e-005 -6.48586574e-005 -5.79842635e-005
      -6.30136929e-005 -7.13894187e-005 -5.75056692e-005
      -5.75056692e-005 -5.75056692e-005 -5.75056692e-005
      -5.75056692e-005 -5.75056692e-005 -5.75056692e-005
      -5.75056692e-005 -5.75056692e-005 -5.75056692e-005
      -5.75056692e-005 -5.75056692e-005 -5.75056692e-005
      -5.75056692e-005 -5.75056692e-005 -5.75056692e-005
      -5.73607140e-005 -5.73607140e-005 -5.73607140e-005
      -5.73607140e-005 -5.73607140e-005 -5.73607140e-005
      -5.73607140e-005 -5.73607140e-005 -5.23419294e-005
      -5.83789733e-005 -6.87093343e-005 -4.90909042e-005
      -6.20250867e-005 5.13834821e-005 3.65195665e-005 3.74134434e-005
      4.09811582e-005 4.09811582e-005 4.09811582e-005 4.09811582e-005
      4.09811582e-005 4.09811582e-005 4.09811582e-005 4.09811582e-005
      4.09811582e-005 4.09811582e-005 4.09811582e-005 4.09811582e-005
      4.09811582e-005 4.09811582e-005 4.09811582e-005 4.09811582e-005
      4.11261135e-005 4.11261135e-005 4.11261135e-005 4.11261135e-005
      4.11261135e-005 4.11261135e-005 4.11261135e-005 4.11261135e-005
      2.78324133e-005 4.49415638e-005 3.95711068e-005 4.19775170e-005
      4.58666436e-005 4.00206882e-005 3.39143371e-005 9.52450227e-006
      9.38495123e-006 9.38495123e-006 9.38495123e-006 9.38495123e-006
      9.38495123e-006 9.38495123e-006 9.38495123e-006 9.38495123e-006
      9.38495123e-006 9.38495123e-006 9.38495123e-006 9.38495123e-006
      9.38495123e-006 9.38495123e-006 9.38495123e-006 9.38495123e-006
      9.38495123e-006 9.38495123e-006 9.38495123e-006 9.38495123e-006
      9.38495123e-006 9.38495123e-006 9.38495123e-006 9.38495123e-006
      9.38495123e-006 9.38495123e-006 9.38495123e-006 9.38495123e-006
      9.38495123e-006 9.38495123e-006 9.38495123e-006 9.38495123e-006
      1.03026532e-005 1.03026532e-005 1.03026532e-005 1.03026532e-005
      1.03026532e-005 1.03026532e-005 1.03026532e-005 1.03026532e-005
      9.52765095e-006 1.24920680e-005 1.01493788e-005 3.06250536e-006
      6.63191122e-006 6.38892561e-006 9.18337082e-006 1.26995310e-005
      1.03026532e-005 1.03026532e-005 1.03026532e-005 1.03026532e-005
      1.03026532e-005 1.03026532e-005 1.03026532e-005 1.03026532e-005
      1.11672489e-005 1.03026532e-005 1.03026532e-005 8.75264777e-006
      1.18526586e-005 9.43805753e-006 1.03026532e-005 1.03922466e-005
      8.08952609e-006 8.08952609e-006 8.08952609e-006 8.08952609e-006
      8.08952609e-006 8.08952609e-006 8.08952609e-006 8.08952609e-006
      8.08952609e-006 8.08952609e-006 8.08952609e-006 8.08952609e-006
      8.08952609e-006 8.08952609e-006 8.08952609e-006 8.08952609e-006
      8.08952609e-006 8.08952609e-006 8.08952609e-006 8.08952609e-006
      8.08952609e-006 8.08952609e-006 8.08952609e-006 8.08952609e-006
      8.48592117e-006 9.32300372e-006 1.23831333e-005 1.38406413e-005
      6.53024983e-007 4.12651480e-006 1.37784882e-005 8.17241471e-006
      8.62360775e-006 8.62360775e-006 8.62360775e-006 8.62360775e-006
      8.62360775e-006 8.62360775e-006 8.62360775e-006 8.62360775e-006
      8.62360775e-006 8.62360775e-006 8.62360775e-006 8.62360775e-006
      8.62360775e-006 8.62360775e-006 8.62360775e-006 8.62360775e-006
      8.62360775e-006 8.62360775e-006 8.62360775e-006 8.62360775e-006
      8.62360775e-006 8.62360775e-006 8.62360775e-006 8.62360775e-006
      8.96330766e-006 8.43463113e-006 9.01887051e-006 1.23809596e-005
      6.75047249e-006 -3.27490525e-005 -3.40835832e-005 -2.84599319e-005
      -3.12690972e-005 -3.12690972e-005 -3.12690972e-005
      -3.12690972e-005 -3.12690972e-005 -3.12690972e-005
      -3.12690972e-005 -3.12690972e-005 -3.13586897e-005
      -3.13586897e-005 -3.12690972e-005 -3.11795047e-005
      -3.11795047e-005 -3.12690972e-005 -3.12690972e-005
      -3.12690972e-005 -3.12690972e-005 -3.12690972e-005
      -3.12690972e-005 -3.12690972e-005 -3.12690972e-005
      -3.12690972e-005 -3.11795047e-005 -3.12690972e-005
      -3.25246510e-005 -3.13719647e-005 6.38357051e-006 5.15266584e-006
      7.16109662e-006 1.00063689e-005 8.84929705e-006 6.20407627e-006
      8.65802940e-006 8.65802940e-006 8.65802940e-006 8.65802940e-006
      8.65802940e-006 8.65802940e-006 8.65802940e-006 8.65802940e-006
      8.65802940e-006 8.65802940e-006 8.65802940e-006 8.65802940e-006
      8.65802940e-006 8.65802940e-006 8.65802940e-006 8.65802940e-006
      9.97146071e-006 -3.24757070e-006 1.26573359e-005 4.16176408e-006
      1.04080245e-005 7.84281565e-006 -4.62914795e-005 -5.23929230e-005
      -4.86385434e-005 -4.86385434e-005 -4.86385434e-005
      -4.86385434e-005 -4.86385434e-005 -4.86385434e-005
      -4.86385434e-005 -4.86385434e-005 -4.86385434e-005
      -4.86385434e-005 -4.86385434e-005 -4.86385434e-005
      -4.86385434e-005 -4.86385434e-005 -4.86385434e-005
      -4.86385434e-005 -4.86385434e-005 -4.86385434e-005
      -4.86385434e-005 -4.86385434e-005 -4.86385434e-005
      -4.86385434e-005 -4.86385434e-005 -4.86385434e-005
      -4.56944035e-005 6.85294654e-005 9.33934643e-005 1.01130245e-004
      8.50296565e-005 7.83966607e-005 9.61192709e-005 7.44599311e-005
      8.46075418e-005 8.46075418e-005 8.46075418e-005 8.46075418e-005
      8.46075418e-005 8.46075418e-005 8.46075418e-005 8.46075418e-005
      8.46075418e-005 8.46075418e-005 8.46075418e-005 8.46075418e-005
      8.46075418e-005 8.46075418e-005 8.46075418e-005 8.46075418e-005
      8.44713868e-005 7.99919799e-005 8.78722494e-005 -5.84911249e-005
      -4.80730887e-005 -5.90880190e-005 -5.50641817e-005
      -6.00304229e-005 -5.69543190e-005 -5.88652365e-005
      -5.51771300e-005 -5.96402388e-005 -5.64064976e-005
      -5.74086844e-005 -5.69543190e-005 -5.84108711e-005
      -5.74086844e-005 -5.74086844e-005 -5.74086844e-005
      -5.74086844e-005 -5.74086844e-005 -5.74086844e-005
      -5.74086844e-005 -5.74086844e-005 -6.11809519e-005
      -6.34819735e-005 -5.32131635e-005 -5.18904890e-005 7.97638277e-005
      8.13179504e-005 8.92883691e-005 8.71105804e-005 8.46075418e-005
      8.46075418e-005 8.46075418e-005 8.46075418e-005 8.46075418e-005
      8.46075418e-005 8.46075418e-005 8.46075418e-005 8.46075418e-005
      8.46075418e-005 8.46075418e-005 8.46075418e-005 8.46075418e-005
      8.46075418e-005 8.46075418e-005 8.46075418e-005 8.24105300e-005
      8.07921460e-005 8.14328159e-005 9.85101869e-005 4.38739517e-005
      6.18023842e-005 6.12249423e-005 6.05147579e-005 5.77589490e-005
      5.77589490e-005 5.77589490e-005 5.77589490e-005 5.77589490e-005
      5.77589490e-005 5.77589490e-005 5.77589490e-005 5.77589490e-005
      5.77589490e-005 5.77589490e-005 5.77589490e-005 5.77589490e-005
      5.77589490e-005 5.77589490e-005 5.77589490e-005 6.31532821e-005
      5.41776935e-005 6.67079585e-005 1.85505041e-006 6.44707779e-006
      1.01645583e-005 9.69560278e-006 1.34083266e-005 8.62360775e-006
      8.62360775e-006 8.62360775e-006 8.62360775e-006 8.62360775e-006
      8.62360775e-006 8.62360775e-006 8.62360775e-006 8.62360775e-006
      8.62360775e-006 8.62360775e-006 8.62360775e-006 8.62360775e-006
      8.62360775e-006 8.62360775e-006 8.62360775e-006 5.49152537e-006
      -2.19752856e-005 -2.08210022e-005 -1.56895039e-005
      -2.42978131e-005 -1.46842549e-005 -2.30006863e-005
      -1.77068832e-005 -1.79310719e-005 -1.79310719e-005
      -1.79310719e-005 -1.79310719e-005 -1.79310719e-005
      -1.79310719e-005 -1.79310719e-005 -1.79310719e-005
      -1.20223158e-005 -3.25762121e-005 -1.03344282e-005
      -2.25682306e-005 -1.20334062e-005 -1.14087843e-005 9.15140554e-005
      7.97950925e-005 8.33606318e-005 8.33606318e-005 8.33606318e-005
      8.33606318e-005 8.33606318e-005 8.33606318e-005 8.33606318e-005
      8.33606318e-005 8.33606318e-005 8.33606318e-005 8.33606318e-005
      8.33606318e-005 8.33606318e-005 8.33606318e-005 8.33606318e-005
      8.33606318e-005 9.08016591e-005 6.51322262e-005 3.10113501e-005
      1.90802875e-005 8.97494192e-006 3.82411417e-006 1.60725485e-005
      1.26224882e-006 1.31537563e-005 1.31537563e-005 1.31537563e-005
      1.31537563e-005 1.31537563e-005 1.31537563e-005 1.31537563e-005
      1.31537563e-005 1.91353793e-005 1.42101126e-005 1.72140221e-006
      -2.28687259e-006 2.24596442e-005 -6.20190840e-005 -6.18249032e-005
      -5.84425470e-005 -6.11164724e-005 -6.11164724e-005
      -6.11164724e-005 -6.11164724e-005 -6.11164724e-005
      -6.11164724e-005 -6.11164724e-005 -6.11164724e-005
      -5.74359910e-005 -5.85978160e-005 -6.61231607e-005
      -4.06538202e-005 -7.12078836e-005 -5.93125769e-005
      -4.92379113e-005 -5.20144158e-006 -2.22549673e-007
      -2.22549673e-007 -2.22549673e-007 -2.22549673e-007
      -2.22549673e-007 -2.22549673e-007 -2.22549673e-007
      -2.22549673e-007 -2.22549673e-007 -2.22549673e-007
      -2.22549673e-007 -2.22549673e-007 -2.22549673e-007
      -2.22549673e-007 -2.22549673e-007 -2.22549673e-007 8.62360775e-006
      8.62360775e-006 8.62360775e-006 8.62360775e-006 8.62360775e-006
      8.62360775e-006 8.62360775e-006 8.62360775e-006 8.62360775e-006
      8.62360775e-006 8.62360775e-006 8.62360775e-006 8.62360775e-006
      8.62360775e-006 8.62360775e-006 8.62360775e-006 8.53974780e-006
      8.53974780e-006 8.53974780e-006 8.53974780e-006 8.53974780e-006
      8.53974780e-006 8.53974780e-006 8.53974780e-006 6.25982238e-006
      3.13771898e-006 1.93933029e-005 1.39985104e-005 9.75062267e-006
      -1.91577033e-006 2.92308341e-005 -5.12879924e-005 -4.23430211e-005
      -4.23430211e-005 -4.23430211e-005 -4.23430211e-005
      -4.23430211e-005 -4.23430211e-005 -4.23430211e-005
      -4.23430211e-005 -4.94102824e-005 -4.03601298e-005
      -4.17177871e-005 -4.07218067e-005 -5.67602656e-005 3.23984423e-005
      -1.33254821e-006 1.61615990e-005 8.62360775e-006 8.62360775e-006
      8.62360775e-006 8.62360775e-006 8.62360775e-006 8.62360775e-006
      8.62360775e-006 8.62360775e-006 8.24652852e-006 1.87003698e-005
      -5.32024715e-005 -4.07366497e-005 -3.18613311e-005
      -3.99154160e-005 -3.09927855e-005 -3.71678470e-005
      -3.71678470e-005 -2.97341012e-005 -4.14758360e-005
      -3.22376145e-005 -4.19953358e-005 -5.16420514e-005 1.77978673e-005
      8.54826158e-006 8.62360775e-006 8.62360775e-006 8.62360775e-006
      8.62360775e-006 8.62360775e-006 8.62360775e-006 8.62360775e-006
      8.62360775e-006 8.47403226e-006 9.67745746e-006 6.23715596e-006
      9.64832088e-006 1.17366608e-005 6.38896108e-006 1.06267171e-005
      9.46393538e-006 9.48771867e-006 5.78701156e-006 8.70874101e-006
      5.22698792e-006 1.37580546e-005 1.12239113e-005 4.37853987e-006
      1.07607484e-005 8.27296026e-006 1.10571955e-005 1.27700387e-005
      7.55546125e-006 5.70338998e-005 5.65187402e-005 5.87711365e-005
      5.89287592e-005 5.78022155e-005 6.07543552e-005 5.74547375e-005
      5.69816002e-005 -3.85646235e-005 -3.25192232e-005 -3.52082425e-005
      -3.66923923e-005 -3.90683854e-005 -3.37736747e-005
      -3.83314509e-005 6.95118342e-006 7.10339737e-006 8.94458026e-006
      6.94164373e-006 1.00812586e-005 7.88471243e-006 -1.38648556e-005
      -1.66582449e-005 -1.86420275e-005 -8.21307549e-006
      -1.85988902e-005 -7.80537011e-005 -6.22600855e-005
      -6.41597289e-005 -5.62114983e-005 -7.03158075e-005
      -6.97964788e-005 -8.24137751e-005 1.55439793e-005 1.33092617e-005
      3.39871531e-006</_></support_vectors>
  <decision_functions>
    <_>
      <sv_count>1</sv_count>
      <rho>1.3435972007624175e+000</rho>
      <alpha>
        1.</alpha>
      <index>
        0</index></_></decision_functions></my_svm>
</opencv_storage>
