<?xml version="1.0"?>
<opencv_storage>
<my_svm type_id="opencv-ml-svm">
  <svm_type>C_SVC</svm_type>
  <kernel><type>LINEAR</type></kernel>
  <C>1.</C>
  <term_criteria><epsilon>2.2204460492503131e-016</epsilon>
    <iterations>100</iterations></term_criteria>
  <var_all>4544</var_all>
  <var_count>4544</var_count>
  <class_count>2</class_count>
  <class_labels type_id="opencv-matrix">
    <rows>1</rows>
    <cols>2</cols>
    <dt>i</dt>
    <data>
      14 255</data></class_labels>
  <sv_total>1</sv_total>
  <support_vectors>
    <_>
      1.48052891e-006 2.60382421e-006 2.05913079e-006 1.87904868e-006
      7.55753376e-007 2.41636462e-006 1.48052891e-006 0.
      -1.77578045e-007 1.48052891e-006 1.93238566e-006 -1.39645069e-008
      4.51856607e-007 -7.82418908e-007 -2.35030870e-006 -2.35030870e-006
      2.53049802e-006 1.46766422e-006 1.03245554e-006 -1.87459662e-007
      0. 5.63733010e-007 9.98941800e-007 1.89255036e-006 4.37541121e-006
      8.63230298e-007 9.34106026e-007 1.98405473e-006 3.46458364e-006
      2.58386012e-006 7.26208160e-009 7.73284853e-007 -1.23427549e-006
      -1.10980231e-007 2.60382421e-006 1.12329531e-006 0. 0.
      -1.23427549e-006 1.18208902e-006 1.67562064e-006 1.67562064e-006
      2.79105438e-006 2.85151577e-006 2.23872894e-006 1.11543375e-006 0.
      1.48052891e-006 -1.08717336e-006 -8.99713712e-007 1.12329531e-006
      1.12329531e-006 1.12329531e-006 2.60382421e-006 1.12329531e-006
      2.24659061e-006 0. -1.21512784e-007 -1.21512784e-007 0. 0. 0. 0.
      -1.21512784e-007 2.60382421e-006 2.60382421e-006 1.72165267e-006
      0. 0. 0. 0. 0. 1.82181634e-006 0. 1.12329531e-006 1.12329531e-006
      1.12329531e-006 9.54070060e-007 9.54070060e-007 9.54070060e-007 0.
      0. 0. 1.12329531e-006 1.12329531e-006 0. 0. 0. 1.12329531e-006
      1.12329531e-006 0. 1.12329531e-006 1.12329531e-006 1.12329531e-006
      0. 0. 1.12329531e-006 1.12329531e-006 1.12329531e-006
      1.12329531e-006 0. 0. -1.21512784e-007 -1.21512784e-007 0. 0. 0.
      -1.23427549e-006 -1.23427549e-006 0. 0. 0. 1.12329531e-006
      1.48052891e-006 1.48052891e-006 1.48052891e-006 1.48052891e-006
      2.60382421e-006 1.48052891e-006 1.48052891e-006 0. 0. 0. 0. 0. 0.
      0. 0. 0. 0. 0. 0. 0. 0. 0. 0. 0. 0. 0. 0. 0. 0. 0. 0. 0. 0. 0. 0.
      0. 0. 0. 0. 0. 0. 0. 0. 0. 0. 0. 0. 0. 0. 0. 0. 0. 0. 0. 0. 0. 0.
      0. 0. 0. 0. 0. 0. 0. 0. 0. 0. 0. 0. 0. 0. 0. 0. 0. 0. 0. 0. 0. 0.
      0. 0. 0. 0. 0. 0. 0. 0. 0. 0. 0. 0. 0. 0. 0. 0. 0. 0. 0. 0. 0. 0.
      0. 0. 0. 0. 0. 0. 0. 0. 0. 0. 0. 0. 0. 0. 0. 0. 0. 0. 0. 0. 0. 0.
      0. 0. 0. 0. 0. 0. 0. 0. 0. 0. 0. 0. 0. 0. 0. 0. 0. 0. 0. 0.
      1.04097103e-006 9.65985350e-007 -3.39915050e-006 -4.64015147e-006
      -6.14679493e-006 -5.29399495e-006 6.97617168e-007 6.75249510e-007
      -5.43642000e-006 -3.37226857e-006 -5.76925959e-006
      -3.96864334e-006 -3.79673702e-006 -2.07376661e-006
      -4.73839634e-007 -2.57342572e-006 -6.71874932e-006
      -4.98257032e-006 -4.34468438e-006 -5.10805467e-006
      -7.73142801e-006 -7.34135392e-006 -1.36457436e-006
      -3.59760293e-006 -5.01427166e-006 -5.03861384e-006
      -2.54483302e-006 -4.50564767e-006 -3.73289083e-007 1.44852720e-006
      -6.00222393e-007 -1.28877866e-006 2.42503484e-006 -1.04863574e-007
      -2.22284348e-006 -3.13417308e-006 -6.92193271e-006
      -2.23660027e-006 -4.47331274e-007 -1.34704499e-006
      -7.99422025e-007 -1.80310644e-006 -3.91211188e-006
      -1.19965961e-007 -1.10753729e-006 -1.55594182e-006
      -7.40188000e-007 1.01766932e-006 -1.50810948e-007 2.54279348e-006
      -1.33619881e-006 -6.57083683e-006 -3.33027310e-006
      -9.22528614e-007 -3.15797001e-006 -5.86970282e-006
      -1.54347856e-006 1.31444392e-006 5.54831422e-006 4.59231705e-006
      3.33805724e-006 4.01906618e-006 2.59458352e-006 1.36946744e-006
      2.08787856e-006 1.94526206e-006 -2.50634093e-006 7.75191822e-008
      1.68435565e-006 2.17792217e-006 3.61644567e-007 -3.90019113e-006
      -3.79907851e-006 -1.86425984e-006 -1.34495565e-006 4.51705944e-007
      4.42788746e-007 -6.94231233e-007 1.66098232e-006 -1.69282407e-006
      -3.73407516e-007 5.00053943e-007 5.60963201e-007 1.03307926e-007
      4.29045940e-007 3.94423887e-006 2.30020578e-006 3.82743838e-006
      -4.25041162e-006 -2.15529167e-006 -2.15092200e-006
      -6.04070465e-006 -5.01724287e-007 3.52928032e-006 1.86185719e-006
      -3.78697132e-006 -1.74186971e-006 -1.07029518e-006 2.95180007e-006
      1.27863211e-006 1.38749533e-006 -5.57095632e-007 3.99339257e-007
      1.68000736e-006 2.61805781e-006 3.04578498e-006 4.28621206e-006
      2.82485507e-006 2.08060851e-006 1.35818289e-006 1.18391370e-006
      5.09923029e-006 4.98529971e-006 2.10064991e-006 2.75706020e-006
      2.63554739e-006 4.27890745e-006 3.86656166e-006 4.92819436e-006
      4.05037008e-006 1.67865801e-006 1.63411516e-006 1.82157476e-006
      2.12701161e-006 1.01129422e-006 -1.23427549e-006 -5.34262881e-007
      6.25713710e-007 -2.26478869e-006 -2.82852170e-006 -1.63428103e-006
      1.96141900e-006 4.13766384e-006 3.21259404e-006 1.48580270e-007
      -2.51247934e-006 4.28842213e-006 6.08865003e-006 5.44673776e-006
      4.36449591e-006 4.59855482e-006 6.08229175e-006 3.76314597e-006
      5.42422367e-006 5.32879085e-006 3.98805105e-006 4.18997888e-006
      4.83504664e-006 4.27548457e-006 3.46739648e-006 3.71373994e-006
      3.19242031e-006 1.43660793e-006 2.25355029e-006 -3.20665299e-006
      -4.98704685e-006 -1.18121216e-006 -6.61060028e-007 5.17382119e-008
      -3.71644796e-006 -2.20795823e-006 -3.81394955e-007 1.08176266e-006
      2.15929981e-006 1.60685306e-006 -4.10119219e-006 -2.38895541e-006
      2.73167825e-006 -5.89262345e-006 -4.89716513e-006 4.12331883e-006
      7.37301036e-007 2.04928810e-007 1.86760997e-006 -1.93475762e-006
      -5.56825580e-006 1.27261512e-006 4.07434709e-006 5.83050451e-007
      1.12132341e-006 -1.71882289e-006 -5.15118927e-007 -1.29658062e-007
      2.69976226e-006 2.78557792e-007 1.64281619e-006 3.90148585e-007
      -1.33595063e-006 -8.44238457e-007 1.16963167e-006 9.32916748e-007
      -1.00581906e-006 -1.83697040e-008 -5.29901035e-006
      -2.76798596e-006 2.03347258e-006 1.56316582e-006 -3.94947665e-006
      -2.70895339e-006 1.85480064e-006 3.97842632e-006 2.34808726e-006
      2.94233672e-007 9.62917738e-007 -2.79744609e-006 -3.35219329e-006
      -1.77248648e-006 -4.62305820e-007 8.57072791e-007 1.75678656e-006
      2.39829774e-006 1.79366054e-006 1.27805515e-006 -1.88838953e-006
      -3.57382669e-006 -3.09098391e-006 2.60178012e-006 6.20492131e-007
      1.80632398e-007 1.71011595e-006 3.09142638e-006 4.24322366e-007
      -4.48688934e-006 -1.05596177e-006 1.03024081e-006 -1.91062963e-006
      -3.58625016e-006 -1.18806076e-006 -3.04093624e-006
      -2.27688929e-006 1.77074060e-006 3.00182592e-006 1.31513343e-006
      -4.34600315e-006 -2.19751450e-006 1.05170031e-007 5.46495755e-007
      4.10030771e-006 -1.72450029e-006 -2.64219238e-006 -3.13963619e-006
      1.41456184e-007 -1.70411045e-006 -1.70411045e-006 -1.85064721e-006
      -2.94511165e-006 -3.68079236e-006 -4.35099128e-006
      -6.27029124e-007 3.30335297e-007 -7.06141066e-007 -2.12701161e-006
      -4.47844883e-007 -2.46253478e-007 -1.12384407e-006
      -2.28382078e-006 -5.56557497e-005 -5.56557497e-005
      -5.56557497e-005 -5.56557497e-005 -5.56557497e-005
      -5.56557497e-005 -5.56557497e-005 -5.56557497e-005
      -5.56557497e-005 -5.56557497e-005 -5.56557497e-005
      -5.56557497e-005 -5.56557497e-005 -5.56557497e-005
      -5.56557497e-005 -5.56557497e-005 -5.56557497e-005
      -5.56557497e-005 -5.56557497e-005 -5.56557497e-005
      -5.56557497e-005 -5.56557497e-005 -5.56557497e-005
      -5.56557497e-005 -5.56557497e-005 -5.56557497e-005
      -5.56557497e-005 -5.56557497e-005 -5.56557497e-005
      -5.56557497e-005 -5.56557497e-005 -5.56557497e-005
      -5.56557497e-005 -5.56557497e-005 -5.56557497e-005
      -5.56557497e-005 -5.56557497e-005 -5.56557497e-005
      -5.56557497e-005 -5.56557497e-005 -5.56557497e-005
      -5.56557497e-005 -5.56557497e-005 -5.56557497e-005
      -5.56557497e-005 -5.56557497e-005 -5.56557497e-005
      -5.56557497e-005 -5.56557497e-005 -5.56557497e-005
      -5.56557497e-005 -5.56557497e-005 -5.56557497e-005
      -5.56557497e-005 -5.56557497e-005 -5.56557497e-005
      -5.27916454e-005 -5.69748081e-005 -6.42256782e-005
      -4.74415028e-005 -5.80182859e-005 -4.63145770e-005
      -5.07362711e-005 -2.35330244e-005 -1.78352511e-005
      -1.78352511e-005 -1.78352511e-005 -1.78352511e-005
      -1.78352511e-005 -1.78352511e-005 -1.78352511e-005
      -1.78352511e-005 -1.78352511e-005 -1.78352511e-005
      -1.78352511e-005 -1.78352511e-005 -1.78352511e-005
      -1.78352511e-005 -1.78352511e-005 -1.78352511e-005
      -1.78352511e-005 -1.78352511e-005 -1.78352511e-005
      -1.78352511e-005 -1.78352511e-005 -1.78352511e-005
      -1.78352511e-005 -1.78352511e-005 -1.78352511e-005
      -1.78352511e-005 -1.78352511e-005 -1.78352511e-005
      -1.78352511e-005 -1.78352511e-005 -1.78352511e-005
      -1.78352511e-005 -1.78352511e-005 -1.78352511e-005
      -1.78352511e-005 -1.78352511e-005 -1.78352511e-005
      -1.78352511e-005 -1.78352511e-005 -1.78352511e-005
      -1.78352511e-005 -1.78352511e-005 -1.78352511e-005
      -1.78352511e-005 -1.78352511e-005 -1.78352511e-005
      -1.78352511e-005 -1.78352511e-005 -1.78352511e-005
      -1.78352511e-005 -1.78352511e-005 -1.78352511e-005
      -1.78352511e-005 -1.78352511e-005 -1.78352511e-005
      -1.78352511e-005 -2.05618126e-005 -1.43469078e-005
      -2.97049937e-005 -1.75558598e-005 -2.86876038e-005 6.12911208e-006
      5.84863358e-007 4.81956613e-006 3.65662089e-007 3.65662089e-007
      3.65662089e-007 3.65662089e-007 3.65662089e-007 3.65662089e-007
      3.65662089e-007 3.65662089e-007 3.65662089e-007 3.65662089e-007
      3.65662089e-007 3.65662089e-007 3.65662089e-007 3.65662089e-007
      3.65662089e-007 3.65662089e-007 3.65662089e-007 3.65662089e-007
      3.65662089e-007 3.65662089e-007 3.65662089e-007 3.65662089e-007
      3.65662089e-007 3.65662089e-007 3.65662089e-007 3.65662089e-007
      3.65662089e-007 3.65662089e-007 3.65662089e-007 3.65662089e-007
      3.65662089e-007 3.65662089e-007 3.65662089e-007 3.65662089e-007
      3.65662089e-007 3.65662089e-007 3.65662089e-007 3.65662089e-007
      3.65662089e-007 3.65662089e-007 3.65662089e-007 3.65662089e-007
      3.65662089e-007 3.65662089e-007 3.65662089e-007 3.65662089e-007
      3.65662089e-007 3.65662089e-007 3.65662089e-007 3.65662089e-007
      3.65662089e-007 3.65662089e-007 3.65662089e-007 3.65662089e-007
      3.65662089e-007 3.65662089e-007 3.65662089e-007 3.65662089e-007
      3.65662089e-007 3.65662089e-007 3.65662089e-007 3.65662089e-007
      3.65662089e-007 3.65662089e-007 3.65662089e-007 3.65662089e-007
      3.65662089e-007 3.65662089e-007 3.65662089e-007 3.65662089e-007
      3.65662089e-007 3.65662089e-007 3.65662089e-007 3.65662089e-007
      3.65662089e-007 3.65662089e-007 3.65662089e-007 3.65662089e-007
      3.65662089e-007 3.65662089e-007 3.65662089e-007 3.65662089e-007
      3.65662089e-007 3.65662089e-007 3.65662089e-007 3.65662089e-007
      3.65662089e-007 3.65662089e-007 3.65662089e-007 3.65662089e-007
      3.65662089e-007 3.65662089e-007 3.65662089e-007 3.65662089e-007
      3.65662089e-007 3.65662089e-007 3.65662089e-007 3.65662089e-007
      3.65662089e-007 3.65662089e-007 3.65662089e-007 3.65662089e-007
      3.65662089e-007 3.65662089e-007 3.65662089e-007 3.65662089e-007
      3.65662089e-007 3.65662089e-007 3.65662089e-007 3.65662089e-007
      3.65662089e-007 3.65662089e-007 1.29974751e-006 1.32138894e-006
      1.07560959e-006 -2.37960444e-006 -1.27837086e-006 3.13257010e-006
      3.41028281e-005 4.10348985e-005 3.94567942e-005 3.94567942e-005
      3.94567942e-005 3.94567942e-005 3.94567942e-005 3.94567942e-005
      3.94567942e-005 3.94567942e-005 3.94567942e-005 3.94567942e-005
      3.94567942e-005 3.94567942e-005 3.94567942e-005 3.94567942e-005
      3.94567942e-005 3.94567942e-005 3.94567942e-005 3.94567942e-005
      3.94567942e-005 3.94567942e-005 3.94567942e-005 3.94567942e-005
      3.94567942e-005 3.94567942e-005 3.94567942e-005 3.94567942e-005
      3.94567942e-005 3.94567942e-005 3.94567942e-005 3.94567942e-005
      3.94567942e-005 3.94567942e-005 3.94567942e-005 3.94567942e-005
      3.94567942e-005 3.94567942e-005 3.94567942e-005 3.94567942e-005
      3.94567942e-005 3.94567942e-005 3.94567942e-005 3.94567942e-005
      3.94567942e-005 3.94567942e-005 3.94567942e-005 3.94567942e-005
      3.94567942e-005 3.94567942e-005 3.94567942e-005 3.94567942e-005
      3.94567942e-005 3.94567942e-005 3.94567942e-005 3.94567942e-005
      3.94567942e-005 3.94567942e-005 2.86644499e-005 -1.79840572e-005
      -1.94101376e-005 -1.92570224e-005 -1.22459214e-005
      -1.77317233e-005 -1.67956914e-005 -1.70021322e-005
      -1.57663362e-005 -1.57663362e-005 -1.57663362e-005
      -1.57663362e-005 -1.57663362e-005 -1.57663362e-005
      -1.57663362e-005 -1.57663362e-005 -1.57663362e-005
      -1.57663362e-005 -1.57663362e-005 -1.57663362e-005
      -1.57663362e-005 -1.57663362e-005 -1.57663362e-005
      -1.57663362e-005 -1.57663362e-005 -1.57663362e-005
      -1.57663362e-005 -1.57663362e-005 -1.57663362e-005
      -1.57663362e-005 -1.57663362e-005 -1.57663362e-005
      -1.57663362e-005 -1.57663362e-005 -1.57663362e-005
      -1.57663362e-005 -1.57663362e-005 -1.57663362e-005
      -1.57663362e-005 -1.57663362e-005 -1.57663362e-005
      -1.57663362e-005 -1.57663362e-005 -1.57663362e-005
      -1.57663362e-005 -1.57663362e-005 -1.57663362e-005
      -1.57663362e-005 -1.57663362e-005 -1.57663362e-005
      -1.57663362e-005 -1.57663362e-005 -1.57663362e-005
      -1.57663362e-005 -1.57663362e-005 -1.57663362e-005
      -1.05084328e-005 -1.78391383e-005 -1.76012309e-005
      -5.25326250e-005 -4.50099615e-005 -3.86895263e-005
      -2.94895544e-005 -5.39010034e-005 -3.95606767e-005
      -3.95606767e-005 -3.95606767e-005 -3.95606767e-005
      -3.95606767e-005 -3.95606767e-005 -3.95606767e-005
      -3.95606767e-005 -3.95606767e-005 -3.95606767e-005
      -3.95606767e-005 -3.95606767e-005 -3.95606767e-005
      -3.95606767e-005 -3.95606767e-005 -3.95606767e-005
      -3.95606767e-005 -3.95606767e-005 -3.95606767e-005
      -3.95606767e-005 -3.95606767e-005 -3.95606767e-005
      -3.95606767e-005 -3.95606767e-005 -3.95606767e-005
      -3.95606767e-005 -3.95606767e-005 -3.95606767e-005
      -3.95606767e-005 -3.95606767e-005 -3.95606767e-005
      -3.95606767e-005 -3.95606767e-005 -3.95606767e-005
      -3.95606767e-005 -3.95606767e-005 -3.95606767e-005
      -3.95606767e-005 -3.95606767e-005 -3.95606767e-005
      -3.95606767e-005 -3.95606767e-005 -3.95606767e-005
      -3.95606767e-005 -3.95606767e-005 -3.95606767e-005
      -3.95606767e-005 -3.95606767e-005 -4.43126410e-005
      -5.43375863e-005 -4.28509957e-005 -2.44832736e-005 5.24978304e-006
      2.92412551e-005 3.91391804e-005 2.39083965e-005 2.48863125e-005
      2.48863125e-005 2.48863125e-005 2.48863125e-005 2.48863125e-005
      2.48863125e-005 2.48863125e-005 2.48863125e-005 2.48863125e-005
      2.48863125e-005 2.48863125e-005 2.48863125e-005 2.48863125e-005
      2.48863125e-005 2.48863125e-005 2.48863125e-005 2.48863125e-005
      2.48863125e-005 2.48863125e-005 2.48863125e-005 2.48863125e-005
      2.48863125e-005 2.48863125e-005 2.48863125e-005 2.48863125e-005
      2.48863125e-005 2.48863125e-005 2.48863125e-005 2.48863125e-005
      2.48863125e-005 2.48863125e-005 2.48863125e-005 2.48863125e-005
      2.48863125e-005 2.48863125e-005 2.48863125e-005 2.48863125e-005
      2.48863125e-005 2.48863125e-005 2.48863125e-005 2.48863125e-005
      2.48863125e-005 2.48863125e-005 2.48863125e-005 2.48863125e-005
      2.48863125e-005 2.48863125e-005 2.48863125e-005 1.89624698e-005
      3.23796448e-005 1.23903947e-005 2.68871518e-005 -1.64149387e-005
      8.25376105e-007 -1.87723563e-005 -8.41185556e-006 -1.04274204e-005
      -1.04274204e-005 -1.04274204e-005 -1.04274204e-005
      -1.04274204e-005 -1.04274204e-005 -1.04274204e-005
      -1.04274204e-005 -1.04274204e-005 -1.04274204e-005
      -1.04274204e-005 -1.04274204e-005 -1.04274204e-005
      -1.04274204e-005 -1.04274204e-005 -1.04274204e-005
      -1.04274204e-005 -1.04274204e-005 -1.04274204e-005
      -1.04274204e-005 -1.04274204e-005 -1.04274204e-005
      -1.04274204e-005 -1.04274204e-005 -1.04274204e-005
      -1.04274204e-005 -1.04274204e-005 -1.04274204e-005
      -1.04274204e-005 -1.04274204e-005 -1.04274204e-005
      -1.04274204e-005 -1.04274204e-005 -1.04274204e-005
      -1.04274204e-005 -1.04274204e-005 -1.04274204e-005
      -1.04274204e-005 -1.04274204e-005 -1.04274204e-005
      -1.04274204e-005 -1.04274204e-005 -1.04274204e-005
      -1.04274204e-005 -1.04274204e-005 -1.04274204e-005
      -1.04274204e-005 -1.04274204e-005 -6.63926039e-006
      -7.00817827e-006 -3.48784260e-006 -1.54960651e-006
      -1.39984957e-006 6.49232470e-006 2.78235547e-007 -4.68008835e-007
      3.65662089e-007 3.65662089e-007 3.65662089e-007 3.65662089e-007
      3.65662089e-007 3.65662089e-007 3.65662089e-007 3.65662089e-007
      3.65662089e-007 3.65662089e-007 3.65662089e-007 3.65662089e-007
      3.65662089e-007 3.65662089e-007 3.65662089e-007 3.65662089e-007
      3.65662089e-007 3.65662089e-007 3.65662089e-007 3.65662089e-007
      3.65662089e-007 3.65662089e-007 3.65662089e-007 3.65662089e-007
      3.65662089e-007 -1.86640432e-006 1.48169522e-006 2.59772833e-006
      3.65662089e-007 3.65662089e-007 1.48169522e-006 -1.86640432e-006
      3.65662089e-007 3.65662089e-007 1.48169522e-006 -7.50371100e-007
      -7.50371100e-007 1.48169522e-006 3.65662089e-007 3.65662089e-007
      -7.50371100e-007 -7.50371100e-007 2.59772833e-006 -1.86640432e-006
      1.48169522e-006 -7.50371100e-007 -7.50371100e-007 2.59772833e-006
      7.12599422e-006 -4.87159377e-006 -5.63873982e-006 3.30456305e-006
      -2.69186762e-006 6.11612950e-006 -4.95987024e-007 1.27920046e-007
      3.65662089e-007 3.65662089e-007 3.65662089e-007 3.65662089e-007
      3.65662089e-007 3.65662089e-007 3.65662089e-007 3.65662089e-007
      3.65662089e-007 3.65662089e-007 3.65662089e-007 3.65662089e-007
      3.65662089e-007 3.65662089e-007 3.65662089e-007 3.65662089e-007
      3.65662089e-007 3.65662089e-007 3.65662089e-007 3.65662089e-007
      3.65662089e-007 3.65662089e-007 3.65662089e-007 3.65662089e-007
      6.99522218e-007 1.48169522e-006 -7.50371100e-007 3.65662089e-007
      3.65662089e-007 1.48169522e-006 -1.86640432e-006 6.99522218e-007
      2.14941565e-006 8.13974964e-007 -4.16510943e-007 -1.08423126e-006
      -1.41809141e-006 1.70110275e-006 3.18019246e-008 1.48169522e-006
      3.55778013e-007 -1.03097238e-006 -5.90706435e-008 2.62294122e-007
      -5.20115066e-007 5.70259454e-006 -2.11889346e-006 1.50542905e-006
      1.48169522e-006 3.65662089e-007 3.65662089e-007 1.48169522e-006
      1.48169522e-006 -7.50371100e-007 -7.50371100e-007 3.65662089e-007
      3.65662089e-007 3.65662089e-007 3.65662089e-007 3.65662089e-007
      3.65662089e-007 3.65662089e-007 3.65662089e-007 3.65662089e-007
      3.65662089e-007 3.65662089e-007 3.65662089e-007 3.65662089e-007
      3.65662089e-007 3.65662089e-007 3.65662089e-007 3.65662089e-007
      2.93158860e-006 -4.16510943e-007 -1.08423126e-006 8.13974964e-007
      -2.20026436e-006 2.59772833e-006 -1.08423126e-006 -4.16510943e-007
      -1.86640432e-006 1.48169522e-006 3.65662089e-007 6.99522218e-007
      2.93158860e-006 1.48169522e-006 -1.86640432e-006 3.65662089e-007
      -1.86640432e-006 1.14783506e-006 3.65662089e-007 3.18019246e-008
      2.26386828e-006 2.14941565e-006 -1.86640432e-006 3.65662089e-007
      -5.97005783e-006 7.36867560e-006 3.32539494e-005 4.49729960e-005
      3.70404487e-005 3.71471397e-005 3.41166087e-005 3.97368567e-005
      3.81553145e-005 3.81553145e-005 3.81553145e-005 3.81553145e-005
      3.81553145e-005 3.81553145e-005 3.81553145e-005 3.81553145e-005
      3.81553145e-005 3.81553145e-005 3.81553145e-005 3.81553145e-005
      3.81553145e-005 3.81553145e-005 3.81553145e-005 3.81553145e-005
      3.81553145e-005 3.81553145e-005 3.81553145e-005 3.81553145e-005
      3.81553145e-005 3.81553145e-005 3.81553145e-005 3.81553145e-005
      3.77333745e-005 3.65909691e-005 3.89374873e-005 3.89111156e-005
      3.75756754e-005 3.70392809e-005 3.95171264e-005 3.84010928e-005
      3.72850627e-005 3.99390701e-005 3.71537353e-005 3.89111156e-005
      3.75756754e-005 3.84891755e-005 3.91832691e-005 3.72850627e-005
      3.66667446e-005 3.73370640e-005 4.41998382e-005 3.08526978e-005
      4.59188377e-005 4.46047998e-005 4.55474765e-005 2.95762366e-005
      3.51703384e-005 3.51703384e-005 3.51703384e-005 3.51703384e-005
      3.51703384e-005 3.51703384e-005 3.51703384e-005 3.51703384e-005
      3.51703384e-005 3.51703384e-005 3.51703384e-005 3.51703384e-005
      3.51703384e-005 3.51703384e-005 3.51703384e-005 3.51703384e-005
      3.51703384e-005 3.51703384e-005 3.51703384e-005 3.51703384e-005
      3.51703384e-005 3.51703384e-005 3.51703384e-005 3.51703384e-005
      3.40543047e-005 3.51703384e-005 3.40543047e-005 3.48364774e-005
      3.61719176e-005 3.48364774e-005 3.58380566e-005 3.33865828e-005
      3.40543047e-005 3.70685448e-005 3.42737112e-005 3.67346838e-005
      3.37204438e-005 3.66202294e-005 3.11545191e-005 3.69540903e-005
      3.05323883e-005 5.14278508e-005 2.12441992e-005 3.94268645e-005
      3.48085196e-005 3.70591442e-005 3.02687349e-005 6.70597801e-005
      5.98822444e-005 5.98822444e-005 5.98822444e-005 5.98822444e-005
      5.98822444e-005 5.98822444e-005 5.98822444e-005 5.98822444e-005
      5.98822444e-005 5.98822444e-005 5.98822444e-005 5.98822444e-005
      5.98822444e-005 5.98822444e-005 5.98822444e-005 5.98822444e-005
      5.98822444e-005 5.98822444e-005 5.98822444e-005 5.98822444e-005
      5.98822444e-005 5.98822444e-005 5.98822444e-005 5.98822444e-005
      5.98822444e-005 5.98822444e-005 5.98822444e-005 5.98822444e-005
      5.98822444e-005 5.98822444e-005 5.98822444e-005 5.98822444e-005
      5.98822444e-005 5.98822444e-005 5.98822444e-005 5.98822444e-005
      5.98822444e-005 5.98822444e-005 5.98822444e-005 5.98822444e-005
      5.98822444e-005 5.98822444e-005 5.98822444e-005 5.98822444e-005
      5.98822444e-005 5.98822444e-005 5.98822444e-005 5.98822444e-005
      5.90498566e-005 5.90498566e-005 5.90498566e-005 5.90498566e-005
      5.90498566e-005 5.90498566e-005 5.90498566e-005 5.90498566e-005
      5.90498566e-005 5.90498566e-005 5.90498566e-005 5.90498566e-005
      5.90498566e-005 5.90498566e-005 5.90498566e-005 5.90498566e-005
      5.90498566e-005 5.90498566e-005 5.90498566e-005 5.90498566e-005
      5.90498566e-005 5.90498566e-005 5.90498566e-005 5.90498566e-005
      5.90498566e-005 5.90498566e-005 5.90498566e-005 5.90498566e-005
      5.90498566e-005 5.90498566e-005 5.90498566e-005 5.90498566e-005
      5.90498566e-005 5.90498566e-005 5.90498566e-005 5.90498566e-005
      5.90498566e-005 5.90498566e-005 5.90498566e-005 5.90498566e-005
      5.90498566e-005 5.90498566e-005 5.90498566e-005 5.90498566e-005
      5.90498566e-005 5.90498566e-005 5.90498566e-005 5.90498566e-005
      3.65662089e-007 3.65662089e-007 3.65662089e-007 3.65662089e-007
      3.65662089e-007 3.65662089e-007 3.65662089e-007 3.65662089e-007
      3.65662089e-007 3.65662089e-007 3.65662089e-007 3.65662089e-007
      3.65662089e-007 3.65662089e-007 3.65662089e-007 3.65662089e-007
      3.65662089e-007 3.65662089e-007 3.65662089e-007 3.65662089e-007
      3.65662089e-007 3.65662089e-007 3.65662089e-007 3.65662089e-007
      3.65662089e-007 3.65662089e-007 3.65662089e-007 3.65662089e-007
      3.65662089e-007 3.65662089e-007 3.65662089e-007 3.65662089e-007
      3.65662089e-007 3.65662089e-007 3.65662089e-007 3.65662089e-007
      3.65662089e-007 3.65662089e-007 3.65662089e-007 3.65662089e-007
      5.02037210e-007 4.51167671e-006 1.24317785e-006 2.50963376e-006
      1.77398852e-006 -6.64522940e-006 -9.61918317e-007 4.40370013e-006
      9.21249978e-007 9.21249978e-007 9.21249978e-007 9.21249978e-007
      9.21249978e-007 9.21249978e-007 9.21249978e-007 9.21249978e-007
      9.21249978e-007 9.21249978e-007 9.21249978e-007 9.21249978e-007
      9.21249978e-007 9.21249978e-007 9.21249978e-007 9.21249978e-007
      9.21249978e-007 9.21249978e-007 9.21249978e-007 9.21249978e-007
      9.21249978e-007 9.21249978e-007 9.21249978e-007 9.21249978e-007
      9.21249978e-007 -1.31081640e-006 2.03728314e-006 9.21249978e-007
      9.21249978e-007 -1.94783198e-007 2.03728314e-006 9.21249978e-007
      -1.94783198e-007 2.03728314e-006 9.21249978e-007 9.21249978e-007
      9.21249978e-007 9.21249978e-007 2.03728314e-006 -1.94783198e-007
      2.33709315e-007 -1.73135868e-006 8.83319800e-008 4.06509525e-006
      7.51644734e-007 -4.78883976e-006 1.95732852e-007 -2.12347777e-006
      3.65662089e-007 3.65662089e-007 3.65662089e-007 3.65662089e-007
      3.65662089e-007 3.65662089e-007 3.65662089e-007 3.65662089e-007
      3.65662089e-007 3.65662089e-007 3.65662089e-007 3.65662089e-007
      3.65662089e-007 3.65662089e-007 3.65662089e-007 3.65662089e-007
      2.93158860e-006 -4.16510943e-007 -1.08423126e-006 8.13974964e-007
      -2.20026436e-006 2.59772833e-006 -1.08423126e-006 -4.16510943e-007
      -1.86640432e-006 1.48169522e-006 3.65662089e-007 6.99522218e-007
      2.93158860e-006 1.48169522e-006 -1.86640432e-006 3.65662089e-007
      -1.86640432e-006 1.14783506e-006 3.65662089e-007 3.18019246e-008
      2.26386828e-006 2.14941565e-006 -1.86640432e-006 3.65662089e-007
      -1.13481303e-006 2.93922380e-006 -2.69129509e-006 2.53946632e-006
      -4.57250826e-006 -2.26611019e-006 3.46627826e-006 -1.54747681e-006
      3.65662089e-007 3.65662089e-007 3.65662089e-007 3.65662089e-007
      3.65662089e-007 3.65662089e-007 3.65662089e-007 3.65662089e-007
      3.65662089e-007 3.65662089e-007 3.65662089e-007 3.65662089e-007
      3.65662089e-007 3.65662089e-007 3.65662089e-007 3.65662089e-007
      4.53742871e-007 6.11441465e-007 3.65662089e-007 3.65662089e-007
      3.65662089e-007 3.65662089e-007 6.11441465e-007 4.53742871e-007
      7.87603028e-007 -5.62788571e-008 6.99522218e-007 3.18019246e-008
      -3.02058226e-007 1.70110275e-006 2.77581307e-007 1.19882714e-007
      -1.97685267e-006 6.99503698e-006 -4.98009877e-006 -6.78006302e-007
      -2.10035864e-006 1.45838862e-006 3.20782201e-005 4.02818951e-005
      3.81553145e-005 3.81553145e-005 3.81553145e-005 3.81553145e-005
      3.81553145e-005 3.81553145e-005 3.81553145e-005 3.81553145e-005
      3.81553145e-005 3.81553145e-005 3.81553145e-005 3.81553145e-005
      3.81553145e-005 3.81553145e-005 3.81553145e-005 3.81553145e-005
      3.81553145e-005 3.76637581e-005 3.84010928e-005 3.86468746e-005
      3.81553145e-005 3.81553145e-005 3.84010928e-005 3.76637581e-005
      3.81553145e-005 3.76637581e-005 3.84010928e-005 3.86468746e-005
      3.81553145e-005 3.81553145e-005 3.84010928e-005 3.76637581e-005
      3.84010928e-005 3.79095363e-005 3.84010928e-005 3.81553145e-005
      3.79095363e-005 3.84010928e-005 3.84010928e-005 3.81553145e-005
      4.46613230e-005 3.26768350e-005 4.67742939e-005 4.31076514e-005
      3.59326841e-005 4.22332487e-005 3.64262523e-005 3.79457451e-005
      3.88496737e-005 3.88496737e-005 3.88496737e-005 3.88496737e-005
      3.88496737e-005 3.88496737e-005 3.88496737e-005 3.88496737e-005
      3.88496737e-005 3.88496737e-005 3.88496737e-005 3.88496737e-005
      3.88496737e-005 3.88496737e-005 3.88496737e-005 3.88496737e-005
      3.88496737e-005 3.99657074e-005 3.99657074e-005 3.77336437e-005
      3.88496737e-005 3.88496737e-005 3.77336437e-005 3.99657074e-005
      3.99657074e-005 3.55015763e-005 3.99657074e-005 3.77336437e-005
      4.10817411e-005 3.66176100e-005 4.10817411e-005 3.77336437e-005
      4.43803801e-005 3.71026617e-005 3.11176045e-005 7.95860615e-005
      7.46668738e-005 6.74872354e-005 7.91053681e-005 6.98983931e-005
      7.05123748e-005 7.05123748e-005 7.05123748e-005 7.05123748e-005
      7.05123748e-005 7.05123748e-005 7.05123748e-005 7.05123748e-005
      7.05123748e-005 7.05123748e-005 7.05123748e-005 7.05123748e-005
      7.05123748e-005 7.05123748e-005 7.05123748e-005 7.05123748e-005
      7.05123748e-005 7.05123748e-005 7.05123748e-005 7.05123748e-005
      7.05123748e-005 7.05123748e-005 7.05123748e-005 7.05123748e-005
      7.05123748e-005 7.05123748e-005 7.05123748e-005 7.05123748e-005
      7.05123748e-005 7.05123748e-005 7.05123748e-005 7.05123748e-005
      6.68454886e-005 7.56010995e-005 7.29319436e-005 6.26208202e-005
      -6.93123220e-005 -7.75067529e-005 -8.01501010e-005
      -7.44651043e-005 -7.15352362e-005 -7.15352362e-005
      -7.15352362e-005 -7.15352362e-005 -7.15352362e-005
      -7.15352362e-005 -7.15352362e-005 -7.15352362e-005
      -7.15352362e-005 -7.15352362e-005 -7.15352362e-005
      -7.15352362e-005 -7.15352362e-005 -7.15352362e-005
      -7.15352362e-005 -7.15352362e-005 -7.15352362e-005
      -7.15352362e-005 -7.15352362e-005 -7.15352362e-005
      -7.15352362e-005 -7.15352362e-005 -7.15352362e-005
      -7.15352362e-005 -7.15352362e-005 -7.15352362e-005
      -7.15352362e-005 -7.15352362e-005 -7.15352362e-005
      -7.15352362e-005 -7.15352362e-005 -7.15352362e-005
      -6.70128720e-005 -7.93769868e-005 -7.63313219e-005
      -7.16508948e-005 -1.08428662e-006 2.85276042e-006 8.75426667e-006
      -5.68885525e-006 3.65662089e-007 3.65662089e-007 3.65662089e-007
      3.65662089e-007 3.65662089e-007 3.65662089e-007 3.65662089e-007
      3.65662089e-007 3.65662089e-007 3.65662089e-007 3.65662089e-007
      3.65662089e-007 3.65662089e-007 3.65662089e-007 3.65662089e-007
      3.65662089e-007 3.65662089e-007 3.65662089e-007 3.65662089e-007
      3.65662089e-007 3.65662089e-007 3.65662089e-007 3.65662089e-007
      3.65662089e-007 3.65662089e-007 3.65662089e-007 3.65662089e-007
      3.65662089e-007 3.65662089e-007 3.65662089e-007 3.65662089e-007
      3.65662089e-007 -3.29968452e-006 1.46049206e-006 -7.53567917e-007
      -4.03329750e-007 1.96436886e-007 4.37485323e-006 -5.01806426e-006
      6.80447874e-006 3.65662089e-007 3.65662089e-007 3.65662089e-007
      3.65662089e-007 3.65662089e-007 3.65662089e-007 3.65662089e-007
      3.65662089e-007 3.65662089e-007 -1.86640432e-006 1.48169522e-006
      2.59772833e-006 3.65662089e-007 3.65662089e-007 1.48169522e-006
      -1.86640432e-006 3.65662089e-007 3.65662089e-007 1.48169522e-006
      -7.50371100e-007 -7.50371100e-007 1.48169522e-006 3.65662089e-007
      3.65662089e-007 -7.50371100e-007 -7.50371100e-007 2.59772833e-006
      -1.86640432e-006 1.48169522e-006 -7.50371100e-007 -7.50371100e-007
      2.59772833e-006 -2.22208641e-007 -3.00199554e-006 -1.94667564e-006
      8.90698232e-007 1.04081482e-006 4.02131690e-007 1.90783021e-006
      -7.31227885e-007 3.65662089e-007 3.65662089e-007 3.65662089e-007
      3.65662089e-007 3.65662089e-007 3.65662089e-007 3.65662089e-007
      3.65662089e-007 6.99522218e-007 1.48169522e-006 -7.50371100e-007
      3.65662089e-007 3.65662089e-007 1.48169522e-006 -1.86640432e-006
      6.99522218e-007 2.14941565e-006 8.13974964e-007 -4.16510943e-007
      -1.08423126e-006 -1.41809141e-006 1.70110275e-006 3.18019246e-008
      1.48169522e-006 -9.43367195e-006 6.10276902e-006 -5.36537527e-006
      5.13346049e-006 9.06529112e-006 2.02393426e-006 7.46261212e-005
      6.91493406e-005 7.60020266e-005 7.60020266e-005 7.60020266e-005
      7.60020266e-005 7.60020266e-005 7.60020266e-005 7.60020266e-005
      7.60020266e-005 7.63358912e-005 7.63358912e-005 7.60020266e-005
      7.53343120e-005 7.56681693e-005 7.60020266e-005 7.56681693e-005
      7.66697485e-005 7.60020266e-005 7.60020266e-005 7.60020266e-005
      7.60020266e-005 7.60020266e-005 7.60020266e-005 7.60020266e-005
      7.60020266e-005 7.63358912e-005 7.56681693e-005 7.60020266e-005
      7.56681693e-005 7.56681693e-005 7.66697485e-005 7.60020266e-005
      7.60020266e-005 7.10215318e-005 7.39258903e-005 1.49028328e-005
      1.34939201e-005 1.82036529e-005 1.23643331e-005 7.86795499e-006
      4.49933168e-006 9.76580304e-006 9.76580304e-006 9.76580304e-006
      9.76580304e-006 9.76580304e-006 9.76580304e-006 9.76580304e-006
      9.76580304e-006 1.00115822e-005 7.53373661e-006 1.08818367e-005
      9.52002392e-006 9.52002392e-006 8.64977028e-006 1.11276158e-005
      1.00115822e-005 8.89554940e-006 1.08818367e-005 9.76580304e-006
      9.52002392e-006 9.52002392e-006 9.76580304e-006 1.11276158e-005
      8.89554940e-006 1.11310410e-005 6.76807440e-006 1.67154976e-005
      7.69153394e-006 9.87772455e-006 9.07107733e-006 9.52808296e-006
      9.10076233e-006 9.76580304e-006 9.76580304e-006 9.76580304e-006
      9.76580304e-006 9.76580304e-006 9.76580304e-006 9.76580304e-006
      9.76580304e-006 8.64977028e-006 9.76580304e-006 8.64977028e-006
      9.76580304e-006 9.76580304e-006 9.76580304e-006 9.76580304e-006
      8.64977028e-006 8.64977028e-006 1.19978695e-005 7.53373661e-006
      1.19978695e-005 8.64977028e-006 1.08818367e-005 6.41770384e-006
      1.08818367e-005 3.01614978e-006 1.70161838e-005 1.03918592e-005
      6.30463728e-006 1.04821038e-005 1.46886023e-005 6.61436479e-006
      -2.85011338e-005 -3.17509366e-005 -3.17509366e-005
      -3.17509366e-005 -3.17509366e-005 -3.17509366e-005
      -3.17509366e-005 -3.17509366e-005 -3.17509366e-005
      -3.17509366e-005 -3.17509366e-005 -3.17509366e-005
      -3.17509366e-005 -3.17509366e-005 -3.17509366e-005
      -3.17509366e-005 -3.17509366e-005 -3.17509366e-005
      -3.17509366e-005 -3.17509366e-005 -3.17509366e-005
      -3.17509366e-005 -3.17509366e-005 -3.17509366e-005
      -3.17509366e-005 -3.17509366e-005 -3.17509366e-005
      -3.17509366e-005 -3.17509366e-005 -3.17509366e-005
      -3.17509366e-005 -3.17509366e-005 -3.17509366e-005
      -3.17509366e-005 -3.17509366e-005 -3.17509366e-005
      -3.17509366e-005 -3.17509366e-005 -3.17509366e-005
      -3.17509366e-005 -3.17509366e-005 -3.17509366e-005
      -3.17509366e-005 -3.17509366e-005 -3.17509366e-005
      -3.17509366e-005 -3.17509366e-005 -3.17509366e-005
      -3.17509366e-005 -3.17509366e-005 -3.17509366e-005
      -3.17509366e-005 -3.17509366e-005 -3.17509366e-005
      -3.17509366e-005 -3.17509366e-005 -3.17509366e-005
      -3.17509366e-005 -3.17509366e-005 -3.17509366e-005
      -3.17509366e-005 -3.17509366e-005 -3.17509366e-005
      -3.17509366e-005 -3.17509366e-005 3.65662089e-007 3.65662089e-007
      3.65662089e-007 3.65662089e-007 3.65662089e-007 3.65662089e-007
      3.65662089e-007 3.65662089e-007 3.65662089e-007 3.65662089e-007
      3.65662089e-007 3.65662089e-007 3.65662089e-007 3.65662089e-007
      3.65662089e-007 3.65662089e-007 3.65662089e-007 3.65662089e-007
      3.65662089e-007 3.65662089e-007 3.65662089e-007 3.65662089e-007
      3.65662089e-007 3.65662089e-007 -2.46493460e-006 2.73973933e-006
      -6.08360267e-007 6.09149401e-006 -1.74159766e-006 -5.75544937e-006
      2.32360048e-006 1.03872458e-006 3.65662089e-007 3.65662089e-007
      3.65662089e-007 3.65662089e-007 3.65662089e-007 3.65662089e-007
      3.65662089e-007 3.65662089e-007 3.65662089e-007 -1.86640432e-006
      1.48169522e-006 3.65662089e-007 3.65662089e-007 -7.50371100e-007
      1.48169522e-006 3.65662089e-007 -7.50371100e-007 1.48169522e-006
      3.65662089e-007 3.65662089e-007 3.65662089e-007 3.65662089e-007
      1.48169522e-006 -7.50371100e-007 3.33980870e-006 -7.42974316e-006
      8.76397007e-006 -2.53222970e-006 4.81417283e-006 -4.24766040e-006
      2.85805936e-006 -7.21479466e-007 2.93158860e-006 -4.16510943e-007
      -1.08423126e-006 8.13974964e-007 -2.20026436e-006 2.59772833e-006
      -1.08423126e-006 -4.16510943e-007 -1.86640432e-006 1.48169522e-006
      3.65662089e-007 6.99522218e-007 2.93158860e-006 1.48169522e-006
      -1.86640432e-006 3.65662089e-007 -1.86640432e-006 1.14783506e-006
      3.65662089e-007 3.18019246e-008 2.26386828e-006 2.14941565e-006
      -1.86640432e-006 3.65662089e-007 -1.21982180e-006 4.58995009e-006
      3.59762589e-006 -1.05268591e-005 8.84533074e-006 -1.37963139e-006
      -5.02744160e-006 1.91762501e-006 6.99522218e-007 1.48169522e-006
      -7.50371100e-007 3.65662089e-007 3.65662089e-007 1.48169522e-006
      -1.86640432e-006 6.99522218e-007 2.03065497e-007 8.13974964e-007
      -4.16510943e-007 8.62118839e-007 5.28258681e-007 1.70110275e-006
      -1.91454819e-006 -4.64654818e-007 2.06623281e-006 -2.00262889e-006
      6.11441465e-007 -3.78158802e-008 4.74992112e-006 -5.07900722e-007
      2.78209700e-006 -3.94897916e-006 3.65662089e-007 -2.35796301e-006
      1.72747468e-006 3.08928725e-006 3.65662089e-007 3.65662089e-007
      1.72747468e-006 -2.35796301e-006 3.65662089e-007 -1.25896662e-007
      1.72747468e-006 -2.58812349e-007 -7.50371100e-007 1.48169522e-006
      6.11441465e-007 -1.25896662e-007 -5.04591696e-007 -9.96150447e-007
      2.84350790e-006 -1.86640432e-006 1.23591587e-006 -5.04591696e-007
      -5.04591696e-007 2.59772833e-006 7.76858542e-006 1.35751206e-005
      1.10839092e-005 2.89377494e-005 1.17500113e-005 1.17821137e-005
      2.59624339e-005 1.18548442e-005 1.47894643e-005 1.47894643e-005
      1.47894643e-005 1.47894643e-005 1.47894643e-005 1.47894643e-005
      1.47894643e-005 1.47894643e-005 1.47894643e-005 1.47894643e-005
      1.47894643e-005 1.47894643e-005 1.47894643e-005 1.47894643e-005
      1.47894643e-005 1.47894643e-005 7.86012970e-006 1.99563819e-005
      1.81282285e-005 -7.80647824e-005 -8.38102642e-005 -7.12555848e-005
      -8.77706261e-005 -8.02867507e-005 -7.77190799e-005
      -7.77190799e-005 -7.77190799e-005 -7.77190799e-005
      -7.77190799e-005 -7.77190799e-005 -7.77190799e-005
      -7.77190799e-005 -7.77190799e-005 -7.77190799e-005
      -7.77190799e-005 -7.77190799e-005 -7.77190799e-005
      -7.77190799e-005 -7.77190799e-005 -7.77190799e-005
      -7.58963433e-005 -7.78664471e-005 -7.10286477e-005
      -8.57885898e-005 -8.36694453e-005 -9.69488610e-005
      -9.30483075e-005 -9.53835115e-005 -9.36234064e-005
      -9.36234064e-005 -9.36234064e-005 -9.36234064e-005
      -9.36234064e-005 -9.36234064e-005 -9.36234064e-005
      -9.36234064e-005 -9.36234064e-005 -9.36234064e-005
      -9.36234064e-005 -9.36234064e-005 -9.36234064e-005
      -9.36234064e-005 -9.36234064e-005 -9.36234064e-005
      -9.29751841e-005 -9.57355733e-005 -9.25546992e-005
      -9.50347094e-005 3.55113389e-006 -3.22076481e-008 3.86719285e-006
      3.06458446e-007 3.65662089e-007 3.65662089e-007 3.65662089e-007
      3.65662089e-007 3.65662089e-007 3.65662089e-007 3.65662089e-007
      3.65662089e-007 3.65662089e-007 3.65662089e-007 3.65662089e-007
      3.65662089e-007 3.65662089e-007 3.65662089e-007 3.65662089e-007
      3.65662089e-007 5.34887249e-007 2.59772833e-006 -4.67028576e-006
      5.72425097e-006 7.04112438e-007 -2.58504571e-007 1.50890969e-006
      1.79293124e-006 3.65662089e-007 3.65662089e-007 1.48169522e-006
      -7.50371100e-007 -7.50371100e-007 1.48169522e-006 3.65662089e-007
      3.65662089e-007 -7.50371100e-007 -7.50371100e-007 2.59772833e-006
      -1.86640432e-006 1.48169522e-006 -7.50371100e-007 -7.50371100e-007
      2.59772833e-006 3.27499242e-006 6.60524747e-005 7.20587050e-005
      7.47601007e-005 6.33338495e-005 6.99235097e-005 7.43241399e-005
      6.58879508e-005 6.91079476e-005 6.77725038e-005 6.65420157e-005
      6.58743011e-005 6.55404365e-005 6.86596322e-005 6.69903311e-005
      6.84402257e-005 7.29809180e-005 6.26312976e-005 6.90771776e-005
      6.75921983e-005 6.74044277e-005 6.77446951e-005 3.15339344e-006
      -4.92047138e-006 3.65662089e-007 3.65662089e-007 -1.58068804e-006
      -1.24682788e-006 -1.24682788e-006 3.65662089e-007 2.31201216e-006
      2.31201216e-006 2.31201216e-006 1.97815189e-006 3.65662089e-007
      3.18019246e-008 3.18019246e-008 1.03338243e-006 3.65662089e-007
      3.65662089e-007 -4.84992825e-006 -7.89193655e-006 3.15587749e-005
      2.81894390e-005 2.14262745e-005 2.83060890e-005 9.09011305e-006
      2.59304506e-005 1.76999874e-005 2.16326243e-005 2.24629421e-005
      2.22171620e-005 2.02708125e-005 1.85702411e-005 2.18784044e-005
      1.96463388e-005 2.31165704e-005 3.08593517e-005 1.97266691e-005
      2.22124127e-005 2.64760711e-005 9.59374229e-005 1.07787600e-004
      1.03787796e-004 1.06631516e-004 1.06631516e-004 1.06631516e-004
      1.06631516e-004 1.06631516e-004 1.06631516e-004 1.06631516e-004
      1.06631516e-004 1.07287015e-004 9.51953407e-005 1.12816444e-004
      1.20570439e-004 1.13561175e-004 1.16568037e-004 9.49891692e-005
      2.91756005e-005 5.31025034e-005 5.47010277e-005 5.31089281e-005
      5.34217070e-005 5.42511953e-005 1.36640854e-004 9.66162916e-005
      1.94115783e-005 6.48432469e-005 4.16253642e-005 5.82922221e-005
      5.64251204e-005 1.27391293e-004 1.38113799e-004 1.82968783e-004
      1.13178539e-005 1.14599505e-004 1.14599505e-004 1.14599505e-004
      1.14599505e-004 1.14599505e-004 1.14599505e-004 1.14599505e-004
      1.14599505e-004 1.14599505e-004 1.14599505e-004 1.14599505e-004
      1.14599505e-004 1.14599505e-004 1.14599505e-004 1.14599505e-004
      1.14599505e-004 -7.45381476e-005 -7.45381476e-005 -7.45381476e-005
      -7.45381476e-005 -7.45381476e-005 -7.45381476e-005
      -7.45381476e-005 -7.45381476e-005 -7.96119930e-005
      -6.45948166e-005 -6.95194612e-005 -7.70693805e-005
      -7.38962335e-005 -7.71971463e-005 -7.18714582e-005
      -8.59734337e-006 -7.50371100e-007 1.48169522e-006 3.65662089e-007
      3.65662089e-007 3.65662089e-007 3.65662089e-007 1.48169522e-006
      -7.50371100e-007 6.04722845e-006 -6.10797451e-006 5.59912394e-007
      4.15795967e-006 -3.72072145e-006 -3.88469925e-005 -5.35649851e-005
      -4.88971673e-005 -5.25434007e-005 -4.98630216e-005
      -5.06451943e-005 -5.09790552e-005 -4.87469879e-005
      -4.88614423e-005 -5.28772616e-005 -5.06451943e-005
      -5.95409801e-005 -4.79286718e-005 -6.17597198e-006 5.11693815e-006
      4.76726109e-006 3.42679959e-006 6.08876633e-007 -5.77029368e-006
      -1.14195727e-005 6.13060820e-006 4.07182915e-006 -6.75244564e-006
      6.77687876e-006 -9.91287561e-006 8.72447636e-005 9.27947767e-005
      8.13231163e-005 -4.24306963e-005 -4.81728057e-005 -4.38875504e-005
      -4.46301565e-005 -4.10836838e-005 -4.88002879e-005
      -4.09975910e-005 -4.67341706e-005 8.09957928e-005 6.32428200e-005
      7.70247498e-005 9.02308602e-005 6.71823727e-005 7.53328495e-005
      7.96099484e-005 7.00525488e-005 8.57373961e-005 6.03431727e-005
      -7.92880601e-005 -6.12203803e-005 -7.45059369e-005
      -7.76919260e-005 -7.76469460e-005 -7.17945295e-005
      -7.29562598e-005 -7.78902540e-005 -7.84150543e-005 8.76556587e-005
      9.01189123e-005 8.20665300e-005 8.37281477e-005 8.38767155e-005
      9.78646422e-005 8.04038937e-005 8.61940789e-005 -1.17331721e-004
      -1.15146933e-004 -1.31133129e-004 -1.15890631e-004
      -1.25897568e-004 -1.28362866e-004 -1.20275297e-004
      -2.77183608e-005 -2.23203569e-005 -1.20895156e-005
      -2.82506080e-005 -2.16059016e-005 -3.22569904e-005
      -2.01261992e-006 7.72942894e-006 -4.27640543e-006 4.43878434e-006
      1.40891655e-006 -4.01400575e-006 4.59962848e-006 1.40829229e-006
      -2.10426811e-006 1.62981436e-004 1.64960278e-004 1.57156348e-004
      1.81245283e-004 2.04655851e-004 5.98050319e-005 -2.56730527e-005
      -2.56730527e-005 -2.56730527e-005 -2.56730527e-005
      -2.56730527e-005 -2.56730527e-005 -2.56730527e-005
      -2.56730527e-005 -2.56730527e-005 -2.60069137e-005
      -2.50053326e-005 -2.63407728e-005 -2.53391936e-005
      -2.56730527e-005 -2.56730527e-005 -2.60069137e-005
      -2.56730527e-005 -2.56730527e-005 -2.56730527e-005
      -2.56730527e-005 -2.56730527e-005 -2.56730527e-005
      -2.56730527e-005 -2.56730527e-005 -2.63407728e-005
      -2.43376126e-005 -2.66746338e-005 -2.56730527e-005
      -2.46714735e-005 -2.60069137e-005 -2.53391936e-005
      -2.60069137e-005 -2.56730527e-005 -2.56730527e-005
      -2.56730527e-005 -2.56730527e-005 -2.56730527e-005
      -2.56730527e-005 -2.56730527e-005 -2.56730527e-005
      -2.60069137e-005 -2.56730527e-005 -2.56730527e-005
      -2.53391936e-005 -2.63407728e-005 -2.50053326e-005
      -2.60069137e-005 -2.56730527e-005 -2.56730527e-005
      -2.56730527e-005 -2.56730527e-005 -2.56730527e-005
      -2.56730527e-005 -2.56730527e-005 -2.56730527e-005
      -2.56730527e-005 -3.80419551e-005 -5.22592063e-006
      -4.59978473e-005 -1.54402023e-005 -2.71299796e-005
      -3.62271858e-005 -2.73209680e-005 -8.84243054e-005
      -7.67631354e-005 -7.67631354e-005 -7.67631354e-005
      -7.67631354e-005 -7.67631354e-005 -7.67631354e-005
      -7.67631354e-005 -7.67631354e-005 -7.67631354e-005
      -7.67631354e-005 -7.67631354e-005 -7.67631354e-005
      -7.67631354e-005 -7.67631354e-005 -7.67631354e-005
      -7.67631354e-005 -7.67631354e-005 -7.67631354e-005
      -7.67631354e-005 -7.67631354e-005 -7.67631354e-005
      -7.67631354e-005 -7.67631354e-005 -7.67631354e-005
      -7.67631354e-005 -7.67631354e-005 -7.67631354e-005
      -7.67631354e-005 -7.67631354e-005 -7.67631354e-005
      -7.67631354e-005 -7.67631354e-005 -7.67631354e-005
      -7.67631354e-005 -7.67631354e-005 -7.67631354e-005
      -7.67631354e-005 -7.67631354e-005 -7.67631354e-005
      -7.67631354e-005 -7.67631354e-005 -7.67631354e-005
      -7.67631354e-005 -7.67631354e-005 -7.67631354e-005
      -7.67631354e-005 -7.67631354e-005 -7.67631354e-005
      -7.67631354e-005 -7.67631354e-005 -7.67631354e-005
      -7.67631354e-005 -7.67631354e-005 -7.67631354e-005
      -7.67631354e-005 -7.67631354e-005 -7.98019246e-005
      -6.36224722e-005 -8.91470700e-005 -6.39990176e-005
      -6.86565036e-005 -5.67706556e-005 -2.36890846e-005
      -4.59777912e-005 -3.46811867e-005 -3.46811867e-005
      -3.46811867e-005 -3.46811867e-005 -3.46811867e-005
      -3.46811867e-005 -3.46811867e-005 -3.46811867e-005
      -3.46811867e-005 -3.46811867e-005 -3.46811867e-005
      -3.46811867e-005 -3.46811867e-005 -3.46811867e-005
      -3.46811867e-005 -3.46811867e-005 -3.46811867e-005
      -3.46811867e-005 -3.46811867e-005 -3.46811867e-005
      -3.46811867e-005 -3.46811867e-005 -3.46811867e-005
      -3.46811867e-005 -3.46811867e-005 -3.46811867e-005
      -3.46811867e-005 -3.46811867e-005 -3.46811867e-005
      -3.46811867e-005 -3.46811867e-005 -3.46811867e-005
      -3.46811867e-005 -3.46811867e-005 -3.46811867e-005
      -3.46811867e-005 -3.46811867e-005 -3.46811867e-005
      -3.46811867e-005 -3.46811867e-005 -3.46811867e-005
      -3.46811867e-005 -3.46811867e-005 -3.46811867e-005
      -3.46811867e-005 -3.46811867e-005 -3.46811867e-005
      -3.46811867e-005 -3.46811867e-005 -3.46811867e-005
      -3.46811867e-005 -3.46811867e-005 -3.46811867e-005
      -3.46811867e-005 -3.46811867e-005 -3.46811867e-005
      -3.09347452e-005 -3.28139868e-005 -2.48039796e-005
      -3.02878470e-005 -2.75822658e-005 -1.68635270e-005
      -3.83434490e-005 -2.69761040e-005 -2.50840349e-005
      -2.50840349e-005 -2.50840349e-005 -2.50840349e-005
      -2.50840349e-005 -2.50840349e-005 -2.50840349e-005
      -2.50840349e-005 -2.50840349e-005 -2.50840349e-005
      -2.50840349e-005 -2.50840349e-005 -2.50840349e-005
      -2.50840349e-005 -2.50840349e-005 -2.50840349e-005
      -2.50840349e-005 -2.50840349e-005 -2.50840349e-005
      -2.50840349e-005 -2.50840349e-005 -2.50840349e-005
      -2.50840349e-005 -2.50840349e-005 -2.50840349e-005
      -2.50840349e-005 -2.50840349e-005 -2.50840349e-005
      -2.50840349e-005 -2.50840349e-005 -2.50840349e-005
      -2.50840349e-005 -2.50840349e-005 -2.50840349e-005
      -2.50840349e-005 -2.50840349e-005 -2.50840349e-005
      -2.50840349e-005 -2.50840349e-005 -2.50840349e-005
      -2.50840349e-005 -2.50840349e-005 -2.50840349e-005
      -2.50840349e-005 -2.50840349e-005 -2.50840349e-005
      -2.50840349e-005 -2.50840349e-005 -2.47828320e-005
      -2.83818954e-005 -2.21034043e-005 -2.79980322e-005
      -2.71668141e-005 -3.10415053e-005 2.51858037e-005 2.49842051e-005
      2.36286851e-005 2.36286851e-005 2.36286851e-005 2.36286851e-005
      2.36286851e-005 2.36286851e-005 2.36286851e-005 2.36286851e-005
      2.36286851e-005 2.36286851e-005 2.36286851e-005 2.36286851e-005
      2.36286851e-005 2.36286851e-005 2.36286851e-005 2.36286851e-005
      2.36286851e-005 2.36286851e-005 2.36286851e-005 2.36286851e-005
      2.36286851e-005 2.36286851e-005 2.36286851e-005 2.36286851e-005
      2.36286851e-005 2.36286851e-005 2.36286851e-005 2.36286851e-005
      2.36286851e-005 2.36286851e-005 2.36286851e-005 2.36286851e-005
      2.36286851e-005 2.36286851e-005 2.36286851e-005 2.36286851e-005
      2.36286851e-005 2.36286851e-005 2.36286851e-005 2.36286851e-005
      2.36286851e-005 2.36286851e-005 2.36286851e-005 2.36286851e-005
      2.36286851e-005 2.36286851e-005 2.36286851e-005 2.36286851e-005
      2.36286851e-005 2.36286851e-005 2.36286851e-005 2.36286851e-005
      2.36286851e-005 2.36286851e-005 2.36286851e-005 2.36286851e-005
      2.11233673e-005 9.73032220e-005 8.31451252e-005 8.62106754e-005
      9.92586720e-005 8.14850428e-005 7.90018603e-005 9.31312825e-005
      9.18518126e-005 9.18518126e-005 9.18518126e-005 9.18518126e-005
      9.18518126e-005 9.18518126e-005 9.18518126e-005 9.18518126e-005
      9.15179553e-005 9.18518126e-005 9.18518126e-005 9.21856772e-005
      9.11840980e-005 9.25195345e-005 9.15179553e-005 9.18518126e-005
      9.21856772e-005 9.18518126e-005 9.18518126e-005 9.21856772e-005
      9.21856772e-005 9.15179553e-005 9.15179553e-005 9.15179553e-005
      9.18518126e-005 9.18518126e-005 9.18518126e-005 9.18518126e-005
      9.18518126e-005 9.18518126e-005 9.18518126e-005 9.18518126e-005
      9.18518126e-005 9.28533991e-005 9.18518126e-005 9.15179553e-005
      9.18518126e-005 9.15179553e-005 9.18518126e-005 9.15179553e-005
      9.15179553e-005 9.15179553e-005 9.15179553e-005 9.21856772e-005
      9.21856772e-005 9.18518126e-005 9.18518126e-005 9.21856772e-005
      8.19310299e-005 8.71267694e-005 8.66002956e-005 -3.19447900e-005
      -4.39144351e-005 -5.21904658e-005 -3.99549281e-005
      -4.28211752e-005 -5.07343793e-005 -5.07343793e-005
      -5.07343793e-005 -5.07343793e-005 -5.07343793e-005
      -5.07343793e-005 -5.07343793e-005 -5.07343793e-005
      -5.07343793e-005 -5.07343793e-005 -5.07343793e-005
      -5.07343793e-005 -5.07343793e-005 -5.07343793e-005
      -5.07343793e-005 -5.07343793e-005 -5.07343793e-005
      -5.07343793e-005 -5.07343793e-005 -5.07343793e-005
      -5.07343793e-005 -5.07343793e-005 -5.07343793e-005
      -5.07343793e-005 -5.07343793e-005 -5.07343793e-005
      -5.07343793e-005 -5.07343793e-005 -5.07343793e-005
      -5.07343793e-005 -5.07343793e-005 -5.07343793e-005
      -5.07343793e-005 -5.07343793e-005 -5.07343793e-005
      -5.07343793e-005 -5.07343793e-005 -5.07343793e-005
      -5.07343793e-005 -5.07343793e-005 -5.07343793e-005
      -5.07343793e-005 -5.07343793e-005 -5.07343793e-005
      -5.07343793e-005 -5.07343793e-005 -5.07343793e-005
      -5.07343793e-005 -4.80644994e-005 -4.16561561e-005
      -5.12936822e-005 -5.26386466e-005 7.22062105e-005 7.05258062e-005
      6.29939532e-005 7.07534709e-005 6.74924886e-005 6.74924886e-005
      6.74924886e-005 6.74924886e-005 6.74924886e-005 6.74924886e-005
      6.74924886e-005 6.74924886e-005 6.74924886e-005 6.74924886e-005
      6.74924886e-005 6.74924886e-005 6.74924886e-005 6.74924886e-005
      6.74924886e-005 6.74924886e-005 6.74924886e-005 6.74924886e-005
      6.74924886e-005 6.74924886e-005 6.74924886e-005 6.74924886e-005
      6.74924886e-005 6.74924886e-005 6.74924886e-005 6.74924886e-005
      6.74924886e-005 6.74924886e-005 6.74924886e-005 6.74924886e-005
      6.74924886e-005 6.74924886e-005 6.74924886e-005 6.74924886e-005
      6.74924886e-005 6.74924886e-005 6.74924886e-005 6.74924886e-005
      6.74924886e-005 6.74924886e-005 6.74924886e-005 6.74924886e-005
      6.74924886e-005 6.74924886e-005 6.74924886e-005 6.74924886e-005
      6.74924886e-005 6.74924886e-005 7.54612047e-005 5.48397365e-005
      6.79222503e-005 6.09302260e-005 -2.13536623e-005 -2.75466646e-005
      -1.77558195e-005 -3.69814952e-005 -2.50840349e-005
      -2.50840349e-005 -2.50840349e-005 -2.50840349e-005
      -2.50840349e-005 -2.50840349e-005 -2.50840349e-005
      -2.50840349e-005 -2.50840349e-005 -2.50840349e-005
      -2.50840349e-005 -2.50840349e-005 -2.50840349e-005
      -2.50840349e-005 -2.50840349e-005 -2.50840349e-005
      -2.50840349e-005 -2.50840349e-005 -2.50840349e-005
      -2.50840349e-005 -2.50840349e-005 -2.50840349e-005
      -2.50840349e-005 -2.50840349e-005 -2.50840349e-005
      -2.50840349e-005 -2.50840349e-005 -2.50840349e-005
      -2.50840349e-005 -2.50840349e-005 -2.50840349e-005
      -2.50840349e-005 -2.50840349e-005 -2.50840349e-005
      -2.50840349e-005 -2.50840349e-005 -2.50840349e-005
      -2.50840349e-005 -2.50840349e-005 -2.50840349e-005
      -2.50840349e-005 -2.50840349e-005 -2.50840349e-005
      -2.50840349e-005 -2.50840349e-005 -2.50840349e-005
      -2.50840349e-005 -2.50840349e-005 -2.38812208e-005
      -3.43518877e-005 -1.40692964e-005 4.45402202e-006 -4.45541531e-007
      7.97680786e-006 7.35843912e-007 7.87406680e-006 6.59758371e-006
      6.59758371e-006 6.59758371e-006 6.59758371e-006 6.59758371e-006
      6.59758371e-006 6.59758371e-006 6.59758371e-006 6.59758371e-006
      6.59758371e-006 6.59758371e-006 6.59758371e-006 6.59758371e-006
      6.59758371e-006 6.59758371e-006 6.59758371e-006 6.59758371e-006
      6.59758371e-006 6.59758371e-006 6.59758371e-006 6.59758371e-006
      6.59758371e-006 6.59758371e-006 6.59758371e-006 6.59758371e-006
      6.59758371e-006 6.59758371e-006 6.59758371e-006 6.59758371e-006
      6.59758371e-006 6.59758371e-006 6.59758371e-006 6.59758371e-006
      6.59758371e-006 6.59758371e-006 6.59758371e-006 6.59758371e-006
      6.59758371e-006 6.59758371e-006 6.59758371e-006 6.59758371e-006
      6.59758371e-006 6.59758371e-006 6.59758371e-006 6.59758371e-006
      6.59758371e-006 6.59758371e-006 6.59758371e-006 3.52799975e-006
      1.18825601e-005 2.28118042e-005 1.79333911e-005 2.25343683e-006
      1.84010350e-005 1.16715964e-005 1.23582722e-005 1.52343327e-005
      1.52343327e-005 1.52343327e-005 1.52343327e-005 1.52343327e-005
      1.52343327e-005 1.52343327e-005 1.52343327e-005 1.51128206e-005
      1.52343327e-005 1.47789606e-005 1.61450789e-005 1.43235875e-005
      1.54466798e-005 1.56897058e-005 1.53558467e-005 1.52343327e-005
      1.52343327e-005 1.52343327e-005 1.52343327e-005 1.52343327e-005
      1.52343327e-005 1.52343327e-005 1.52343327e-005 1.55681937e-005
      1.53558467e-005 1.49913076e-005 1.45666127e-005 1.61450789e-005
      1.49004727e-005 1.52343327e-005 1.53558467e-005 1.52343327e-005
      1.52343327e-005 1.52343327e-005 1.52343327e-005 1.52343327e-005
      1.52343327e-005 1.52343327e-005 1.52343327e-005 1.37635807e-005
      8.32436490e-006 1.99409333e-005 9.04594344e-006 1.21498006e-005
      1.81086598e-005 1.05631007e-004 1.05037485e-004 1.03797865e-004
      1.03797865e-004 1.03797865e-004 1.03797865e-004 1.03797865e-004
      1.03797865e-004 1.03797865e-004 1.03797865e-004 1.03797865e-004
      1.03797865e-004 1.03797865e-004 1.03797865e-004 1.03797865e-004
      1.03797865e-004 1.03797865e-004 1.03797865e-004 1.03797865e-004
      1.03797865e-004 1.03797865e-004 1.03797865e-004 1.03797865e-004
      1.03797865e-004 1.03797865e-004 1.03797865e-004 1.03797865e-004
      1.03797865e-004 1.03797865e-004 1.03797865e-004 1.03797865e-004
      1.03797865e-004 1.03797865e-004 1.03797865e-004 1.03797865e-004
      1.03797865e-004 1.03797865e-004 1.03797865e-004 1.03797865e-004
      1.03797865e-004 1.03797865e-004 1.03797865e-004 1.03797865e-004
      1.03797865e-004 1.03797865e-004 1.03797865e-004 1.03797865e-004
      1.03797865e-004 1.03797865e-004 1.03797865e-004 1.03584483e-004
      9.70205292e-005 -4.41169686e-006 -1.46789544e-005 -1.69646046e-005
      -1.97668141e-005 -1.64576031e-005 -5.74757223e-006
      -1.75766254e-005 -1.75766254e-005 -1.75766254e-005
      -1.75766254e-005 -1.75766254e-005 -1.75766254e-005
      -1.75766254e-005 -1.75766254e-005 -1.75766254e-005
      -1.75766254e-005 -1.75766254e-005 -1.75766254e-005
      -1.75766254e-005 -1.75766254e-005 -1.75766254e-005
      -1.75766254e-005 -1.75766254e-005 -1.75766254e-005
      -1.75766254e-005 -1.75766254e-005 -1.75766254e-005
      -1.75766254e-005 -1.75766254e-005 -1.75766254e-005
      -1.75766254e-005 -1.75766254e-005 -1.75766254e-005
      -1.75766254e-005 -1.75766254e-005 -1.75766254e-005
      -1.75766254e-005 -1.75766254e-005 -1.75766254e-005
      -1.75766254e-005 -1.75766254e-005 -1.75766254e-005
      -1.75766254e-005 -1.75766254e-005 -1.75766254e-005
      -1.75766254e-005 -1.04177698e-005 -2.14544307e-005
      -2.34214440e-005 -1.27582352e-005 -2.74258346e-005
      -3.26793779e-005 -3.62035207e-005 -2.99477178e-005
      -3.40485349e-005 -3.40485349e-005 -3.40485349e-005
      -3.40485349e-005 -3.40485349e-005 -3.40485349e-005
      -3.40485349e-005 -3.40485349e-005 -3.40485349e-005
      -3.40485349e-005 -3.40485349e-005 -3.40485349e-005
      -3.40485349e-005 -3.40485349e-005 -3.40485349e-005
      -3.40485349e-005 -3.40485349e-005 -3.40485349e-005
      -3.40485349e-005 -3.40485349e-005 -3.40485349e-005
      -3.40485349e-005 -3.40485349e-005 -3.40485349e-005
      -3.40485349e-005 -3.40485349e-005 -3.40485349e-005
      -3.40485349e-005 -3.40485349e-005 -3.40485349e-005
      -3.40485349e-005 -3.40485349e-005 -3.40485349e-005
      -3.40485349e-005 -3.40485349e-005 -3.40485349e-005
      -3.40485349e-005 -3.40485349e-005 -3.40485349e-005
      -3.40485349e-005 -2.62567537e-005 -3.61539860e-005
      -5.07776713e-005 -3.44483124e-005 -2.26839711e-005
      -3.87684740e-005 -1.90064948e-005 7.58191236e-005 8.32979713e-005
      8.32979713e-005 8.32979713e-005 8.32979713e-005 8.32979713e-005
      8.32979713e-005 8.32979713e-005 8.32979713e-005 8.32979713e-005
      8.32979713e-005 8.32979713e-005 8.32979713e-005 8.32979713e-005
      8.32979713e-005 8.32979713e-005 8.32979713e-005 8.32979713e-005
      8.32979713e-005 8.32979713e-005 8.32979713e-005 8.32979713e-005
      8.32979713e-005 8.32979713e-005 8.32979713e-005 8.32979713e-005
      8.32979713e-005 8.32979713e-005 8.32979713e-005 8.32979713e-005
      8.32979713e-005 8.32979713e-005 8.32979713e-005 8.32979713e-005
      8.32979713e-005 8.32979713e-005 8.32979713e-005 8.32979713e-005
      8.32979713e-005 8.32979713e-005 8.32979713e-005 8.32979713e-005
      8.32979713e-005 8.32979713e-005 8.32979713e-005 8.32979713e-005
      8.32979713e-005 8.32979713e-005 8.32979713e-005 -1.67032020e-004
      -1.67032020e-004 -1.67032020e-004 -1.67032020e-004
      -1.67032020e-004 -1.67032020e-004 -1.67032020e-004
      -1.67032020e-004 -1.67032020e-004 -1.67032020e-004
      -1.67032020e-004 -1.67032020e-004 -1.67032020e-004
      -1.67032020e-004 -1.67032020e-004 -1.67032020e-004
      -1.67032020e-004 -1.67032020e-004 -1.67032020e-004
      -1.67032020e-004 -1.67032020e-004 -1.67032020e-004
      -1.67032020e-004 -1.67032020e-004 -1.67032020e-004
      -1.67032020e-004 -1.67032020e-004 -1.67032020e-004
      -1.67032020e-004 -1.67032020e-004 -1.67032020e-004
      -1.67032020e-004 -1.67032020e-004 -1.67032020e-004
      -1.67032020e-004 -1.67032020e-004 -1.67032020e-004
      -1.67032020e-004 -1.67032020e-004 -1.67032020e-004
      -1.67032020e-004 -1.67032020e-004 -1.67032020e-004
      -1.67032020e-004 -1.67032020e-004 -1.67032020e-004
      -1.67032020e-004 -1.67032020e-004 6.59758371e-006 6.59758371e-006
      6.59758371e-006 6.59758371e-006 6.59758371e-006 6.59758371e-006
      6.59758371e-006 6.59758371e-006 6.59758371e-006 6.59758371e-006
      6.59758371e-006 6.59758371e-006 6.59758371e-006 6.59758371e-006
      6.59758371e-006 6.59758371e-006 6.59758371e-006 6.59758371e-006
      6.59758371e-006 6.59758371e-006 6.59758371e-006 6.59758371e-006
      6.59758371e-006 6.59758371e-006 6.59758371e-006 6.59758371e-006
      6.59758371e-006 6.59758371e-006 6.59758371e-006 6.59758371e-006
      6.59758371e-006 6.59758371e-006 6.59758371e-006 6.59758371e-006
      6.59758371e-006 6.59758371e-006 6.59758371e-006 6.59758371e-006
      6.59758371e-006 6.59758371e-006 -2.82847651e-007 -1.09486309e-005
      6.00801377e-006 7.33048091e-006 -2.16769809e-006 1.96202654e-005
      5.05449043e-006 4.36827795e-005 4.97770416e-005 4.97770416e-005
      4.97770416e-005 4.97770416e-005 4.97770416e-005 4.97770416e-005
      4.97770416e-005 4.97770416e-005 4.97770416e-005 4.97770416e-005
      4.97770416e-005 4.97770416e-005 4.97770416e-005 4.97770416e-005
      4.97770416e-005 4.97770416e-005 4.97770416e-005 4.97770416e-005
      4.97770416e-005 4.97770416e-005 4.97770416e-005 4.97770416e-005
      4.97770416e-005 4.97770416e-005 4.97770416e-005 4.97770416e-005
      4.97770416e-005 4.97770416e-005 4.97770416e-005 4.97770416e-005
      4.97770416e-005 4.97770416e-005 4.97770416e-005 4.97770416e-005
      4.97770416e-005 4.97770416e-005 4.97770416e-005 4.97770416e-005
      4.97770416e-005 4.97770416e-005 4.79070659e-005 6.52662929e-005
      4.57212154e-005 3.90623900e-005 4.70956438e-005 2.10864546e-005
      4.83055228e-005 2.71975623e-005 2.92373043e-005 2.92373043e-005
      2.92373043e-005 2.92373043e-005 2.92373043e-005 2.92373043e-005
      2.92373043e-005 2.92373043e-005 2.92373043e-005 2.92373043e-005
      2.92373043e-005 2.92373043e-005 2.92373043e-005 2.92373043e-005
      2.92373043e-005 2.92373043e-005 2.92373043e-005 2.92373043e-005
      2.92373043e-005 2.92373043e-005 2.92373043e-005 2.92373043e-005
      2.92373043e-005 2.92373043e-005 2.92373043e-005 2.92373043e-005
      2.92373043e-005 2.92373043e-005 2.92373043e-005 2.92373043e-005
      2.92373043e-005 2.92373043e-005 2.92373043e-005 2.92373043e-005
      2.92373043e-005 2.92373043e-005 2.92373043e-005 2.92373043e-005
      2.92373043e-005 2.92373043e-005 1.98105154e-005 2.75526363e-005
      -7.53301356e-005 -8.33820886e-005 -6.86755229e-005
      -6.76679192e-005 -8.47612755e-005 -7.30695247e-005
      -7.67631354e-005 -7.67631354e-005 -7.67631354e-005
      -7.67631354e-005 -7.67631354e-005 -7.67631354e-005
      -7.67631354e-005 -7.67631354e-005 -7.67631354e-005
      -7.67631354e-005 -7.67631354e-005 -7.67631354e-005
      -7.67631354e-005 -7.67631354e-005 -7.67631354e-005
      -7.67631354e-005 -7.67631354e-005 -7.67631354e-005
      -7.67631354e-005 -7.67631354e-005 -7.67631354e-005
      -7.67631354e-005 -7.67631354e-005 -7.67631354e-005
      -7.67631354e-005 -7.67631354e-005 -7.67631354e-005
      -7.67631354e-005 -7.67631354e-005 -7.67631354e-005
      -7.67631354e-005 -7.67631354e-005 -7.55559668e-005
      -8.37090629e-005 -6.74901530e-005 -6.79373261e-005
      -8.14360028e-005 -7.86048331e-005 -2.70479577e-005
      -3.50831106e-005 -2.50840349e-005 -2.50840349e-005
      -2.50840349e-005 -2.50840349e-005 -2.50840349e-005
      -2.50840349e-005 -2.50840349e-005 -2.50840349e-005
      -2.50840349e-005 -2.50840349e-005 -2.50840349e-005
      -2.50840349e-005 -2.50840349e-005 -2.50840349e-005
      -2.50840349e-005 -2.50840349e-005 -2.50840349e-005
      -2.50840349e-005 -2.50840349e-005 -2.50840349e-005
      -2.50840349e-005 -2.50840349e-005 -2.50840349e-005
      -2.50840349e-005 -2.50840349e-005 -2.50840349e-005
      -2.50840349e-005 -2.50840349e-005 -2.50840349e-005
      -2.50840349e-005 -2.50840349e-005 -2.50840349e-005
      -2.50840349e-005 -2.50840349e-005 -2.50840349e-005
      -2.50840349e-005 -2.50840349e-005 -2.50840349e-005
      -2.50840349e-005 -2.50840349e-005 -3.82457692e-005
      -1.14516915e-004 -1.26576502e-004 -1.16311596e-004
      -1.31802430e-004 -1.35499387e-004 -1.32381916e-004
      -1.24406826e-004 -1.24196042e-004 -1.24529906e-004
      -1.24529906e-004 -1.24867482e-004 -1.24867482e-004
      -1.25535211e-004 -1.25535211e-004 -1.25535211e-004
      -1.25201346e-004 -1.25201346e-004 -1.25201346e-004
      -1.25201346e-004 -1.25201346e-004 -1.25201346e-004
      -1.25201346e-004 -1.25201346e-004 -1.25444378e-004
      -1.23956735e-004 -1.25201346e-004 -1.25413688e-004
      -1.25201346e-004 -1.25656719e-004 -1.25079838e-004
      -1.25656719e-004 -1.25535211e-004 -1.25535211e-004
      -1.25535211e-004 -1.24867482e-004 -1.24867482e-004
      -1.25201346e-004 -1.25201346e-004 -1.24867482e-004
      -1.22321624e-004 -1.29569278e-004 -1.18022486e-004
      -6.49841677e-005 -6.29821079e-005 -6.85601626e-005
      -5.69310978e-005 -6.31476069e-005 -6.57650453e-005
      -6.57650453e-005 -6.57650453e-005 -6.57650453e-005
      -6.57650453e-005 -6.57650453e-005 -6.57650453e-005
      -6.57650453e-005 -6.57650453e-005 -6.57650453e-005
      -6.57650453e-005 -6.57650453e-005 -6.57650453e-005
      -6.57650453e-005 -6.57650453e-005 -6.57650453e-005
      -6.57650453e-005 -6.57650453e-005 -6.57650453e-005
      -6.57650453e-005 -6.57650453e-005 -6.57650453e-005
      -6.57650453e-005 -6.57650453e-005 -6.57650453e-005
      -6.57650453e-005 -6.57650453e-005 -6.57650453e-005
      -6.57650453e-005 -6.57650453e-005 -6.57650453e-005
      -6.57650453e-005 -6.18244521e-005 -6.21493527e-005
      -5.16957298e-005 -5.53644204e-005 4.03768718e-005 3.39970138e-005
      4.64472687e-005 4.71437088e-005 4.82924188e-005 4.82924188e-005
      4.82924188e-005 4.82924188e-005 4.82924188e-005 4.82924188e-005
      4.82924188e-005 4.82924188e-005 4.82924188e-005 4.82924188e-005
      4.82924188e-005 4.82924188e-005 4.82924188e-005 4.82924188e-005
      4.82924188e-005 4.82924188e-005 4.82924188e-005 4.82924188e-005
      4.82924188e-005 4.82924188e-005 4.82924188e-005 4.82924188e-005
      4.82924188e-005 4.82924188e-005 4.82924188e-005 4.82924188e-005
      4.82924188e-005 4.82924188e-005 4.82924188e-005 4.82924188e-005
      4.82924188e-005 4.82924188e-005 4.75478664e-005 4.29095744e-005
      5.46732372e-005 3.38392529e-005 1.74955479e-004 1.58745184e-004
      1.65699734e-004 1.64346100e-004 1.64488607e-004 1.64154757e-004
      1.64154757e-004 1.64488607e-004 1.64488607e-004 1.63820892e-004
      1.63820892e-004 1.64154757e-004 1.64154757e-004 1.64154757e-004
      1.64154757e-004 1.64154757e-004 1.64154757e-004 1.64154757e-004
      1.64154757e-004 1.64154757e-004 1.64154757e-004 1.65156336e-004
      1.64154757e-004 1.63820892e-004 1.64154757e-004 1.63820892e-004
      1.64154757e-004 1.63820892e-004 1.64154757e-004 1.63820892e-004
      1.63820892e-004 1.64488607e-004 1.64488607e-004 1.64154757e-004
      1.64154757e-004 1.64488607e-004 1.66086247e-004 1.65843943e-004
      1.72009692e-004 -1.24986705e-004 -1.27194216e-004 -1.27532490e-004
      -1.26836370e-004 -1.29691980e-004 -1.25944571e-004
      -1.25944571e-004 -1.25944571e-004 -1.25944571e-004
      -1.25944571e-004 -1.25944571e-004 -1.25944571e-004
      -1.25944571e-004 -1.26278421e-004 -1.26278421e-004
      -1.26278421e-004 -1.25610706e-004 -1.25610706e-004
      -1.25944571e-004 -1.25944571e-004 -1.25610706e-004
      -1.25944571e-004 -1.25944571e-004 -1.25944571e-004
      -1.25944571e-004 -1.25944571e-004 -1.25944571e-004
      -1.25944571e-004 -1.25944571e-004 -1.26278421e-004
      -1.25944571e-004 -1.25944571e-004 -1.25610706e-004
      -1.26612285e-004 -1.25276842e-004 -1.26278421e-004
      -1.25944571e-004 -1.23072925e-004 -2.48740325e-005
      -2.57678039e-005 -1.91887975e-005 -1.98488760e-005
      -1.39265112e-005 -2.36572978e-005 -9.61305432e-006
      -1.58475741e-005 -1.58475741e-005 -1.58475741e-005
      -1.58475741e-005 -1.58475741e-005 -1.58475741e-005
      -1.58475741e-005 -1.58475741e-005 -1.58475741e-005
      -1.58475741e-005 -1.58475741e-005 -1.58475741e-005
      -1.58475741e-005 -1.58475741e-005 -1.58475741e-005
      -1.58475741e-005 -1.58475741e-005 -1.58475741e-005
      -1.58475741e-005 -1.58475741e-005 -1.58475741e-005
      -1.58475741e-005 -1.58475741e-005 -1.58475741e-005
      -5.82841722e-006 -3.09794486e-005 -1.94241748e-005
      -6.89667695e-006 -3.05873727e-005 -2.27616674e-005 1.10325200e-004
      7.55427245e-005 8.76179838e-005 8.76179838e-005 8.76179838e-005
      8.76179838e-005 8.76179838e-005 8.76179838e-005 8.76179838e-005
      8.76179838e-005 8.76179838e-005 8.76179838e-005 8.76179838e-005
      8.76179838e-005 8.76179838e-005 8.76179838e-005 8.76179838e-005
      8.76179838e-005 8.76179838e-005 8.76179838e-005 8.76179838e-005
      8.76179838e-005 8.76179838e-005 8.76179838e-005 8.76179838e-005
      8.76179838e-005 8.76179838e-005 8.76179838e-005 8.76179838e-005
      8.76179838e-005 8.76179838e-005 8.76179838e-005 8.76179838e-005
      8.76179838e-005 7.94209991e-005 8.20122295e-005 3.32010022e-005
      3.47373207e-005 3.09492025e-005 3.04957521e-005 3.24005778e-005
      3.56631535e-005 2.96608414e-005 2.96608414e-005 2.96608414e-005
      2.96608414e-005 2.96608414e-005 2.96608414e-005 2.96608414e-005
      2.96608414e-005 2.96608414e-005 2.96608414e-005 2.96608414e-005
      2.96608414e-005 2.96608414e-005 2.96608414e-005 2.96608414e-005
      2.96608414e-005 2.96608414e-005 2.96608414e-005 2.96608414e-005
      2.96608414e-005 2.96608414e-005 2.96608414e-005 2.96608414e-005
      2.96608414e-005 3.30045732e-005 1.56599926e-005 3.68019428e-005
      3.77583383e-005 3.63795298e-005 5.32934864e-005 7.47669546e-005
      5.59378204e-005 6.21427462e-005 6.21427462e-005 6.21427462e-005
      6.21427462e-005 6.21427462e-005 6.21427462e-005 6.21427462e-005
      6.21427462e-005 6.21427462e-005 6.21427462e-005 6.21427462e-005
      6.21427462e-005 6.21427462e-005 6.21427462e-005 6.21427462e-005
      6.21427462e-005 6.21427462e-005 6.21427462e-005 6.21427462e-005
      6.21427462e-005 6.21427462e-005 6.21427462e-005 6.21427462e-005
      6.21427462e-005 6.35125616e-005 6.47611087e-005 4.43721983e-005
      7.11852554e-005 5.99080267e-005 4.87147663e-005 6.53261159e-005
      -6.68783541e-005 -7.11945468e-005 -7.11945468e-005
      -7.11945468e-005 -7.11945468e-005 -7.11945468e-005
      -7.11945468e-005 -7.11945468e-005 -7.11945468e-005
      -7.11945468e-005 -7.11945468e-005 -7.11945468e-005
      -7.11945468e-005 -7.11945468e-005 -7.11945468e-005
      -7.11945468e-005 -7.11945468e-005 -7.11945468e-005
      -7.11945468e-005 -7.11945468e-005 -7.11945468e-005
      -7.11945468e-005 -7.11945468e-005 -7.11945468e-005
      -7.11945468e-005 -7.11945468e-005 -7.11945468e-005
      -7.11945468e-005 -7.11945468e-005 -7.11945468e-005
      -7.11945468e-005 -7.11945468e-005 -7.11945468e-005
      -2.56730527e-005 -2.56730527e-005 -2.56730527e-005
      -2.56730527e-005 -2.56730527e-005 -2.56730527e-005
      -2.56730527e-005 -2.56730527e-005 -2.60069137e-005
      -2.56730527e-005 -2.60069137e-005 -2.56730527e-005
      -2.60069137e-005 -2.56730527e-005 -2.46714735e-005
      -2.56730527e-005 -2.56730527e-005 -2.56730527e-005
      -2.56730527e-005 -2.56730527e-005 -2.56730527e-005
      -2.56730527e-005 -2.56730527e-005 -2.56730527e-005
      -2.53391936e-005 -2.56730527e-005 -2.56730527e-005
      -2.63407728e-005 -2.50053326e-005 -2.60069137e-005
      -2.56730527e-005 -2.56730527e-005 -7.22350524e-005
      -7.22350524e-005 -7.22350524e-005 -7.22350524e-005
      -7.22350524e-005 -7.22350524e-005 -7.22350524e-005
      -7.22350524e-005 -7.22350524e-005 -7.22350524e-005
      -7.22350524e-005 -7.22350524e-005 -7.22350524e-005
      -7.22350524e-005 -7.22350524e-005 -7.22350524e-005
      -7.22350524e-005 -7.22350524e-005 -7.22350524e-005
      -7.22350524e-005 -7.22350524e-005 -7.22350524e-005
      -7.22350524e-005 -7.22350524e-005 -7.57598173e-005
      -6.27484478e-005 -7.72881976e-005 -7.22559053e-005
      -6.50583825e-005 -8.49771095e-005 -6.07284383e-005
      -2.64602022e-005 -2.50840349e-005 -2.50840349e-005
      -2.50840349e-005 -2.50840349e-005 -2.50840349e-005
      -2.50840349e-005 -2.50840349e-005 -2.50840349e-005
      -2.50840349e-005 -2.50840349e-005 -2.50840349e-005
      -2.50840349e-005 -2.50840349e-005 -2.50840349e-005
      -2.50840349e-005 -2.50840349e-005 -2.50840349e-005
      -2.50840349e-005 -2.50840349e-005 -2.50840349e-005
      -2.50840349e-005 -2.50840349e-005 -2.50840349e-005
      -2.50840349e-005 -2.14356260e-005 -3.92716829e-005
      -3.62677820e-005 -1.89436432e-005 -3.29028117e-005
      -1.42560981e-004 -1.49213112e-004 -1.41136377e-004
      -1.45424186e-004 -1.45424186e-004 -1.45424186e-004
      -1.45424186e-004 -1.45424186e-004 -1.45424186e-004
      -1.45424186e-004 -1.45424186e-004 -1.45424186e-004
      -1.45424186e-004 -1.45424186e-004 -1.45424186e-004
      -1.45424186e-004 -1.45424186e-004 -1.45424186e-004
      -1.45424186e-004 -1.44864345e-004 -1.44864345e-004
      -1.44864345e-004 -1.44864345e-004 -1.44864345e-004
      -1.44864345e-004 -1.44864345e-004 -1.44864345e-004
      -1.54269714e-004 -1.33525886e-004 -3.27041307e-005
      -2.17074448e-005 -3.25157453e-005 -3.59735423e-005
      -2.56095354e-005 -2.15276123e-005 -2.50840349e-005
      -2.50840349e-005 -2.50840349e-005 -2.50840349e-005
      -2.50840349e-005 -2.50840349e-005 -2.50840349e-005
      -2.50840349e-005 -2.50840349e-005 -2.50840349e-005
      -2.50840349e-005 -2.50840349e-005 -2.50840349e-005
      -2.50840349e-005 -2.50840349e-005 -2.50840349e-005
      -2.34223389e-005 -2.51373931e-005 -2.69030970e-005
      -2.70370310e-005 -2.59710177e-005 -2.62280628e-005
      -6.82186655e-005 -6.80864614e-005 -6.71119997e-005
      -6.71119997e-005 -6.71119997e-005 -6.71119997e-005
      -6.71119997e-005 -6.71119997e-005 -6.71119997e-005
      -6.71119997e-005 -6.71119997e-005 -6.71119997e-005
      -6.71119997e-005 -6.71119997e-005 -6.71119997e-005
      -6.71119997e-005 -6.71119997e-005 -6.71119997e-005
      -6.71119997e-005 -6.71119997e-005 -6.71119997e-005
      -6.71119997e-005 -6.71119997e-005 -6.71119997e-005
      -6.71119997e-005 -6.71119997e-005 -5.99314699e-005 9.52839328e-005
      9.95310256e-005 1.07802094e-004 9.25492350e-005 9.26037610e-005
      1.18034193e-004 8.28190095e-005 1.03874125e-004 1.03874125e-004
      1.03874125e-004 1.03874125e-004 1.03874125e-004 1.03874125e-004
      1.03874125e-004 1.03874125e-004 1.03874125e-004 1.03874125e-004
      1.03874125e-004 1.03874125e-004 1.03874125e-004 1.03874125e-004
      1.03874125e-004 1.03874125e-004 9.80606856e-005 9.83337450e-005
      1.15560135e-004 1.81088926e-005 2.24426476e-005 2.79407905e-005
      3.54042786e-005 2.53602557e-005 2.61210425e-005 2.51796191e-005
      2.69102748e-005 2.48457582e-005 2.63333895e-005 2.58780165e-005
      2.61210425e-005 2.54226434e-005 2.58780165e-005 2.58780165e-005
      2.58780165e-005 2.58780165e-005 2.58780165e-005 2.58780165e-005
      2.58780165e-005 2.58780165e-005 2.47999142e-005 2.09663722e-005
      2.57202555e-005 3.11517906e-005 9.12344985e-005 9.98728356e-005
      1.05248160e-004 1.01543330e-004 1.03874125e-004 1.03874125e-004
      1.03874125e-004 1.03874125e-004 1.03874125e-004 1.03874125e-004
      1.03874125e-004 1.03874125e-004 1.03874125e-004 1.03874125e-004
      1.03874125e-004 1.03874125e-004 1.03874125e-004 1.03874125e-004
      1.03874125e-004 1.03874125e-004 9.42981496e-005 1.11673893e-004
      1.09303655e-004 1.05064333e-004 6.79236618e-005 6.61370213e-005
      6.05916321e-005 7.76733577e-005 6.74924886e-005 6.74924886e-005
      6.74924886e-005 6.74924886e-005 6.74924886e-005 6.74924886e-005
      6.74924886e-005 6.74924886e-005 6.74924886e-005 6.74924886e-005
      6.74924886e-005 6.74924886e-005 6.74924886e-005 6.74924886e-005
      6.74924886e-005 6.74924886e-005 6.19980347e-005 7.38027011e-005
      6.80182857e-005 -3.59571059e-005 -2.24968244e-005 -2.57091579e-005
      -3.54490767e-005 -2.93888588e-005 -2.50840349e-005
      -2.50840349e-005 -2.50840349e-005 -2.50840349e-005
      -2.50840349e-005 -2.50840349e-005 -2.50840349e-005
      -2.50840349e-005 -2.50840349e-005 -2.50840349e-005
      -2.50840349e-005 -2.50840349e-005 -2.50840349e-005
      -2.50840349e-005 -2.50840349e-005 -2.50840349e-005
      -2.77128056e-005 2.51109941e-005 2.06332643e-005 2.51593392e-005
      2.16636690e-005 1.96897217e-005 2.68601507e-005 1.93841461e-005
      2.36286851e-005 2.36286851e-005 2.36286851e-005 2.36286851e-005
      2.36286851e-005 2.36286851e-005 2.36286851e-005 2.36286851e-005
      1.85958088e-005 2.42928036e-005 2.17201850e-005 1.86524449e-005
      3.54369949e-005 2.85722581e-005 -4.04765487e-005 -3.75632226e-005
      -3.75001000e-005 -3.75001000e-005 -3.75001000e-005
      -3.75001000e-005 -3.75001000e-005 -3.75001000e-005
      -3.75001000e-005 -3.75001000e-005 -3.75001000e-005
      -3.75001000e-005 -3.75001000e-005 -3.75001000e-005
      -3.75001000e-005 -3.75001000e-005 -3.75001000e-005
      -3.75001000e-005 -3.06667025e-005 -4.65683661e-005
      -1.84546425e-005 -2.23183633e-005 -4.28586245e-005
      -2.67208816e-005 -2.96960698e-005 -2.39587971e-005
      -2.56730527e-005 -2.56730527e-005 -2.56730527e-005
      -2.56730527e-005 -2.56730527e-005 -2.56730527e-005
      -2.56730527e-005 -2.56730527e-005 -2.63970269e-005
      -2.82675919e-005 -2.30580990e-005 -2.27901237e-005
      -2.56950316e-005 -2.54319802e-005 -3.34386605e-005
      -2.28623121e-005 -2.55247578e-005 -2.55247578e-005
      -2.55247578e-005 -2.55247578e-005 -2.55247578e-005
      -2.55247578e-005 -2.55247578e-005 -2.55247578e-005
      -2.31724880e-005 -3.85760941e-005 -2.82139354e-005
      -4.79637129e-006 -2.83763002e-005 -2.72768975e-005
      -1.35198025e-005 7.74071232e-005 8.23001101e-005 8.23001101e-005
      8.23001101e-005 8.23001101e-005 8.23001101e-005 8.23001101e-005
      8.23001101e-005 8.23001101e-005 8.23001101e-005 8.23001101e-005
      8.23001101e-005 8.23001101e-005 8.23001101e-005 8.23001101e-005
      8.23001101e-005 8.23001101e-005 -2.54443839e-005 -2.54443839e-005
      -2.54443839e-005 -2.54443839e-005 -2.54443839e-005
      -2.54443839e-005 -2.54443839e-005 -2.54443839e-005
      -2.54443839e-005 -2.54443839e-005 -2.54443839e-005
      -2.54443839e-005 -2.54443839e-005 -2.54443839e-005
      -2.54443839e-005 -2.54443839e-005 -2.50840349e-005
      -2.50840349e-005 -2.50840349e-005 -2.50840349e-005
      -2.50840349e-005 -2.50840349e-005 -2.50840349e-005
      -2.50840349e-005 -1.66408227e-005 -2.68755412e-005
      -3.56089986e-005 -2.69125067e-005 -2.53827420e-005
      -2.44513303e-005 -2.85847327e-005 2.07649471e-004 2.19482230e-004
      2.19482230e-004 2.19482230e-004 2.19482230e-004 2.19482230e-004
      2.19482230e-004 2.19482230e-004 2.19482230e-004 2.17297478e-004
      2.21878305e-004 2.19594571e-004 2.24860283e-004 2.19260284e-004
      -2.13121184e-005 -3.51872441e-005 -1.82669592e-005
      -2.50840349e-005 -2.50840349e-005 -2.50840349e-005
      -2.50840349e-005 -2.50840349e-005 -2.50840349e-005
      -2.50840349e-005 -2.50840349e-005 -2.56330313e-005
      -3.56229903e-005 -6.60110891e-005 -8.15712920e-005
      -6.59126890e-005 -7.77450405e-005 -7.03266196e-005
      -7.70531769e-005 -8.01198985e-005 -7.65920631e-005
      -7.67924575e-005 -7.25272766e-005 -7.20074822e-005
      -7.44964054e-005 8.44944861e-006 3.27739895e-006 4.44551688e-006
      4.44551688e-006 4.44551688e-006 4.44551688e-006 4.44551688e-006
      4.44551688e-006 4.44551688e-006 4.44551688e-006 1.61078628e-006
      4.97991005e-006 2.07404755e-005 1.19645147e-005 -3.51557873e-007
      1.21663879e-005 1.83505654e-005 9.30047099e-006 8.89569310e-006
      1.01844607e-005 8.83433404e-006 -2.83188492e-005 -2.37760814e-005
      -3.08952185e-005 -2.45987721e-005 -3.19070750e-005
      -3.71030073e-005 -1.69628674e-005 -2.77800536e-005
      -1.95731391e-005 5.91497010e-005 6.80341254e-005 5.40467845e-005
      7.54612047e-005 6.51530281e-005 6.86208223e-005 7.45381622e-005
      6.44538595e-005 -1.07862346e-004 -1.14034592e-004 -1.10366702e-004
      -1.08554465e-004 -1.02425271e-004 -1.10399524e-004
      -9.91080015e-005 -5.07467848e-005 -4.68155595e-005
      -4.50110929e-005 -3.96275864e-005 -4.34088179e-005
      -5.38284476e-005 -1.44812555e-004 -1.57478193e-004
      -1.45553407e-004 -1.60463300e-004 -1.51184897e-004
      -3.68928740e-005 -5.41948793e-005 -4.14999813e-005
      -5.99344239e-005 -1.44562713e-004 -1.44417238e-004
      -1.26544808e-004 -2.60213365e-005 -1.44760079e-005
      -2.95958889e-005</_></support_vectors>
  <decision_functions>
    <_>
      <sv_count>1</sv_count>
      <rho>-1.1389695763717594e-002</rho>
      <alpha>
        1.</alpha>
      <index>
        0</index></_></decision_functions></my_svm>
</opencv_storage>
