<?xml version="1.0"?>
<opencv_storage>
<my_svm type_id="opencv-ml-svm">
  <svm_type>C_SVC</svm_type>
  <kernel><type>LINEAR</type></kernel>
  <C>1.</C>
  <term_criteria><epsilon>2.2204460492503131e-016</epsilon>
    <iterations>100</iterations></term_criteria>
  <var_all>4544</var_all>
  <var_count>4544</var_count>
  <class_count>2</class_count>
  <class_labels type_id="opencv-matrix">
    <rows>1</rows>
    <cols>2</cols>
    <dt>i</dt>
    <data>
      12 255</data></class_labels>
  <sv_total>1</sv_total>
  <support_vectors>
    <_>
      -1.80286895e-006 -1.80286895e-006 -1.17421496e-006
      -1.07583776e-006 -1.07583776e-006 -1.18985284e-007
      -7.47639262e-007 -7.47639262e-007 -4.59044884e-007 0.
      -2.04203980e-006 -3.03385377e-006 -2.04203980e-006
      -3.27837256e-006 -2.04649041e-006 -2.04649041e-006
      -4.59044884e-007 -4.59044884e-007 0. -1.18985284e-007 0. 0.
      -4.59044884e-007 -6.02263867e-007 1.34578627e-007 -1.43218998e-007
      -1.19844867e-006 -1.05522963e-006 -1.05522963e-006
      -1.05522963e-006 0. 3.12197216e-007 -1.23633288e-006
      -1.23633288e-006 0. 0. 0. 0. -1.23633288e-006 -1.35531820e-006
      8.75293154e-007 5.97495500e-007 0. 0. 0. 0. 1.34513471e-006
      1.37140353e-006 8.66762264e-007 9.85747533e-007 1.53229701e-006
      1.26893735e-006 0. 0. 0. 0. 0. -1.14035508e-007 -1.14035508e-007
      0. 0. 0. 0. -1.14035508e-007 0. 0. -1.02672054e-007 0. 0. 0. 0. 0.
      0. 0. 0. 0. 0. -1.43218998e-007 -1.43218998e-007 -1.43218998e-007
      0. 0. 0. 0. 0. 0. 0. 0. 0. 0. 0. 0. 0. 0. 0. 0. 0. 0. 0.
      -7.47639262e-007 -7.47639262e-007 0. -1.14035508e-007
      -1.14035508e-007 0. 0. 0. -1.23633288e-006 -1.23633288e-006
      2.77797625e-007 2.77797625e-007 2.77797625e-007 0. 0. 0. 0. 0. 0.
      0. 0. 0. 0. 0. 0. 0. 0. 0. 0. 0. 0. 0. 0. 0. 0. 0. 0. 0. 0. 0. 0.
      0. 0. 0. 0. 0. 0. 0. 0. 0. 0. 0. 0. 0. 0. 0. 0. 0. 0. 0. 0. 0. 0.
      0. 0. 0. 0. 0. 0. 0. 0. 0. 0. 0. 0. 0. 0. 0. 0. 0. 0. 0. 0. 0. 0.
      0. 0. 0. 0. 0. 0. 0. 0. 0. 0. 0. 0. 0. 0. 0. 0. 0. 0. 0. 0. 0. 0.
      0. 0. 0. 0. 0. 0. 0. 0. 0. 0. 0. 0. 0. 0. 0. 0. 0. 0. 0. 0. 0. 0.
      0. 0. 0. 0. 0. 0. 0. 0. 0. 0. 0. 0. 0. 0. 0. 0. 0. 0. 0. 0. 0. 0.
      0. 0. 0. 0. 0. 0. 3.20976369e-006 1.49232744e-006 -7.63427408e-007
      -1.25308691e-006 -4.49050020e-007 1.58185935e-006 -4.59217461e-007
      -2.92609889e-006 -3.35632876e-007 -2.59876060e-006
      -1.01148225e-006 1.99612532e-006 -8.15602107e-007 -1.13476392e-006
      -1.10197277e-007 5.67491867e-008 2.21596133e-006 -2.26371331e-008
      -1.30957358e-006 -2.61190439e-006 -4.33089781e-006
      -9.45927013e-007 6.79612924e-007 -1.13609087e-006 -4.56949607e-007
      -7.63269327e-007 -4.35272682e-007 -2.20071001e-006
      -2.97777683e-006 1.76383466e-007 -1.69544671e-006 -2.49014761e-006
      -6.27891097e-007 -4.30967788e-007 -1.14099148e-008
      -1.82676047e-006 -3.88958455e-007 -3.38216068e-007
      -1.30409421e-006 -5.62700791e-007 -2.87748549e-006 2.44504508e-006
      -4.17417965e-007 -3.17906961e-006 -2.30892010e-006
      -1.08868642e-006 9.88687134e-007 2.35178348e-007 -2.88137608e-006
      -1.70748805e-007 -6.71723399e-007 7.16411250e-007 -3.69758754e-006
      -2.36277447e-006 -3.50631262e-006 -2.74565332e-006 8.70492443e-008
      1.00658883e-006 7.80386983e-007 2.27344231e-006 1.54964505e-006
      -1.25892186e-007 3.92377700e-007 -1.42786314e-006 -8.59064926e-008
      -1.93111964e-006 -1.21241044e-006 3.50095684e-006 3.99490136e-006
      1.59080764e-006 8.58002693e-007 4.14017404e-006 -2.58452383e-006
      3.82928931e-007 -1.38455130e-006 -5.56078203e-006 -5.54421695e-006
      -3.21117818e-006 -3.15320608e-006 -5.10085010e-006 8.61539604e-007
      -2.96387043e-006 -4.95753284e-006 -9.71395821e-007
      -2.67943346e-006 -1.28136469e-006 -1.72432738e-006 3.44501905e-006
      -5.37955430e-006 -5.08428548e-006 -2.38364601e-006
      -2.06979237e-007 2.67641121e-006 8.66500670e-007 -7.79520406e-007
      7.82880079e-007 6.81375298e-007 -1.76129970e-006 1.64016535e-006
      3.61527282e-006 3.42758449e-006 3.67210328e-006 -4.62689559e-006
      -5.43807846e-006 4.05794754e-006 3.54168651e-006 4.70470809e-007
      1.44344403e-006 1.01041519e-006 -8.00695091e-007 2.95029986e-006
      2.80580366e-006 1.62372169e-006 1.78796563e-006 0.
      -1.14035508e-007 -1.18985284e-007 0. 8.31113198e-007
      1.78175526e-007 -1.18985284e-007 -1.18985284e-007 0.
      -1.35036839e-006 -1.35036839e-006 -1.23633288e-006
      -7.21249194e-007 -7.21249194e-007 8.07299386e-007 4.77169920e-007
      2.99473481e-006 2.76932542e-006 1.50791072e-006 2.65405197e-006
      5.21035145e-006 3.31517936e-006 2.59503713e-006 3.70385646e-006
      4.47541152e-006 3.32145987e-006 2.02918909e-006 4.37048266e-006
      4.08236929e-006 3.64186099e-006 2.26219004e-006 2.31079821e-006
      7.74731745e-007 -1.76388494e-006 -3.17431795e-006 -4.12084319e-006
      -1.54289785e-006 -5.56288114e-007 -1.40064644e-008 2.20193748e-008
      -3.36147582e-006 -3.47707760e-006 -1.78326070e-006 1.64025593e-007
      1.64025593e-007 -6.20841718e-007 -1.26335738e-006 8.86682130e-007
      3.22837712e-009 4.29195694e-007 -5.75448723e-007 -4.19264825e-006
      -2.67974747e-006 1.58139483e-006 -2.85778697e-006 -3.29941577e-006
      7.35179185e-007 1.88187266e-006 2.07966059e-006 -2.50084213e-007
      -2.45555475e-006 -1.82533415e-006 1.79238896e-006 1.96174187e-006
      1.48580580e-006 -2.83806366e-006 -4.60400452e-006 -2.02613887e-006
      1.31029242e-006 1.80225300e-006 -3.56488999e-006 -2.02136917e-007
      3.16887963e-006 6.10382017e-007 4.07645686e-008 -1.74678837e-006
      -6.48771049e-007 -3.73521448e-006 1.15118223e-006 2.02230513e-006
      2.49095547e-006 6.83785117e-007 -2.46049217e-006 -1.64816322e-006
      -1.71396763e-007 -2.89067111e-006 2.54943302e-006 3.12259476e-006
      2.69609177e-006 8.36305674e-007 -3.71058900e-006 -2.35743960e-006
      -2.04839148e-006 -7.32795684e-007 -2.93234689e-006 1.68549195e-006
      3.06633706e-006 1.16338902e-006 3.81616564e-006 1.16451395e-006
      2.50879594e-007 -4.37717063e-006 2.48056790e-006 3.61329580e-006
      2.42467422e-006 3.16845012e-006 3.62030050e-006 3.07683558e-006
      1.33456444e-006 7.02560328e-007 -4.54093282e-007 -1.17087927e-006
      -2.61438231e-006 -7.58984470e-007 -3.89838169e-006
      -2.84654698e-006 6.58462568e-007 6.02429691e-006 2.50694939e-006
      -2.21866048e-006 -2.32747425e-006 1.66422080e-006 1.88013644e-006
      1.62378490e-006 1.97676940e-007 -2.52323161e-007 5.50623895e-007
      4.19437178e-008 -6.59884961e-007 -4.16333194e-007 6.38896495e-007
      8.11950429e-007 1.76880292e-006 1.79650294e-006 9.97137477e-007
      2.34227218e-006 -2.77797625e-007 1.35036839e-006 1.35036839e-006
      1.23633288e-006 2.62204281e-007 2.62204281e-007 2.27510209e-005
      2.27510209e-005 2.27510209e-005 2.27510209e-005 2.27510209e-005
      2.27510209e-005 2.27510209e-005 2.27510209e-005 2.27510209e-005
      2.27510209e-005 2.27510209e-005 2.27510209e-005 2.27510209e-005
      2.27510209e-005 2.27510209e-005 2.27510209e-005 2.27510209e-005
      2.27510209e-005 2.27510209e-005 2.27510209e-005 2.27510209e-005
      2.27510209e-005 2.27510209e-005 2.27510209e-005 2.27510209e-005
      2.27510209e-005 2.27510209e-005 2.27510209e-005 2.27510209e-005
      2.27510209e-005 2.27510209e-005 2.27510209e-005 2.27510209e-005
      2.27510209e-005 2.27510209e-005 2.27510209e-005 2.27510209e-005
      2.27510209e-005 2.27510209e-005 2.27510209e-005 2.27510209e-005
      2.27510209e-005 2.27510209e-005 2.27510209e-005 2.27510209e-005
      2.27510209e-005 2.27510209e-005 2.27510209e-005 2.27510209e-005
      2.27510209e-005 2.27510209e-005 2.27510209e-005 2.27510209e-005
      2.27510209e-005 2.27510209e-005 2.27510209e-005 2.16507069e-005
      2.68696913e-005 1.61991156e-005 2.35275784e-005 2.55315372e-005
      1.77457514e-005 2.53581820e-005 -9.77848104e-005 -9.25692366e-005
      -9.25692366e-005 -9.25692366e-005 -9.25692366e-005
      -9.25692366e-005 -9.25692366e-005 -9.25692366e-005
      -9.25692366e-005 -9.25692366e-005 -9.25692366e-005
      -9.25692366e-005 -9.25692366e-005 -9.25692366e-005
      -9.25692366e-005 -9.25692366e-005 -9.25692366e-005
      -9.25692366e-005 -9.25692366e-005 -9.25692366e-005
      -9.25692366e-005 -9.25692366e-005 -9.25692366e-005
      -9.25692366e-005 -9.25692366e-005 -9.25692366e-005
      -9.25692366e-005 -9.25692366e-005 -9.25692366e-005
      -9.25692366e-005 -9.25692366e-005 -9.25692366e-005
      -9.25692366e-005 -9.25692366e-005 -9.25692366e-005
      -9.25692366e-005 -9.25692366e-005 -9.25692366e-005
      -9.25692366e-005 -9.25692366e-005 -9.25692366e-005
      -9.25692366e-005 -9.25692366e-005 -9.25692366e-005
      -9.25692366e-005 -9.25692366e-005 -9.25692366e-005
      -9.25692366e-005 -9.25692366e-005 -9.25692366e-005
      -9.25692366e-005 -9.25692366e-005 -9.25692366e-005
      -9.25692366e-005 -9.25692366e-005 -9.25692366e-005
      -9.25692366e-005 -8.27063632e-005 -1.00279714e-004
      -9.82681304e-005 -8.23896917e-005 -9.48999514e-005
      -1.60827240e-005 -1.26935929e-005 -1.20603054e-005
      -1.35144101e-005 -1.35144101e-005 -1.35144101e-005
      -1.35144101e-005 -1.35144101e-005 -1.35144101e-005
      -1.35144101e-005 -1.35144101e-005 -1.35144101e-005
      -1.35144101e-005 -1.35144101e-005 -1.35144101e-005
      -1.35144101e-005 -1.35144101e-005 -1.35144101e-005
      -1.35144101e-005 -1.35144101e-005 -1.35144101e-005
      -1.35144101e-005 -1.35144101e-005 -1.35144101e-005
      -1.35144101e-005 -1.35144101e-005 -1.35144101e-005
      -1.35144101e-005 -1.35144101e-005 -1.35144101e-005
      -1.35144101e-005 -1.35144101e-005 -1.35144101e-005
      -1.35144101e-005 -1.35144101e-005 -1.35144101e-005
      -1.35144101e-005 -1.35144101e-005 -1.35144101e-005
      -1.35144101e-005 -1.35144101e-005 -1.35144101e-005
      -1.35144101e-005 -1.35144101e-005 -1.35144101e-005
      -1.35144101e-005 -1.35144101e-005 -1.35144101e-005
      -1.35144101e-005 -1.35144101e-005 -1.35144101e-005
      -1.35144101e-005 -1.35144101e-005 -1.35144101e-005
      -1.35144101e-005 -1.35144101e-005 -1.35144101e-005
      -1.35144101e-005 -1.35144101e-005 -1.29976515e-005
      -1.40311695e-005 -1.35144101e-005 -1.35144101e-005
      -1.35144101e-005 -1.45479289e-005 -1.19641327e-005
      -1.45479289e-005 -1.35144101e-005 -1.35144101e-005
      -1.35144101e-005 -1.35144101e-005 -1.35144101e-005
      -1.35144101e-005 -1.35144101e-005 -1.35144101e-005
      -1.35144101e-005 -1.35144101e-005 -1.35144101e-005
      -1.35144101e-005 -1.35144101e-005 -1.35144101e-005
      -1.35144101e-005 -1.35144101e-005 -1.35144101e-005
      -1.35144101e-005 -1.35144101e-005 -1.35144101e-005
      -1.35144101e-005 -1.35144101e-005 -1.35144101e-005
      -1.35144101e-005 -1.35144101e-005 -1.35144101e-005
      -1.35144101e-005 -1.35144101e-005 -1.35144101e-005
      -1.35144101e-005 -1.35144101e-005 -1.35144101e-005
      -1.35144101e-005 -1.35144101e-005 -1.35144101e-005
      -1.35144101e-005 -1.35144101e-005 -1.35144101e-005
      -1.35144101e-005 -1.35144101e-005 -1.35144101e-005
      -1.35144101e-005 -1.35144101e-005 -1.35144101e-005
      -1.35144101e-005 -1.35144101e-005 -1.35144101e-005
      -1.35144101e-005 -1.19344704e-005 -1.40987095e-005
      -1.32570140e-005 -1.37369279e-005 -1.72665823e-005
      -1.43480966e-005 7.75793669e-005 7.82804127e-005 7.73021529e-005
      7.73021529e-005 7.73021529e-005 7.73021529e-005 7.73021529e-005
      7.73021529e-005 7.73021529e-005 7.73021529e-005 7.73021529e-005
      7.73021529e-005 7.73021529e-005 7.73021529e-005 7.73021529e-005
      7.73021529e-005 7.73021529e-005 7.73021529e-005 7.73021529e-005
      7.73021529e-005 7.73021529e-005 7.73021529e-005 7.73021529e-005
      7.73021529e-005 7.73021529e-005 7.73021529e-005 7.73021529e-005
      7.73021529e-005 7.73021529e-005 7.73021529e-005 7.73021529e-005
      7.73021529e-005 7.73021529e-005 7.73021529e-005 7.73021529e-005
      7.73021529e-005 7.73021529e-005 7.73021529e-005 7.73021529e-005
      7.73021529e-005 7.73021529e-005 7.73021529e-005 7.73021529e-005
      7.73021529e-005 7.73021529e-005 7.73021529e-005 7.73021529e-005
      7.73021529e-005 7.73021529e-005 7.73021529e-005 7.73021529e-005
      7.73021529e-005 7.73021529e-005 7.73021529e-005 7.73021529e-005
      7.73021529e-005 7.73021529e-005 7.73021529e-005 7.49943647e-005
      8.30401405e-005 7.91235652e-005 7.73221473e-005 8.48546188e-005
      7.99378322e-005 7.89375117e-005 8.64971007e-005 8.08264595e-005
      8.08264595e-005 8.08264595e-005 8.08264595e-005 8.08264595e-005
      8.08264595e-005 8.08264595e-005 8.08264595e-005 8.08264595e-005
      8.08264595e-005 8.08264595e-005 8.08264595e-005 8.08264595e-005
      8.08264595e-005 8.08264595e-005 8.08264595e-005 8.08264595e-005
      8.08264595e-005 8.08264595e-005 8.08264595e-005 8.08264595e-005
      8.08264595e-005 8.08264595e-005 8.08264595e-005 8.08264595e-005
      8.08264595e-005 8.08264595e-005 8.08264595e-005 8.08264595e-005
      8.08264595e-005 8.08264595e-005 8.08264595e-005 8.08264595e-005
      8.08264595e-005 8.08264595e-005 8.08264595e-005 8.08264595e-005
      8.08264595e-005 8.08264595e-005 8.08264595e-005 8.08264595e-005
      8.08264595e-005 8.08264595e-005 8.08264595e-005 8.08264595e-005
      8.08264595e-005 8.08264595e-005 8.08264595e-005 8.43825692e-005
      7.02455072e-005 8.95516423e-005 3.90036831e-007 2.10355993e-005
      1.42903991e-005 1.54681074e-005 8.57696796e-006 7.89975547e-006
      7.89975547e-006 7.89975547e-006 7.89975547e-006 7.89975547e-006
      7.89975547e-006 7.89975547e-006 7.89975547e-006 7.89975547e-006
      7.89975547e-006 7.89975547e-006 7.89975547e-006 7.89975547e-006
      7.89975547e-006 7.89975547e-006 7.89975547e-006 7.89975547e-006
      7.89975547e-006 7.89975547e-006 7.89975547e-006 7.89975547e-006
      7.89975547e-006 7.89975547e-006 7.89975547e-006 7.89975547e-006
      7.89975547e-006 7.89975547e-006 7.89975547e-006 7.89975547e-006
      7.89975547e-006 7.89975547e-006 7.89975547e-006 7.89975547e-006
      7.89975547e-006 7.89975547e-006 7.89975547e-006 7.89975547e-006
      7.89975547e-006 7.89975547e-006 7.89975547e-006 7.89975547e-006
      7.89975547e-006 7.89975547e-006 7.89975547e-006 7.89975547e-006
      7.89975547e-006 7.89975547e-006 7.89975547e-006 7.33698607e-006
      8.22918992e-006 1.27741223e-005 2.97661632e-006 -4.49218460e-005
      -5.58951215e-005 -4.79409791e-005 -4.68362050e-005
      -5.05681965e-005 -5.05681965e-005 -5.05681965e-005
      -5.05681965e-005 -5.05681965e-005 -5.05681965e-005
      -5.05681965e-005 -5.05681965e-005 -5.05681965e-005
      -5.05681965e-005 -5.05681965e-005 -5.05681965e-005
      -5.05681965e-005 -5.05681965e-005 -5.05681965e-005
      -5.05681965e-005 -5.05681965e-005 -5.05681965e-005
      -5.05681965e-005 -5.05681965e-005 -5.05681965e-005
      -5.05681965e-005 -5.05681965e-005 -5.05681965e-005
      -5.05681965e-005 -5.05681965e-005 -5.05681965e-005
      -5.05681965e-005 -5.05681965e-005 -5.05681965e-005
      -5.05681965e-005 -5.05681965e-005 -5.05681965e-005
      -5.05681965e-005 -5.05681965e-005 -5.05681965e-005
      -5.05681965e-005 -5.05681965e-005 -5.05681965e-005
      -5.05681965e-005 -5.05681965e-005 -5.05681965e-005
      -5.05681965e-005 -5.05681965e-005 -5.05681965e-005
      -5.05681965e-005 -5.05681965e-005 -5.05681965e-005
      -6.52451490e-005 -5.14937747e-005 -5.52403253e-005
      -5.43003080e-005 -1.02773331e-004 -1.00957353e-004
      -1.07103042e-004 -9.18251098e-005 -1.00158708e-004
      -1.00158708e-004 -1.00158708e-004 -1.00158708e-004
      -1.00158708e-004 -1.00158708e-004 -1.00158708e-004
      -1.00158708e-004 -1.00158708e-004 -1.00158708e-004
      -1.00158708e-004 -1.00158708e-004 -1.00158708e-004
      -1.00158708e-004 -1.00158708e-004 -1.00158708e-004
      -1.00158708e-004 -1.00158708e-004 -1.00158708e-004
      -1.00158708e-004 -1.00158708e-004 -1.00158708e-004
      -1.00158708e-004 -1.00158708e-004 -1.00158708e-004
      -1.00158708e-004 -1.00158708e-004 -1.00158708e-004
      -1.00158708e-004 -1.00158708e-004 -1.00158708e-004
      -1.00158708e-004 -1.00158708e-004 -1.00158708e-004
      -1.00158708e-004 -1.00158708e-004 -1.00158708e-004
      -1.00158708e-004 -1.00158708e-004 -1.00158708e-004
      -1.00158708e-004 -1.00158708e-004 -1.00158708e-004
      -1.00158708e-004 -1.00158708e-004 -1.00158708e-004
      -1.00158708e-004 -1.00158708e-004 -9.22271865e-005
      -9.17863872e-005 -9.95987211e-005 -7.00398004e-006
      -7.47366994e-006 -2.03998625e-005 -2.11827974e-005
      -8.93465767e-006 -1.35144101e-005 -1.35144101e-005
      -1.35144101e-005 -1.35144101e-005 -1.35144101e-005
      -1.35144101e-005 -1.35144101e-005 -1.35144101e-005
      -1.35144101e-005 -1.35144101e-005 -1.35144101e-005
      -1.35144101e-005 -1.35144101e-005 -1.35144101e-005
      -1.35144101e-005 -1.35144101e-005 -1.35144101e-005
      -1.35144101e-005 -1.35144101e-005 -1.35144101e-005
      -1.35144101e-005 -1.35144101e-005 -1.35144101e-005
      -1.35144101e-005 -1.35144101e-005 -1.35144101e-005
      -1.35144101e-005 -1.35144101e-005 -1.35144101e-005
      -1.35144101e-005 -1.35144101e-005 -1.35144101e-005
      -1.35144101e-005 -1.35144101e-005 -1.35144101e-005
      -1.35144101e-005 -1.35144101e-005 -1.35144101e-005
      -1.35144101e-005 -1.35144101e-005 -1.35144101e-005
      -1.35144101e-005 -1.35144101e-005 -1.35144101e-005
      -1.35144101e-005 -1.35144101e-005 -1.35144101e-005
      -1.35144101e-005 -1.09850198e-005 -7.78906212e-007
      -6.04103070e-006 -1.29269938e-006 2.86570071e-006 3.01619707e-006
      1.18877438e-006 1.20764764e-006 4.68082646e-007 4.68082646e-007
      4.68082646e-007 4.68082646e-007 4.68082646e-007 4.68082646e-007
      4.68082646e-007 4.68082646e-007 4.68082646e-007 4.68082646e-007
      4.68082646e-007 4.68082646e-007 4.68082646e-007 4.68082646e-007
      4.68082646e-007 4.68082646e-007 4.68082646e-007 4.68082646e-007
      4.68082646e-007 4.68082646e-007 4.68082646e-007 4.68082646e-007
      4.68082646e-007 4.68082646e-007 4.68082646e-007 4.68082646e-007
      4.68082646e-007 4.68082646e-007 4.68082646e-007 4.68082646e-007
      4.68082646e-007 4.68082646e-007 4.68082646e-007 4.68082646e-007
      4.68082646e-007 4.68082646e-007 4.68082646e-007 4.68082646e-007
      4.68082646e-007 4.68082646e-007 -2.46765978e-007 -3.74666774e-006
      3.82311600e-006 -4.02232126e-006 -4.73710406e-006 3.94144990e-006
      -2.22583694e-005 -7.21398965e-006 -1.16608935e-005
      -1.16608935e-005 -1.16608935e-005 -1.16608935e-005
      -1.16608935e-005 -1.16608935e-005 -1.16608935e-005
      -1.16608935e-005 -1.16608935e-005 -1.16608935e-005
      -1.16608935e-005 -1.16608935e-005 -1.16608935e-005
      -1.16608935e-005 -1.16608935e-005 -1.16608935e-005
      -1.16608935e-005 -1.16608935e-005 -1.16608935e-005
      -1.16608935e-005 -1.16608935e-005 -1.16608935e-005
      -1.16608935e-005 -1.16608935e-005 -1.16608935e-005
      -1.16608935e-005 -1.16608935e-005 -1.16608935e-005
      -1.16608935e-005 -1.16608935e-005 -1.16608935e-005
      -1.16608935e-005 -1.16608935e-005 -1.16608935e-005
      -1.16608935e-005 -1.16608935e-005 -1.16608935e-005
      -1.16608935e-005 -1.16608935e-005 -1.16608935e-005
      -1.16608935e-005 -1.16608935e-005 -1.16608935e-005
      -1.16608935e-005 -1.16608935e-005 -1.16608935e-005
      -1.16608935e-005 -1.16608935e-005 -1.42499193e-005
      -7.37706887e-006 1.13538672e-005 1.54029403e-005 1.37365023e-005
      1.37389779e-005 1.05205945e-005 1.40821348e-005 1.36700737e-005
      1.36700737e-005 1.36700737e-005 1.36700737e-005 1.36700737e-005
      1.36700737e-005 1.36700737e-005 1.36700737e-005 1.36700737e-005
      1.36700737e-005 1.36700737e-005 1.36700737e-005 1.36700737e-005
      1.36700737e-005 1.36700737e-005 1.36700737e-005 1.36700737e-005
      1.36700737e-005 1.36700737e-005 1.36700737e-005 1.36700737e-005
      1.36700737e-005 1.36700737e-005 1.36700737e-005 1.36700737e-005
      1.36700737e-005 1.36700737e-005 1.36700737e-005 1.36700737e-005
      1.36700737e-005 1.36700737e-005 1.36700737e-005 1.36700737e-005
      1.36700737e-005 1.36700737e-005 1.36700737e-005 1.36700737e-005
      1.36700737e-005 1.36700737e-005 1.36700737e-005 1.11468871e-005
      7.81049494e-006 2.19513749e-005 2.98682630e-006 2.62351004e-005
      -4.94281558e-005 -3.42908534e-005 -5.60385888e-005
      -4.04862112e-005 -4.04862112e-005 -4.04862112e-005
      -4.04862112e-005 -4.04862112e-005 -4.04862112e-005
      -4.04862112e-005 -4.04862112e-005 -4.04862112e-005
      -4.04862112e-005 -4.04862112e-005 -4.04862112e-005
      -4.04862112e-005 -4.04862112e-005 -4.04862112e-005
      -4.04862112e-005 -4.04862112e-005 -4.04862112e-005
      -4.04862112e-005 -4.04862112e-005 -4.04862112e-005
      -4.04862112e-005 -4.04862112e-005 -4.04862112e-005
      -4.04862112e-005 -4.04862112e-005 -4.04862112e-005
      -4.04862112e-005 -4.04862112e-005 -4.04862112e-005
      -4.04862112e-005 -4.04862112e-005 -4.04862112e-005
      -4.04862112e-005 -4.04862112e-005 -4.04862112e-005
      -4.04862112e-005 -4.04862112e-005 -4.04862112e-005
      -4.04862112e-005 -5.33692801e-005 -2.33552018e-005
      -5.50311088e-005 -2.84422385e-005 -4.50570697e-005
      -4.31249100e-005 -5.35629479e-005 4.78314651e-005 4.08003689e-005
      4.08003689e-005 4.08003689e-005 4.08003689e-005 4.08003689e-005
      4.08003689e-005 4.08003689e-005 4.08003689e-005 4.08003689e-005
      4.08003689e-005 4.08003689e-005 4.08003689e-005 4.08003689e-005
      4.08003689e-005 4.08003689e-005 4.08003689e-005 4.08003689e-005
      4.08003689e-005 4.08003689e-005 4.08003689e-005 4.08003689e-005
      4.08003689e-005 4.08003689e-005 4.08003689e-005 4.08003689e-005
      4.08003689e-005 4.08003689e-005 4.08003689e-005 4.08003689e-005
      4.08003689e-005 4.08003689e-005 4.08003689e-005 4.08003689e-005
      4.08003689e-005 4.08003689e-005 4.08003689e-005 4.08003689e-005
      4.08003689e-005 4.08003689e-005 4.08003689e-005 4.08003689e-005
      4.08003689e-005 4.08003689e-005 4.08003689e-005 4.08003689e-005
      4.08003689e-005 4.08003689e-005 4.08003689e-005 4.57886345e-005
      4.57886345e-005 4.57886345e-005 4.57886345e-005 4.57886345e-005
      4.57886345e-005 4.57886345e-005 4.57886345e-005 4.57886345e-005
      4.57886345e-005 4.57886345e-005 4.57886345e-005 4.57886345e-005
      4.57886345e-005 4.57886345e-005 4.57886345e-005 4.57886345e-005
      4.57886345e-005 4.57886345e-005 4.57886345e-005 4.57886345e-005
      4.57886345e-005 4.57886345e-005 4.57886345e-005 4.57886345e-005
      4.57886345e-005 4.57886345e-005 4.57886345e-005 4.57886345e-005
      4.57886345e-005 4.57886345e-005 4.57886345e-005 4.57886345e-005
      4.57886345e-005 4.57886345e-005 4.57886345e-005 4.57886345e-005
      4.57886345e-005 4.57886345e-005 4.57886345e-005 4.57886345e-005
      4.57886345e-005 4.57886345e-005 4.57886345e-005 4.57886345e-005
      4.57886345e-005 4.57886345e-005 4.57886345e-005 -1.35144101e-005
      -1.35144101e-005 -1.35144101e-005 -1.35144101e-005
      -1.35144101e-005 -1.35144101e-005 -1.35144101e-005
      -1.35144101e-005 -1.35144101e-005 -1.35144101e-005
      -1.35144101e-005 -1.35144101e-005 -1.35144101e-005
      -1.35144101e-005 -1.35144101e-005 -1.35144101e-005
      -1.35144101e-005 -1.35144101e-005 -1.35144101e-005
      -1.35144101e-005 -1.35144101e-005 -1.35144101e-005
      -1.35144101e-005 -1.35144101e-005 -1.35144101e-005
      -1.35144101e-005 -1.35144101e-005 -1.35144101e-005
      -1.35144101e-005 -1.35144101e-005 -1.35144101e-005
      -1.35144101e-005 -1.35144101e-005 -1.35144101e-005
      -1.35144101e-005 -1.35144101e-005 -1.35144101e-005
      -1.35144101e-005 -1.35144101e-005 -1.35144101e-005
      -1.34129523e-005 -1.27753783e-005 -1.25755359e-005
      -1.26981522e-005 -1.23141344e-005 -1.54228019e-005
      -1.51965960e-005 -1.00759080e-005 -1.37497254e-005
      -1.37497254e-005 -1.37497254e-005 -1.37497254e-005
      -1.37497254e-005 -1.37497254e-005 -1.37497254e-005
      -1.37497254e-005 -1.37497254e-005 -1.37497254e-005
      -1.37497254e-005 -1.37497254e-005 -1.37497254e-005
      -1.37497254e-005 -1.37497254e-005 -1.37497254e-005
      -1.37497254e-005 -1.37497254e-005 -1.37497254e-005
      -1.37497254e-005 -1.37497254e-005 -1.37497254e-005
      -1.37497254e-005 -1.37497254e-005 -1.37497254e-005
      -1.37497254e-005 -1.37497254e-005 -1.37497254e-005
      -1.37497254e-005 -1.37497254e-005 -1.37497254e-005
      -1.37497254e-005 -1.37497254e-005 -1.37497254e-005
      -1.37497254e-005 -1.37497254e-005 -1.37497254e-005
      -1.37497254e-005 -1.37497254e-005 -1.37497254e-005
      -7.30880220e-006 -1.21286603e-005 -1.59242027e-005
      -1.41345754e-005 -8.51962159e-006 -1.25482075e-005
      -1.81908508e-005 -7.85061820e-006 -1.16608935e-005
      -1.16608935e-005 -1.16608935e-005 -1.16608935e-005
      -1.16608935e-005 -1.16608935e-005 -1.16608935e-005
      -1.16608935e-005 -1.16608935e-005 -1.16608935e-005
      -1.16608935e-005 -1.16608935e-005 -1.16608935e-005
      -1.16608935e-005 -1.16608935e-005 -1.16608935e-005
      -1.16608935e-005 -1.16608935e-005 -1.16608935e-005
      -1.16608935e-005 -1.16608935e-005 -1.16608935e-005
      -1.16608935e-005 -1.16608935e-005 -1.16608935e-005
      -1.16608935e-005 -1.16608935e-005 -1.16608935e-005
      -1.16608935e-005 -1.16608935e-005 -1.16608935e-005
      -1.16608935e-005 -1.16608935e-005 -1.16608935e-005
      -1.16608935e-005 -1.16608935e-005 -1.16608935e-005
      -1.16608935e-005 -1.16608935e-005 -1.16608935e-005
      -8.17161254e-006 -1.17961727e-005 -1.59886094e-005
      -7.93107301e-006 -1.28816100e-005 -6.89312810e-006
      -8.78687661e-006 -1.30481485e-005 -1.14255781e-005
      -1.14255781e-005 -1.14255781e-005 -1.14255781e-005
      -1.14255781e-005 -1.14255781e-005 -1.14255781e-005
      -1.14255781e-005 -1.14255781e-005 -1.14255781e-005
      -1.14255781e-005 -1.14255781e-005 -1.14255781e-005
      -1.14255781e-005 -1.14255781e-005 -1.14255781e-005
      -1.14255781e-005 -1.14255781e-005 -1.14255781e-005
      -1.14255781e-005 -1.14255781e-005 -1.14255781e-005
      -1.14255781e-005 -1.14255781e-005 -1.14255781e-005
      -1.14255781e-005 -1.14255781e-005 -1.14255781e-005
      -1.14255781e-005 -1.14255781e-005 -1.14255781e-005
      -1.14255781e-005 -1.46763105e-005 -9.24021060e-006
      -1.44983360e-005 -1.10821993e-005 -1.19806637e-005
      -1.39382610e-005 1.11723348e-005 1.27428875e-005 1.18165563e-005
      1.18165563e-005 1.18165563e-005 1.18165563e-005 1.18165563e-005
      1.18165563e-005 1.18165563e-005 1.18165563e-005 1.18165563e-005
      1.18165563e-005 1.18165563e-005 1.18165563e-005 1.18165563e-005
      1.18165563e-005 1.18165563e-005 1.18165563e-005 1.18165563e-005
      1.18165563e-005 1.18165563e-005 1.18165563e-005 1.18165563e-005
      1.18165563e-005 1.18165563e-005 1.18165563e-005 1.18165563e-005
      1.18165563e-005 1.18165563e-005 1.18165563e-005 1.18165563e-005
      1.18165563e-005 1.18165563e-005 1.18165563e-005 1.18165563e-005
      1.18165563e-005 1.18165563e-005 1.18165563e-005 1.18165563e-005
      1.18165563e-005 1.18165563e-005 1.18165563e-005 1.52213061e-005
      -6.32980391e-006 -7.61521642e-006 -1.27933629e-006
      -6.97004680e-006 -1.18052594e-005 -6.88498812e-006
      -8.98001599e-006 -8.19054731e-006 -8.19054731e-006
      -8.19054731e-006 -8.19054731e-006 -8.19054731e-006
      -8.19054731e-006 -8.19054731e-006 -8.19054731e-006
      -8.19054731e-006 -8.19054731e-006 -8.19054731e-006
      -8.19054731e-006 -8.19054731e-006 -8.19054731e-006
      -8.19054731e-006 -8.19054731e-006 -8.19054731e-006
      -8.19054731e-006 -8.19054731e-006 -8.19054731e-006
      -8.19054731e-006 -8.19054731e-006 -8.19054731e-006
      -8.19054731e-006 -8.19054731e-006 -8.19054731e-006
      -8.19054731e-006 -8.19054731e-006 -8.19054731e-006
      -8.19054731e-006 -8.19054731e-006 -8.19054731e-006
      -5.07219647e-006 -1.17401823e-005 -1.80102779e-005 6.46078479e-005
      5.95258571e-005 4.81945353e-005 4.77875146e-005 5.35623331e-005
      5.03826777e-005 5.03826777e-005 5.03826777e-005 5.03826777e-005
      5.03826777e-005 5.03826777e-005 5.03826777e-005 5.03826777e-005
      5.03826777e-005 5.03826777e-005 5.03826777e-005 5.03826777e-005
      5.03826777e-005 5.03826777e-005 5.03826777e-005 5.03826777e-005
      5.03826777e-005 5.03826777e-005 5.03826777e-005 5.03826777e-005
      5.03826777e-005 5.03826777e-005 5.03826777e-005 5.03826777e-005
      5.03826777e-005 5.03826777e-005 5.03826777e-005 5.03826777e-005
      5.03826777e-005 5.03826777e-005 5.03826777e-005 5.03826777e-005
      4.43980389e-005 5.75910344e-005 5.21730799e-005 4.23797501e-005
      -2.13364983e-005 -3.03912493e-005 -3.44136060e-005
      -2.30072947e-005 -2.85218721e-005 -2.85218721e-005
      -2.85218721e-005 -2.85218721e-005 -2.85218721e-005
      -2.85218721e-005 -2.85218721e-005 -2.85218721e-005
      -2.85218721e-005 -2.85218721e-005 -2.85218721e-005
      -2.85218721e-005 -2.85218721e-005 -2.85218721e-005
      -2.85218721e-005 -2.85218721e-005 -2.85218721e-005
      -2.85218721e-005 -2.85218721e-005 -2.85218721e-005
      -2.85218721e-005 -2.85218721e-005 -2.85218721e-005
      -2.85218721e-005 -2.85218721e-005 -2.85218721e-005
      -2.85218721e-005 -2.85218721e-005 -2.85218721e-005
      -2.85218721e-005 -2.85218721e-005 -2.85218721e-005
      -2.60292509e-005 -3.27121597e-005 -3.11512595e-005
      -3.47772402e-005 7.30624452e-005 6.72740935e-005 6.74843541e-005
      6.29495698e-005 6.42768937e-005 6.42768937e-005 6.42768937e-005
      6.42768937e-005 6.42768937e-005 6.42768937e-005 6.42768937e-005
      6.42768937e-005 6.42768937e-005 6.42768937e-005 6.42768937e-005
      6.42768937e-005 6.42768937e-005 6.42768937e-005 6.42768937e-005
      6.42768937e-005 6.42768937e-005 6.42768937e-005 6.42768937e-005
      6.42768937e-005 6.42768937e-005 6.42768937e-005 6.42768937e-005
      6.42768937e-005 6.42768937e-005 6.42768937e-005 6.42768937e-005
      6.42768937e-005 6.42768937e-005 6.42768937e-005 6.42768937e-005
      6.42768937e-005 6.56695338e-005 6.28459238e-005 6.66342239e-005
      3.69851405e-005 2.44327002e-005 4.02419355e-005 3.97998992e-005
      3.51400777e-005 3.70113812e-005 3.70113812e-005 3.70113812e-005
      3.70113812e-005 3.70113812e-005 3.70113812e-005 3.70113812e-005
      3.70113812e-005 3.70113812e-005 3.70113812e-005 3.70113812e-005
      3.70113812e-005 3.70113812e-005 3.70113812e-005 3.70113812e-005
      3.70113812e-005 3.70113812e-005 3.70113812e-005 3.70113812e-005
      3.70113812e-005 3.70113812e-005 3.70113812e-005 3.70113812e-005
      3.70113812e-005 3.70113812e-005 3.70113812e-005 3.70113812e-005
      3.70113812e-005 3.70113812e-005 3.70113812e-005 3.70113812e-005
      3.70113812e-005 3.95611314e-005 -1.72358596e-005 -8.67545441e-006
      -1.06611133e-005 -6.29136730e-006 -1.94345303e-005
      -1.31314509e-005 -9.43646501e-006 -1.16608935e-005
      -1.16608935e-005 -1.16608935e-005 -1.16608935e-005
      -1.16608935e-005 -1.16608935e-005 -1.16608935e-005
      -1.16608935e-005 -1.16608935e-005 -1.16608935e-005
      -1.16608935e-005 -1.16608935e-005 -1.16608935e-005
      -1.16608935e-005 -1.16608935e-005 -1.16608935e-005
      -1.16608935e-005 -1.16608935e-005 -1.16608935e-005
      -1.16608935e-005 -1.16608935e-005 -1.16608935e-005
      -1.16608935e-005 -1.16608935e-005 -1.23264235e-005
      -1.64337307e-005 -1.25427623e-005 -6.67913946e-006
      -1.23385935e-005 -1.10144847e-005 -8.03517287e-006
      -1.82295280e-005 -1.35144101e-005 -1.35144101e-005
      -1.35144101e-005 -1.35144101e-005 -1.35144101e-005
      -1.35144101e-005 -1.35144101e-005 -1.35144101e-005
      -1.35144101e-005 -1.35144101e-005 -1.35144101e-005
      -1.35144101e-005 -1.35144101e-005 -1.35144101e-005
      -1.35144101e-005 -1.35144101e-005 -1.35144101e-005
      -1.35144101e-005 -1.35144101e-005 -1.35144101e-005
      -1.35144101e-005 -1.35144101e-005 -1.35144101e-005
      -1.35144101e-005 -1.35144101e-005 -1.35144101e-005
      -1.35144101e-005 -1.35144101e-005 -1.35144101e-005
      -1.35144101e-005 -1.35144101e-005 -1.35144101e-005
      -1.80291154e-005 -4.00942827e-006 1.08130635e-005 1.67695234e-005
      1.63104778e-005 1.28040347e-005 1.09179946e-005 1.58214407e-005
      1.50741462e-005 1.50741462e-005 1.50741462e-005 1.50741462e-005
      1.50741462e-005 1.50741462e-005 1.50741462e-005 1.50741462e-005
      1.50741462e-005 1.50741462e-005 1.50741462e-005 1.50741462e-005
      1.50741462e-005 1.50741462e-005 1.50741462e-005 1.50741462e-005
      1.50741462e-005 1.50741462e-005 1.50741462e-005 1.50741462e-005
      1.50741462e-005 1.50741462e-005 1.50741462e-005 1.50741462e-005
      1.56665537e-005 1.59092342e-005 2.60135439e-005 1.19861043e-005
      1.66374630e-005 5.86920651e-005 4.81779643e-005 5.29330755e-005
      5.21283109e-005 5.21283109e-005 5.21283109e-005 5.21283109e-005
      5.21283109e-005 5.21283109e-005 5.21283109e-005 5.21283109e-005
      5.21283109e-005 5.21283109e-005 5.21283109e-005 5.21283109e-005
      5.21283109e-005 5.21283109e-005 5.21283109e-005 5.21283109e-005
      5.21283109e-005 5.21283109e-005 5.21283109e-005 5.21283109e-005
      5.21283109e-005 5.21283109e-005 5.21283109e-005 5.21283109e-005
      5.17553781e-005 4.91679020e-005 5.39916255e-005 5.74465812e-005
      4.86060781e-005 5.43074784e-005 5.71415912e-005 -2.17520255e-006
      1.50914320e-006 1.50914320e-006 1.50914320e-006 1.50914320e-006
      1.50914320e-006 1.50914320e-006 1.50914320e-006 1.50914320e-006
      1.50914320e-006 1.50914320e-006 1.50914320e-006 1.50914320e-006
      1.50914320e-006 1.50914320e-006 1.50914320e-006 1.50914320e-006
      1.50914320e-006 1.50914320e-006 1.50914320e-006 1.50914320e-006
      1.50914320e-006 1.50914320e-006 1.50914320e-006 1.50914320e-006
      1.50914320e-006 1.50914320e-006 1.50914320e-006 1.50914320e-006
      1.50914320e-006 1.50914320e-006 1.50914320e-006 1.50914320e-006
      2.05478500e-005 2.05478500e-005 2.05478500e-005 2.05478500e-005
      2.05478500e-005 2.05478500e-005 2.05478500e-005 2.05478500e-005
      2.05478500e-005 2.05478500e-005 2.05478500e-005 2.05478500e-005
      2.05478500e-005 2.05478500e-005 2.05478500e-005 2.05478500e-005
      2.05478500e-005 2.05478500e-005 2.05478500e-005 2.05478500e-005
      2.05478500e-005 2.05478500e-005 2.05478500e-005 2.05478500e-005
      2.05478500e-005 2.05478500e-005 2.05478500e-005 2.05478500e-005
      2.05478500e-005 2.05478500e-005 2.05478500e-005 2.05478500e-005
      -1.35144101e-005 -1.35144101e-005 -1.35144101e-005
      -1.35144101e-005 -1.35144101e-005 -1.35144101e-005
      -1.35144101e-005 -1.35144101e-005 -1.35144101e-005
      -1.35144101e-005 -1.35144101e-005 -1.35144101e-005
      -1.35144101e-005 -1.35144101e-005 -1.35144101e-005
      -1.35144101e-005 -1.35144101e-005 -1.35144101e-005
      -1.35144101e-005 -1.35144101e-005 -1.35144101e-005
      -1.35144101e-005 -1.35144101e-005 -1.35144101e-005
      -1.29114424e-005 -1.26998266e-005 -1.42885237e-005
      -1.01415253e-005 -1.60436448e-005 -1.28681595e-005
      -1.24467879e-005 3.85452804e-005 3.54508811e-005 3.54508811e-005
      3.54508811e-005 3.54508811e-005 3.54508811e-005 3.54508811e-005
      3.54508811e-005 3.54508811e-005 3.54508811e-005 3.54508811e-005
      3.54508811e-005 3.54508811e-005 3.54508811e-005 3.54508811e-005
      3.54508811e-005 3.54508811e-005 3.54508811e-005 3.54508811e-005
      3.54508811e-005 3.54508811e-005 3.54508811e-005 3.54508811e-005
      3.54508811e-005 3.54508811e-005 4.17114752e-005 3.45758890e-005
      3.48180438e-005 3.83566294e-005 4.00175668e-005 -1.41908895e-005
      -1.60185627e-005 -1.02196564e-005 -1.16608935e-005
      -1.16608935e-005 -1.16608935e-005 -1.16608935e-005
      -1.16608935e-005 -1.16608935e-005 -1.16608935e-005
      -1.16608935e-005 -1.16608935e-005 -1.16608935e-005
      -1.16608935e-005 -1.16608935e-005 -1.16608935e-005
      -1.16608935e-005 -1.16608935e-005 -1.16608935e-005
      -1.16608935e-005 -1.16608935e-005 -1.16608935e-005
      -1.16608935e-005 -1.16608935e-005 -1.16608935e-005
      -1.16608935e-005 -1.16608935e-005 -1.24482767e-005
      -1.37341522e-005 -1.33381400e-005 -1.51041604e-005
      -1.31947172e-005 -1.44750711e-005 -1.48041963e-005
      -1.30548497e-005 -1.44167416e-005 -1.17097488e-005
      -1.53190722e-005 -1.26120794e-005 -1.26120794e-005
      -1.53190722e-005 -1.17097488e-005 -1.44167416e-005
      -1.54085556e-005 -1.17097488e-005 -1.53190722e-005
      -1.16202655e-005 -1.16202655e-005 -1.53190722e-005
      -1.27015628e-005 -1.54085556e-005 -1.16202655e-005
      -1.54085556e-005 -1.35144101e-005 -1.44167416e-005
      -1.24331136e-005 -1.45062240e-005 -1.24331136e-005
      -1.45957074e-005 -1.17097488e-005 -1.26120794e-005
      -1.53190722e-005 -1.26120794e-005 -1.44167416e-005
      -1.17097488e-005 -1.44167416e-005 -1.44167416e-005
      -1.26120794e-005 -1.44167416e-005 -1.17097488e-005
      -1.26120794e-005 -1.44167416e-005 -1.35144101e-005
      -1.44167416e-005 -1.35144101e-005 -1.35144101e-005
      -1.44167416e-005 -1.35144101e-005 -1.08074173e-005
      -1.62214037e-005 -1.17097488e-005 -1.53190722e-005
      -1.26120794e-005 -1.35346399e-005 1.58207113e-005 2.32469356e-005
      1.94041259e-005 1.82602180e-005 1.94519271e-005 1.55516955e-005
      1.97698701e-005 1.81644755e-005 1.81644755e-005 1.81644755e-005
      1.81644755e-005 1.81644755e-005 1.81644755e-005 1.81644755e-005
      1.81644755e-005 1.81644755e-005 1.81644755e-005 1.81644755e-005
      1.81644755e-005 1.81644755e-005 1.81644755e-005 1.81644755e-005
      1.81644755e-005 1.97854970e-005 1.86613433e-005 2.86400700e-005
      6.29802817e-005 7.71838750e-005 7.05816274e-005 6.40587241e-005
      8.04902011e-005 7.21283213e-005 7.21283213e-005 7.21283213e-005
      7.21283213e-005 7.21283213e-005 7.21283213e-005 7.21283213e-005
      7.21283213e-005 7.21283213e-005 7.21283213e-005 7.21283213e-005
      7.21283213e-005 7.21283213e-005 7.21283213e-005 7.21283213e-005
      7.21283213e-005 7.57826565e-005 7.01985555e-005 6.63462270e-005
      8.06154712e-005 1.55920170e-005 2.82647761e-005 2.45004503e-005
      1.98900198e-005 2.39254168e-005 2.39254168e-005 2.39254168e-005
      2.39254168e-005 2.39254168e-005 2.39254168e-005 2.39254168e-005
      2.39254168e-005 2.39254168e-005 2.39254168e-005 2.39254168e-005
      2.39254168e-005 2.39254168e-005 2.39254168e-005 2.39254168e-005
      2.39254168e-005 2.73938731e-005 2.36359247e-005 2.27817709e-005
      1.86939560e-005 -6.92314688e-006 -1.22680931e-005 -1.18797834e-005
      -1.39151016e-005 -1.35144101e-005 -1.35144101e-005
      -1.35144101e-005 -1.35144101e-005 -1.35144101e-005
      -1.35144101e-005 -1.35144101e-005 -1.35144101e-005
      -1.35144101e-005 -1.35144101e-005 -1.35144101e-005
      -1.35144101e-005 -1.35144101e-005 -1.35144101e-005
      -1.35144101e-005 -1.35144101e-005 -1.31408233e-005
      -1.24192820e-005 -1.63056047e-005 2.27175497e-005 2.25119074e-005
      2.10755861e-005 2.33753490e-005 2.31690356e-005 2.19553931e-005
      2.19553931e-005 2.19553931e-005 2.19553931e-005 2.19553931e-005
      2.19553931e-005 2.19553931e-005 2.19553931e-005 2.19553931e-005
      2.19553931e-005 2.19553931e-005 2.19553931e-005 2.19553931e-005
      2.19553931e-005 2.19553931e-005 2.19553931e-005 2.65748004e-005
      -1.96747442e-005 -8.77121511e-006 -7.08648622e-006
      -6.39706832e-006 -1.73285953e-005 -1.31497518e-005
      -7.43500732e-006 -1.09385719e-005 -1.09385719e-005
      -1.09385719e-005 -1.09385719e-005 -1.09385719e-005
      -1.09385719e-005 -1.09385719e-005 -1.09385719e-005
      -1.00392062e-005 -1.24886474e-005 -8.06587195e-006
      -1.27635140e-005 -1.06617035e-005 -9.63263665e-006
      -1.41132841e-005 -1.02633458e-005 -1.14255781e-005
      -1.14255781e-005 -1.24173921e-005 -1.24173921e-005
      -1.24173921e-005 -1.14255781e-005 -1.04337641e-005
      -1.04337641e-005 -1.04337641e-005 -1.04337641e-005
      -1.14255781e-005 -1.14255781e-005 -1.14255781e-005
      -1.14255781e-005 -1.14255781e-005 -1.14255781e-005
      -1.32216919e-005 -1.75059140e-005 6.59930447e-005 6.60354344e-005
      6.52351227e-005 6.71442467e-005 5.94684170e-005 6.27767877e-005
      6.34828830e-005 6.44746979e-005 6.54665128e-005 6.54665128e-005
      6.44746979e-005 6.34828830e-005 6.44746979e-005 6.44746979e-005
      6.88654836e-005 6.27168265e-005 6.29893402e-005 6.71905218e-005
      6.76504133e-005 1.30861910e-004 1.34527887e-004 1.45003432e-004
      1.42033765e-004 1.42033765e-004 1.42033765e-004 1.42033765e-004
      1.42033765e-004 1.42033765e-004 1.42033765e-004 1.42033765e-004
      1.42947320e-004 1.27349151e-004 1.47630388e-004 1.54368376e-004
      1.40144635e-004 1.45294602e-004 1.44915990e-004 6.09296621e-005
      6.82408499e-005 6.85349150e-005 6.69001602e-005 6.92326648e-005
      6.78919750e-005 1.31368070e-004 1.30725137e-004 6.78919750e-005
      6.85897248e-005 6.59083526e-005 6.78919750e-005 6.69001602e-005
      1.32359884e-004 1.32708752e-004 1.32359884e-004 6.65512925e-005
      1.63321281e-004 1.63321281e-004 1.63321281e-004 1.63321281e-004
      1.63321281e-004 1.63321281e-004 1.63321281e-004 1.63321281e-004
      1.63321281e-004 1.63321281e-004 1.63321281e-004 1.63321281e-004
      1.63321281e-004 1.63321281e-004 1.63321281e-004 1.63321281e-004
      -1.01648853e-004 -1.01648853e-004 -1.01648853e-004
      -1.01648853e-004 -1.01648853e-004 -1.01648853e-004
      -1.01648853e-004 -1.01648853e-004 -1.01858255e-004
      -1.05541934e-004 -1.02971186e-004 -9.78218377e-005
      -1.02581711e-004 -9.96580711e-005 -1.02384351e-004
      -1.81410051e-005 -1.19539100e-005 -1.19539100e-005
      -1.19539100e-005 -1.19539100e-005 -1.19539100e-005
      -1.19539100e-005 -1.19539100e-005 -1.19539100e-005
      -1.30310536e-005 -1.05793215e-005 -1.06397174e-005
      -1.37005336e-005 -1.53334950e-005 3.52607713e-005 3.80297388e-005
      3.59845799e-005 3.54508811e-005 3.54508811e-005 3.54508811e-005
      3.54508811e-005 3.54508811e-005 3.54508811e-005 3.54508811e-005
      3.54508811e-005 3.50904593e-005 4.01376092e-005 -9.95003847e-006
      -1.54002828e-005 -1.20480681e-005 -1.43640864e-005
      -1.81221349e-005 -1.07792985e-005 -1.19702972e-005
      -1.38144087e-005 -1.27590611e-005 -1.22714937e-005
      -1.33483500e-005 -9.38243011e-006 3.95072784e-005 4.18749369e-005
      3.77428223e-005 -2.00616705e-005 -2.40857535e-005 -2.00908944e-005
      -2.27355558e-005 -1.85413119e-005 -2.44525872e-005
      -2.02875672e-005 -1.33010917e-005 1.21475736e-004 1.20874152e-004
      1.27076739e-004 1.35423616e-004 1.24371014e-004 1.14819333e-004
      1.34928938e-004 1.26481711e-004 1.21749494e-004 1.33827358e-004
      -5.36855732e-005 -4.81528878e-005 -4.02929109e-005
      -4.10562025e-005 -5.46165575e-005 -4.38714414e-005
      -5.23702256e-005 -4.97836591e-005 -4.54466099e-005 8.48151030e-005
      9.11599054e-005 9.44907879e-005 8.70185977e-005 8.37934640e-005
      9.29592134e-005 7.82507195e-005 9.01313106e-005 -1.34560614e-004
      -1.23205609e-004 -1.37841940e-004 -1.30264452e-004
      -1.35711802e-004 -1.24680271e-004 -1.32981993e-004
      -1.53129906e-004 -1.42203222e-004 -1.41702694e-004
      -1.52189721e-004 -1.36249073e-004 -1.45838756e-004
      -4.78283300e-006 -1.17114705e-005 -1.86337384e-005
      -1.05144209e-005 -1.66302307e-005 -1.01820724e-005
      -7.73772535e-006 -9.73711758e-006 -1.74211527e-005
      -9.64832216e-005 -8.95673802e-005 -8.94818513e-005 1.58417934e-005
      2.46461946e-006 -2.63937836e-005 5.09288657e-005 5.09288657e-005
      5.09288657e-005 5.09288657e-005 5.09288657e-005 5.09288657e-005
      5.09288657e-005 5.09288657e-005 5.09288657e-005 5.09288657e-005
      5.09288657e-005 5.09288657e-005 5.09288657e-005 5.09288657e-005
      5.09288657e-005 5.09288657e-005 5.09288657e-005 5.09288657e-005
      5.09288657e-005 5.09288657e-005 5.09288657e-005 5.09288657e-005
      5.09288657e-005 5.09288657e-005 5.09288657e-005 5.09288657e-005
      5.09288657e-005 5.09288657e-005 5.09288657e-005 5.09288657e-005
      5.09288657e-005 5.09288657e-005 5.09288657e-005 5.09288657e-005
      5.09288657e-005 5.09288657e-005 5.09288657e-005 5.09288657e-005
      5.09288657e-005 5.09288657e-005 5.09288657e-005 5.09288657e-005
      5.09288657e-005 5.09288657e-005 5.09288657e-005 5.09288657e-005
      5.09288657e-005 5.09288657e-005 5.09288657e-005 5.09288657e-005
      5.09288657e-005 5.09288657e-005 5.09288657e-005 5.09288657e-005
      5.09288657e-005 5.09288657e-005 4.27589766e-005 7.07934159e-005
      5.37354426e-005 5.11758954e-005 5.64288093e-005 5.09918718e-005
      5.71582277e-005 1.00365396e-005 1.89458879e-005 1.89458879e-005
      1.89458879e-005 1.89458879e-005 1.89458879e-005 1.89458879e-005
      1.89458879e-005 1.89458879e-005 1.89458879e-005 1.89458879e-005
      1.89458879e-005 1.89458879e-005 1.89458879e-005 1.89458879e-005
      1.89458879e-005 1.89458879e-005 1.89458879e-005 1.89458879e-005
      1.89458879e-005 1.89458879e-005 1.89458879e-005 1.89458879e-005
      1.89458879e-005 1.89458879e-005 1.89458879e-005 1.89458879e-005
      1.89458879e-005 1.89458879e-005 1.89458879e-005 1.89458879e-005
      1.89458879e-005 1.89458879e-005 1.89458879e-005 1.89458879e-005
      1.89458879e-005 1.89458879e-005 1.89458879e-005 1.89458879e-005
      1.89458879e-005 1.89458879e-005 1.89458879e-005 1.89458879e-005
      1.89458879e-005 1.89458879e-005 1.89458879e-005 1.89458879e-005
      1.89458879e-005 1.89458879e-005 1.89458879e-005 1.89458879e-005
      1.89458879e-005 1.89458879e-005 1.89458879e-005 1.89458879e-005
      1.89458879e-005 1.89458879e-005 1.74885827e-005 2.13278054e-005
      1.81334253e-005 1.65829952e-005 1.37016095e-005 -7.46897349e-005
      -7.76565721e-005 -6.36175100e-005 -7.03192927e-005
      -7.03192927e-005 -7.03192927e-005 -7.03192927e-005
      -7.03192927e-005 -7.03192927e-005 -7.03192927e-005
      -7.03192927e-005 -7.03192927e-005 -7.03192927e-005
      -7.03192927e-005 -7.03192927e-005 -7.03192927e-005
      -7.03192927e-005 -7.03192927e-005 -7.03192927e-005
      -7.03192927e-005 -7.03192927e-005 -7.03192927e-005
      -7.03192927e-005 -7.03192927e-005 -7.03192927e-005
      -7.03192927e-005 -7.03192927e-005 -7.03192927e-005
      -7.03192927e-005 -7.03192927e-005 -7.03192927e-005
      -7.03192927e-005 -7.03192927e-005 -7.03192927e-005
      -7.03192927e-005 -7.03192927e-005 -7.03192927e-005
      -7.03192927e-005 -7.03192927e-005 -7.03192927e-005
      -7.03192927e-005 -7.03192927e-005 -7.03192927e-005
      -7.03192927e-005 -7.03192927e-005 -7.03192927e-005
      -7.03192927e-005 -7.03192927e-005 -7.03192927e-005
      -7.03192927e-005 -7.03192927e-005 -7.03192927e-005
      -7.03192927e-005 -7.03192927e-005 -7.03192927e-005
      -7.03192927e-005 -7.03192927e-005 -7.03192927e-005
      -7.03192927e-005 -7.53684435e-005 -7.72680069e-005
      -8.25697134e-006 -2.21780610e-005 -9.22557865e-006
      -7.70378847e-006 -1.82602453e-005 -9.84106919e-006
      -1.68243805e-005 -1.68243805e-005 -1.68243805e-005
      -1.68243805e-005 -1.68243805e-005 -1.68243805e-005
      -1.68243805e-005 -1.68243805e-005 -1.68243805e-005
      -1.68243805e-005 -1.68243805e-005 -1.68243805e-005
      -1.68243805e-005 -1.68243805e-005 -1.68243805e-005
      -1.68243805e-005 -1.68243805e-005 -1.68243805e-005
      -1.68243805e-005 -1.68243805e-005 -1.68243805e-005
      -1.68243805e-005 -1.68243805e-005 -1.68243805e-005
      -1.68243805e-005 -1.68243805e-005 -1.68243805e-005
      -1.68243805e-005 -1.68243805e-005 -1.68243805e-005
      -1.68243805e-005 -1.68243805e-005 -1.68243805e-005
      -1.68243805e-005 -1.68243805e-005 -1.68243805e-005
      -1.68243805e-005 -1.68243805e-005 -1.68243805e-005
      -1.68243805e-005 -1.68243805e-005 -1.68243805e-005
      -1.68243805e-005 -1.68243805e-005 -1.68243805e-005
      -1.68243805e-005 -1.68243805e-005 -1.68243805e-005
      -1.56043207e-005 -1.60396485e-005 -1.43034604e-005
      -1.86884827e-005 -1.68513252e-005 -1.97546524e-005 1.50348560e-005
      1.45417598e-005 1.38465421e-005 1.38465421e-005 1.38465421e-005
      1.38465421e-005 1.38465421e-005 1.38465421e-005 1.38465421e-005
      1.38465421e-005 1.38465421e-005 1.38465421e-005 1.38465421e-005
      1.38465421e-005 1.38465421e-005 1.38465421e-005 1.38465421e-005
      1.38465421e-005 1.38465421e-005 1.38465421e-005 1.38465421e-005
      1.38465421e-005 1.38465421e-005 1.38465421e-005 1.38465421e-005
      1.38465421e-005 1.38465421e-005 1.38465421e-005 1.38465421e-005
      1.38465421e-005 1.38465421e-005 1.38465421e-005 1.38465421e-005
      1.38465421e-005 1.38465421e-005 1.38465421e-005 1.38465421e-005
      1.38465421e-005 1.38465421e-005 1.38465421e-005 1.38465421e-005
      1.38465421e-005 1.38465421e-005 1.38465421e-005 1.38465421e-005
      1.38465421e-005 1.38465421e-005 1.38465421e-005 1.38465421e-005
      1.38465421e-005 1.38465421e-005 1.38465421e-005 1.38465421e-005
      1.38465421e-005 1.38465421e-005 1.38465421e-005 1.38465421e-005
      1.38465421e-005 3.21911602e-006 1.00209027e-005 -6.86541580e-006
      -7.62183390e-006 4.33908599e-006 2.87086709e-006 -7.85804514e-006
      7.26172448e-006 2.93038488e-006 2.93038488e-006 2.93038488e-006
      2.93038488e-006 2.93038488e-006 2.93038488e-006 2.93038488e-006
      2.93038488e-006 2.18274567e-006 2.93038488e-006 2.93038488e-006
      2.93038488e-006 2.93038488e-006 2.93038488e-006 2.93038488e-006
      2.93038488e-006 2.93038488e-006 2.93038488e-006 2.93038488e-006
      2.93038488e-006 2.93038488e-006 2.93038488e-006 2.93038488e-006
      2.93038488e-006 2.93038488e-006 2.93038488e-006 2.93038488e-006
      2.93038488e-006 2.93038488e-006 2.93038488e-006 2.93038488e-006
      2.93038488e-006 2.93038488e-006 3.67802409e-006 2.93038488e-006
      2.93038488e-006 2.93038488e-006 2.93038488e-006 2.93038488e-006
      2.93038488e-006 2.93038488e-006 2.93038488e-006 2.93038488e-006
      3.67802409e-006 3.67802409e-006 2.93038488e-006 2.18274567e-006
      2.18274567e-006 -4.00286382e-007 7.73147235e-008 -7.15760643e-006
      -4.41832435e-006 -9.11787538e-006 8.70598160e-006 -1.90885339e-006
      1.40288194e-006 -3.17704212e-006 -3.17704212e-006 -3.17704212e-006
      -3.17704212e-006 -3.17704212e-006 -3.17704212e-006
      -3.17704212e-006 -3.17704212e-006 -3.17704212e-006
      -3.17704212e-006 -3.17704212e-006 -3.17704212e-006
      -3.17704212e-006 -3.17704212e-006 -3.17704212e-006
      -3.17704212e-006 -3.17704212e-006 -3.17704212e-006
      -3.17704212e-006 -3.17704212e-006 -3.17704212e-006
      -3.17704212e-006 -3.17704212e-006 -3.17704212e-006
      -3.17704212e-006 -3.17704212e-006 -3.17704212e-006
      -3.17704212e-006 -3.17704212e-006 -3.17704212e-006
      -3.17704212e-006 -3.17704212e-006 -3.17704212e-006
      -3.17704212e-006 -3.17704212e-006 -3.17704212e-006
      -3.17704212e-006 -3.17704212e-006 -3.17704212e-006
      -3.17704212e-006 -3.17704212e-006 -3.17704212e-006
      -3.17704212e-006 -3.17704212e-006 -3.17704212e-006
      -3.17704212e-006 -3.17704212e-006 -3.17704212e-006
      -1.85635577e-006 -8.71384964e-006 1.70237001e-006 -8.39053882e-006
      5.10292593e-005 4.38571406e-005 5.53715327e-005 4.86848548e-005
      4.49686122e-005 4.49686122e-005 4.49686122e-005 4.49686122e-005
      4.49686122e-005 4.49686122e-005 4.49686122e-005 4.49686122e-005
      4.49686122e-005 4.49686122e-005 4.49686122e-005 4.49686122e-005
      4.49686122e-005 4.49686122e-005 4.49686122e-005 4.49686122e-005
      4.49686122e-005 4.49686122e-005 4.49686122e-005 4.49686122e-005
      4.49686122e-005 4.49686122e-005 4.49686122e-005 4.49686122e-005
      4.49686122e-005 4.49686122e-005 4.49686122e-005 4.49686122e-005
      4.49686122e-005 4.49686122e-005 4.49686122e-005 4.49686122e-005
      4.49686122e-005 4.49686122e-005 4.49686122e-005 4.49686122e-005
      4.49686122e-005 4.49686122e-005 4.49686122e-005 4.49686122e-005
      4.49686122e-005 4.49686122e-005 4.49686122e-005 4.49686122e-005
      4.49686122e-005 4.49686122e-005 4.49686122e-005 4.49686122e-005
      5.17582157e-005 5.11399012e-005 4.47697021e-005 5.04655254e-005
      -2.50244102e-006 6.29146416e-006 -2.10643157e-006 1.43166730e-007
      -1.76419962e-006 -1.76419962e-006 -1.76419962e-006
      -1.76419962e-006 -1.76419962e-006 -1.76419962e-006
      -1.76419962e-006 -1.76419962e-006 -1.76419962e-006
      -1.76419962e-006 -1.76419962e-006 -1.76419962e-006
      -1.76419962e-006 -1.76419962e-006 -1.76419962e-006
      -1.76419962e-006 -1.76419962e-006 -1.76419962e-006
      -1.76419962e-006 -1.76419962e-006 -1.76419962e-006
      -1.76419962e-006 -1.76419962e-006 -1.76419962e-006
      -1.76419962e-006 -1.76419962e-006 -1.76419962e-006
      -1.76419962e-006 -1.76419962e-006 -1.76419962e-006
      -1.76419962e-006 -1.76419962e-006 -1.76419962e-006
      -1.76419962e-006 -1.76419962e-006 -1.76419962e-006
      -1.76419962e-006 -1.76419962e-006 -1.76419962e-006
      -1.76419962e-006 -1.76419962e-006 -1.76419962e-006
      -1.76419962e-006 -1.76419962e-006 -1.76419962e-006
      -1.76419962e-006 -1.76419962e-006 -1.76419962e-006 2.83080612e-006
      -9.89278669e-006 -5.75100830e-006 4.89230006e-005 3.89580964e-005
      4.62881399e-005 4.56664129e-005 4.56930538e-005 4.35095353e-005
      4.35095353e-005 4.35095353e-005 4.35095353e-005 4.35095353e-005
      4.35095353e-005 4.35095353e-005 4.35095353e-005 4.35095353e-005
      4.35095353e-005 4.35095353e-005 4.35095353e-005 4.35095353e-005
      4.35095353e-005 4.35095353e-005 4.35095353e-005 4.35095353e-005
      4.35095353e-005 4.35095353e-005 4.35095353e-005 4.35095353e-005
      4.35095353e-005 4.35095353e-005 4.35095353e-005 4.35095353e-005
      4.35095353e-005 4.35095353e-005 4.35095353e-005 4.35095353e-005
      4.35095353e-005 4.35095353e-005 4.35095353e-005 4.35095353e-005
      4.35095353e-005 4.35095353e-005 4.35095353e-005 4.35095353e-005
      4.35095353e-005 4.35095353e-005 4.35095353e-005 4.35095353e-005
      4.35095353e-005 4.35095353e-005 4.35095353e-005 4.35095353e-005
      4.35095353e-005 4.35095353e-005 4.35095353e-005 4.52268250e-005
      -1.51520308e-005 -1.30627377e-005 -5.20097183e-006
      -1.65022375e-005 -6.08027767e-006 -9.51701622e-006
      -7.30107422e-006 -1.13680444e-005 -1.13680444e-005
      -1.13680444e-005 -1.13680444e-005 -1.13680444e-005
      -1.13680444e-005 -1.13680444e-005 -1.13680444e-005
      -1.14820805e-005 -1.13680444e-005 -1.14820805e-005
      -1.11399731e-005 -1.15961157e-005 -1.14820805e-005
      -1.12540092e-005 -1.20016484e-005 -1.13680444e-005
      -1.13680444e-005 -1.13680444e-005 -1.13680444e-005
      -1.13680444e-005 -1.13680444e-005 -1.13680444e-005
      -1.13680444e-005 -1.06204052e-005 -1.12540092e-005
      -1.15961157e-005 -1.13680444e-005 -1.11399731e-005
      -1.21156836e-005 -1.13680444e-005 -1.05063700e-005
      -1.13680444e-005 -1.13680444e-005 -1.13680444e-005
      -1.13680444e-005 -1.13680444e-005 -1.13680444e-005
      -1.13680444e-005 -1.13680444e-005 -1.33151134e-005
      -1.94807817e-005 -7.97225402e-006 -1.20466912e-005
      -9.08257607e-006 -2.40757572e-006 8.80692187e-006 1.53592937e-005
      1.59528481e-005 1.59528481e-005 1.59528481e-005 1.59528481e-005
      1.59528481e-005 1.59528481e-005 1.59528481e-005 1.59528481e-005
      1.59528481e-005 1.59528481e-005 1.59528481e-005 1.59528481e-005
      1.59528481e-005 1.59528481e-005 1.59528481e-005 1.59528481e-005
      1.59528481e-005 1.59528481e-005 1.59528481e-005 1.59528481e-005
      1.59528481e-005 1.59528481e-005 1.59528481e-005 1.59528481e-005
      1.59528481e-005 1.59528481e-005 1.59528481e-005 1.59528481e-005
      1.59528481e-005 1.59528481e-005 1.59528481e-005 1.59528481e-005
      1.59528481e-005 1.59528481e-005 1.59528481e-005 1.59528481e-005
      1.59528481e-005 1.59528481e-005 1.59528481e-005 1.59528481e-005
      1.59528481e-005 1.59528481e-005 1.59528481e-005 1.59528481e-005
      1.59528481e-005 1.59528481e-005 1.59528481e-005 1.59528481e-005
      1.40634866e-005 1.63906170e-005 1.82090628e-006 -1.32522700e-005
      -1.37663947e-005 -9.12416726e-006 -2.35106381e-005
      -5.31444630e-006 -1.16692845e-005 -1.16692845e-005
      -1.16692845e-005 -1.16692845e-005 -1.16692845e-005
      -1.16692845e-005 -1.16692845e-005 -1.16692845e-005
      -1.16692845e-005 -1.16692845e-005 -1.16692845e-005
      -1.16692845e-005 -1.16692845e-005 -1.16692845e-005
      -1.16692845e-005 -1.16692845e-005 -1.16692845e-005
      -1.16692845e-005 -1.16692845e-005 -1.16692845e-005
      -1.16692845e-005 -1.16692845e-005 -1.16692845e-005
      -1.16692845e-005 -1.16692845e-005 -1.16692845e-005
      -1.16692845e-005 -1.16692845e-005 -1.16692845e-005
      -1.16692845e-005 -1.16692845e-005 -1.16692845e-005
      -1.16692845e-005 -1.16692845e-005 -1.16692845e-005
      -1.16692845e-005 -1.16692845e-005 -1.16692845e-005
      -1.16692845e-005 -1.16692845e-005 -1.64042322e-005
      -1.44252499e-005 -1.24202998e-005 -2.43419800e-005
      -1.71025367e-005 -6.63949249e-005 -7.22458208e-005
      -7.67020756e-005 -7.03192927e-005 -7.03192927e-005
      -7.03192927e-005 -7.03192927e-005 -7.03192927e-005
      -7.03192927e-005 -7.03192927e-005 -7.03192927e-005
      -7.03192927e-005 -7.03192927e-005 -7.03192927e-005
      -7.03192927e-005 -7.03192927e-005 -7.03192927e-005
      -7.03192927e-005 -7.03192927e-005 -7.03192927e-005
      -7.03192927e-005 -7.03192927e-005 -7.03192927e-005
      -7.03192927e-005 -7.03192927e-005 -7.03192927e-005
      -7.03192927e-005 -7.03192927e-005 -7.03192927e-005
      -7.03192927e-005 -7.03192927e-005 -7.03192927e-005
      -7.03192927e-005 -7.03192927e-005 -7.03192927e-005
      -7.03192927e-005 -7.03192927e-005 -7.03192927e-005
      -7.03192927e-005 -7.03192927e-005 -7.03192927e-005
      -7.03192927e-005 -7.03192927e-005 -7.31164473e-005
      -8.28364791e-005 -7.39054740e-005 -6.34988755e-005
      -6.63421379e-005 -8.21851063e-005 -6.36793120e-005 1.19390288e-005
      1.43720808e-005 1.43720808e-005 1.43720808e-005 1.43720808e-005
      1.43720808e-005 1.43720808e-005 1.43720808e-005 1.43720808e-005
      1.43720808e-005 1.43720808e-005 1.43720808e-005 1.43720808e-005
      1.43720808e-005 1.43720808e-005 1.43720808e-005 1.43720808e-005
      1.43720808e-005 1.43720808e-005 1.43720808e-005 1.43720808e-005
      1.43720808e-005 1.43720808e-005 1.43720808e-005 1.43720808e-005
      1.43720808e-005 1.43720808e-005 1.43720808e-005 1.43720808e-005
      1.43720808e-005 1.43720808e-005 1.43720808e-005 1.43720808e-005
      1.43720808e-005 1.43720808e-005 1.43720808e-005 1.43720808e-005
      1.43720808e-005 1.43720808e-005 1.43720808e-005 1.43720808e-005
      1.43720808e-005 1.43720808e-005 1.43720808e-005 1.43720808e-005
      1.43720808e-005 1.43720808e-005 1.43720808e-005 1.43720808e-005
      -3.65517590e-005 -3.65517590e-005 -3.65517590e-005
      -3.65517590e-005 -3.65517590e-005 -3.65517590e-005
      -3.65517590e-005 -3.65517590e-005 -3.65517590e-005
      -3.58041216e-005 -3.72994000e-005 -3.58041216e-005
      -3.72994000e-005 -3.58041216e-005 -3.65517590e-005
      -3.58041216e-005 -3.65517590e-005 -3.65517590e-005
      -3.65517590e-005 -3.65517590e-005 -3.65517590e-005
      -3.65517590e-005 -3.65517590e-005 -3.65517590e-005
      -3.65517590e-005 -3.65517590e-005 -3.65517590e-005
      -3.65517590e-005 -3.65517590e-005 -3.65517590e-005
      -3.58041216e-005 -3.65517590e-005 -3.65517590e-005
      -3.65517590e-005 -3.65517590e-005 -3.65517590e-005
      -3.65517590e-005 -3.65517590e-005 -3.65517590e-005
      -3.65517590e-005 -3.58041216e-005 -3.65517590e-005
      -3.65517590e-005 -3.65517590e-005 -3.65517590e-005
      -3.72994000e-005 -3.65517590e-005 -3.58041216e-005 4.35095353e-005
      4.35095353e-005 4.35095353e-005 4.35095353e-005 4.35095353e-005
      4.35095353e-005 4.35095353e-005 4.35095353e-005 4.35095353e-005
      4.35095353e-005 4.35095353e-005 4.35095353e-005 4.35095353e-005
      4.35095353e-005 4.35095353e-005 4.35095353e-005 4.35095353e-005
      4.35095353e-005 4.35095353e-005 4.35095353e-005 4.35095353e-005
      4.35095353e-005 4.35095353e-005 4.35095353e-005 4.35095353e-005
      4.35095353e-005 4.35095353e-005 4.35095353e-005 4.35095353e-005
      4.35095353e-005 4.35095353e-005 4.35095353e-005 4.35095353e-005
      4.35095353e-005 4.35095353e-005 4.35095353e-005 4.35095353e-005
      4.35095353e-005 4.35095353e-005 4.35095353e-005 4.83931544e-005
      2.99696057e-005 4.68407161e-005 5.62656751e-005 2.90662010e-005
      5.39865432e-005 3.75985364e-005 -6.59872676e-005 -6.94498958e-005
      -6.94498958e-005 -6.94498958e-005 -6.94498958e-005
      -6.94498958e-005 -6.94498958e-005 -6.94498958e-005
      -6.94498958e-005 -6.94498958e-005 -6.94498958e-005
      -6.94498958e-005 -6.94498958e-005 -6.94498958e-005
      -6.94498958e-005 -6.94498958e-005 -6.94498958e-005
      -6.94498958e-005 -6.94498958e-005 -6.94498958e-005
      -6.94498958e-005 -6.94498958e-005 -6.94498958e-005
      -6.94498958e-005 -6.94498958e-005 -6.94498958e-005
      -6.94498958e-005 -6.94498958e-005 -6.94498958e-005
      -6.94498958e-005 -6.94498958e-005 -6.94498958e-005
      -6.94498958e-005 -6.94498958e-005 -6.94498958e-005
      -6.94498958e-005 -6.94498958e-005 -6.94498958e-005
      -6.94498958e-005 -6.94498958e-005 -6.94498958e-005
      -6.28553389e-005 -5.91827411e-005 -7.99779737e-005
      -7.22499972e-005 -5.73100588e-005 9.77348100e-006 1.12282569e-005
      2.05609740e-005 1.40899620e-005 1.40899620e-005 1.40899620e-005
      1.40899620e-005 1.40899620e-005 1.40899620e-005 1.40899620e-005
      1.40899620e-005 1.40899620e-005 1.40899620e-005 1.40899620e-005
      1.40899620e-005 1.40899620e-005 1.40899620e-005 1.40899620e-005
      1.40899620e-005 1.40899620e-005 1.40899620e-005 1.40899620e-005
      1.40899620e-005 1.40899620e-005 1.40899620e-005 1.40899620e-005
      1.40899620e-005 1.40899620e-005 1.40899620e-005 1.40899620e-005
      1.40899620e-005 1.40899620e-005 1.40899620e-005 1.40899620e-005
      1.40899620e-005 1.40899620e-005 1.40899620e-005 1.40899620e-005
      1.40899620e-005 1.40899620e-005 1.40899620e-005 1.40899620e-005
      1.40899620e-005 1.72336586e-005 1.36705958e-005 1.92652260e-005
      5.91143998e-006 2.37011063e-005 1.56768037e-005 2.05447996e-005
      1.95031644e-005 1.89458879e-005 1.89458879e-005 1.89458879e-005
      1.89458879e-005 1.89458879e-005 1.89458879e-005 1.89458879e-005
      1.89458879e-005 1.89458879e-005 1.89458879e-005 1.89458879e-005
      1.89458879e-005 1.89458879e-005 1.89458879e-005 1.89458879e-005
      1.89458879e-005 1.89458879e-005 1.89458879e-005 1.89458879e-005
      1.89458879e-005 1.89458879e-005 1.89458879e-005 1.89458879e-005
      1.89458879e-005 1.89458879e-005 1.89458879e-005 1.89458879e-005
      1.89458879e-005 1.89458879e-005 1.89458879e-005 1.89458879e-005
      1.89458879e-005 2.20209768e-005 1.56124370e-005 1.40026377e-005
      2.18807345e-005 6.56288739e-006 1.70889816e-005 1.30101271e-005
      1.48701956e-005 1.19187416e-005 1.19187416e-005 1.19187416e-005
      1.19187416e-005 1.19187416e-005 1.19187416e-005 1.19187416e-005
      1.19187416e-005 1.19187416e-005 1.19187416e-005 1.19187416e-005
      1.19187416e-005 1.19187416e-005 1.19187416e-005 1.19187416e-005
      1.19187416e-005 1.19187416e-005 1.19187416e-005 1.19187416e-005
      1.19187416e-005 1.19187416e-005 1.19187416e-005 1.19187416e-005
      1.19187416e-005 1.19187416e-005 1.19187416e-005 1.19187416e-005
      1.19187416e-005 1.19187416e-005 1.19187416e-005 1.19187416e-005
      1.19187416e-005 1.19187416e-005 1.19187416e-005 1.19187416e-005
      1.19187416e-005 1.19187416e-005 1.19187416e-005 1.19187416e-005
      1.19187416e-005 1.20494260e-005 -3.34497490e-005 -3.31996816e-005
      -2.58797536e-005 -4.36135088e-005 -4.12014851e-005
      -2.85555561e-005 -3.89318557e-005 -3.59024853e-005
      -3.59024853e-005 -3.59024853e-005 -3.79445264e-005
      -3.79445264e-005 -3.79445264e-005 -3.79445264e-005
      -3.79445264e-005 -3.79445264e-005 -3.79445264e-005
      -3.79445264e-005 -3.79445264e-005 -3.79445264e-005
      -3.79445264e-005 -3.79445264e-005 -3.79445264e-005
      -3.81725949e-005 -3.77164542e-005 -3.79445264e-005
      -3.78304903e-005 -3.79445264e-005 -3.80585589e-005
      -3.78304903e-005 -3.80585589e-005 -3.79445264e-005
      -3.79445264e-005 -3.79445264e-005 -3.79445264e-005
      -3.79445264e-005 -3.79445264e-005 -3.79445264e-005
      -3.79445264e-005 -3.30493276e-005 -3.44517030e-005
      -3.96481373e-005 -4.09281492e-005 -5.04354684e-005
      -4.67165264e-005 -3.60000668e-005 -5.25669202e-005
      -4.48661922e-005 -4.48661922e-005 -4.48661922e-005
      -4.48661922e-005 -4.48661922e-005 -4.48661922e-005
      -4.48661922e-005 -4.48661922e-005 -4.48661922e-005
      -4.48661922e-005 -4.48661922e-005 -4.48661922e-005
      -4.48661922e-005 -4.48661922e-005 -4.48661922e-005
      -4.48661922e-005 -4.48661922e-005 -4.48661922e-005
      -4.48661922e-005 -4.48661922e-005 -4.48661922e-005
      -4.48661922e-005 -4.48661922e-005 -4.48661922e-005
      -4.48661922e-005 -4.48661922e-005 -4.48661922e-005
      -4.48661922e-005 -4.48661922e-005 -4.48661922e-005
      -4.48661922e-005 -4.48661922e-005 -4.22025914e-005
      -4.08529922e-005 -4.12698973e-005 -4.23030615e-005 6.17554251e-005
      5.95468882e-005 6.01690808e-005 6.35444158e-005 6.20381470e-005
      6.20381470e-005 6.20381470e-005 6.20381470e-005 6.20381470e-005
      6.20381470e-005 6.20381470e-005 6.20381470e-005 6.20381470e-005
      6.20381470e-005 6.20381470e-005 6.20381470e-005 6.20381470e-005
      6.20381470e-005 6.20381470e-005 6.20381470e-005 6.20381470e-005
      6.20381470e-005 6.20381470e-005 6.20381470e-005 6.20381470e-005
      6.20381470e-005 6.20381470e-005 6.20381470e-005 6.20381470e-005
      6.20381470e-005 6.20381470e-005 6.20381470e-005 6.20381470e-005
      6.20381470e-005 6.20381470e-005 6.20381470e-005 6.06165995e-005
      5.26151925e-005 5.97722574e-005 5.81253335e-005 -1.94900276e-004
      -1.90669991e-004 -1.89005325e-004 -1.93971093e-004
      -1.94182852e-004 -1.94182852e-004 -1.94182852e-004
      -1.94182852e-004 -1.94182852e-004 -1.94182852e-004
      -1.94182852e-004 -1.94182852e-004 -1.94182852e-004
      -1.94182852e-004 -1.94182852e-004 -1.94182852e-004
      -1.94182852e-004 -1.94182852e-004 -1.94182852e-004
      -1.94182852e-004 -1.94182852e-004 -1.94182852e-004
      -1.94182852e-004 -1.94182852e-004 -1.94182852e-004
      -1.94182852e-004 -1.94182852e-004 -1.94182852e-004
      -1.94182852e-004 -1.94182852e-004 -1.94182852e-004
      -1.94182852e-004 -1.94182852e-004 -1.94182852e-004
      -1.94182852e-004 -1.94182852e-004 -1.91267885e-004
      -1.88907361e-004 -1.88907245e-004 1.54893678e-005 5.59108912e-006
      2.07787089e-005 8.34441380e-006 1.59802839e-005 1.47359260e-005
      1.47359260e-005 1.47359260e-005 1.47359260e-005 1.47359260e-005
      1.47359260e-005 1.47359260e-005 1.47359260e-005 1.47359260e-005
      1.47359260e-005 1.47359260e-005 1.47359260e-005 1.47359260e-005
      1.47359260e-005 1.47359260e-005 1.47359260e-005 1.47359260e-005
      1.47359260e-005 1.47359260e-005 1.47359260e-005 1.47359260e-005
      1.47359260e-005 1.47359260e-005 1.47359260e-005 1.47359260e-005
      1.47359260e-005 1.47359260e-005 1.47359260e-005 1.47359260e-005
      1.47359260e-005 1.47359260e-005 1.47359260e-005 1.91016497e-005
      -6.23127125e-005 -7.39728785e-005 -6.22821317e-005
      -6.73603572e-005 -7.14279449e-005 -6.40846920e-005
      -6.15156532e-005 -6.74073599e-005 -6.74073599e-005
      -6.74073599e-005 -6.74073599e-005 -6.74073599e-005
      -6.74073599e-005 -6.74073599e-005 -6.74073599e-005
      -6.74073599e-005 -6.74073599e-005 -6.74073599e-005
      -6.74073599e-005 -6.74073599e-005 -6.74073599e-005
      -6.74073599e-005 -6.74073599e-005 -6.74073599e-005
      -6.74073599e-005 -6.74073599e-005 -6.74073599e-005
      -6.74073599e-005 -6.74073599e-005 -6.74073599e-005
      -6.74073599e-005 -6.50755828e-005 -5.93186633e-005
      -7.62526834e-005 -5.71432211e-005 -7.19750897e-005
      -6.53160241e-005 5.92616107e-006 -4.31111084e-006 -3.15108855e-006
      -3.15108855e-006 -3.15108855e-006 -3.15108855e-006
      -3.15108855e-006 -3.15108855e-006 -3.15108855e-006
      -3.15108855e-006 -3.15108855e-006 -3.15108855e-006
      -3.15108855e-006 -3.15108855e-006 -3.15108855e-006
      -3.15108855e-006 -3.15108855e-006 -3.15108855e-006
      -3.15108855e-006 -3.15108855e-006 -3.15108855e-006
      -3.15108855e-006 -3.15108855e-006 -3.15108855e-006
      -3.15108855e-006 -3.15108855e-006 -3.15108855e-006
      -3.15108855e-006 -3.15108855e-006 -3.15108855e-006
      -3.15108855e-006 -3.15108855e-006 -3.15108855e-006
      -3.15108855e-006 -4.36841765e-006 -4.71078511e-006
      -3.84627128e-005 -3.54008553e-005 -4.59905132e-005
      -3.88226363e-005 -4.40874355e-005 -3.73821604e-005
      -4.10458197e-005 -4.10458197e-005 -4.10458197e-005
      -4.10458197e-005 -4.10458197e-005 -4.10458197e-005
      -4.10458197e-005 -4.10458197e-005 -4.10458197e-005
      -4.10458197e-005 -4.10458197e-005 -4.10458197e-005
      -4.10458197e-005 -4.10458197e-005 -4.10458197e-005
      -4.10458197e-005 -4.10458197e-005 -4.10458197e-005
      -4.10458197e-005 -4.10458197e-005 -4.10458197e-005
      -4.10458197e-005 -4.10458197e-005 -4.10458197e-005
      -4.69651422e-005 -3.87971195e-005 -3.38385762e-005
      -4.01168181e-005 -4.55628615e-005 3.84848718e-005 4.54637884e-005
      4.26086990e-005 4.13797025e-005 4.13797025e-005 4.13797025e-005
      4.13797025e-005 4.13797025e-005 4.13797025e-005 4.13797025e-005
      4.13797025e-005 4.13797025e-005 4.13797025e-005 4.13797025e-005
      4.13797025e-005 4.13797025e-005 4.13797025e-005 4.13797025e-005
      4.13797025e-005 4.13797025e-005 4.13797025e-005 4.13797025e-005
      4.13797025e-005 4.13797025e-005 4.13797025e-005 4.13797025e-005
      4.13797025e-005 3.75871168e-005 4.99718808e-005 3.25222936e-005
      4.75947782e-005 3.41422856e-005 3.76603057e-005 4.36615846e-005
      5.26241747e-005 5.50003097e-005 5.50003097e-005 5.50003097e-005
      5.50003097e-005 5.50003097e-005 5.50003097e-005 5.50003097e-005
      5.50003097e-005 5.50003097e-005 5.50003097e-005 5.50003097e-005
      5.50003097e-005 5.50003097e-005 5.50003097e-005 5.50003097e-005
      5.50003097e-005 5.50003097e-005 5.50003097e-005 5.50003097e-005
      5.50003097e-005 5.50003097e-005 5.50003097e-005 5.50003097e-005
      5.50003097e-005 5.50003097e-005 5.50003097e-005 5.50003097e-005
      5.50003097e-005 5.50003097e-005 5.50003097e-005 5.50003097e-005
      5.50003097e-005 -1.68243805e-005 -1.68243805e-005 -1.68243805e-005
      -1.68243805e-005 -1.68243805e-005 -1.68243805e-005
      -1.68243805e-005 -1.68243805e-005 -1.68243805e-005
      -1.68243805e-005 -1.68243805e-005 -1.68243805e-005
      -1.68243805e-005 -1.68243805e-005 -1.60767413e-005
      -1.68243805e-005 -1.68243805e-005 -1.68243805e-005
      -1.68243805e-005 -1.68243805e-005 -1.68243805e-005
      -1.68243805e-005 -1.68243805e-005 -1.68243805e-005
      -1.60767413e-005 -1.68243805e-005 -1.68243805e-005
      -1.68243805e-005 -1.68243805e-005 -1.75720197e-005
      -1.68243805e-005 -1.60767413e-005 -3.57715398e-005
      -3.57715398e-005 -3.57715398e-005 -3.57715398e-005
      -3.57715398e-005 -3.57715398e-005 -3.57715398e-005
      -3.57715398e-005 -3.57715398e-005 -3.57715398e-005
      -3.57715398e-005 -3.57715398e-005 -3.57715398e-005
      -3.57715398e-005 -3.57715398e-005 -3.57715398e-005
      -3.57715398e-005 -3.57715398e-005 -3.57715398e-005
      -3.57715398e-005 -3.57715398e-005 -3.57715398e-005
      -3.57715398e-005 -3.57715398e-005 -3.56976379e-005
      -3.36513331e-005 -2.91735869e-005 -3.48274880e-005
      -3.78060358e-005 -4.21379773e-005 -2.89940745e-005
      -1.87937057e-005 -1.68243805e-005 -1.68243805e-005
      -1.68243805e-005 -1.68243805e-005 -1.68243805e-005
      -1.68243805e-005 -1.68243805e-005 -1.68243805e-005
      -1.68243805e-005 -1.68243805e-005 -1.68243805e-005
      -1.68243805e-005 -1.68243805e-005 -1.68243805e-005
      -1.68243805e-005 -1.68243805e-005 -1.68243805e-005
      -1.68243805e-005 -1.68243805e-005 -1.68243805e-005
      -1.68243805e-005 -1.68243805e-005 -1.68243805e-005
      -1.68243805e-005 -1.74609722e-005 -1.06957859e-005
      -2.33256251e-005 -1.88794638e-005 -1.87760070e-005 2.16490989e-005
      1.09203947e-005 2.05555752e-005 1.77336678e-005 1.77336678e-005
      1.77336678e-005 1.77336678e-005 1.77336678e-005 1.77336678e-005
      1.77336678e-005 1.77336678e-005 1.69860286e-005 1.69860286e-005
      1.77336678e-005 1.84813071e-005 1.84813071e-005 1.77336678e-005
      1.77336678e-005 1.77336678e-005 1.77336678e-005 1.77336678e-005
      1.77336678e-005 1.77336678e-005 1.77336678e-005 1.77336678e-005
      1.84813071e-005 1.77336678e-005 1.60750278e-005 1.93881951e-005
      -1.23259661e-005 -1.07946789e-005 -1.53345081e-005
      -1.92333609e-005 -1.64494541e-005 -1.66894606e-005
      -1.68243805e-005 -1.68243805e-005 -1.68243805e-005
      -1.68243805e-005 -1.68243805e-005 -1.68243805e-005
      -1.68243805e-005 -1.68243805e-005 -1.68243805e-005
      -1.68243805e-005 -1.68243805e-005 -1.68243805e-005
      -1.68243805e-005 -1.68243805e-005 -1.68243805e-005
      -1.68243805e-005 -1.19115739e-005 -1.71547636e-005
      -1.88526719e-005 -1.71707106e-005 -2.04711996e-005
      -2.03512500e-005 -1.32559057e-004 -1.43041383e-004
      -1.36247603e-004 -1.36247603e-004 -1.36247603e-004
      -1.36247603e-004 -1.36247603e-004 -1.36247603e-004
      -1.36247603e-004 -1.36247603e-004 -1.36247603e-004
      -1.36247603e-004 -1.36247603e-004 -1.36247603e-004
      -1.36247603e-004 -1.36247603e-004 -1.36247603e-004
      -1.36247603e-004 -1.36247603e-004 -1.36247603e-004
      -1.36247603e-004 -1.36247603e-004 -1.36247603e-004
      -1.36247603e-004 -1.36247603e-004 -1.36247603e-004
      -1.29744192e-004 5.31059923e-005 7.04392151e-005 6.92982212e-005
      6.10388015e-005 6.52851668e-005 7.24108759e-005 6.39401696e-005
      6.50368311e-005 6.50368311e-005 6.50368311e-005 6.50368311e-005
      6.50368311e-005 6.50368311e-005 6.50368311e-005 6.50368311e-005
      6.50368311e-005 6.50368311e-005 6.50368311e-005 6.50368311e-005
      6.50368311e-005 6.50368311e-005 6.50368311e-005 6.50368311e-005
      7.04365084e-005 6.16585094e-005 7.12768378e-005 9.89298787e-005
      1.15291332e-004 9.94363509e-005 1.02589765e-004 1.09296954e-004
      1.03937076e-004 1.03366903e-004 1.04051112e-004 1.03366903e-004
      1.03823040e-004 1.03709004e-004 1.03937076e-004 1.03594968e-004
      1.03709004e-004 1.03709004e-004 1.03709004e-004 1.03709004e-004
      1.03709004e-004 1.03709004e-004 1.03709004e-004 1.03709004e-004
      1.04018618e-004 9.75425282e-005 9.99708427e-005 1.05838502e-004
      6.36818295e-005 7.13143745e-005 7.36746151e-005 6.72645110e-005
      6.64472682e-005 6.64472682e-005 6.64472682e-005 6.64472682e-005
      6.64472682e-005 6.64472682e-005 6.64472682e-005 6.64472682e-005
      6.64472682e-005 6.64472682e-005 6.64472682e-005 6.64472682e-005
      6.64472682e-005 6.64472682e-005 6.64472682e-005 6.64472682e-005
      5.83841575e-005 6.35124452e-005 6.81594902e-005 6.56639677e-005
      4.69456681e-005 4.44414000e-005 4.83987678e-005 5.32312079e-005
      4.49686122e-005 4.49686122e-005 4.49686122e-005 4.49686122e-005
      4.49686122e-005 4.49686122e-005 4.49686122e-005 4.49686122e-005
      4.49686122e-005 4.49686122e-005 4.49686122e-005 4.49686122e-005
      4.49686122e-005 4.49686122e-005 4.49686122e-005 4.49686122e-005
      3.96960386e-005 5.62749810e-005 4.91009123e-005 1.15401399e-005
      1.14832628e-005 9.03058753e-006 1.60755262e-005 1.00782372e-005
      1.19187416e-005 1.19187416e-005 1.19187416e-005 1.19187416e-005
      1.19187416e-005 1.19187416e-005 1.19187416e-005 1.19187416e-005
      1.19187416e-005 1.19187416e-005 1.19187416e-005 1.19187416e-005
      1.19187416e-005 1.19187416e-005 1.19187416e-005 1.19187416e-005
      9.52109531e-006 1.51363074e-005 1.48647478e-005 1.41371011e-005
      6.49511276e-006 1.04373148e-005 1.90240589e-005 1.64441699e-005
      1.38465421e-005 1.38465421e-005 1.38465421e-005 1.38465421e-005
      1.38465421e-005 1.38465421e-005 1.38465421e-005 1.38465421e-005
      2.10293183e-005 9.51820857e-006 1.30427388e-005 1.42100225e-005
      1.36490089e-005 2.67619980e-005 4.36215014e-005 4.36862902e-005
      4.42383971e-005 4.42383971e-005 4.42383971e-005 4.42383971e-005
      4.42383971e-005 4.42383971e-005 4.42383971e-005 4.42383971e-005
      4.42383971e-005 4.42383971e-005 4.42383971e-005 4.42383971e-005
      4.42383971e-005 4.42383971e-005 4.42383971e-005 4.42383971e-005
      4.14361057e-005 4.09999229e-005 6.11533906e-005 5.79218649e-005
      4.79820119e-005 4.94007618e-005 4.79306109e-005 5.54014914e-005
      5.09288657e-005 5.09288657e-005 5.09288657e-005 5.09288657e-005
      5.09288657e-005 5.09288657e-005 5.09288657e-005 5.09288657e-005
      5.45653274e-005 4.41924094e-005 5.14718849e-005 5.01110480e-005
      5.84656555e-005 -2.33669471e-005 -1.04232386e-005 -2.44753410e-005
      -1.68243805e-005 -1.68243805e-005 -1.68243805e-005
      -1.68243805e-005 -1.68243805e-005 -1.68243805e-005
      -1.68243805e-005 -1.68243805e-005 -1.49110083e-005
      -1.28518323e-005 -1.62280739e-005 -1.54863737e-005
      -1.06882471e-005 -1.46930515e-005 -1.32974246e-005 6.51866212e-005
      7.11235698e-005 7.11235698e-005 7.11235698e-005 7.11235698e-005
      7.11235698e-005 7.11235698e-005 7.11235698e-005 7.11235698e-005
      7.11235698e-005 7.11235698e-005 7.11235698e-005 7.11235698e-005
      7.11235698e-005 7.11235698e-005 7.11235698e-005 7.11235698e-005
      -2.18701680e-005 -2.18701680e-005 -2.18701680e-005
      -2.18701680e-005 -2.18701680e-005 -2.18701680e-005
      -2.18701680e-005 -2.18701680e-005 -2.18701680e-005
      -2.18701680e-005 -2.18701680e-005 -2.18701680e-005
      -2.18701680e-005 -2.18701680e-005 -2.18701680e-005
      -2.18701680e-005 -1.76419962e-006 -1.76419962e-006
      -1.76419962e-006 -1.76419962e-006 -1.76419962e-006
      -1.76419962e-006 -1.76419962e-006 -1.76419962e-006
      -1.14099350e-006 -4.70179884e-006 -4.35816219e-006
      -3.16033447e-006 3.18212938e-006 -1.07993565e-005 9.20095226e-006
      1.82623662e-005 1.93280775e-005 1.93280775e-005 1.93280775e-005
      1.93280775e-005 1.93280775e-005 1.93280775e-005 1.93280775e-005
      1.93280775e-005 2.67111263e-005 1.08986033e-005 2.57014672e-005
      2.05627675e-005 1.27280491e-005 -1.02722634e-005 -2.28216686e-005
      -1.72403197e-005 -1.68243805e-005 -1.68243805e-005
      -1.68243805e-005 -1.68243805e-005 -1.68243805e-005
      -1.68243805e-005 -1.68243805e-005 -1.68243805e-005
      -1.85694371e-005 -2.28071476e-005 1.35341134e-005 2.29760390e-005
      1.89751790e-005 1.83532356e-005 2.50208523e-005 6.32084357e-006
      7.94115840e-006 2.58260607e-005 1.74290417e-005 1.88512440e-005
      2.46013042e-005 1.15110743e-005 -2.09384616e-005 -1.95540069e-005
      -1.68243805e-005 -1.68243805e-005 -1.68243805e-005
      -1.68243805e-005 -1.68243805e-005 -1.68243805e-005
      -1.68243805e-005 -1.68243805e-005 -4.40224085e-006 1.33230460e-005
      3.09509305e-005 2.49753248e-005 1.29288619e-005 2.63655893e-005
      3.55689190e-005 1.98095331e-005 2.14100983e-005 2.94401452e-005
      1.72980872e-005 -1.05133149e-005 -1.54535264e-005 -6.72284341e-006
      -1.66291939e-005 -1.73979497e-005 -1.47957353e-005
      -1.54811678e-005 -1.11601075e-005 -1.50965470e-005 4.76713685e-005
      4.62483476e-005 4.83276635e-005 5.10522696e-005 5.13902596e-005
      4.69691477e-005 4.62256212e-005 5.22498631e-005 -5.63731282e-006
      2.36941855e-006 3.48493955e-007 -1.71968884e-006 -4.68709732e-006
      -4.02646629e-006 4.24096640e-007 -1.71987595e-005 -1.72138025e-005
      -1.79855633e-005 -1.27591520e-005 -1.77485745e-005
      -1.59812425e-005 -2.55161402e-004 -2.47860880e-004
      -2.63817521e-004 -2.59136054e-004 -2.63333204e-004
      -2.25577514e-006 1.51864115e-005 1.64958747e-005 -1.27102276e-005
      -1.99679762e-005 -4.03111117e-005 -5.00840470e-005 4.65562407e-005
      1.96262972e-005 -1.46072460e-004</_></support_vectors>
  <decision_functions>
    <_>
      <sv_count>1</sv_count>
      <rho>3.3647161678337006e-001</rho>
      <alpha>
        1.</alpha>
      <index>
        0</index></_></decision_functions></my_svm>
</opencv_storage>
