<?xml version="1.0"?>
<opencv_storage>
<my_svm type_id="opencv-ml-svm">
  <svm_type>C_SVC</svm_type>
  <kernel><type>LINEAR</type></kernel>
  <C>1.</C>
  <term_criteria><epsilon>2.2204460492503131e-016</epsilon>
    <iterations>100</iterations></term_criteria>
  <var_all>4544</var_all>
  <var_count>4544</var_count>
  <class_count>2</class_count>
  <class_labels type_id="opencv-matrix">
    <rows>1</rows>
    <cols>2</cols>
    <dt>i</dt>
    <data>
      10 255</data></class_labels>
  <sv_total>1</sv_total>
  <support_vectors>
    <_>
      1.62989159e-006 6.24458664e-007 -4.79311701e-008 6.70362468e-008
      4.02746593e-007 2.47841945e-006 4.08635424e-006 4.59829471e-006
      4.31812487e-006 4.42741884e-006 3.00502438e-006 -1.37295649e-006
      -7.07133950e-007 -1.73879528e-006 -1.59888168e-006
      -1.22283768e-006 -1.58741500e-007 -3.84098399e-007 5.01245381e-007
      2.36373793e-007 6.46635158e-007 5.01245381e-007 -3.84098399e-007
      -1.58741500e-007 -3.12990863e-007 2.54229491e-007 -1.27742169e-006
      -1.36675123e-006 -1.36675123e-006 -1.36675123e-006
      -5.67220354e-007 -5.67220354e-007 8.15282064e-008 8.15282064e-008
      1.25211227e-006 1.61529658e-006 1.61529658e-006 1.23078985e-006
      -1.03166133e-006 3.70585212e-007 3.84506706e-007 3.84506706e-007
      3.84506706e-007 3.84506706e-007 3.84506706e-007 3.84506706e-007
      3.84506706e-007 -1.59597661e-007 2.41158318e-007 6.51419725e-007
      -1.59597661e-007 6.09863605e-007 6.09863605e-007 3.84506706e-007
      3.84506706e-007 3.84506706e-007 1.73203523e-006 1.31734328e-006
      1.31734328e-006 1.50667836e-006 1.50667836e-006 5.01245381e-007
      5.01245381e-007 8.65534915e-008 0. 0. -9.39728409e-007 0. 0. 0. 0.
      2.48936908e-006 7.28682835e-007 7.28682835e-007 0. 0. 0. 0. 0.
      8.37301002e-007 1.11110899e-006 7.26602309e-007 0. 0. 0. 0.
      7.26602309e-007 1.11110899e-006 0. 0. 0. 0. 0. 0. 0. 0.
      1.33854644e-006 8.37301002e-007 3.84506706e-007 0. 0. 0.
      1.95171680e-007 1.95171680e-007 0. 0. 0. -8.06304456e-007
      -8.06304456e-007 1.23078985e-006 1.23078985e-006 3.53182918e-006
      1.11318957e-006 1.11318957e-006 7.28682835e-007 7.28682835e-007
      5.01245381e-007 0. 0. 0. 0. 0. 1.33854644e-006 1.33854644e-006
      1.33854644e-006 8.37301002e-007 6.09863605e-007 2.25356885e-007 0.
      0. 0. 0. 0. 0. 0. 0. 0. 0. 0. 0. 0. 0. 0. 0. 0. 0. 0. 0. 0. 0. 0.
      0. 0. 0. 0. 0. 0. 0. 0. 0. 0. 0. 0. 0. 0. 0. 0. 0. 0. 0. 0. 0. 0.
      0. 0. 0. 0. 0. 0. 0. 0. 0. 0. 0. 0. 0. 0. 0. 0. 0. 0. 0. 0. 0. 0.
      0. 0. 0. 0. 0. 0. 0. 0. 0. 0. 0. 0. 0. 0. 0. 0. 0. 0. 0. 0. 0. 0.
      0. 0. 0. 0. 0. 0. 0. 0. 0. 0. 0. 0. 0. 0. 0. 0. 0. 0. 0. 0. 0. 0.
      0. 0. 0. 0. 0. 0. 0. 0. 0. 0. 0. 0. 0. 0. 0. 0. 0. 7.31653336e-006
      6.08663095e-006 2.54112479e-006 2.01877629e-006 -7.79647053e-007
      -3.80166796e-007 -2.39478453e-007 -2.61963714e-006
      -5.04900936e-006 -3.04091441e-006 -2.38795997e-006
      -1.67354767e-006 -2.80662994e-006 -2.34884146e-006
      -3.65893811e-006 -5.23792187e-006 -3.72719057e-007
      -1.08555275e-006 -1.73134686e-006 -2.05717856e-006
      -2.23847223e-006 -2.45864840e-006 -1.59911019e-006
      -8.01235615e-007 2.83108488e-006 -5.76652042e-007 2.75293019e-007
      -2.62974368e-006 1.84445321e-006 3.32284276e-006 2.97324300e-006
      -3.56154669e-006 5.47865859e-008 -1.66804716e-006 -6.94219125e-007
      5.33047064e-008 -2.04518287e-007 -2.62892286e-006 -3.38481073e-006
      1.70818646e-006 -3.76488629e-006 -2.38062512e-006 -4.04523325e-006
      -6.82761583e-006 -8.02119393e-006 4.07562595e-007 4.20008610e-006
      7.13136558e-007 -4.49035133e-006 -3.78503682e-006 -2.60595539e-006
      -9.55442943e-007 1.28242721e-006 1.43124009e-006 -2.95272184e-006
      -2.96253347e-006 4.91591481e-006 1.57577836e-006 2.82562041e-006
      4.49622348e-006 4.18947957e-006 2.96479402e-006 1.81558687e-006
      -1.52221014e-006 -1.41671762e-006 2.70949363e-006 2.08082633e-006
      5.41688723e-006 4.80293011e-006 4.52787799e-006 3.47310538e-006
      2.77040499e-006 -9.54784582e-007 1.54831491e-006 2.76362084e-006
      -5.60636977e-007 -9.69583766e-007 -4.35169994e-007 1.05414938e-006
      2.10373537e-006 4.63449084e-007 2.25627286e-006 5.08554592e-007
      -2.12955865e-006 -3.23302925e-006 -1.56588362e-006 3.68677405e-007
      2.10645837e-007 -4.75780752e-007 -3.73701823e-007 -2.81994971e-006
      -1.52755536e-006 3.21846596e-006 3.94178642e-006 3.13220175e-006
      8.96209599e-007 -7.91622767e-007 -1.04474282e-006 -1.67957950e-007
      -2.78571565e-006 -2.64625419e-006 -1.09667690e-006
      -2.51097799e-006 -1.43393243e-006 1.14445379e-006 9.69620032e-007
      9.20216436e-009 2.76672313e-006 3.22315742e-007 8.98530601e-008
      1.70516296e-006 2.65428184e-006 6.64967956e-007 7.10143070e-007
      2.69791963e-006 4.76545347e-006 3.79126936e-006 1.66851089e-006
      3.37626147e-007 8.29767757e-008 3.37918550e-006 2.96271173e-006
      3.51836297e-006 -1.93703826e-008 -7.34630930e-007 2.54547422e-006
      1.83512122e-006 -4.85016699e-007 2.86417077e-007 -1.76715560e-006
      -9.21329843e-007 9.39688789e-008 -7.57892337e-007 -2.39818769e-006
      7.08883405e-008 -1.68328313e-006 6.43908334e-006 4.85134569e-006
      3.75089280e-006 1.74929062e-006 4.14969827e-006 5.69332042e-006
      4.59478815e-006 1.82523149e-006 2.17978754e-006 2.21400501e-006
      -9.43165546e-008 -6.16177374e-007 -1.22812150e-006
      -1.22776771e-006 -1.40996701e-006 -7.07038907e-007
      -5.24179711e-007 -2.27875125e-006 -2.84100292e-006
      -2.68243912e-006 -2.55088207e-006 -6.86556291e-007 4.16105195e-007
      -8.41162944e-007 6.59367572e-007 1.54182499e-006 -2.85148599e-006
      -2.01893249e-006 1.15804085e-006 -6.62622824e-007 4.59233490e-007
      1.24878795e-006 9.75226499e-007 8.86435245e-008 1.69275927e-006
      2.09893869e-006 1.18186722e-006 2.78651100e-006 3.24818734e-006
      1.42974568e-006 5.28857299e-007 2.56645126e-006 2.18489731e-006
      -1.24233554e-006 -2.92009349e-006 2.76605033e-006 1.54677514e-006
      2.48555898e-006 -4.80759400e-006 -1.76351932e-006 6.78488334e-007
      -2.59797298e-006 -1.33950141e-006 2.29240459e-006 1.61567061e-006
      3.02178387e-006 -1.11835584e-006 2.35595871e-006 3.55680345e-006
      3.62524634e-006 -1.50753192e-006 -2.77994513e-006 -4.09461109e-006
      -1.36574727e-006 2.87169928e-006 1.71489603e-006 1.49718721e-006
      2.39938117e-006 3.40216161e-006 -2.69607153e-006 -1.48312347e-006
      -5.40561587e-007 3.75120021e-006 9.36583945e-007 -2.87750964e-007
      -1.58143746e-006 5.26709357e-007 2.02675892e-006 2.44570242e-006
      3.81726250e-006 2.85122837e-006 2.94772509e-008 8.88368987e-008
      -1.75975941e-007 -1.69375971e-006 -3.56394480e-007
      -1.75872503e-006 -1.87066576e-006 -1.18656794e-006
      -2.50616426e-006 -1.34159552e-006 -1.19941387e-006
      -5.20773574e-006 -2.31516947e-006 3.03942829e-006 2.32920638e-006
      3.35013453e-007 -2.66471545e-007 3.74669185e-007 1.56618853e-006
      3.45444937e-006 1.51523716e-006 -3.74038495e-006 -4.26974975e-006
      -2.03112427e-006 -1.74869285e-006 -2.48642687e-006
      -1.27024737e-006 -8.53482845e-007 -1.18532917e-007 7.89741080e-007
      1.80439167e-006 -7.34149523e-007 -5.18821594e-007 -9.84995950e-007
      7.78628703e-007 1.27987414e-006 -2.26122310e-007 -8.47522244e-007
      -6.81043105e-007 -3.71195783e-005 -3.71195783e-005
      -3.71195783e-005 -3.71195783e-005 -3.71195783e-005
      -3.71195783e-005 -3.71195783e-005 -3.71195783e-005
      -3.71195783e-005 -3.71195783e-005 -3.71195783e-005
      -3.71195783e-005 -3.71195783e-005 -3.71195783e-005
      -3.71195783e-005 -3.71195783e-005 -3.71195783e-005
      -3.71195783e-005 -3.71195783e-005 -3.71195783e-005
      -3.71195783e-005 -3.71195783e-005 -3.71195783e-005
      -3.71195783e-005 -3.71195783e-005 -3.71195783e-005
      -3.71195783e-005 -3.71195783e-005 -3.71195783e-005
      -3.71195783e-005 -3.71195783e-005 -3.71195783e-005
      -3.71195783e-005 -3.71195783e-005 -3.71195783e-005
      -3.71195783e-005 -3.71195783e-005 -3.71195783e-005
      -3.71195783e-005 -3.71195783e-005 -3.71195783e-005
      -3.71195783e-005 -3.71195783e-005 -3.71195783e-005
      -3.71195783e-005 -3.71195783e-005 -3.71195783e-005
      -3.71195783e-005 -3.71195783e-005 -3.71195783e-005
      -3.71195783e-005 -3.71195783e-005 -3.71195783e-005
      -3.71195783e-005 -3.71195783e-005 -3.71195783e-005
      -3.06887850e-005 -4.14702590e-005 -3.02305234e-005
      -2.66532479e-005 -4.35941001e-005 -5.43067035e-005
      -2.69236425e-005 -1.19295737e-005 -1.15686053e-005
      -1.15686053e-005 -1.15686053e-005 -1.15686053e-005
      -1.15686053e-005 -1.15686053e-005 -1.15686053e-005
      -1.15686053e-005 -1.15686053e-005 -1.15686053e-005
      -1.15686053e-005 -1.15686053e-005 -1.15686053e-005
      -1.15686053e-005 -1.15686053e-005 -1.15686053e-005
      -1.15686053e-005 -1.15686053e-005 -1.15686053e-005
      -1.15686053e-005 -1.15686053e-005 -1.15686053e-005
      -1.15686053e-005 -1.15686053e-005 -1.15686053e-005
      -1.15686053e-005 -1.15686053e-005 -1.15686053e-005
      -1.15686053e-005 -1.15686053e-005 -1.15686053e-005
      -1.15686053e-005 -1.15686053e-005 -1.15686053e-005
      -1.15686053e-005 -1.15686053e-005 -1.15686053e-005
      -1.15686053e-005 -1.15686053e-005 -1.15686053e-005
      -1.15686053e-005 -1.15686053e-005 -1.15686053e-005
      -1.15686053e-005 -1.15686053e-005 -1.15686053e-005
      -1.15686053e-005 -1.15686053e-005 -1.15686053e-005
      -1.15686053e-005 -1.15686053e-005 -1.15686053e-005
      -1.15686053e-005 -1.15686053e-005 -1.15686053e-005
      -1.15686053e-005 -1.39680760e-005 -9.95061146e-006
      -1.79869130e-005 -6.76145009e-006 -1.90506416e-005
      -5.63477261e-006 -2.80445170e-006 -3.78198274e-006
      -3.70141743e-006 -3.70141743e-006 -3.70141743e-006
      -3.70141743e-006 -3.70141743e-006 -3.70141743e-006
      -3.70141743e-006 -3.70141743e-006 -3.70141743e-006
      -3.70141743e-006 -3.70141743e-006 -3.70141743e-006
      -3.70141743e-006 -3.70141743e-006 -3.70141743e-006
      -3.70141743e-006 -3.70141743e-006 -3.70141743e-006
      -3.70141743e-006 -3.70141743e-006 -3.70141743e-006
      -3.70141743e-006 -3.70141743e-006 -3.70141743e-006
      -3.70141743e-006 -3.70141743e-006 -3.70141743e-006
      -3.70141743e-006 -3.70141743e-006 -3.70141743e-006
      -3.70141743e-006 -3.70141743e-006 -3.70141743e-006
      -3.70141743e-006 -3.70141743e-006 -3.70141743e-006
      -3.70141743e-006 -3.70141743e-006 -3.70141743e-006
      -3.70141743e-006 -3.70141743e-006 -3.70141743e-006
      -3.70141743e-006 -3.70141743e-006 -3.70141743e-006
      -3.70141743e-006 -3.70141743e-006 -3.70141743e-006
      -3.70141743e-006 -3.70141743e-006 -3.70141743e-006
      -3.70141743e-006 -3.70141743e-006 -3.70141743e-006
      -3.70141743e-006 -3.70141743e-006 -3.98996917e-006
      -7.39153120e-006 -2.81060420e-005 -3.23730746e-005
      -3.05329631e-005 -2.96099461e-005 -3.35182194e-005
      -3.19400860e-005 -3.27698581e-005 -3.27698581e-005
      -3.27698581e-005 -3.27698581e-005 -3.27698581e-005
      -3.27698581e-005 -3.27698581e-005 -3.27698581e-005
      -3.27698581e-005 -3.27698581e-005 -3.27698581e-005
      -3.27698581e-005 -3.27698581e-005 -3.27698581e-005
      -3.27698581e-005 -3.27698581e-005 -3.27698581e-005
      -3.27698581e-005 -3.27698581e-005 -3.27698581e-005
      -3.27698581e-005 -3.27698581e-005 -3.27698581e-005
      -3.27698581e-005 -3.27698581e-005 -3.27698581e-005
      -3.27698581e-005 -3.27698581e-005 -3.27698581e-005
      -3.27698581e-005 -3.27698581e-005 -3.27698581e-005
      -3.27698581e-005 -3.27698581e-005 -3.27698581e-005
      -3.27698581e-005 -3.27698581e-005 -3.27698581e-005
      -3.27698581e-005 -3.27698581e-005 -3.27698581e-005
      -3.27698581e-005 -3.27698581e-005 -3.27698581e-005
      -3.27698581e-005 -3.27698581e-005 -3.27698581e-005
      -3.27698581e-005 -3.14048157e-005 -3.36183803e-005
      -2.97101087e-005 -3.13704295e-005 -3.33158787e-005
      -2.72270863e-005 3.23406566e-005 3.74275478e-005 3.52197712e-005
      3.52197712e-005 3.52197712e-005 3.52197712e-005 3.52197712e-005
      3.52197712e-005 3.52197712e-005 3.52197712e-005 3.52197712e-005
      3.52197712e-005 3.52197712e-005 3.52197712e-005 3.52197712e-005
      3.52197712e-005 3.52197712e-005 3.52197712e-005 3.52197712e-005
      3.52197712e-005 3.52197712e-005 3.52197712e-005 3.52197712e-005
      3.52197712e-005 3.52197712e-005 3.52197712e-005 3.52197712e-005
      3.52197712e-005 3.52197712e-005 3.52197712e-005 3.52197712e-005
      3.52197712e-005 3.52197712e-005 3.52197712e-005 3.52197712e-005
      3.52197712e-005 3.52197712e-005 3.52197712e-005 3.52197712e-005
      3.52197712e-005 3.52197712e-005 3.52197712e-005 3.52197712e-005
      3.52197712e-005 3.52197712e-005 3.52197712e-005 3.52197712e-005
      3.52197712e-005 3.52197712e-005 3.52197712e-005 3.52197712e-005
      3.52197712e-005 3.52197712e-005 3.52197712e-005 3.52197712e-005
      3.52197712e-005 3.52197712e-005 3.52197712e-005 3.28563692e-005
      3.32987402e-005 1.90019709e-005 2.55022551e-005 2.01639996e-005
      2.47161261e-005 3.02515054e-005 1.75118275e-005 1.97130958e-005
      1.97130958e-005 1.97130958e-005 1.97130958e-005 1.97130958e-005
      1.97130958e-005 1.97130958e-005 1.97130958e-005 1.97130958e-005
      1.97130958e-005 1.97130958e-005 1.97130958e-005 1.97130958e-005
      1.97130958e-005 1.97130958e-005 1.97130958e-005 1.97130958e-005
      1.97130958e-005 1.97130958e-005 1.97130958e-005 1.97130958e-005
      1.97130958e-005 1.97130958e-005 1.97130958e-005 1.97130958e-005
      1.97130958e-005 1.97130958e-005 1.97130958e-005 1.97130958e-005
      1.97130958e-005 1.97130958e-005 1.97130958e-005 1.97130958e-005
      1.97130958e-005 1.97130958e-005 1.97130958e-005 1.97130958e-005
      1.97130958e-005 1.97130958e-005 1.97130958e-005 1.97130958e-005
      1.97130958e-005 1.97130958e-005 1.97130958e-005 1.97130958e-005
      1.97130958e-005 1.97130958e-005 1.97130958e-005 3.25219626e-005
      1.41866285e-005 3.82418402e-005 -1.66045538e-005 -3.39271310e-006
      -1.20822506e-005 3.07100919e-007 -5.18106253e-006 -8.63202604e-006
      -8.63202604e-006 -8.63202604e-006 -8.63202604e-006
      -8.63202604e-006 -8.63202604e-006 -8.63202604e-006
      -8.63202604e-006 -8.63202604e-006 -8.63202604e-006
      -8.63202604e-006 -8.63202604e-006 -8.63202604e-006
      -8.63202604e-006 -8.63202604e-006 -8.63202604e-006
      -8.63202604e-006 -8.63202604e-006 -8.63202604e-006
      -8.63202604e-006 -8.63202604e-006 -8.63202604e-006
      -8.63202604e-006 -8.63202604e-006 -8.63202604e-006
      -8.63202604e-006 -8.63202604e-006 -8.63202604e-006
      -8.63202604e-006 -8.63202604e-006 -8.63202604e-006
      -8.63202604e-006 -8.63202604e-006 -8.63202604e-006
      -8.63202604e-006 -8.63202604e-006 -8.63202604e-006
      -8.63202604e-006 -8.63202604e-006 -8.63202604e-006
      -8.63202604e-006 -8.63202604e-006 -8.63202604e-006
      -8.63202604e-006 -8.63202604e-006 -8.63202604e-006
      -8.63202604e-006 -8.63202604e-006 -1.51935246e-005
      -8.56185670e-006 -1.18966309e-005 -7.47304284e-006
      -3.13831588e-005 -2.79945489e-005 -2.91143133e-005
      -2.38005396e-005 -2.92997083e-005 -2.92997083e-005
      -2.92997083e-005 -2.92997083e-005 -2.92997083e-005
      -2.92997083e-005 -2.92997083e-005 -2.92997083e-005
      -2.92997083e-005 -2.92997083e-005 -2.92997083e-005
      -2.92997083e-005 -2.92997083e-005 -2.92997083e-005
      -2.92997083e-005 -2.92997083e-005 -2.92997083e-005
      -2.92997083e-005 -2.92997083e-005 -2.92997083e-005
      -2.92997083e-005 -2.92997083e-005 -2.92997083e-005
      -2.92997083e-005 -2.92997083e-005 -2.92997083e-005
      -2.92997083e-005 -2.92997083e-005 -2.92997083e-005
      -2.92997083e-005 -2.92997083e-005 -2.92997083e-005
      -2.92997083e-005 -2.92997083e-005 -2.92997083e-005
      -2.92997083e-005 -2.92997083e-005 -2.92997083e-005
      -2.92997083e-005 -2.92997083e-005 -2.92997083e-005
      -2.92997083e-005 -2.92997083e-005 -2.92997083e-005
      -2.92997083e-005 -2.92997083e-005 -2.92997083e-005
      -2.92997083e-005 -2.92409604e-005 -3.12080992e-005
      -3.78883560e-005 -2.13235071e-005 -3.52657808e-005
      -1.95303437e-005 -2.69265402e-005 -2.84851831e-005
      -2.39773835e-005 -2.39773835e-005 -2.39773835e-005
      -2.39773835e-005 -2.39773835e-005 -2.39773835e-005
      -2.39773835e-005 -2.39773835e-005 -2.39773835e-005
      -2.39773835e-005 -2.39773835e-005 -2.39773835e-005
      -2.39773835e-005 -2.39773835e-005 -2.39773835e-005
      -2.39773835e-005 -2.39773835e-005 -2.39773835e-005
      -2.39773835e-005 -2.39773835e-005 -2.39773835e-005
      -2.39773835e-005 -2.39773835e-005 -2.39773835e-005
      -2.39773835e-005 -2.39773835e-005 -2.39773835e-005
      -2.39773835e-005 -2.39773835e-005 -2.39773835e-005
      -2.39773835e-005 -2.39773835e-005 -2.39773835e-005
      -2.39773835e-005 -2.39773835e-005 -2.39773835e-005
      -2.39773835e-005 -2.39773835e-005 -2.39773835e-005
      -2.39773835e-005 -2.39773835e-005 -2.39773835e-005
      -2.39773835e-005 -2.39773835e-005 -2.39773835e-005
      -2.39773835e-005 -2.39773835e-005 -2.39773835e-005
      -3.07468727e-005 -2.97775423e-005 -1.89357525e-005
      -2.06481150e-006 1.18260232e-007 -6.30796285e-006 -4.06855588e-006
      -8.31952912e-006 -3.17423905e-006 -3.17423905e-006
      -3.17423905e-006 -3.17423905e-006 -3.17423905e-006
      -3.17423905e-006 -3.17423905e-006 -3.17423905e-006
      -3.17423905e-006 -3.17423905e-006 -3.17423905e-006
      -3.17423905e-006 -3.17423905e-006 -3.17423905e-006
      -3.17423905e-006 -3.17423905e-006 -3.17423905e-006
      -3.17423905e-006 -3.17423905e-006 -3.17423905e-006
      -3.17423905e-006 -3.17423905e-006 -3.17423905e-006
      -3.17423905e-006 -3.17423905e-006 -4.30867976e-006
      -2.60701859e-006 -2.03979835e-006 -3.17423905e-006
      -3.17423905e-006 -2.60701859e-006 -4.30867976e-006
      -3.17423905e-006 -3.17423905e-006 -2.60701859e-006
      -3.74145930e-006 -3.74145930e-006 -2.60701859e-006
      -3.17423905e-006 -3.17423905e-006 -3.74145930e-006
      -3.74145930e-006 -2.03979835e-006 -4.30867976e-006
      -2.60701859e-006 -3.74145930e-006 -3.74145930e-006
      -2.03979835e-006 1.46801278e-006 -1.14753821e-005 -3.75286368e-006
      -3.05933509e-006 -9.72394810e-006 1.96962242e-006 -1.43429546e-007
      -6.87150805e-006 -3.70141743e-006 -3.70141743e-006
      -3.70141743e-006 -3.70141743e-006 -3.70141743e-006
      -3.70141743e-006 -3.70141743e-006 -3.70141743e-006
      -3.70141743e-006 -3.70141743e-006 -3.70141743e-006
      -3.70141743e-006 -3.70141743e-006 -3.70141743e-006
      -3.70141743e-006 -3.70141743e-006 -3.70141743e-006
      -3.70141743e-006 -3.70141743e-006 -3.70141743e-006
      -3.70141743e-006 -3.70141743e-006 -3.70141743e-006
      -3.70141743e-006 -3.70141743e-006 -3.13419696e-006
      -4.26863789e-006 -3.70141743e-006 -3.70141743e-006
      -3.13419696e-006 -4.83585791e-006 -3.70141743e-006
      -3.13419696e-006 -3.13419696e-006 -4.26863789e-006
      -4.26863789e-006 -4.26863789e-006 -3.70141743e-006
      -3.70141743e-006 -3.13419696e-006 -4.55213967e-006
      -4.29622514e-006 -3.67271468e-006 -2.97604970e-006
      -5.47837863e-006 -4.10493521e-006 3.89500974e-006 6.32586398e-006
      5.35063464e-006 4.78341417e-006 4.78341417e-006 5.35063464e-006
      5.35063464e-006 4.21619416e-006 4.21619416e-006 4.78341417e-006
      4.78341417e-006 4.78341417e-006 4.78341417e-006 4.78341417e-006
      4.78341417e-006 4.78341417e-006 4.78341417e-006 4.78341417e-006
      4.78341417e-006 4.78341417e-006 4.78341417e-006 4.78341417e-006
      4.78341417e-006 4.78341417e-006 4.78341417e-006 4.78341417e-006
      5.91785511e-006 4.21619416e-006 4.21619416e-006 5.35063464e-006
      3.64897369e-006 5.91785511e-006 4.21619416e-006 4.21619416e-006
      3.64897369e-006 5.35063464e-006 4.78341417e-006 4.78341417e-006
      5.91785511e-006 5.35063464e-006 3.64897369e-006 4.78341417e-006
      3.64897369e-006 5.35063464e-006 4.78341417e-006 4.78341417e-006
      5.91785511e-006 5.35063464e-006 3.64897369e-006 4.78341417e-006
      3.32240734e-006 6.15494216e-008 5.57065032e-005 4.91098253e-005
      5.59299006e-005 5.42013331e-005 4.77272442e-005 5.35016407e-005
      5.09021374e-005 5.09021374e-005 5.09021374e-005 5.09021374e-005
      5.09021374e-005 5.09021374e-005 5.09021374e-005 5.09021374e-005
      5.09021374e-005 5.09021374e-005 5.09021374e-005 5.09021374e-005
      5.09021374e-005 5.09021374e-005 5.09021374e-005 5.09021374e-005
      5.09021374e-005 5.09021374e-005 5.09021374e-005 5.09021374e-005
      5.09021374e-005 5.09021374e-005 5.09021374e-005 5.09021374e-005
      5.09021374e-005 4.97676956e-005 5.14693565e-005 5.09021374e-005
      5.09021374e-005 5.03349147e-005 5.14693565e-005 5.09021374e-005
      5.03349147e-005 5.14693565e-005 5.09021374e-005 5.09021374e-005
      5.09021374e-005 5.09021374e-005 5.14693565e-005 5.03349147e-005
      4.16947478e-005 5.75956874e-005 5.10002792e-005 4.27399063e-005
      5.82832472e-005 8.20876012e-005 8.84578185e-005 8.30163335e-005
      8.36812324e-005 8.36812324e-005 8.36812324e-005 8.36812324e-005
      8.36812324e-005 8.36812324e-005 8.36812324e-005 8.36812324e-005
      8.36812324e-005 8.36812324e-005 8.36812324e-005 8.36812324e-005
      8.36812324e-005 8.36812324e-005 8.36812324e-005 8.36812324e-005
      8.36812324e-005 8.36812324e-005 8.36812324e-005 8.36812324e-005
      8.36812324e-005 8.36812324e-005 8.36812324e-005 8.36812324e-005
      8.31140133e-005 8.36812324e-005 8.31140133e-005 8.36812324e-005
      8.36812324e-005 8.36812324e-005 8.36812324e-005 8.31140133e-005
      8.31140133e-005 8.48156706e-005 8.25467941e-005 8.48156706e-005
      8.31140133e-005 8.42484515e-005 8.19795750e-005 8.42484515e-005
      8.52790909e-005 7.16566428e-005 9.09732626e-005 8.74858815e-005
      8.45761679e-005 9.06242130e-005 6.79328950e-005 1.43352416e-004
      1.44230871e-004 1.44230871e-004 1.44230871e-004 1.44230871e-004
      1.44230871e-004 1.44230871e-004 1.44230871e-004 1.44230871e-004
      1.44230871e-004 1.44230871e-004 1.44230871e-004 1.44230871e-004
      1.44230871e-004 1.44230871e-004 1.44230871e-004 1.44230871e-004
      1.44230871e-004 1.44230871e-004 1.44230871e-004 1.44230871e-004
      1.44230871e-004 1.44230871e-004 1.44230871e-004 1.44230871e-004
      1.44230871e-004 1.44230871e-004 1.44230871e-004 1.44230871e-004
      1.44230871e-004 1.44230871e-004 1.44230871e-004 1.44230871e-004
      1.44230871e-004 1.44230871e-004 1.44230871e-004 1.44230871e-004
      1.44230871e-004 1.44230871e-004 1.44230871e-004 1.44230871e-004
      1.44230871e-004 1.44230871e-004 1.44230871e-004 1.44230871e-004
      1.44230871e-004 1.44230871e-004 1.44230871e-004 1.44230871e-004
      -2.03508625e-005 -2.03508625e-005 -2.03508625e-005
      -2.03508625e-005 -2.03508625e-005 -2.03508625e-005
      -2.03508625e-005 -2.03508625e-005 -2.03508625e-005
      -2.03508625e-005 -2.03508625e-005 -2.03508625e-005
      -2.03508625e-005 -2.03508625e-005 -2.03508625e-005
      -2.03508625e-005 -2.03508625e-005 -2.03508625e-005
      -2.03508625e-005 -2.03508625e-005 -2.03508625e-005
      -2.03508625e-005 -2.03508625e-005 -2.03508625e-005
      -2.03508625e-005 -2.03508625e-005 -2.03508625e-005
      -2.03508625e-005 -2.03508625e-005 -2.03508625e-005
      -2.03508625e-005 -2.03508625e-005 -2.03508625e-005
      -2.03508625e-005 -2.03508625e-005 -2.03508625e-005
      -2.03508625e-005 -2.03508625e-005 -2.03508625e-005
      -2.03508625e-005 -2.03508625e-005 -2.03508625e-005
      -2.03508625e-005 -2.03508625e-005 -2.03508625e-005
      -2.03508625e-005 -2.03508625e-005 -2.03508625e-005
      -3.70141743e-006 -3.70141743e-006 -3.70141743e-006
      -3.70141743e-006 -3.70141743e-006 -3.70141743e-006
      -3.70141743e-006 -3.70141743e-006 -3.70141743e-006
      -3.70141743e-006 -3.70141743e-006 -3.70141743e-006
      -3.70141743e-006 -3.70141743e-006 -3.70141743e-006
      -3.70141743e-006 -3.70141743e-006 -3.70141743e-006
      -3.70141743e-006 -3.70141743e-006 -3.70141743e-006
      -3.70141743e-006 -3.70141743e-006 -3.70141743e-006
      -3.70141743e-006 -3.70141743e-006 -3.70141743e-006
      -3.70141743e-006 -3.70141743e-006 -3.70141743e-006
      -3.70141743e-006 -3.70141743e-006 -3.70141743e-006
      -3.70141743e-006 -3.70141743e-006 -3.70141743e-006
      -3.70141743e-006 -3.70141743e-006 -3.70141743e-006
      -3.70141743e-006 -4.31281296e-006 -2.29336342e-006
      -3.47733044e-006 -1.89974162e-006 -2.70175155e-006
      -8.21918638e-006 -2.22919448e-006 -2.50172207e-006
      -3.70141743e-006 -3.70141743e-006 -3.70141743e-006
      -3.70141743e-006 -3.70141743e-006 -3.70141743e-006
      -3.70141743e-006 -3.70141743e-006 -3.70141743e-006
      -3.70141743e-006 -3.70141743e-006 -3.70141743e-006
      -3.70141743e-006 -3.70141743e-006 -3.70141743e-006
      -3.70141743e-006 -3.70141743e-006 -3.70141743e-006
      -3.70141743e-006 -3.70141743e-006 -3.70141743e-006
      -3.70141743e-006 -3.70141743e-006 -3.70141743e-006
      -3.70141743e-006 -4.83585791e-006 -3.13419696e-006
      -3.70141743e-006 -3.70141743e-006 -4.26863789e-006
      -3.13419696e-006 -3.70141743e-006 -4.26863789e-006
      -3.13419696e-006 -3.70141743e-006 -3.70141743e-006
      -3.70141743e-006 -3.70141743e-006 -3.13419696e-006
      -4.26863789e-006 -1.29360126e-006 -5.37658207e-006
      -3.00815395e-006 -4.84779775e-006 3.93503342e-007 -6.35614060e-006
      -2.03715490e-006 -5.01246541e-006 -3.70141743e-006
      -3.70141743e-006 -3.70141743e-006 -3.70141743e-006
      -3.70141743e-006 -3.70141743e-006 -3.70141743e-006
      -3.70141743e-006 -3.70141743e-006 -3.70141743e-006
      -3.70141743e-006 -3.70141743e-006 -3.70141743e-006
      -3.70141743e-006 -3.70141743e-006 -3.70141743e-006
      -2.56697672e-006 -4.26863789e-006 -4.26863789e-006
      -3.13419696e-006 -4.83585791e-006 -2.56697672e-006
      -4.26863789e-006 -4.26863789e-006 -4.83585791e-006
      -3.13419696e-006 -3.70141743e-006 -3.70141743e-006
      -2.56697672e-006 -3.13419696e-006 -4.83585791e-006
      -3.70141743e-006 -4.83585791e-006 -3.13419696e-006
      -3.70141743e-006 -3.70141743e-006 -2.56697672e-006
      -3.13419696e-006 -4.83585791e-006 -3.70141743e-006
      -1.85761508e-006 -5.42604221e-006 7.03039314e-006 5.81859149e-006
      1.33105516e-006 4.28241765e-006 3.84191389e-006 3.93923119e-006
      4.78341417e-006 4.78341417e-006 4.78341417e-006 4.78341417e-006
      4.78341417e-006 4.78341417e-006 4.78341417e-006 4.78341417e-006
      4.78341417e-006 4.78341417e-006 4.78341417e-006 4.78341417e-006
      4.78341417e-006 4.78341417e-006 4.78341417e-006 4.78341417e-006
      4.78341417e-006 4.78341417e-006 4.78341417e-006 4.78341417e-006
      4.78341417e-006 4.78341417e-006 4.78341417e-006 4.78341417e-006
      4.78341417e-006 4.78341417e-006 4.78341417e-006 4.78341417e-006
      4.78341417e-006 4.78341417e-006 4.78341417e-006 4.78341417e-006
      4.05897981e-006 4.51482583e-006 3.27262069e-006 1.45674005e-006
      1.44707303e-006 2.26982820e-006 -1.13404667e-005 -7.86602959e-006
      -1.34455731e-005 -1.34455731e-005 -1.34455731e-005
      -1.34455731e-005 -1.34455731e-005 -1.34455731e-005
      -1.34455731e-005 -1.34455731e-005 -1.34455731e-005
      -1.34455731e-005 -1.34455731e-005 -1.34455731e-005
      -1.34455731e-005 -1.34455731e-005 -1.34455731e-005
      -1.34455731e-005 -1.34455731e-005 -1.34455731e-005
      -1.34455731e-005 -1.34455731e-005 -1.34455731e-005
      -1.34455731e-005 -1.34455731e-005 -1.34455731e-005
      -1.34455731e-005 -1.34455731e-005 -1.34455731e-005
      -1.34455731e-005 -1.34455731e-005 -1.34455731e-005
      -1.34455731e-005 -1.34455731e-005 -1.34455731e-005
      -1.34455731e-005 -1.34455731e-005 -1.34455731e-005
      -1.34455731e-005 -1.34455731e-005 -1.34455731e-005
      -1.34455731e-005 -1.86082125e-005 1.05150306e-004 1.04370716e-004
      1.00949226e-004 1.04879327e-004 1.08040593e-004 1.05947671e-004
      1.08851964e-004 1.06215259e-004 1.06215259e-004 1.06215259e-004
      1.06215259e-004 1.06215259e-004 1.06215259e-004 1.06215259e-004
      1.06215259e-004 1.06215259e-004 1.06215259e-004 1.06215259e-004
      1.06215259e-004 1.06215259e-004 1.06215259e-004 1.06215259e-004
      1.06215259e-004 1.06215259e-004 1.06782485e-004 1.06782485e-004
      1.05648040e-004 1.06215259e-004 1.06215259e-004 1.05648040e-004
      1.06782485e-004 1.06782485e-004 1.04513601e-004 1.06782485e-004
      1.05648040e-004 1.07349704e-004 1.05080821e-004 1.07349704e-004
      1.05648040e-004 1.03973893e-004 9.88093088e-005 1.14680879e-004
      -9.61815113e-006 -2.00654376e-005 -1.44307169e-005
      -1.38616915e-005 -1.90335122e-005 -1.81032374e-005
      -1.81032374e-005 -1.81032374e-005 -1.81032374e-005
      -1.81032374e-005 -1.81032374e-005 -1.81032374e-005
      -1.81032374e-005 -1.81032374e-005 -1.81032374e-005
      -1.81032374e-005 -1.81032374e-005 -1.81032374e-005
      -1.81032374e-005 -1.81032374e-005 -1.81032374e-005
      -1.81032374e-005 -1.81032374e-005 -1.81032374e-005
      -1.81032374e-005 -1.81032374e-005 -1.81032374e-005
      -1.81032374e-005 -1.81032374e-005 -1.81032374e-005
      -1.81032374e-005 -1.81032374e-005 -1.81032374e-005
      -1.81032374e-005 -1.81032374e-005 -1.81032374e-005
      -1.81032374e-005 -2.04957250e-005 -1.71097327e-005
      -1.70980165e-005 -1.94798486e-005 -5.35046784e-005
      -5.92616016e-005 -5.77661376e-005 -5.66287381e-005
      -5.74862861e-005 -5.74862861e-005 -5.74862861e-005
      -5.74862861e-005 -5.74862861e-005 -5.74862861e-005
      -5.74862861e-005 -5.74862861e-005 -5.74862861e-005
      -5.74862861e-005 -5.74862861e-005 -5.74862861e-005
      -5.74862861e-005 -5.74862861e-005 -5.74862861e-005
      -5.74862861e-005 -5.74862861e-005 -5.74862861e-005
      -5.74862861e-005 -5.74862861e-005 -5.74862861e-005
      -5.74862861e-005 -5.74862861e-005 -5.74862861e-005
      -5.74862861e-005 -5.74862861e-005 -5.74862861e-005
      -5.74862861e-005 -5.74862861e-005 -5.74862861e-005
      -5.74862861e-005 -5.74862861e-005 -5.49830766e-005
      -6.38882120e-005 -5.97009930e-005 -6.02653126e-005
      -1.93362575e-006 -3.07133359e-006 -1.71222189e-006
      -1.02019694e-005 -3.70141743e-006 -3.70141743e-006
      -3.70141743e-006 -3.70141743e-006 -3.70141743e-006
      -3.70141743e-006 -3.70141743e-006 -3.70141743e-006
      -3.70141743e-006 -3.70141743e-006 -3.70141743e-006
      -3.70141743e-006 -3.70141743e-006 -3.70141743e-006
      -3.70141743e-006 -3.70141743e-006 -3.70141743e-006
      -3.70141743e-006 -3.70141743e-006 -3.70141743e-006
      -3.70141743e-006 -3.70141743e-006 -3.70141743e-006
      -3.70141743e-006 -3.70141743e-006 -3.70141743e-006
      -3.70141743e-006 -3.70141743e-006 -3.70141743e-006
      -3.70141743e-006 -3.70141743e-006 -3.70141743e-006
      -4.29398233e-006 -4.58175555e-006 -3.57530212e-006
      -3.08379845e-006 -3.70141743e-006 -1.39990868e-006
      -6.94055598e-006 -8.17832301e-007 -3.70141743e-006
      -3.70141743e-006 -3.70141743e-006 -3.70141743e-006
      -3.70141743e-006 -3.70141743e-006 -3.70141743e-006
      -3.70141743e-006 -3.70141743e-006 -4.83585791e-006
      -3.13419696e-006 -2.56697672e-006 -3.70141743e-006
      -3.70141743e-006 -3.13419696e-006 -4.83585791e-006
      -3.70141743e-006 -3.70141743e-006 -3.13419696e-006
      -4.26863789e-006 -4.26863789e-006 -3.13419696e-006
      -3.70141743e-006 -3.70141743e-006 -4.26863789e-006
      -4.26863789e-006 -2.56697672e-006 -4.83585791e-006
      -3.13419696e-006 -4.26863789e-006 -4.26863789e-006
      -2.56697672e-006 -1.15232740e-006 -7.42808152e-006
      -6.25962275e-006 -3.57728095e-006 -3.82725329e-006
      -1.95959117e-007 -4.62788921e-006 -1.98151702e-006
      -3.70141743e-006 -3.70141743e-006 -3.70141743e-006
      -3.70141743e-006 -3.70141743e-006 -3.70141743e-006
      -3.70141743e-006 -3.70141743e-006 -3.70141743e-006
      -3.13419696e-006 -4.26863789e-006 -3.70141743e-006
      -3.70141743e-006 -3.13419696e-006 -4.83585791e-006
      -3.70141743e-006 -3.13419696e-006 -3.13419696e-006
      -4.26863789e-006 -4.26863789e-006 -4.26863789e-006
      -3.70141743e-006 -3.70141743e-006 -3.13419696e-006
      -3.26420172e-006 -7.24421216e-006 -1.63309198e-006
      -4.39548467e-006 -2.95823997e-006 -5.28679811e-006
      -2.07128733e-006 -7.01420186e-006 -3.70141743e-006
      -3.70141743e-006 -3.70141743e-006 -3.70141743e-006
      -3.70141743e-006 -3.70141743e-006 -3.70141743e-006
      -3.70141743e-006 -3.70141743e-006 -3.70141743e-006
      -3.70141743e-006 -3.70141743e-006 -3.70141743e-006
      -3.70141743e-006 -3.70141743e-006 -3.70141743e-006
      -3.70141743e-006 -3.70141743e-006 -3.70141743e-006
      -3.70141743e-006 -3.70141743e-006 -3.70141743e-006
      -3.70141743e-006 -3.70141743e-006 -3.70141743e-006
      -3.70141743e-006 -3.70141743e-006 -3.70141743e-006
      -3.70141743e-006 -3.70141743e-006 -3.70141743e-006
      -3.70141743e-006 -8.73444696e-006 3.89383604e-006 3.33775570e-005
      3.58903235e-005 3.60080921e-005 3.53174655e-005 2.85506358e-005
      3.64637744e-005 3.42270141e-005 3.42270141e-005 3.42270141e-005
      3.42270141e-005 3.42270141e-005 3.42270141e-005 3.42270141e-005
      3.42270141e-005 3.42270141e-005 3.30925759e-005 3.47942369e-005
      3.42270141e-005 3.42270141e-005 3.36597950e-005 3.47942369e-005
      3.42270141e-005 3.36597950e-005 3.47942369e-005 3.42270141e-005
      3.42270141e-005 3.42270141e-005 3.42270141e-005 3.47942369e-005
      3.36597950e-005 3.59311234e-005 2.82678357e-005 3.79013254e-005
      3.31885276e-005 3.80872916e-005 5.06651450e-005 3.79988633e-005
      4.04429884e-005 4.27118466e-005 4.27118466e-005 4.27118466e-005
      4.27118466e-005 4.27118466e-005 4.27118466e-005 4.27118466e-005
      4.27118466e-005 4.21446275e-005 4.27118466e-005 4.21446275e-005
      4.27118466e-005 4.27118466e-005 4.27118466e-005 4.27118466e-005
      4.21446275e-005 4.21446275e-005 4.38462885e-005 4.15774048e-005
      4.38462885e-005 4.21446275e-005 4.32790657e-005 4.10101857e-005
      4.32790657e-005 4.28898493e-005 4.03922095e-005 4.68029320e-005
      4.40850963e-005 3.61367092e-005 4.30987602e-005 3.75766940e-005
      8.50846336e-005 8.32208170e-005 8.32208170e-005 8.32208170e-005
      8.32208170e-005 8.32208170e-005 8.32208170e-005 8.32208170e-005
      8.32208170e-005 8.32208170e-005 8.32208170e-005 8.32208170e-005
      8.32208170e-005 8.32208170e-005 8.32208170e-005 8.32208170e-005
      8.32208170e-005 8.32208170e-005 8.32208170e-005 8.32208170e-005
      8.32208170e-005 8.32208170e-005 8.32208170e-005 8.32208170e-005
      8.32208170e-005 8.32208170e-005 8.32208170e-005 8.32208170e-005
      8.32208170e-005 8.32208170e-005 8.32208170e-005 8.32208170e-005
      8.32208170e-005 8.32208170e-005 8.32208170e-005 8.32208170e-005
      8.32208170e-005 8.32208170e-005 8.32208170e-005 8.32208170e-005
      8.32208170e-005 8.32208170e-005 8.32208170e-005 8.32208170e-005
      8.32208170e-005 8.32208170e-005 8.32208170e-005 8.32208170e-005
      8.32208170e-005 8.32208170e-005 8.32208170e-005 8.32208170e-005
      8.32208170e-005 8.32208170e-005 8.32208170e-005 8.32208170e-005
      8.32208170e-005 8.32208170e-005 8.32208170e-005 8.32208170e-005
      8.32208170e-005 8.32208170e-005 8.32208170e-005 8.32208170e-005
      8.32208170e-005 -3.70141743e-006 -3.70141743e-006 -3.70141743e-006
      -3.70141743e-006 -3.70141743e-006 -3.70141743e-006
      -3.70141743e-006 -3.70141743e-006 -3.70141743e-006
      -3.70141743e-006 -3.70141743e-006 -3.70141743e-006
      -3.70141743e-006 -3.70141743e-006 -3.70141743e-006
      -3.70141743e-006 -3.70141743e-006 -3.70141743e-006
      -3.70141743e-006 -3.70141743e-006 -3.70141743e-006
      -3.70141743e-006 -3.70141743e-006 -3.70141743e-006
      -4.09476752e-006 -3.37657139e-006 -3.25928522e-006
      -1.51147128e-006 -3.95518464e-006 -7.00655482e-006
      -2.35861808e-006 -3.23746121e-006 -3.70141743e-006
      -3.70141743e-006 -3.70141743e-006 -3.70141743e-006
      -3.70141743e-006 -3.70141743e-006 -3.70141743e-006
      -3.70141743e-006 -3.70141743e-006 -4.83585791e-006
      -3.13419696e-006 -3.70141743e-006 -3.70141743e-006
      -4.26863789e-006 -3.13419696e-006 -3.70141743e-006
      -4.26863789e-006 -3.13419696e-006 -3.70141743e-006
      -3.70141743e-006 -3.70141743e-006 -3.70141743e-006
      -3.13419696e-006 -4.26863789e-006 -2.16186459e-006
      -7.35342473e-006 -2.58837713e-006 -4.87680779e-007
      -1.78787980e-006 4.70754958e-006 5.61169645e-006 1.85562726e-006
      5.91785511e-006 4.21619416e-006 4.21619416e-006 5.35063464e-006
      3.64897369e-006 5.91785511e-006 4.21619416e-006 4.21619416e-006
      3.64897369e-006 5.35063464e-006 4.78341417e-006 4.78341417e-006
      5.91785511e-006 5.35063464e-006 3.64897369e-006 4.78341417e-006
      3.64897369e-006 5.35063464e-006 4.78341417e-006 4.78341417e-006
      5.91785511e-006 5.35063464e-006 3.64897369e-006 4.78341417e-006
      1.12648183e-006 7.92463925e-006 -6.26497695e-006 -4.33665309e-006
      5.73942259e-007 -5.01879958e-006 -1.31892853e-006 -3.54878603e-006
      -4.19833805e-006 -2.14035595e-006 -5.26247868e-006
      -3.20449681e-006 -3.20449681e-006 -4.12803820e-006
      -3.84201667e-006 -4.19833805e-006 -4.79818573e-006
      -2.14035595e-006 -5.26247868e-006 -2.60464913e-006
      -2.60464913e-006 -4.69525867e-006 -3.87464434e-006
      -4.79818573e-006 -2.97171391e-006 -4.43112094e-006
      -2.76713217e-006 -5.13262330e-006 -2.79848723e-006 3.09623638e-009
      -7.67006895e-006 -3.67006237e-006 -2.70757619e-006
      -4.33893729e-006 -4.12803820e-006 -2.07005610e-006
      -4.19833805e-006 -2.70757619e-006 -3.63111758e-006
      -5.33277853e-006 -3.20449681e-006 -4.19833805e-006
      -2.14035595e-006 -3.77171705e-006 -4.76555851e-006
      -3.13419696e-006 -4.19833805e-006 -3.70141743e-006
      -4.26863789e-006 -4.76555851e-006 -2.56697672e-006
      -3.34509627e-006 -4.62495882e-006 -3.27479665e-006
      -5.26247868e-006 -2.07005610e-006 -5.08478388e-006 9.02794363e-006
      1.41199496e-006 9.21790956e-007 1.01984961e-005 3.02348394e-006
      2.28165368e-006 6.42666737e-006 4.78341417e-006 4.78341417e-006
      4.78341417e-006 4.78341417e-006 4.78341417e-006 4.78341417e-006
      4.78341417e-006 4.78341417e-006 4.78341417e-006 4.78341417e-006
      4.78341417e-006 4.78341417e-006 4.78341417e-006 4.78341417e-006
      4.78341417e-006 4.78341417e-006 6.45203727e-006 -1.36281102e-007
      5.13392933e-006 2.31293689e-005 1.77860129e-005 1.48301770e-005
      1.60652689e-005 1.66854061e-005 1.68840106e-005 1.68840106e-005
      1.68840106e-005 1.68840106e-005 1.68840106e-005 1.68840106e-005
      1.68840106e-005 1.68840106e-005 1.68840106e-005 1.68840106e-005
      1.68840106e-005 1.68840106e-005 1.68840106e-005 1.68840106e-005
      1.68840106e-005 1.68840106e-005 1.83501816e-005 1.64707162e-005
      1.67474354e-005 1.96220462e-005 2.10053713e-005 2.33521678e-005
      2.46322379e-005 2.18948098e-005 2.24241739e-005 2.24241739e-005
      2.24241739e-005 2.24241739e-005 2.24241739e-005 2.24241739e-005
      2.24241739e-005 2.24241739e-005 2.24241739e-005 2.24241739e-005
      2.24241739e-005 2.24241739e-005 2.24241739e-005 2.24241739e-005
      2.24241739e-005 2.24241739e-005 2.32344901e-005 2.29905618e-005
      2.18991372e-005 2.47197368e-005 -6.17646992e-006 -2.23665234e-006
      -4.26780616e-006 -4.51173355e-006 -3.70141743e-006
      -3.70141743e-006 -3.70141743e-006 -3.70141743e-006
      -3.70141743e-006 -3.70141743e-006 -3.70141743e-006
      -3.70141743e-006 -3.70141743e-006 -3.70141743e-006
      -3.70141743e-006 -3.70141743e-006 -3.70141743e-006
      -3.70141743e-006 -3.70141743e-006 -3.70141743e-006
      -3.70141743e-006 -2.56697672e-006 -6.19973707e-006
      -6.03250157e-007 -3.70141743e-006 -3.66878999e-006
      -3.53723385e-006 -2.73116029e-006 -3.70141743e-006
      -3.70141743e-006 -3.13419696e-006 -4.26863789e-006
      -4.26863789e-006 -3.13419696e-006 -3.70141743e-006
      -3.70141743e-006 -4.26863789e-006 -4.26863789e-006
      -2.56697672e-006 -4.83585791e-006 -3.13419696e-006
      -4.26863789e-006 -4.26863789e-006 -2.56697672e-006
      -2.18452647e-006 6.22913603e-006 1.99747979e-006 1.44029150e-006
      3.24543817e-006 6.92660797e-006 5.61873776e-006 6.48020705e-006
      5.35063464e-006 5.35063464e-006 4.21619416e-006 4.21619416e-006
      4.21619416e-006 4.78341417e-006 4.78341417e-006 5.35063464e-006
      8.00969610e-006 3.50789492e-007 6.10131337e-006 6.58837416e-006
      3.39311714e-006 5.20879621e-006 6.21673325e-006 2.17017009e-006
      4.78341417e-006 4.78341417e-006 3.61634625e-006 3.61634625e-006
      3.61634625e-006 4.78341417e-006 5.95048232e-006 5.95048232e-006
      5.95048232e-006 5.95048232e-006 4.78341417e-006 4.78341417e-006
      4.78341417e-006 4.78341417e-006 4.78341417e-006 4.78341417e-006
      5.27329848e-006 -5.14345356e-006 -2.49853315e-006 -1.93130109e-005
      -1.99267088e-005 -1.47298906e-005 -2.82541314e-005
      -1.22580459e-005 -1.80540464e-005 -1.57525374e-005
      -1.51526892e-005 -1.51526892e-005 -1.63197583e-005
      -1.74868255e-005 -1.57525374e-005 -1.68869774e-005
      -1.03025841e-005 -2.41483012e-005 -1.62316501e-005
      -1.62820179e-005 -2.07178400e-005 3.41882842e-005 4.31610169e-005
      5.71717574e-005 5.34055907e-005 5.24532225e-005 5.07063305e-005
      5.02061412e-005 4.34094000e-005 4.04925013e-005 4.36966802e-005
      5.05210955e-005 5.73741927e-005 6.06284084e-005 5.45967450e-005
      5.83342517e-005 4.54100518e-005 4.10478824e-005 4.98855443e-005
      1.22059864e-004 9.48148663e-005 9.38131998e-005 8.93042161e-005
      9.53474519e-005 8.90563679e-005 1.57765244e-004 1.90437684e-004
      1.26941857e-004 8.83761822e-005 8.95760895e-005 9.03286927e-005
      9.27783185e-005 1.55231202e-004 1.57371658e-004 1.58063194e-004
      1.24601589e-004 8.82609602e-005 8.82609602e-005 8.82609602e-005
      8.82609602e-005 8.82609602e-005 8.82609602e-005 8.82609602e-005
      8.82609602e-005 8.82609602e-005 8.82609602e-005 8.82609602e-005
      8.82609602e-005 8.82609602e-005 8.82609602e-005 8.82609602e-005
      8.82609602e-005 -3.85823878e-005 -3.85823878e-005 -3.85823878e-005
      -3.85823878e-005 -3.85823878e-005 -3.85823878e-005
      -3.85823878e-005 -3.85823878e-005 -4.91828432e-005
      -2.70993569e-005 -4.87324178e-005 -4.17281844e-005
      -4.25728504e-005 -4.02727383e-005 -3.62161773e-005
      -1.99000879e-005 -1.41029159e-005 -1.29684759e-005
      -1.35356959e-005 -1.35356959e-005 -1.35356959e-005
      -1.35356959e-005 -1.29684759e-005 -1.41029159e-005
      -1.14308450e-005 -9.20844832e-006 -1.42656318e-005
      -2.26717111e-005 -1.11003319e-005 -2.64685077e-005
      -1.73863882e-005 -1.66977716e-005 -1.91473191e-005
      -1.74456582e-005 -1.80128791e-005 -1.80128791e-005
      -1.68784391e-005 -1.74456582e-005 -1.91473191e-005
      -1.80128791e-005 -2.05168635e-005 -1.63163531e-005
      -4.84635393e-006 -1.47899368e-006 -2.63302195e-006 1.15825674e-006
      -6.21267964e-006 -1.85214162e-006 -4.95712902e-006 3.09445045e-006
      -3.57980866e-006 -8.15799012e-006 3.95481038e-006 -8.96944948e-006
      1.17882209e-005 1.58576695e-005 1.12101879e-005 -1.17234083e-006
      -1.58604777e-007 -1.45139506e-006 -8.31643376e-007
      -4.31521812e-007 -2.54816041e-006 9.76228876e-007 2.82948531e-006
      -2.09030641e-005 -2.28837071e-005 -7.91127604e-006
      -2.20799429e-005 -1.92347634e-005 -1.37426459e-005
      -1.44112873e-005 -1.76963786e-005 -1.16947103e-005
      -1.99173010e-005 8.66364426e-005 8.39772110e-005 8.96383935e-005
      9.68658787e-005 9.57833836e-005 9.35135904e-005 8.46638723e-005
      9.08225702e-005 9.23197003e-005 7.50242762e-005 7.67069214e-005
      8.33864178e-005 7.59458489e-005 6.83886028e-005 8.47476476e-005
      7.20869866e-005 8.33104350e-005 -2.62606918e-005 -1.85042336e-005
      -3.08149793e-005 -1.54139161e-005 -2.50665435e-005
      -2.05606320e-005 -2.86343147e-005 -1.12552589e-005
      -1.06755542e-005 -1.59486481e-005 -2.65656072e-005
      -6.99022303e-006 -1.32565428e-005 2.77036037e-007 -1.26352279e-006
      -1.70944895e-005 -4.45782825e-006 4.86630688e-006 -2.15068412e-005
      -5.32370223e-006 -1.62692540e-005 -9.40511200e-006
      -1.72416258e-004 -1.67183578e-004 -1.61906733e-004
      -4.37881354e-005 -4.87925790e-005 2.60853878e-004 3.12243465e-005
      3.12243465e-005 3.12243465e-005 3.12243465e-005 3.12243465e-005
      3.12243465e-005 3.12243465e-005 3.12243465e-005 3.12243465e-005
      3.12243465e-005 3.12243465e-005 3.12243465e-005 3.12243465e-005
      3.12243465e-005 3.12243465e-005 3.12243465e-005 3.12243465e-005
      3.12243465e-005 3.12243465e-005 3.12243465e-005 3.12243465e-005
      3.12243465e-005 3.12243465e-005 3.12243465e-005 3.12243465e-005
      3.12243465e-005 3.12243465e-005 3.12243465e-005 3.12243465e-005
      3.12243465e-005 3.12243465e-005 3.12243465e-005 3.12243465e-005
      3.12243465e-005 3.12243465e-005 3.12243465e-005 3.12243465e-005
      3.12243465e-005 3.12243465e-005 3.12243465e-005 3.12243465e-005
      3.12243465e-005 3.12243465e-005 3.12243465e-005 3.12243465e-005
      3.12243465e-005 3.12243465e-005 3.12243465e-005 3.12243465e-005
      3.12243465e-005 3.12243465e-005 3.12243465e-005 3.12243465e-005
      3.12243465e-005 3.12243465e-005 3.12243465e-005 3.00234078e-005
      3.59539663e-005 3.00464671e-005 3.26574263e-005 3.30525036e-005
      2.46197178e-005 3.86722713e-005 -3.09018719e-006 3.76594699e-006
      3.76594699e-006 3.76594699e-006 3.76594699e-006 3.76594699e-006
      3.76594699e-006 3.76594699e-006 3.76594699e-006 3.76594699e-006
      3.76594699e-006 3.76594699e-006 3.76594699e-006 3.76594699e-006
      3.76594699e-006 3.76594699e-006 3.76594699e-006 3.76594699e-006
      3.76594699e-006 3.76594699e-006 3.76594699e-006 3.76594699e-006
      3.76594699e-006 3.76594699e-006 3.76594699e-006 3.76594699e-006
      3.76594699e-006 3.76594699e-006 3.76594699e-006 3.76594699e-006
      3.76594699e-006 3.76594699e-006 3.76594699e-006 3.76594699e-006
      3.76594699e-006 3.76594699e-006 3.76594699e-006 3.76594699e-006
      3.76594699e-006 3.76594699e-006 3.76594699e-006 3.76594699e-006
      3.76594699e-006 3.76594699e-006 3.76594699e-006 3.76594699e-006
      3.76594699e-006 3.76594699e-006 3.76594699e-006 3.76594699e-006
      3.76594699e-006 3.76594699e-006 3.76594699e-006 3.76594699e-006
      3.76594699e-006 3.76594699e-006 3.76594699e-006 1.46988054e-006
      -5.65771916e-006 1.18218622e-005 -1.49577522e-006 1.57388858e-005
      1.80253323e-006 7.04901231e-006 4.83152098e-006 2.64503319e-006
      2.64503319e-006 2.64503319e-006 2.64503319e-006 2.64503319e-006
      2.64503319e-006 2.64503319e-006 2.64503319e-006 2.64503319e-006
      2.64503319e-006 2.64503319e-006 2.64503319e-006 2.64503319e-006
      2.64503319e-006 2.64503319e-006 2.64503319e-006 2.64503319e-006
      2.64503319e-006 2.64503319e-006 2.64503319e-006 2.64503319e-006
      2.64503319e-006 2.64503319e-006 2.64503319e-006 2.64503319e-006
      2.64503319e-006 2.64503319e-006 2.64503319e-006 2.64503319e-006
      2.64503319e-006 2.64503319e-006 2.64503319e-006 2.64503319e-006
      2.64503319e-006 2.64503319e-006 2.64503319e-006 2.64503319e-006
      2.64503319e-006 2.64503319e-006 2.64503319e-006 2.64503319e-006
      2.64503319e-006 2.64503319e-006 2.64503319e-006 2.64503319e-006
      2.64503319e-006 2.64503319e-006 2.64503319e-006 2.64503319e-006
      2.64503319e-006 2.64503319e-006 2.64503319e-006 2.64503319e-006
      2.64503319e-006 2.64503319e-006 2.64503319e-006 5.13749592e-006
      5.79416974e-006 -2.53163489e-005 -3.28850547e-005 -1.81347168e-005
      -2.59421631e-005 -2.57465344e-005 -2.47566277e-005
      -2.68154727e-005 -2.68154727e-005 -2.68154727e-005
      -2.68154727e-005 -2.68154727e-005 -2.68154727e-005
      -2.68154727e-005 -2.68154727e-005 -2.68154727e-005
      -2.68154727e-005 -2.68154727e-005 -2.68154727e-005
      -2.68154727e-005 -2.68154727e-005 -2.68154727e-005
      -2.68154727e-005 -2.68154727e-005 -2.68154727e-005
      -2.68154727e-005 -2.68154727e-005 -2.68154727e-005
      -2.68154727e-005 -2.68154727e-005 -2.68154727e-005
      -2.68154727e-005 -2.68154727e-005 -2.68154727e-005
      -2.68154727e-005 -2.68154727e-005 -2.68154727e-005
      -2.68154727e-005 -2.68154727e-005 -2.68154727e-005
      -2.68154727e-005 -2.68154727e-005 -2.68154727e-005
      -2.68154727e-005 -2.68154727e-005 -2.68154727e-005
      -2.68154727e-005 -2.68154727e-005 -2.68154727e-005
      -2.68154727e-005 -2.68154727e-005 -2.68154727e-005
      -2.68154727e-005 -2.68154727e-005 -2.68154727e-005
      -2.54143251e-005 -2.66284933e-005 -2.17082361e-005
      -2.77045747e-005 -2.08076599e-005 -3.15453690e-005
      -6.98591430e-006 -1.36846675e-005 -1.05396175e-005
      -1.05396175e-005 -1.05396175e-005 -1.05396175e-005
      -1.05396175e-005 -1.05396175e-005 -1.05396175e-005
      -1.05396175e-005 -1.05396175e-005 -1.05396175e-005
      -1.05396175e-005 -1.05396175e-005 -1.05396175e-005
      -1.05396175e-005 -1.05396175e-005 -1.05396175e-005
      -1.05396175e-005 -1.05396175e-005 -1.05396175e-005
      -1.05396175e-005 -1.05396175e-005 -1.05396175e-005
      -1.05396175e-005 -1.05396175e-005 -1.05396175e-005
      -1.05396175e-005 -1.05396175e-005 -1.05396175e-005
      -1.05396175e-005 -1.05396175e-005 -1.05396175e-005
      -1.05396175e-005 -1.05396175e-005 -1.05396175e-005
      -1.05396175e-005 -1.05396175e-005 -1.05396175e-005
      -1.05396175e-005 -1.05396175e-005 -1.05396175e-005
      -1.05396175e-005 -1.05396175e-005 -1.05396175e-005
      -1.05396175e-005 -1.05396175e-005 -1.05396175e-005
      -1.05396175e-005 -1.05396175e-005 -1.05396175e-005
      -1.05396175e-005 -1.05396175e-005 -1.05396175e-005
      -1.05396175e-005 -1.05396175e-005 -1.05396175e-005
      -1.05396175e-005 -1.43799898e-005 6.00848980e-005 4.88161895e-005
      5.06649885e-005 4.90502753e-005 4.70746782e-005 6.66816268e-005
      5.51074227e-005 5.28250675e-005 5.28250675e-005 5.28250675e-005
      5.28250675e-005 5.28250675e-005 5.28250675e-005 5.28250675e-005
      5.28250675e-005 5.28250675e-005 5.28250675e-005 5.28250675e-005
      5.28250675e-005 5.28250675e-005 5.28250675e-005 5.29942990e-005
      5.29942990e-005 5.28250675e-005 5.28250675e-005 5.28250675e-005
      5.28250675e-005 5.28250675e-005 5.28250675e-005 5.28250675e-005
      5.28250675e-005 5.28250675e-005 5.28250675e-005 5.28250675e-005
      5.28250675e-005 5.28250675e-005 5.28250675e-005 5.28250675e-005
      5.28250675e-005 5.28250675e-005 5.28250675e-005 5.28250675e-005
      5.28250675e-005 5.28250675e-005 5.28250675e-005 5.26558360e-005
      5.26558360e-005 5.28250675e-005 5.28250675e-005 5.28250675e-005
      5.28250675e-005 5.28250675e-005 5.28250675e-005 5.28250675e-005
      5.28250675e-005 4.61347845e-005 5.34565188e-005 5.56079503e-005
      2.77095351e-005 3.19130777e-005 2.84268299e-005 1.82772765e-005
      2.51580223e-005 2.44327784e-005 2.44327784e-005 2.44327784e-005
      2.44327784e-005 2.44327784e-005 2.44327784e-005 2.44327784e-005
      2.44327784e-005 2.44327784e-005 2.44327784e-005 2.44327784e-005
      2.44327784e-005 2.44327784e-005 2.44327784e-005 2.44327784e-005
      2.44327784e-005 2.44327784e-005 2.44327784e-005 2.44327784e-005
      2.44327784e-005 2.44327784e-005 2.44327784e-005 2.44327784e-005
      2.44327784e-005 2.44327784e-005 2.44327784e-005 2.44327784e-005
      2.44327784e-005 2.44327784e-005 2.44327784e-005 2.44327784e-005
      2.44327784e-005 2.44327784e-005 2.44327784e-005 2.44327784e-005
      2.44327784e-005 2.44327784e-005 2.44327784e-005 2.44327784e-005
      2.44327784e-005 2.44327784e-005 2.44327784e-005 2.44327784e-005
      2.44327784e-005 2.44327784e-005 2.44327784e-005 2.44327784e-005
      2.44327784e-005 2.45738647e-005 3.02315366e-005 2.74714639e-005
      2.05529232e-005 4.00761201e-005 3.37527272e-005 3.03662346e-005
      3.44064210e-005 3.20858380e-005 3.20858380e-005 3.20858380e-005
      3.20858380e-005 3.20858380e-005 3.20858380e-005 3.20858380e-005
      3.20858380e-005 3.20858380e-005 3.20858380e-005 3.20858380e-005
      3.20858380e-005 3.20858380e-005 3.20858380e-005 3.20858380e-005
      3.20858380e-005 3.20858380e-005 3.20858380e-005 3.20858380e-005
      3.20858380e-005 3.20858380e-005 3.20858380e-005 3.20858380e-005
      3.20858380e-005 3.20858380e-005 3.20858380e-005 3.20858380e-005
      3.20858380e-005 3.20858380e-005 3.20858380e-005 3.20858380e-005
      3.20858380e-005 3.20858380e-005 3.20858380e-005 3.20858380e-005
      3.20858380e-005 3.20858380e-005 3.20858380e-005 3.20858380e-005
      3.20858380e-005 3.20858380e-005 3.20858380e-005 3.20858380e-005
      3.20858380e-005 3.20858380e-005 3.20858380e-005 3.20858380e-005
      3.20858380e-005 3.14816607e-005 3.35326586e-005 3.04858822e-005
      3.16597580e-005 -2.53854741e-005 -2.28462086e-005 -3.04739769e-005
      -2.42455244e-005 -2.68154727e-005 -2.68154727e-005
      -2.68154727e-005 -2.68154727e-005 -2.68154727e-005
      -2.68154727e-005 -2.68154727e-005 -2.68154727e-005
      -2.68154727e-005 -2.68154727e-005 -2.68154727e-005
      -2.68154727e-005 -2.68154727e-005 -2.68154727e-005
      -2.68154727e-005 -2.68154727e-005 -2.68154727e-005
      -2.68154727e-005 -2.68154727e-005 -2.68154727e-005
      -2.68154727e-005 -2.68154727e-005 -2.68154727e-005
      -2.68154727e-005 -2.68154727e-005 -2.68154727e-005
      -2.68154727e-005 -2.68154727e-005 -2.68154727e-005
      -2.68154727e-005 -2.68154727e-005 -2.68154727e-005
      -2.68154727e-005 -2.68154727e-005 -2.68154727e-005
      -2.68154727e-005 -2.68154727e-005 -2.68154727e-005
      -2.68154727e-005 -2.68154727e-005 -2.68154727e-005
      -2.68154727e-005 -2.68154727e-005 -2.68154727e-005
      -2.68154727e-005 -2.68154727e-005 -2.68154727e-005
      -2.68154727e-005 -2.50786234e-005 -3.78850164e-005
      -1.66051359e-005 1.70738967e-005 2.34576655e-005 2.65564413e-005
      2.32490875e-005 2.34529234e-005 2.34057461e-005 2.34057461e-005
      2.34057461e-005 2.34057461e-005 2.34057461e-005 2.34057461e-005
      2.34057461e-005 2.34057461e-005 2.34057461e-005 2.34057461e-005
      2.34057461e-005 2.34057461e-005 2.34057461e-005 2.34057461e-005
      2.34057461e-005 2.34057461e-005 2.34057461e-005 2.34057461e-005
      2.34057461e-005 2.34057461e-005 2.34057461e-005 2.34057461e-005
      2.34057461e-005 2.34057461e-005 2.34057461e-005 2.34057461e-005
      2.34057461e-005 2.34057461e-005 2.34057461e-005 2.34057461e-005
      2.34057461e-005 2.34057461e-005 2.34057461e-005 2.34057461e-005
      2.34057461e-005 2.34057461e-005 2.34057461e-005 2.34057461e-005
      2.34057461e-005 2.34057461e-005 2.34057461e-005 2.34057461e-005
      2.34057461e-005 2.34057461e-005 2.34057461e-005 2.34057461e-005
      2.34057461e-005 2.34057461e-005 2.17934848e-005 -1.80532988e-005
      -3.28044043e-005 -2.88792053e-005 -2.57246575e-005
      -2.99570002e-005 -2.35056777e-005 -2.89787567e-005
      -2.68154727e-005 -2.68154727e-005 -2.68154727e-005
      -2.68154727e-005 -2.68154727e-005 -2.68154727e-005
      -2.68154727e-005 -2.68154727e-005 -2.70609326e-005
      -2.66462412e-005 -2.72301641e-005 -2.59860881e-005
      -2.76448554e-005 -2.72301641e-005 -2.64007795e-005
      -2.64007795e-005 -2.68154727e-005 -2.68154727e-005
      -2.68154727e-005 -2.68154727e-005 -2.68154727e-005
      -2.68154727e-005 -2.68154727e-005 -2.68154727e-005
      -2.68154727e-005 -2.64007795e-005 -2.76448554e-005
      -2.68154727e-005 -2.59860881e-005 -2.68154727e-005
      -2.68154727e-005 -2.64007795e-005 -2.68154727e-005
      -2.68154727e-005 -2.68154727e-005 -2.68154727e-005
      -2.68154727e-005 -2.68154727e-005 -2.68154727e-005
      -2.68154727e-005 -2.70295168e-005 -2.90164644e-005
      -3.01604887e-005 -3.29802169e-005 -2.25328004e-005
      -2.20422680e-005 6.36547775e-005 6.19082857e-005 6.15579193e-005
      6.15579193e-005 6.15579193e-005 6.15579193e-005 6.15579193e-005
      6.15579193e-005 6.15579193e-005 6.15579193e-005 6.15579193e-005
      6.15579193e-005 6.15579193e-005 6.15579193e-005 6.15579193e-005
      6.15579193e-005 6.15579193e-005 6.15579193e-005 6.15579193e-005
      6.15579193e-005 6.15579193e-005 6.15579193e-005 6.15579193e-005
      6.15579193e-005 6.15579193e-005 6.15579193e-005 6.15579193e-005
      6.15579193e-005 6.15579193e-005 6.15579193e-005 6.15579193e-005
      6.15579193e-005 6.15579193e-005 6.15579193e-005 6.15579193e-005
      6.15579193e-005 6.15579193e-005 6.15579193e-005 6.15579193e-005
      6.15579193e-005 6.15579193e-005 6.15579193e-005 6.15579193e-005
      6.15579193e-005 6.15579193e-005 6.15579193e-005 6.15579193e-005
      6.15579193e-005 6.15579193e-005 6.15579193e-005 5.33912025e-005
      6.27697882e-005 -2.76291303e-005 -3.42118874e-005 -3.00014326e-005
      -4.10234024e-005 -4.10835382e-005 -3.27356065e-005
      -3.56203564e-005 -3.56203564e-005 -3.56203564e-005
      -3.56203564e-005 -3.56203564e-005 -3.56203564e-005
      -3.56203564e-005 -3.56203564e-005 -3.56203564e-005
      -3.56203564e-005 -3.56203564e-005 -3.56203564e-005
      -3.56203564e-005 -3.56203564e-005 -3.56203564e-005
      -3.56203564e-005 -3.56203564e-005 -3.56203564e-005
      -3.56203564e-005 -3.56203564e-005 -3.56203564e-005
      -3.56203564e-005 -3.56203564e-005 -3.56203564e-005
      -3.56203564e-005 -3.56203564e-005 -3.56203564e-005
      -3.56203564e-005 -3.56203564e-005 -3.56203564e-005
      -3.56203564e-005 -3.56203564e-005 -3.56203564e-005
      -3.56203564e-005 -3.56203564e-005 -3.56203564e-005
      -3.56203564e-005 -3.56203564e-005 -3.56203564e-005
      -3.56203564e-005 -3.64603220e-005 -4.22491976e-005
      -2.51572274e-005 -4.71028361e-005 -3.80312813e-005
      -1.40240090e-005 1.25982478e-006 -2.07816793e-005 -1.61523112e-005
      -1.61523112e-005 -1.61523112e-005 -1.61523112e-005
      -1.61523112e-005 -1.61523112e-005 -1.61523112e-005
      -1.61523112e-005 -1.61523112e-005 -1.61523112e-005
      -1.61523112e-005 -1.61523112e-005 -1.61523112e-005
      -1.61523112e-005 -1.61523112e-005 -1.61523112e-005
      -1.61523112e-005 -1.61523112e-005 -1.61523112e-005
      -1.61523112e-005 -1.61523112e-005 -1.61523112e-005
      -1.61523112e-005 -1.61523112e-005 -1.61523112e-005
      -1.61523112e-005 -1.61523112e-005 -1.61523112e-005
      -1.61523112e-005 -1.61523112e-005 -1.61523112e-005
      -1.61523112e-005 -1.61523112e-005 -1.61523112e-005
      -1.61523112e-005 -1.61523112e-005 -1.61523112e-005
      -1.61523112e-005 -1.61523112e-005 -1.61523112e-005
      -1.46273587e-005 -1.99812930e-005 -1.40521570e-005
      -2.23430070e-005 -1.08693712e-005 -2.54580755e-005
      -8.93890774e-006 7.39414463e-005 6.74465991e-005 6.74465991e-005
      6.74465991e-005 6.74465991e-005 6.74465991e-005 6.74465991e-005
      6.74465991e-005 6.74465991e-005 6.74465991e-005 6.74465991e-005
      6.74465991e-005 6.74465991e-005 6.74465991e-005 6.74465991e-005
      6.74465991e-005 6.74465991e-005 6.74465991e-005 6.74465991e-005
      6.74465991e-005 6.74465991e-005 6.74465991e-005 6.74465991e-005
      6.74465991e-005 6.74465991e-005 6.74465991e-005 6.74465991e-005
      6.74465991e-005 6.74465991e-005 6.74465991e-005 6.74465991e-005
      6.74465991e-005 6.74465991e-005 6.74465991e-005 6.74465991e-005
      6.74465991e-005 6.74465991e-005 6.74465991e-005 6.74465991e-005
      6.74465991e-005 6.74465991e-005 6.74465991e-005 6.74465991e-005
      6.74465991e-005 6.74465991e-005 6.74465991e-005 6.74465991e-005
      6.74465991e-005 6.74465991e-005 4.18497257e-006 4.18497257e-006
      4.18497257e-006 4.18497257e-006 4.18497257e-006 4.18497257e-006
      4.18497257e-006 4.18497257e-006 4.18497257e-006 4.18497257e-006
      4.18497257e-006 4.18497257e-006 4.18497257e-006 4.18497257e-006
      4.18497257e-006 4.18497257e-006 4.18497257e-006 4.18497257e-006
      4.18497257e-006 4.18497257e-006 4.18497257e-006 4.18497257e-006
      4.18497257e-006 4.18497257e-006 4.18497257e-006 4.18497257e-006
      4.18497257e-006 4.18497257e-006 4.18497257e-006 4.18497257e-006
      4.18497257e-006 4.18497257e-006 4.18497257e-006 4.18497257e-006
      4.18497257e-006 4.18497257e-006 4.18497257e-006 4.18497257e-006
      4.18497257e-006 4.18497257e-006 4.18497257e-006 4.18497257e-006
      4.18497257e-006 4.18497257e-006 4.18497257e-006 4.18497257e-006
      4.18497257e-006 4.18497257e-006 2.34057461e-005 2.34057461e-005
      2.34057461e-005 2.34057461e-005 2.34057461e-005 2.34057461e-005
      2.34057461e-005 2.34057461e-005 2.34057461e-005 2.34057461e-005
      2.34057461e-005 2.34057461e-005 2.34057461e-005 2.34057461e-005
      2.34057461e-005 2.34057461e-005 2.34057461e-005 2.34057461e-005
      2.34057461e-005 2.34057461e-005 2.34057461e-005 2.34057461e-005
      2.34057461e-005 2.34057461e-005 2.34057461e-005 2.34057461e-005
      2.34057461e-005 2.34057461e-005 2.34057461e-005 2.34057461e-005
      2.34057461e-005 2.34057461e-005 2.34057461e-005 2.34057461e-005
      2.34057461e-005 2.34057461e-005 2.34057461e-005 2.34057461e-005
      2.34057461e-005 2.34057461e-005 2.19407284e-005 2.35114876e-005
      2.91896195e-005 2.09652826e-005 3.22944907e-005 3.74112351e-005
      1.34868860e-005 -3.31173760e-005 -2.86631603e-005 -2.86631603e-005
      -2.86631603e-005 -2.86631603e-005 -2.86631603e-005
      -2.86631603e-005 -2.86631603e-005 -2.86631603e-005
      -2.86631603e-005 -2.86631603e-005 -2.86631603e-005
      -2.86631603e-005 -2.86631603e-005 -2.86631603e-005
      -2.86631603e-005 -2.86631603e-005 -2.86631603e-005
      -2.86631603e-005 -2.86631603e-005 -2.86631603e-005
      -2.86631603e-005 -2.86631603e-005 -2.86631603e-005
      -2.86631603e-005 -2.86631603e-005 -2.86631603e-005
      -2.86631603e-005 -2.86631603e-005 -2.86631603e-005
      -2.86631603e-005 -2.86631603e-005 -2.86631603e-005
      -2.86631603e-005 -2.86631603e-005 -2.86631603e-005
      -2.86631603e-005 -2.86631603e-005 -2.86631603e-005
      -2.86631603e-005 -2.86631603e-005 -3.07713817e-005
      -1.87086243e-005 -2.98272280e-005 -3.79190060e-005
      -2.07484027e-005 2.05660708e-005 1.43550915e-005 2.80023633e-005
      2.02265328e-005 2.02265328e-005 2.02265328e-005 2.02265328e-005
      2.02265328e-005 2.02265328e-005 2.02265328e-005 2.02265328e-005
      2.02265328e-005 2.02265328e-005 2.02265328e-005 2.02265328e-005
      2.02265328e-005 2.02265328e-005 2.02265328e-005 2.02265328e-005
      2.02265328e-005 2.02265328e-005 2.02265328e-005 2.02265328e-005
      2.02265328e-005 2.02265328e-005 2.02265328e-005 2.02265328e-005
      2.02265328e-005 2.02265328e-005 2.02265328e-005 2.02265328e-005
      2.02265328e-005 2.02265328e-005 2.02265328e-005 2.02265328e-005
      2.02265328e-005 2.02265328e-005 2.02265328e-005 2.02265328e-005
      2.02265328e-005 2.02265328e-005 2.02265328e-005 2.02265328e-005
      2.01222920e-005 1.73022017e-005 1.45015410e-005 2.58834780e-006
      8.85374811e-006 -3.32809077e-006 7.85876296e-007 6.32297770e-007
      3.76594699e-006 3.76594699e-006 3.76594699e-006 3.76594699e-006
      3.76594699e-006 3.76594699e-006 3.76594699e-006 3.76594699e-006
      3.76594699e-006 3.76594699e-006 3.76594699e-006 3.76594699e-006
      3.76594699e-006 3.76594699e-006 3.76594699e-006 3.76594699e-006
      3.76594699e-006 3.76594699e-006 3.76594699e-006 3.76594699e-006
      3.76594699e-006 3.76594699e-006 3.76594699e-006 3.76594699e-006
      3.76594699e-006 3.76594699e-006 3.76594699e-006 3.76594699e-006
      3.76594699e-006 3.76594699e-006 3.76594699e-006 3.76594699e-006
      4.43032384e-008 -3.20140293e-006 -2.57451461e-006 1.12021362e-005
      2.49029404e-006 1.33699741e-005 -2.80336044e-005 -2.83935005e-005
      -2.68154727e-005 -2.68154727e-005 -2.68154727e-005
      -2.68154727e-005 -2.68154727e-005 -2.68154727e-005
      -2.68154727e-005 -2.68154727e-005 -2.68154727e-005
      -2.68154727e-005 -2.68154727e-005 -2.68154727e-005
      -2.68154727e-005 -2.68154727e-005 -2.68154727e-005
      -2.68154727e-005 -2.68154727e-005 -2.68154727e-005
      -2.68154727e-005 -2.68154727e-005 -2.68154727e-005
      -2.68154727e-005 -2.68154727e-005 -2.68154727e-005
      -2.68154727e-005 -2.68154727e-005 -2.68154727e-005
      -2.68154727e-005 -2.68154727e-005 -2.68154727e-005
      -2.68154727e-005 -2.68154727e-005 -2.68154727e-005
      -2.68154727e-005 -2.68154727e-005 -2.68154727e-005
      -2.68154727e-005 -2.68154727e-005 -2.68154727e-005
      -2.68154727e-005 -3.19257633e-005 -5.83465990e-005
      -5.57623280e-005 -5.45442854e-005 -5.85315647e-005
      -6.19348430e-005 -5.41812260e-005 -6.03096014e-005
      -5.82584289e-005 -5.82584289e-005 -5.82584289e-005
      -5.89655610e-005 -5.89655610e-005 -5.89655610e-005
      -5.89655610e-005 -5.89655610e-005 -5.89655610e-005
      -5.89655610e-005 -5.89655610e-005 -5.89655610e-005
      -5.89655610e-005 -5.89655610e-005 -5.89655610e-005
      -5.89655610e-005 -5.97949474e-005 -5.81361783e-005
      -5.89655610e-005 -5.85508715e-005 -5.89655610e-005
      -5.93802542e-005 -5.85508715e-005 -5.93802542e-005
      -5.89655610e-005 -5.89655610e-005 -5.89655610e-005
      -5.89655610e-005 -5.89655610e-005 -5.89655610e-005
      -5.89655610e-005 -5.89655610e-005 -5.09850033e-005
      -6.85573614e-005 -5.61606212e-005 -2.56861513e-005
      -3.39794278e-005 -2.72673460e-005 -2.08398978e-005
      -2.95435038e-005 -2.65880353e-005 -2.65880353e-005
      -2.65880353e-005 -2.65880353e-005 -2.65880353e-005
      -2.65880353e-005 -2.65880353e-005 -2.65880353e-005
      -2.65880353e-005 -2.65880353e-005 -2.65880353e-005
      -2.65880353e-005 -2.65880353e-005 -2.65880353e-005
      -2.65880353e-005 -2.65880353e-005 -2.65880353e-005
      -2.65880353e-005 -2.65880353e-005 -2.65880353e-005
      -2.65880353e-005 -2.65880353e-005 -2.65880353e-005
      -2.65880353e-005 -2.65880353e-005 -2.65880353e-005
      -2.65880353e-005 -2.65880353e-005 -2.65880353e-005
      -2.65880353e-005 -2.65880353e-005 -2.65880353e-005
      -3.03388442e-005 -3.03374763e-005 -2.55536524e-005
      -2.97038532e-005 2.82294077e-005 2.33864685e-005 2.77970994e-005
      2.81883804e-005 2.44327784e-005 2.44327784e-005 2.44327784e-005
      2.44327784e-005 2.44327784e-005 2.44327784e-005 2.44327784e-005
      2.44327784e-005 2.44327784e-005 2.44327784e-005 2.44327784e-005
      2.44327784e-005 2.44327784e-005 2.44327784e-005 2.44327784e-005
      2.44327784e-005 2.44327784e-005 2.44327784e-005 2.44327784e-005
      2.44327784e-005 2.44327784e-005 2.44327784e-005 2.44327784e-005
      2.44327784e-005 2.44327784e-005 2.44327784e-005 2.44327784e-005
      2.44327784e-005 2.44327784e-005 2.44327784e-005 2.44327784e-005
      2.44327784e-005 2.86906070e-005 2.21167211e-005 2.92669683e-005
      2.09394875e-005 1.08075474e-005 3.39798453e-006 9.36447032e-006
      2.38019697e-006 3.31608521e-006 3.31608521e-006 3.31608521e-006
      3.31608521e-006 3.31608521e-006 3.31608521e-006 3.31608521e-006
      3.31608521e-006 3.31608521e-006 3.31608521e-006 3.31608521e-006
      3.31608521e-006 3.31608521e-006 3.31608521e-006 3.31608521e-006
      3.31608521e-006 3.31608521e-006 3.31608521e-006 3.31608521e-006
      3.31608521e-006 3.31608521e-006 3.31608521e-006 3.31608521e-006
      3.31608521e-006 3.31608521e-006 3.31608521e-006 3.31608521e-006
      3.31608521e-006 3.31608521e-006 3.31608521e-006 3.31608521e-006
      3.31608521e-006 -1.29001171e-006 -7.73159229e-007 7.34686591e-006
      3.81274258e-005 2.84165053e-005 4.14104215e-005 4.17688134e-005
      3.63485742e-005 3.73794937e-005 3.73794937e-005 3.73794937e-005
      3.73794937e-005 3.73794937e-005 3.73794937e-005 3.73794937e-005
      3.73794937e-005 3.73794937e-005 3.73794937e-005 3.73794937e-005
      3.73794937e-005 3.73794937e-005 3.73794937e-005 3.73794937e-005
      3.73794937e-005 3.73794937e-005 3.73794937e-005 3.73794937e-005
      3.73794937e-005 3.73794937e-005 3.73794937e-005 3.73794937e-005
      3.73794937e-005 3.73794937e-005 3.73794937e-005 3.73794937e-005
      3.73794937e-005 3.73794937e-005 3.73794937e-005 3.73794937e-005
      3.73794937e-005 3.73778857e-005 -8.40218781e-005 -9.75990624e-005
      -7.37532246e-005 -9.20782186e-005 -8.67385461e-005
      -7.88765465e-005 -9.04278058e-005 -8.56379120e-005
      -8.56379120e-005 -8.56379120e-005 -8.56379120e-005
      -8.56379120e-005 -8.56379120e-005 -8.56379120e-005
      -8.56379120e-005 -8.56379120e-005 -8.56379120e-005
      -8.56379120e-005 -8.56379120e-005 -8.56379120e-005
      -8.56379120e-005 -8.56379120e-005 -8.56379120e-005
      -8.56379120e-005 -8.56379120e-005 -8.56379120e-005
      -8.56379120e-005 -8.56379120e-005 -8.56379120e-005
      -8.56379120e-005 -8.56379120e-005 -8.51408477e-005
      -9.21417377e-005 -8.25146417e-005 -7.98386245e-005
      -8.78282735e-005 -8.86811176e-005 8.92856769e-005 8.54109821e-005
      8.64835383e-005 8.64835383e-005 8.64835383e-005 8.64835383e-005
      8.64835383e-005 8.64835383e-005 8.64835383e-005 8.64835383e-005
      8.64835383e-005 8.64835383e-005 8.64835383e-005 8.64835383e-005
      8.64835383e-005 8.64835383e-005 8.64835383e-005 8.64835383e-005
      8.64835383e-005 8.64835383e-005 8.64835383e-005 8.64835383e-005
      8.64835383e-005 8.64835383e-005 8.64835383e-005 8.64835383e-005
      8.64835383e-005 8.64835383e-005 8.64835383e-005 8.64835383e-005
      8.64835383e-005 8.64835383e-005 8.64835383e-005 8.64835383e-005
      7.79369220e-005 9.12339965e-005 -7.71962877e-005 -5.94893136e-005
      -6.41104198e-005 -7.12761903e-005 -6.19455022e-005
      -7.01873578e-005 -6.59807847e-005 -6.59807847e-005
      -6.59807847e-005 -6.59807847e-005 -6.59807847e-005
      -6.59807847e-005 -6.59807847e-005 -6.59807847e-005
      -6.59807847e-005 -6.59807847e-005 -6.59807847e-005
      -6.59807847e-005 -6.59807847e-005 -6.59807847e-005
      -6.59807847e-005 -6.59807847e-005 -6.59807847e-005
      -6.59807847e-005 -6.59807847e-005 -6.59807847e-005
      -6.59807847e-005 -6.59807847e-005 -6.59807847e-005
      -6.59807847e-005 -6.72275855e-005 -5.77506325e-005
      -7.54442663e-005 -5.36417829e-005 -5.57256717e-005 9.87704625e-005
      1.12505411e-004 1.11657639e-004 1.11606067e-004 1.11606067e-004
      1.11606067e-004 1.11606067e-004 1.11606067e-004 1.11606067e-004
      1.11606067e-004 1.11606067e-004 1.11606067e-004 1.11606067e-004
      1.11606067e-004 1.11606067e-004 1.11606067e-004 1.11606067e-004
      1.11606067e-004 1.11606067e-004 1.11606067e-004 1.11606067e-004
      1.11606067e-004 1.11606067e-004 1.11606067e-004 1.11606067e-004
      1.11606067e-004 1.11606067e-004 1.07322056e-004 1.11562338e-004
      1.01977581e-004 1.15993767e-004 1.08469154e-004 1.03512859e-004
      1.15628463e-004 6.89656144e-006 9.19521699e-006 9.19521699e-006
      9.19521699e-006 9.19521699e-006 9.19521699e-006 9.19521699e-006
      9.19521699e-006 9.19521699e-006 9.19521699e-006 9.19521699e-006
      9.19521699e-006 9.19521699e-006 9.19521699e-006 9.19521699e-006
      9.19521699e-006 9.19521699e-006 9.19521699e-006 9.19521699e-006
      9.19521699e-006 9.19521699e-006 9.19521699e-006 9.19521699e-006
      9.19521699e-006 9.19521699e-006 9.19521699e-006 9.19521699e-006
      9.19521699e-006 9.19521699e-006 9.19521699e-006 9.19521699e-006
      9.19521699e-006 9.19521699e-006 -2.23004354e-005 -2.23004354e-005
      -2.23004354e-005 -2.23004354e-005 -2.23004354e-005
      -2.23004354e-005 -2.23004354e-005 -2.23004354e-005
      -2.23004354e-005 -2.23004354e-005 -2.23004354e-005
      -2.23004354e-005 -2.23004354e-005 -2.23004354e-005
      -2.23004354e-005 -2.23004354e-005 -2.23004354e-005
      -2.23004354e-005 -2.23004354e-005 -2.23004354e-005
      -2.23004354e-005 -2.23004354e-005 -2.23004354e-005
      -2.23004354e-005 -2.23004354e-005 -2.23004354e-005
      -2.23004354e-005 -2.23004354e-005 -2.23004354e-005
      -2.23004354e-005 -2.23004354e-005 -2.23004354e-005
      -3.72217000e-005 -3.72217000e-005 -3.72217000e-005
      -3.72217000e-005 -3.72217000e-005 -3.72217000e-005
      -3.72217000e-005 -3.72217000e-005 -3.72217000e-005
      -3.72217000e-005 -3.72217000e-005 -3.72217000e-005
      -3.72217000e-005 -3.72217000e-005 -3.72217000e-005
      -3.72217000e-005 -3.72217000e-005 -3.72217000e-005
      -3.72217000e-005 -3.72217000e-005 -3.72217000e-005
      -3.72217000e-005 -3.72217000e-005 -3.72217000e-005
      -3.97870863e-005 -3.13234377e-005 -3.23514068e-005
      -3.95459356e-005 -3.49008587e-005 -3.34763536e-005
      -3.49372312e-005 -2.44331659e-005 -2.68154727e-005
      -2.68154727e-005 -2.68154727e-005 -2.68154727e-005
      -2.68154727e-005 -2.68154727e-005 -2.68154727e-005
      -2.68154727e-005 -2.68154727e-005 -2.68154727e-005
      -2.68154727e-005 -2.68154727e-005 -2.68154727e-005
      -2.68154727e-005 -2.68154727e-005 -2.68154727e-005
      -2.68154727e-005 -2.68154727e-005 -2.68154727e-005
      -2.68154727e-005 -2.68154727e-005 -2.68154727e-005
      -2.68154727e-005 -2.68154727e-005 -2.44269668e-005
      -1.72570417e-005 -2.82990131e-005 -2.73039550e-005
      -2.21625378e-005 6.22701846e-005 7.22023469e-005 6.47509078e-005
      6.89230437e-005 6.89230437e-005 6.89230437e-005 6.89230437e-005
      6.89230437e-005 6.89230437e-005 6.89230437e-005 6.89230437e-005
      6.89230437e-005 6.89230437e-005 6.89230437e-005 6.89230437e-005
      6.89230437e-005 6.89230437e-005 6.89230437e-005 6.89230437e-005
      6.89230437e-005 6.89230437e-005 6.89230437e-005 6.89230437e-005
      6.89230437e-005 6.89230437e-005 6.89230437e-005 6.89230437e-005
      6.93481052e-005 6.91726018e-005 -2.48748074e-005 -3.32218151e-005
      -1.86187026e-005 -3.05477079e-005 -2.35190037e-005
      -2.92672721e-005 -2.58163727e-005 -2.58163727e-005
      -2.58163727e-005 -2.58163727e-005 -2.58163727e-005
      -2.58163727e-005 -2.58163727e-005 -2.58163727e-005
      -2.58163727e-005 -2.58163727e-005 -2.58163727e-005
      -2.58163727e-005 -2.58163727e-005 -2.58163727e-005
      -2.58163727e-005 -2.58163727e-005 -2.63763995e-005
      -2.26819757e-005 -2.04420430e-005 -3.16476107e-005
      -1.90941264e-005 -2.61108580e-005 -7.71516352e-005
      -7.58969836e-005 -7.34801579e-005 -7.34801579e-005
      -7.34801579e-005 -7.34801579e-005 -7.34801579e-005
      -7.34801579e-005 -7.34801579e-005 -7.34801579e-005
      -7.34801579e-005 -7.34801579e-005 -7.34801579e-005
      -7.34801579e-005 -7.34801579e-005 -7.34801579e-005
      -7.34801579e-005 -7.34801579e-005 -7.34801579e-005
      -7.34801579e-005 -7.34801579e-005 -7.34801579e-005
      -7.34801579e-005 -7.34801579e-005 -7.34801579e-005
      -7.34801579e-005 -6.53860989e-005 1.78807011e-006 1.40730481e-005
      1.80484567e-005 9.45329475e-007 8.78174433e-006 1.53111541e-005
      1.01984524e-005 9.19521699e-006 9.19521699e-006 9.19521699e-006
      9.19521699e-006 9.19521699e-006 9.19521699e-006 9.19521699e-006
      9.19521699e-006 9.19521699e-006 9.19521699e-006 9.19521699e-006
      9.19521699e-006 9.19521699e-006 9.19521699e-006 9.19521699e-006
      9.19521699e-006 7.09089181e-006 1.64875655e-005 6.29568513e-006
      4.83491749e-005 5.28559503e-005 5.09053352e-005 5.03421834e-005
      6.79888690e-005 5.42766429e-005 5.22031842e-005 5.46913361e-005
      5.22031842e-005 5.38619533e-005 5.34472601e-005 5.42766429e-005
      5.30325706e-005 5.34472601e-005 5.34472601e-005 5.34472601e-005
      5.34472601e-005 5.34472601e-005 5.34472601e-005 5.34472601e-005
      5.34472601e-005 5.34976607e-005 5.80375563e-005 5.41745831e-005
      5.16926411e-005 1.52122439e-005 9.43943996e-006 9.39558595e-006
      1.10818273e-005 9.19521699e-006 9.19521699e-006 9.19521699e-006
      9.19521699e-006 9.19521699e-006 9.19521699e-006 9.19521699e-006
      9.19521699e-006 9.19521699e-006 9.19521699e-006 9.19521699e-006
      9.19521699e-006 9.19521699e-006 9.19521699e-006 9.19521699e-006
      9.19521699e-006 7.58709029e-006 1.20179711e-005 6.98425902e-006
      9.62771173e-006 3.41445812e-005 3.63320250e-005 2.80859331e-005
      3.34388678e-005 3.20858380e-005 3.20858380e-005 3.20858380e-005
      3.20858380e-005 3.20858380e-005 3.20858380e-005 3.20858380e-005
      3.20858380e-005 3.20858380e-005 3.20858380e-005 3.20858380e-005
      3.20858380e-005 3.20858380e-005 3.20858380e-005 3.20858380e-005
      3.20858380e-005 3.71232418e-005 2.65753897e-005 4.68386788e-005
      -2.54873685e-005 -3.46596935e-005 -2.56588937e-005
      -2.96731487e-005 -2.48537235e-005 -2.68154727e-005
      -2.68154727e-005 -2.68154727e-005 -2.68154727e-005
      -2.68154727e-005 -2.68154727e-005 -2.68154727e-005
      -2.68154727e-005 -2.68154727e-005 -2.68154727e-005
      -2.68154727e-005 -2.68154727e-005 -2.68154727e-005
      -2.68154727e-005 -2.68154727e-005 -2.68154727e-005
      -2.54917140e-005 -4.64560662e-006 -1.04720693e-005
      -8.42349800e-006 -1.06466578e-005 -1.26207533e-005
      -8.67262042e-006 -1.37667375e-005 -1.05396175e-005
      -1.05396175e-005 -1.05396175e-005 -1.05396175e-005
      -1.05396175e-005 -1.05396175e-005 -1.05396175e-005
      -1.05396175e-005 -5.01931754e-006 -1.98495381e-005
      -1.74050524e-006 -1.02611039e-005 -1.48428553e-005
      -5.25077439e-006 -2.85169699e-005 -2.40247391e-005
      -3.08527742e-005 -3.08527742e-005 -3.08527742e-005
      -3.08527742e-005 -3.08527742e-005 -3.08527742e-005
      -3.08527742e-005 -3.08527742e-005 -3.08527742e-005
      -3.08527742e-005 -3.08527742e-005 -3.08527742e-005
      -3.08527742e-005 -3.08527742e-005 -3.08527742e-005
      -3.08527742e-005 -2.54035949e-005 -3.22410415e-005 3.68404944e-005
      2.51308593e-005 3.76269127e-005 3.09989300e-005 2.87890016e-005
      2.88888932e-005 3.12243465e-005 3.12243465e-005 3.12243465e-005
      3.12243465e-005 3.12243465e-005 3.12243465e-005 3.12243465e-005
      3.12243465e-005 3.31125520e-005 2.76233659e-005 3.35007207e-005
      3.03329289e-005 3.67320536e-005 -3.07529517e-005 -2.04059834e-005
      -2.72747729e-005 -2.23004354e-005 -2.23004354e-005
      -2.23004354e-005 -2.23004354e-005 -2.23004354e-005
      -2.23004354e-005 -2.23004354e-005 -2.23004354e-005
      -2.24480391e-005 -3.50892842e-005 -1.35405444e-005
      -1.28705242e-005 -2.72218258e-005 -1.76877747e-005
      -1.90020091e-005 4.44304242e-005 4.83262847e-005 4.83262847e-005
      4.83262847e-005 4.83262847e-005 4.83262847e-005 4.83262847e-005
      4.83262847e-005 4.83262847e-005 4.83262847e-005 4.83262847e-005
      4.83262847e-005 4.83262847e-005 4.83262847e-005 4.83262847e-005
      4.83262847e-005 4.83262847e-005 -2.23004354e-005 -2.23004354e-005
      -2.23004354e-005 -2.23004354e-005 -2.23004354e-005
      -2.23004354e-005 -2.23004354e-005 -2.23004354e-005
      -2.23004354e-005 -2.23004354e-005 -2.23004354e-005
      -2.23004354e-005 -2.23004354e-005 -2.23004354e-005
      -2.23004354e-005 -2.23004354e-005 -2.68154727e-005
      -2.68154727e-005 -2.68154727e-005 -2.68154727e-005
      -2.68154727e-005 -2.68154727e-005 -2.68154727e-005
      -2.68154727e-005 -2.10992148e-005 -3.63528306e-005
      -2.18195328e-005 -1.90778610e-005 -2.53041944e-005
      -3.65514970e-005 -1.71056781e-005 -8.08393452e-005
      -7.56921727e-005 -7.56921727e-005 -7.56921727e-005
      -7.56921727e-005 -7.56921727e-005 -7.56921727e-005
      -7.56921727e-005 -7.56921727e-005 -7.41233162e-005
      -8.35780593e-005 -7.15012648e-005 -7.34830755e-005
      -7.51801417e-005 -1.85274384e-005 -2.49094264e-005
      -2.28886711e-005 -2.68154727e-005 -2.68154727e-005
      -2.68154727e-005 -2.68154727e-005 -2.68154727e-005
      -2.68154727e-005 -2.68154727e-005 -2.68154727e-005
      -2.41990947e-005 -3.32766649e-005 -3.27279085e-005
      -2.97393999e-005 -2.91199176e-005 -2.54676106e-005
      -2.60860234e-005 -3.80420133e-005 -3.80420133e-005
      -2.60815923e-005 -2.58823038e-005 -2.95257487e-005
      -2.97438291e-005 -3.23132153e-005 -3.29106879e-005
      -2.37888326e-005 -2.68154727e-005 -2.68154727e-005
      -2.68154727e-005 -2.68154727e-005 -2.68154727e-005
      -2.68154727e-005 -2.68154727e-005 -2.68154727e-005
      -2.96625367e-005 -9.58657547e-005 -9.19506565e-005
      -8.57290870e-005 -9.87914609e-005 -9.48766901e-005
      -8.58206040e-005 -9.60875332e-005 -9.47000590e-005
      -8.94989571e-005 -9.41868420e-005 -3.01939817e-005
      -2.44906241e-005 -2.21436221e-005 -2.98813593e-005
      -2.47330245e-005 -2.46602158e-005 -2.93521498e-005
      -2.39680339e-005 -2.41342259e-005 3.04085079e-005 3.11930162e-005
      3.24108332e-005 3.14816607e-005 3.06629227e-005 3.36158482e-005
      3.37796882e-005 3.22647174e-005 -5.60326225e-005 -5.52508391e-005
      -5.72790595e-005 -5.32543745e-005 -5.55394399e-005
      -5.08436424e-005 -6.05597525e-005 -2.09374939e-005
      -2.13430030e-005 -2.35672978e-005 -1.88903650e-005
      -2.85809037e-005 -2.14125957e-005 -1.06132291e-004
      -1.07759952e-004 -1.03179831e-004 -1.09502675e-004
      -1.15634866e-004 -6.88719774e-006 -1.20547547e-005
      -1.17728096e-005 -1.25753913e-005 8.71412485e-005 1.00176519e-004
      9.93695066e-005 -2.34030158e-005 -2.91677861e-005 -2.34743129e-005</_></support_vectors>
  <decision_functions>
    <_>
      <sv_count>1</sv_count>
      <rho>1.1561077079981013e+000</rho>
      <alpha>
        1.</alpha>
      <index>
        0</index></_></decision_functions></my_svm>
</opencv_storage>
