<?xml version="1.0"?>
<opencv_storage>
<my_svm type_id="opencv-ml-svm">
  <svm_type>C_SVC</svm_type>
  <kernel><type>LINEAR</type></kernel>
  <C>1.</C>
  <term_criteria><epsilon>2.2204460492503131e-016</epsilon>
    <iterations>100</iterations></term_criteria>
  <var_all>4544</var_all>
  <var_count>4544</var_count>
  <class_count>2</class_count>
  <class_labels type_id="opencv-matrix">
    <rows>1</rows>
    <cols>2</cols>
    <dt>i</dt>
    <data>
      11 255</data></class_labels>
  <sv_total>1</sv_total>
  <support_vectors>
    <_>
      8.08294203e-007 1.00869420e-006 8.07513345e-007 -3.61272669e-006
      -3.61272669e-006 8.07513345e-007 1.56294288e-006 7.54648681e-007
      -6.70061695e-007 0. -1.77653544e-006 -3.26764143e-006
      -1.77653544e-006 -2.70898204e-006 -1.34136076e-006
      -1.34136076e-006 -6.70061695e-007 -6.70061695e-007 0.
      -2.01180910e-007 0. 0. -6.70061695e-007 -9.69974167e-007
      -5.75892159e-007 -2.99912500e-007 -2.99912500e-007 5.23606559e-006
      5.23606559e-006 0. -2.75979687e-007 -2.75979687e-007
      6.63146977e-008 6.63146977e-008 0. 0. 0. 0. 6.63146977e-008
      -1.34866212e-007 0. 0. 3.96819814e-007 2.23144821e-006
      2.23144821e-006 9.71925829e-007 5.75105958e-007 -2.67056834e-007
      -3.61301431e-007 -1.60120507e-007 9.90657867e-008 0. 0. 0. 0. 0.
      0. -1.32374950e-007 -1.32374950e-007 0. 0. 8.04643207e-007
      8.04643207e-007 8.75853516e-007 0. 0. -8.36948175e-007 0. 0. 0. 0.
      0. 0. 0. 0. 0. 0. 5.08381731e-007 5.08381731e-007 7.08781783e-007
      0. 0. 0. 0. 0. 0. 0. 0. 0. 0. 0. 0. 0. 0. 0. 0. 0. 0. 0. 0. 0. 0.
      -1.32374950e-007 7.95870983e-006 5.75105958e-007 3.96819814e-007
      3.96819814e-007 -5.35626839e-007 -5.35626839e-007 3.96819814e-007
      3.96819814e-007 3.96819814e-007 0. 0. 1.40551401e-006
      1.40551401e-006 1.40551401e-006 1.00869420e-006 0. 0.
      5.97219866e-007 5.97219866e-007 5.97219866e-007 5.97219866e-007
      5.97219866e-007 5.97219866e-007 5.97219866e-007 5.97219866e-007 0.
      0. 0. 0. 0. 0. 0. 0. 0. 0. 0. 0. 0. 0. 0. 0. 0. 0. 0. 0. 0. 0. 0.
      0. 0. 0. 0. 0. 0. 0. 0. 0. 0. 0. 0. 0. 0. 0. 0. 0. 0. 0. 0. 0. 0.
      0. 0. 0. 0. 0. 0. 0. 0. 0. 0. 0. 0. 0. 0. 0. 0. 0. 0. 0. 0. 0. 0.
      0. 0. 0. 0. 0. 0. 0. 0. 0. 0. 0. 0. 0. 0. 0. 0. 0. 0. 0. 0. 0. 0.
      0. 0. 0. 0. 0. 0. 0. 0. 0. 0. 0. 0. 0. 0. 0. 0. 0. 0. 0. 0. 0. 0.
      0. 0. 0. 0. 0. 0. 0. 0. 0. 0. 0. 0. 0. 0. 0. 0. 0.
      -1.01935007e-006 -1.18755588e-006 4.70533041e-006 -3.75932177e-006
      -8.11171958e-006 -6.34766957e-006 -1.33246840e-006
      -1.95298321e-006 -5.08410585e-006 -4.42103965e-006
      -8.13198221e-006 -3.94266181e-006 1.58710156e-006 3.64789616e-006
      2.01519060e-006 1.02823810e-006 -6.06747381e-006 -5.14754765e-006
      4.48734966e-007 -1.05193635e-006 -3.76203161e-006 -4.86301951e-006
      -7.61075216e-006 -5.74403339e-006 1.46204297e-006 4.55461617e-007
      -6.71102407e-006 -6.86537805e-006 -3.68969427e-006
      -5.78375239e-006 -7.83910309e-006 -6.40876760e-006 3.59053774e-006
      -2.12545658e-007 -5.93533457e-007 -2.33114702e-006
      -8.64386584e-006 -3.60917079e-006 -3.06599804e-006
      -3.22539472e-006 1.41057546e-006 -6.61734532e-007 -1.46813431e-006
      3.66133418e-006 3.43975626e-006 -1.40164013e-006 -5.68434780e-006
      -3.29208365e-006 7.11084613e-006 6.14596183e-006 -9.62629315e-007
      -3.59564638e-006 -4.70988880e-006 -4.48765377e-006
      -9.68218956e-006 -2.73607816e-006 -8.92174114e-007 6.84896406e-008
      -3.07075447e-006 -2.25961003e-006 -1.02363538e-006
      -1.49265327e-006 9.63402613e-007 4.08171644e-007 5.60057197e-006
      4.10985149e-006 -6.02806836e-007 -3.73693041e-007 4.73988212e-006
      2.59242961e-006 4.61626132e-006 -1.68363314e-007 -5.15665943e-006
      -3.27907401e-006 -4.23428901e-006 -5.89544300e-007
      -9.28228530e-007 -6.15398108e-007 9.67331061e-007 1.42497663e-006
      3.08195808e-006 3.63790491e-006 3.34381343e-006 3.68027600e-006
      2.54260158e-006 -3.54871486e-006 -5.98047882e-006 -2.16552098e-006
      -4.31798526e-006 -4.69278848e-006 -6.98207441e-006
      -8.06802018e-006 -3.30901548e-006 3.29395016e-006 3.13184819e-006
      3.69161899e-006 3.40389079e-006 4.10798884e-006 1.06585503e-006
      -1.96289557e-006 -1.39840245e-006 -9.51977540e-007
      -2.51917368e-006 -2.64299479e-006 5.16363298e-006 5.92187689e-006
      2.33105789e-006 5.73503621e-006 2.22592303e-006 -5.55455881e-006
      -1.13431850e-006 1.33556000e-007 3.71898659e-006 2.81321945e-006
      1.90928222e-006 2.58155046e-006 2.21616506e-006 5.11714745e-007
      -2.82926590e-006 -3.26154782e-006 6.02098851e-007 5.21600782e-007
      -2.75979687e-007 -1.36140102e-006 -1.23032305e-006
      -5.22842072e-007 7.63092828e-007 1.05967229e-006 -1.46499121e-006
      -1.20715185e-006 4.31304301e-007 4.63609297e-007 1.09431630e-006
      1.75132800e-006 1.38260361e-006 -2.71525050e-006 1.43315742e-006
      8.63936657e-006 2.94670872e-006 6.06248776e-008 -7.34692321e-007
      -1.02534977e-006 -1.95079633e-006 -8.65499544e-007 1.12107391e-005
      2.22871699e-006 1.15376156e-006 -2.04917214e-007 -2.04917214e-007
      3.75733225e-006 1.28574914e-006 5.59283762e-006 3.76524576e-006
      3.62099604e-006 -7.31942464e-006 -2.42184524e-006 1.70465057e-006
      3.44746331e-006 3.06282436e-006 2.31908120e-006 -2.18246669e-006
      8.61956380e-007 -6.51260564e-007 -5.44865770e-006 -7.10446420e-006
      -1.68888846e-007 2.63789758e-007 5.54775170e-006 2.04487549e-007
      -5.38951610e-007 6.45714454e-006 4.68239523e-006 2.63788593e-006
      2.99926933e-006 4.22738003e-006 1.69295504e-006 -4.06513163e-006
      3.51224867e-006 -1.63751088e-006 -5.85241787e-006 -8.74451780e-006
      1.62903405e-006 5.96392829e-006 3.22621963e-006 -1.00608517e-007
      3.23777567e-006 6.42407576e-006 4.71433532e-006 3.53515134e-006
      -8.52564085e-007 3.78908993e-007 -5.04696709e-006 1.76657090e-006
      -1.46701996e-006 -6.87065494e-007 5.12477300e-006 1.51229460e-006
      -2.72075681e-006 -5.17328635e-006 -2.47490402e-006 1.37502329e-005
      5.77788524e-006 6.38828988e-006 5.39728035e-006 7.52253015e-007
      -4.18581476e-006 -5.43979468e-006 -3.59548403e-006
      -4.28579551e-006 -6.66435699e-006 -4.46001104e-006
      -5.47189029e-006 -3.30762532e-006 2.88235537e-006 5.11253575e-007
      1.55342138e-006 2.41799512e-006 2.68143322e-006 1.95822213e-006
      3.45604485e-006 9.50458798e-006 4.34542426e-006 -2.24744940e-006
      -7.23538096e-006 3.87733644e-006 9.77377340e-007 6.49680828e-007
      4.26162660e-006 -3.89604992e-007 2.71441536e-007 3.60091053e-006
      3.78553591e-006 2.70206215e-006 -3.40318934e-006 -3.80256961e-006
      2.49805476e-006 3.54965937e-006 6.34402522e-006 -1.36791277e-006
      -2.88240244e-007 -4.66406306e-007 -1.10101928e-006
      -2.24731571e-006 -8.46071907e-006 -8.16413922e-006
      -7.44598810e-006 -2.32630146e-006 2.65298581e-006 -3.39156736e-006
      -3.31106912e-006 2.75979687e-007 1.36140102e-006 1.23032305e-006
      7.23242124e-007 -1.23275447e-006 4.10355142e-006 -1.32035320e-005
      -1.32035320e-005 -1.32035320e-005 -1.32035320e-005
      -1.32035320e-005 -1.32035320e-005 -1.32035320e-005
      -1.32035320e-005 -1.32035320e-005 -1.32035320e-005
      -1.32035320e-005 -1.32035320e-005 -1.32035320e-005
      -1.32035320e-005 -1.32035320e-005 -1.32035320e-005
      -1.32035320e-005 -1.32035320e-005 -1.32035320e-005
      -1.32035320e-005 -1.32035320e-005 -1.32035320e-005
      -1.32035320e-005 -1.32035320e-005 -1.32035320e-005
      -1.32035320e-005 -1.32035320e-005 -1.32035320e-005
      -1.32035320e-005 -1.32035320e-005 -1.32035320e-005
      -1.32035320e-005 -1.32035320e-005 -1.32035320e-005
      -1.32035320e-005 -1.32035320e-005 -1.32035320e-005
      -1.32035320e-005 -1.32035320e-005 -1.32035320e-005
      -1.32035320e-005 -1.32035320e-005 -1.32035320e-005
      -1.32035320e-005 -1.32035320e-005 -1.32035320e-005
      -1.32035320e-005 -1.32035320e-005 -1.32035320e-005
      -1.32035320e-005 -1.32035320e-005 -1.32035320e-005
      -1.32035320e-005 -1.32035320e-005 -1.32035320e-005
      -1.32035320e-005 -1.68720835e-005 -7.15890974e-006
      -2.69243574e-005 -8.43223097e-006 -2.34322906e-005
      -5.94471339e-006 -1.75006735e-005 -1.94144141e-005
      -2.17033994e-005 -2.17033994e-005 -2.17033994e-005
      -2.17033994e-005 -2.17033994e-005 -2.17033994e-005
      -2.17033994e-005 -2.17033994e-005 -2.17033994e-005
      -2.17033994e-005 -2.17033994e-005 -2.17033994e-005
      -2.17033994e-005 -2.17033994e-005 -2.17033994e-005
      -2.17033994e-005 -2.17033994e-005 -2.17033994e-005
      -2.17033994e-005 -2.17033994e-005 -2.17033994e-005
      -2.17033994e-005 -2.17033994e-005 -2.17033994e-005
      -2.17033994e-005 -2.17033994e-005 -2.17033994e-005
      -2.17033994e-005 -2.17033994e-005 -2.17033994e-005
      -2.17033994e-005 -2.17033994e-005 -2.17033994e-005
      -2.17033994e-005 -2.17033994e-005 -2.17033994e-005
      -2.17033994e-005 -2.17033994e-005 -2.17033994e-005
      -2.17033994e-005 -2.17033994e-005 -2.17033994e-005
      -2.17033994e-005 -2.17033994e-005 -2.17033994e-005
      -2.17033994e-005 -2.17033994e-005 -2.17033994e-005
      -2.17033994e-005 -2.17033994e-005 -2.17033994e-005
      -2.17033994e-005 -2.17033994e-005 -2.17033994e-005
      -2.17033994e-005 -2.17033994e-005 -8.86495491e-006
      -2.67387641e-005 -4.19143616e-005 -7.81440576e-006
      -2.93698322e-005 2.89978493e-006 8.05795844e-006 -1.27657313e-006
      2.71788713e-006 2.71788713e-006 2.71788713e-006 2.71788713e-006
      2.71788713e-006 2.71788713e-006 2.71788713e-006 2.71788713e-006
      2.71788713e-006 2.71788713e-006 2.71788713e-006 2.71788713e-006
      2.71788713e-006 2.71788713e-006 2.71788713e-006 2.71788713e-006
      2.71788713e-006 2.71788713e-006 2.71788713e-006 2.71788713e-006
      2.71788713e-006 2.71788713e-006 2.71788713e-006 2.71788713e-006
      2.71788713e-006 2.71788713e-006 2.71788713e-006 2.71788713e-006
      2.71788713e-006 2.71788713e-006 2.71788713e-006 2.71788713e-006
      2.71788713e-006 2.71788713e-006 2.71788713e-006 2.71788713e-006
      2.71788713e-006 2.71788713e-006 2.71788713e-006 2.71788713e-006
      2.71788713e-006 2.71788713e-006 2.71788713e-006 2.71788713e-006
      2.71788713e-006 2.71788713e-006 2.71788713e-006 2.71788713e-006
      2.71788713e-006 2.71788713e-006 2.71788713e-006 2.71788713e-006
      2.71788713e-006 2.71788713e-006 2.71788713e-006 2.71788713e-006
      3.37720371e-006 2.73433420e-006 2.27444480e-006 2.56994940e-006
      2.84848738e-006 1.59593446e-006 4.39840096e-006 1.53081976e-006
      2.71788713e-006 2.71788713e-006 2.71788713e-006 2.71788713e-006
      2.71788713e-006 2.71788713e-006 2.71788713e-006 2.71788713e-006
      2.71788713e-006 2.71788713e-006 2.71788713e-006 2.71788713e-006
      2.71788713e-006 2.71788713e-006 2.71788713e-006 2.71788713e-006
      2.71788713e-006 2.71788713e-006 2.71788713e-006 2.71788713e-006
      2.71788713e-006 2.71788713e-006 2.71788713e-006 2.71788713e-006
      2.71788713e-006 2.71788713e-006 2.71788713e-006 2.71788713e-006
      2.71788713e-006 2.71788713e-006 2.71788713e-006 2.71788713e-006
      2.71788713e-006 2.71788713e-006 2.71788713e-006 2.71788713e-006
      2.71788713e-006 2.71788713e-006 2.71788713e-006 2.71788713e-006
      2.71788713e-006 2.71788713e-006 2.71788713e-006 2.71788713e-006
      2.71788713e-006 2.71788713e-006 2.71788713e-006 2.71788713e-006
      3.01742989e-006 8.78810988e-006 -3.74608112e-006 6.94951723e-006
      -2.28504200e-006 -3.26680856e-006 1.68957358e-005 1.14125605e-005
      1.16324100e-005 1.16324100e-005 1.16324100e-005 1.16324100e-005
      1.16324100e-005 1.16324100e-005 1.16324100e-005 1.16324100e-005
      1.16324100e-005 1.16324100e-005 1.16324100e-005 1.16324100e-005
      1.16324100e-005 1.16324100e-005 1.16324100e-005 1.16324100e-005
      1.16324100e-005 1.16324100e-005 1.16324100e-005 1.16324100e-005
      1.16324100e-005 1.16324100e-005 1.16324100e-005 1.16324100e-005
      1.16324100e-005 1.16324100e-005 1.16324100e-005 1.16324100e-005
      1.16324100e-005 1.16324100e-005 1.16324100e-005 1.16324100e-005
      1.16324100e-005 1.16324100e-005 1.16324100e-005 1.16324100e-005
      1.16324100e-005 1.16324100e-005 1.16324100e-005 1.16324100e-005
      1.16324100e-005 1.16324100e-005 1.16324100e-005 1.16324100e-005
      1.16324100e-005 1.16324100e-005 1.16324100e-005 1.16324100e-005
      1.16324100e-005 1.16324100e-005 1.16324100e-005 1.16324100e-005
      1.16324100e-005 1.16324100e-005 1.16324100e-005 1.16324100e-005
      1.11678230e-006 6.28028283e-005 8.37136758e-005 6.79956065e-005
      6.89258886e-005 7.96098466e-005 7.06668579e-005 7.14074849e-005
      7.16139984e-005 7.16139984e-005 7.16139984e-005 7.16139984e-005
      7.16139984e-005 7.16139984e-005 7.16139984e-005 7.16139984e-005
      7.16139984e-005 7.16139984e-005 7.16139984e-005 7.16139984e-005
      7.16139984e-005 7.16139984e-005 7.16139984e-005 7.16139984e-005
      7.16139984e-005 7.16139984e-005 7.16139984e-005 7.16139984e-005
      7.16139984e-005 7.16139984e-005 7.16139984e-005 7.16139984e-005
      7.16139984e-005 7.16139984e-005 7.16139984e-005 7.16139984e-005
      7.16139984e-005 7.16139984e-005 7.16139984e-005 7.16139984e-005
      7.16139984e-005 7.16139984e-005 7.16139984e-005 7.16139984e-005
      7.16139984e-005 7.16139984e-005 7.16139984e-005 7.16139984e-005
      7.16139984e-005 7.16139984e-005 7.16139984e-005 7.16139984e-005
      7.16139984e-005 7.16139984e-005 7.16139984e-005 7.16139984e-005
      5.74929109e-005 7.91828134e-005 6.18463382e-005 -8.37436528e-005
      -6.70772279e-005 -7.85218726e-005 -6.45284599e-005
      -6.75572446e-005 -7.00258242e-005 -7.00258242e-005
      -7.00258242e-005 -7.00258242e-005 -7.00258242e-005
      -7.00258242e-005 -7.00258242e-005 -7.00258242e-005
      -7.00258242e-005 -7.00258242e-005 -7.00258242e-005
      -7.00258242e-005 -7.00258242e-005 -7.00258242e-005
      -7.00258242e-005 -7.00258242e-005 -7.00258242e-005
      -7.00258242e-005 -7.00258242e-005 -7.00258242e-005
      -7.00258242e-005 -7.00258242e-005 -7.00258242e-005
      -7.00258242e-005 -7.00258242e-005 -7.00258242e-005
      -7.00258242e-005 -7.00258242e-005 -7.00258242e-005
      -7.00258242e-005 -7.00258242e-005 -7.00258242e-005
      -7.00258242e-005 -7.00258242e-005 -7.00258242e-005
      -7.00258242e-005 -7.00258242e-005 -7.00258242e-005
      -7.00258242e-005 -7.00258242e-005 -7.00258242e-005
      -7.00258242e-005 -7.00258242e-005 -7.00258242e-005
      -7.00258242e-005 -7.00258242e-005 -7.00258242e-005
      -7.00258242e-005 -6.36710829e-005 -7.50301479e-005
      -7.39829848e-005 -4.89150370e-005 2.05534843e-006 2.76474038e-005
      2.97701590e-005 2.12471477e-005 2.59795161e-005 2.59795161e-005
      2.59795161e-005 2.59795161e-005 2.59795161e-005 2.59795161e-005
      2.59795161e-005 2.59795161e-005 2.59795161e-005 2.59795161e-005
      2.59795161e-005 2.59795161e-005 2.59795161e-005 2.59795161e-005
      2.59795161e-005 2.59795161e-005 2.59795161e-005 2.59795161e-005
      2.59795161e-005 2.59795161e-005 2.59795161e-005 2.59795161e-005
      2.59795161e-005 2.59795161e-005 2.59795161e-005 2.59795161e-005
      2.59795161e-005 2.59795161e-005 2.59795161e-005 2.59795161e-005
      2.59795161e-005 2.59795161e-005 2.59795161e-005 2.59795161e-005
      2.59795161e-005 2.59795161e-005 2.59795161e-005 2.59795161e-005
      2.59795161e-005 2.59795161e-005 2.59795161e-005 2.59795161e-005
      2.59795161e-005 2.59795161e-005 2.59795161e-005 2.59795161e-005
      2.59795161e-005 2.59795161e-005 1.66472910e-005 2.60761553e-005
      1.70201802e-005 2.25071835e-005 -7.60193070e-005 -6.67970671e-005
      -7.18065567e-005 -6.79681179e-005 -7.19912423e-005
      -7.19912423e-005 -7.19912423e-005 -7.19912423e-005
      -7.19912423e-005 -7.19912423e-005 -7.19912423e-005
      -7.19912423e-005 -7.19912423e-005 -7.19912423e-005
      -7.19912423e-005 -7.19912423e-005 -7.19912423e-005
      -7.19912423e-005 -7.19912423e-005 -7.19912423e-005
      -7.19912423e-005 -7.19912423e-005 -7.19912423e-005
      -7.19912423e-005 -7.19912423e-005 -7.19912423e-005
      -7.19912423e-005 -7.19912423e-005 -7.19912423e-005
      -7.19912423e-005 -7.19912423e-005 -7.19912423e-005
      -7.19912423e-005 -7.19912423e-005 -7.19912423e-005
      -7.19912423e-005 -7.19912423e-005 -7.19912423e-005
      -7.19912423e-005 -7.19912423e-005 -7.19912423e-005
      -7.19912423e-005 -7.19912423e-005 -7.19912423e-005
      -7.19912423e-005 -7.19912423e-005 -7.19912423e-005
      -7.19912423e-005 -7.19912423e-005 -7.19912423e-005
      -7.19912423e-005 -7.19912423e-005 -7.45448051e-005
      -5.64027905e-005 -6.50211514e-005 3.90898185e-006 7.04690456e-006
      -1.44978219e-006 2.54941688e-006 -1.28747288e-005 2.92147229e-006
      2.92147229e-006 2.92147229e-006 2.92147229e-006 2.92147229e-006
      2.92147229e-006 2.92147229e-006 2.92147229e-006 2.92147229e-006
      2.92147229e-006 2.92147229e-006 2.92147229e-006 2.92147229e-006
      2.92147229e-006 2.92147229e-006 2.92147229e-006 2.92147229e-006
      2.92147229e-006 2.92147229e-006 2.92147229e-006 2.92147229e-006
      2.92147229e-006 2.92147229e-006 2.92147229e-006 2.92147229e-006
      2.36951291e-006 3.19745186e-006 3.47343166e-006 2.92147229e-006
      2.92147229e-006 3.19745186e-006 2.36951291e-006 2.92147229e-006
      2.92147229e-006 3.19745186e-006 2.64549271e-006 2.64549271e-006
      3.19745186e-006 2.92147229e-006 2.92147229e-006 2.64549271e-006
      2.64549271e-006 3.47343166e-006 2.36951291e-006 3.19745186e-006
      2.64549271e-006 2.64549271e-006 3.47343166e-006 8.84649671e-006
      1.04380369e-007 1.25892700e-006 -2.19171397e-006 3.36175322e-006
      3.19036644e-006 2.38054258e-006 8.01994429e-006 2.71788713e-006
      2.71788713e-006 2.71788713e-006 2.71788713e-006 2.71788713e-006
      2.71788713e-006 2.71788713e-006 2.71788713e-006 2.71788713e-006
      2.71788713e-006 2.71788713e-006 2.71788713e-006 2.71788713e-006
      2.71788713e-006 2.71788713e-006 2.71788713e-006 2.71788713e-006
      2.71788713e-006 2.71788713e-006 2.71788713e-006 2.71788713e-006
      2.71788713e-006 2.71788713e-006 2.71788713e-006 2.71788713e-006
      2.99386670e-006 2.44190733e-006 2.71788713e-006 2.71788713e-006
      2.99386670e-006 2.16592775e-006 2.71788713e-006 2.99386670e-006
      2.99386670e-006 2.44190733e-006 2.44190733e-006 2.44190733e-006
      2.71788713e-006 2.71788713e-006 2.99386670e-006 1.75639002e-006
      4.27172972e-006 9.34561569e-007 2.91734841e-006 1.37144741e-006
      5.62622154e-006 5.19098933e-007 4.33416380e-006 2.89407717e-006
      2.61809760e-006 2.61809760e-006 2.89407717e-006 2.89407717e-006
      2.34211780e-006 2.34211780e-006 2.61809760e-006 2.61809760e-006
      2.61809760e-006 2.61809760e-006 2.61809760e-006 2.61809760e-006
      2.61809760e-006 2.61809760e-006 2.61809760e-006 2.61809760e-006
      2.61809760e-006 2.61809760e-006 2.61809760e-006 2.61809760e-006
      2.61809760e-006 2.61809760e-006 2.61809760e-006 3.17005697e-006
      2.34211780e-006 2.34211780e-006 2.89407717e-006 2.06613822e-006
      3.17005697e-006 2.34211780e-006 2.34211780e-006 2.06613822e-006
      2.89407717e-006 2.61809760e-006 2.61809760e-006 3.17005697e-006
      2.89407717e-006 2.06613822e-006 2.61809760e-006 2.06613822e-006
      2.89407717e-006 2.61809760e-006 2.61809760e-006 3.17005697e-006
      2.89407717e-006 2.06613822e-006 2.61809760e-006 1.23497171e-006
      5.11586177e-006 -2.47603748e-006 5.00863644e-006 -1.30908745e-006
      -1.74290388e-010 3.90639023e-008 -9.16220813e-007 -2.71778209e-008
      -2.71778209e-008 -2.71778209e-008 -2.71778209e-008
      -2.71778209e-008 -2.71778209e-008 -2.71778209e-008
      -2.71778209e-008 -2.71778209e-008 -2.71778209e-008
      -2.71778209e-008 -2.71778209e-008 -2.71778209e-008
      -2.71778209e-008 -2.71778209e-008 -2.71778209e-008
      -2.71778209e-008 -2.71778209e-008 -2.71778209e-008
      -2.71778209e-008 -2.71778209e-008 -2.71778209e-008
      -2.71778209e-008 -2.71778209e-008 -2.71778209e-008
      -5.79137179e-007 2.48801854e-007 -2.71778209e-008 -2.71778209e-008
      -3.03157492e-007 2.48801854e-007 -2.71778209e-008 -3.03157492e-007
      2.48801854e-007 -2.71778209e-008 -2.71778209e-008 -2.71778209e-008
      -2.71778209e-008 2.48801854e-007 -3.03157492e-007 -5.85609632e-006
      1.37107181e-005 -2.57330885e-006 -9.21924220e-006 -4.13273756e-006
      5.15011816e-005 4.91908395e-005 4.64011137e-005 4.54915971e-005
      4.54915971e-005 4.54915971e-005 4.54915971e-005 4.54915971e-005
      4.54915971e-005 4.54915971e-005 4.54915971e-005 4.54915971e-005
      4.54915971e-005 4.54915971e-005 4.54915971e-005 4.54915971e-005
      4.54915971e-005 4.54915971e-005 4.54915971e-005 4.54915971e-005
      4.54915971e-005 4.54915971e-005 4.54915971e-005 4.54915971e-005
      4.54915971e-005 4.54915971e-005 4.54915971e-005 4.47502280e-005
      4.69117658e-005 4.21082987e-005 4.40567710e-005 4.86389617e-005
      2.25265794e-005 1.86226644e-005 4.15339127e-005 4.47502280e-005
      4.74637236e-005 4.18323179e-005 4.46087324e-005 4.83629847e-005
      2.28025583e-005 1.77947240e-005 4.20858705e-005 2.19523772e-005
      6.62430248e-005 2.86874056e-005 6.16641555e-005 3.19670289e-005
      1.85297067e-005 1.31815823e-005 -7.96489621e-006 -5.47742002e-006
      -5.47742002e-006 -5.47742002e-006 -5.47742002e-006
      -5.47742002e-006 -5.47742002e-006 -5.47742002e-006
      -5.47742002e-006 -5.47742002e-006 -5.47742002e-006
      -5.47742002e-006 -5.47742002e-006 -5.47742002e-006
      -5.47742002e-006 -5.47742002e-006 -5.47742002e-006
      -5.47742002e-006 -5.47742002e-006 -5.47742002e-006
      -5.47742002e-006 -5.47742002e-006 -5.47742002e-006
      -5.47742002e-006 -5.47742002e-006 -5.47742002e-006
      -5.47742002e-006 -5.47742002e-006 -5.47742002e-006
      -5.47742002e-006 -5.47742002e-006 -5.47742002e-006
      -5.47742002e-006 -5.47742002e-006 -5.47742002e-006
      -5.47742002e-006 -5.47742002e-006 -5.47742002e-006
      -5.47742002e-006 -5.47742002e-006 -5.47742002e-006
      -5.47742002e-006 -5.47742002e-006 -5.47742002e-006
      -5.47742002e-006 -5.47742002e-006 -5.47742002e-006
      -5.47742002e-006 -5.47742002e-006 5.52457095e-005 5.52457095e-005
      5.52457095e-005 5.52457095e-005 5.52457095e-005 5.52457095e-005
      5.52457095e-005 5.52457095e-005 5.52457095e-005 5.52457095e-005
      5.52457095e-005 5.52457095e-005 5.52457095e-005 5.52457095e-005
      5.52457095e-005 5.52457095e-005 5.52457095e-005 5.52457095e-005
      5.52457095e-005 5.52457095e-005 5.52457095e-005 5.52457095e-005
      5.52457095e-005 5.52457095e-005 5.52457095e-005 5.52457095e-005
      5.52457095e-005 5.52457095e-005 5.52457095e-005 5.52457095e-005
      5.52457095e-005 5.52457095e-005 5.52457095e-005 5.52457095e-005
      5.52457095e-005 5.52457095e-005 5.52457095e-005 5.52457095e-005
      5.52457095e-005 5.52457095e-005 5.52457095e-005 5.52457095e-005
      5.52457095e-005 5.52457095e-005 5.52457095e-005 5.52457095e-005
      5.52457095e-005 5.52457095e-005 2.71788713e-006 2.71788713e-006
      2.71788713e-006 2.71788713e-006 2.71788713e-006 2.71788713e-006
      2.71788713e-006 2.71788713e-006 2.71788713e-006 2.71788713e-006
      2.71788713e-006 2.71788713e-006 2.71788713e-006 2.71788713e-006
      2.71788713e-006 2.71788713e-006 2.71788713e-006 2.71788713e-006
      2.71788713e-006 2.71788713e-006 2.71788713e-006 2.71788713e-006
      2.71788713e-006 2.71788713e-006 2.71788713e-006 2.71788713e-006
      2.71788713e-006 2.71788713e-006 2.71788713e-006 2.71788713e-006
      2.71788713e-006 2.71788713e-006 2.71788713e-006 2.71788713e-006
      2.71788713e-006 2.71788713e-006 2.71788713e-006 2.71788713e-006
      2.71788713e-006 2.71788713e-006 2.27941337e-006 3.58931061e-006
      7.37333812e-006 2.92469508e-006 6.69031397e-006 -1.05254901e-006
      3.38885593e-006 5.14813973e-006 2.71788713e-006 2.71788713e-006
      2.71788713e-006 2.71788713e-006 2.71788713e-006 2.71788713e-006
      2.71788713e-006 2.71788713e-006 2.71788713e-006 2.71788713e-006
      2.71788713e-006 2.71788713e-006 2.71788713e-006 2.71788713e-006
      2.71788713e-006 2.71788713e-006 2.71788713e-006 2.71788713e-006
      2.71788713e-006 2.71788713e-006 2.71788713e-006 2.71788713e-006
      2.71788713e-006 2.71788713e-006 2.71788713e-006 2.16592775e-006
      2.99386670e-006 2.71788713e-006 2.71788713e-006 2.44190733e-006
      2.99386670e-006 2.71788713e-006 2.44190733e-006 2.99386670e-006
      2.71788713e-006 2.71788713e-006 2.71788713e-006 2.71788713e-006
      2.99386670e-006 2.44190733e-006 -8.00477551e-007 5.95956044e-006
      1.66937866e-006 5.72821079e-007 1.83454686e-005 -7.40189216e-006
      2.89633090e-006 3.10479777e-006 2.71788713e-006 2.71788713e-006
      2.71788713e-006 2.71788713e-006 2.71788713e-006 2.71788713e-006
      2.71788713e-006 2.71788713e-006 2.71788713e-006 2.71788713e-006
      2.71788713e-006 2.71788713e-006 2.71788713e-006 2.71788713e-006
      2.71788713e-006 2.71788713e-006 3.26984650e-006 2.44190733e-006
      2.44190733e-006 2.99386670e-006 2.16592775e-006 3.26984650e-006
      2.44190733e-006 2.44190733e-006 2.16592775e-006 2.99386670e-006
      2.71788713e-006 2.71788713e-006 3.26984650e-006 2.99386670e-006
      2.16592775e-006 2.71788713e-006 2.16592775e-006 2.99386670e-006
      2.71788713e-006 2.71788713e-006 3.26984650e-006 2.99386670e-006
      2.16592775e-006 2.71788713e-006 8.17840282e-006 -3.92532741e-007
      -1.65599959e-005 -1.93650121e-005 -1.49118569e-005
      -1.28005922e-005 -1.03084244e-006 -6.19419825e-006
      -1.22794036e-005 -1.22794036e-005 -1.22794036e-005
      -1.22794036e-005 -1.22794036e-005 -1.22794036e-005
      -1.22794036e-005 -1.22794036e-005 -1.22794036e-005
      -1.22794036e-005 -1.22794036e-005 -1.22794036e-005
      -1.22794036e-005 -1.22794036e-005 -1.22794036e-005
      -1.22794036e-005 -2.15152850e-005 2.83969916e-006 -2.12776431e-005
      -7.50576874e-006 -1.96952042e-005 -4.08527230e-005
      -7.24766460e-006 -1.82208551e-005 -1.26692576e-005
      -7.04057084e-006 -1.28682586e-005 -3.06646980e-005
      -3.54249678e-005 -2.73367132e-005 -1.79445833e-005
      -1.18326489e-005 -6.13495246e-008 -2.19581689e-005
      -6.60217938e-006 -1.81159176e-005 -4.44383331e-005
      -2.56192197e-005 -3.71091642e-006 -2.25677113e-007
      -2.71778209e-008 -2.71778209e-008 -2.71778209e-008
      -2.71778209e-008 -2.71778209e-008 -2.71778209e-008
      -2.71778209e-008 -2.71778209e-008 -2.71778209e-008
      -2.71778209e-008 -2.71778209e-008 -2.71778209e-008
      -2.71778209e-008 -2.71778209e-008 -2.71778209e-008
      -2.71778209e-008 -2.71778209e-008 -2.71778209e-008
      -2.71778209e-008 -2.71778209e-008 -2.71778209e-008
      -2.71778209e-008 -2.71778209e-008 -2.71778209e-008
      -2.71778209e-008 -2.71778209e-008 -2.71778209e-008
      -2.71778209e-008 -2.71778209e-008 -2.71778209e-008
      -2.71778209e-008 -2.71778209e-008 -2.71778209e-008
      -2.71778209e-008 -2.71778209e-008 -2.71778209e-008
      -2.71778209e-008 -2.71778209e-008 -2.71778209e-008
      -2.71778209e-008 -1.24069466e-005 -1.69976865e-005
      -2.78491225e-005 -2.30267051e-005 -3.88985136e-005
      -2.50929679e-005 -4.11780493e-005 -3.04510449e-005
      -2.78420539e-005 -2.78420539e-005 -2.78420539e-005
      -2.78420539e-005 -2.78420539e-005 -2.78420539e-005
      -2.78420539e-005 -2.78420539e-005 -2.78420539e-005
      -2.78420539e-005 -2.78420539e-005 -2.78420539e-005
      -2.78420539e-005 -2.78420539e-005 -2.78420539e-005
      -2.78420539e-005 -2.78420539e-005 -2.75660750e-005
      -2.75660750e-005 -2.81180346e-005 -2.78420539e-005
      -2.78420539e-005 -2.81180346e-005 -2.75660750e-005
      -2.75660750e-005 -2.86699942e-005 -2.75660750e-005
      -2.81180346e-005 -2.72900943e-005 -2.83940135e-005
      -2.72900943e-005 -2.81180346e-005 -2.77906329e-005
      -2.80200293e-005 -3.33458956e-005 -9.29002510e-007 4.67260134e-006
      1.46811572e-005 -2.08928977e-005 -5.35174740e-006 -3.35027948e-006
      -3.35027948e-006 -3.35027948e-006 -3.35027948e-006
      -3.35027948e-006 -3.35027948e-006 -3.35027948e-006
      -3.35027948e-006 -3.35027948e-006 -3.35027948e-006
      -3.35027948e-006 -3.35027948e-006 -3.35027948e-006
      -3.35027948e-006 -3.35027948e-006 -3.35027948e-006
      -3.35027948e-006 -3.35027948e-006 -3.35027948e-006
      -3.35027948e-006 -3.35027948e-006 -3.35027948e-006
      -3.35027948e-006 -3.35027948e-006 -3.35027948e-006
      -3.35027948e-006 -3.35027948e-006 -3.35027948e-006
      -3.35027948e-006 -3.35027948e-006 -3.35027948e-006
      -3.35027948e-006 4.61906575e-006 -6.71090265e-006 -4.84779730e-006
      3.68607789e-006 -5.77515275e-005 -4.26517836e-005 -4.29707870e-005
      -5.40975925e-005 -4.80627859e-005 -4.80627859e-005
      -4.80627859e-005 -4.80627859e-005 -4.80627859e-005
      -4.80627859e-005 -4.80627859e-005 -4.80627859e-005
      -4.80627859e-005 -4.80627859e-005 -4.80627859e-005
      -4.80627859e-005 -4.80627859e-005 -4.80627859e-005
      -4.80627859e-005 -4.80627859e-005 -4.80627859e-005
      -4.80627859e-005 -4.80627859e-005 -4.80627859e-005
      -4.80627859e-005 -4.80627859e-005 -4.80627859e-005
      -4.80627859e-005 -4.80627859e-005 -4.80627859e-005
      -4.80627859e-005 -4.80627859e-005 -4.80627859e-005
      -4.80627859e-005 -4.80627859e-005 -4.80627859e-005
      -5.63727153e-005 -4.52997447e-005 -5.61050074e-005
      -5.55122642e-005 1.05815197e-005 1.32158848e-005 3.43146075e-006
      1.23902892e-005 2.71788713e-006 2.71788713e-006 2.71788713e-006
      2.71788713e-006 2.71788713e-006 2.71788713e-006 2.71788713e-006
      2.71788713e-006 2.71788713e-006 2.71788713e-006 2.71788713e-006
      2.71788713e-006 2.71788713e-006 2.71788713e-006 2.71788713e-006
      2.71788713e-006 2.71788713e-006 2.71788713e-006 2.71788713e-006
      2.71788713e-006 2.71788713e-006 2.71788713e-006 2.71788713e-006
      2.71788713e-006 2.71788713e-006 2.71788713e-006 2.71788713e-006
      2.71788713e-006 2.71788713e-006 2.71788713e-006 2.71788713e-006
      2.71788713e-006 -5.81934773e-006 9.51017864e-006 -1.58334353e-006
      -3.03442071e-008 2.41797443e-006 4.46103968e-006 2.40423361e-007
      9.63952334e-006 2.71788713e-006 2.71788713e-006 2.71788713e-006
      2.71788713e-006 2.71788713e-006 2.71788713e-006 2.71788713e-006
      2.71788713e-006 2.71788713e-006 2.16592775e-006 2.99386670e-006
      3.26984650e-006 2.71788713e-006 2.71788713e-006 2.99386670e-006
      2.16592775e-006 2.71788713e-006 2.71788713e-006 2.99386670e-006
      2.44190733e-006 2.44190733e-006 2.99386670e-006 2.71788713e-006
      2.71788713e-006 2.44190733e-006 2.44190733e-006 3.26984650e-006
      2.16592775e-006 2.99386670e-006 2.44190733e-006 2.44190733e-006
      3.26984650e-006 3.52940651e-006 -6.62000411e-006 8.82049062e-006
      -3.57711542e-006 6.79042932e-006 5.17367744e-006 -3.10013007e-007
      5.28547889e-006 2.71788713e-006 2.71788713e-006 2.71788713e-006
      2.71788713e-006 2.71788713e-006 2.71788713e-006 2.71788713e-006
      2.71788713e-006 2.71788713e-006 2.99386670e-006 2.44190733e-006
      2.71788713e-006 2.71788713e-006 2.99386670e-006 2.16592775e-006
      2.71788713e-006 2.99386670e-006 2.99386670e-006 2.44190733e-006
      2.44190733e-006 2.44190733e-006 2.71788713e-006 2.71788713e-006
      2.99386670e-006 2.51670849e-006 -2.46478226e-006 6.52662357e-006
      1.54574025e-006 2.86123054e-006 4.17506772e-006 2.43653358e-006
      9.75145213e-007 2.61809760e-006 2.61809760e-006 2.61809760e-006
      2.61809760e-006 2.61809760e-006 2.61809760e-006 2.61809760e-006
      2.61809760e-006 2.61809760e-006 2.61809760e-006 2.61809760e-006
      2.61809760e-006 2.61809760e-006 2.61809760e-006 2.61809760e-006
      2.61809760e-006 2.61809760e-006 2.61809760e-006 2.61809760e-006
      2.61809760e-006 2.61809760e-006 2.61809760e-006 2.61809760e-006
      2.61809760e-006 2.61809760e-006 2.61809760e-006 2.61809760e-006
      2.61809760e-006 2.61809760e-006 2.61809760e-006 2.61809760e-006
      2.61809760e-006 8.91369723e-007 1.24446888e-005 2.68368021e-005
      2.91338965e-005 2.78690459e-005 2.87491930e-005 1.73377630e-005
      2.91128381e-005 2.75893835e-005 2.75893835e-005 2.75893835e-005
      2.75893835e-005 2.75893835e-005 2.75893835e-005 2.75893835e-005
      2.75893835e-005 2.75893835e-005 2.70374239e-005 2.78653624e-005
      2.75893835e-005 2.75893835e-005 2.73134046e-005 2.78653624e-005
      2.75893835e-005 2.73134046e-005 2.78653624e-005 2.75893835e-005
      2.75893835e-005 2.75893835e-005 2.75893835e-005 2.78653624e-005
      2.73134046e-005 2.74878985e-005 1.39254298e-005 3.93474947e-005
      2.04892494e-005 1.74297638e-005 -4.63944671e-005 -3.06245347e-005
      -4.86356039e-005 -4.54014807e-005 -4.54014807e-005
      -4.54014807e-005 -4.54014807e-005 -4.54014807e-005
      -4.54014807e-005 -4.54014807e-005 -4.54014807e-005
      -4.56774615e-005 -4.54014807e-005 -4.56774615e-005
      -4.54014807e-005 -4.54014807e-005 -4.54014807e-005
      -4.54014807e-005 -4.56774615e-005 -4.56774615e-005
      -4.48495230e-005 -4.59534422e-005 -4.48495230e-005
      -4.56774615e-005 -4.51255037e-005 -4.62294192e-005
      -4.51255037e-005 -4.64852164e-005 -4.61933923e-005
      -4.35286529e-005 -4.61051932e-005 -4.34874746e-005
      -4.77899557e-005 -4.55297741e-005 -3.86325482e-005
      -3.90474852e-005 -3.90474852e-005 -3.90474852e-005
      -3.90474852e-005 -3.90474852e-005 -3.90474852e-005
      -3.90474852e-005 -3.90474852e-005 -3.90474852e-005
      -3.90474852e-005 -3.90474852e-005 -3.90474852e-005
      -3.90474852e-005 -3.90474852e-005 -3.90474852e-005
      -3.90474852e-005 -3.90474852e-005 -3.90474852e-005
      -3.90474852e-005 -3.90474852e-005 -3.90474852e-005
      -3.90474852e-005 -3.90474852e-005 -3.90474852e-005
      -3.90474852e-005 -3.90474852e-005 -3.90474852e-005
      -3.90474852e-005 -3.90474852e-005 -3.90474852e-005
      -3.90474852e-005 -3.90474852e-005 -7.83324358e-005
      -7.83324358e-005 -7.83324358e-005 -7.83324358e-005
      -7.83324358e-005 -7.83324358e-005 -7.83324358e-005
      -7.83324358e-005 -7.83324358e-005 -7.83324358e-005
      -7.83324358e-005 -7.83324358e-005 -7.83324358e-005
      -7.83324358e-005 -7.83324358e-005 -7.83324358e-005
      -7.83324358e-005 -7.83324358e-005 -7.83324358e-005
      -7.83324358e-005 -7.83324358e-005 -7.83324358e-005
      -7.83324358e-005 -7.83324358e-005 -7.83324358e-005
      -7.83324358e-005 -7.83324358e-005 -7.83324358e-005
      -7.83324358e-005 -7.83324358e-005 -7.83324358e-005
      -7.83324358e-005 2.71788713e-006 2.71788713e-006 2.71788713e-006
      2.71788713e-006 2.71788713e-006 2.71788713e-006 2.71788713e-006
      2.71788713e-006 2.71788713e-006 2.71788713e-006 2.71788713e-006
      2.71788713e-006 2.71788713e-006 2.71788713e-006 2.71788713e-006
      2.71788713e-006 2.71788713e-006 2.71788713e-006 2.71788713e-006
      2.71788713e-006 2.71788713e-006 2.71788713e-006 2.71788713e-006
      2.71788713e-006 -6.72877036e-007 5.14939757e-006 3.53348105e-006
      5.29233375e-006 1.12108773e-006 3.54330638e-007 2.25242434e-006
      3.83817724e-006 2.71788713e-006 2.71788713e-006 2.71788713e-006
      2.71788713e-006 2.71788713e-006 2.71788713e-006 2.71788713e-006
      2.71788713e-006 2.71788713e-006 2.16592775e-006 2.99386670e-006
      2.71788713e-006 2.71788713e-006 2.44190733e-006 2.99386670e-006
      2.71788713e-006 2.44190733e-006 2.99386670e-006 2.71788713e-006
      2.71788713e-006 2.71788713e-006 2.71788713e-006 2.99386670e-006
      2.44190733e-006 -1.21376411e-006 2.14510442e-006 3.24197936e-006
      2.05739980e-006 1.79065610e-005 -4.88671094e-006 2.10790313e-006
      2.51667871e-006 3.26984650e-006 2.44190733e-006 2.44190733e-006
      2.99386670e-006 2.16592775e-006 3.26984650e-006 2.44190733e-006
      2.44190733e-006 2.16592775e-006 2.99386670e-006 2.71788713e-006
      2.71788713e-006 3.26984650e-006 2.99386670e-006 2.16592775e-006
      2.71788713e-006 2.16592775e-006 2.99386670e-006 2.71788713e-006
      2.71788713e-006 3.26984650e-006 2.99386670e-006 2.16592775e-006
      2.71788713e-006 -1.42363035e-006 5.12269207e-006 3.15268403e-006
      7.11814721e-007 9.89687123e-006 -3.83784663e-006 7.30690317e-006
      1.44644946e-006 2.52312498e-006 3.38339078e-006 2.05238325e-006
      2.91264905e-006 2.91264905e-006 2.60434263e-006 2.55545183e-006
      2.52312498e-006 1.30799867e-006 3.38339078e-006 2.05238325e-006
      4.12777536e-006 4.12777536e-006 2.32836283e-006 1.61630521e-006
      1.30799867e-006 4.40375516e-006 1.03201899e-006 2.71788713e-006
      2.52312498e-006 5.50533696e-006 1.77874040e-006 4.95337736e-006
      -6.95628160e-008 3.10741120e-006 2.36068968e-006 2.60434263e-006
      3.46460843e-006 2.52312498e-006 3.10741120e-006 2.79910478e-006
      1.97116560e-006 2.91264905e-006 2.52312498e-006 3.38339078e-006
      2.63666948e-006 2.24714540e-006 2.99386670e-006 2.52312498e-006
      2.71788713e-006 2.44190733e-006 2.24714540e-006 3.26984650e-006
      2.75021375e-006 2.40958047e-006 2.83143140e-006 2.05238325e-006
      3.46460843e-006 7.90870490e-006 2.92477562e-005 3.22235064e-005
      2.90889129e-005 2.96949984e-005 3.03558427e-005 3.00613356e-005
      3.75393683e-005 3.15094876e-005 3.15094876e-005 3.15094876e-005
      3.15094876e-005 3.15094876e-005 3.15094876e-005 3.15094876e-005
      3.15094876e-005 3.15094876e-005 3.15094876e-005 3.15094876e-005
      3.15094876e-005 3.15094876e-005 3.15094876e-005 3.15094876e-005
      3.15094876e-005 3.23685599e-005 2.85219412e-005 2.50348312e-005
      5.60725821e-005 3.54066106e-005 4.15923932e-005 4.08702617e-005
      3.33515345e-005 3.98491102e-005 3.98491102e-005 3.98491102e-005
      3.98491102e-005 3.98491102e-005 3.98491102e-005 3.98491102e-005
      3.98491102e-005 3.98491102e-005 3.98491102e-005 3.98491102e-005
      3.98491102e-005 3.98491102e-005 3.98491102e-005 3.98491102e-005
      3.98491102e-005 4.07381413e-005 4.16237854e-005 3.86461070e-005
      4.12085647e-005 9.95214305e-006 1.25146016e-005 9.61741989e-006
      1.09976718e-005 1.10575093e-005 1.10575093e-005 1.10575093e-005
      1.10575093e-005 1.10575093e-005 1.10575093e-005 1.10575093e-005
      1.10575093e-005 1.10575093e-005 1.10575093e-005 1.10575093e-005
      1.10575093e-005 1.10575093e-005 1.10575093e-005 1.10575093e-005
      1.10575093e-005 1.19636625e-005 8.79688832e-006 1.13516971e-005
      1.27329167e-005 1.37527434e-006 2.75649359e-006 4.55485224e-006
      1.88268632e-006 2.71788713e-006 2.71788713e-006 2.71788713e-006
      2.71788713e-006 2.71788713e-006 2.71788713e-006 2.71788713e-006
      2.71788713e-006 2.71788713e-006 2.71788713e-006 2.71788713e-006
      2.71788713e-006 2.71788713e-006 2.71788713e-006 2.71788713e-006
      2.71788713e-006 3.01779960e-006 3.26984650e-006 8.57173177e-007
      4.89398963e-006 3.31771207e-006 3.05720869e-006 1.59638898e-006
      4.99116959e-006 2.71788713e-006 2.71788713e-006 2.99386670e-006
      2.44190733e-006 2.44190733e-006 2.99386670e-006 2.71788713e-006
      2.71788713e-006 2.44190733e-006 2.44190733e-006 3.26984650e-006
      2.16592775e-006 2.99386670e-006 2.44190733e-006 2.44190733e-006
      3.26984650e-006 -1.47769356e-007 -2.68122003e-005 -5.89080446e-006
      -6.34573007e-006 -3.91594149e-005 -3.62463870e-005
      -1.64544708e-005 -9.89880118e-006 -1.30850422e-005
      -7.45635543e-006 -1.38360028e-005 -3.16324440e-005
      -3.63927102e-005 -2.80284785e-005 -1.86363468e-005
      -1.22484334e-005 9.02076565e-008 -2.57846241e-005 -4.93288508e-006
      -1.39560498e-005 -4.26664446e-005 -2.38756274e-005 8.07385049e-007
      -2.69084751e-007 2.71788713e-006 2.71788713e-006 1.22678114e-006
      1.22678114e-006 1.22678114e-006 2.71788713e-006 4.20899278e-006
      4.20899278e-006 4.20899278e-006 4.20899278e-006 2.71788713e-006
      2.71788713e-006 2.71788713e-006 2.71788713e-006 2.71788713e-006
      2.71788713e-006 -1.35766868e-006 6.35316110e-006 2.14528191e-005
      3.44643740e-005 1.98291727e-005 3.45975641e-005 1.35216314e-005
      2.57143020e-005 2.30136593e-005 2.50567246e-005 2.62718513e-005
      2.62718513e-005 2.47807457e-005 2.32896400e-005 2.50567246e-005
      2.45047668e-005 3.17737176e-005 2.74148551e-005 2.41132038e-005
      2.25294025e-005 2.77068921e-005 9.90713888e-005 8.89522198e-005
      1.06499218e-004 9.74908908e-005 9.74908908e-005 9.74908908e-005
      9.74908908e-005 9.74908908e-005 9.74908908e-005 9.74908908e-005
      9.74908908e-005 1.06998188e-004 9.04857006e-005 9.60256657e-005
      1.15775962e-004 8.74983598e-005 1.11087211e-004 1.01189951e-004
      1.93386677e-005 2.12602426e-005 2.24691757e-005 1.96280507e-005
      2.27513501e-005 2.11191564e-005 1.16549934e-004 1.15199917e-004
      2.11191564e-005 2.14013307e-005 1.81369451e-005 2.11191564e-005
      1.96280507e-005 1.18041040e-004 1.18182128e-004 1.18041040e-004
      1.94869644e-005 8.38447231e-005 8.38447231e-005 8.38447231e-005
      8.38447231e-005 8.38447231e-005 8.38447231e-005 8.38447231e-005
      8.38447231e-005 8.38447231e-005 8.38447231e-005 8.38447231e-005
      8.38447231e-005 8.38447231e-005 8.38447231e-005 8.38447231e-005
      8.38447231e-005 -6.36230325e-005 -6.36230325e-005 -6.36230325e-005
      -6.36230325e-005 -6.36230325e-005 -6.36230325e-005
      -6.36230325e-005 -6.36230325e-005 -6.26705805e-005
      -7.09815067e-005 -6.57697019e-005 -4.82960495e-005
      -7.50773906e-005 -5.92662764e-005 -6.34054741e-005
      -2.98764940e-006 2.44190733e-006 2.99386670e-006 2.71788713e-006
      2.71788713e-006 2.71788713e-006 2.71788713e-006 2.99386670e-006
      2.44190733e-006 -7.83645010e-006 5.91191974e-006 5.76323282e-006
      -1.79571384e-006 1.63022487e-005 -4.36476012e-006 -8.34893854e-007
      2.40521445e-006 2.06613822e-006 2.89407717e-006 2.61809760e-006
      2.61809760e-006 3.17005697e-006 2.89407717e-006 2.06613822e-006
      2.61809760e-006 3.40479210e-006 2.37609515e-006 1.93658661e-006
      3.94841891e-006 2.80814197e-006 6.49156664e-006 3.48333765e-006
      2.09005839e-006 -1.76511639e-005 1.94912864e-005 -2.03458762e-006
      2.80249674e-006 1.15620933e-005 1.28097108e-005 1.24946077e-004
      1.50193242e-004 1.32392874e-004 -1.39024545e-004 -1.58979063e-004
      -1.41324010e-004 -1.48631792e-004 -1.36387069e-004
      -1.54922731e-004 -1.43321595e-004 -1.44098012e-004
      -1.03971288e-004 -1.28675063e-004 -7.37605078e-005
      -1.05092397e-004 -1.22772282e-004 -1.03227278e-004
      -1.06098320e-004 -1.09885565e-004 -1.02974329e-004
      -9.15090641e-005 2.67669257e-005 5.27976263e-005 3.81085192e-005
      2.78705829e-005 4.49144209e-005 3.73708317e-005 4.34904869e-005
      3.59477381e-005 3.18060993e-005 -1.74608940e-004 -1.84930454e-004
      -1.91255749e-004 -1.91491548e-004 -1.97800648e-004
      -1.71876556e-004 -2.02738505e-004 -1.73939334e-004
      -2.18780202e-004 -1.87854428e-004 -2.16163317e-004
      -1.93340282e-004 -2.09509846e-004 -1.92509789e-004
      -1.86129124e-004 -5.42326597e-006 2.27412129e-005 8.61253557e-006
      -7.66884386e-006 1.31448369e-005 6.54191626e-006 2.55340478e-006
      6.08322307e-006 -1.74849697e-006 1.11066620e-005 5.61805837e-006
      -3.03648471e-006 6.76681793e-006 1.15087832e-005 -7.61976889e-006
      -5.28059209e-005 -6.87921784e-005 -5.89517003e-005 6.97464475e-006
      -5.92087599e-006 4.02430032e-006 -2.63248312e-005 -2.63248312e-005
      -2.63248312e-005 -2.63248312e-005 -2.63248312e-005
      -2.63248312e-005 -2.63248312e-005 -2.63248312e-005
      -2.63248312e-005 -2.63248312e-005 -2.63248312e-005
      -2.63248312e-005 -2.63248312e-005 -2.63248312e-005
      -2.63248312e-005 -2.63248312e-005 -2.63248312e-005
      -2.63248312e-005 -2.63248312e-005 -2.63248312e-005
      -2.63248312e-005 -2.63248312e-005 -2.63248312e-005
      -2.63248312e-005 -2.63248312e-005 -2.63248312e-005
      -2.63248312e-005 -2.63248312e-005 -2.63248312e-005
      -2.63248312e-005 -2.63248312e-005 -2.63248312e-005
      -2.63248312e-005 -2.63248312e-005 -2.63248312e-005
      -2.63248312e-005 -2.63248312e-005 -2.63248312e-005
      -2.63248312e-005 -2.63248312e-005 -2.63248312e-005
      -2.63248312e-005 -2.63248312e-005 -2.63248312e-005
      -2.63248312e-005 -2.63248312e-005 -2.63248312e-005
      -2.63248312e-005 -2.63248312e-005 -2.63248312e-005
      -2.63248312e-005 -2.63248312e-005 -2.63248312e-005
      -2.63248312e-005 -2.63248312e-005 -2.63248312e-005
      -4.58426730e-005 3.63964176e-007 -4.62616590e-005 -5.37218466e-006
      -3.97788826e-005 -3.29696450e-005 -3.74047304e-005
      -7.17216826e-005 -6.63032115e-005 -6.63032115e-005
      -6.63032115e-005 -6.63032115e-005 -6.63032115e-005
      -6.63032115e-005 -6.63032115e-005 -6.63032115e-005
      -6.63032115e-005 -6.63032115e-005 -6.63032115e-005
      -6.63032115e-005 -6.63032115e-005 -6.63032115e-005
      -6.63032115e-005 -6.63032115e-005 -6.63032115e-005
      -6.63032115e-005 -6.63032115e-005 -6.63032115e-005
      -6.63032115e-005 -6.63032115e-005 -6.63032115e-005
      -6.63032115e-005 -6.63032115e-005 -6.63032115e-005
      -6.63032115e-005 -6.63032115e-005 -6.63032115e-005
      -6.63032115e-005 -6.63032115e-005 -6.63032115e-005
      -6.63032115e-005 -6.63032115e-005 -6.63032115e-005
      -6.63032115e-005 -6.63032115e-005 -6.63032115e-005
      -6.63032115e-005 -6.63032115e-005 -6.63032115e-005
      -6.63032115e-005 -6.63032115e-005 -6.63032115e-005
      -6.63032115e-005 -6.63032115e-005 -6.63032115e-005
      -6.63032115e-005 -6.63032115e-005 -6.63032115e-005
      -6.63032115e-005 -6.63032115e-005 -6.63032115e-005
      -6.63032115e-005 -6.63032115e-005 -6.63032115e-005
      -7.51015104e-005 -5.16042019e-005 -8.86954076e-005
      -4.68699691e-005 -7.39972456e-005 -3.83144143e-005
      -9.85543466e-006 -3.24414723e-005 -2.27148939e-005
      -2.27148939e-005 -2.27148939e-005 -2.27148939e-005
      -2.27148939e-005 -2.27148939e-005 -2.27148939e-005
      -2.27148939e-005 -2.27148939e-005 -2.27148939e-005
      -2.27148939e-005 -2.27148939e-005 -2.27148939e-005
      -2.27148939e-005 -2.27148939e-005 -2.27148939e-005
      -2.27148939e-005 -2.27148939e-005 -2.27148939e-005
      -2.27148939e-005 -2.27148939e-005 -2.27148939e-005
      -2.27148939e-005 -2.27148939e-005 -2.27148939e-005
      -2.27148939e-005 -2.27148939e-005 -2.27148939e-005
      -2.27148939e-005 -2.27148939e-005 -2.27148939e-005
      -2.27148939e-005 -2.27148939e-005 -2.27148939e-005
      -2.27148939e-005 -2.27148939e-005 -2.27148939e-005
      -2.27148939e-005 -2.27148939e-005 -2.27148939e-005
      -2.27148939e-005 -2.27148939e-005 -2.27148939e-005
      -2.27148939e-005 -2.27148939e-005 -2.27148939e-005
      -2.27148939e-005 -2.27148939e-005 -2.27148939e-005
      -2.27148939e-005 -2.27148939e-005 -2.27148939e-005
      -2.27148939e-005 -2.27148939e-005 -2.27148939e-005
      -2.27148939e-005 -1.86226571e-005 -3.18995517e-005
      -1.59818446e-005 -5.01271388e-005 -3.16109654e-005
      -2.87950552e-005 -5.24982497e-005 -2.73813766e-005
      -3.52222160e-005 -3.52222160e-005 -3.52222160e-005
      -3.52222160e-005 -3.52222160e-005 -3.52222160e-005
      -3.52222160e-005 -3.52222160e-005 -3.52222160e-005
      -3.52222160e-005 -3.52222160e-005 -3.52222160e-005
      -3.52222160e-005 -3.52222160e-005 -3.52222160e-005
      -3.52222160e-005 -3.52222160e-005 -3.52222160e-005
      -3.52222160e-005 -3.52222160e-005 -3.52222160e-005
      -3.52222160e-005 -3.52222160e-005 -3.52222160e-005
      -3.52222160e-005 -3.52222160e-005 -3.52222160e-005
      -3.52222160e-005 -3.52222160e-005 -3.52222160e-005
      -3.52222160e-005 -3.52222160e-005 -3.52222160e-005
      -3.52222160e-005 -3.52222160e-005 -3.52222160e-005
      -3.52222160e-005 -3.52222160e-005 -3.52222160e-005
      -3.52222160e-005 -3.52222160e-005 -3.52222160e-005
      -3.52222160e-005 -3.52222160e-005 -3.52222160e-005
      -3.52222160e-005 -3.52222160e-005 -3.52222160e-005
      -3.48556096e-005 -3.75343407e-005 -2.59124936e-005
      -3.65293636e-005 -3.64569751e-005 -3.67857610e-005 4.54510009e-005
      5.51726298e-005 5.12931365e-005 5.12931365e-005 5.12931365e-005
      5.12931365e-005 5.12931365e-005 5.12931365e-005 5.12931365e-005
      5.12931365e-005 5.12931365e-005 5.12931365e-005 5.12931365e-005
      5.12931365e-005 5.12931365e-005 5.12931365e-005 5.12931365e-005
      5.12931365e-005 5.12931365e-005 5.12931365e-005 5.12931365e-005
      5.12931365e-005 5.12931365e-005 5.12931365e-005 5.12931365e-005
      5.12931365e-005 5.12931365e-005 5.12931365e-005 5.12931365e-005
      5.12931365e-005 5.12931365e-005 5.12931365e-005 5.12931365e-005
      5.12931365e-005 5.12931365e-005 5.12931365e-005 5.12931365e-005
      5.12931365e-005 5.12931365e-005 5.12931365e-005 5.12931365e-005
      5.12931365e-005 5.12931365e-005 5.12931365e-005 5.12931365e-005
      5.12931365e-005 5.12931365e-005 5.12931365e-005 5.12931365e-005
      5.12931365e-005 5.12931365e-005 5.12931365e-005 5.12931365e-005
      5.12931365e-005 5.12931365e-005 5.12931365e-005 5.12931365e-005
      5.12931365e-005 4.33721762e-005 3.21858461e-005 -6.46261105e-006
      -9.54567349e-006 3.47053101e-005 -4.80173367e-006 -1.27596350e-005
      3.23895547e-005 1.06925972e-005 1.06925972e-005 1.06925972e-005
      1.06925972e-005 1.06925972e-005 1.06925972e-005 1.06925972e-005
      1.06925972e-005 1.06925972e-005 1.06925972e-005 1.06925972e-005
      1.06925972e-005 1.06925972e-005 1.06925972e-005 1.09891762e-005
      1.09891762e-005 1.06925972e-005 1.06925972e-005 1.06925972e-005
      1.06925972e-005 1.06925972e-005 1.06925972e-005 1.06925972e-005
      1.06925972e-005 1.06925972e-005 1.06925972e-005 1.06925972e-005
      1.06925972e-005 1.06925972e-005 1.06925972e-005 1.06925972e-005
      1.06925972e-005 1.06925972e-005 1.06925972e-005 1.06925972e-005
      1.06925972e-005 1.06925972e-005 1.06925972e-005 1.03960174e-005
      1.03960174e-005 1.06925972e-005 1.06925972e-005 1.06925972e-005
      1.06925972e-005 1.06925972e-005 1.06925972e-005 1.06925972e-005
      1.06925972e-005 1.43292673e-005 -2.29362218e-008 2.18275295e-006
      3.77246215e-005 -6.23055939e-006 7.29207204e-006 -6.04123045e-007
      -8.43029193e-006 4.12379222e-006 4.12379222e-006 4.12379222e-006
      4.12379222e-006 4.12379222e-006 4.12379222e-006 4.12379222e-006
      4.12379222e-006 4.12379222e-006 4.12379222e-006 4.12379222e-006
      4.12379222e-006 4.12379222e-006 4.12379222e-006 4.12379222e-006
      4.12379222e-006 4.12379222e-006 4.12379222e-006 4.12379222e-006
      4.12379222e-006 4.12379222e-006 4.12379222e-006 4.12379222e-006
      4.12379222e-006 4.12379222e-006 4.12379222e-006 4.12379222e-006
      4.12379222e-006 4.12379222e-006 4.12379222e-006 4.12379222e-006
      4.12379222e-006 4.12379222e-006 4.12379222e-006 4.12379222e-006
      4.12379222e-006 4.12379222e-006 4.12379222e-006 4.12379222e-006
      4.12379222e-006 4.12379222e-006 4.12379222e-006 4.12379222e-006
      4.12379222e-006 4.12379222e-006 4.12379222e-006 4.12379222e-006
      4.12379222e-006 4.57406713e-006 -1.27679115e-007 9.54727329e-006
      -7.90994454e-006 7.78693793e-005 6.11199939e-005 7.15080168e-005
      6.52971867e-005 6.60833393e-005 6.60833393e-005 6.60833393e-005
      6.60833393e-005 6.60833393e-005 6.60833393e-005 6.60833393e-005
      6.60833393e-005 6.60833393e-005 6.60833393e-005 6.60833393e-005
      6.60833393e-005 6.60833393e-005 6.60833393e-005 6.60833393e-005
      6.60833393e-005 6.60833393e-005 6.60833393e-005 6.60833393e-005
      6.60833393e-005 6.60833393e-005 6.60833393e-005 6.60833393e-005
      6.60833393e-005 6.60833393e-005 6.60833393e-005 6.60833393e-005
      6.60833393e-005 6.60833393e-005 6.60833393e-005 6.60833393e-005
      6.60833393e-005 6.60833393e-005 6.60833393e-005 6.60833393e-005
      6.60833393e-005 6.60833393e-005 6.60833393e-005 6.60833393e-005
      6.60833393e-005 6.60833393e-005 6.60833393e-005 6.60833393e-005
      6.60833393e-005 6.60833393e-005 6.60833393e-005 6.60833393e-005
      6.60833393e-005 6.27203990e-005 6.00730345e-005 7.30671891e-005
      5.66752824e-005 -3.39356702e-005 -4.71815511e-005 -3.84577870e-005
      -3.97286094e-005 -4.16177245e-005 -4.16177245e-005
      -4.16177245e-005 -4.16177245e-005 -4.16177245e-005
      -4.16177245e-005 -4.16177245e-005 -4.16177245e-005
      -4.16177245e-005 -4.16177245e-005 -4.16177245e-005
      -4.16177245e-005 -4.16177245e-005 -4.16177245e-005
      -4.16177245e-005 -4.16177245e-005 -4.16177245e-005
      -4.16177245e-005 -4.16177245e-005 -4.16177245e-005
      -4.16177245e-005 -4.16177245e-005 -4.16177245e-005
      -4.16177245e-005 -4.16177245e-005 -4.16177245e-005
      -4.16177245e-005 -4.16177245e-005 -4.16177245e-005
      -4.16177245e-005 -4.16177245e-005 -4.16177245e-005
      -4.16177245e-005 -4.16177245e-005 -4.16177245e-005
      -4.16177245e-005 -4.16177245e-005 -4.16177245e-005
      -4.16177245e-005 -4.16177245e-005 -4.16177245e-005
      -4.16177245e-005 -4.16177245e-005 -4.16177245e-005
      -4.16177245e-005 -4.16177245e-005 -4.16177245e-005
      -4.16177245e-005 -3.63902618e-005 -5.53785831e-005
      -4.10705215e-005 -2.38586272e-005 -4.83093063e-005
      -2.47245698e-005 -3.11587028e-005 -4.61167692e-005
      -3.52222160e-005 -3.52222160e-005 -3.52222160e-005
      -3.52222160e-005 -3.52222160e-005 -3.52222160e-005
      -3.52222160e-005 -3.52222160e-005 -3.52222160e-005
      -3.52222160e-005 -3.52222160e-005 -3.52222160e-005
      -3.52222160e-005 -3.52222160e-005 -3.52222160e-005
      -3.52222160e-005 -3.52222160e-005 -3.52222160e-005
      -3.52222160e-005 -3.52222160e-005 -3.52222160e-005
      -3.52222160e-005 -3.52222160e-005 -3.52222160e-005
      -3.52222160e-005 -3.52222160e-005 -3.52222160e-005
      -3.52222160e-005 -3.52222160e-005 -3.52222160e-005
      -3.52222160e-005 -3.52222160e-005 -3.52222160e-005
      -3.52222160e-005 -3.52222160e-005 -3.52222160e-005
      -3.52222160e-005 -3.52222160e-005 -3.52222160e-005
      -3.52222160e-005 -3.52222160e-005 -3.52222160e-005
      -3.52222160e-005 -3.52222160e-005 -3.52222160e-005
      -3.52222160e-005 -3.52222160e-005 -3.52222160e-005
      -3.53151117e-005 2.60489196e-005 2.51315923e-005 2.43239883e-005
      2.58925702e-005 2.35200259e-005 2.63765269e-005 3.37387464e-005
      2.74584654e-005 2.74584654e-005 2.74584654e-005 2.74584654e-005
      2.74584654e-005 2.74584654e-005 2.74584654e-005 2.74584654e-005
      2.80463246e-005 2.81786997e-005 2.77497456e-005 2.77232157e-005
      2.71937151e-005 2.73260903e-005 2.71671852e-005 2.71671852e-005
      2.74584654e-005 2.74584654e-005 2.74584654e-005 2.74584654e-005
      2.74584654e-005 2.74584654e-005 2.74584654e-005 2.74584654e-005
      2.69638567e-005 2.80949935e-005 2.76978681e-005 2.74584654e-005
      2.77232157e-005 2.79626183e-005 2.79626183e-005 2.70962319e-005
      2.74584654e-005 2.74584654e-005 2.74584654e-005 2.74584654e-005
      2.74584654e-005 2.74584654e-005 2.74584654e-005 2.74584654e-005
      3.27459711e-005 1.35490382e-005 3.67890971e-005 3.15380094e-005
      1.90723204e-005 9.47249464e-006 9.12556352e-005 6.52476665e-005
      7.32084736e-005 7.32084736e-005 7.32084736e-005 7.32084736e-005
      7.32084736e-005 7.32084736e-005 7.32084736e-005 7.32084736e-005
      7.32084736e-005 7.32084736e-005 7.32084736e-005 7.32084736e-005
      7.32084736e-005 7.32084736e-005 7.32084736e-005 7.32084736e-005
      7.32084736e-005 7.32084736e-005 7.32084736e-005 7.32084736e-005
      7.32084736e-005 7.32084736e-005 7.32084736e-005 7.32084736e-005
      7.32084736e-005 7.32084736e-005 7.32084736e-005 7.32084736e-005
      7.32084736e-005 7.32084736e-005 7.32084736e-005 7.32084736e-005
      7.32084736e-005 7.32084736e-005 7.32084736e-005 7.32084736e-005
      7.32084736e-005 7.32084736e-005 7.32084736e-005 7.32084736e-005
      7.32084736e-005 7.32084736e-005 7.32084736e-005 7.32084736e-005
      7.32084736e-005 7.32084736e-005 7.32084736e-005 7.32084736e-005
      8.29386117e-005 5.13954546e-005 2.40178852e-005 -2.93342218e-005
      -1.86785894e-006 -7.61324463e-006 -2.09928094e-005 5.94013363e-006
      -6.64404115e-006 -6.64404115e-006 -6.64404115e-006
      -6.64404115e-006 -6.64404115e-006 -6.64404115e-006
      -6.64404115e-006 -6.64404115e-006 -6.64404115e-006
      -6.64404115e-006 -6.64404115e-006 -6.64404115e-006
      -6.64404115e-006 -6.64404115e-006 -6.64404115e-006
      -6.64404115e-006 -6.64404115e-006 -6.64404115e-006
      -6.64404115e-006 -6.64404115e-006 -6.64404115e-006
      -6.64404115e-006 -6.64404115e-006 -6.64404115e-006
      -6.64404115e-006 -6.64404115e-006 -6.64404115e-006
      -6.64404115e-006 -6.64404115e-006 -6.64404115e-006
      -6.64404115e-006 -6.64404115e-006 -6.64404115e-006
      -6.64404115e-006 -6.64404115e-006 -6.64404115e-006
      -6.64404115e-006 -6.64404115e-006 -6.64404115e-006
      -6.64404115e-006 -2.20186485e-006 1.06683001e-005 -2.79343203e-005
      3.01951985e-007 -1.34556158e-005 -2.76274077e-005 -5.34784122e-005
      -3.30810799e-005 -3.78499972e-005 -3.78499972e-005
      -3.78499972e-005 -3.78499972e-005 -3.78499972e-005
      -3.78499972e-005 -3.78499972e-005 -3.78499972e-005
      -3.78499972e-005 -3.78499972e-005 -3.78499972e-005
      -3.78499972e-005 -3.78499972e-005 -3.78499972e-005
      -3.78499972e-005 -3.78499972e-005 -3.78499972e-005
      -3.78499972e-005 -3.78499972e-005 -3.78499972e-005
      -3.78499972e-005 -3.78499972e-005 -3.78499972e-005
      -3.78499972e-005 -3.78499972e-005 -3.78499972e-005
      -3.78499972e-005 -3.78499972e-005 -3.78499972e-005
      -3.78499972e-005 -3.78499972e-005 -3.78499972e-005
      -3.78499972e-005 -3.78499972e-005 -3.78499972e-005
      -3.78499972e-005 -3.78499972e-005 -3.78499972e-005
      -3.78499972e-005 -3.78499972e-005 -4.21896984e-005
      -4.21548139e-005 -2.47055686e-005 -4.62767312e-005
      -2.80387285e-005 -5.98828083e-005 -1.35863465e-005 1.60699245e-004
      1.60192416e-004 1.60192416e-004 1.60192416e-004 1.60192416e-004
      1.60192416e-004 1.60192416e-004 1.60192416e-004 1.60192416e-004
      1.60192416e-004 1.60192416e-004 1.60192416e-004 1.60192416e-004
      1.60192416e-004 1.60192416e-004 1.60192416e-004 1.60192416e-004
      1.60192416e-004 1.60192416e-004 1.60192416e-004 1.60192416e-004
      1.60192416e-004 1.60192416e-004 1.60192416e-004 1.60192416e-004
      1.60192416e-004 1.60192416e-004 1.60192416e-004 1.60192416e-004
      1.60192416e-004 1.60192416e-004 1.60192416e-004 1.60192416e-004
      1.60192416e-004 1.60192416e-004 1.60192416e-004 1.60192416e-004
      1.60192416e-004 1.60192416e-004 1.60192416e-004 1.60192416e-004
      1.60192416e-004 1.60192416e-004 1.60192416e-004 1.60192416e-004
      1.60192416e-004 1.60192416e-004 1.60192416e-004 1.60192416e-004
      -3.69401678e-005 -3.69401678e-005 -3.69401678e-005
      -3.69401678e-005 -3.69401678e-005 -3.69401678e-005
      -3.69401678e-005 -3.69401678e-005 -3.69401678e-005
      -3.69401678e-005 -3.69401678e-005 -3.69401678e-005
      -3.69401678e-005 -3.69401678e-005 -3.69401678e-005
      -3.69401678e-005 -3.69401678e-005 -3.69401678e-005
      -3.69401678e-005 -3.69401678e-005 -3.69401678e-005
      -3.69401678e-005 -3.69401678e-005 -3.69401678e-005
      -3.69401678e-005 -3.69401678e-005 -3.69401678e-005
      -3.69401678e-005 -3.69401678e-005 -3.69401678e-005
      -3.69401678e-005 -3.69401678e-005 -3.69401678e-005
      -3.69401678e-005 -3.69401678e-005 -3.69401678e-005
      -3.69401678e-005 -3.69401678e-005 -3.69401678e-005
      -3.69401678e-005 -3.69401678e-005 -3.69401678e-005
      -3.69401678e-005 -3.69401678e-005 -3.69401678e-005
      -3.69401678e-005 -3.69401678e-005 -3.69401678e-005
      -3.52222160e-005 -3.52222160e-005 -3.52222160e-005
      -3.52222160e-005 -3.52222160e-005 -3.52222160e-005
      -3.52222160e-005 -3.52222160e-005 -3.52222160e-005
      -3.52222160e-005 -3.52222160e-005 -3.52222160e-005
      -3.52222160e-005 -3.52222160e-005 -3.52222160e-005
      -3.52222160e-005 -3.52222160e-005 -3.52222160e-005
      -3.52222160e-005 -3.52222160e-005 -3.52222160e-005
      -3.52222160e-005 -3.52222160e-005 -3.52222160e-005
      -3.52222160e-005 -3.52222160e-005 -3.52222160e-005
      -3.52222160e-005 -3.52222160e-005 -3.52222160e-005
      -3.52222160e-005 -3.52222160e-005 -3.52222160e-005
      -3.52222160e-005 -3.52222160e-005 -3.52222160e-005
      -3.52222160e-005 -3.52222160e-005 -3.52222160e-005
      -3.52222160e-005 -3.33415264e-005 -6.74511466e-005
      -1.91672225e-005 -2.83935915e-005 -5.16111722e-005
      -2.84395192e-005 -1.35544551e-005 1.68965960e-006 1.64885168e-005
      1.64885168e-005 1.64885168e-005 1.64885168e-005 1.64885168e-005
      1.64885168e-005 1.64885168e-005 1.64885168e-005 1.64885168e-005
      1.64885168e-005 1.64885168e-005 1.64885168e-005 1.64885168e-005
      1.64885168e-005 1.64885168e-005 1.64885168e-005 1.64885168e-005
      1.64885168e-005 1.64885168e-005 1.64885168e-005 1.64885168e-005
      1.64885168e-005 1.64885168e-005 1.64885168e-005 1.64885168e-005
      1.64885168e-005 1.64885168e-005 1.64885168e-005 1.64885168e-005
      1.64885168e-005 1.64885168e-005 1.64885168e-005 1.64885168e-005
      1.64885168e-005 1.64885168e-005 1.64885168e-005 1.64885168e-005
      1.64885168e-005 1.64885168e-005 1.64885168e-005 2.43221784e-005
      3.06170114e-005 8.74194757e-006 2.03247018e-005 7.48738603e-006
      6.93585971e-005 7.41757904e-005 5.30718426e-005 6.10747302e-005
      6.10747302e-005 6.10747302e-005 6.10747302e-005 6.10747302e-005
      6.10747302e-005 6.10747302e-005 6.10747302e-005 6.10747302e-005
      6.10747302e-005 6.10747302e-005 6.10747302e-005 6.10747302e-005
      6.10747302e-005 6.10747302e-005 6.10747302e-005 6.10747302e-005
      6.10747302e-005 6.10747302e-005 6.10747302e-005 6.10747302e-005
      6.10747302e-005 6.10747302e-005 6.10747302e-005 6.10747302e-005
      6.10747302e-005 6.10747302e-005 6.10747302e-005 6.10747302e-005
      6.10747302e-005 6.10747302e-005 6.10747302e-005 6.10747302e-005
      6.10747302e-005 6.10747302e-005 6.10747302e-005 6.10747302e-005
      6.10747302e-005 6.10747302e-005 6.10747302e-005 4.36830560e-005
      8.28379780e-005 -7.16490758e-005 -9.54033312e-005 -4.40689619e-005
      -6.43144158e-005 -8.74329999e-005 -4.49674990e-005
      -6.63032115e-005 -6.63032115e-005 -6.63032115e-005
      -6.63032115e-005 -6.63032115e-005 -6.63032115e-005
      -6.63032115e-005 -6.63032115e-005 -6.63032115e-005
      -6.63032115e-005 -6.63032115e-005 -6.63032115e-005
      -6.63032115e-005 -6.63032115e-005 -6.63032115e-005
      -6.63032115e-005 -6.63032115e-005 -6.63032115e-005
      -6.63032115e-005 -6.63032115e-005 -6.63032115e-005
      -6.63032115e-005 -6.63032115e-005 -6.63032115e-005
      -6.63032115e-005 -6.63032115e-005 -6.63032115e-005
      -6.63032115e-005 -6.63032115e-005 -6.63032115e-005
      -6.63032115e-005 -6.63032115e-005 -4.43047975e-005
      -9.04978733e-005 -6.31701696e-005 -4.66896709e-005
      -9.25859204e-005 -7.63516582e-005 -1.34472257e-005
      -5.52718193e-005 -3.52222160e-005 -3.52222160e-005
      -3.52222160e-005 -3.52222160e-005 -3.52222160e-005
      -3.52222160e-005 -3.52222160e-005 -3.52222160e-005
      -3.52222160e-005 -3.52222160e-005 -3.52222160e-005
      -3.52222160e-005 -3.52222160e-005 -3.52222160e-005
      -3.52222160e-005 -3.52222160e-005 -3.52222160e-005
      -3.52222160e-005 -3.52222160e-005 -3.52222160e-005
      -3.52222160e-005 -3.52222160e-005 -3.52222160e-005
      -3.52222160e-005 -3.52222160e-005 -3.52222160e-005
      -3.52222160e-005 -3.52222160e-005 -3.52222160e-005
      -3.52222160e-005 -3.52222160e-005 -3.52222160e-005
      -3.52222160e-005 -3.52222160e-005 -3.52222160e-005
      -3.52222160e-005 -3.52222160e-005 -3.52222160e-005
      -3.52222160e-005 -3.52222160e-005 -4.75376655e-005
      -3.75408745e-005 -3.64202824e-005 -2.03189229e-005
      -2.87627627e-005 -3.35786353e-005 -4.26942970e-005
      -2.81202247e-005 -3.29580362e-005 -3.29580362e-005
      -3.29580362e-005 -3.47345740e-005 -3.47345740e-005
      -3.47345740e-005 -3.47345740e-005 -3.47345740e-005
      -3.47345740e-005 -3.47345740e-005 -3.47345740e-005
      -3.47345740e-005 -3.47345740e-005 -3.47345740e-005
      -3.47345740e-005 -3.47345740e-005 -3.49993243e-005
      -3.44698237e-005 -3.47345740e-005 -3.46021989e-005
      -3.47345740e-005 -3.48669491e-005 -3.46021989e-005
      -3.48669491e-005 -3.47345740e-005 -3.47345740e-005
      -3.47345740e-005 -3.47345740e-005 -3.47345740e-005
      -3.47345740e-005 -3.47345740e-005 -3.47345740e-005
      -2.67040177e-005 -5.16596592e-005 -4.24411701e-005
      -4.90655148e-005 -8.48909476e-005 -6.16740435e-005
      -5.87093491e-005 -8.57116902e-005 -6.91639216e-005
      -6.91639216e-005 -6.91639216e-005 -6.91639216e-005
      -6.91639216e-005 -6.91639216e-005 -6.91639216e-005
      -6.91639216e-005 -6.91639216e-005 -6.91639216e-005
      -6.91639216e-005 -6.91639216e-005 -6.91639216e-005
      -6.91639216e-005 -6.91639216e-005 -6.91639216e-005
      -6.91639216e-005 -6.91639216e-005 -6.91639216e-005
      -6.91639216e-005 -6.91639216e-005 -6.91639216e-005
      -6.91639216e-005 -6.91639216e-005 -6.91639216e-005
      -6.91639216e-005 -6.91639216e-005 -6.91639216e-005
      -6.91639216e-005 -6.91639216e-005 -6.91639216e-005
      -6.91639216e-005 -6.92813192e-005 -6.83952094e-005
      -6.94803093e-005 -7.43787896e-005 1.19130054e-005 9.45995396e-007
      7.10750555e-007 1.27037845e-006 4.12379222e-006 4.12379222e-006
      4.12379222e-006 4.12379222e-006 4.12379222e-006 4.12379222e-006
      4.12379222e-006 4.12379222e-006 4.12379222e-006 4.12379222e-006
      4.12379222e-006 4.12379222e-006 4.12379222e-006 4.12379222e-006
      4.12379222e-006 4.12379222e-006 4.12379222e-006 4.12379222e-006
      4.12379222e-006 4.12379222e-006 4.12379222e-006 4.12379222e-006
      4.12379222e-006 4.12379222e-006 4.12379222e-006 4.12379222e-006
      4.12379222e-006 4.12379222e-006 4.12379222e-006 4.12379222e-006
      4.12379222e-006 4.12379222e-006 1.05134850e-005 -8.56774750e-006
      1.16637557e-005 -2.00184750e-005 1.06114603e-004 8.57178675e-005
      9.89671971e-005 8.24198432e-005 8.85366608e-005 8.85366608e-005
      8.85366608e-005 8.85366608e-005 8.85366608e-005 8.85366608e-005
      8.85366608e-005 8.85366608e-005 8.85366608e-005 8.85366608e-005
      8.85366608e-005 8.85366608e-005 8.85366608e-005 8.85366608e-005
      8.85366608e-005 8.85366608e-005 8.86171620e-005 8.80420557e-005
      8.80420557e-005 8.90408191e-005 8.90408191e-005 8.79615545e-005
      8.83852117e-005 8.89603180e-005 8.85366608e-005 8.85366608e-005
      8.85366608e-005 8.85366608e-005 8.85366608e-005 8.85366608e-005
      8.85366608e-005 8.85366608e-005 8.95699341e-005 7.56659647e-005
      1.22716665e-004 8.44611623e-006 -4.85389319e-006 1.40042957e-005
      9.95617302e-006 2.13407675e-005 1.84210930e-005 1.84210930e-005
      1.84210930e-005 1.84210930e-005 1.84210930e-005 1.84210930e-005
      1.84210930e-005 1.84210930e-005 1.84210930e-005 1.84210930e-005
      1.84210930e-005 1.84210930e-005 1.84210930e-005 1.84210930e-005
      1.84210930e-005 1.84210930e-005 1.84210930e-005 1.84210930e-005
      1.84210930e-005 1.84210930e-005 1.84210930e-005 1.84210930e-005
      1.84210930e-005 1.84210930e-005 1.84210930e-005 1.84210930e-005
      1.84210930e-005 1.84210930e-005 1.84210930e-005 1.84210930e-005
      1.84210930e-005 1.84210930e-005 1.34127622e-005 1.76429251e-006
      -1.62597735e-005 8.28905377e-006 -4.55298550e-006 3.55236853e-006
      -7.10874383e-006 4.97214842e-007 4.52477070e-006 4.52477070e-006
      4.52477070e-006 4.52477070e-006 4.52477070e-006 4.52477070e-006
      4.52477070e-006 4.52477070e-006 4.52477070e-006 4.52477070e-006
      4.52477070e-006 4.52477070e-006 4.52477070e-006 4.52477070e-006
      4.52477070e-006 4.52477070e-006 4.52477070e-006 4.52477070e-006
      4.52477070e-006 4.52477070e-006 4.52477070e-006 4.52477070e-006
      4.52477070e-006 4.52477070e-006 6.90129718e-006 -1.76109643e-005
      6.94868004e-006 2.98045143e-005 -1.82290441e-005 -5.39558278e-006
      8.55490543e-006 -2.75200109e-005 -1.24590370e-005 -1.24590370e-005
      -1.24590370e-005 -1.24590370e-005 -1.24590370e-005
      -1.24590370e-005 -1.24590370e-005 -1.24590370e-005
      -1.24590370e-005 -1.24590370e-005 -1.24590370e-005
      -1.24590370e-005 -1.24590370e-005 -1.24590370e-005
      -1.24590370e-005 -1.24590370e-005 -1.24590370e-005
      -1.24590370e-005 -1.24590370e-005 -1.24590370e-005
      -1.24590370e-005 -1.24590370e-005 -1.24590370e-005
      -1.24590370e-005 -1.24590370e-005 -1.24590370e-005
      -1.24590370e-005 -1.24590370e-005 -1.24590370e-005
      -1.24590370e-005 -1.24590370e-005 -1.24590370e-005
      -5.40969495e-006 -1.36796098e-005 -1.71621159e-005
      -7.04414742e-006 -7.47986496e-006 -1.09294915e-005
      -1.05202832e-006 -1.04245819e-005 -4.85317969e-006
      -4.85317969e-006 -4.85317969e-006 -4.85317969e-006
      -4.85317969e-006 -4.85317969e-006 -4.85317969e-006
      -4.85317969e-006 -4.85317969e-006 -4.85317969e-006
      -4.85317969e-006 -4.85317969e-006 -4.85317969e-006
      -4.85317969e-006 -4.85317969e-006 -4.85317969e-006
      -4.85317969e-006 -4.85317969e-006 -4.85317969e-006
      -4.85317969e-006 -4.85317969e-006 -4.85317969e-006
      -4.85317969e-006 -4.85317969e-006 -5.80718824e-006
      -6.11743690e-006 -1.32816949e-005 -5.97161988e-006 1.25123570e-005
      -9.18359456e-006 3.17184240e-005 1.18564240e-005 1.38030300e-005
      1.38030300e-005 1.38030300e-005 1.38030300e-005 1.38030300e-005
      1.38030300e-005 1.38030300e-005 1.38030300e-005 1.38030300e-005
      1.38030300e-005 1.38030300e-005 1.38030300e-005 1.38030300e-005
      1.38030300e-005 1.38030300e-005 1.38030300e-005 1.38030300e-005
      1.38030300e-005 1.38030300e-005 1.38030300e-005 1.38030300e-005
      1.38030300e-005 1.38030300e-005 1.38030300e-005 7.63357457e-006
      2.76778446e-005 -1.57442573e-005 2.28574645e-005 8.64384128e-006
      1.21451721e-005 7.09899541e-006 -4.83861040e-005 -4.69099505e-005
      -4.69099505e-005 -4.69099505e-005 -4.69099505e-005
      -4.69099505e-005 -4.69099505e-005 -4.69099505e-005
      -4.69099505e-005 -4.69099505e-005 -4.69099505e-005
      -4.69099505e-005 -4.69099505e-005 -4.69099505e-005
      -4.69099505e-005 -4.69099505e-005 -4.69099505e-005
      -4.69099505e-005 -4.69099505e-005 -4.69099505e-005
      -4.69099505e-005 -4.69099505e-005 -4.69099505e-005
      -4.69099505e-005 -4.69099505e-005 -4.69099505e-005
      -4.69099505e-005 -4.69099505e-005 -4.69099505e-005
      -4.69099505e-005 -4.69099505e-005 -4.69099505e-005
      -4.69099505e-005 -3.52222160e-005 -3.52222160e-005
      -3.52222160e-005 -3.52222160e-005 -3.52222160e-005
      -3.52222160e-005 -3.52222160e-005 -3.52222160e-005
      -3.47985588e-005 -3.53736650e-005 -3.57973222e-005
      -3.47180612e-005 -3.47180612e-005 -3.57168246e-005
      -3.57168246e-005 -3.51417184e-005 -3.52222160e-005
      -3.52222160e-005 -3.52222160e-005 -3.52222160e-005
      -3.52222160e-005 -3.52222160e-005 -3.52222160e-005
      -3.52222160e-005 -3.52222160e-005 -3.52222160e-005
      -3.52222160e-005 -3.52222160e-005 -3.52222160e-005
      -3.52222160e-005 -3.52222160e-005 -3.52222160e-005
      -1.43140962e-004 -1.43140962e-004 -1.43140962e-004
      -1.43140962e-004 -1.43140962e-004 -1.43140962e-004
      -1.43140962e-004 -1.43140962e-004 -1.43140962e-004
      -1.43140962e-004 -1.43140962e-004 -1.43140962e-004
      -1.43140962e-004 -1.43140962e-004 -1.43140962e-004
      -1.43140962e-004 -1.43140962e-004 -1.43140962e-004
      -1.43140962e-004 -1.43140962e-004 -1.43140962e-004
      -1.43140962e-004 -1.43140962e-004 -1.43140962e-004
      -1.45739512e-004 -1.52360924e-004 -1.34412316e-004
      -1.38094634e-004 -1.45395781e-004 -1.39310563e-004
      -1.48847306e-004 -3.50017799e-005 -3.52222160e-005
      -3.52222160e-005 -3.52222160e-005 -3.52222160e-005
      -3.52222160e-005 -3.52222160e-005 -3.52222160e-005
      -3.52222160e-005 -3.52222160e-005 -3.52222160e-005
      -3.52222160e-005 -3.52222160e-005 -3.52222160e-005
      -3.52222160e-005 -3.52222160e-005 -3.52222160e-005
      -3.52222160e-005 -3.52222160e-005 -3.52222160e-005
      -3.52222160e-005 -3.52222160e-005 -3.52222160e-005
      -3.52222160e-005 -3.52222160e-005 -3.30215989e-005
      -3.98051161e-005 -3.51105155e-005 -3.58410616e-005
      -3.74692099e-005 -6.00104750e-006 -5.63897629e-006
      -6.14515557e-006 -5.13280793e-006 -5.13280793e-006
      -5.13280793e-006 -5.13280793e-006 -5.13280793e-006
      -5.13280793e-006 -5.13280793e-006 -5.13280793e-006
      -5.13280793e-006 -5.13280793e-006 -5.13280793e-006
      -5.13280793e-006 -5.13280793e-006 -5.13280793e-006
      -5.13280793e-006 -5.13280793e-006 -5.13280793e-006
      -5.13280793e-006 -5.13280793e-006 -5.13280793e-006
      -5.13280793e-006 -5.13280793e-006 -5.13280793e-006
      -5.13280793e-006 -5.37379174e-006 -3.01717932e-006
      -3.54102340e-005 -3.59389560e-005 -3.63615509e-005
      -3.77106735e-005 -3.52136194e-005 -3.42196909e-005
      -3.52222160e-005 -3.52222160e-005 -3.52222160e-005
      -3.52222160e-005 -3.52222160e-005 -3.52222160e-005
      -3.52222160e-005 -3.52222160e-005 -3.52222160e-005
      -3.52222160e-005 -3.52222160e-005 -3.52222160e-005
      -3.52222160e-005 -3.52222160e-005 -3.52222160e-005
      -3.52222160e-005 -3.65461892e-005 -4.34987414e-005
      -2.93047906e-005 -4.08892265e-005 -2.76612518e-005
      -3.86688989e-005 -8.25306197e-005 -9.17232610e-005
      -8.52006633e-005 -8.52006633e-005 -8.52006633e-005
      -8.52006633e-005 -8.52006633e-005 -8.52006633e-005
      -8.52006633e-005 -8.52006633e-005 -8.52006633e-005
      -8.52006633e-005 -8.52006633e-005 -8.52006633e-005
      -8.52006633e-005 -8.52006633e-005 -8.52006633e-005
      -8.52006633e-005 -8.52006633e-005 -8.52006633e-005
      -8.52006633e-005 -8.52006633e-005 -8.52006633e-005
      -8.52006633e-005 -8.52006633e-005 -8.52006633e-005
      -8.52022349e-005 3.18137281e-005 5.62671376e-005 6.31570001e-005
      4.56592934e-005 5.47825366e-005 6.77548087e-005 5.48587304e-005
      5.63522299e-005 5.63522299e-005 5.63522299e-005 5.63522299e-005
      5.63522299e-005 5.63522299e-005 5.63522299e-005 5.63522299e-005
      5.63522299e-005 5.63522299e-005 5.63522299e-005 5.63522299e-005
      5.63522299e-005 5.63522299e-005 5.63522299e-005 5.63522299e-005
      4.33510359e-005 6.40000071e-005 7.17255753e-005 1.70194980e-004
      1.78492308e-004 1.79420196e-004 1.87503887e-004 1.77582799e-004
      1.80187402e-004 1.78446266e-004 1.79815630e-004 1.79525538e-004
      1.80055038e-004 1.78923889e-004 1.79188646e-004 1.79790281e-004
      1.79418508e-004 1.79418508e-004 1.79418508e-004 1.79418508e-004
      1.79418508e-004 1.79418508e-004 1.79418508e-004 1.79418508e-004
      1.83730663e-004 1.77213413e-004 1.78978837e-004 1.94821070e-004
      4.02857659e-005 5.80946325e-005 5.61269298e-005 4.68000180e-005
      5.63522299e-005 5.63522299e-005 5.63522299e-005 5.63522299e-005
      5.63522299e-005 5.63522299e-005 5.63522299e-005 5.63522299e-005
      5.63522299e-005 5.63522299e-005 5.63522299e-005 5.63522299e-005
      5.63522299e-005 5.63522299e-005 5.63522299e-005 5.63522299e-005
      4.73973560e-005 4.51111882e-005 5.00359311e-005 5.72529825e-005
      5.95986312e-005 6.72374299e-005 7.09805463e-005 6.84613769e-005
      6.60833393e-005 6.60833393e-005 6.60833393e-005 6.60833393e-005
      6.60833393e-005 6.60833393e-005 6.60833393e-005 6.60833393e-005
      6.60833393e-005 6.60833393e-005 6.60833393e-005 6.60833393e-005
      6.60833393e-005 6.60833393e-005 6.60833393e-005 6.60833393e-005
      7.12076871e-005 6.13270458e-005 6.90092638e-005 -5.09882011e-005
      -3.94594572e-005 -4.90296770e-005 -2.93856538e-005
      -3.03547968e-005 -3.52222160e-005 -3.52222160e-005
      -3.52222160e-005 -3.52222160e-005 -3.52222160e-005
      -3.52222160e-005 -3.52222160e-005 -3.52222160e-005
      -3.52222160e-005 -3.52222160e-005 -3.52222160e-005
      -3.52222160e-005 -3.52222160e-005 -3.52222160e-005
      -3.52222160e-005 -3.52222160e-005 -3.46603047e-005 5.17260851e-005
      4.81525167e-005 5.48210774e-005 5.33338025e-005 5.11204198e-005
      6.38354904e-005 4.94853412e-005 5.12931365e-005 5.12931365e-005
      5.12931365e-005 5.12931365e-005 5.12931365e-005 5.12931365e-005
      5.12931365e-005 5.12931365e-005 5.33422863e-005 4.70890845e-005
      4.80178569e-005 3.60189297e-005 6.15923636e-005 6.03207372e-005
      9.26359207e-005 1.08622706e-004 1.10256304e-004 1.10256304e-004
      1.10256304e-004 1.10256304e-004 1.10256304e-004 1.10256304e-004
      1.10256304e-004 1.10256304e-004 1.10256304e-004 1.10256304e-004
      1.10256304e-004 1.10256304e-004 1.10256304e-004 1.10256304e-004
      1.10256304e-004 1.10256304e-004 1.20149940e-004 7.93862564e-005
      -6.61270178e-006 -1.99480401e-005 -4.73579203e-005
      -2.24662272e-005 -3.02660537e-005 -2.55355226e-005
      -2.63248312e-005 -2.63248312e-005 -2.63248312e-005
      -2.63248312e-005 -2.63248312e-005 -2.63248312e-005
      -2.63248312e-005 -2.63248312e-005 -2.21978644e-005
      -2.73768674e-005 -1.82626191e-005 -3.99223209e-005
      -1.26312207e-005 -7.90871709e-005 -6.60977748e-005
      -6.92054309e-005 -6.45103864e-005 -6.45103864e-005
      -6.45103864e-005 -6.45103864e-005 -6.45103864e-005
      -6.45103864e-005 -6.45103864e-005 -6.45103864e-005
      -7.62441341e-005 -6.35353645e-005 -5.65419141e-005
      -4.78065667e-005 -7.38822782e-005 -5.50032273e-005
      -6.19522616e-005 4.24944046e-005 6.01739193e-005 6.01739193e-005
      6.01739193e-005 6.01739193e-005 6.01739193e-005 6.01739193e-005
      6.01739193e-005 6.01739193e-005 6.01739193e-005 6.01739193e-005
      6.01739193e-005 6.01739193e-005 6.01739193e-005 6.01739193e-005
      6.01739193e-005 6.01739193e-005 -3.52222160e-005 -3.52222160e-005
      -3.52222160e-005 -3.52222160e-005 -3.52222160e-005
      -3.52222160e-005 -3.52222160e-005 -3.52222160e-005
      -3.52222160e-005 -3.52222160e-005 -3.52222160e-005
      -3.52222160e-005 -3.52222160e-005 -3.52222160e-005
      -3.52222160e-005 -3.52222160e-005 -4.16177245e-005
      -4.16177245e-005 -4.16177245e-005 -4.16177245e-005
      -4.16177245e-005 -4.16177245e-005 -4.16177245e-005
      -4.16177245e-005 -4.92498984e-005 -3.50576374e-005
      -5.67232746e-005 -4.49111685e-005 -2.80614368e-005
      -3.53850701e-005 -4.21589357e-005 6.63342580e-005 7.43313576e-005
      7.43313576e-005 7.43313576e-005 7.43313576e-005 7.43313576e-005
      7.43313576e-005 7.43313576e-005 7.43313576e-005 7.49779865e-005
      7.42940538e-005 6.86224666e-005 8.63398818e-005 6.02372420e-005
      -3.18370257e-005 -3.61855637e-005 -3.75373893e-005
      -3.52222160e-005 -3.52222160e-005 -3.52222160e-005
      -3.52222160e-005 -3.52222160e-005 -3.52222160e-005
      -3.52222160e-005 -3.52222160e-005 -3.17973390e-005
      -3.89395209e-005 -1.28633852e-004 -1.10539739e-004
      -1.12700145e-004 -1.12651571e-004 -9.62125850e-005
      -1.14540446e-004 -1.13980372e-004 -9.58213132e-005
      -1.15863026e-004 -1.11514506e-004 -1.09727771e-004
      -1.33016714e-004 -6.13262237e-005 -6.19325438e-005
      -6.37797348e-005 -6.37797348e-005 -6.37797348e-005
      -6.37797348e-005 -6.37797348e-005 -6.37797348e-005
      -6.37797348e-005 -6.37797348e-005 -6.35558245e-005
      -4.43574500e-005 -3.38193095e-005 -3.18306629e-005
      -3.99008422e-005 -4.19229364e-005 -3.32470154e-005
      -2.76937681e-005 -3.67962821e-005 -3.83238112e-005
      -4.13524504e-005 -3.80630991e-005 -2.70506171e-005
      -3.46636552e-005 -3.80257334e-005 -3.44223699e-005
      -2.98755949e-005 -4.87909783e-005 -2.71738081e-005
      -4.03808845e-005 6.94873015e-005 5.70184457e-005 7.57350062e-005
      5.89880001e-005 6.53330280e-005 7.50101899e-005 5.80800006e-005
      7.04122285e-005 -2.53471208e-005 -1.14861314e-005 -2.46903364e-005
      -1.44396499e-005 -2.05692595e-005 -1.83188313e-005
      -1.61653679e-005 -3.87099681e-005 -3.44614236e-005
      -3.42752501e-005 -3.51071103e-005 -3.54875228e-005
      -3.65298838e-005 -5.50281620e-005 -6.75471092e-005
      -6.03649059e-005 -6.89050503e-005 -7.19008385e-005 3.39160506e-005
      2.33543469e-005 5.05989447e-005 1.25457227e-005 -1.37678115e-004
      -1.57389586e-004 -1.42003380e-004 -3.47359710e-005
      -4.05760438e-005 -3.71184760e-005</_></support_vectors>
  <decision_functions>
    <_>
      <sv_count>1</sv_count>
      <rho>-6.4035518515991618e-001</rho>
      <alpha>
        1.</alpha>
      <index>
        0</index></_></decision_functions></my_svm>
</opencv_storage>
