<?xml version="1.0"?>
<opencv_storage>
<my_svm type_id="opencv-ml-svm">
  <svm_type>C_SVC</svm_type>
  <kernel><type>LINEAR</type></kernel>
  <C>1.</C>
  <term_criteria><epsilon>2.2204460492503131e-016</epsilon>
    <iterations>100</iterations></term_criteria>
  <var_all>4544</var_all>
  <var_count>4544</var_count>
  <class_count>2</class_count>
  <class_labels type_id="opencv-matrix">
    <rows>1</rows>
    <cols>2</cols>
    <dt>i</dt>
    <data>
      29 255</data></class_labels>
  <sv_total>1</sv_total>
  <support_vectors>
    <_>
      -6.35329513e-007 -2.88228790e-007 -5.37394662e-008 1.78205426e-006
      1.21661253e-006 -2.32432029e-007 0. 0. 2.86224093e-007
      6.42784926e-007 -5.46093247e-007 -2.84044381e-006 -9.40297809e-007
      -2.66853090e-006 -1.78976973e-006 -1.78976973e-006 2.73226306e-006
      2.73226306e-006 3.08882386e-006 1.97216104e-006 1.44100761e-006
      1.44100761e-006 1.08444681e-006 9.70918677e-007 -1.13528110e-007
      -1.13528110e-007 -8.12166434e-007 -6.98638303e-007
      -6.98638303e-007 -6.98638303e-007 0. 0. -7.45482055e-007
      -7.45482055e-007 0. 0. 0. 0. -3.28997203e-007 -9.78738512e-007
      2.18341043e-007 0. 0. 5.95681058e-007 5.95681058e-007 0. 0.
      -1.66944517e-007 -8.30338024e-007 3.77443179e-008 1.32406728e-006
      1.39923588e-006 1.39923588e-006 0. 0. 0. 0. 0. 0. 0. 0. 0. 0. 0.
      0. 0. 4.40231020e-007 0. 0. 1.39923588e-006 1.39923588e-006
      1.64984272e-006 1.64781625e-006 1.64781625e-006 1.64781625e-006
      1.39923588e-006 0. -1.13528110e-007 -1.13528110e-007
      -1.13528110e-007 0. 0. 0. 0. 0. 0. 0. 0. 0. 0. 0. 0. 0. 0. 0. 0.
      0. 0. 0. 0. 0. 0. 0. 0. 0. 0. 0. -1.72823309e-006 -1.72823309e-006
      2.48580307e-007 1.64781625e-006 1.64781625e-006 0. 0.
      1.64781625e-006 1.64781625e-006 0. 0. 0. 1.64781625e-006
      5.95681058e-007 5.95681058e-007 0. 0. 0. 0. 1.39923588e-006
      1.64781625e-006 0. 0. 0. 0. 0. 0. 0. 0. 0. 0. 0. 0. 0. 0. 0. 0. 0.
      0. 0. 0. 0. 0. 0. 0. 0. 0. 0. 0. 0. 0. 0. 0. 0. 0. 0. 0. 0. 0. 0.
      0. 0. 0. 0. 0. 0. 0. 0. 0. 0. 0. 0. 0. 0. 0. 0. 0. 0. 0. 0. 0. 0.
      0. 0. 0. 0. 0. 0. 0. 0. 0. 0. 0. 0. 0. 0. 0. 0. 0. 0. 0. 0. 0. 0.
      0. 0. 0. 0. 0. 0. 0. 0. 0. 0. 0. 0. 0. 0. 0. 0. 0. 0. 0. 0. 0. 0.
      0. 0. 0. 0. 0. 0. 0. 0. 0. 0. 0. 0. 0. 0. 0. 0. 0. 0. 0. 0. 0. 0.
      0. 1.00434727e-006 5.38602478e-007 -3.05934600e-006
      -4.83603026e-006 3.85547196e-007 2.11378028e-006 2.99200747e-006
      8.47782360e-007 -2.33624587e-006 -3.42872772e-006 -4.51178221e-006
      -3.01698674e-006 2.18254945e-006 1.63689401e-006 3.72548698e-006
      2.02079923e-006 -3.21522020e-006 -4.59811963e-006 -4.15353497e-007
      2.42336728e-006 9.42201837e-007 2.38320945e-006 2.43048771e-006
      3.56919668e-006 -2.62171352e-006 -3.38953942e-006 -2.05970309e-006
      -1.17344848e-006 6.65883931e-007 -1.23140637e-006 -3.43521742e-006
      -5.01333216e-006 1.38603309e-006 9.71654686e-007 2.85401688e-006
      1.31035097e-006 7.54926432e-008 3.42516000e-006 4.23450047e-006
      2.73488718e-006 -4.16144258e-006 -3.50287064e-006 -5.02145531e-006
      -2.62690310e-006 -1.43469720e-006 1.08803522e-006 5.53089922e-006
      4.40677468e-006 1.66318785e-007 -4.49048684e-007 -9.88480906e-007
      -1.36922154e-006 -1.48641914e-006 -3.83935867e-006
      -4.24993323e-006 -1.46637478e-006 1.24710675e-006 2.94704046e-006
      2.63315633e-006 -1.96723747e-007 -1.84668124e-006 -5.15204147e-006
      -2.14631018e-006 -3.92758920e-007 4.59131115e-006 3.15827765e-006
      3.96451782e-007 8.36395486e-007 2.12213695e-006 1.46001400e-006
      3.64600191e-006 3.88871922e-006 -4.16024750e-006 -6.02278078e-006
      -8.22106267e-006 -7.47604827e-006 -4.76494461e-006
      -5.06298193e-006 -1.99862825e-006 6.03388173e-007 -8.90765591e-007
      -6.48982336e-007 -2.76504602e-006 -3.90617561e-006
      -4.35528045e-006 1.94369221e-007 1.97827967e-006 3.98354496e-006
      -3.84572195e-006 -5.98096494e-006 -4.74619992e-006
      -3.52896041e-006 2.46180093e-006 4.53803978e-006 2.32012587e-009
      1.14395459e-006 1.49331140e-006 1.49331140e-006 -3.53449927e-008
      -5.14634053e-007 -4.64389899e-007 7.89732013e-009 -1.74934428e-006
      -1.51577160e-006 -1.50529877e-006 -2.87216767e-006
      -1.15730029e-006 1.72360262e-006 4.98205191e-006 3.35863183e-006
      3.96730093e-006 -2.14440524e-006 8.37738071e-007 1.48193817e-006
      1.13483748e-006 0. -1.40496809e-006 1.29978062e-007
      -4.26783345e-007 -1.51081622e-006 7.51337575e-006 4.40307531e-006
      4.85490045e-006 -5.37221069e-007 -9.31425632e-007 -2.37243330e-006
      -1.98237149e-006 -1.33817127e-006 3.23355880e-006 2.24676228e-006
      1.86256329e-006 -7.61523040e-007 1.98395514e-006 2.59210401e-006
      3.29071986e-006 6.73290515e-007 -1.47086462e-006 -2.69829616e-006
      -2.67581254e-006 -1.48433571e-006 -3.06655261e-006
      -1.85285762e-006 -1.96638575e-006 -1.78409755e-006 3.55340788e-008
      9.03616410e-007 -1.31056629e-006 -3.56060082e-006 -3.00924785e-006
      -3.20036111e-006 -1.56199371e-006 -2.35762218e-006 3.18266029e-006
      4.90927914e-006 -3.89351044e-006 -4.28761405e-006 -1.14950080e-006
      1.75227080e-006 1.52990947e-006 -5.92993445e-007 4.86397630e-006
      5.16456885e-006 3.14657268e-006 4.37555946e-006 1.61515743e-006
      -1.90383332e-006 -1.74332206e-006 -1.31705474e-006
      -2.71772387e-006 -2.76428705e-006 2.12759460e-006 -1.70730246e-007
      7.90964350e-007 8.20267758e-007 -1.48417894e-006 -3.45270701e-006
      1.20469292e-006 4.78501306e-006 6.74911632e-007 -2.38331813e-006
      -1.51674840e-006 2.82705764e-006 5.75039576e-006 9.47018236e-007
      -5.42906992e-006 -3.64286143e-006 2.97420888e-006 3.07438995e-006
      3.57968884e-006 4.11985184e-006 -2.01758712e-006 -4.11892961e-006
      -2.06651453e-006 -1.72742159e-006 1.95477537e-006 1.67795395e-006
      8.43685484e-007 -3.18537082e-006 -4.02319256e-006 -4.56975613e-006
      1.18396315e-006 4.68139251e-006 5.96807104e-006 9.29221073e-007
      -3.47328000e-006 1.97697750e-006 -2.03641790e-007 -2.16151216e-006
      4.00202816e-006 3.71287479e-006 3.45219519e-006 4.50113959e-007
      2.11740235e-006 -1.97256804e-006 -2.80950121e-006 -3.25978317e-006
      4.95043331e-008 2.99375665e-006 -1.43989257e-006 -1.13538931e-006
      -2.16663537e-007 -1.62949414e-006 -2.51074312e-006 8.50336846e-007
      -3.30385251e-006 -4.85689770e-006 -5.90280206e-006
      -3.11120607e-006 -4.23734900e-006 -2.62435583e-006
      -2.44498824e-006 -2.22006838e-006 -7.05350999e-007 2.70606193e-007
      1.60261902e-006 4.60474439e-006 -7.92886112e-007 -3.80032816e-006
      -3.39824032e-006 -1.64513807e-007 2.03725153e-006 2.46030163e-006
      4.74866994e-007 -3.84843418e-007 7.10356574e-007 1.29559999e-006
      2.10094163e-006 -5.14040266e-007 -5.31975093e-006 -2.84510065e-006
      -5.06070592e-006 6.78516358e-007 1.18000594e-006 4.07755550e-007
      -1.20526025e-007 1.23019072e-006 -2.19615413e-005 -2.19615413e-005
      -2.19615413e-005 -2.19615413e-005 -2.19615413e-005
      -2.19615413e-005 -2.19615413e-005 -2.19615413e-005
      -2.19615413e-005 -2.19615413e-005 -2.19615413e-005
      -2.19615413e-005 -2.19615413e-005 -2.19615413e-005
      -2.19615413e-005 -2.19615413e-005 -2.19615413e-005
      -2.19615413e-005 -2.19615413e-005 -2.19615413e-005
      -2.19615413e-005 -2.19615413e-005 -2.19615413e-005
      -2.19615413e-005 -2.19615413e-005 -2.19615413e-005
      -2.19615413e-005 -2.19615413e-005 -2.19615413e-005
      -2.19615413e-005 -2.19615413e-005 -2.19615413e-005
      -2.19615413e-005 -2.19615413e-005 -2.19615413e-005
      -2.19615413e-005 -2.19615413e-005 -2.19615413e-005
      -2.19615413e-005 -2.19615413e-005 -2.19615413e-005
      -2.19615413e-005 -2.19615413e-005 -2.19615413e-005
      -2.19615413e-005 -2.19615413e-005 -2.19615413e-005
      -2.19615413e-005 -2.19615413e-005 -2.19615413e-005
      -2.19615413e-005 -2.19615413e-005 -2.19615413e-005
      -2.19615413e-005 -2.19615413e-005 -2.19615413e-005
      -3.18267739e-005 -1.78546197e-005 -2.56437888e-005
      -8.85695044e-006 -1.61754579e-005 -3.07203627e-005
      -1.59359624e-005 -3.97813437e-006 4.23889605e-006 4.23889605e-006
      4.23889605e-006 4.23889605e-006 4.23889605e-006 4.23889605e-006
      4.23889605e-006 4.23889605e-006 4.23889605e-006 4.23889605e-006
      4.23889605e-006 4.23889605e-006 4.23889605e-006 4.23889605e-006
      4.23889605e-006 4.23889605e-006 4.23889605e-006 4.23889605e-006
      4.23889605e-006 4.23889605e-006 4.23889605e-006 4.23889605e-006
      4.23889605e-006 4.23889605e-006 4.23889605e-006 4.23889605e-006
      4.23889605e-006 4.23889605e-006 4.23889605e-006 4.23889605e-006
      4.23889605e-006 4.23889605e-006 4.23889605e-006 4.23889605e-006
      4.23889605e-006 4.23889605e-006 4.23889605e-006 4.23889605e-006
      4.23889605e-006 4.23889605e-006 4.23889605e-006 4.23889605e-006
      4.23889605e-006 4.23889605e-006 4.23889605e-006 4.23889605e-006
      4.23889605e-006 4.23889605e-006 4.23889605e-006 4.23889605e-006
      4.23889605e-006 4.23889605e-006 4.23889605e-006 4.23889605e-006
      4.23889605e-006 4.23889605e-006 4.66187794e-006 3.23164591e-006
      4.68953480e-008 9.70004839e-006 2.57485658e-006 3.14283307e-006
      1.21007570e-005 7.62304126e-006 7.00384089e-006 7.00384089e-006
      7.00384089e-006 7.00384089e-006 7.00384089e-006 7.00384089e-006
      7.00384089e-006 7.00384089e-006 7.00384089e-006 7.00384089e-006
      7.00384089e-006 7.00384089e-006 7.00384089e-006 7.00384089e-006
      7.00384089e-006 7.00384089e-006 7.00384089e-006 7.00384089e-006
      7.00384089e-006 7.00384089e-006 7.00384089e-006 7.00384089e-006
      7.00384089e-006 7.00384089e-006 7.00384089e-006 7.00384089e-006
      7.00384089e-006 7.00384089e-006 7.00384089e-006 7.00384089e-006
      7.00384089e-006 7.00384089e-006 7.00384089e-006 7.00384089e-006
      7.00384089e-006 7.00384089e-006 7.00384089e-006 7.00384089e-006
      7.00384089e-006 7.00384089e-006 7.00384089e-006 7.00384089e-006
      7.00384089e-006 7.00384089e-006 7.00384089e-006 7.00384089e-006
      7.00384089e-006 7.00384089e-006 7.00384089e-006 7.00384089e-006
      7.00384089e-006 7.00384089e-006 7.00384089e-006 7.00384089e-006
      7.00384089e-006 7.00384089e-006 7.00384089e-006 7.00384089e-006
      7.00384089e-006 7.00384089e-006 7.00384089e-006 7.00384089e-006
      7.00384089e-006 7.00384089e-006 7.00384089e-006 7.00384089e-006
      7.00384089e-006 7.00384089e-006 7.00384089e-006 7.00384089e-006
      7.00384089e-006 7.00384089e-006 7.00384089e-006 7.00384089e-006
      7.00384089e-006 7.00384089e-006 7.00384089e-006 7.00384089e-006
      7.00384089e-006 7.00384089e-006 7.00384089e-006 7.00384089e-006
      7.00384089e-006 7.00384089e-006 7.00384089e-006 7.00384089e-006
      7.00384089e-006 7.00384089e-006 7.00384089e-006 7.00384089e-006
      7.00384089e-006 7.00384089e-006 7.00384089e-006 7.00384089e-006
      7.00384089e-006 7.00384089e-006 7.00384089e-006 7.00384089e-006
      7.00384089e-006 7.00384089e-006 7.00384089e-006 7.00384089e-006
      7.00384089e-006 7.00384089e-006 7.00384089e-006 7.00384089e-006
      7.00384089e-006 7.00384089e-006 7.00384089e-006 7.00384089e-006
      7.00384089e-006 7.00384089e-006 8.70271288e-006 6.42024816e-006
      5.87009481e-006 6.89759918e-006 4.50611469e-006 7.40441874e-006
      7.91408893e-005 7.80244154e-005 7.81712879e-005 7.81712879e-005
      7.81712879e-005 7.81712879e-005 7.81712879e-005 7.81712879e-005
      7.81712879e-005 7.81712879e-005 7.81712879e-005 7.81712879e-005
      7.81712879e-005 7.81712879e-005 7.81712879e-005 7.81712879e-005
      7.81712879e-005 7.81712879e-005 7.81712879e-005 7.81712879e-005
      7.81712879e-005 7.81712879e-005 7.81712879e-005 7.81712879e-005
      7.81712879e-005 7.81712879e-005 7.81712879e-005 7.81712879e-005
      7.81712879e-005 7.81712879e-005 7.81712879e-005 7.81712879e-005
      7.81712879e-005 7.81712879e-005 7.81712879e-005 7.81712879e-005
      7.81712879e-005 7.81712879e-005 7.81712879e-005 7.81712879e-005
      7.81712879e-005 7.81712879e-005 7.81712879e-005 7.81712879e-005
      7.81712879e-005 7.81712879e-005 7.81712879e-005 7.81712879e-005
      7.81712879e-005 7.81712879e-005 7.81712879e-005 7.81712879e-005
      7.81712879e-005 7.81712879e-005 7.81712879e-005 7.81712879e-005
      7.81712879e-005 7.81712879e-005 5.88226030e-005 -6.57661658e-005
      -8.78947540e-005 -7.88364196e-005 -8.08569821e-005
      -7.60469411e-005 -8.34631646e-005 -7.01081299e-005
      -7.68678874e-005 -7.68678874e-005 -7.68678874e-005
      -7.68678874e-005 -7.68678874e-005 -7.68678874e-005
      -7.68678874e-005 -7.68678874e-005 -7.68678874e-005
      -7.68678874e-005 -7.68678874e-005 -7.68678874e-005
      -7.68678874e-005 -7.68678874e-005 -7.68678874e-005
      -7.68678874e-005 -7.68678874e-005 -7.68678874e-005
      -7.68678874e-005 -7.68678874e-005 -7.68678874e-005
      -7.68678874e-005 -7.68678874e-005 -7.68678874e-005
      -7.68678874e-005 -7.68678874e-005 -7.68678874e-005
      -7.68678874e-005 -7.68678874e-005 -7.68678874e-005
      -7.68678874e-005 -7.68678874e-005 -7.68678874e-005
      -7.68678874e-005 -7.68678874e-005 -7.68678874e-005
      -7.68678874e-005 -7.68678874e-005 -7.68678874e-005
      -7.68678874e-005 -7.68678874e-005 -7.68678874e-005
      -7.68678874e-005 -7.68678874e-005 -7.68678874e-005
      -7.68678874e-005 -7.68678874e-005 -7.68678874e-005
      -8.09960329e-005 -6.28586859e-005 -8.43901871e-005 2.33914525e-005
      4.39771939e-005 2.52423088e-005 5.11396065e-005 1.86236884e-005
      3.13363489e-005 3.13363489e-005 3.13363489e-005 3.13363489e-005
      3.13363489e-005 3.13363489e-005 3.13363489e-005 3.13363489e-005
      3.13363489e-005 3.13363489e-005 3.13363489e-005 3.13363489e-005
      3.13363489e-005 3.13363489e-005 3.13363489e-005 3.13363489e-005
      3.13363489e-005 3.13363489e-005 3.13363489e-005 3.13363489e-005
      3.13363489e-005 3.13363489e-005 3.13363489e-005 3.13363489e-005
      3.13363489e-005 3.13363489e-005 3.13363489e-005 3.13363489e-005
      3.13363489e-005 3.13363489e-005 3.13363489e-005 3.13363489e-005
      3.13363489e-005 3.13363489e-005 3.13363489e-005 3.13363489e-005
      3.13363489e-005 3.13363489e-005 3.13363489e-005 3.13363489e-005
      3.13363489e-005 3.13363489e-005 3.13363489e-005 3.13363489e-005
      3.13363489e-005 3.13363489e-005 3.13363489e-005 3.13363489e-005
      2.86985487e-005 2.43933937e-005 3.23983259e-005 3.51661474e-005
      -4.04406410e-006 -9.15367400e-006 3.52312804e-006 -2.78991797e-006
      -2.64445248e-006 -2.64445248e-006 -2.64445248e-006
      -2.64445248e-006 -2.64445248e-006 -2.64445248e-006
      -2.64445248e-006 -2.64445248e-006 -2.64445248e-006
      -2.64445248e-006 -2.64445248e-006 -2.64445248e-006
      -2.64445248e-006 -2.64445248e-006 -2.64445248e-006
      -2.64445248e-006 -2.64445248e-006 -2.64445248e-006
      -2.64445248e-006 -2.64445248e-006 -2.64445248e-006
      -2.64445248e-006 -2.64445248e-006 -2.64445248e-006
      -2.64445248e-006 -2.64445248e-006 -2.64445248e-006
      -2.64445248e-006 -2.64445248e-006 -2.64445248e-006
      -2.64445248e-006 -2.64445248e-006 -2.64445248e-006
      -2.64445248e-006 -2.64445248e-006 -2.64445248e-006
      -2.64445248e-006 -2.64445248e-006 -2.64445248e-006
      -2.64445248e-006 -2.64445248e-006 -2.64445248e-006
      -2.64445248e-006 -2.64445248e-006 -2.64445248e-006
      -2.64445248e-006 -2.64445248e-006 -2.64445248e-006
      -1.04356459e-005 3.54589156e-006 -3.14956701e-008 -5.30218085e-006
      -4.93735715e-005 -5.20997273e-005 -5.52535166e-005
      -4.36703776e-005 -5.21687653e-005 -5.21687653e-005
      -5.21687653e-005 -5.21687653e-005 -5.21687653e-005
      -5.21687653e-005 -5.21687653e-005 -5.21687653e-005
      -5.21687653e-005 -5.21687653e-005 -5.21687653e-005
      -5.21687653e-005 -5.21687653e-005 -5.21687653e-005
      -5.21687653e-005 -5.21687653e-005 -5.21687653e-005
      -5.21687653e-005 -5.21687653e-005 -5.21687653e-005
      -5.21687653e-005 -5.21687653e-005 -5.21687653e-005
      -5.21687653e-005 -5.21687653e-005 -5.21687653e-005
      -5.21687653e-005 -5.21687653e-005 -5.21687653e-005
      -5.21687653e-005 -5.21687653e-005 -5.21687653e-005
      -5.21687653e-005 -5.21687653e-005 -5.21687653e-005
      -5.21687653e-005 -5.21687653e-005 -5.21687653e-005
      -5.21687653e-005 -5.21687653e-005 -5.21687653e-005
      -5.21687653e-005 -5.21687653e-005 -5.21687653e-005
      -5.21687653e-005 -5.21687653e-005 -5.21687653e-005
      -5.21687653e-005 -4.99962844e-005 -4.52797613e-005
      -4.67660066e-005 7.07553681e-006 9.04684293e-006 6.18435388e-006
      -3.68791461e-006 4.97505653e-006 7.00384089e-006 7.00384089e-006
      7.00384089e-006 7.00384089e-006 7.00384089e-006 7.00384089e-006
      7.00384089e-006 7.00384089e-006 7.00384089e-006 7.00384089e-006
      7.00384089e-006 7.00384089e-006 7.00384089e-006 7.00384089e-006
      7.00384089e-006 7.00384089e-006 7.00384089e-006 7.00384089e-006
      7.00384089e-006 7.00384089e-006 7.00384089e-006 7.00384089e-006
      7.00384089e-006 7.00384089e-006 7.00384089e-006 7.00384089e-006
      7.00384089e-006 7.00384089e-006 7.00384089e-006 7.00384089e-006
      7.00384089e-006 7.00384089e-006 7.00384089e-006 7.00384089e-006
      7.00384089e-006 7.00384089e-006 7.00384089e-006 7.00384089e-006
      7.00384089e-006 7.00384089e-006 7.00384089e-006 7.00384089e-006
      7.00384089e-006 7.00384089e-006 7.00384089e-006 7.00384089e-006
      7.00384089e-006 7.00384089e-006 1.17357740e-005 6.89175431e-006
      4.15538125e-006 8.10862366e-006 1.11934169e-005 1.30565422e-005
      9.63207094e-006 9.81297217e-006 9.39107122e-006 9.39107122e-006
      9.39107122e-006 9.39107122e-006 9.39107122e-006 9.39107122e-006
      9.39107122e-006 9.39107122e-006 9.39107122e-006 9.39107122e-006
      9.39107122e-006 9.39107122e-006 9.39107122e-006 9.39107122e-006
      9.39107122e-006 9.39107122e-006 9.39107122e-006 9.39107122e-006
      9.39107122e-006 9.39107122e-006 9.39107122e-006 9.39107122e-006
      9.39107122e-006 9.39107122e-006 9.39107122e-006 9.39107122e-006
      9.39107122e-006 9.39107122e-006 9.39107122e-006 9.39107122e-006
      9.39107122e-006 9.39107122e-006 9.39107122e-006 9.39107122e-006
      9.39107122e-006 9.39107122e-006 9.39107122e-006 9.39107122e-006
      9.39107122e-006 9.39107122e-006 1.06022262e-005 5.69286476e-006
      9.23552216e-006 1.20284603e-005 5.12869610e-006 1.35993596e-005
      9.04175249e-006 9.67043434e-006 9.39107122e-006 9.39107122e-006
      9.39107122e-006 9.39107122e-006 9.39107122e-006 9.39107122e-006
      9.39107122e-006 9.39107122e-006 9.39107122e-006 9.39107122e-006
      9.39107122e-006 9.39107122e-006 9.39107122e-006 9.39107122e-006
      9.39107122e-006 9.39107122e-006 9.39107122e-006 9.39107122e-006
      9.39107122e-006 9.39107122e-006 9.39107122e-006 9.39107122e-006
      9.39107122e-006 9.39107122e-006 9.39107122e-006 9.39107122e-006
      9.39107122e-006 9.39107122e-006 9.39107122e-006 9.39107122e-006
      9.39107122e-006 9.39107122e-006 9.39107122e-006 9.39107122e-006
      9.39107122e-006 9.39107122e-006 9.39107122e-006 9.39107122e-006
      9.39107122e-006 9.39107122e-006 9.39107122e-006 9.39107122e-006
      9.39107122e-006 9.39107122e-006 9.39107122e-006 9.39107122e-006
      9.39107122e-006 9.39107122e-006 3.27969133e-006 1.47541259e-005
      -6.81387291e-006 -3.03877232e-006 -4.50791231e-006
      -5.28778719e-006 -1.01664964e-005 -2.00713930e-006
      -5.45350258e-006 -5.45350258e-006 -5.45350258e-006
      -5.45350258e-006 -5.45350258e-006 -5.45350258e-006
      -5.45350258e-006 -5.45350258e-006 -5.45350258e-006
      -5.45350258e-006 -5.45350258e-006 -5.45350258e-006
      -5.45350258e-006 -5.45350258e-006 -5.45350258e-006
      -5.45350258e-006 -5.45350258e-006 -5.45350258e-006
      -5.45350258e-006 -5.45350258e-006 -5.45350258e-006
      -5.45350258e-006 -5.45350258e-006 -5.45350258e-006
      -4.90334969e-006 -5.45350258e-006 -5.45350258e-006
      -6.00365593e-006 -6.00365593e-006 -5.45350258e-006
      -4.90334969e-006 -4.90334969e-006 -4.90334969e-006
      -5.45350258e-006 -5.45350258e-006 -6.00365593e-006
      -6.00365593e-006 -5.45350258e-006 -4.90334969e-006
      -4.90334969e-006 -7.55007568e-006 -8.82478707e-006
      -6.75453703e-006 -1.34849124e-005 9.05224351e-006 2.03746076e-005
      3.07508744e-005 1.81409141e-005 2.76419487e-005 2.76419487e-005
      2.76419487e-005 2.76419487e-005 2.76419487e-005 2.76419487e-005
      2.76419487e-005 2.76419487e-005 2.76419487e-005 2.76419487e-005
      2.76419487e-005 2.76419487e-005 2.76419487e-005 2.76419487e-005
      2.76419487e-005 2.76419487e-005 2.76419487e-005 2.76419487e-005
      2.76419487e-005 2.76419487e-005 2.76419487e-005 2.76419487e-005
      2.76419487e-005 2.76419487e-005 2.76419487e-005 2.76419487e-005
      2.76419487e-005 2.76419487e-005 2.76419487e-005 2.76419487e-005
      2.76419487e-005 2.76419487e-005 2.76419487e-005 2.76419487e-005
      2.76419487e-005 2.76419487e-005 2.76419487e-005 2.76419487e-005
      2.76419487e-005 2.76419487e-005 2.14197571e-005 2.64197261e-005
      1.40396460e-005 4.18545824e-005 1.77319253e-005 5.30199250e-005
      6.93535776e-006 -1.32026698e-005 -2.02848205e-005 -2.02848205e-005
      -2.02848205e-005 -2.02848205e-005 -2.02848205e-005
      -2.02848205e-005 -2.02848205e-005 -2.02848205e-005
      -2.02848205e-005 -2.02848205e-005 -2.02848205e-005
      -2.02848205e-005 -2.02848205e-005 -2.02848205e-005
      -2.02848205e-005 -2.02848205e-005 -2.02848205e-005
      -2.02848205e-005 -2.02848205e-005 -2.02848205e-005
      -2.02848205e-005 -2.02848205e-005 -2.02848205e-005
      -2.02848205e-005 -2.02848205e-005 -2.02848205e-005
      -2.02848205e-005 -2.02848205e-005 -2.02848205e-005
      -2.02848205e-005 -2.02848205e-005 -2.02848205e-005
      -2.02848205e-005 -2.02848205e-005 -2.02848205e-005
      -2.02848205e-005 -2.02848205e-005 -2.02848205e-005
      -2.02848205e-005 -2.02848205e-005 -2.02848205e-005
      -2.02848205e-005 -2.02848205e-005 -2.02848205e-005
      -2.02848205e-005 -2.02848205e-005 -2.02848205e-005
      -2.02848205e-005 2.77030304e-005 2.77030304e-005 2.77030304e-005
      2.77030304e-005 2.77030304e-005 2.77030304e-005 2.77030304e-005
      2.77030304e-005 2.77030304e-005 2.77030304e-005 2.77030304e-005
      2.77030304e-005 2.77030304e-005 2.77030304e-005 2.77030304e-005
      2.77030304e-005 2.77030304e-005 2.77030304e-005 2.77030304e-005
      2.77030304e-005 2.77030304e-005 2.77030304e-005 2.77030304e-005
      2.77030304e-005 2.77030304e-005 2.77030304e-005 2.77030304e-005
      2.77030304e-005 2.77030304e-005 2.77030304e-005 2.77030304e-005
      2.77030304e-005 2.77030304e-005 2.77030304e-005 2.77030304e-005
      2.77030304e-005 2.77030304e-005 2.77030304e-005 2.77030304e-005
      2.77030304e-005 2.77030304e-005 2.77030304e-005 2.77030304e-005
      2.77030304e-005 2.77030304e-005 2.77030304e-005 2.77030304e-005
      2.77030304e-005 7.00384089e-006 7.00384089e-006 7.00384089e-006
      7.00384089e-006 7.00384089e-006 7.00384089e-006 7.00384089e-006
      7.00384089e-006 7.00384089e-006 7.00384089e-006 7.00384089e-006
      7.00384089e-006 7.00384089e-006 7.00384089e-006 7.00384089e-006
      7.00384089e-006 7.00384089e-006 7.00384089e-006 7.00384089e-006
      7.00384089e-006 7.00384089e-006 7.00384089e-006 7.00384089e-006
      7.00384089e-006 7.00384089e-006 7.00384089e-006 7.00384089e-006
      7.00384089e-006 7.00384089e-006 7.00384089e-006 7.00384089e-006
      7.00384089e-006 7.00384089e-006 7.00384089e-006 7.00384089e-006
      7.00384089e-006 7.00384089e-006 7.00384089e-006 7.00384089e-006
      7.00384089e-006 6.97889982e-006 8.67571816e-006 9.80693403e-006
      8.50988363e-006 7.90557624e-006 3.20597360e-006 5.35690469e-006
      1.08041331e-005 7.00384089e-006 7.00384089e-006 7.00384089e-006
      7.00384089e-006 7.00384089e-006 7.00384089e-006 7.00384089e-006
      7.00384089e-006 7.00384089e-006 7.00384089e-006 7.00384089e-006
      7.00384089e-006 7.00384089e-006 7.00384089e-006 7.00384089e-006
      7.00384089e-006 7.00384089e-006 7.00384089e-006 7.00384089e-006
      7.00384089e-006 7.00384089e-006 7.00384089e-006 7.00384089e-006
      7.00384089e-006 7.00384089e-006 7.00384089e-006 7.00384089e-006
      7.00384089e-006 7.00384089e-006 7.00384089e-006 7.00384089e-006
      7.00384089e-006 7.00384089e-006 7.00384089e-006 7.00384089e-006
      7.00384089e-006 7.00384089e-006 7.00384089e-006 7.00384089e-006
      7.00384089e-006 9.12004907e-006 5.71964210e-006 8.58082149e-006
      6.44212196e-006 1.11930240e-005 4.82697988e-006 7.13509371e-006
      7.03577552e-006 7.00384089e-006 7.00384089e-006 7.00384089e-006
      7.00384089e-006 7.00384089e-006 7.00384089e-006 7.00384089e-006
      7.00384089e-006 7.00384089e-006 7.00384089e-006 7.00384089e-006
      7.00384089e-006 7.00384089e-006 7.00384089e-006 7.00384089e-006
      7.00384089e-006 7.00384089e-006 7.00384089e-006 7.00384089e-006
      7.00384089e-006 7.00384089e-006 7.00384089e-006 7.00384089e-006
      7.00384089e-006 7.00384089e-006 7.00384089e-006 7.00384089e-006
      7.00384089e-006 7.00384089e-006 7.00384089e-006 7.00384089e-006
      7.00384089e-006 7.00384089e-006 7.00384089e-006 7.00384089e-006
      7.00384089e-006 7.00384089e-006 7.00384089e-006 7.00384089e-006
      7.00384089e-006 4.89357353e-006 4.53035091e-006 7.82263760e-006
      1.29933942e-005 9.02008469e-006 1.07553014e-005 1.03936954e-005
      7.94047719e-006 9.39107122e-006 9.39107122e-006 9.39107122e-006
      9.39107122e-006 9.39107122e-006 9.39107122e-006 9.39107122e-006
      9.39107122e-006 9.39107122e-006 9.39107122e-006 9.39107122e-006
      9.39107122e-006 9.39107122e-006 9.39107122e-006 9.39107122e-006
      9.39107122e-006 8.84091878e-006 9.94122456e-006 9.39107122e-006
      9.39107122e-006 9.39107122e-006 9.39107122e-006 9.94122456e-006
      8.84091878e-006 8.84091878e-006 9.94122456e-006 9.39107122e-006
      9.39107122e-006 9.39107122e-006 9.39107122e-006 9.94122456e-006
      8.84091878e-006 6.07146967e-006 1.16591300e-005 1.03453312e-005
      9.86092255e-006 7.91113143e-006 9.03015280e-006 -1.08454642e-005
      -1.55950818e-006 -5.45350258e-006 -5.45350258e-006
      -5.45350258e-006 -5.45350258e-006 -5.45350258e-006
      -5.45350258e-006 -5.45350258e-006 -5.45350258e-006
      -5.45350258e-006 -5.45350258e-006 -5.45350258e-006
      -5.45350258e-006 -5.45350258e-006 -5.45350258e-006
      -5.45350258e-006 -5.45350258e-006 -5.45350258e-006
      -6.55380927e-006 -4.90334969e-006 -4.35319635e-006
      -5.45350258e-006 -5.45350258e-006 -4.90334969e-006
      -6.55380927e-006 -5.45350258e-006 -6.55380927e-006
      -4.90334969e-006 -4.35319635e-006 -5.45350258e-006
      -5.45350258e-006 -4.90334969e-006 -6.55380927e-006
      -4.90334969e-006 -6.00365593e-006 -4.90334969e-006
      -5.45350258e-006 -6.00365593e-006 -4.90334969e-006
      -4.90334969e-006 -5.45350258e-006 -3.58614625e-006 4.68462858e-005
      3.59460100e-005 4.74185254e-005 2.86286704e-005 4.31157605e-005
      4.24549144e-005 4.26892730e-005 4.16147413e-005 4.16147413e-005
      4.16147413e-005 4.16147413e-005 4.16147413e-005 4.16147413e-005
      4.16147413e-005 4.16147413e-005 4.16147413e-005 4.16147413e-005
      4.16147413e-005 4.16147413e-005 4.16147413e-005 4.16147413e-005
      4.16147413e-005 4.16147413e-005 4.16147413e-005 4.16147413e-005
      4.16147413e-005 4.16147413e-005 4.16147413e-005 4.16147413e-005
      4.16147413e-005 4.16147413e-005 4.16147413e-005 4.16147413e-005
      4.16147413e-005 4.16147413e-005 4.16147413e-005 4.16147413e-005
      4.16147413e-005 4.16147413e-005 3.64654734e-005 4.89574486e-005
      3.36871271e-005 6.50101501e-005 5.33136590e-005 5.78989857e-005
      5.50371369e-005 4.94467349e-005 5.58627580e-005 5.58627580e-005
      5.58627580e-005 5.58627580e-005 5.58627580e-005 5.58627580e-005
      5.58627580e-005 5.58627580e-005 5.58627580e-005 5.58627580e-005
      5.58627580e-005 5.58627580e-005 5.58627580e-005 5.58627580e-005
      5.58627580e-005 5.58627580e-005 5.58627580e-005 5.58627580e-005
      5.58627580e-005 5.58627580e-005 5.58627580e-005 5.58627580e-005
      5.58627580e-005 5.58627580e-005 5.58627580e-005 5.58627580e-005
      5.58627580e-005 5.58627580e-005 5.58627580e-005 5.58627580e-005
      5.58627580e-005 5.58627580e-005 5.17847257e-005 5.52415077e-005
      5.66349336e-005 4.42025157e-005 -6.83615363e-005 -8.87091301e-005
      -8.53685851e-005 -8.05390591e-005 -8.08975528e-005
      -8.08975528e-005 -8.08975528e-005 -8.08975528e-005
      -8.08975528e-005 -8.08975528e-005 -8.08975528e-005
      -8.08975528e-005 -8.08975528e-005 -8.08975528e-005
      -8.08975528e-005 -8.08975528e-005 -8.08975528e-005
      -8.08975528e-005 -8.08975528e-005 -8.08975528e-005
      -8.08975528e-005 -8.08975528e-005 -8.08975528e-005
      -8.08975528e-005 -8.08975528e-005 -8.08975528e-005
      -8.08975528e-005 -8.08975528e-005 -8.08975528e-005
      -8.08975528e-005 -8.08975528e-005 -8.08975528e-005
      -8.08975528e-005 -8.08975528e-005 -8.08975528e-005
      -8.08975528e-005 -7.54518987e-005 -9.12707837e-005
      -8.37984771e-005 -7.45268408e-005 -4.25544340e-006 2.81618145e-006
      1.31045390e-005 -1.44400019e-006 7.00384089e-006 7.00384089e-006
      7.00384089e-006 7.00384089e-006 7.00384089e-006 7.00384089e-006
      7.00384089e-006 7.00384089e-006 7.00384089e-006 7.00384089e-006
      7.00384089e-006 7.00384089e-006 7.00384089e-006 7.00384089e-006
      7.00384089e-006 7.00384089e-006 7.00384089e-006 7.00384089e-006
      7.00384089e-006 7.00384089e-006 7.00384089e-006 7.00384089e-006
      7.00384089e-006 7.00384089e-006 7.00384089e-006 7.00384089e-006
      7.00384089e-006 7.00384089e-006 7.00384089e-006 7.00384089e-006
      7.00384089e-006 7.00384089e-006 5.59979162e-006 6.89243370e-006
      4.86345198e-006 1.01709993e-005 6.89031276e-006 8.79045911e-006
      5.19106970e-006 9.42359293e-006 7.00384089e-006 7.00384089e-006
      7.00384089e-006 7.00384089e-006 7.00384089e-006 7.00384089e-006
      7.00384089e-006 7.00384089e-006 7.00384089e-006 7.00384089e-006
      7.00384089e-006 7.00384089e-006 7.00384089e-006 7.00384089e-006
      7.00384089e-006 7.00384089e-006 7.00384089e-006 7.00384089e-006
      7.00384089e-006 7.00384089e-006 7.00384089e-006 7.00384089e-006
      7.00384089e-006 7.00384089e-006 7.00384089e-006 7.00384089e-006
      7.00384089e-006 7.00384089e-006 7.00384089e-006 7.00384089e-006
      7.00384089e-006 7.00384089e-006 1.05796180e-005 4.38356983e-006
      3.47439754e-006 7.04036256e-006 8.97164500e-006 9.35759635e-006
      8.57277973e-006 6.57513147e-006 7.00384089e-006 7.00384089e-006
      7.00384089e-006 7.00384089e-006 7.00384089e-006 7.00384089e-006
      7.00384089e-006 7.00384089e-006 7.00384089e-006 7.00384089e-006
      7.00384089e-006 7.00384089e-006 7.00384089e-006 7.00384089e-006
      7.00384089e-006 7.00384089e-006 7.00384089e-006 7.00384089e-006
      7.00384089e-006 7.00384089e-006 7.00384089e-006 7.00384089e-006
      7.00384089e-006 7.00384089e-006 5.32258991e-006 3.52646794e-006
      6.02157206e-006 4.46332569e-006 3.84077794e-006 1.10653345e-005
      4.96969224e-005 5.42322086e-005 5.59977525e-005 5.59977525e-005
      5.59977525e-005 5.59977525e-005 5.59977525e-005 5.59977525e-005
      5.59977525e-005 5.59977525e-005 5.59977525e-005 5.59977525e-005
      5.59977525e-005 5.59977525e-005 5.59977525e-005 5.59977525e-005
      5.59977525e-005 5.59977525e-005 5.56840459e-005 5.52547899e-005
      5.59977525e-005 5.69553449e-005 5.62123823e-005 5.53621030e-005
      5.58904394e-005 5.52547899e-005 5.63114590e-005 5.48337666e-005
      5.68480318e-005 5.49410797e-005 5.61050692e-005 5.77973879e-005
      5.40908040e-005 5.68480318e-005 5.13600826e-005 6.05671776e-005
      3.20075269e-005 3.09618772e-005 3.04379282e-005 2.59907301e-005
      2.58276395e-005 3.36073354e-005 2.90921398e-005 2.90921398e-005
      2.90921398e-005 2.90921398e-005 2.90921398e-005 2.90921398e-005
      2.90921398e-005 2.90921398e-005 2.96422932e-005 2.90921398e-005
      2.90921398e-005 2.85419865e-005 2.85419865e-005 2.90921398e-005
      2.96422932e-005 2.96422932e-005 2.96422932e-005 2.90921398e-005
      2.90921398e-005 2.85419865e-005 2.85419865e-005 2.90921398e-005
      2.96422932e-005 2.96422932e-005 3.59481710e-005 2.16263070e-005
      3.58108009e-005 2.33888513e-005 3.27315684e-005 2.06053028e-005
      3.28684218e-005 2.08435376e-005 2.67049090e-005 2.67049090e-005
      2.67049090e-005 2.67049090e-005 2.67049090e-005 2.67049090e-005
      2.67049090e-005 2.67049090e-005 2.67049090e-005 2.67049090e-005
      2.67049090e-005 2.67049090e-005 2.67049090e-005 2.67049090e-005
      2.67049090e-005 2.67049090e-005 2.67049090e-005 2.67049090e-005
      2.67049090e-005 2.67049090e-005 2.67049090e-005 2.67049090e-005
      2.67049090e-005 2.67049090e-005 2.33935425e-005 2.49896038e-005
      2.03779236e-005 3.04072455e-005 1.57381928e-005 2.64374048e-005
      1.81580563e-005 9.32618150e-006 4.11167730e-006 4.11167730e-006
      4.11167730e-006 4.11167730e-006 4.11167730e-006 4.11167730e-006
      4.11167730e-006 4.11167730e-006 4.11167730e-006 4.11167730e-006
      4.11167730e-006 4.11167730e-006 4.11167730e-006 4.11167730e-006
      4.11167730e-006 4.11167730e-006 4.11167730e-006 4.11167730e-006
      4.11167730e-006 4.11167730e-006 4.11167730e-006 4.11167730e-006
      4.11167730e-006 4.11167730e-006 4.11167730e-006 4.11167730e-006
      4.11167730e-006 4.11167730e-006 4.11167730e-006 4.11167730e-006
      4.11167730e-006 4.11167730e-006 4.11167730e-006 4.11167730e-006
      4.11167730e-006 4.11167730e-006 4.11167730e-006 4.11167730e-006
      4.11167730e-006 4.11167730e-006 4.11167730e-006 4.11167730e-006
      4.11167730e-006 4.11167730e-006 4.11167730e-006 4.11167730e-006
      4.11167730e-006 4.11167730e-006 4.11167730e-006 4.11167730e-006
      4.11167730e-006 4.11167730e-006 4.11167730e-006 4.11167730e-006
      4.11167730e-006 4.11167730e-006 4.11167730e-006 4.11167730e-006
      4.11167730e-006 4.11167730e-006 4.11167730e-006 4.11167730e-006
      4.11167730e-006 4.11167730e-006 7.00384089e-006 7.00384089e-006
      7.00384089e-006 7.00384089e-006 7.00384089e-006 7.00384089e-006
      7.00384089e-006 7.00384089e-006 7.00384089e-006 7.00384089e-006
      7.00384089e-006 7.00384089e-006 7.00384089e-006 7.00384089e-006
      7.00384089e-006 7.00384089e-006 7.00384089e-006 7.00384089e-006
      7.00384089e-006 7.00384089e-006 7.00384089e-006 7.00384089e-006
      7.00384089e-006 7.00384089e-006 6.48028481e-006 8.51436744e-006
      9.30831902e-006 9.27314977e-006 6.25528719e-006 3.96233099e-006
      4.98895452e-006 1.02850599e-005 7.00384089e-006 7.00384089e-006
      7.00384089e-006 7.00384089e-006 7.00384089e-006 7.00384089e-006
      7.00384089e-006 7.00384089e-006 7.00384089e-006 7.00384089e-006
      7.00384089e-006 7.00384089e-006 7.00384089e-006 7.00384089e-006
      7.00384089e-006 7.00384089e-006 7.00384089e-006 7.00384089e-006
      7.00384089e-006 7.00384089e-006 7.00384089e-006 7.00384089e-006
      7.00384089e-006 7.00384089e-006 1.02916320e-005 3.38234031e-006
      1.14069362e-005 4.68271355e-006 1.10259762e-005 3.66456084e-006
      8.51566983e-006 5.52882148e-006 7.00384089e-006 7.00384089e-006
      7.00384089e-006 7.00384089e-006 7.00384089e-006 7.00384089e-006
      7.00384089e-006 7.00384089e-006 7.00384089e-006 7.00384089e-006
      7.00384089e-006 7.00384089e-006 7.00384089e-006 7.00384089e-006
      7.00384089e-006 7.00384089e-006 7.00384089e-006 7.00384089e-006
      7.00384089e-006 7.00384089e-006 7.00384089e-006 7.00384089e-006
      7.00384089e-006 7.00384089e-006 2.21222763e-006 7.59459590e-006
      1.28448219e-005 5.47370973e-006 1.44351825e-005 7.86821511e-006
      2.89633681e-006 1.06443458e-005 9.25660243e-006 9.66000880e-006
      9.12213363e-006 9.52554001e-006 9.52554001e-006 9.12213363e-006
      9.66000880e-006 9.25660243e-006 7.35645654e-006 9.66000880e-006
      9.12213363e-006 1.14256864e-005 1.14256864e-005 9.12213363e-006
      7.75986337e-006 7.35645654e-006 6.90056231e-006 6.35102310e-007
      1.37643237e-005 9.59670069e-006 1.07309043e-005 1.44309997e-005
      5.75479180e-006 9.37549248e-006 9.42726183e-006 8.19248726e-006
      9.43954001e-006 1.03930997e-005 9.02385545e-006 9.42726183e-006
      9.57400880e-006 7.92354967e-006 9.29279304e-006 7.92354967e-006
      9.97741517e-006 1.03930997e-005 9.02385545e-006 9.15832425e-006
      9.57400880e-006 8.05801847e-006 9.70847759e-006 8.47370211e-006
      9.70847759e-006 9.56173062e-006 8.20476453e-006 9.97741517e-006
      9.43954001e-006 9.29279304e-006 1.08939512e-005 9.98588257e-006
      2.23669886e-005 2.02117335e-005 1.27415888e-005 1.70174899e-005
      1.75061905e-005 1.25592424e-005 1.76697922e-005 1.76697922e-005
      1.76697922e-005 1.76697922e-005 1.76697922e-005 1.76697922e-005
      1.76697922e-005 1.76697922e-005 1.76697922e-005 1.76697922e-005
      1.76697922e-005 1.76697922e-005 1.76697922e-005 1.76697922e-005
      1.76697922e-005 1.76697922e-005 1.43552488e-005 1.27623516e-005
      2.10405415e-005 -7.15754213e-005 -7.44195058e-005 -7.13339541e-005
      -6.93513430e-005 -6.50509392e-005 -7.15019050e-005
      -7.15019050e-005 -7.15019050e-005 -7.15019050e-005
      -7.15019050e-005 -7.15019050e-005 -7.15019050e-005
      -7.15019050e-005 -7.15019050e-005 -7.15019050e-005
      -7.15019050e-005 -7.15019050e-005 -7.15019050e-005
      -7.15019050e-005 -7.15019050e-005 -7.15019050e-005
      -6.60965379e-005 -7.28711893e-005 -7.56687077e-005
      -6.39565260e-005 -9.85058723e-005 -8.53391684e-005
      -9.03576365e-005 -9.51391921e-005 -9.13218391e-005
      -9.13218391e-005 -9.13218391e-005 -9.13218391e-005
      -9.13218391e-005 -9.13218391e-005 -9.13218391e-005
      -9.13218391e-005 -9.13218391e-005 -9.13218391e-005
      -9.13218391e-005 -9.13218391e-005 -9.13218391e-005
      -9.13218391e-005 -9.13218391e-005 -9.13218391e-005
      -8.41301153e-005 -9.01321255e-005 -9.34506897e-005
      -9.14901611e-005 9.60254329e-006 7.39972756e-006 3.65101073e-006
      4.61564838e-007 7.00384089e-006 7.00384089e-006 7.00384089e-006
      7.00384089e-006 7.00384089e-006 7.00384089e-006 7.00384089e-006
      7.00384089e-006 7.00384089e-006 7.00384089e-006 7.00384089e-006
      7.00384089e-006 7.00384089e-006 7.00384089e-006 7.00384089e-006
      7.00384089e-006 7.11736902e-006 7.00384089e-006 5.12984843e-006
      1.04373948e-005 7.23089715e-006 8.67693052e-006 5.07754157e-006
      9.15719647e-006 7.00384089e-006 7.00384089e-006 7.00384089e-006
      7.00384089e-006 7.00384089e-006 7.00384089e-006 7.00384089e-006
      7.00384089e-006 7.00384089e-006 7.00384089e-006 7.00384089e-006
      7.00384089e-006 7.00384089e-006 7.00384089e-006 7.00384089e-006
      7.00384089e-006 8.44557326e-006 4.06484105e-006 8.08052664e-006
      1.08863651e-005 2.97228689e-006 6.14497458e-006 1.02783933e-005
      4.88882915e-006 7.00384089e-006 7.00384089e-006 7.00384089e-006
      7.00384089e-006 7.00384089e-006 7.00384089e-006 7.00384089e-006
      7.00384089e-006 5.17075432e-006 5.91466505e-006 3.24054213e-006
      5.80025699e-006 5.50093273e-006 5.86175565e-006 9.10847757e-006
      7.35944195e-006 9.39107122e-006 9.39107122e-006 7.49092533e-006
      7.49092533e-006 7.49092533e-006 9.39107122e-006 1.12912176e-005
      1.12912176e-005 1.12912176e-005 1.12912176e-005 9.39107122e-006
      9.39107122e-006 9.39107122e-006 9.39107122e-006 9.39107122e-006
      9.39107122e-006 4.03175136e-006 7.83114046e-006 5.35686668e-005
      5.81785425e-005 5.79556945e-005 5.74887054e-005 4.31907829e-005
      4.83670519e-005 5.20983413e-005 5.34483333e-005 5.53484824e-005
      5.47983291e-005 5.28981800e-005 5.15481879e-005 5.39984867e-005
      5.39984867e-005 5.72855170e-005 5.08965059e-005 4.99449961e-005
      4.83189870e-005 5.75729209e-005 2.33261919e-004 2.42490438e-004
      2.34192921e-004 2.39717556e-004 2.39717556e-004 2.39717556e-004
      2.39717556e-004 2.39717556e-004 2.39717556e-004 2.39717556e-004
      2.39717556e-004 2.37047294e-004 2.40326059e-004 2.38066496e-004
      2.36673121e-004 2.38444190e-004 2.39617118e-004 2.37511806e-004
      -1.06727450e-004 -1.07876098e-004 -1.07708263e-004
      -1.17463460e-004 -1.10276822e-004 -1.20831406e-004 3.21293169e-006
      4.50025755e-006 -1.06764368e-004 -1.07942113e-004 -1.13474714e-004
      -1.15436691e-004 -1.14327646e-004 2.99462863e-006 4.85714099e-006
      6.53060488e-006 -1.08851738e-004 5.94372686e-005 5.94372686e-005
      5.94372686e-005 5.94372686e-005 5.94372686e-005 5.94372686e-005
      5.94372686e-005 5.94372686e-005 5.94372686e-005 5.94372686e-005
      5.94372686e-005 5.94372686e-005 5.94372686e-005 5.94372686e-005
      5.94372686e-005 5.94372686e-005 -3.75701420e-005 -3.75701420e-005
      -3.75701420e-005 -3.75701420e-005 -3.75701420e-005
      -3.75701420e-005 -3.75701420e-005 -3.75701420e-005
      -4.15183567e-005 -2.39582478e-005 -4.11942419e-005
      -3.76240096e-005 -4.64058539e-005 -3.67620923e-005
      -1.58910516e-005 -4.35044285e-006 7.00384089e-006 7.00384089e-006
      7.00384089e-006 7.00384089e-006 7.00384089e-006 7.00384089e-006
      7.00384089e-006 7.00384089e-006 4.07710195e-006 9.29659018e-006
      6.32601223e-006 8.82826498e-006 6.98470694e-006 9.13565964e-006
      5.19692912e-006 6.76508307e-006 7.00384089e-006 7.00384089e-006
      7.00384089e-006 7.00384089e-006 7.00384089e-006 7.00384089e-006
      7.00384089e-006 7.00384089e-006 5.95060510e-006 4.04360799e-006
      8.93031847e-006 1.12912176e-005 1.15444436e-005 1.22117062e-005
      9.93084996e-006 7.81654398e-006 1.25970473e-005 6.94630808e-006
      1.26819104e-005 5.37987080e-006 1.10078981e-005 1.09218436e-005
      -1.03093662e-005 -4.87578882e-006 -6.52864628e-006
      -3.81391073e-005 -3.91709254e-005 -3.76883036e-005
      -3.94611525e-005 -3.65639826e-005 -3.84076084e-005
      -3.80420752e-005 -5.35801992e-005 3.63287036e-005 2.79089782e-005
      1.90699957e-005 4.53127250e-005 2.97468159e-005 1.96629990e-005
      4.51598498e-005 3.70793568e-005 3.92534639e-005 1.82568601e-005
      -1.82050295e-004 -1.68628205e-004 -1.65805090e-004
      -1.63670804e-004 -1.59873758e-004 -1.65649442e-004
      -1.64219644e-004 -1.63752993e-004 -1.74622095e-004
      -4.06892250e-005 -5.07317345e-005 -5.19151290e-005
      -4.95869717e-005 -4.74424487e-005 -5.15935426e-005
      -5.47447125e-005 -3.55670309e-005 -8.61317894e-005
      -6.84614570e-005 -7.04930062e-005 -7.38841700e-005
      -6.66696360e-005 -7.54716530e-005 -8.14753585e-005
      -3.31675983e-005 -3.47868154e-005 -3.78134464e-005
      -3.14115241e-005 -2.55783380e-005 -3.60552549e-005 9.98070846e-006
      1.83380453e-005 1.22043753e-006 9.03125238e-006 1.47554356e-005
      5.48782396e-007 4.61403124e-006 6.30045179e-006 -6.36600680e-006
      -2.93011282e-004 -2.86546681e-004 -2.71832600e-004
      -1.44867765e-004 -1.39711046e-004 -1.82926407e-004 1.81875894e-005
      1.81875894e-005 1.81875894e-005 1.81875894e-005 1.81875894e-005
      1.81875894e-005 1.81875894e-005 1.81875894e-005 1.83053253e-005
      1.86627149e-005 1.82161912e-005 1.80811239e-005 1.90123774e-005
      1.74728120e-005 1.91378385e-005 1.80811239e-005 1.81875894e-005
      1.81875894e-005 1.81875894e-005 1.81875894e-005 1.81875894e-005
      1.81875894e-005 1.81875894e-005 1.81875894e-005 1.80222578e-005
      1.83719203e-005 1.78379269e-005 1.82274616e-005 1.83529228e-005
      1.81875894e-005 1.87614532e-005 1.87405785e-005 1.81875894e-005
      1.81875894e-005 1.81875894e-005 1.81875894e-005 1.81875894e-005
      1.81875894e-005 1.81875894e-005 1.81875894e-005 1.80811239e-005
      1.91378385e-005 1.74728120e-005 1.90123774e-005 1.80811239e-005
      1.82161912e-005 1.86627149e-005 1.83053253e-005 1.81875894e-005
      1.81875894e-005 1.81875894e-005 1.81875894e-005 1.81875894e-005
      1.81875894e-005 1.81875894e-005 1.81875894e-005 8.19674824e-006
      3.10935247e-005 1.93568285e-005 2.60205670e-005 1.05997415e-005
      1.12522666e-005 2.90909938e-005 -2.80421646e-005 -1.60941654e-005
      -1.60941654e-005 -1.60941654e-005 -1.60941654e-005
      -1.60941654e-005 -1.60941654e-005 -1.60941654e-005
      -1.60941654e-005 -1.60941654e-005 -1.60941654e-005
      -1.60941654e-005 -1.60941654e-005 -1.60941654e-005
      -1.60941654e-005 -1.60941654e-005 -1.60941654e-005
      -1.60941654e-005 -1.60941654e-005 -1.60941654e-005
      -1.60941654e-005 -1.60941654e-005 -1.60941654e-005
      -1.60941654e-005 -1.60941654e-005 -1.60941654e-005
      -1.60941654e-005 -1.60941654e-005 -1.60941654e-005
      -1.60941654e-005 -1.60941654e-005 -1.60941654e-005
      -1.60941654e-005 -1.60941654e-005 -1.60941654e-005
      -1.60941654e-005 -1.60941654e-005 -1.60941654e-005
      -1.60941654e-005 -1.60941654e-005 -1.60941654e-005
      -1.60941654e-005 -1.60941654e-005 -1.60941654e-005
      -1.60941654e-005 -1.60941654e-005 -1.60941654e-005
      -1.60941654e-005 -1.60941654e-005 -1.60941654e-005
      -1.60941654e-005 -1.60941654e-005 -1.60941654e-005
      -1.60941654e-005 -1.60941654e-005 -1.60941654e-005
      -1.60941654e-005 -1.80392399e-005 -2.56231615e-005
      -1.31143179e-006 -2.51474812e-005 -1.28597085e-005
      -1.21895227e-005 -1.59047086e-005 -3.09710254e-006
      -5.36834796e-006 -5.36834796e-006 -5.36834796e-006
      -5.36834796e-006 -5.36834796e-006 -5.36834796e-006
      -5.36834796e-006 -5.36834796e-006 -5.36834796e-006
      -5.36834796e-006 -5.36834796e-006 -5.36834796e-006
      -5.36834796e-006 -5.36834796e-006 -5.36834796e-006
      -5.36834796e-006 -5.36834796e-006 -5.36834796e-006
      -5.36834796e-006 -5.36834796e-006 -5.36834796e-006
      -5.36834796e-006 -5.36834796e-006 -5.36834796e-006
      -5.36834796e-006 -5.36834796e-006 -5.36834796e-006
      -5.36834796e-006 -5.36834796e-006 -5.36834796e-006
      -5.36834796e-006 -5.36834796e-006 -5.36834796e-006
      -5.36834796e-006 -5.36834796e-006 -5.36834796e-006
      -5.36834796e-006 -5.36834796e-006 -5.36834796e-006
      -5.36834796e-006 -5.36834796e-006 -5.36834796e-006
      -5.36834796e-006 -5.36834796e-006 -5.36834796e-006
      -5.36834796e-006 -5.36834796e-006 -5.36834796e-006
      -5.36834796e-006 -5.36834796e-006 -5.36834796e-006
      -5.36834796e-006 -5.36834796e-006 -5.36834796e-006
      -5.36834796e-006 -5.36834796e-006 6.54317500e-006 -2.38407265e-005
      7.05745208e-007 7.47372087e-006 -1.94461718e-005 1.26799641e-005
      3.20818526e-006 1.71282375e-006 -1.13841440e-006 -1.13841440e-006
      -1.13841440e-006 -1.13841440e-006 -1.13841440e-006
      -1.13841440e-006 -1.13841440e-006 -1.13841440e-006
      -1.13841440e-006 -1.13841440e-006 -1.13841440e-006
      -1.13841440e-006 -1.13841440e-006 -1.13841440e-006
      -1.13841440e-006 -1.13841440e-006 -1.13841440e-006
      -1.13841440e-006 -1.13841440e-006 -1.13841440e-006
      -1.13841440e-006 -1.13841440e-006 -1.13841440e-006
      -1.13841440e-006 -1.13841440e-006 -1.13841440e-006
      -1.13841440e-006 -1.13841440e-006 -1.13841440e-006
      -1.13841440e-006 -1.13841440e-006 -1.13841440e-006
      -1.13841440e-006 -1.13841440e-006 -1.13841440e-006
      -1.13841440e-006 -1.13841440e-006 -1.13841440e-006
      -1.13841440e-006 -1.13841440e-006 -1.13841440e-006
      -1.13841440e-006 -1.13841440e-006 -1.13841440e-006
      -1.13841440e-006 -1.13841440e-006 -1.13841440e-006
      -1.13841440e-006 1.21913570e-006 3.80669263e-007 2.50780545e-006
      -4.82845053e-006 -1.68392347e-007 -7.02226134e-006 1.96912351e-005
      1.62648230e-005 1.64614539e-005 1.64614539e-005 1.64614539e-005
      1.64614539e-005 1.64614539e-005 1.64614539e-005 1.64614539e-005
      1.64614539e-005 1.64614539e-005 1.64614539e-005 1.64614539e-005
      1.64614539e-005 1.64614539e-005 1.64614539e-005 1.64614539e-005
      1.64614539e-005 1.64614539e-005 1.64614539e-005 1.64614539e-005
      1.64614539e-005 1.64614539e-005 1.64614539e-005 1.64614539e-005
      1.64614539e-005 1.64614539e-005 1.64614539e-005 1.64614539e-005
      1.64614539e-005 1.64614539e-005 1.64614539e-005 1.64614539e-005
      1.64614539e-005 1.64614539e-005 1.64614539e-005 1.64614539e-005
      1.64614539e-005 1.64614539e-005 1.64614539e-005 1.64614539e-005
      1.64614539e-005 1.64614539e-005 1.64614539e-005 1.64614539e-005
      1.64614539e-005 1.64614539e-005 1.64614539e-005 1.64614539e-005
      1.64614539e-005 1.64614539e-005 1.64614539e-005 1.64614539e-005
      1.64614539e-005 1.64614539e-005 1.64614539e-005 1.64614539e-005
      1.64614539e-005 1.53360525e-005 -4.77078800e-007 -2.25908843e-005
      -3.63833465e-006 -8.92550997e-006 -1.76320937e-005
      -1.01392898e-005 -4.63160586e-006 -1.01968681e-005
      -1.01968681e-005 -1.01968681e-005 -1.01968681e-005
      -1.01968681e-005 -1.01968681e-005 -1.01968681e-005
      -1.01968681e-005 -1.01968681e-005 -1.01968681e-005
      -1.01968681e-005 -1.01968681e-005 -1.01968681e-005
      -1.01968681e-005 -9.55266751e-006 -9.55266751e-006
      -1.01968681e-005 -1.01968681e-005 -1.01968681e-005
      -1.01968681e-005 -1.01968681e-005 -1.01968681e-005
      -1.01968681e-005 -1.01968681e-005 -1.01968681e-005
      -1.01968681e-005 -1.01968681e-005 -1.01968681e-005
      -1.01968681e-005 -1.01968681e-005 -1.01968681e-005
      -1.01968681e-005 -1.01968681e-005 -1.01968681e-005
      -1.01968681e-005 -1.01968681e-005 -1.01968681e-005
      -1.01968681e-005 -1.08410677e-005 -1.08410677e-005
      -1.01968681e-005 -1.01968681e-005 -1.01968681e-005
      -1.01968681e-005 -1.01968681e-005 -1.01968681e-005
      -1.01968681e-005 -1.01968681e-005 -1.07051674e-005
      -9.35253684e-006 -1.66698192e-006 -3.54912663e-005
      -2.73799160e-005 -2.57412030e-005 -2.63312650e-005
      -2.61544428e-005 -2.82174387e-005 -2.82174387e-005
      -2.82174387e-005 -2.82174387e-005 -2.82174387e-005
      -2.82174387e-005 -2.82174387e-005 -2.82174387e-005
      -2.82174387e-005 -2.82174387e-005 -2.82174387e-005
      -2.82174387e-005 -2.82174387e-005 -2.82174387e-005
      -2.82174387e-005 -2.82174387e-005 -2.82174387e-005
      -2.82174387e-005 -2.82174387e-005 -2.82174387e-005
      -2.82174387e-005 -2.82174387e-005 -2.82174387e-005
      -2.82174387e-005 -2.82174387e-005 -2.82174387e-005
      -2.82174387e-005 -2.82174387e-005 -2.82174387e-005
      -2.82174387e-005 -2.82174387e-005 -2.82174387e-005
      -2.82174387e-005 -2.82174387e-005 -2.82174387e-005
      -2.82174387e-005 -2.82174387e-005 -2.82174387e-005
      -2.82174387e-005 -2.82174387e-005 -2.82174387e-005
      -2.82174387e-005 -2.82174387e-005 -2.82174387e-005
      -2.82174387e-005 -2.82174387e-005 -2.82174387e-005
      -2.82174387e-005 -2.43116683e-005 -2.79221294e-005
      -2.52246427e-005 -3.20405561e-005 1.07367105e-005 6.04362913e-006
      7.47981039e-006 3.59933915e-006 7.36751554e-006 7.36751554e-006
      7.36751554e-006 7.36751554e-006 7.36751554e-006 7.36751554e-006
      7.36751554e-006 7.36751554e-006 7.36751554e-006 7.36751554e-006
      7.36751554e-006 7.36751554e-006 7.36751554e-006 7.36751554e-006
      7.36751554e-006 7.36751554e-006 7.36751554e-006 7.36751554e-006
      7.36751554e-006 7.36751554e-006 7.36751554e-006 7.36751554e-006
      7.36751554e-006 7.36751554e-006 7.36751554e-006 7.36751554e-006
      7.36751554e-006 7.36751554e-006 7.36751554e-006 7.36751554e-006
      7.36751554e-006 7.36751554e-006 7.36751554e-006 7.36751554e-006
      7.36751554e-006 7.36751554e-006 7.36751554e-006 7.36751554e-006
      7.36751554e-006 7.36751554e-006 7.36751554e-006 7.36751554e-006
      7.36751554e-006 7.36751554e-006 7.36751554e-006 7.36751554e-006
      7.36751554e-006 7.36751554e-006 3.26344207e-006 9.98355245e-006
      7.12999372e-006 4.17333058e-006 2.78552998e-005 2.57322445e-005
      2.50818430e-005 3.02075714e-005 2.99539388e-005 2.99539388e-005
      2.99539388e-005 2.99539388e-005 2.99539388e-005 2.99539388e-005
      2.99539388e-005 2.99539388e-005 2.99539388e-005 2.99539388e-005
      2.99539388e-005 2.99539388e-005 2.99539388e-005 2.99539388e-005
      2.99539388e-005 2.99539388e-005 2.99539388e-005 2.99539388e-005
      2.99539388e-005 2.99539388e-005 2.99539388e-005 2.99539388e-005
      2.99539388e-005 2.99539388e-005 2.99539388e-005 2.99539388e-005
      2.99539388e-005 2.99539388e-005 2.99539388e-005 2.99539388e-005
      2.99539388e-005 2.99539388e-005 2.99539388e-005 2.99539388e-005
      2.99539388e-005 2.99539388e-005 2.99539388e-005 2.99539388e-005
      2.99539388e-005 2.99539388e-005 2.99539388e-005 2.99539388e-005
      2.99539388e-005 2.99539388e-005 2.99539388e-005 2.99539388e-005
      2.99539388e-005 2.99539388e-005 3.45818953e-005 2.80401364e-005
      3.37441888e-005 2.24154428e-006 2.80902964e-006 -7.30595593e-006
      -6.04850811e-007 2.37086169e-006 -1.13841440e-006 -1.13841440e-006
      -1.13841440e-006 -1.13841440e-006 -1.13841440e-006
      -1.13841440e-006 -1.13841440e-006 -1.13841440e-006
      -1.13841440e-006 -1.13841440e-006 -1.13841440e-006
      -1.13841440e-006 -1.13841440e-006 -1.13841440e-006
      -1.13841440e-006 -1.13841440e-006 -1.13841440e-006
      -1.13841440e-006 -1.13841440e-006 -1.13841440e-006
      -1.13841440e-006 -1.13841440e-006 -1.13841440e-006
      -1.13841440e-006 -1.13841440e-006 -1.13841440e-006
      -1.13841440e-006 -1.13841440e-006 -1.13841440e-006
      -1.13841440e-006 -1.13841440e-006 -1.13841440e-006
      -1.13841440e-006 -1.13841440e-006 -1.13841440e-006
      -1.13841440e-006 -1.13841440e-006 -1.13841440e-006
      -1.13841440e-006 -1.13841440e-006 -1.13841440e-006
      -1.13841440e-006 -1.13841440e-006 -1.13841440e-006
      -1.13841440e-006 -1.13841440e-006 -1.13841440e-006
      -1.13841440e-006 -6.37044934e-007 -2.78277457e-006 8.19484285e-006
      -1.38262785e-005 -9.26282428e-006 5.65702885e-006 -8.47571300e-006
      6.65129733e-007 -1.53231372e-006 -1.53231372e-006 -1.53231372e-006
      -1.53231372e-006 -1.53231372e-006 -1.53231372e-006
      -1.53231372e-006 -1.53231372e-006 -8.88113505e-007
      -8.88113505e-007 -1.53231372e-006 -1.53231372e-006
      -1.53231372e-006 -1.53231372e-006 -1.53231372e-006
      -1.53231372e-006 -1.53231372e-006 -1.53231372e-006
      -1.53231372e-006 -1.53231372e-006 -1.53231372e-006
      -1.53231372e-006 -1.53231372e-006 -1.53231372e-006
      -1.53231372e-006 -1.53231372e-006 -1.53231372e-006
      -1.53231372e-006 -1.53231372e-006 -1.53231372e-006
      -1.53231372e-006 -1.53231372e-006 -1.53231372e-006
      -1.53231372e-006 -1.53231372e-006 -1.53231372e-006
      -1.53231372e-006 -1.53231372e-006 -1.53231372e-006
      -1.53231372e-006 7.39318557e-006 2.88677029e-006 -6.49097592e-006
      -5.63040931e-006 8.65269067e-006 -1.94673817e-006 6.72347160e-005
      5.74693258e-005 6.40958388e-005 6.40958388e-005 6.40958388e-005
      6.40958388e-005 6.40958388e-005 6.40958388e-005 6.40958388e-005
      6.40958388e-005 6.40958388e-005 6.40958388e-005 6.40958388e-005
      6.40958388e-005 6.40958388e-005 6.40958388e-005 6.40958388e-005
      6.40958388e-005 6.40958388e-005 6.40958388e-005 6.40958388e-005
      6.40958388e-005 6.40958388e-005 6.40958388e-005 6.40958388e-005
      6.40958388e-005 6.40958388e-005 6.40958388e-005 6.40958388e-005
      6.40958388e-005 6.40958388e-005 6.40958388e-005 6.40958388e-005
      6.40958388e-005 6.40958388e-005 6.40958388e-005 6.40958388e-005
      6.40958388e-005 6.40958388e-005 6.40958388e-005 6.40958388e-005
      6.40958388e-005 6.40958388e-005 6.40958388e-005 6.40958388e-005
      6.40958388e-005 6.40958388e-005 6.40958388e-005 6.40958388e-005
      6.40958388e-005 6.55208714e-005 5.28072051e-005 -2.31860977e-005
      -3.00553129e-005 -4.19276839e-005 -3.11518561e-005
      -3.46457382e-005 -3.26539302e-005 -3.66021486e-005
      -3.66021486e-005 -3.66021486e-005 -3.66021486e-005
      -3.66021486e-005 -3.66021486e-005 -3.66021486e-005
      -3.66021486e-005 -3.66021486e-005 -3.66021486e-005
      -3.66021486e-005 -3.66021486e-005 -3.66021486e-005
      -3.66021486e-005 -3.66021486e-005 -3.66021486e-005
      -3.66021486e-005 -3.66021486e-005 -3.66021486e-005
      -3.66021486e-005 -3.66021486e-005 -3.66021486e-005
      -3.66021486e-005 -3.66021486e-005 -3.66021486e-005
      -3.66021486e-005 -3.66021486e-005 -3.66021486e-005
      -3.66021486e-005 -3.66021486e-005 -3.66021486e-005
      -3.66021486e-005 -3.66021486e-005 -3.66021486e-005
      -3.66021486e-005 -3.66021486e-005 -3.66021486e-005
      -3.66021486e-005 -3.66021486e-005 -3.66021486e-005
      -4.34441645e-005 -3.10616779e-005 -4.22466401e-005
      -3.97772928e-005 -3.24267894e-005 -9.29656835e-006
      -1.45567185e-006 -7.52846154e-006 -6.30786599e-006
      -6.30786599e-006 -6.30786599e-006 -6.30786599e-006
      -6.30786599e-006 -6.30786599e-006 -6.30786599e-006
      -6.30786599e-006 -6.30786599e-006 -6.30786599e-006
      -6.30786599e-006 -6.30786599e-006 -6.30786599e-006
      -6.30786599e-006 -6.30786599e-006 -6.30786599e-006
      -6.30786599e-006 -6.30786599e-006 -6.30786599e-006
      -6.30786599e-006 -6.30786599e-006 -6.30786599e-006
      -6.30786599e-006 -6.30786599e-006 -6.30786599e-006
      -6.30786599e-006 -6.30786599e-006 -6.30786599e-006
      -6.30786599e-006 -6.30786599e-006 -6.30786599e-006
      -6.30786599e-006 -6.30786599e-006 -6.30786599e-006
      -6.30786599e-006 -6.30786599e-006 -6.30786599e-006
      -6.30786599e-006 -6.30786599e-006 -6.30786599e-006
      -1.54050099e-006 -6.77004437e-006 -2.06663080e-005 3.79365133e-006
      1.13445903e-005 -6.39767404e-006 -1.00897532e-005 -4.97381461e-006
      -2.96840653e-006 -2.96840653e-006 -2.96840653e-006
      -2.96840653e-006 -2.96840653e-006 -2.96840653e-006
      -2.96840653e-006 -2.96840653e-006 -2.96840653e-006
      -2.96840653e-006 -2.96840653e-006 -2.96840653e-006
      -2.96840653e-006 -2.96840653e-006 -2.96840653e-006
      -2.96840653e-006 -2.96840653e-006 -2.96840653e-006
      -2.96840653e-006 -2.96840653e-006 -2.96840653e-006
      -2.96840653e-006 -2.96840653e-006 -2.96840653e-006
      -2.96840653e-006 -2.96840653e-006 -2.96840653e-006
      -2.96840653e-006 -2.96840653e-006 -2.96840653e-006
      -2.96840653e-006 -2.96840653e-006 -2.96840653e-006
      -2.96840653e-006 -2.96840653e-006 -2.96840653e-006
      -2.96840653e-006 -2.96840653e-006 -2.96840653e-006
      -2.96840653e-006 -2.96840653e-006 -2.96840653e-006
      -2.96840653e-006 -2.96840653e-006 -2.96840653e-006
      -2.96840653e-006 -2.96840653e-006 -2.96840653e-006 5.40432593e-005
      5.40432593e-005 5.40432593e-005 5.40432593e-005 5.40432593e-005
      5.40432593e-005 5.40432593e-005 5.40432593e-005 5.40432593e-005
      5.40432593e-005 5.40432593e-005 5.40432593e-005 5.40432593e-005
      5.40432593e-005 5.40432593e-005 5.40432593e-005 5.40432593e-005
      5.40432593e-005 5.40432593e-005 5.40432593e-005 5.40432593e-005
      5.40432593e-005 5.40432593e-005 5.40432593e-005 5.40432593e-005
      5.40432593e-005 5.40432593e-005 5.40432593e-005 5.40432593e-005
      5.40432593e-005 5.40432593e-005 5.40432593e-005 5.40432593e-005
      5.40432593e-005 5.40432593e-005 5.40432593e-005 5.40432593e-005
      5.40432593e-005 5.40432593e-005 5.40432593e-005 5.40432593e-005
      5.40432593e-005 5.40432593e-005 5.40432593e-005 5.40432593e-005
      5.40432593e-005 5.40432593e-005 5.40432593e-005 -2.05101560e-006
      -2.05101560e-006 -2.05101560e-006 -2.05101560e-006
      -2.05101560e-006 -2.05101560e-006 -2.05101560e-006
      -2.05101560e-006 -2.05101560e-006 -2.05101560e-006
      -2.05101560e-006 -2.05101560e-006 -2.05101560e-006
      -2.05101560e-006 -2.05101560e-006 -2.05101560e-006
      -2.05101560e-006 -2.05101560e-006 -2.05101560e-006
      -2.05101560e-006 -2.05101560e-006 -2.05101560e-006
      -2.05101560e-006 -2.05101560e-006 -2.05101560e-006
      -2.05101560e-006 -2.05101560e-006 -2.05101560e-006
      -2.05101560e-006 -2.05101560e-006 -2.05101560e-006
      -2.05101560e-006 -2.05101560e-006 -2.05101560e-006
      -2.05101560e-006 -2.05101560e-006 -2.05101560e-006
      -2.05101560e-006 -2.05101560e-006 -2.05101560e-006 5.64512447e-006
      -1.51276197e-006 -6.40163762e-007 8.06567914e-006 7.14746693e-006
      9.12504311e-006 -7.67390793e-006 3.94275012e-005 4.35845795e-005
      4.35845795e-005 4.35845795e-005 4.35845795e-005 4.35845795e-005
      4.35845795e-005 4.35845795e-005 4.35845795e-005 4.35845795e-005
      4.35845795e-005 4.35845795e-005 4.35845795e-005 4.35845795e-005
      4.35845795e-005 4.35845795e-005 4.35845795e-005 4.35845795e-005
      4.35845795e-005 4.35845795e-005 4.35845795e-005 4.35845795e-005
      4.35845795e-005 4.35845795e-005 4.35845795e-005 4.35845795e-005
      4.35845795e-005 4.35845795e-005 4.35845795e-005 4.35845795e-005
      4.35845795e-005 4.35845795e-005 4.35845795e-005 4.35845795e-005
      4.35845795e-005 4.35845795e-005 4.35845795e-005 4.35845795e-005
      4.35845795e-005 4.35845795e-005 4.35845795e-005 4.69288352e-005
      5.49971192e-005 3.21244006e-005 3.39940198e-005 5.18596717e-005
      1.16495548e-005 2.48604938e-005 1.80124625e-005 1.66011359e-005
      1.66011359e-005 1.66011359e-005 1.66011359e-005 1.66011359e-005
      1.66011359e-005 1.66011359e-005 1.66011359e-005 1.66011359e-005
      1.66011359e-005 1.66011359e-005 1.66011359e-005 1.66011359e-005
      1.66011359e-005 1.66011359e-005 1.66011359e-005 1.66011359e-005
      1.66011359e-005 1.66011359e-005 1.66011359e-005 1.66011359e-005
      1.66011359e-005 1.66011359e-005 1.66011359e-005 1.66011359e-005
      1.66011359e-005 1.66011359e-005 1.66011359e-005 1.66011359e-005
      1.66011359e-005 1.66011359e-005 1.66011359e-005 1.66011359e-005
      1.66011359e-005 1.66011359e-005 1.66011359e-005 1.66011359e-005
      1.66011359e-005 1.66011359e-005 1.66011359e-005 1.23822820e-005
      2.60729284e-005 -1.72027703e-005 -1.27476533e-005 -1.28253323e-005
      -2.28931203e-005 -1.31317156e-005 -1.32608247e-005
      -1.60941654e-005 -1.60941654e-005 -1.60941654e-005
      -1.60941654e-005 -1.60941654e-005 -1.60941654e-005
      -1.60941654e-005 -1.60941654e-005 -1.60941654e-005
      -1.60941654e-005 -1.60941654e-005 -1.60941654e-005
      -1.60941654e-005 -1.60941654e-005 -1.60941654e-005
      -1.60941654e-005 -1.60941654e-005 -1.60941654e-005
      -1.60941654e-005 -1.60941654e-005 -1.60941654e-005
      -1.60941654e-005 -1.60941654e-005 -1.60941654e-005
      -1.60941654e-005 -1.60941654e-005 -1.60941654e-005
      -1.60941654e-005 -1.60941654e-005 -1.60941654e-005
      -1.60941654e-005 -1.60941654e-005 -1.07373316e-005
      -1.92207353e-005 -2.01826515e-005 -1.27552112e-005
      -1.26415143e-005 -2.66915013e-005 1.35923965e-005 -8.89233161e-006
      -1.13841440e-006 -1.13841440e-006 -1.13841440e-006
      -1.13841440e-006 -1.13841440e-006 -1.13841440e-006
      -1.13841440e-006 -1.13841440e-006 -1.13841440e-006
      -1.13841440e-006 -1.13841440e-006 -1.13841440e-006
      -1.13841440e-006 -1.13841440e-006 -1.13841440e-006
      -1.13841440e-006 -1.13841440e-006 -1.13841440e-006
      -1.13841440e-006 -1.13841440e-006 -1.13841440e-006
      -1.13841440e-006 -1.13841440e-006 -1.13841440e-006
      -1.13841440e-006 -1.13841440e-006 -1.13841440e-006
      -1.13841440e-006 -1.13841440e-006 -1.13841440e-006
      -1.13841440e-006 -1.13841440e-006 -1.13841440e-006
      -1.13841440e-006 -1.13841440e-006 -1.13841440e-006
      -1.13841440e-006 -1.13841440e-006 -1.13841440e-006
      -1.13841440e-006 -9.91537945e-006 -7.46512596e-005
      -9.47354492e-005 -8.34398888e-005 -7.73581924e-005
      -9.68427848e-005 -8.84723340e-005 -8.19791094e-005
      -8.97996215e-005 -8.96628917e-005 -8.93608303e-005
      -9.07870417e-005 -9.05152483e-005 -9.04962508e-005
      -9.06615824e-005 -9.08269139e-005 -9.08459115e-005
      -9.08459115e-005 -9.08459115e-005 -9.08459115e-005
      -9.08459115e-005 -9.08459115e-005 -9.08459115e-005
      -9.08459115e-005 -9.10112431e-005 -9.13988988e-005
      -9.03041946e-005 -9.10588424e-005 -9.09713708e-005
      -9.03707842e-005 -9.10778399e-005 -9.04962508e-005
      -9.08269139e-005 -9.06615824e-005 -9.04962508e-005
      -9.05152483e-005 -9.07870417e-005 -9.07680442e-005
      -9.10701128e-005 -9.12068426e-005 -8.38647466e-005
      -8.83425237e-005 -8.28989432e-005 -5.32000331e-006
      -1.49219486e-005 -1.19991373e-005 -2.95909376e-006
      -7.60773446e-006 -8.41248129e-006 -8.41248129e-006
      -8.41248129e-006 -8.41248129e-006 -8.41248129e-006
      -8.41248129e-006 -8.41248129e-006 -8.41248129e-006
      -8.41248129e-006 -8.41248129e-006 -8.41248129e-006
      -8.41248129e-006 -8.41248129e-006 -8.41248129e-006
      -8.41248129e-006 -8.41248129e-006 -8.41248129e-006
      -8.41248129e-006 -8.41248129e-006 -8.41248129e-006
      -8.41248129e-006 -8.41248129e-006 -8.41248129e-006
      -8.41248129e-006 -8.41248129e-006 -8.41248129e-006
      -8.41248129e-006 -8.41248129e-006 -8.41248129e-006
      -8.41248129e-006 -8.41248129e-006 -8.41248129e-006
      -8.50637025e-006 -7.54593657e-006 -1.35747575e-006 1.60128855e-006
      -3.47124442e-005 -3.17495687e-005 -2.38973316e-005
      -2.77251766e-005 -2.82174387e-005 -2.82174387e-005
      -2.82174387e-005 -2.82174387e-005 -2.82174387e-005
      -2.82174387e-005 -2.82174387e-005 -2.82174387e-005
      -2.82174387e-005 -2.82174387e-005 -2.82174387e-005
      -2.82174387e-005 -2.82174387e-005 -2.82174387e-005
      -2.82174387e-005 -2.82174387e-005 -2.82174387e-005
      -2.82174387e-005 -2.82174387e-005 -2.82174387e-005
      -2.82174387e-005 -2.82174387e-005 -2.82174387e-005
      -2.82174387e-005 -2.82174387e-005 -2.82174387e-005
      -2.82174387e-005 -2.82174387e-005 -2.82174387e-005
      -2.82174387e-005 -2.82174387e-005 -2.82174387e-005
      -3.07279115e-005 -2.42189253e-005 -1.16606489e-005
      -4.17854681e-005 8.11422724e-005 5.67110619e-005 7.05548809e-005
      7.35670474e-005 6.78778524e-005 6.77237913e-005 6.79669902e-005
      6.84231200e-005 6.84041224e-005 6.85295818e-005 6.82577884e-005
      6.80924495e-005 6.80145895e-005 6.80145895e-005 6.80145895e-005
      6.80145895e-005 6.80145895e-005 6.80145895e-005 6.80145895e-005
      6.80145895e-005 6.81989186e-005 6.73361355e-005 6.86151761e-005
      6.79669902e-005 6.79479926e-005 6.88393775e-005 6.81323218e-005
      6.84231200e-005 6.80924495e-005 6.82577884e-005 6.85295818e-005
      6.84041224e-005 6.84231200e-005 6.79669902e-005 6.77237913e-005
      6.78778524e-005 6.39840728e-005 7.23667545e-005 7.15837377e-005
      9.76717201e-005 7.49238170e-005 1.01834805e-004 9.19220838e-005
      9.09829323e-005 9.13368349e-005 9.13368349e-005 9.13368349e-005
      9.13368349e-005 9.13368349e-005 9.13368349e-005 9.13368349e-005
      9.13368349e-005 9.14147022e-005 9.15800338e-005 9.18518272e-005
      9.17263678e-005 9.17453654e-005 9.12892356e-005 9.10460367e-005
      9.12001051e-005 9.13368349e-005 9.13368349e-005 9.13368349e-005
      9.13368349e-005 9.13368349e-005 9.13368349e-005 9.13368349e-005
      9.13368349e-005 9.12303731e-005 9.22870822e-005 9.06220594e-005
      9.21616229e-005 9.12303731e-005 9.13654367e-005 9.18119622e-005
      9.14545672e-005 9.77790332e-005 -2.19812373e-005 -3.79974663e-005
      -3.38903701e-005 -2.28457156e-005 -3.92429320e-005
      -2.26186821e-005 -2.91881479e-005 -3.03960587e-005
      -3.03960587e-005 -3.03960587e-005 -3.03960587e-005
      -3.03960587e-005 -3.03960587e-005 -3.03960587e-005
      -3.03960587e-005 -3.03960587e-005 -3.03960587e-005
      -3.03960587e-005 -3.03960587e-005 -3.03960587e-005
      -3.03960587e-005 -3.03960587e-005 -3.03960587e-005
      -3.03960587e-005 -3.03960587e-005 -3.03960587e-005
      -3.03960587e-005 -3.03960587e-005 -3.03960587e-005
      -3.03960587e-005 -3.03960587e-005 -3.52535681e-005
      -2.38484026e-005 -3.23070344e-005 -1.31219713e-005
      -2.71805420e-005 -3.60844351e-005 6.32842275e-005 4.02111109e-005
      4.69526713e-005 4.69526713e-005 4.69526713e-005 4.69526713e-005
      4.69526713e-005 4.69526713e-005 4.69526713e-005 4.69526713e-005
      4.69526713e-005 4.69526713e-005 4.69526713e-005 4.69526713e-005
      4.69526713e-005 4.69526713e-005 4.69526713e-005 4.69526713e-005
      4.69526713e-005 4.69526713e-005 4.69526713e-005 4.69526713e-005
      4.69526713e-005 4.69526713e-005 4.69526713e-005 4.69526713e-005
      4.69526713e-005 4.69526713e-005 4.69526713e-005 4.69526713e-005
      4.69526713e-005 4.69526713e-005 4.69526713e-005 4.69526713e-005
      4.34586509e-005 4.48123210e-005 2.46231843e-006 1.79923391e-005
      -9.95710434e-006 9.11897132e-006 -5.42575344e-006 3.22715277e-006
      3.96482710e-006 3.96482710e-006 3.96482710e-006 3.96482710e-006
      3.96482710e-006 3.96482710e-006 3.96482710e-006 3.96482710e-006
      3.96482710e-006 3.96482710e-006 3.96482710e-006 3.96482710e-006
      3.96482710e-006 3.96482710e-006 3.96482710e-006 3.96482710e-006
      3.96482710e-006 3.96482710e-006 3.96482710e-006 3.96482710e-006
      3.96482710e-006 3.96482710e-006 3.96482710e-006 3.96482710e-006
      5.38996346e-006 2.80161612e-006 -2.94575716e-006 -2.01167791e-006
      1.30137832e-005 -3.01766286e-005 -8.47835599e-006 -1.83225602e-005
      -1.63727709e-005 -1.63727709e-005 -1.63727709e-005
      -1.63727709e-005 -1.63727709e-005 -1.63727709e-005
      -1.63727709e-005 -1.63727709e-005 -1.63727709e-005
      -1.63727709e-005 -1.63727709e-005 -1.63727709e-005
      -1.63727709e-005 -1.63727709e-005 -1.63727709e-005
      -1.63727709e-005 -1.63727709e-005 -1.63727709e-005
      -1.63727709e-005 -1.63727709e-005 -1.63727709e-005
      -1.63727709e-005 -1.63727709e-005 -1.63727709e-005
      -1.87235346e-005 -2.31696595e-005 -1.56298233e-006
      -3.03571851e-005 -2.08884758e-005 -2.10901380e-005
      -2.94785332e-005 3.11557196e-005 3.25758047e-005 3.25758047e-005
      3.25758047e-005 3.25758047e-005 3.25758047e-005 3.25758047e-005
      3.25758047e-005 3.25758047e-005 3.25758047e-005 3.25758047e-005
      3.25758047e-005 3.25758047e-005 3.25758047e-005 3.25758047e-005
      3.25758047e-005 3.25758047e-005 3.25758047e-005 3.25758047e-005
      3.25758047e-005 3.25758047e-005 3.25758047e-005 3.25758047e-005
      3.25758047e-005 3.25758047e-005 3.25758047e-005 3.25758047e-005
      3.25758047e-005 3.25758047e-005 3.25758047e-005 3.25758047e-005
      3.25758047e-005 3.25758047e-005 -1.13841440e-006 -1.13841440e-006
      -1.13841440e-006 -1.13841440e-006 -1.13841440e-006
      -1.13841440e-006 -1.13841440e-006 -1.13841440e-006
      -7.29884334e-007 -1.02067918e-006 -3.13627424e-007
      -1.20500886e-006 -1.18601201e-006 -5.37827816e-007
      -1.81686539e-006 -9.54084726e-007 -1.13841440e-006
      -1.13841440e-006 -1.13841440e-006 -1.13841440e-006
      -1.13841440e-006 -1.13841440e-006 -1.13841440e-006
      -1.13841440e-006 -4.39089490e-007 -1.20500886e-006
      -9.54084726e-007 -1.53567441e-006 -9.84351573e-007
      -1.55467137e-006 -6.04422269e-007 -7.48881234e-007
      -1.19728202e-006 -1.19728202e-006 -1.19728202e-006
      -1.19728202e-006 -1.19728202e-006 -1.19728202e-006
      -1.19728202e-006 -1.19728202e-006 -1.19728202e-006
      -1.19728202e-006 -1.19728202e-006 -1.19728202e-006
      -1.19728202e-006 -1.19728202e-006 -1.19728202e-006
      -1.19728202e-006 -1.19728202e-006 -1.19728202e-006
      -1.19728202e-006 -1.19728202e-006 -1.19728202e-006
      -1.19728202e-006 -1.19728202e-006 -1.19728202e-006
      -1.62635104e-006 1.42168926e-006 -4.84574059e-007 3.78346022e-006
      -4.49070740e-006 -3.92695847e-006 3.91876483e-006 -3.83971565e-006
      -1.13841440e-006 -1.13841440e-006 -1.13841440e-006
      -1.13841440e-006 -1.13841440e-006 -1.13841440e-006
      -1.13841440e-006 -1.13841440e-006 -7.48881234e-007
      -6.04422269e-007 -1.55467137e-006 -9.84351573e-007
      -1.53567441e-006 -9.54084726e-007 -1.20500886e-006
      -4.39089490e-007 -1.13841440e-006 -1.13841440e-006
      -1.13841440e-006 -1.13841440e-006 -1.13841440e-006
      -1.13841440e-006 -1.13841440e-006 -1.13841440e-006
      -3.57777412e-006 -1.43324496e-005 4.42089504e-006 -9.02731756e-008
      2.41535872e-006 -5.94866151e-006 1.32773030e-005 -4.60125830e-006
      -1.58180217e-006 -1.58180217e-006 -1.58180217e-006
      -1.58180217e-006 -1.58180217e-006 -1.58180217e-006
      -1.58180217e-006 -1.58180217e-006 -1.71853424e-006
      -1.87259707e-006 -1.62939978e-006 -1.17327215e-006
      -1.19226900e-006 -1.06680693e-006 -1.33860487e-006
      -1.50393771e-006 -1.17327215e-006 -1.46406694e-006
      -7.57015187e-007 -1.64839662e-006 -1.62939978e-006
      -9.81215521e-007 -2.26025327e-006 -1.39747249e-006 2.41691555e-006
      -1.59630326e-006 -5.69187296e-006 3.93924211e-006 1.39862073e-006
      8.46146406e-007 1.41724945e-006 -6.55797021e-006 -1.13841440e-006
      -1.13841440e-006 -1.13841440e-006 -1.13841440e-006
      -1.13841440e-006 -1.13841440e-006 -1.13841440e-006
      -1.13841440e-006 -1.13841440e-006 -1.13841440e-006
      -1.13841440e-006 -1.13841440e-006 -1.13841440e-006
      -1.13841440e-006 -1.13841440e-006 -1.13841440e-006
      -2.97115571e-006 -3.80784036e-006 4.13295402e-006 -1.04619744e-006
      -3.28322380e-006 -3.96814312e-006 -3.24285138e-005
      -3.31196388e-005 -3.40393817e-005 -3.40393817e-005
      -3.40393817e-005 -3.40393817e-005 -3.40393817e-005
      -3.40393817e-005 -3.40393817e-005 -3.40393817e-005
      -3.40393817e-005 -3.40393817e-005 -3.40393817e-005
      -3.40393817e-005 -3.40393817e-005 -3.40393817e-005
      -3.40393817e-005 -3.40393817e-005 -3.40393817e-005
      -3.40393817e-005 -3.40393817e-005 -3.40393817e-005
      -3.40393817e-005 -3.40393817e-005 -3.40393817e-005
      -3.40393817e-005 -1.88320410e-005 1.22778447e-005 2.56431613e-005
      4.93111911e-005 1.56726328e-005 2.74231443e-005 3.79440098e-005
      2.58112686e-005 3.03698398e-005 3.03698398e-005 3.03698398e-005
      3.03698398e-005 3.03698398e-005 3.03698398e-005 3.03698398e-005
      3.03698398e-005 3.03698398e-005 3.03698398e-005 3.03698398e-005
      3.03698398e-005 3.03698398e-005 3.03698398e-005 3.03698398e-005
      3.03698398e-005 3.89545748e-005 1.66509126e-005 5.18116940e-005
      -6.14042801e-005 -3.20196268e-005 -3.98974480e-005
      -4.78347611e-005 -2.77717627e-005 -4.00019089e-005
      -3.96445212e-005 -4.00910430e-005 -4.02261103e-005
      -3.92948568e-005 -4.08344240e-005 -3.91693975e-005
      -4.02261103e-005 -4.01196448e-005 -4.01196448e-005
      -4.01196448e-005 -4.01196448e-005 -4.01196448e-005
      -4.01196448e-005 -4.01196448e-005 -4.01196448e-005
      -3.91928006e-005 -3.93815499e-005 -4.16841685e-005
      -4.04034763e-005 3.47625864e-005 3.44276596e-005 3.59121259e-005
      2.83410336e-005 3.14911049e-005 3.14911049e-005 3.14911049e-005
      3.14911049e-005 3.14911049e-005 3.14911049e-005 3.14911049e-005
      3.14911049e-005 3.14911049e-005 3.14911049e-005 3.14911049e-005
      3.14911049e-005 3.14911049e-005 3.14911049e-005 3.14911049e-005
      3.14911049e-005 3.41853811e-005 2.78296557e-005 3.30666116e-005
      4.15859795e-005 -1.05937386e-006 6.72522401e-006 1.18677408e-005
      3.58009038e-006 7.36751554e-006 7.36751554e-006 7.36751554e-006
      7.36751554e-006 7.36751554e-006 7.36751554e-006 7.36751554e-006
      7.36751554e-006 7.36751554e-006 7.36751554e-006 7.36751554e-006
      7.36751554e-006 7.36751554e-006 7.36751554e-006 7.36751554e-006
      7.36751554e-006 7.73297688e-006 5.04531818e-006 2.09036375e-006
      -6.35484366e-006 -5.11359576e-006 -3.23393721e-007
      -3.26550185e-006 4.20385618e-007 -1.13841440e-006 -1.13841440e-006
      -1.13841440e-006 -1.13841440e-006 -1.13841440e-006
      -1.13841440e-006 -1.13841440e-006 -1.13841440e-006
      -1.13841440e-006 -1.13841440e-006 -1.13841440e-006
      -1.13841440e-006 -1.13841440e-006 -1.13841440e-006
      -1.13841440e-006 -1.13841440e-006 -1.92742255e-006 1.53837209e-005
      1.45566019e-005 1.90995415e-005 1.66003319e-005 1.47176033e-005
      1.87194109e-005 1.38007126e-005 1.64614539e-005 1.64614539e-005
      1.64614539e-005 1.64614539e-005 1.64614539e-005 1.64614539e-005
      1.64614539e-005 1.64614539e-005 1.89300463e-005 2.00500417e-005
      5.67372444e-006 1.71882566e-005 9.12091491e-006 2.97486877e-005
      2.35516181e-005 2.92157456e-005 2.77961244e-005 2.76420615e-005
      2.77597974e-005 2.82159235e-005 2.86131835e-005 2.83223890e-005
      2.80505919e-005 2.78852585e-005 2.83413865e-005 2.77407999e-005
      2.85733131e-005 2.76819319e-005 2.77597974e-005 2.84079815e-005
      2.71289427e-005 2.81171851e-005 3.21972584e-005 2.42676069e-005
      2.32356560e-005 2.55029718e-005 7.02954139e-006 1.32130826e-005
      2.06948243e-005 2.10433336e-005 1.81875894e-005 1.81875894e-005
      1.81875894e-005 1.81875894e-005 1.81875894e-005 1.81875894e-005
      1.81875894e-005 1.81875894e-005 2.12425803e-005 1.18450826e-005
      2.22375220e-005 1.67175876e-005 2.38594985e-005 -1.00012073e-006
      -2.77488471e-006 -6.36821733e-006 -1.13841440e-006
      -1.13841440e-006 -1.13841440e-006 -1.13841440e-006
      -1.13841440e-006 -1.13841440e-006 -1.13841440e-006
      -1.13841440e-006 -3.68459018e-006 -3.24403823e-006
      -6.58521776e-006 1.79161441e-006 1.24454289e-007 4.40875237e-006
      5.36865173e-006 7.61684714e-005 8.22573711e-005 8.22573711e-005
      8.22573711e-005 8.22573711e-005 8.22573711e-005 8.22573711e-005
      8.22573711e-005 8.22573711e-005 8.22573711e-005 8.22573711e-005
      8.22573711e-005 8.22573711e-005 8.22573711e-005 8.22573711e-005
      8.22573711e-005 8.22573711e-005 -1.13841440e-006 -1.13841440e-006
      -1.13841440e-006 -1.13841440e-006 -1.13841440e-006
      -1.13841440e-006 -1.13841440e-006 -1.13841440e-006
      -4.39089490e-007 -1.20500886e-006 -9.54084726e-007
      -1.53567441e-006 -9.84351573e-007 -1.55467137e-006
      -6.04422269e-007 -7.48881234e-007 2.99539388e-005 2.99539388e-005
      2.99539388e-005 2.99539388e-005 2.99539388e-005 2.99539388e-005
      2.99539388e-005 2.99539388e-005 3.00803404e-005 2.21673854e-005
      3.84753439e-005 4.16762814e-005 1.92204425e-005 2.10616199e-005
      4.41606498e-005 -9.71447662e-006 -4.63176320e-006 -4.63176320e-006
      -4.63176320e-006 -4.63176320e-006 -4.63176320e-006
      -4.63176320e-006 -4.63176320e-006 -4.63176320e-006
      -4.20673814e-006 -1.16042850e-006 -9.45553620e-006
      -1.78850405e-006 -1.98039670e-005 1.07347087e-005 -1.00094639e-005
      1.67400765e-006 -1.13841440e-006 -1.13841440e-006 -1.13841440e-006
      -1.13841440e-006 -1.13841440e-006 -1.13841440e-006
      -1.13841440e-006 -1.13841440e-006 -1.74852147e-007
      -8.46565581e-006 1.79080926e-005 2.06394579e-005 2.11006609e-005
      2.42699498e-005 3.24000976e-005 2.27393357e-005 2.26516586e-005
      3.15552425e-005 2.37720214e-005 1.94718104e-005 2.25219483e-005
      1.80377137e-005 -5.01117574e-006 2.81375355e-006 2.91735546e-006
      2.91735546e-006 2.91735546e-006 2.91735546e-006 2.91735546e-006
      2.91735546e-006 2.91735546e-006 2.91735546e-006 2.90421099e-006
      -1.10461278e-005 -8.19073534e-007 -5.87911813e-007
      -7.79799939e-006 -4.42543205e-006 -2.12534383e-006
      -4.43010640e-006 -5.87806426e-006 -6.20266746e-007
      -1.08731538e-005 2.71674310e-007 -4.82813266e-006 2.26435577e-006
      -6.48567448e-006 2.04048956e-006 -1.20151796e-007 5.11840653e-006
      -5.88629609e-006 -1.37290920e-006 4.92937124e-006 9.33219599e-006
      2.44966691e-006 5.63739422e-006 4.24485779e-006 4.31371427e-006
      1.35961463e-005 5.75000649e-006 6.49336926e-006 -6.19635193e-006
      7.07272875e-006 2.80775521e-006 -5.92671176e-006 1.50091191e-005
      -8.04863248e-006 -5.08162702e-006 9.02708734e-007 2.07808876e-006
      1.53454982e-006 -7.04937293e-007 -1.64820165e-006 -2.58433611e-005
      -1.56740862e-005 -3.19009559e-005 -1.77791080e-005
      -2.50285138e-005 -3.07941773e-005 -1.82290623e-005
      -8.38199230e-006 -2.68668591e-005 -9.72700946e-005
      -1.07604152e-004 -9.98221731e-005 3.49408697e-006 -2.71757330e-007
      -5.38049881e-006</_></support_vectors>
  <decision_functions>
    <_>
      <sv_count>1</sv_count>
      <rho>1.3811558727504505e+000</rho>
      <alpha>
        1.</alpha>
      <index>
        0</index></_></decision_functions></my_svm>
</opencv_storage>
