<?xml version="1.0"?>
<opencv_storage>
<my_svm type_id="opencv-ml-svm">
  <svm_type>C_SVC</svm_type>
  <kernel><type>LINEAR</type></kernel>
  <C>1.</C>
  <term_criteria><epsilon>2.2204460492503131e-016</epsilon>
    <iterations>100</iterations></term_criteria>
  <var_all>4544</var_all>
  <var_count>4544</var_count>
  <class_count>2</class_count>
  <class_labels type_id="opencv-matrix">
    <rows>1</rows>
    <cols>2</cols>
    <dt>i</dt>
    <data>
      22 255</data></class_labels>
  <sv_total>1</sv_total>
  <support_vectors>
    <_>
      -4.16178203e-008 -7.83796565e-007 -1.71405691e-006
      -1.55667777e-007 -1.55667777e-007 2.00237665e-007 1.08529866e-006
      3.17140666e-006 1.69676878e-006 7.17386365e-006 5.73889247e-006
      -2.28679710e-006 2.81038751e-006 6.73437808e-006 5.59197815e-006
      3.38194036e-006 -6.83815813e-007 -6.83815813e-007 1.10405374e-007
      2.20986499e-006 2.34399135e-006 4.44769370e-007 -3.49451796e-007
      -2.80231404e-007 3.53748374e-006 1.92762036e-006 2.57411921e-006
      3.26349004e-006 3.41772784e-006 2.89137211e-006 1.31812442e-006
      3.96768291e-006 2.75785055e-007 2.75785055e-007 0. 0. 0.
      2.38921416e-006 3.45690455e-006 3.59856335e-006 1.78596338e-006
      5.99015323e-007 1.45268280e-006 2.71422118e-006 4.70681971e-006
      2.90907383e-006 3.87343971e-006 7.37545952e-006 1.72446119e-006
      1.85858744e-006 2.69760176e-006 1.64229380e-006 3.06921174e-006
      1.60417812e-006 1.60417812e-006 1.60417812e-006 1.06655889e-007
      9.42807162e-007 4.55799045e-006 2.42518536e-006 1.07367873e-006
      3.34364017e-007 0. 4.43215595e-006 1.06655889e-007 1.06655889e-007
      -1.14821648e-006 0. 0. 2.98252462e-006 2.98252462e-006
      3.26283703e-006 5.52324127e-006 5.52324127e-006 9.16475074e-007 0.
      0. -2.65143598e-007 1.55948817e-006 1.84330440e-006 0. 0. 0. 0.
      3.34364017e-007 9.67022856e-007 9.67022856e-007 9.67022856e-007 0.
      0. 0. 0. 0. 0. 1.36853350e-006 1.36853350e-006 0. 0. 0.
      -2.71556473e-007 -2.71556473e-007 0. -1.24883329e-007
      -1.24883329e-007 3.34364017e-007 3.34364017e-007 0.
      1.09048426e-006 1.09048426e-006 2.17186857e-006 3.34364017e-007
      3.34364017e-007 9.16475074e-007 9.16475074e-007 0. 0. 0.
      1.42691795e-006 2.31999934e-006 2.60381580e-006 1.42691795e-006
      1.76128196e-006 1.76128196e-006 2.09564587e-006 2.09564587e-006
      1.76128196e-006 1.76128196e-006 1.42691795e-006 1.09048426e-006
      1.09048426e-006 1.09048426e-006 0. 0. 3.68585262e-007
      3.68585262e-007 3.68585262e-007 0. 0. 0. 0. 0. 0. 0. 0. 0. 0. 0.
      0. 0. 0. 0. 0. 0. 0. 0. 0. 0. 0. 0. 0. 0. 0. 0. 0. 0. 0. 0. 0. 0.
      0. 0. 0. 0. 0. 0. 0. 0. 0. 0. 0. 0. 0. 0. 0. 0. 0. 0. 0. 0. 0. 0.
      0. 0. 0. 0. 0. 0. 0. 0. 0. 0. 0. 0. 0. 0. 0. 0. 0. 0. 0. 0. 0. 0.
      0. 0. 0. 0. 0. 0. 0. 0. 0. 0. 0. 0. 0. 0. 0. 0. 0. 0. 0. 0. 0. 0.
      0. 0. 0. 0. 0. 0. 0. 0. 0. 0. 0. 0. 0. 0. 0. 0. 0. 0. 0. 0. 0.
      7.43535065e-006 7.39322650e-006 2.13014459e-006 -2.59065405e-006
      -3.13812734e-006 -2.84611588e-006 -4.33988220e-007
      -2.73531464e-006 1.85277156e-006 5.46410277e-008 -7.03784463e-006
      1.59329272e-006 -2.52556606e-006 -6.08592791e-006 5.19273215e-007
      1.98658495e-006 -4.55624331e-006 -3.40447036e-006 -3.04560854e-006
      -6.89475883e-007 -1.52853477e-006 -2.04580056e-006
      -1.99234182e-006 -3.01476962e-006 9.63513571e-007 -2.10120834e-006
      -2.47444518e-006 -3.51108474e-006 -1.49495429e-006 2.07061066e-006
      1.90571006e-006 -5.97010057e-006 2.04470803e-006 -8.72445014e-008
      -5.82924656e-007 -2.08932056e-006 -6.07366360e-007
      -1.94314475e-006 3.04032415e-006 2.08958727e-006 3.75071704e-006
      4.87097225e-007 -4.10145913e-006 -1.64480718e-006 -2.42933606e-006
      2.10001258e-006 2.89702689e-006 2.15758655e-006 -6.37376206e-006
      -2.56476119e-006 -4.05512264e-006 -6.92125968e-006
      -2.27394821e-006 -2.24270457e-006 -2.26949260e-006 5.43812178e-007
      3.05859385e-006 3.11782901e-006 1.04291701e-006 2.57584202e-006
      6.93417121e-007 1.50008509e-006 2.38871871e-006 2.33612423e-006
      5.93507957e-006 2.90724688e-006 -2.11836641e-006 -3.27372777e-006
      -4.11195560e-006 -3.42552244e-006 -1.65418192e-006
      -7.40693110e-007 -5.31577189e-006 -1.62143806e-007
      -4.13716919e-007 -4.79885375e-006 -5.41265990e-006
      -1.48367133e-006 1.82259146e-006 -3.31620049e-006 -3.19642436e-006
      1.14457009e-006 -2.76174796e-006 -1.17036950e-006 -4.06812069e-006
      2.44928810e-006 1.42880060e-006 3.30974490e-006 -1.25170232e-006
      -4.45697879e-006 -8.30932731e-006 -6.43327576e-006 3.52641041e-006
      2.08153506e-006 2.14250804e-006 -6.97849089e-007 -2.32911611e-006
      -5.18399133e-007 5.02836110e-006 1.95630787e-006 2.90873049e-006
      -8.89894181e-007 8.26332325e-007 1.01446183e-007 4.45056048e-006
      7.21671267e-006 7.37842583e-006 1.03056755e-005 7.58265242e-006
      3.26243162e-006 3.27334396e-006 4.13542830e-006 4.13926136e-006
      4.30416185e-006 4.00587032e-006 2.11970496e-006 2.82726683e-006
      1.35749497e-006 7.72177430e-007 6.22584508e-008 -7.21983781e-007
      6.58235649e-007 2.16089552e-006 -1.24883329e-007 8.42139457e-007
      8.12314829e-006 4.75445586e-006 2.06934578e-006 -5.97378494e-006
      -6.38536449e-006 -1.20232937e-006 1.07916293e-007 1.78926655e-006
      2.71193949e-006 2.97495853e-006 -9.40713164e-007 -3.70492728e-007
      1.33559843e-006 3.31975525e-006 8.16390730e-006 5.85407088e-006
      5.78445588e-006 2.37487461e-006 -7.36022287e-007 8.30827412e-006
      4.97553719e-006 5.72101953e-006 3.33255389e-006 3.76196908e-006
      1.70214867e-006 2.06715004e-006 2.85511192e-006 7.45327611e-007
      4.13970429e-006 -7.52374831e-007 -8.50899596e-007 -6.09303072e-007
      1.01381022e-006 -3.54723284e-007 -3.13930826e-007 2.11778774e-006
      6.01465490e-006 2.71112071e-006 1.94064319e-006 4.43277304e-006
      1.81115468e-006 1.88006311e-006 6.57202781e-006 -1.55053579e-006
      -2.36231836e-006 4.21195728e-006 5.70959764e-006 4.13233556e-006
      -6.03589683e-007 -2.33812420e-006 -1.53262295e-006
      -1.04095511e-006 3.53515293e-006 8.37635889e-006 6.10163261e-006
      2.35198900e-006 -7.01519696e-007 -3.76250966e-007 6.36114578e-007
      -5.33865750e-006 -4.58724071e-006 1.18723290e-006 2.91536503e-006
      4.22272797e-006 8.05529680e-007 -6.97855376e-006 -6.45910586e-006
      -3.66219001e-006 -3.38157497e-006 1.57301452e-006 1.77305424e-007
      1.33131675e-006 1.48614527e-006 6.55805081e-007 1.94094105e-006
      1.80505117e-006 -1.45559724e-007 4.21461891e-006 7.01547970e-006
      2.43590171e-006 3.17093577e-006 -2.46498166e-006 -1.05634251e-006
      -1.05681374e-006 1.44325759e-006 3.78263348e-006 2.33690298e-006
      2.16968601e-006 2.27580998e-007 5.13292377e-007 -1.53240353e-006
      4.15263548e-006 3.34337801e-006 -1.36360029e-006 -9.00851660e-008
      6.15130102e-006 6.51643859e-006 3.14025829e-006 4.18153877e-006
      -1.45080139e-006 -5.76487037e-006 -9.51140191e-006
      -8.73347471e-006 -9.87168551e-006 -7.01910903e-006
      -2.49407412e-006 -3.48224785e-006 -4.44604848e-006
      -8.31537909e-006 -7.39315738e-006 -4.70789928e-006
      -4.22148150e-006 -8.91728905e-006 -9.24050619e-006
      -3.08771610e-006 -1.98752264e-006 -1.52922917e-006
      -1.62955416e-006 -4.39399946e-006 -1.01184594e-006
      -2.28356726e-006 1.55763462e-006 -6.44981014e-007 -1.79918311e-006
      -3.34149490e-007 -8.39060476e-007 -1.63639857e-006
      -1.70472651e-006 -4.92254003e-006 -2.82037240e-006
      -3.10068481e-006 -8.82985623e-005 -8.82985623e-005
      -8.82985623e-005 -8.82985623e-005 -8.82985623e-005
      -8.82985623e-005 -8.82985623e-005 -8.82985623e-005
      -8.82985623e-005 -8.82985623e-005 -8.82985623e-005
      -8.82985623e-005 -8.82985623e-005 -8.82985623e-005
      -8.82985623e-005 -8.82985623e-005 -8.82985623e-005
      -8.82985623e-005 -8.82985623e-005 -8.82985623e-005
      -8.82985623e-005 -8.82985623e-005 -8.82985623e-005
      -8.82985623e-005 -8.82985623e-005 -8.82985623e-005
      -8.82985623e-005 -8.82985623e-005 -8.82985623e-005
      -8.82985623e-005 -8.82985623e-005 -8.82985623e-005
      -8.82985623e-005 -8.82985623e-005 -8.82985623e-005
      -8.82985623e-005 -8.82985623e-005 -8.82985623e-005
      -8.82985623e-005 -8.82985623e-005 -8.82985623e-005
      -8.82985623e-005 -8.82985623e-005 -8.82985623e-005
      -8.82985623e-005 -8.82985623e-005 -8.82985623e-005
      -8.82985623e-005 -8.82985623e-005 -8.82985623e-005
      -8.82985623e-005 -8.82985623e-005 -8.82985623e-005
      -8.82985623e-005 -8.82985623e-005 -8.82985623e-005
      -7.74925284e-005 -9.81442936e-005 -8.19350389e-005
      -7.33105335e-005 -1.02798585e-004 -8.22550064e-005
      -7.15913047e-005 -6.52888411e-006 -8.16152078e-006
      -8.16152078e-006 -8.16152078e-006 -8.16152078e-006
      -8.16152078e-006 -8.16152078e-006 -8.16152078e-006
      -8.16152078e-006 -8.16152078e-006 -8.16152078e-006
      -8.16152078e-006 -8.16152078e-006 -8.16152078e-006
      -8.16152078e-006 -8.16152078e-006 -8.16152078e-006
      -8.16152078e-006 -8.16152078e-006 -8.16152078e-006
      -8.16152078e-006 -8.16152078e-006 -8.16152078e-006
      -8.16152078e-006 -8.16152078e-006 -8.16152078e-006
      -8.16152078e-006 -8.16152078e-006 -8.16152078e-006
      -8.16152078e-006 -8.16152078e-006 -8.16152078e-006
      -8.16152078e-006 -8.16152078e-006 -8.16152078e-006
      -8.16152078e-006 -8.16152078e-006 -8.16152078e-006
      -8.16152078e-006 -8.16152078e-006 -8.16152078e-006
      -8.16152078e-006 -8.16152078e-006 -8.16152078e-006
      -8.16152078e-006 -8.16152078e-006 -8.16152078e-006
      -8.16152078e-006 -8.16152078e-006 -8.16152078e-006
      -8.16152078e-006 -8.16152078e-006 -8.16152078e-006
      -8.16152078e-006 -8.16152078e-006 -8.16152078e-006
      -8.16152078e-006 -7.62834316e-006 -9.88854299e-006
      -1.46616903e-005 -9.99246822e-007 -2.24045580e-005
      -3.03822821e-006 -6.26397014e-006 -5.15360944e-006
      -5.26263511e-006 -5.26263511e-006 -5.26263511e-006
      -5.26263511e-006 -5.26263511e-006 -5.26263511e-006
      -5.26263511e-006 -5.26263511e-006 -5.26263511e-006
      -5.26263511e-006 -5.26263511e-006 -5.26263511e-006
      -5.26263511e-006 -5.26263511e-006 -5.26263511e-006
      -5.26263511e-006 -5.26263511e-006 -5.26263511e-006
      -5.26263511e-006 -5.26263511e-006 -5.26263511e-006
      -5.26263511e-006 -5.26263511e-006 -5.26263511e-006
      -5.26263511e-006 -5.26263511e-006 -5.26263511e-006
      -5.26263511e-006 -5.26263511e-006 -5.26263511e-006
      -5.26263511e-006 -5.26263511e-006 -5.26263511e-006
      -5.26263511e-006 -5.26263511e-006 -5.26263511e-006
      -5.26263511e-006 -5.26263511e-006 -5.26263511e-006
      -5.26263511e-006 -5.26263511e-006 -5.26263511e-006
      -5.26263511e-006 -5.26263511e-006 -5.26263511e-006
      -5.26263511e-006 -5.26263511e-006 -5.26263511e-006
      -5.26263511e-006 -5.26263511e-006 -5.26263511e-006
      -5.26263511e-006 -5.26263511e-006 -5.26263511e-006
      -5.26263511e-006 -5.26263511e-006 -4.24925656e-006
      -6.27601412e-006 -5.26263511e-006 -5.26263511e-006
      -5.26263511e-006 -7.28939267e-006 -2.22249901e-006
      -7.28939267e-006 -5.26263511e-006 -5.26263511e-006
      -5.26263511e-006 -5.26263511e-006 -5.26263511e-006
      -5.26263511e-006 -5.26263511e-006 -5.26263511e-006
      -5.26263511e-006 -5.26263511e-006 -5.26263511e-006
      -5.26263511e-006 -5.26263511e-006 -5.26263511e-006
      -5.26263511e-006 -5.26263511e-006 -5.26263511e-006
      -5.26263511e-006 -5.26263511e-006 -5.26263511e-006
      -5.26263511e-006 -5.26263511e-006 -5.26263511e-006
      -5.26263511e-006 -5.26263511e-006 -5.26263511e-006
      -5.26263511e-006 -5.26263511e-006 -5.26263511e-006
      -5.26263511e-006 -5.26263511e-006 -5.26263511e-006
      -5.26263511e-006 -5.26263511e-006 -5.26263511e-006
      -5.26263511e-006 -5.26263511e-006 -5.26263511e-006
      -5.26263511e-006 -5.26263511e-006 -5.26263511e-006
      -5.26263511e-006 -5.26263511e-006 -5.26263511e-006
      -5.26263511e-006 -5.26263511e-006 -5.26263511e-006
      -5.26263511e-006 -4.06406798e-006 -6.61529839e-006
      -7.24795700e-006 -8.32645674e-006 -7.14374619e-006
      -3.54035683e-006 5.63518515e-005 5.94379380e-005 5.58357933e-005
      5.58357933e-005 5.58357933e-005 5.58357933e-005 5.58357933e-005
      5.58357933e-005 5.58357933e-005 5.58357933e-005 5.58357933e-005
      5.58357933e-005 5.58357933e-005 5.58357933e-005 5.58357933e-005
      5.58357933e-005 5.58357933e-005 5.58357933e-005 5.58357933e-005
      5.58357933e-005 5.58357933e-005 5.58357933e-005 5.58357933e-005
      5.58357933e-005 5.58357933e-005 5.58357933e-005 5.58357933e-005
      5.58357933e-005 5.58357933e-005 5.58357933e-005 5.58357933e-005
      5.58357933e-005 5.58357933e-005 5.58357933e-005 5.58357933e-005
      5.58357933e-005 5.58357933e-005 5.58357933e-005 5.58357933e-005
      5.58357933e-005 5.58357933e-005 5.58357933e-005 5.58357933e-005
      5.58357933e-005 5.58357933e-005 5.58357933e-005 5.58357933e-005
      5.58357933e-005 5.58357933e-005 5.58357933e-005 5.58357933e-005
      5.58357933e-005 5.58357933e-005 5.58357933e-005 5.58357933e-005
      5.58357933e-005 5.58357933e-005 5.58357933e-005 3.91920767e-005
      -8.29277542e-006 -4.64433542e-005 -3.45261797e-005
      -3.61932434e-005 -4.15100330e-005 -2.90332282e-005
      -2.90378866e-005 -2.84553498e-005 -2.84553498e-005
      -2.84553498e-005 -2.84553498e-005 -2.84553498e-005
      -2.84553498e-005 -2.84553498e-005 -2.84553498e-005
      -2.84553498e-005 -2.84553498e-005 -2.84553498e-005
      -2.84553498e-005 -2.84553498e-005 -2.84553498e-005
      -2.84553498e-005 -2.84553498e-005 -2.84553498e-005
      -2.84553498e-005 -2.84553498e-005 -2.84553498e-005
      -2.84553498e-005 -2.84553498e-005 -2.84553498e-005
      -2.84553498e-005 -2.84553498e-005 -2.84553498e-005
      -2.84553498e-005 -2.84553498e-005 -2.84553498e-005
      -2.84553498e-005 -2.84553498e-005 -2.84553498e-005
      -2.84553498e-005 -2.84553498e-005 -2.84553498e-005
      -2.84553498e-005 -2.84553498e-005 -2.84553498e-005
      -2.84553498e-005 -2.84553498e-005 -2.84553498e-005
      -2.84553498e-005 -2.84553498e-005 -2.84553498e-005
      -2.84553498e-005 -2.84553498e-005 -2.84553498e-005
      -2.84553498e-005 -1.98692578e-005 -1.68434453e-005
      -3.84878185e-005 6.25985267e-005 7.11770917e-005 5.09551610e-005
      5.83313558e-005 6.44152242e-005 6.22389707e-005 6.22389707e-005
      6.22389707e-005 6.22389707e-005 6.22389707e-005 6.22389707e-005
      6.22389707e-005 6.22389707e-005 6.22389707e-005 6.22389707e-005
      6.22389707e-005 6.22389707e-005 6.22389707e-005 6.22389707e-005
      6.22389707e-005 6.22389707e-005 6.22389707e-005 6.22389707e-005
      6.22389707e-005 6.22389707e-005 6.22389707e-005 6.22389707e-005
      6.22389707e-005 6.22389707e-005 6.22389707e-005 6.22389707e-005
      6.22389707e-005 6.22389707e-005 6.22389707e-005 6.22389707e-005
      6.22389707e-005 6.22389707e-005 6.22389707e-005 6.22389707e-005
      6.22389707e-005 6.22389707e-005 6.22389707e-005 6.22389707e-005
      6.22389707e-005 6.22389707e-005 6.22389707e-005 6.22389707e-005
      6.22389707e-005 6.22389707e-005 6.22389707e-005 6.22389707e-005
      6.22389707e-005 6.22389707e-005 6.28925118e-005 6.64390391e-005
      6.66025589e-005 6.63764367e-005 -5.57365311e-005 -6.54850592e-005
      -6.36016994e-005 -6.42951854e-005 -6.33893214e-005
      -6.33893214e-005 -6.33893214e-005 -6.33893214e-005
      -6.33893214e-005 -6.33893214e-005 -6.33893214e-005
      -6.33893214e-005 -6.33893214e-005 -6.33893214e-005
      -6.33893214e-005 -6.33893214e-005 -6.33893214e-005
      -6.33893214e-005 -6.33893214e-005 -6.33893214e-005
      -6.33893214e-005 -6.33893214e-005 -6.33893214e-005
      -6.33893214e-005 -6.33893214e-005 -6.33893214e-005
      -6.33893214e-005 -6.33893214e-005 -6.33893214e-005
      -6.33893214e-005 -6.33893214e-005 -6.33893214e-005
      -6.33893214e-005 -6.33893214e-005 -6.33893214e-005
      -6.33893214e-005 -6.33893214e-005 -6.33893214e-005
      -6.33893214e-005 -6.33893214e-005 -6.33893214e-005
      -6.33893214e-005 -6.33893214e-005 -6.33893214e-005
      -6.33893214e-005 -6.33893214e-005 -6.33893214e-005
      -6.33893214e-005 -6.33893214e-005 -6.33893214e-005
      -6.33893214e-005 -6.33893214e-005 -8.20438581e-005
      -5.67164534e-005 -6.82396058e-005 -7.54661378e-005
      -8.09476751e-006 -1.40972670e-005 -2.63256297e-005
      -8.89254977e-007 -1.42969520e-005 -1.42969520e-005
      -1.42969520e-005 -1.42969520e-005 -1.42969520e-005
      -1.42969520e-005 -1.42969520e-005 -1.42969520e-005
      -1.42969520e-005 -1.42969520e-005 -1.42969520e-005
      -1.42969520e-005 -1.42969520e-005 -1.42969520e-005
      -1.42969520e-005 -1.42969520e-005 -1.42969520e-005
      -1.42969520e-005 -1.42969520e-005 -1.42969520e-005
      -1.42969520e-005 -1.42969520e-005 -1.42969520e-005
      -1.42969520e-005 -1.42969520e-005 -1.42969520e-005
      -1.42969520e-005 -1.42969520e-005 -1.42969520e-005
      -1.42969520e-005 -1.42969520e-005 -1.42969520e-005
      -1.42969520e-005 -1.42969520e-005 -1.42969520e-005
      -1.42969520e-005 -1.42969520e-005 -1.42969520e-005
      -1.42969520e-005 -1.42969520e-005 -1.42969520e-005
      -1.42969520e-005 -1.42969520e-005 -1.42969520e-005
      -1.42969520e-005 -1.42969520e-005 -1.42969520e-005
      -1.42969520e-005 -3.49397828e-006 -9.39035635e-006
      -3.21598122e-007 -1.34511392e-005 -9.33147021e-006
      -5.58763531e-006 -5.38102404e-006 -6.69998690e-006
      -5.26263511e-006 -5.26263511e-006 -5.26263511e-006
      -5.26263511e-006 -5.26263511e-006 -5.26263511e-006
      -5.26263511e-006 -5.26263511e-006 -5.26263511e-006
      -5.26263511e-006 -5.26263511e-006 -5.26263511e-006
      -5.26263511e-006 -5.26263511e-006 -5.26263511e-006
      -5.26263511e-006 -5.26263511e-006 -5.26263511e-006
      -5.26263511e-006 -5.26263511e-006 -5.26263511e-006
      -5.26263511e-006 -5.26263511e-006 -5.26263511e-006
      -5.26263511e-006 -7.10707809e-006 -4.34041385e-006
      -3.41819236e-006 -5.26263511e-006 -5.26263511e-006
      -4.34041385e-006 -7.10707809e-006 -5.26263511e-006
      -5.26263511e-006 -4.34041385e-006 -6.18485683e-006
      -6.18485683e-006 -4.34041385e-006 -5.26263511e-006
      -5.26263511e-006 -6.18485683e-006 -6.18485683e-006
      -3.41819236e-006 -7.10707809e-006 -4.34041385e-006
      -6.18485683e-006 -6.18485683e-006 -3.41819236e-006 6.20809351e-006
      -1.38776613e-005 -1.47550090e-005 -1.70766145e-006
      -5.31031719e-006 1.50794813e-006 -1.30335354e-006 -7.24379834e-006
      -5.26263511e-006 -5.26263511e-006 -5.26263511e-006
      -5.26263511e-006 -5.26263511e-006 -5.26263511e-006
      -5.26263511e-006 -5.26263511e-006 -5.26263511e-006
      -5.26263511e-006 -5.26263511e-006 -5.26263511e-006
      -5.26263511e-006 -5.26263511e-006 -5.26263511e-006
      -5.26263511e-006 -5.26263511e-006 -5.26263511e-006
      -5.26263511e-006 -5.26263511e-006 -5.26263511e-006
      -5.26263511e-006 -5.26263511e-006 -5.26263511e-006
      -5.26263511e-006 -4.34041385e-006 -6.18485683e-006
      -5.26263511e-006 -5.26263511e-006 -4.34041385e-006
      -7.10707809e-006 -5.26263511e-006 -4.34041385e-006
      -4.34041385e-006 -6.18485683e-006 -6.18485683e-006
      -6.18485683e-006 -5.26263511e-006 -5.26263511e-006
      -4.34041385e-006 -4.45293063e-006 -8.48171658e-006
      -5.20756521e-006 -2.58132786e-006 -1.07323976e-005 9.82950610e-007
      -8.67121071e-006 -4.16146895e-006 -4.34041385e-006
      -5.26263511e-006 -5.26263511e-006 -4.34041385e-006
      -4.34041385e-006 -6.18485683e-006 -6.18485683e-006
      -5.26263511e-006 -5.26263511e-006 -5.26263511e-006
      -5.26263511e-006 -5.26263511e-006 -5.26263511e-006
      -5.26263511e-006 -5.26263511e-006 -5.26263511e-006
      -5.26263511e-006 -5.26263511e-006 -5.26263511e-006
      -5.26263511e-006 -5.26263511e-006 -5.26263511e-006
      -5.26263511e-006 -5.26263511e-006 -3.41819236e-006
      -6.18485683e-006 -6.18485683e-006 -4.34041385e-006
      -7.10707809e-006 -3.41819236e-006 -6.18485683e-006
      -6.18485683e-006 -7.10707809e-006 -4.34041385e-006
      -5.26263511e-006 -5.26263511e-006 -3.41819236e-006
      -4.34041385e-006 -7.10707809e-006 -5.26263511e-006
      -7.10707809e-006 -4.34041385e-006 -5.26263511e-006
      -5.26263511e-006 -3.41819236e-006 -4.34041385e-006
      -7.10707809e-006 -5.26263511e-006 -1.46277362e-005 7.70440920e-008
      -2.65145027e-005 -1.92390835e-005 -2.39305355e-005
      -1.81549676e-005 -3.58789221e-005 -1.85589106e-005
      -2.32938164e-005 -2.32938164e-005 -2.32938164e-005
      -2.32938164e-005 -2.32938164e-005 -2.32938164e-005
      -2.32938164e-005 -2.32938164e-005 -2.32938164e-005
      -2.32938164e-005 -2.32938164e-005 -2.32938164e-005
      -2.32938164e-005 -2.32938164e-005 -2.32938164e-005
      -2.32938164e-005 -2.32938164e-005 -2.32938164e-005
      -2.32938164e-005 -2.32938164e-005 -2.32938164e-005
      -2.32938164e-005 -2.32938164e-005 -2.32938164e-005
      -2.32938164e-005 -2.51382589e-005 -2.23715942e-005
      -2.32938164e-005 -2.32938164e-005 -2.42160368e-005
      -2.23715942e-005 -2.32938164e-005 -2.42160368e-005
      -2.23715942e-005 -2.32938164e-005 -2.32938164e-005
      -2.32938164e-005 -2.32938164e-005 -2.23715942e-005
      -2.42160368e-005 -1.74005581e-005 -3.87366526e-005
      -8.59091051e-006 -3.57164572e-005 -1.53031415e-005 4.26662846e-005
      6.69701549e-005 5.21542752e-005 5.48636090e-005 5.48636090e-005
      5.48636090e-005 5.48636090e-005 5.48636090e-005 5.48636090e-005
      5.48636090e-005 5.48636090e-005 5.48636090e-005 5.48636090e-005
      5.48636090e-005 5.48636090e-005 5.48636090e-005 5.48636090e-005
      5.48636090e-005 5.48636090e-005 5.48636090e-005 5.48636090e-005
      5.48636090e-005 5.48636090e-005 5.48636090e-005 5.48636090e-005
      5.48636090e-005 5.48636090e-005 5.39413886e-005 5.48636090e-005
      5.39413886e-005 5.48636090e-005 5.48636090e-005 5.48636090e-005
      5.48636090e-005 5.39413886e-005 5.39413886e-005 5.67080497e-005
      5.30191646e-005 5.67080497e-005 5.39413886e-005 5.57858293e-005
      5.20969443e-005 5.57858293e-005 5.47310374e-005 5.04899035e-005
      5.19570458e-005 6.01987449e-005 4.24853279e-005 7.15275310e-005
      4.10336688e-005 5.48046446e-005 4.91133615e-005 4.91133615e-005
      4.91133615e-005 4.91133615e-005 4.91133615e-005 4.91133615e-005
      4.91133615e-005 4.91133615e-005 4.91133615e-005 4.91133615e-005
      4.91133615e-005 4.91133615e-005 4.91133615e-005 4.91133615e-005
      4.91133615e-005 4.91133615e-005 4.91133615e-005 4.91133615e-005
      4.91133615e-005 4.91133615e-005 4.91133615e-005 4.91133615e-005
      4.91133615e-005 4.91133615e-005 4.91133615e-005 4.91133615e-005
      4.91133615e-005 4.91133615e-005 4.91133615e-005 4.91133615e-005
      4.91133615e-005 4.91133615e-005 4.91133615e-005 4.91133615e-005
      4.91133615e-005 4.91133615e-005 4.91133615e-005 4.91133615e-005
      4.91133615e-005 4.91133615e-005 4.91133615e-005 4.91133615e-005
      4.91133615e-005 4.91133615e-005 4.91133615e-005 4.91133615e-005
      4.91133615e-005 4.91133615e-005 -4.21417053e-006 -4.21417053e-006
      -4.21417053e-006 -4.21417053e-006 -4.21417053e-006
      -4.21417053e-006 -4.21417053e-006 -4.21417053e-006
      -4.21417053e-006 -4.21417053e-006 -4.21417053e-006
      -4.21417053e-006 -4.21417053e-006 -4.21417053e-006
      -4.21417053e-006 -4.21417053e-006 -4.21417053e-006
      -4.21417053e-006 -4.21417053e-006 -4.21417053e-006
      -4.21417053e-006 -4.21417053e-006 -4.21417053e-006
      -4.21417053e-006 -4.21417053e-006 -4.21417053e-006
      -4.21417053e-006 -4.21417053e-006 -4.21417053e-006
      -4.21417053e-006 -4.21417053e-006 -4.21417053e-006
      -4.21417053e-006 -4.21417053e-006 -4.21417053e-006
      -4.21417053e-006 -4.21417053e-006 -4.21417053e-006
      -4.21417053e-006 -4.21417053e-006 -4.21417053e-006
      -4.21417053e-006 -4.21417053e-006 -4.21417053e-006
      -4.21417053e-006 -4.21417053e-006 -4.21417053e-006
      -4.21417053e-006 -5.26263511e-006 -5.26263511e-006
      -5.26263511e-006 -5.26263511e-006 -5.26263511e-006
      -5.26263511e-006 -5.26263511e-006 -5.26263511e-006
      -5.26263511e-006 -5.26263511e-006 -5.26263511e-006
      -5.26263511e-006 -5.26263511e-006 -5.26263511e-006
      -5.26263511e-006 -5.26263511e-006 -5.26263511e-006
      -5.26263511e-006 -5.26263511e-006 -5.26263511e-006
      -5.26263511e-006 -5.26263511e-006 -5.26263511e-006
      -5.26263511e-006 -5.26263511e-006 -5.26263511e-006
      -5.26263511e-006 -5.26263511e-006 -5.26263511e-006
      -5.26263511e-006 -5.26263511e-006 -5.26263511e-006
      -5.26263511e-006 -5.26263511e-006 -5.26263511e-006
      -5.26263511e-006 -5.26263511e-006 -5.26263511e-006
      -5.26263511e-006 -5.26263511e-006 -6.36380173e-006
      -1.19927165e-006 -3.70079238e-006 -1.90851509e-007
      -3.89632532e-006 -1.72166019e-005 -4.53594657e-006 4.48769981e-007
      -5.26263511e-006 -5.26263511e-006 -5.26263511e-006
      -5.26263511e-006 -5.26263511e-006 -5.26263511e-006
      -5.26263511e-006 -5.26263511e-006 -5.26263511e-006
      -5.26263511e-006 -5.26263511e-006 -5.26263511e-006
      -5.26263511e-006 -5.26263511e-006 -5.26263511e-006
      -5.26263511e-006 -5.26263511e-006 -5.26263511e-006
      -5.26263511e-006 -5.26263511e-006 -5.26263511e-006
      -5.26263511e-006 -5.26263511e-006 -5.26263511e-006
      -5.26263511e-006 -7.10707809e-006 -4.34041385e-006
      -5.26263511e-006 -5.26263511e-006 -6.18485683e-006
      -4.34041385e-006 -5.26263511e-006 -6.18485683e-006
      -4.34041385e-006 -5.26263511e-006 -5.26263511e-006
      -5.26263511e-006 -5.26263511e-006 -4.34041385e-006
      -6.18485683e-006 2.99942053e-006 -8.46667263e-006 -3.31029082e-006
      -6.57061719e-006 5.93748200e-006 -1.08149834e-005 -3.59958835e-006
      -7.26084454e-006 -5.43664464e-006 -4.62997650e-006
      -5.54645158e-006 -5.54645158e-006 -4.73978344e-006
      -5.54645158e-006 -4.91379296e-006 -4.91379296e-006
      -3.82330836e-006 -3.82330836e-006 -3.82330836e-006
      -3.82330836e-006 -3.82330836e-006 -3.82330836e-006
      -3.82330836e-006 -3.82330836e-006 -3.83123688e-006
      -5.05830303e-006 -9.92072637e-006 -2.06546201e-006
      -9.13510667e-006 -5.61281513e-006 -1.56940564e-006
      -5.90892796e-006 -7.52012284e-006 -3.21386028e-006
      -8.99850420e-006 -2.98768350e-006 -5.44622117e-006
      -6.53503685e-006 -2.49162713e-006 -4.98670624e-006
      -7.52012284e-006 -3.21386028e-006 -8.99850420e-006
      -2.98768350e-006 -5.44622117e-006 -6.53503685e-006
      -2.49162713e-006 -4.98670624e-006 -4.47204741e-007
      -9.60442867e-006 -5.80450387e-006 3.21764651e-006 -1.06733823e-005
      3.52642815e-007 1.26532171e-007 -8.43027283e-006 -5.26263511e-006
      -5.26263511e-006 -5.26263511e-006 -5.26263511e-006
      -5.26263511e-006 -5.26263511e-006 -5.26263511e-006
      -5.26263511e-006 -5.26263511e-006 -5.26263511e-006
      -5.26263511e-006 -5.26263511e-006 -5.26263511e-006
      -5.26263511e-006 -5.26263511e-006 -5.26263511e-006
      -5.26263511e-006 -5.26263511e-006 -5.26263511e-006
      -5.26263511e-006 -5.26263511e-006 -5.26263511e-006
      -5.26263511e-006 -5.26263511e-006 -5.26263511e-006
      -5.26263511e-006 -5.26263511e-006 -5.26263511e-006
      -5.26263511e-006 -5.26263511e-006 -5.26263511e-006
      -5.26263511e-006 -1.12155039e-005 2.68638496e-006 -8.54882182e-006
      -9.69102621e-006 -6.28505722e-006 -7.52964206e-006
      -3.29255672e-005 -1.52198309e-005 -2.32938164e-005
      -2.32938164e-005 -2.32938164e-005 -2.32938164e-005
      -2.32938164e-005 -2.32938164e-005 -2.32938164e-005
      -2.32938164e-005 -2.32938164e-005 -2.32938164e-005
      -2.32938164e-005 -2.32938164e-005 -2.32938164e-005
      -2.32938164e-005 -2.32938164e-005 -2.32938164e-005
      -2.32938164e-005 -2.32938164e-005 -2.32938164e-005
      -2.32938164e-005 -2.32938164e-005 -2.32938164e-005
      -2.32938164e-005 -2.32938164e-005 -2.32938164e-005
      -2.32938164e-005 -2.32938164e-005 -2.32938164e-005
      -2.32938164e-005 -2.32938164e-005 -2.32938164e-005
      -2.32938164e-005 -2.32938164e-005 -2.32938164e-005
      -2.32938164e-005 -2.32938164e-005 -2.32938164e-005
      -2.32938164e-005 -2.32938164e-005 -2.32938164e-005
      -3.75989512e-005 8.84973342e-005 8.33297163e-005 8.25788593e-005
      7.99753034e-005 8.11764257e-005 9.04955596e-005 7.98022957e-005
      8.22070506e-005 8.22070506e-005 8.22070506e-005 8.22070506e-005
      8.22070506e-005 8.22070506e-005 8.22070506e-005 8.22070506e-005
      8.22070506e-005 8.22070506e-005 8.22070506e-005 8.22070506e-005
      8.22070506e-005 8.22070506e-005 8.22070506e-005 8.22070506e-005
      8.22070506e-005 8.31292709e-005 8.31292709e-005 8.12848230e-005
      8.22070506e-005 8.22070506e-005 8.12848230e-005 8.31292709e-005
      8.31292709e-005 7.94403823e-005 8.31292709e-005 8.12848230e-005
      8.40514913e-005 8.03626026e-005 8.40514913e-005 8.12848230e-005
      7.02993857e-005 1.01260739e-004 7.04973645e-005 -2.84420075e-005
      -4.07403386e-005 -4.75140587e-005 -2.20809725e-005
      -4.90381244e-005 -3.94550116e-005 -3.94550116e-005
      -3.94550116e-005 -3.94550116e-005 -3.94550116e-005
      -3.94550116e-005 -3.94550116e-005 -3.94550116e-005
      -3.94550116e-005 -3.94550116e-005 -3.94550116e-005
      -3.94550116e-005 -3.94550116e-005 -3.94550116e-005
      -3.94550116e-005 -3.94550116e-005 -3.94550116e-005
      -3.94550116e-005 -3.94550116e-005 -3.94550116e-005
      -3.94550116e-005 -3.94550116e-005 -3.94550116e-005
      -3.94550116e-005 -3.94550116e-005 -3.94550116e-005
      -3.94550116e-005 -3.94550116e-005 -3.94550116e-005
      -3.94550116e-005 -3.94550116e-005 -3.94550116e-005
      -3.89046472e-005 -4.60767187e-005 -4.44430298e-005
      -3.62272331e-005 -9.05789693e-006 -3.22515916e-006
      -5.53407790e-006 -5.60575836e-006 -4.04212778e-006
      -4.04212778e-006 -4.04212778e-006 -4.04212778e-006
      -4.04212778e-006 -4.04212778e-006 -4.04212778e-006
      -4.04212778e-006 -4.04212778e-006 -4.04212778e-006
      -4.04212778e-006 -4.04212778e-006 -4.04212778e-006
      -4.04212778e-006 -4.04212778e-006 -4.04212778e-006
      -4.04212778e-006 -4.04212778e-006 -4.04212778e-006
      -4.04212778e-006 -4.04212778e-006 -4.04212778e-006
      -4.04212778e-006 -4.04212778e-006 -4.04212778e-006
      -4.04212778e-006 -4.04212778e-006 -4.04212778e-006
      -4.04212778e-006 -4.04212778e-006 -4.04212778e-006
      -4.04212778e-006 3.14032604e-006 -5.98847510e-006 -6.86169824e-006
      -1.07321866e-005 -5.20540254e-007 -4.69473935e-006
      -4.89930881e-006 -1.76262256e-005 -5.26263511e-006
      -5.26263511e-006 -5.26263511e-006 -5.26263511e-006
      -5.26263511e-006 -5.26263511e-006 -5.26263511e-006
      -5.26263511e-006 -5.26263511e-006 -5.26263511e-006
      -5.26263511e-006 -5.26263511e-006 -5.26263511e-006
      -5.26263511e-006 -5.26263511e-006 -5.26263511e-006
      -5.26263511e-006 -5.26263511e-006 -5.26263511e-006
      -5.26263511e-006 -5.26263511e-006 -5.26263511e-006
      -5.26263511e-006 -5.26263511e-006 -5.26263511e-006
      -5.26263511e-006 -5.26263511e-006 -5.26263511e-006
      -5.26263511e-006 -5.26263511e-006 -5.26263511e-006
      -5.26263511e-006 -7.12613792e-006 -9.23357493e-006
      -4.64358027e-006 1.28587919e-006 -1.11209065e-005 -1.77582093e-009
      -1.75553232e-005 5.43273472e-006 -5.72450153e-006 -5.72450153e-006
      -5.72450153e-006 -5.72450153e-006 -5.72450153e-006
      -5.72450153e-006 -5.72450153e-006 -5.72450153e-006
      -5.72450153e-006 -7.56894451e-006 -4.80228027e-006
      -3.88005856e-006 -5.72450153e-006 -5.72450153e-006
      -4.80228027e-006 -7.56894451e-006 -5.72450153e-006
      -5.72450153e-006 -4.80228027e-006 -6.64672325e-006
      -6.64672325e-006 -4.80228027e-006 -5.72450153e-006
      -5.72450153e-006 -6.64672325e-006 -6.64672325e-006
      -3.88005856e-006 -7.56894451e-006 -4.80228027e-006
      -6.64672325e-006 -6.64672325e-006 -3.88005856e-006 1.52085377e-007
      -7.66054018e-006 -1.43171183e-005 -5.24607367e-006
      -1.61265211e-006 -6.54210089e-006 -3.58897591e-006
      -4.09011000e-006 -5.26263511e-006 -5.26263511e-006
      -5.26263511e-006 -5.26263511e-006 -5.26263511e-006
      -5.26263511e-006 -5.26263511e-006 -5.26263511e-006
      -5.26263511e-006 -4.34041385e-006 -6.18485683e-006
      -5.26263511e-006 -5.26263511e-006 -4.34041385e-006
      -7.10707809e-006 -5.26263511e-006 -4.34041385e-006
      -4.34041385e-006 -6.18485683e-006 -6.18485683e-006
      -6.18485683e-006 -5.26263511e-006 -5.26263511e-006
      -4.34041385e-006 -3.18076195e-006 -8.85857844e-006
      -2.73275509e-006 -5.97113785e-006 -6.74220473e-006
      -7.62559603e-006 -2.77598519e-006 -6.46963008e-006
      -5.26263511e-006 -5.26263511e-006 -5.26263511e-006
      -5.26263511e-006 -5.26263511e-006 -5.26263511e-006
      -5.26263511e-006 -5.26263511e-006 -5.26263511e-006
      -5.26263511e-006 -5.26263511e-006 -5.26263511e-006
      -5.26263511e-006 -5.26263511e-006 -5.26263511e-006
      -5.26263511e-006 -5.26263511e-006 -5.26263511e-006
      -5.26263511e-006 -5.26263511e-006 -5.26263511e-006
      -5.26263511e-006 -5.26263511e-006 -5.26263511e-006
      -5.26263511e-006 -5.26263511e-006 -5.26263511e-006
      -5.26263511e-006 -5.26263511e-006 -5.26263511e-006
      -5.26263511e-006 -5.26263511e-006 -3.06797801e-006 6.57096689e-006
      9.10534072e-005 9.03508990e-005 8.95100311e-005 9.02891043e-005
      8.41425936e-005 9.43434352e-005 9.14367120e-005 9.14367120e-005
      9.14367120e-005 9.14367120e-005 9.14367120e-005 9.14367120e-005
      9.14367120e-005 9.14367120e-005 9.14367120e-005 8.95922713e-005
      9.23589323e-005 9.14367120e-005 9.14367120e-005 9.05144916e-005
      9.23589323e-005 9.14367120e-005 9.05144916e-005 9.23589323e-005
      9.14367120e-005 9.14367120e-005 9.14367120e-005 9.14367120e-005
      9.23589323e-005 9.05144916e-005 9.12866817e-005 7.83080104e-005
      9.91514389e-005 9.90181434e-005 1.08860288e-004 -9.57075681e-005
      -7.69327671e-005 -8.70265940e-005 -8.41900619e-005
      -8.41900619e-005 -8.41900619e-005 -8.41900619e-005
      -8.41900619e-005 -8.41900619e-005 -8.41900619e-005
      -8.41900619e-005 -8.51122895e-005 -8.41900619e-005
      -8.51122895e-005 -8.41900619e-005 -8.41900619e-005
      -8.41900619e-005 -8.41900619e-005 -8.51122895e-005
      -8.51122895e-005 -8.23456212e-005 -8.60345099e-005
      -8.23456212e-005 -8.51122895e-005 -8.32678415e-005
      -8.69567302e-005 -8.32678415e-005 -8.64799804e-005
      -8.83473404e-005 -7.92579740e-005 -8.47436095e-005
      -8.37462067e-005 -8.71258380e-005 -8.51074801e-005
      -7.54708890e-005 -7.81956624e-005 -7.81956624e-005
      -7.81956624e-005 -7.81956624e-005 -7.81956624e-005
      -7.81956624e-005 -7.81956624e-005 -7.81956624e-005
      -7.81956624e-005 -7.81956624e-005 -7.81956624e-005
      -7.81956624e-005 -7.81956624e-005 -7.81956624e-005
      -7.81956624e-005 -7.81956624e-005 -7.81956624e-005
      -7.81956624e-005 -7.81956624e-005 -7.81956624e-005
      -7.81956624e-005 -7.81956624e-005 -7.81956624e-005
      -7.81956624e-005 -7.81956624e-005 -7.81956624e-005
      -7.81956624e-005 -7.81956624e-005 -7.81956624e-005
      -7.81956624e-005 -7.81956624e-005 -7.81956624e-005
      -2.79946084e-006 -2.79946084e-006 -2.79946084e-006
      -2.79946084e-006 -2.79946084e-006 -2.79946084e-006
      -2.79946084e-006 -2.79946084e-006 -2.79946084e-006
      -2.79946084e-006 -2.79946084e-006 -2.79946084e-006
      -2.79946084e-006 -2.79946084e-006 -2.79946084e-006
      -2.79946084e-006 -2.79946084e-006 -2.79946084e-006
      -2.79946084e-006 -2.79946084e-006 -2.79946084e-006
      -2.79946084e-006 -2.79946084e-006 -2.79946084e-006
      -2.79946084e-006 -2.79946084e-006 -2.79946084e-006
      -2.79946084e-006 -2.79946084e-006 -2.79946084e-006
      -2.79946084e-006 -2.79946084e-006 -5.26263511e-006
      -5.26263511e-006 -5.26263511e-006 -5.26263511e-006
      -5.26263511e-006 -5.26263511e-006 -5.26263511e-006
      -5.26263511e-006 -5.26263511e-006 -5.26263511e-006
      -5.26263511e-006 -5.26263511e-006 -5.26263511e-006
      -5.26263511e-006 -5.26263511e-006 -5.26263511e-006
      -5.26263511e-006 -5.26263511e-006 -5.26263511e-006
      -5.26263511e-006 -5.26263511e-006 -5.26263511e-006
      -5.26263511e-006 -5.26263511e-006 -6.28660428e-006
      -1.08852248e-006 -3.62359515e-006 -1.90851509e-007
      -4.23866595e-006 -1.65319198e-005 -4.80109020e-006 3.71572753e-007
      -5.26263511e-006 -5.26263511e-006 -5.26263511e-006
      -5.26263511e-006 -5.26263511e-006 -5.26263511e-006
      -5.26263511e-006 -5.26263511e-006 -5.26263511e-006
      -7.10707809e-006 -4.34041385e-006 -5.26263511e-006
      -5.26263511e-006 -6.18485683e-006 -4.34041385e-006
      -5.26263511e-006 -6.18485683e-006 -4.34041385e-006
      -5.26263511e-006 -5.26263511e-006 -5.26263511e-006
      -5.26263511e-006 -4.34041385e-006 -6.18485683e-006 8.04585341e-007
      -1.28696111e-005 -6.86367969e-007 -5.83776637e-006 4.99494399e-006
      -1.23132686e-005 -2.06462596e-006 -8.45385694e-006
      -3.41819236e-006 -6.18485683e-006 -6.18485683e-006
      -4.34041385e-006 -7.10707809e-006 -3.41819236e-006
      -6.18485683e-006 -6.18485683e-006 -7.10707809e-006
      -4.34041385e-006 -5.26263511e-006 -5.26263511e-006
      -3.41819236e-006 -4.34041385e-006 -7.10707809e-006
      -5.26263511e-006 -7.10707809e-006 -4.34041385e-006
      -5.26263511e-006 -5.26263511e-006 -3.41819236e-006
      -4.34041385e-006 -7.10707809e-006 -5.26263511e-006
      -1.15691410e-005 4.53972689e-006 -4.57981969e-006 -9.17779653e-006
      3.83954603e-006 -1.24237458e-005 -6.75164165e-006 -4.37852668e-006
      -6.14021928e-006 -2.58524551e-006 -7.94002517e-006
      -4.38505094e-006 -4.38505094e-006 -6.09558219e-006
      -5.35190975e-006 -6.14021928e-006 -8.99592214e-006
      -2.58524551e-006 -7.94002517e-006 -1.52934854e-006
      -1.52934854e-006 -7.01780345e-006 -7.28539089e-006
      -8.99592214e-006 -6.07127106e-007 -9.91814341e-006
      -5.26263511e-006 -6.14021928e-006 1.41562873e-006 -7.19611626e-006
      -4.28814133e-007 -1.19408996e-005 -3.50746700e-006
      -6.22949392e-006 -6.09558219e-006 -2.54060819e-006
      -6.14021928e-006 -3.50746700e-006 -5.21799802e-006
      -7.98466226e-006 -4.38505094e-006 -6.14021928e-006
      -2.58524551e-006 -5.30727266e-006 -7.06244100e-006
      -4.34041385e-006 -6.14021928e-006 -5.26263511e-006
      -6.18485683e-006 -7.06244100e-006 -3.41819236e-006
      -4.47432603e-006 -6.97316636e-006 -4.42968849e-006
      -7.94002517e-006 -2.54060819e-006 -3.08356516e-006 1.72917498e-005
      2.24602500e-005 2.52597056e-005 1.76465292e-005 1.71444135e-005
      2.36274627e-005 1.81117557e-005 2.01911516e-005 2.01911516e-005
      2.01911516e-005 2.01911516e-005 2.01911516e-005 2.01911516e-005
      2.01911516e-005 2.01911516e-005 2.01911516e-005 2.01911516e-005
      2.01911516e-005 2.01911516e-005 2.01911516e-005 2.01911516e-005
      2.01911516e-005 2.01911516e-005 1.88360900e-005 2.36043470e-005
      1.64439298e-005 3.01479613e-005 2.78595435e-005 2.71422923e-005
      2.72257093e-005 3.06076981e-005 2.80588010e-005 2.80588010e-005
      2.80588010e-005 2.80588010e-005 2.80588010e-005 2.80588010e-005
      2.80588010e-005 2.80588010e-005 2.80588010e-005 2.80588010e-005
      2.80588010e-005 2.80588010e-005 2.80588010e-005 2.80588010e-005
      2.80588010e-005 2.80588010e-005 2.84802063e-005 2.85578608e-005
      2.92156346e-005 2.89995605e-005 2.21483720e-006 1.99876331e-006
      2.65653830e-006 2.73419278e-006 2.60501452e-006 2.60501452e-006
      2.60501452e-006 2.60501452e-006 2.60501452e-006 2.60501452e-006
      2.60501452e-006 2.60501452e-006 2.60501452e-006 2.60501452e-006
      2.60501452e-006 2.60501452e-006 2.60501452e-006 2.60501452e-006
      2.60501452e-006 2.60501452e-006 3.63549316e-006 2.33132323e-006
      1.58168143e-006 1.85066995e-006 -3.36007406e-006 -3.09108577e-006
      -4.98894406e-006 -6.29311398e-006 -5.26263511e-006
      -5.26263511e-006 -5.26263511e-006 -5.26263511e-006
      -5.26263511e-006 -5.26263511e-006 -5.26263511e-006
      -5.26263511e-006 -5.26263511e-006 -5.26263511e-006
      -5.26263511e-006 -5.26263511e-006 -5.26263511e-006
      -5.26263511e-006 -5.26263511e-006 -5.26263511e-006
      -4.99749149e-006 -3.41819236e-006 -1.15217845e-005 3.05678532e-006
      -4.73234786e-006 -3.85944122e-006 -6.55933445e-006
      -1.59120589e-006 -5.26263511e-006 -5.26263511e-006
      -4.34041385e-006 -6.18485683e-006 -6.18485683e-006
      -4.34041385e-006 -5.26263511e-006 -5.26263511e-006
      -6.18485683e-006 -6.18485683e-006 -3.41819236e-006
      -7.10707809e-006 -4.34041385e-006 -6.18485683e-006
      -6.18485683e-006 -3.41819236e-006 -9.82497681e-007
      -8.99033512e-006 -4.40829308e-006 -3.14761382e-006
      -1.01612450e-005 -4.67052405e-006 -2.80915742e-006
      -4.99769840e-006 -4.34041385e-006 -4.34041385e-006
      -6.18485683e-006 -6.18485683e-006 -6.18485683e-006
      -5.26263511e-006 -5.26263511e-006 -4.34041385e-006 3.52388452e-006
      -1.15464445e-005 -5.80453525e-006 -4.98519785e-006
      -9.21472019e-006 -9.57039629e-006 -1.11936743e-005
      -2.09254868e-005 -1.47569563e-005 -1.58286020e-005
      -1.04993514e-005 -1.46920756e-005 -1.46920756e-005
      -6.72142778e-006 -1.20506775e-005 -1.09790317e-005
      -9.88935790e-006 -9.45882311e-006 -1.43376601e-005
      -1.30945673e-005 -8.82527638e-006 -1.04259216e-005
      -1.20404020e-005 -1.11473319e-005 -1.62417728e-005
      -3.26359914e-005 3.79813209e-005 4.71865424e-005 1.72655054e-005
      4.30057298e-005 1.69440318e-005 3.15163234e-005 2.73229125e-005
      3.29452814e-005 3.58009820e-005 3.58009820e-005 3.20230574e-005
      2.82451347e-005 3.29452814e-005 3.11008371e-005 4.07984371e-005
      3.71289680e-005 3.36017983e-005 3.22487831e-005 3.07191440e-005
      6.70906520e-005 7.16238283e-005 7.38176896e-005 7.31621549e-005
      7.25439750e-005 7.19113159e-005 7.22456825e-005 7.22456825e-005
      7.16130235e-005 7.16130235e-005 7.27540537e-005 7.89898477e-005
      6.55789263e-005 6.77563221e-005 6.81622914e-005 8.89370494e-005
      7.64964934e-005 5.95492638e-005 -1.00470708e-004 -1.12859707e-004
      -1.09230597e-004 -1.16712035e-004 -1.09081790e-004
      -1.12934111e-004 1.28853033e-004 1.25149512e-004 -1.12934111e-004
      -1.12785303e-004 -1.20489960e-004 -1.12934111e-004
      -1.16712035e-004 1.32630943e-004 1.32705347e-004 1.32630943e-004
      -1.16786439e-004 8.40630601e-005 8.40630601e-005 8.40630601e-005
      8.40630601e-005 8.40630601e-005 8.40630601e-005 8.40630601e-005
      8.40630601e-005 8.40630601e-005 8.40630601e-005 8.40630601e-005
      8.40630601e-005 8.40630601e-005 8.40630601e-005 8.40630601e-005
      8.40630601e-005 -5.17541885e-005 -5.17541885e-005 -5.17541885e-005
      -5.17541885e-005 -5.17541885e-005 -5.17541885e-005
      -5.17541885e-005 -5.17541885e-005 -5.54576109e-005
      -4.17329138e-005 -3.71851711e-005 -6.54496762e-005
      -5.73664038e-005 -4.10866014e-005 -6.07613401e-005
      -8.73485169e-006 -6.18485683e-006 -4.34041385e-006
      -5.26263511e-006 -5.26263511e-006 -5.26263511e-006
      -5.26263511e-006 -4.34041385e-006 -6.18485683e-006
      -8.99102815e-006 -2.36793039e-006 -3.19413971e-006
      -4.36392156e-006 -5.75695731e-006 -6.38349820e-006
      -5.93704954e-006 -1.04358423e-005 -7.10707809e-006
      -4.34041385e-006 -5.26263511e-006 -5.26263511e-006
      -3.41819236e-006 -4.34041385e-006 -7.10707809e-006
      -5.26263511e-006 -2.49826076e-006 -6.22949392e-006
      -5.35091840e-006 -2.40693271e-006 -1.80127938e-006 1.46460934e-006
      -6.11470284e-007 -6.22720427e-006 -5.78493336e-006
      -5.38661561e-006 1.81405639e-007 1.12003670e-006 4.01611686e-007
      -5.00203669e-006 -4.09644344e-005 -3.64120497e-005
      -4.11029432e-005 -7.80879709e-005 -7.67636448e-005
      -7.80898044e-005 -7.93061845e-005 -7.47484955e-005
      -8.27234981e-005 -7.34805217e-005 -8.63548994e-005 4.32644047e-005
      2.30039368e-005 5.10896789e-005 4.32508386e-005 3.85094427e-005
      3.00825996e-005 4.01724319e-005 2.26407901e-005 3.89929410e-005
      1.33324720e-005 4.95172753e-006 2.15965738e-005 -8.08471941e-006
      3.21900166e-006 -3.29466297e-006 2.56853946e-006 -6.92638605e-006
      -6.84828183e-006 -5.72988347e-006 9.02051179e-005 9.59881509e-005
      9.50138783e-005 8.45156173e-005 8.03311850e-005 9.92190689e-005
      8.18998160e-005 9.70070032e-005 -1.27709602e-004 -1.14793511e-004
      -1.34741451e-004 -1.13992159e-004 -1.05945102e-004
      -1.42748191e-004 -1.12147129e-004 -4.16513976e-005
      -3.68705914e-005 -2.36618507e-005 -4.87291509e-005
      -2.32379589e-005 -4.41544289e-005 -1.67332473e-005 3.67648568e-006
      -7.51526022e-006 -7.26318831e-006 -5.24676398e-006
      -5.80787628e-006 -6.61641434e-006 -5.04257514e-006
      -3.47549940e-006 -3.19478713e-004 -3.27147689e-004
      -3.12931283e-004 2.18036239e-005 2.77800063e-005 -3.77642464e-005
      6.11036421e-006 6.11036421e-006 6.11036421e-006 6.11036421e-006
      6.11036421e-006 6.11036421e-006 6.11036421e-006 6.11036421e-006
      6.11036421e-006 6.11036421e-006 6.11036421e-006 6.11036421e-006
      6.11036421e-006 6.11036421e-006 6.11036421e-006 6.11036421e-006
      6.11036421e-006 6.11036421e-006 6.11036421e-006 6.11036421e-006
      6.11036421e-006 6.11036421e-006 6.11036421e-006 6.11036421e-006
      6.11036421e-006 6.11036421e-006 6.11036421e-006 6.11036421e-006
      6.11036421e-006 6.11036421e-006 6.11036421e-006 6.11036421e-006
      6.11036421e-006 6.11036421e-006 6.11036421e-006 6.11036421e-006
      6.11036421e-006 6.11036421e-006 6.11036421e-006 6.11036421e-006
      6.11036421e-006 6.11036421e-006 6.11036421e-006 6.11036421e-006
      6.11036421e-006 6.11036421e-006 6.11036421e-006 6.11036421e-006
      6.11036421e-006 6.11036421e-006 6.11036421e-006 6.11036421e-006
      6.11036421e-006 6.11036421e-006 6.11036421e-006 6.11036421e-006
      -5.16964838e-006 3.29444665e-005 9.16076169e-006 3.88127773e-006
      2.51168387e-007 1.40141981e-006 1.07930309e-005 -2.16763929e-005
      -1.26983277e-005 -1.26983277e-005 -1.26983277e-005
      -1.26983277e-005 -1.26983277e-005 -1.26983277e-005
      -1.26983277e-005 -1.26983277e-005 -1.26983277e-005
      -1.26983277e-005 -1.26983277e-005 -1.26983277e-005
      -1.26983277e-005 -1.26983277e-005 -1.26983277e-005
      -1.26983277e-005 -1.26983277e-005 -1.26983277e-005
      -1.26983277e-005 -1.26983277e-005 -1.26983277e-005
      -1.26983277e-005 -1.26983277e-005 -1.26983277e-005
      -1.26983277e-005 -1.26983277e-005 -1.26983277e-005
      -1.26983277e-005 -1.26983277e-005 -1.26983277e-005
      -1.26983277e-005 -1.26983277e-005 -1.26983277e-005
      -1.26983277e-005 -1.26983277e-005 -1.26983277e-005
      -1.26983277e-005 -1.26983277e-005 -1.26983277e-005
      -1.26983277e-005 -1.26983277e-005 -1.26983277e-005
      -1.26983277e-005 -1.26983277e-005 -1.26983277e-005
      -1.26983277e-005 -1.26983277e-005 -1.26983277e-005
      -1.26983277e-005 -1.26983277e-005 -1.26983277e-005
      -1.26983277e-005 -1.26983277e-005 -1.26983277e-005
      -1.26983277e-005 -1.26983277e-005 -1.78263199e-005
      -2.30301212e-005 1.42415556e-005 -2.47811695e-005 3.66364543e-006
      -7.97554385e-005 -5.24326060e-005 -5.65706032e-005
      -5.51049961e-005 -5.51049961e-005 -5.51049961e-005
      -5.51049961e-005 -5.51049961e-005 -5.51049961e-005
      -5.51049961e-005 -5.51049961e-005 -5.51049961e-005
      -5.51049961e-005 -5.51049961e-005 -5.51049961e-005
      -5.51049961e-005 -5.51049961e-005 -5.51049961e-005
      -5.51049961e-005 -5.51049961e-005 -5.51049961e-005
      -5.51049961e-005 -5.51049961e-005 -5.51049961e-005
      -5.51049961e-005 -5.51049961e-005 -5.51049961e-005
      -5.51049961e-005 -5.51049961e-005 -5.51049961e-005
      -5.51049961e-005 -5.51049961e-005 -5.51049961e-005
      -5.51049961e-005 -5.51049961e-005 -5.51049961e-005
      -5.51049961e-005 -5.51049961e-005 -5.51049961e-005
      -5.51049961e-005 -5.51049961e-005 -5.51049961e-005
      -5.51049961e-005 -5.51049961e-005 -5.51049961e-005
      -5.51049961e-005 -5.51049961e-005 -5.51049961e-005
      -5.51049961e-005 -5.51049961e-005 -5.51049961e-005
      -5.51049961e-005 -5.51049961e-005 -5.51049961e-005
      -5.51049961e-005 -5.51049961e-005 -5.51049961e-005
      -5.51049961e-005 -5.51049961e-005 -5.74113037e-005
      -4.36483497e-005 -3.70397684e-005 -1.38017012e-005
      -2.85745591e-005 -2.43170180e-005 -1.05163872e-005
      -1.64371631e-005 -1.96787496e-005 -1.96787496e-005
      -1.96787496e-005 -1.96787496e-005 -1.96787496e-005
      -1.96787496e-005 -1.96787496e-005 -1.96787496e-005
      -1.96787496e-005 -1.96787496e-005 -1.96787496e-005
      -1.96787496e-005 -1.96787496e-005 -1.96787496e-005
      -1.96787496e-005 -1.96787496e-005 -1.96787496e-005
      -1.96787496e-005 -1.96787496e-005 -1.96787496e-005
      -1.96787496e-005 -1.96787496e-005 -1.96787496e-005
      -1.96787496e-005 -1.96787496e-005 -1.96787496e-005
      -1.96787496e-005 -1.96787496e-005 -1.96787496e-005
      -1.96787496e-005 -1.96787496e-005 -1.96787496e-005
      -1.96787496e-005 -1.96787496e-005 -1.96787496e-005
      -1.96787496e-005 -1.96787496e-005 -1.96787496e-005
      -1.96787496e-005 -1.96787496e-005 -1.96787496e-005
      -1.96787496e-005 -1.96787496e-005 -1.96787496e-005
      -1.96787496e-005 -1.96787496e-005 -1.96787496e-005
      -1.96787496e-005 -2.22376657e-005 -2.27029122e-005
      -1.80045845e-005 -2.80489185e-005 -2.59165226e-005
      -2.08214042e-005 -2.01164448e-006 1.59856500e-005 3.40836527e-006
      3.40836527e-006 3.40836527e-006 3.40836527e-006 3.40836527e-006
      3.40836527e-006 3.40836527e-006 3.40836527e-006 3.40836527e-006
      3.40836527e-006 3.40836527e-006 3.40836527e-006 3.40836527e-006
      3.40836527e-006 3.40836527e-006 3.40836527e-006 3.40836527e-006
      3.40836527e-006 3.40836527e-006 3.40836527e-006 3.40836527e-006
      3.40836527e-006 3.40836527e-006 3.40836527e-006 3.40836527e-006
      3.40836527e-006 3.40836527e-006 3.40836527e-006 3.40836527e-006
      3.40836527e-006 3.40836527e-006 3.40836527e-006 3.40836527e-006
      3.40836527e-006 3.40836527e-006 3.40836527e-006 3.40836527e-006
      3.40836527e-006 3.40836527e-006 3.40836527e-006 3.40836527e-006
      3.40836527e-006 3.40836527e-006 3.40836527e-006 3.40836527e-006
      3.40836527e-006 3.40836527e-006 3.40836527e-006 3.40836527e-006
      3.40836527e-006 3.40836527e-006 3.40836527e-006 3.40836527e-006
      3.40836527e-006 3.40836527e-006 3.40836527e-006 -1.45383747e-005
      6.59671132e-005 2.23891657e-005 5.11409962e-005 6.26414694e-005
      3.65458436e-005 6.00929561e-005 4.38058087e-005 4.57119495e-005
      4.57119495e-005 4.57119495e-005 4.57119495e-005 4.57119495e-005
      4.57119495e-005 4.57119495e-005 4.57119495e-005 4.54403926e-005
      4.57119495e-005 4.57119495e-005 4.57119495e-005 4.57119495e-005
      4.57119495e-005 4.57119495e-005 4.57119495e-005 4.57119495e-005
      4.57119495e-005 4.57119495e-005 4.57119495e-005 4.57119495e-005
      4.57119495e-005 4.57119495e-005 4.57119495e-005 4.57119495e-005
      4.57119495e-005 4.57119495e-005 4.57119495e-005 4.57119495e-005
      4.57119495e-005 4.57119495e-005 4.57119495e-005 4.57119495e-005
      4.59835064e-005 4.57119495e-005 4.57119495e-005 4.57119495e-005
      4.57119495e-005 4.57119495e-005 4.57119495e-005 4.57119495e-005
      4.57119495e-005 4.57119495e-005 4.59835064e-005 4.59835064e-005
      4.57119495e-005 4.54403926e-005 4.54403926e-005 4.89530539e-005
      3.84814375e-005 4.80304116e-005 2.33357387e-005 1.11737363e-005
      2.27029559e-005 1.99525743e-006 1.99755632e-005 1.60390136e-005
      1.60390136e-005 1.60390136e-005 1.60390136e-005 1.60390136e-005
      1.60390136e-005 1.60390136e-005 1.60390136e-005 1.60390136e-005
      1.60390136e-005 1.60390136e-005 1.60390136e-005 1.60390136e-005
      1.60390136e-005 1.60390136e-005 1.60390136e-005 1.60390136e-005
      1.60390136e-005 1.60390136e-005 1.60390136e-005 1.60390136e-005
      1.60390136e-005 1.60390136e-005 1.60390136e-005 1.60390136e-005
      1.60390136e-005 1.60390136e-005 1.60390136e-005 1.60390136e-005
      1.60390136e-005 1.60390136e-005 1.60390136e-005 1.60390136e-005
      1.60390136e-005 1.60390136e-005 1.60390136e-005 1.60390136e-005
      1.60390136e-005 1.60390136e-005 1.60390136e-005 1.60390136e-005
      1.60390136e-005 1.60390136e-005 1.60390136e-005 1.60390136e-005
      1.60390136e-005 1.60390136e-005 1.60390136e-005 1.38278028e-005
      1.85650060e-005 1.40213278e-005 1.27969588e-005 2.68127351e-005
      1.29041910e-005 1.55088237e-005 1.94564273e-005 1.62993456e-005
      1.62993456e-005 1.62993456e-005 1.62993456e-005 1.62993456e-005
      1.62993456e-005 1.62993456e-005 1.62993456e-005 1.62993456e-005
      1.62993456e-005 1.62993456e-005 1.62993456e-005 1.62993456e-005
      1.62993456e-005 1.62993456e-005 1.62993456e-005 1.62993456e-005
      1.62993456e-005 1.62993456e-005 1.62993456e-005 1.62993456e-005
      1.62993456e-005 1.62993456e-005 1.62993456e-005 1.62993456e-005
      1.62993456e-005 1.62993456e-005 1.62993456e-005 1.62993456e-005
      1.62993456e-005 1.62993456e-005 1.62993456e-005 1.62993456e-005
      1.62993456e-005 1.62993456e-005 1.62993456e-005 1.62993456e-005
      1.62993456e-005 1.62993456e-005 1.62993456e-005 1.62993456e-005
      1.62993456e-005 1.62993456e-005 1.62993456e-005 1.62993456e-005
      1.62993456e-005 1.62993456e-005 1.62993456e-005 1.32909472e-005
      2.82458586e-005 1.04213850e-005 1.79206254e-005 2.97858096e-005
      3.16495862e-005 1.83250868e-005 3.52129719e-005 2.74147860e-005
      2.74147860e-005 2.74147860e-005 2.74147860e-005 2.74147860e-005
      2.74147860e-005 2.74147860e-005 2.74147860e-005 2.74147860e-005
      2.74147860e-005 2.74147860e-005 2.74147860e-005 2.74147860e-005
      2.74147860e-005 2.74147860e-005 2.74147860e-005 2.74147860e-005
      2.74147860e-005 2.74147860e-005 2.74147860e-005 2.74147860e-005
      2.74147860e-005 2.74147860e-005 2.74147860e-005 2.74147860e-005
      2.74147860e-005 2.74147860e-005 2.74147860e-005 2.74147860e-005
      2.74147860e-005 2.74147860e-005 2.74147860e-005 2.74147860e-005
      2.74147860e-005 2.74147860e-005 2.74147860e-005 2.74147860e-005
      2.74147860e-005 2.74147860e-005 2.74147860e-005 2.74147860e-005
      2.74147860e-005 2.74147860e-005 2.74147860e-005 2.74147860e-005
      2.74147860e-005 2.74147860e-005 2.74147860e-005 3.09990355e-005
      2.34108829e-005 2.61141740e-005 -2.96522994e-005 -3.43959255e-005
      -2.69204265e-005 -3.31179144e-005 -3.43626307e-005
      -3.07363080e-005 -3.07363080e-005 -3.07363080e-005
      -3.07363080e-005 -3.07363080e-005 -3.07363080e-005
      -3.07363080e-005 -3.07363080e-005 -3.07363080e-005
      -3.07363080e-005 -3.07363080e-005 -3.07363080e-005
      -3.07363080e-005 -3.07363080e-005 -3.07363080e-005
      -3.07363080e-005 -3.07363080e-005 -3.07363080e-005
      -3.07363080e-005 -3.07363080e-005 -3.07363080e-005
      -3.07363080e-005 -3.07363080e-005 -3.07363080e-005
      -3.07363080e-005 -3.07363080e-005 -3.07363080e-005
      -3.07363080e-005 -3.07363080e-005 -3.07363080e-005
      -3.07363080e-005 -3.07363080e-005 -3.07363080e-005
      -3.07363080e-005 -3.07363080e-005 -3.07363080e-005
      -3.07363080e-005 -3.07363080e-005 -3.07363080e-005
      -3.07363080e-005 -3.07363080e-005 -3.07363080e-005
      -3.07363080e-005 -3.07363080e-005 -3.07363080e-005
      -3.07363080e-005 -3.07363080e-005 -3.07363080e-005
      -3.19456703e-005 -1.52602570e-005 -2.03368509e-005
      -3.10660907e-005 -2.39019464e-005 -1.18804719e-005
      -2.45222491e-005 -2.09448481e-005 -2.09284080e-005
      -2.09284080e-005 -2.09284080e-005 -2.09284080e-005
      -2.09284080e-005 -2.09284080e-005 -2.09284080e-005
      -2.09284080e-005 -2.10532908e-005 -2.04825628e-005
      -2.10532908e-005 -2.06786408e-005 -2.07323301e-005
      -2.10532908e-005 -2.12493705e-005 -2.06292352e-005
      -2.09284080e-005 -2.09284080e-005 -2.09284080e-005
      -2.09284080e-005 -2.09284080e-005 -2.09284080e-005
      -2.09284080e-005 -2.09284080e-005 -2.11026963e-005
      -2.08035253e-005 -2.11781753e-005 -1.95908724e-005
      -2.11244860e-005 -2.03082745e-005 -2.09284080e-005
      -2.09778136e-005 -2.09284080e-005 -2.09284080e-005
      -2.09284080e-005 -2.09284080e-005 -2.09284080e-005
      -2.09284080e-005 -2.09284080e-005 -2.09284080e-005
      -2.24580672e-005 -3.18066704e-005 -2.05372526e-005
      -2.44913426e-005 -1.53239507e-005 -2.94386882e-005
      -1.09699031e-005 -2.99364528e-005 -2.38324628e-005
      -2.38324628e-005 -2.38324628e-005 -2.38324628e-005
      -2.38324628e-005 -2.38324628e-005 -2.38324628e-005
      -2.38324628e-005 -2.38324628e-005 -2.38324628e-005
      -2.38324628e-005 -2.38324628e-005 -2.38324628e-005
      -2.38324628e-005 -2.38324628e-005 -2.38324628e-005
      -2.38324628e-005 -2.38324628e-005 -2.38324628e-005
      -2.38324628e-005 -2.38324628e-005 -2.38324628e-005
      -2.38324628e-005 -2.38324628e-005 -2.38324628e-005
      -2.38324628e-005 -2.38324628e-005 -2.38324628e-005
      -2.38324628e-005 -2.38324628e-005 -2.38324628e-005
      -2.38324628e-005 -2.38324628e-005 -2.38324628e-005
      -2.38324628e-005 -2.38324628e-005 -2.38324628e-005
      -2.38324628e-005 -2.38324628e-005 -2.38324628e-005
      -2.38324628e-005 -2.38324628e-005 -2.38324628e-005
      -2.38324628e-005 -2.38324628e-005 -2.38324628e-005
      -2.38324628e-005 -2.38324628e-005 -1.76609155e-005
      -3.64418629e-005 -1.93718479e-005 -3.54557524e-005
      -5.41572372e-005 -4.08209162e-005 -3.68797955e-005
      -3.42017411e-005 -4.10200410e-005 -4.10200410e-005
      -4.10200410e-005 -4.10200410e-005 -4.10200410e-005
      -4.10200410e-005 -4.10200410e-005 -4.10200410e-005
      -4.10200410e-005 -4.10200410e-005 -4.10200410e-005
      -4.10200410e-005 -4.10200410e-005 -4.10200410e-005
      -4.10200410e-005 -4.10200410e-005 -4.10200410e-005
      -4.10200410e-005 -4.10200410e-005 -4.10200410e-005
      -4.10200410e-005 -4.10200410e-005 -4.10200410e-005
      -4.10200410e-005 -4.10200410e-005 -4.10200410e-005
      -4.10200410e-005 -4.10200410e-005 -4.10200410e-005
      -4.10200410e-005 -4.10200410e-005 -4.10200410e-005
      -4.10200410e-005 -4.10200410e-005 -4.10200410e-005
      -4.10200410e-005 -4.10200410e-005 -4.10200410e-005
      -4.10200410e-005 -4.10200410e-005 -4.52804088e-005
      -3.39458602e-005 -3.20148829e-005 -5.67748175e-005
      -3.44608015e-005 -6.68686771e-005 -3.87731561e-005
      -5.10546524e-005 -5.51049961e-005 -5.51049961e-005
      -5.51049961e-005 -5.51049961e-005 -5.51049961e-005
      -5.51049961e-005 -5.51049961e-005 -5.51049961e-005
      -5.51049961e-005 -5.51049961e-005 -5.51049961e-005
      -5.51049961e-005 -5.51049961e-005 -5.51049961e-005
      -5.51049961e-005 -5.51049961e-005 -5.51049961e-005
      -5.51049961e-005 -5.51049961e-005 -5.51049961e-005
      -5.51049961e-005 -5.51049961e-005 -5.51049961e-005
      -5.51049961e-005 -5.51049961e-005 -5.51049961e-005
      -5.51049961e-005 -5.51049961e-005 -5.51049961e-005
      -5.51049961e-005 -5.51049961e-005 -5.51049961e-005
      -5.51049961e-005 -5.51049961e-005 -5.51049961e-005
      -5.51049961e-005 -5.51049961e-005 -5.51049961e-005
      -5.51049961e-005 -5.51049961e-005 -5.35280924e-005
      -4.17702358e-005 -5.56027771e-005 -5.78488616e-005
      -3.00789543e-005 -6.26172841e-005 -4.73641740e-005 6.46064000e-005
      5.51611884e-005 5.51611884e-005 5.51611884e-005 5.51611884e-005
      5.51611884e-005 5.51611884e-005 5.51611884e-005 5.51611884e-005
      5.51611884e-005 5.51611884e-005 5.51611884e-005 5.51611884e-005
      5.51611884e-005 5.51611884e-005 5.51611884e-005 5.51611884e-005
      5.51611884e-005 5.51611884e-005 5.51611884e-005 5.51611884e-005
      5.51611884e-005 5.51611884e-005 5.51611884e-005 5.51611884e-005
      5.51611884e-005 5.51611884e-005 5.51611884e-005 5.51611884e-005
      5.51611884e-005 5.51611884e-005 5.51611884e-005 5.51611884e-005
      5.51611884e-005 5.51611884e-005 5.51611884e-005 5.51611884e-005
      5.51611884e-005 5.51611884e-005 5.51611884e-005 5.51611884e-005
      5.51611884e-005 5.51611884e-005 5.51611884e-005 5.51611884e-005
      5.51611884e-005 5.51611884e-005 5.51611884e-005 5.51611884e-005
      2.66339612e-005 2.66339612e-005 2.66339612e-005 2.66339612e-005
      2.66339612e-005 2.66339612e-005 2.66339612e-005 2.66339612e-005
      2.66339612e-005 2.69055181e-005 2.63624042e-005 2.69055181e-005
      2.63624042e-005 2.69055181e-005 2.66339612e-005 2.69055181e-005
      2.66339612e-005 2.66339612e-005 2.66339612e-005 2.66339612e-005
      2.66339612e-005 2.66339612e-005 2.66339612e-005 2.66339612e-005
      2.66339612e-005 2.66339612e-005 2.66339612e-005 2.66339612e-005
      2.66339612e-005 2.66339612e-005 2.69055181e-005 2.66339612e-005
      2.66339612e-005 2.66339612e-005 2.66339612e-005 2.66339612e-005
      2.66339612e-005 2.66339612e-005 2.66339612e-005 2.66339612e-005
      2.69055181e-005 2.66339612e-005 2.66339612e-005 2.66339612e-005
      2.66339612e-005 2.63624042e-005 2.66339612e-005 2.69055181e-005
      -3.07363080e-005 -3.07363080e-005 -3.07363080e-005
      -3.07363080e-005 -3.07363080e-005 -3.07363080e-005
      -3.07363080e-005 -3.07363080e-005 -3.07363080e-005
      -3.07363080e-005 -3.07363080e-005 -3.07363080e-005
      -3.07363080e-005 -3.07363080e-005 -3.07363080e-005
      -3.07363080e-005 -3.07363080e-005 -3.07363080e-005
      -3.07363080e-005 -3.07363080e-005 -3.07363080e-005
      -3.07363080e-005 -3.07363080e-005 -3.07363080e-005
      -3.07363080e-005 -3.07363080e-005 -3.07363080e-005
      -3.07363080e-005 -3.07363080e-005 -3.07363080e-005
      -3.07363080e-005 -3.07363080e-005 -3.07363080e-005
      -3.07363080e-005 -3.07363080e-005 -3.07363080e-005
      -3.07363080e-005 -3.07363080e-005 -3.07363080e-005
      -3.07363080e-005 -3.64086372e-005 -1.93046981e-005
      -3.42339263e-005 -3.02636108e-005 -3.84603809e-005
      -2.54804290e-005 -3.49216498e-005 -4.30366417e-005
      -5.26933400e-005 -5.26933400e-005 -5.26933400e-005
      -5.26933400e-005 -5.26933400e-005 -5.26933400e-005
      -5.26933400e-005 -5.26933400e-005 -5.26933400e-005
      -5.26933400e-005 -5.26933400e-005 -5.26933400e-005
      -5.26933400e-005 -5.26933400e-005 -5.26933400e-005
      -5.26933400e-005 -5.26933400e-005 -5.26933400e-005
      -5.26933400e-005 -5.26933400e-005 -5.26933400e-005
      -5.26933400e-005 -5.26933400e-005 -5.26933400e-005
      -5.26933400e-005 -5.26933400e-005 -5.26933400e-005
      -5.26933400e-005 -5.26933400e-005 -5.26933400e-005
      -5.26933400e-005 -5.26933400e-005 -5.26933400e-005
      -5.26933400e-005 -5.26933400e-005 -5.26933400e-005
      -5.26933400e-005 -5.26933400e-005 -5.26933400e-005
      -5.26933400e-005 -6.22016451e-005 -3.46894776e-005
      -3.80308993e-005 -7.31602995e-005 -2.81442444e-005 3.53935757e-005
      5.37255910e-005 5.00838796e-005 5.02453149e-005 5.02453149e-005
      5.02453149e-005 5.02453149e-005 5.02453149e-005 5.02453149e-005
      5.02453149e-005 5.02453149e-005 5.02453149e-005 5.02453149e-005
      5.02453149e-005 5.02453149e-005 5.02453149e-005 5.02453149e-005
      5.02453149e-005 5.02453149e-005 5.02453149e-005 5.02453149e-005
      5.02453149e-005 5.02453149e-005 5.02453149e-005 5.02453149e-005
      5.02453149e-005 5.02453149e-005 5.02453149e-005 5.02453149e-005
      5.02453149e-005 5.02453149e-005 5.02453149e-005 5.02453149e-005
      5.02453149e-005 5.02453149e-005 5.02453149e-005 5.02453149e-005
      5.02453149e-005 5.02453149e-005 5.02453149e-005 5.02453149e-005
      5.02453149e-005 5.02453149e-005 5.15926331e-005 5.04084019e-005
      -5.87721343e-006 -3.41618688e-005 -8.12146118e-006
      -1.88664876e-006 -3.86471656e-005 -6.54334428e-007
      -1.26983277e-005 -1.26983277e-005 -1.26983277e-005
      -1.26983277e-005 -1.26983277e-005 -1.26983277e-005
      -1.26983277e-005 -1.26983277e-005 -1.26983277e-005
      -1.26983277e-005 -1.26983277e-005 -1.26983277e-005
      -1.26983277e-005 -1.26983277e-005 -1.26983277e-005
      -1.26983277e-005 -1.26983277e-005 -1.26983277e-005
      -1.26983277e-005 -1.26983277e-005 -1.26983277e-005
      -1.26983277e-005 -1.26983277e-005 -1.26983277e-005
      -1.26983277e-005 -1.26983277e-005 -1.26983277e-005
      -1.26983277e-005 -1.26983277e-005 -1.26983277e-005
      -1.26983277e-005 -1.26983277e-005 -3.28763463e-006
      -3.46899578e-005 -3.48659091e-006 -2.67180394e-006
      -3.46978341e-005 -4.85409055e-006 -2.02662668e-005
      -1.43727211e-005 -2.01274761e-005 -2.01274761e-005
      -2.01274761e-005 -2.01274761e-005 -2.01274761e-005
      -2.01274761e-005 -2.01274761e-005 -2.01274761e-005
      -2.01274761e-005 -2.01274761e-005 -2.01274761e-005
      -2.01274761e-005 -2.01274761e-005 -2.01274761e-005
      -2.01274761e-005 -2.01274761e-005 -2.01274761e-005
      -2.01274761e-005 -2.01274761e-005 -2.01274761e-005
      -2.01274761e-005 -2.01274761e-005 -2.01274761e-005
      -2.01274761e-005 -2.01274761e-005 -2.01274761e-005
      -2.01274761e-005 -2.01274761e-005 -2.01274761e-005
      -2.01274761e-005 -2.01274761e-005 -2.01274761e-005
      -2.01274761e-005 -2.01274761e-005 -2.01274761e-005
      -2.01274761e-005 -2.01274761e-005 -2.01274761e-005
      -2.01274761e-005 -2.01274761e-005 -2.80128152e-005 1.32430614e-005
      2.30590122e-005 2.80745917e-005 2.34711370e-005 3.24120774e-005
      2.12877203e-005 2.55070736e-005 2.33006704e-005 2.33006704e-005
      2.33006704e-005 2.35208499e-005 2.30721234e-005 2.30721234e-005
      2.30721234e-005 2.30721234e-005 2.30721234e-005 2.30721234e-005
      2.30721234e-005 2.30721234e-005 2.30721234e-005 2.30721234e-005
      2.30721234e-005 2.30721234e-005 2.28223580e-005 2.33218907e-005
      2.30721234e-005 2.31970080e-005 2.30721234e-005 2.29472407e-005
      2.31970080e-005 2.29472407e-005 2.30721234e-005 2.30721234e-005
      2.30721234e-005 2.30721234e-005 2.30721234e-005 2.30721234e-005
      2.30721234e-005 2.30721234e-005 6.60276783e-006 4.36696646e-005
      1.26487193e-005 -3.03809538e-005 -3.85020139e-005 -3.73797266e-005
      -3.72110662e-005 -4.08859523e-005 -3.47959358e-005
      -3.47959358e-005 -3.47959358e-005 -3.47959358e-005
      -3.47959358e-005 -3.47959358e-005 -3.47959358e-005
      -3.47959358e-005 -3.47959358e-005 -3.47959358e-005
      -3.47959358e-005 -3.47959358e-005 -3.47959358e-005
      -3.47959358e-005 -3.47959358e-005 -3.47959358e-005
      -3.47959358e-005 -3.47959358e-005 -3.47959358e-005
      -3.47959358e-005 -3.47959358e-005 -3.47959358e-005
      -3.47959358e-005 -3.47959358e-005 -3.47959358e-005
      -3.47959358e-005 -3.47959358e-005 -3.47959358e-005
      -3.47959358e-005 -3.47959358e-005 -3.47959358e-005
      -3.47959358e-005 -4.31385706e-005 -4.02055266e-005
      -4.27688065e-005 -2.39683795e-005 7.02778198e-006 1.47445271e-005
      1.64139456e-005 1.80319330e-005 1.60390136e-005 1.60390136e-005
      1.60390136e-005 1.60390136e-005 1.60390136e-005 1.60390136e-005
      1.60390136e-005 1.60390136e-005 1.60390136e-005 1.60390136e-005
      1.60390136e-005 1.60390136e-005 1.60390136e-005 1.60390136e-005
      1.60390136e-005 1.60390136e-005 1.60390136e-005 1.60390136e-005
      1.60390136e-005 1.60390136e-005 1.60390136e-005 1.60390136e-005
      1.60390136e-005 1.60390136e-005 1.60390136e-005 1.60390136e-005
      1.60390136e-005 1.60390136e-005 1.60390136e-005 1.60390136e-005
      1.60390136e-005 1.60390136e-005 1.61521129e-005 1.27618114e-005
      2.65739454e-005 1.28462398e-005 6.72423703e-005 5.47646196e-005
      6.75961710e-005 6.29315400e-005 5.84167828e-005 5.84167828e-005
      5.84167828e-005 5.84167828e-005 5.84167828e-005 5.84167828e-005
      5.84167828e-005 5.84167828e-005 5.84167828e-005 5.84167828e-005
      5.84167828e-005 5.84167828e-005 5.84167828e-005 5.84167828e-005
      5.84167828e-005 5.84167828e-005 5.84167828e-005 5.84167828e-005
      5.84167828e-005 5.84167828e-005 5.84167828e-005 5.84167828e-005
      5.84167828e-005 5.84167828e-005 5.84167828e-005 5.84167828e-005
      5.84167828e-005 5.84167828e-005 5.84167828e-005 5.84167828e-005
      5.84167828e-005 5.84167828e-005 7.20008975e-005 5.29930912e-005
      6.99316952e-005 2.68263575e-005 2.70656747e-005 2.71243680e-005
      3.97648146e-005 1.81871692e-005 2.92810964e-005 2.92810964e-005
      2.92810964e-005 2.92810964e-005 2.92810964e-005 2.92810964e-005
      2.92810964e-005 2.92810964e-005 2.92810964e-005 2.92810964e-005
      2.92810964e-005 2.92810964e-005 2.92810964e-005 2.92810964e-005
      2.92810964e-005 2.92810964e-005 2.92810964e-005 2.92810964e-005
      2.92810964e-005 2.92810964e-005 2.92810964e-005 2.92810964e-005
      2.92810964e-005 2.92810964e-005 2.92810964e-005 2.92810964e-005
      2.92810964e-005 2.92810964e-005 2.92810964e-005 2.92810964e-005
      2.92810964e-005 2.92810964e-005 3.57062308e-005 -2.05949509e-005
      -1.82687800e-005 -2.02574138e-005 -1.63404366e-005
      -9.39116217e-006 5.77178162e-006 -1.57864924e-005 -1.18486396e-005
      -1.18486396e-005 -1.18486396e-005 -1.18486396e-005
      -1.18486396e-005 -1.18486396e-005 -1.18486396e-005
      -1.18486396e-005 -1.18486396e-005 -1.18486396e-005
      -1.18486396e-005 -1.18486396e-005 -1.18486396e-005
      -1.18486396e-005 -1.18486396e-005 -1.18486396e-005
      -1.18486396e-005 -1.18486396e-005 -1.18486396e-005
      -1.18486396e-005 -1.18486396e-005 -1.18486396e-005
      -1.18486396e-005 -1.18486396e-005 -1.43466332e-005
      -1.69090290e-005 -1.55586149e-005 -5.56944087e-006
      -2.53429080e-005 -1.37331199e-005 -8.97562277e-005
      -1.09676992e-004 -1.07091015e-004 -1.07091015e-004
      -1.07091015e-004 -1.07091015e-004 -1.07091015e-004
      -1.07091015e-004 -1.07091015e-004 -1.07091015e-004
      -1.07091015e-004 -1.07091015e-004 -1.07091015e-004
      -1.07091015e-004 -1.07091015e-004 -1.07091015e-004
      -1.07091015e-004 -1.07091015e-004 -1.07091015e-004
      -1.07091015e-004 -1.07091015e-004 -1.07091015e-004
      -1.07091015e-004 -1.07091015e-004 -1.07091015e-004
      -1.07091015e-004 -1.07091015e-004 -1.07091015e-004
      -1.07091015e-004 -1.07091015e-004 -1.07091015e-004
      -1.07091015e-004 -1.07091015e-004 -1.07091015e-004
      -9.98018295e-005 -9.33747870e-005 5.32638987e-005 6.14527453e-005
      5.97805411e-005 6.71732341e-005 6.89471926e-005 7.25861464e-005
      6.53617317e-005 6.53617317e-005 6.53617317e-005 6.53617317e-005
      6.53617317e-005 6.53617317e-005 6.53617317e-005 6.53617317e-005
      6.53617317e-005 6.53617317e-005 6.53617317e-005 6.53617317e-005
      6.53617317e-005 6.53617317e-005 6.53617317e-005 6.53617317e-005
      6.53617317e-005 6.53617317e-005 6.53617317e-005 6.53617317e-005
      6.53617317e-005 6.53617317e-005 6.53617317e-005 6.53617317e-005
      7.96348759e-005 -1.91959898e-005 5.47164746e-005 7.02373218e-005
      6.37991325e-005 -3.52667994e-005 -1.40921065e-005 -3.75911004e-005
      -3.59488295e-005 -3.59488295e-005 -3.59488295e-005
      -3.59488295e-005 -3.59488295e-005 -3.59488295e-005
      -3.59488295e-005 -3.59488295e-005 -3.59488295e-005
      -3.59488295e-005 -3.59488295e-005 -3.59488295e-005
      -3.59488295e-005 -3.59488295e-005 -3.59488295e-005
      -3.59488295e-005 -3.59488295e-005 -3.59488295e-005
      -3.59488295e-005 -3.59488295e-005 -3.59488295e-005
      -3.59488295e-005 -3.59488295e-005 -3.59488295e-005
      -3.25431793e-005 -4.26401057e-005 -3.59519581e-005
      -2.85268798e-005 -3.39217149e-005 -5.94729790e-005
      -1.62437100e-005 6.07311858e-006 8.94343702e-006 8.94343702e-006
      8.94343702e-006 8.94343702e-006 8.94343702e-006 8.94343702e-006
      8.94343702e-006 8.94343702e-006 8.94343702e-006 8.94343702e-006
      8.94343702e-006 8.94343702e-006 8.94343702e-006 8.94343702e-006
      8.94343702e-006 8.94343702e-006 8.94343702e-006 8.94343702e-006
      8.94343702e-006 8.94343702e-006 8.94343702e-006 8.94343702e-006
      8.94343702e-006 8.94343702e-006 8.94343702e-006 8.94343702e-006
      8.94343702e-006 8.94343702e-006 8.94343702e-006 8.94343702e-006
      8.94343702e-006 8.94343702e-006 2.63741595e-006 2.63741595e-006
      2.63741595e-006 2.63741595e-006 2.63741595e-006 2.63741595e-006
      2.63741595e-006 2.63741595e-006 2.63741595e-006 2.63741595e-006
      2.63741595e-006 2.63741595e-006 2.63741595e-006 2.63741595e-006
      2.90897242e-006 2.63741595e-006 2.63741595e-006 2.63741595e-006
      2.63741595e-006 2.63741595e-006 2.63741595e-006 2.63741595e-006
      2.63741595e-006 2.63741595e-006 2.90897242e-006 2.63741595e-006
      2.63741595e-006 2.63741595e-006 2.63741595e-006 2.36585925e-006
      2.63741595e-006 2.90897242e-006 -1.96787496e-005 -1.96787496e-005
      -1.96787496e-005 -1.96787496e-005 -1.96787496e-005
      -1.96787496e-005 -1.96787496e-005 -1.96787496e-005
      -1.96787496e-005 -1.96787496e-005 -1.96787496e-005
      -1.96787496e-005 -1.96787496e-005 -1.96787496e-005
      -1.96787496e-005 -1.96787496e-005 -1.96787496e-005
      -1.96787496e-005 -1.96787496e-005 -1.96787496e-005
      -1.96787496e-005 -1.96787496e-005 -1.96787496e-005
      -1.96787496e-005 -2.09074460e-005 -1.48736317e-005
      -1.57857576e-005 -1.89732236e-005 -2.00794748e-005
      -2.25035019e-005 -1.34062911e-005 -2.22191629e-005
      -1.96787496e-005 -1.96787496e-005 -1.96787496e-005
      -1.96787496e-005 -1.96787496e-005 -1.96787496e-005
      -1.96787496e-005 -1.96787496e-005 -1.96787496e-005
      -1.96787496e-005 -1.96787496e-005 -1.96787496e-005
      -1.96787496e-005 -1.96787496e-005 -1.96787496e-005
      -1.96787496e-005 -1.96787496e-005 -1.96787496e-005
      -1.96787496e-005 -1.96787496e-005 -1.96787496e-005
      -1.96787496e-005 -1.96787496e-005 -1.96787496e-005
      -1.86900452e-005 -2.27846140e-005 -2.35481602e-005
      -1.60535274e-005 -2.05015094e-005 1.62956312e-005 1.68450060e-005
      1.62360902e-005 1.55585731e-005 1.55585731e-005 1.55585731e-005
      1.55585731e-005 1.55585731e-005 1.55585731e-005 1.55585731e-005
      1.55585731e-005 1.52870161e-005 1.57328632e-005 1.60044183e-005
      1.58301300e-005 1.49384387e-005 1.51127279e-005 1.55585731e-005
      1.60044183e-005 1.51127279e-005 1.60044183e-005 1.51127279e-005
      1.55585731e-005 1.64502635e-005 1.51127279e-005 1.58301300e-005
      1.60044183e-005 1.16495703e-005 1.71588217e-005 1.22035977e-004
      1.21153615e-004 1.16580952e-004 1.14033661e-004 1.17757241e-004
      1.22112571e-004 1.22200683e-004 1.22200683e-004 1.22200683e-004
      1.22200683e-004 1.22200683e-004 1.22200683e-004 1.22200683e-004
      1.22200683e-004 1.22200683e-004 1.22200683e-004 1.22200683e-004
      1.22200683e-004 1.22200683e-004 1.22200683e-004 1.22200683e-004
      1.22200683e-004 1.16576040e-004 1.29883876e-004 1.19380100e-004
      1.06265514e-004 1.29887398e-004 1.07691529e-004 -1.03684266e-004
      -1.02979466e-004 -1.02859864e-004 -1.02859864e-004
      -1.02859864e-004 -1.02859864e-004 -1.02859864e-004
      -1.02859864e-004 -1.02859864e-004 -1.02859864e-004
      -1.02859864e-004 -1.02859864e-004 -1.02859864e-004
      -1.02859864e-004 -1.02859864e-004 -1.02859864e-004
      -1.02859864e-004 -1.02859864e-004 -1.02859864e-004
      -1.02859864e-004 -1.02859864e-004 -1.02859864e-004
      -1.02859864e-004 -1.02859864e-004 -1.02859864e-004
      -1.02859864e-004 -1.01822006e-004 -1.87407459e-005 2.11884944e-005
      1.09701123e-005 7.43417877e-006 7.92487299e-006 1.29798882e-005
      3.57738145e-006 8.94343702e-006 8.94343702e-006 8.94343702e-006
      8.94343702e-006 8.94343702e-006 8.94343702e-006 8.94343702e-006
      8.94343702e-006 8.94343702e-006 8.94343702e-006 8.94343702e-006
      8.94343702e-006 8.94343702e-006 8.94343702e-006 8.94343702e-006
      8.94343702e-006 1.09289931e-005 1.11220270e-005 2.49918266e-005
      7.05773491e-005 1.06579442e-004 9.84176222e-005 9.17837024e-005
      1.04284547e-004 9.45293577e-005 9.39049351e-005 9.46542350e-005
      9.39049351e-005 9.44044732e-005 9.42795887e-005 9.45293577e-005
      9.41547041e-005 9.42795887e-005 9.42795887e-005 9.42795887e-005
      9.42795887e-005 9.42795887e-005 9.42795887e-005 9.42795887e-005
      9.42795887e-005 9.38102457e-005 9.12411779e-005 9.70775436e-005
      8.68418210e-005 1.55058515e-005 3.41327313e-006 9.31832255e-006
      5.90301806e-006 8.94343702e-006 8.94343702e-006 8.94343702e-006
      8.94343702e-006 8.94343702e-006 8.94343702e-006 8.94343702e-006
      8.94343702e-006 8.94343702e-006 8.94343702e-006 8.94343702e-006
      8.94343702e-006 8.94343702e-006 8.94343702e-006 8.94343702e-006
      8.94343702e-006 1.27272660e-005 -1.24866415e-006 3.61082084e-006
      2.71127665e-005 -1.68457603e-007 2.67274409e-005 2.64849077e-005
      9.25298991e-006 1.62993456e-005 1.62993456e-005 1.62993456e-005
      1.62993456e-005 1.62993456e-005 1.62993456e-005 1.62993456e-005
      1.62993456e-005 1.62993456e-005 1.62993456e-005 1.62993456e-005
      1.62993456e-005 1.62993456e-005 1.62993456e-005 1.62993456e-005
      1.62993456e-005 1.82786025e-005 1.27134444e-005 2.87120238e-005
      -2.70075088e-005 -2.61334244e-005 -2.33006558e-005
      -2.80385520e-005 -1.66598329e-005 -1.96787496e-005
      -1.96787496e-005 -1.96787496e-005 -1.96787496e-005
      -1.96787496e-005 -1.96787496e-005 -1.96787496e-005
      -1.96787496e-005 -1.96787496e-005 -1.96787496e-005
      -1.96787496e-005 -1.96787496e-005 -1.96787496e-005
      -1.96787496e-005 -1.96787496e-005 -1.96787496e-005
      -1.61362823e-005 -3.35495224e-006 4.10529901e-006 1.40618920e-006
      5.03709430e-007 1.02525473e-005 1.52161647e-006 6.51099845e-006
      3.40836527e-006 3.40836527e-006 3.40836527e-006 3.40836527e-006
      3.40836527e-006 3.40836527e-006 3.40836527e-006 3.40836527e-006
      -3.76206071e-006 -8.07264405e-006 3.02845615e-006 -1.64630580e-006
      -1.20625355e-005 1.18061362e-005 4.79883602e-006 2.88376741e-005
      2.05836386e-005 2.05836386e-005 2.05836386e-005 2.05836386e-005
      2.05836386e-005 2.05836386e-005 2.05836386e-005 2.05836386e-005
      2.05836386e-005 2.05836386e-005 2.05836386e-005 2.05836386e-005
      2.05836386e-005 2.05836386e-005 2.05836386e-005 2.05836386e-005
      1.68044389e-005 5.71806595e-006 1.24858561e-005 -2.94808615e-006
      1.13951573e-005 7.59348177e-006 -6.43188287e-006 2.75756338e-006
      4.32219485e-006 4.32219485e-006 4.32219485e-006 4.32219485e-006
      4.32219485e-006 4.32219485e-006 4.32219485e-006 4.32219485e-006
      1.32489390e-006 2.67649830e-006 1.05083689e-006 2.25421763e-006
      5.59325235e-006 -1.59115984e-006 -7.24908773e-007 -3.17589001e-006
      2.63741595e-006 2.63741595e-006 2.63741595e-006 2.63741595e-006
      2.63741595e-006 2.63741595e-006 2.63741595e-006 2.63741595e-006
      5.79681137e-006 -3.24511984e-006 -1.38742371e-006 1.28592319e-005
      -5.71578084e-007 1.11989739e-005 -2.88413617e-006 3.89384732e-005
      4.55329427e-005 4.55329427e-005 4.55329427e-005 4.55329427e-005
      4.55329427e-005 4.55329427e-005 4.55329427e-005 4.55329427e-005
      4.55329427e-005 4.55329427e-005 4.55329427e-005 4.55329427e-005
      4.55329427e-005 4.55329427e-005 4.55329427e-005 4.55329427e-005
      -1.31455527e-005 -1.31455527e-005 -1.31455527e-005
      -1.31455527e-005 -1.31455527e-005 -1.31455527e-005
      -1.31455527e-005 -1.31455527e-005 -1.31455527e-005
      -1.31455527e-005 -1.31455527e-005 -1.31455527e-005
      -1.31455527e-005 -1.31455527e-005 -1.31455527e-005
      -1.31455527e-005 2.74147860e-005 2.74147860e-005 2.74147860e-005
      2.74147860e-005 2.74147860e-005 2.74147860e-005 2.74147860e-005
      2.74147860e-005 2.59201479e-005 3.14356330e-005 1.80535426e-005
      4.74386543e-005 2.89249092e-005 2.84276884e-005 3.95573297e-005
      -2.30486112e-005 -9.02781267e-006 -9.02781267e-006
      -9.02781267e-006 -9.02781267e-006 -9.02781267e-006
      -9.02781267e-006 -9.02781267e-006 -9.02781267e-006
      -6.57344401e-007 -3.06026595e-006 -3.81436098e-006
      -1.26269179e-005 -7.29098520e-006 -1.16063429e-005
      -4.37773888e-005 -1.46409702e-005 -1.96787496e-005
      -1.96787496e-005 -1.96787496e-005 -1.96787496e-005
      -1.96787496e-005 -1.96787496e-005 -1.96787496e-005
      -1.96787496e-005 -2.71435129e-005 -2.47242951e-005
      -1.45777231e-004 -1.42873876e-004 -1.31230219e-004
      -1.33307563e-004 -1.37166091e-004 -1.36727991e-004
      -1.33419962e-004 -1.37175331e-004 -1.32084446e-004
      -1.31097811e-004 -1.42864636e-004 -1.46665727e-004
      -2.41644702e-005 -2.59960088e-005 -1.96787496e-005
      -1.96787496e-005 -1.96787496e-005 -1.96787496e-005
      -1.96787496e-005 -1.96787496e-005 -1.96787496e-005
      -1.96787496e-005 -1.87912192e-005 -1.59187330e-005
      -1.33912336e-005 -1.21441544e-005 -1.72539676e-005
      -1.04387118e-005 -1.10620385e-005 -1.68006682e-005
      -1.55166017e-005 -1.01189044e-005 -1.65584497e-005
      -3.57352947e-005 -1.13450360e-005 -2.25186577e-005
      -2.41317648e-005 -2.49112691e-005 -1.13961632e-005
      -2.71110512e-005 -1.80099760e-005 -1.71599386e-005 1.77728380e-005
      1.31459265e-005 2.64645350e-005 1.18643538e-005 1.66593782e-005
      2.59342196e-005 1.67454964e-005 2.37604836e-005 -1.02524340e-004
      -9.38205121e-005 -1.00610974e-004 -9.15640412e-005
      -9.99485055e-005 -9.51054099e-005 -9.04866174e-005
      -2.95568607e-005 -2.01474813e-005 -2.47439584e-005
      -2.37957793e-005 -2.14427764e-005 -2.51795900e-005
      -1.74576926e-005 -4.97642213e-005 -3.10730575e-005
      -2.90555399e-005 -5.32350459e-005 -8.59178817e-006
      -1.51571985e-005 -1.55298148e-005 -2.29654834e-005 1.97284549e-004
      1.78257949e-004 1.83813623e-004 -1.18146781e-005 -2.71198060e-005
      -2.15088312e-005</_></support_vectors>
  <decision_functions>
    <_>
      <sv_count>1</sv_count>
      <rho>-8.3976781498296438e-001</rho>
      <alpha>
        1.</alpha>
      <index>
        0</index></_></decision_functions></my_svm>
</opencv_storage>
