<?xml version="1.0"?>
<opencv_storage>
<my_svm type_id="opencv-ml-svm">
  <svm_type>C_SVC</svm_type>
  <kernel><type>LINEAR</type></kernel>
  <C>1.</C>
  <term_criteria><epsilon>2.2204460492503131e-016</epsilon>
    <iterations>100</iterations></term_criteria>
  <var_all>4544</var_all>
  <var_count>4544</var_count>
  <class_count>2</class_count>
  <class_labels type_id="opencv-matrix">
    <rows>1</rows>
    <cols>2</cols>
    <dt>i</dt>
    <data>
      30 255</data></class_labels>
  <sv_total>1</sv_total>
  <support_vectors>
    <_>
      -8.27146778e-007 -8.27146778e-007 -6.37237349e-007
      -6.59895932e-007 -6.59895932e-007 -4.07497538e-007
      -5.97406938e-007 -5.97406938e-007 2.00782142e-006 0.
      -1.30238311e-006 -3.83007819e-006 -1.21335097e-006
      -1.30238311e-006 -2.20856492e-007 1.99882470e-006 -4.98145937e-007
      -4.98145937e-007 0. -4.07497538e-007 0. -4.85306089e-007
      -9.83451969e-007 -1.39239091e-006 -1.65284050e-007 3.41858566e-007
      -5.17404430e-007 -2.23334524e-007 -3.12366751e-007
      -3.12366751e-007 -5.07142602e-007 -5.07142602e-007 0. 0. 0. 0. 0.
      0. 0. -4.07497538e-007 -5.97406938e-007 -5.97406938e-007 0. 0. 0.
      0. 0. -1.37087318e-006 -1.87290675e-006 -1.46540924e-006
      -1.37087318e-006 0. 0. 0. 0. 0. 0. 0. 0. 0. 0. 0. 0. 0. 0. 0.
      -2.07142406e-007 0. 0. 0. 0. 0. 0. 0. 0. 0. 0. -4.08938945e-007
      -4.08938945e-007 -4.08938945e-007 0. 0. 0. 0. 0. 0. 0. 0. 0. 0. 0.
      0. 0. 0. 0. 0. 0. 0. 0. -5.97406938e-007 -5.97406938e-007 0. 0. 0.
      1.11569068e-006 5.46896274e-007 5.46896274e-007 5.46896274e-007 0.
      0. 0. 0. 0. 0. 0. 0. 0. 0. 0. 0. 2.92933493e-007 2.92933493e-007
      8.39829738e-007 8.39829738e-007 7.50797483e-007 2.03901251e-007
      2.03901251e-007 8.90322269e-008 0. 0. 0. 0. 0. 0. 0. 0. 0. 0. 0.
      0. 0. 0. 0. 0. 0. 0. 0. 0. 0. 0. 0. 0. 0. 0. 0. 0. 0. 0. 0. 0. 0.
      0. 0. 0. 0. 0. 0. 0. 0. 0. 0. 0. 0. 0. 0. 0. 0. 0. 0. 0. 0. 0. 0.
      0. 0. 0. 0. 0. 0. 0. 0. 0. 0. 0. 0. 0. 0. 0. 0. 0. 0. 0. 0. 0. 0.
      0. 0. 0. 0. 0. 0. 0. 0. 0. 0. 0. 0. 0. 0. 0. 0. 0. 0. 0. 0. 0. 0.
      0. 0. 0. 0. 0. 0. 0. 0. 0. 0. 0. 0. 0. 0. 0. 0. 0. 0. 0. 0. 0. 0.
      0. 0. 0. 0. 0. 0. 0. 1.07380879e-006 4.79116920e-007
      -3.05239178e-006 -2.82063843e-006 -1.88372258e-006
      -4.60188949e-006 -1.70868270e-006 -2.12016971e-006
      -7.23849735e-006 -3.96034875e-006 -3.80910183e-006 3.58924967e-006
      1.09962355e-006 3.03869888e-006 1.45545846e-006 -2.60928630e-007
      -8.23824121e-006 -3.83362794e-006 7.43401017e-007 -1.13494468e-006
      -3.02700710e-006 -2.82798715e-006 -2.25473536e-006
      -4.76364562e-007 -2.20476909e-006 4.73261359e-008 1.39890560e-007
      -8.78779758e-007 -1.71818579e-006 4.66224492e-007 -1.23827442e-006
      7.82697143e-008 -2.03021528e-007 -3.34302683e-008 2.05999618e-006
      5.36424636e-007 -1.18537423e-006 -1.12706891e-006 3.03908405e-006
      2.50802350e-006 2.73888816e-007 2.17249454e-008 -1.81330961e-006
      -1.68160329e-006 -3.22346955e-006 6.29045473e-007 -8.16758643e-007
      -1.40789336e-006 9.62844865e-007 -9.06306980e-007 -3.47978107e-006
      -7.44920783e-007 -2.56188127e-006 -5.17573471e-006
      -6.03785884e-006 -3.68452925e-006 -2.73624295e-007 9.27936071e-007
      2.21233745e-006 -1.76030241e-007 -1.44416390e-006 -1.37087136e-006
      -1.62684773e-006 2.99475755e-006 5.52581241e-006 4.61315676e-006
      2.22095855e-006 -7.67482732e-007 -4.56536185e-007 -3.63476829e-007
      1.54095414e-006 1.17318984e-006 -1.11248130e-006 -7.99180157e-007
      -1.26545228e-006 -9.66723519e-007 -3.75488042e-007
      -1.31390959e-006 4.28349631e-006 3.84559416e-006 3.56018489e-007
      3.37095753e-006 6.57906696e-007 -3.86656575e-006 -5.30026136e-006
      2.58752675e-006 1.29585612e-006 4.13340467e-006 1.93606570e-006
      -1.60787306e-006 -5.37960432e-006 -5.26946405e-006 4.03736436e-007
      1.73941987e-006 -1.35315088e-006 2.29850613e-007 -1.04760367e-007
      7.89400360e-007 7.38266408e-007 1.86913283e-007 2.96899498e-006
      2.39683345e-007 -1.08683651e-006 -1.37565098e-006 -1.09481084e-006
      -2.21546270e-006 -3.38094765e-006 -2.72184798e-006
      -1.04708374e-006 -1.48007177e-006 -1.01777141e-006
      -1.41226599e-006 9.41570931e-007 1.75516982e-006 3.75318336e-007
      2.86286109e-007 1.42161795e-007 5.49659319e-007 1.09520545e-006
      1.31139745e-006 -1.19604499e-006 -1.19604499e-006 -9.92448690e-007
      -1.54601850e-007 3.30704239e-007 3.30704239e-007 -9.83878181e-007
      -7.67686174e-007 -2.82748647e-006 -2.71033900e-006
      -2.14662368e-008 -2.85864310e-008 6.59496138e-008 1.76155038e-006
      1.38772634e-006 -3.59287105e-006 1.43461975e-007 1.78489563e-006
      2.54491260e-006 -2.77511077e-007 -4.20912602e-006 -1.70411204e-006
      -2.26008501e-006 -2.40680674e-006 4.40154190e-006 3.14901808e-006
      9.11612460e-007 1.09081157e-006 1.26546854e-006 -1.99092051e-006
      3.13195699e-007 4.50159320e-007 9.04594515e-007 1.38992258e-008
      -2.07929770e-006 -3.83128463e-006 -2.51983852e-006
      -1.02090030e-006 -1.30910973e-006 -1.27876297e-006
      -4.51069991e-006 1.74376748e-006 -1.28543797e-006 -9.91164768e-008
      1.18005380e-006 2.09820694e-008 -5.43068488e-008 3.50925603e-007
      -4.04858292e-006 -3.18050525e-006 9.02451234e-007 2.73472605e-008
      -2.72514200e-007 -2.22844051e-007 -9.75273679e-007 1.79494930e-006
      -1.91180220e-006 1.36581252e-006 1.87056776e-006 -1.97783621e-007
      -2.63230709e-006 1.02722265e-006 4.94360529e-006 2.40299346e-006
      4.14614277e-007 -1.98264479e-006 1.39793076e-006 4.51592587e-006
      5.76683806e-006 2.79928872e-006 1.43556008e-006 -1.75871946e-006
      -1.10227553e-007 -5.73919635e-007 1.87318335e-006 1.21247786e-006
      1.21106575e-006 6.01394277e-007 -1.38518828e-006 -4.15636987e-006
      3.76030744e-006 2.93251105e-006 2.71877821e-006 1.32077980e-006
      -1.69650366e-006 -1.09028565e-006 -5.61006982e-006
      -4.59623834e-006 6.54850737e-007 1.43582599e-006 -9.31004877e-007
      2.28055956e-006 4.24410382e-006 2.36387291e-006 -1.13652511e-007
      -2.42978399e-006 -5.44985915e-006 -1.00244492e-007
      -6.28359373e-007 3.55927000e-007 1.04216713e-006 1.46904404e-006
      -4.79230437e-007 -1.38476810e-006 1.80806751e-007 -3.15732564e-006
      -2.68304916e-006 1.93307983e-006 -2.08680945e-006 -1.05834590e-006
      2.04742059e-006 2.07615562e-006 3.09508732e-006 3.10212636e-006
      1.25224381e-006 7.18795832e-007 2.28556655e-006 2.83991199e-006
      -3.23416828e-007 -6.28274120e-006 5.79983123e-007 7.13893371e-007
      -4.21489915e-007 -2.13917269e-006 -2.74714444e-006
      -2.52290829e-006 -2.18788296e-006 -3.24940856e-006 3.20047525e-006
      2.65357903e-006 4.45552445e-007 6.55696155e-008 -4.19736466e-007
      -3.30704239e-007 4.85732244e-007 8.16436454e-007 -2.32009988e-005
      -2.32009988e-005 -2.32009988e-005 -2.32009988e-005
      -2.32009988e-005 -2.32009988e-005 -2.32009988e-005
      -2.32009988e-005 -2.32009988e-005 -2.32009988e-005
      -2.32009988e-005 -2.32009988e-005 -2.32009988e-005
      -2.32009988e-005 -2.32009988e-005 -2.32009988e-005
      -2.32009988e-005 -2.32009988e-005 -2.32009988e-005
      -2.32009988e-005 -2.32009988e-005 -2.32009988e-005
      -2.32009988e-005 -2.32009988e-005 -2.32009988e-005
      -2.32009988e-005 -2.32009988e-005 -2.32009988e-005
      -2.32009988e-005 -2.32009988e-005 -2.32009988e-005
      -2.32009988e-005 -2.32009988e-005 -2.32009988e-005
      -2.32009988e-005 -2.32009988e-005 -2.32009988e-005
      -2.32009988e-005 -2.32009988e-005 -2.32009988e-005
      -2.32009988e-005 -2.32009988e-005 -2.32009988e-005
      -2.32009988e-005 -2.32009988e-005 -2.32009988e-005
      -2.32009988e-005 -2.32009988e-005 -2.32009988e-005
      -2.32009988e-005 -2.32009988e-005 -2.32009988e-005
      -2.32009988e-005 -2.32009988e-005 -2.32009988e-005
      -2.32009988e-005 -1.59151623e-005 -2.57019783e-005
      -2.19498743e-005 -1.14092090e-005 -3.47411842e-005
      -1.60416512e-005 -1.13216947e-005 -2.10527542e-005
      -1.44310588e-005 -1.44310588e-005 -1.44310588e-005
      -1.44310588e-005 -1.44310588e-005 -1.44310588e-005
      -1.44310588e-005 -1.44310588e-005 -1.44310588e-005
      -1.44310588e-005 -1.44310588e-005 -1.44310588e-005
      -1.44310588e-005 -1.44310588e-005 -1.44310588e-005
      -1.44310588e-005 -1.44310588e-005 -1.44310588e-005
      -1.44310588e-005 -1.44310588e-005 -1.44310588e-005
      -1.44310588e-005 -1.44310588e-005 -1.44310588e-005
      -1.44310588e-005 -1.44310588e-005 -1.44310588e-005
      -1.44310588e-005 -1.44310588e-005 -1.44310588e-005
      -1.44310588e-005 -1.44310588e-005 -1.44310588e-005
      -1.44310588e-005 -1.44310588e-005 -1.44310588e-005
      -1.44310588e-005 -1.44310588e-005 -1.44310588e-005
      -1.44310588e-005 -1.44310588e-005 -1.44310588e-005
      -1.44310588e-005 -1.44310588e-005 -1.44310588e-005
      -1.44310588e-005 -1.44310588e-005 -1.44310588e-005
      -1.44310588e-005 -1.44310588e-005 -1.44310588e-005
      -1.44310588e-005 -1.44310588e-005 -1.44310588e-005
      -1.44310588e-005 -1.44310588e-005 -2.99195631e-006
      -2.41768903e-005 -1.89090879e-005 -1.09592702e-005
      -1.71590400e-005 -8.02264003e-006 -1.42886083e-005
      -4.88269552e-006 -1.35076480e-005 -1.35076480e-005
      -1.35076480e-005 -1.35076480e-005 -1.35076480e-005
      -1.35076480e-005 -1.35076480e-005 -1.35076480e-005
      -1.35076480e-005 -1.35076480e-005 -1.35076480e-005
      -1.35076480e-005 -1.35076480e-005 -1.35076480e-005
      -1.35076480e-005 -1.35076480e-005 -1.35076480e-005
      -1.35076480e-005 -1.35076480e-005 -1.35076480e-005
      -1.35076480e-005 -1.35076480e-005 -1.35076480e-005
      -1.35076480e-005 -1.35076480e-005 -1.35076480e-005
      -1.35076480e-005 -1.35076480e-005 -1.35076480e-005
      -1.35076480e-005 -1.35076480e-005 -1.35076480e-005
      -1.35076480e-005 -1.35076480e-005 -1.35076480e-005
      -1.35076480e-005 -1.35076480e-005 -1.35076480e-005
      -1.35076480e-005 -1.35076480e-005 -1.35076480e-005
      -1.35076480e-005 -1.35076480e-005 -1.35076480e-005
      -1.35076480e-005 -1.35076480e-005 -1.35076480e-005
      -1.35076480e-005 -1.35076480e-005 -1.35076480e-005
      -1.35076480e-005 -1.35076480e-005 -1.35076480e-005
      -1.35076480e-005 -1.35076480e-005 -1.35076480e-005
      -1.34069160e-005 -1.36083800e-005 -1.35076480e-005
      -1.35076480e-005 -1.35076480e-005 -1.37091120e-005
      -1.32054520e-005 -1.37091120e-005 -1.35076480e-005
      -1.35076480e-005 -1.35076480e-005 -1.35076480e-005
      -1.35076480e-005 -1.35076480e-005 -1.35076480e-005
      -1.35076480e-005 -1.35076480e-005 -1.35076480e-005
      -1.35076480e-005 -1.35076480e-005 -1.35076480e-005
      -1.35076480e-005 -1.35076480e-005 -1.35076480e-005
      -1.35076480e-005 -1.35076480e-005 -1.35076480e-005
      -1.35076480e-005 -1.35076480e-005 -1.35076480e-005
      -1.35076480e-005 -1.35076480e-005 -1.35076480e-005
      -1.35076480e-005 -1.35076480e-005 -1.35076480e-005
      -1.35076480e-005 -1.35076480e-005 -1.35076480e-005
      -1.35076480e-005 -1.35076480e-005 -1.35076480e-005
      -1.35076480e-005 -1.35076480e-005 -1.35076480e-005
      -1.35076480e-005 -1.35076480e-005 -1.35076480e-005
      -1.35076480e-005 -1.35076480e-005 -1.35076480e-005
      -1.35076480e-005 -1.35076480e-005 -1.35076480e-005
      -1.35076480e-005 -1.35076480e-005 -1.17607196e-005
      -1.41155870e-005 -1.44468268e-005 -1.42140680e-005
      -1.66348564e-005 -1.23870514e-005 1.11222769e-004 1.11863686e-004
      1.10447545e-004 1.10447545e-004 1.10447545e-004 1.10447545e-004
      1.10447545e-004 1.10447545e-004 1.10447545e-004 1.10447545e-004
      1.10447545e-004 1.10447545e-004 1.10447545e-004 1.10447545e-004
      1.10447545e-004 1.10447545e-004 1.10447545e-004 1.10447545e-004
      1.10447545e-004 1.10447545e-004 1.10447545e-004 1.10447545e-004
      1.10447545e-004 1.10447545e-004 1.10447545e-004 1.10447545e-004
      1.10447545e-004 1.10447545e-004 1.10447545e-004 1.10447545e-004
      1.10447545e-004 1.10447545e-004 1.10447545e-004 1.10447545e-004
      1.10447545e-004 1.10447545e-004 1.10447545e-004 1.10447545e-004
      1.10447545e-004 1.10447545e-004 1.10447545e-004 1.10447545e-004
      1.10447545e-004 1.10447545e-004 1.10447545e-004 1.10447545e-004
      1.10447545e-004 1.10447545e-004 1.10447545e-004 1.10447545e-004
      1.10447545e-004 1.10447545e-004 1.10447545e-004 1.10447545e-004
      1.10447545e-004 1.10447545e-004 1.10447545e-004 1.10447545e-004
      9.80223340e-005 4.15498653e-005 3.27851703e-005 5.66071321e-005
      5.03777192e-005 3.74819792e-005 4.06997060e-005 4.76281348e-005
      4.33876958e-005 4.33876958e-005 4.33876958e-005 4.33876958e-005
      4.33876958e-005 4.33876958e-005 4.33876958e-005 4.33876958e-005
      4.33876958e-005 4.33876958e-005 4.33876958e-005 4.33876958e-005
      4.33876958e-005 4.33876958e-005 4.33876958e-005 4.33876958e-005
      4.33876958e-005 4.33876958e-005 4.33876958e-005 4.33876958e-005
      4.33876958e-005 4.33876958e-005 4.33876958e-005 4.33876958e-005
      4.33876958e-005 4.33876958e-005 4.33876958e-005 4.33876958e-005
      4.33876958e-005 4.33876958e-005 4.33876958e-005 4.33876958e-005
      4.33876958e-005 4.33876958e-005 4.33876958e-005 4.33876958e-005
      4.33876958e-005 4.33876958e-005 4.33876958e-005 4.33876958e-005
      4.33876958e-005 4.33876958e-005 4.33876958e-005 4.33876958e-005
      4.33876958e-005 4.33876958e-005 4.33876958e-005 4.33876958e-005
      5.05872194e-005 3.87417458e-005 4.02873375e-005 2.20251823e-005
      2.34152831e-005 2.59432945e-005 3.69471636e-005 2.27148612e-005
      2.82968285e-005 2.82968285e-005 2.82968285e-005 2.82968285e-005
      2.82968285e-005 2.82968285e-005 2.82968285e-005 2.82968285e-005
      2.82968285e-005 2.82968285e-005 2.82968285e-005 2.82968285e-005
      2.82968285e-005 2.82968285e-005 2.82968285e-005 2.82968285e-005
      2.82968285e-005 2.82968285e-005 2.82968285e-005 2.82968285e-005
      2.82968285e-005 2.82968285e-005 2.82968285e-005 2.82968285e-005
      2.82968285e-005 2.82968285e-005 2.82968285e-005 2.82968285e-005
      2.82968285e-005 2.82968285e-005 2.82968285e-005 2.82968285e-005
      2.82968285e-005 2.82968285e-005 2.82968285e-005 2.82968285e-005
      2.82968285e-005 2.82968285e-005 2.82968285e-005 2.82968285e-005
      2.82968285e-005 2.82968285e-005 2.82968285e-005 2.82968285e-005
      2.82968285e-005 2.82968285e-005 2.82968285e-005 2.82968285e-005
      2.35447751e-005 2.47637054e-005 2.45582487e-005 2.76537903e-005
      -1.55665457e-005 -1.04781129e-005 -1.00508350e-005
      -1.15429975e-005 -1.15535704e-005 -1.15535704e-005
      -1.15535704e-005 -1.15535704e-005 -1.15535704e-005
      -1.15535704e-005 -1.15535704e-005 -1.15535704e-005
      -1.15535704e-005 -1.15535704e-005 -1.15535704e-005
      -1.15535704e-005 -1.15535704e-005 -1.15535704e-005
      -1.15535704e-005 -1.15535704e-005 -1.15535704e-005
      -1.15535704e-005 -1.15535704e-005 -1.15535704e-005
      -1.15535704e-005 -1.15535704e-005 -1.15535704e-005
      -1.15535704e-005 -1.15535704e-005 -1.15535704e-005
      -1.15535704e-005 -1.15535704e-005 -1.15535704e-005
      -1.15535704e-005 -1.15535704e-005 -1.15535704e-005
      -1.15535704e-005 -1.15535704e-005 -1.15535704e-005
      -1.15535704e-005 -1.15535704e-005 -1.15535704e-005
      -1.15535704e-005 -1.15535704e-005 -1.15535704e-005
      -1.15535704e-005 -1.15535704e-005 -1.15535704e-005
      -1.15535704e-005 -1.15535704e-005 -1.15535704e-005
      -1.15535704e-005 -2.14675438e-005 -3.28757528e-006
      -1.63866025e-005 -5.80483629e-006 -5.76629245e-005
      -4.17570736e-005 -5.45754519e-005 -4.16274561e-005
      -4.97745423e-005 -4.97745423e-005 -4.97745423e-005
      -4.97745423e-005 -4.97745423e-005 -4.97745423e-005
      -4.97745423e-005 -4.97745423e-005 -4.97745423e-005
      -4.97745423e-005 -4.97745423e-005 -4.97745423e-005
      -4.97745423e-005 -4.97745423e-005 -4.97745423e-005
      -4.97745423e-005 -4.97745423e-005 -4.97745423e-005
      -4.97745423e-005 -4.97745423e-005 -4.97745423e-005
      -4.97745423e-005 -4.97745423e-005 -4.97745423e-005
      -4.97745423e-005 -4.97745423e-005 -4.97745423e-005
      -4.97745423e-005 -4.97745423e-005 -4.97745423e-005
      -4.97745423e-005 -4.97745423e-005 -4.97745423e-005
      -4.97745423e-005 -4.97745423e-005 -4.97745423e-005
      -4.97745423e-005 -4.97745423e-005 -4.97745423e-005
      -4.97745423e-005 -4.97745423e-005 -4.97745423e-005
      -4.97745423e-005 -4.97745423e-005 -4.97745423e-005
      -4.97745423e-005 -4.97745423e-005 -4.97745423e-005
      -3.53819960e-005 -4.67384561e-005 -2.77916115e-005
      -2.25335152e-005 -9.10465315e-006 -1.07557016e-005
      -1.07372343e-005 -1.07808037e-005 -1.35076480e-005
      -1.35076480e-005 -1.35076480e-005 -1.35076480e-005
      -1.35076480e-005 -1.35076480e-005 -1.35076480e-005
      -1.35076480e-005 -1.35076480e-005 -1.35076480e-005
      -1.35076480e-005 -1.35076480e-005 -1.35076480e-005
      -1.35076480e-005 -1.35076480e-005 -1.35076480e-005
      -1.35076480e-005 -1.35076480e-005 -1.35076480e-005
      -1.35076480e-005 -1.35076480e-005 -1.35076480e-005
      -1.35076480e-005 -1.35076480e-005 -1.35076480e-005
      -1.45219328e-005 -1.30005055e-005 -1.24933631e-005
      -1.35076480e-005 -1.35076480e-005 -1.30005055e-005
      -1.45219328e-005 -1.35076480e-005 -1.35076480e-005
      -1.30005055e-005 -1.40147904e-005 -1.40147904e-005
      -1.30005055e-005 -1.35076480e-005 -1.35076480e-005
      -1.40147904e-005 -1.40147904e-005 -1.24933631e-005
      -1.45219328e-005 -1.30005055e-005 -1.40147904e-005
      -1.40147904e-005 -1.24933631e-005 -7.06389073e-006
      -2.06509430e-005 -1.28286210e-005 -6.03823446e-006
      -1.38715204e-005 -1.21944613e-005 -1.29537602e-005
      -1.30671033e-005 -1.12800026e-005 -1.12800026e-005
      -1.12800026e-005 -1.12800026e-005 -1.12800026e-005
      -1.12800026e-005 -1.12800026e-005 -1.12800026e-005
      -1.12800026e-005 -1.12800026e-005 -1.12800026e-005
      -1.12800026e-005 -1.12800026e-005 -1.12800026e-005
      -1.12800026e-005 -1.12800026e-005 -1.12800026e-005
      -1.12800026e-005 -1.12800026e-005 -1.12800026e-005
      -1.12800026e-005 -1.12800026e-005 -1.12800026e-005
      -1.12800026e-005 -1.12800026e-005 -1.07728602e-005
      -1.17871459e-005 -1.12800026e-005 -1.12800026e-005
      -1.07728602e-005 -1.22942884e-005 -1.12800026e-005
      -1.07728602e-005 -1.07728602e-005 -1.17871459e-005
      -1.17871459e-005 -1.17871459e-005 -1.12800026e-005
      -1.12800026e-005 -1.07728602e-005 -1.28093743e-005
      -8.81314190e-006 -1.48031222e-005 -1.12199732e-005
      -1.23541422e-005 -9.21390983e-006 -1.64586509e-005
      -1.29048112e-005 -1.30005055e-005 -1.35076480e-005
      -1.35076480e-005 -1.30005055e-005 -1.30005055e-005
      -1.40147904e-005 -1.40147904e-005 -1.35076480e-005
      -1.35076480e-005 -1.35076480e-005 -1.35076480e-005
      -1.35076480e-005 -1.35076480e-005 -1.35076480e-005
      -1.35076480e-005 -1.35076480e-005 -1.35076480e-005
      -1.35076480e-005 -1.35076480e-005 -1.35076480e-005
      -1.35076480e-005 -1.35076480e-005 -1.35076480e-005
      -1.35076480e-005 -1.24933631e-005 -1.40147904e-005
      -1.40147904e-005 -1.30005055e-005 -1.45219328e-005
      -1.24933631e-005 -1.40147904e-005 -1.40147904e-005
      -1.45219328e-005 -1.30005055e-005 -1.35076480e-005
      -1.35076480e-005 -1.24933631e-005 -1.30005055e-005
      -1.45219328e-005 -1.35076480e-005 -1.45219328e-005
      -1.30005055e-005 -1.35076480e-005 -1.35076480e-005
      -1.24933631e-005 -1.30005055e-005 -1.45219328e-005
      -1.35076480e-005 -2.12950599e-005 -6.85506848e-006 3.85478052e-005
      4.65967132e-005 3.94984745e-005 4.16844159e-005 3.13665914e-005
      4.17677038e-005 4.01087673e-005 4.05941209e-005 4.10794746e-005
      4.10794746e-005 4.07154585e-005 4.02301048e-005 3.99874298e-005
      3.99874298e-005 3.99874298e-005 3.99874298e-005 3.99874298e-005
      3.99874298e-005 3.99874298e-005 3.99874298e-005 3.99874298e-005
      3.99874298e-005 3.99874298e-005 3.99874298e-005 3.99874298e-005
      3.99874298e-005 3.99874298e-005 3.99874298e-005 3.99874298e-005
      3.99874298e-005 4.01973302e-005 3.89731431e-005 4.04945713e-005
      3.97775293e-005 3.97775293e-005 3.94802883e-005 4.07044754e-005
      4.01973302e-005 3.96901887e-005 4.04945713e-005 3.99874298e-005
      3.97775293e-005 3.97775293e-005 3.99874298e-005 4.07044754e-005
      3.96901887e-005 4.17714909e-005 4.35320690e-005 4.21790864e-005
      2.89194340e-005 5.13790947e-005 -8.28917546e-005 -8.93336837e-005
      -9.74509458e-005 -9.02073225e-005 -9.02073225e-005
      -9.02073225e-005 -9.02073225e-005 -9.02073225e-005
      -9.02073225e-005 -9.02073225e-005 -9.02073225e-005
      -9.02073225e-005 -9.02073225e-005 -9.02073225e-005
      -9.02073225e-005 -9.02073225e-005 -9.02073225e-005
      -9.02073225e-005 -9.02073225e-005 -9.02073225e-005
      -9.02073225e-005 -9.02073225e-005 -9.02073225e-005
      -9.02073225e-005 -9.02073225e-005 -9.02073225e-005
      -9.02073225e-005 -9.07144713e-005 -9.02073225e-005
      -9.07144713e-005 -9.02073225e-005 -9.02073225e-005
      -9.02073225e-005 -9.02073225e-005 -9.07144713e-005
      -9.07144713e-005 -8.91930395e-005 -9.12216128e-005
      -8.91930395e-005 -9.07144713e-005 -8.97001810e-005
      -9.17287543e-005 -8.97001810e-005 -8.82494860e-005
      -9.84241415e-005 -8.76587801e-005 -8.03677613e-005
      -9.65674772e-005 -6.96292191e-005 -1.06122905e-004 5.04725613e-005
      4.41545344e-005 4.41545344e-005 4.41545344e-005 4.41545344e-005
      4.41545344e-005 4.41545344e-005 4.41545344e-005 4.41545344e-005
      4.41545344e-005 4.41545344e-005 4.41545344e-005 4.41545344e-005
      4.41545344e-005 4.41545344e-005 4.41545344e-005 4.41545344e-005
      4.41545344e-005 4.41545344e-005 4.41545344e-005 4.41545344e-005
      4.41545344e-005 4.41545344e-005 4.41545344e-005 4.41545344e-005
      4.41545344e-005 4.41545344e-005 4.41545344e-005 4.41545344e-005
      4.41545344e-005 4.41545344e-005 4.41545344e-005 4.41545344e-005
      4.41545344e-005 4.41545344e-005 4.41545344e-005 4.41545344e-005
      4.41545344e-005 4.41545344e-005 4.41545344e-005 4.41545344e-005
      4.41545344e-005 4.41545344e-005 4.41545344e-005 4.41545344e-005
      4.41545344e-005 4.41545344e-005 4.41545344e-005 4.41545344e-005
      -2.48717552e-005 -2.48717552e-005 -2.48717552e-005
      -2.48717552e-005 -2.48717552e-005 -2.48717552e-005
      -2.48717552e-005 -2.48717552e-005 -2.48717552e-005
      -2.48717552e-005 -2.48717552e-005 -2.48717552e-005
      -2.48717552e-005 -2.48717552e-005 -2.48717552e-005
      -2.48717552e-005 -2.48717552e-005 -2.48717552e-005
      -2.48717552e-005 -2.48717552e-005 -2.48717552e-005
      -2.48717552e-005 -2.48717552e-005 -2.48717552e-005
      -2.48717552e-005 -2.48717552e-005 -2.48717552e-005
      -2.48717552e-005 -2.48717552e-005 -2.48717552e-005
      -2.48717552e-005 -2.48717552e-005 -2.48717552e-005
      -2.48717552e-005 -2.48717552e-005 -2.48717552e-005
      -2.48717552e-005 -2.48717552e-005 -2.48717552e-005
      -2.48717552e-005 -2.48717552e-005 -2.48717552e-005
      -2.48717552e-005 -2.48717552e-005 -2.48717552e-005
      -2.48717552e-005 -2.48717552e-005 -2.48717552e-005
      -1.35076480e-005 -1.35076480e-005 -1.35076480e-005
      -1.35076480e-005 -1.35076480e-005 -1.35076480e-005
      -1.35076480e-005 -1.35076480e-005 -1.35076480e-005
      -1.35076480e-005 -1.35076480e-005 -1.35076480e-005
      -1.35076480e-005 -1.35076480e-005 -1.35076480e-005
      -1.35076480e-005 -1.35076480e-005 -1.35076480e-005
      -1.35076480e-005 -1.35076480e-005 -1.35076480e-005
      -1.35076480e-005 -1.35076480e-005 -1.35076480e-005
      -1.35076480e-005 -1.35076480e-005 -1.35076480e-005
      -1.35076480e-005 -1.35076480e-005 -1.35076480e-005
      -1.35076480e-005 -1.35076480e-005 -1.35076480e-005
      -1.35076480e-005 -1.35076480e-005 -1.35076480e-005
      -1.35076480e-005 -1.35076480e-005 -1.35076480e-005
      -1.35076480e-005 -1.32889427e-005 -1.19945407e-005
      -8.42440113e-006 -1.15232688e-005 -9.80544246e-006
      -1.96910460e-005 -1.32108898e-005 -9.28847930e-006
      -1.35076480e-005 -1.35076480e-005 -1.35076480e-005
      -1.35076480e-005 -1.35076480e-005 -1.35076480e-005
      -1.35076480e-005 -1.35076480e-005 -1.35076480e-005
      -1.35076480e-005 -1.35076480e-005 -1.35076480e-005
      -1.35076480e-005 -1.35076480e-005 -1.35076480e-005
      -1.35076480e-005 -1.35076480e-005 -1.35076480e-005
      -1.35076480e-005 -1.35076480e-005 -1.35076480e-005
      -1.35076480e-005 -1.35076480e-005 -1.35076480e-005
      -1.35076480e-005 -1.45219328e-005 -1.30005055e-005
      -1.35076480e-005 -1.35076480e-005 -1.40147904e-005
      -1.30005055e-005 -1.35076480e-005 -1.40147904e-005
      -1.30005055e-005 -1.35076480e-005 -1.35076480e-005
      -1.35076480e-005 -1.35076480e-005 -1.30005055e-005
      -1.40147904e-005 -8.98510007e-006 -1.56352598e-005
      -1.23624386e-005 -1.34329830e-005 -5.91744265e-006
      -1.96288565e-005 -5.14681460e-006 -1.54893241e-005
      -1.12800026e-005 -1.12800026e-005 -1.12800026e-005
      -1.12800026e-005 -1.12800026e-005 -1.12800026e-005
      -1.12800026e-005 -1.12800026e-005 -1.12800026e-005
      -1.12800026e-005 -1.12800026e-005 -1.12800026e-005
      -1.12800026e-005 -1.12800026e-005 -1.12800026e-005
      -1.12800026e-005 -1.02657177e-005 -1.17871459e-005
      -1.17871459e-005 -1.07728602e-005 -1.22942884e-005
      -1.02657177e-005 -1.17871459e-005 -1.17871459e-005
      -1.22942884e-005 -1.07728602e-005 -1.12800026e-005
      -1.12800026e-005 -1.02657177e-005 -1.07728602e-005
      -1.22942884e-005 -1.12800026e-005 -1.22942884e-005
      -1.07728602e-005 -1.12800026e-005 -1.12800026e-005
      -1.02657177e-005 -1.07728602e-005 -1.22942884e-005
      -1.12800026e-005 -1.18583866e-005 -1.12923444e-005
      -1.37459938e-005 -1.24159824e-005 -1.69003324e-005
      -1.46349967e-005 -1.39158810e-005 -1.38485748e-005
      -1.35076480e-005 -1.35076480e-005 -1.35076480e-005
      -1.35076480e-005 -1.35076480e-005 -1.35076480e-005
      -1.35076480e-005 -1.35076480e-005 -1.35076480e-005
      -1.35076480e-005 -1.35076480e-005 -1.35076480e-005
      -1.35076480e-005 -1.35076480e-005 -1.35076480e-005
      -1.35076480e-005 -1.37175502e-005 -1.32977457e-005
      -1.35076480e-005 -1.35076480e-005 -1.35076480e-005
      -1.35076480e-005 -1.32977457e-005 -1.37175502e-005
      -1.37175502e-005 -1.32977457e-005 -1.35076480e-005
      -1.35076480e-005 -1.35076480e-005 -1.35076480e-005
      -1.32977457e-005 -1.37175502e-005 -1.34976581e-005
      -8.62260185e-006 -1.41137607e-005 -1.74352990e-005
      -1.53624042e-005 -1.42106128e-005 3.47563655e-005 4.40677250e-005
      4.07154585e-005 4.03514423e-005 3.99874298e-005 3.98660923e-005
      3.99874298e-005 3.99874298e-005 3.99874298e-005 3.99874298e-005
      3.99874298e-005 3.99874298e-005 3.99874298e-005 3.99874298e-005
      3.99874298e-005 3.99874298e-005 3.99874298e-005 3.99874298e-005
      3.99874298e-005 3.95676252e-005 4.01973302e-005 4.04072343e-005
      3.99874298e-005 3.99874298e-005 4.01973302e-005 3.95676252e-005
      3.99874298e-005 3.95676252e-005 4.01973302e-005 4.04072343e-005
      3.99874298e-005 3.99874298e-005 4.01973302e-005 3.95676252e-005
      4.01973302e-005 3.97775293e-005 4.01973302e-005 3.99874298e-005
      3.97775293e-005 4.01973302e-005 4.01973302e-005 3.99874298e-005
      3.22467640e-005 1.94801942e-005 7.39384222e-006 2.67047113e-007
      -1.94231620e-006 1.13096066e-005 4.78097536e-006 6.41612041e-006
      4.59407511e-006 4.59407511e-006 4.59407511e-006 4.59407511e-006
      4.59407511e-006 4.59407511e-006 4.59407511e-006 4.59407511e-006
      4.59407511e-006 4.59407511e-006 4.59407511e-006 4.59407511e-006
      4.59407511e-006 4.59407511e-006 4.59407511e-006 4.59407511e-006
      4.59407511e-006 5.10121754e-006 5.10121754e-006 4.08693268e-006
      4.59407511e-006 4.59407511e-006 4.08693268e-006 5.10121754e-006
      5.10121754e-006 3.07264736e-006 5.10121754e-006 4.08693268e-006
      5.60836042e-006 3.57978979e-006 5.60836042e-006 4.08693268e-006
      -3.49775377e-007 2.29470115e-005 1.32800594e-007 -6.27992849e-005
      -7.33240813e-005 -6.23599917e-005 -7.20406388e-005
      -7.26945509e-005 -6.86947678e-005 -6.86947678e-005
      -6.86947678e-005 -6.86947678e-005 -6.86947678e-005
      -6.86947678e-005 -6.86947678e-005 -6.86947678e-005
      -6.86947678e-005 -6.86947678e-005 -6.86947678e-005
      -6.86947678e-005 -6.86947678e-005 -6.86947678e-005
      -6.86947678e-005 -6.86947678e-005 -6.86947678e-005
      -6.86947678e-005 -6.86947678e-005 -6.86947678e-005
      -6.86947678e-005 -6.86947678e-005 -6.86947678e-005
      -6.86947678e-005 -6.86947678e-005 -6.86947678e-005
      -6.86947678e-005 -6.86947678e-005 -6.86947678e-005
      -6.86947678e-005 -6.86947678e-005 -6.86947678e-005
      -6.92283647e-005 -7.29471794e-005 -6.43496460e-005
      -7.09773667e-005 -1.78910959e-005 -3.04680289e-005
      -2.22569361e-005 -2.43901050e-005 -2.35165753e-005
      -2.35165753e-005 -2.35165753e-005 -2.35165753e-005
      -2.35165753e-005 -2.35165753e-005 -2.35165753e-005
      -2.35165753e-005 -2.35165753e-005 -2.35165753e-005
      -2.35165753e-005 -2.35165753e-005 -2.35165753e-005
      -2.35165753e-005 -2.35165753e-005 -2.35165753e-005
      -2.35165753e-005 -2.35165753e-005 -2.35165753e-005
      -2.35165753e-005 -2.35165753e-005 -2.35165753e-005
      -2.35165753e-005 -2.35165753e-005 -2.35165753e-005
      -2.35165753e-005 -2.35165753e-005 -2.35165753e-005
      -2.35165753e-005 -2.35165753e-005 -2.35165753e-005
      -2.35165753e-005 -1.97868630e-005 -2.08617039e-005
      -1.20897521e-005 -2.27556993e-005 -5.44914428e-007
      -1.64608900e-005 -1.02496379e-005 -1.30175513e-005
      -1.35076480e-005 -1.35076480e-005 -1.35076480e-005
      -1.35076480e-005 -1.35076480e-005 -1.35076480e-005
      -1.35076480e-005 -1.35076480e-005 -1.35076480e-005
      -1.35076480e-005 -1.35076480e-005 -1.35076480e-005
      -1.35076480e-005 -1.35076480e-005 -1.35076480e-005
      -1.35076480e-005 -1.35076480e-005 -1.35076480e-005
      -1.35076480e-005 -1.35076480e-005 -1.35076480e-005
      -1.35076480e-005 -1.35076480e-005 -1.35076480e-005
      -1.35076480e-005 -1.35076480e-005 -1.35076480e-005
      -1.35076480e-005 -1.35076480e-005 -1.35076480e-005
      -1.35076480e-005 -1.35076480e-005 -1.34107586e-005
      -1.58690837e-005 -1.44775731e-005 -1.00168536e-005
      -1.39165868e-005 -1.02855747e-005 -1.73039007e-005
      -9.55720043e-006 -1.35076480e-005 -1.35076480e-005
      -1.35076480e-005 -1.35076480e-005 -1.35076480e-005
      -1.35076480e-005 -1.35076480e-005 -1.35076480e-005
      -1.35076480e-005 -1.45219328e-005 -1.30005055e-005
      -1.24933631e-005 -1.35076480e-005 -1.35076480e-005
      -1.30005055e-005 -1.45219328e-005 -1.35076480e-005
      -1.35076480e-005 -1.30005055e-005 -1.40147904e-005
      -1.40147904e-005 -1.30005055e-005 -1.35076480e-005
      -1.35076480e-005 -1.40147904e-005 -1.40147904e-005
      -1.24933631e-005 -1.45219328e-005 -1.30005055e-005
      -1.40147904e-005 -1.40147904e-005 -1.24933631e-005
      -7.33889374e-006 -1.77039274e-005 -2.07857338e-005
      -1.05910940e-005 -1.60060681e-005 -5.06180595e-006
      -1.17360914e-005 -1.40845104e-005 -1.31123825e-005
      -1.31123825e-005 -1.31123825e-005 -1.31123825e-005
      -1.31123825e-005 -1.31123825e-005 -1.31123825e-005
      -1.31123825e-005 -1.31123825e-005 -1.26052400e-005
      -1.36195249e-005 -1.31123825e-005 -1.31123825e-005
      -1.26052400e-005 -1.41266673e-005 -1.31123825e-005
      -1.26052400e-005 -1.26052400e-005 -1.36195249e-005
      -1.36195249e-005 -1.36195249e-005 -1.31123825e-005
      -1.31123825e-005 -1.26052400e-005 -1.07009628e-005
      -1.80763873e-005 -1.11005775e-005 -1.74406869e-005
      -1.47211185e-005 -1.41073997e-005 -1.35676892e-005
      -1.52575540e-005 -1.35076480e-005 -1.35076480e-005
      -1.35076480e-005 -1.35076480e-005 -1.35076480e-005
      -1.35076480e-005 -1.35076480e-005 -1.35076480e-005
      -1.35076480e-005 -1.35076480e-005 -1.35076480e-005
      -1.35076480e-005 -1.35076480e-005 -1.35076480e-005
      -1.35076480e-005 -1.35076480e-005 -1.35076480e-005
      -1.35076480e-005 -1.35076480e-005 -1.35076480e-005
      -1.35076480e-005 -1.35076480e-005 -1.35076480e-005
      -1.35076480e-005 -1.35076480e-005 -1.35076480e-005
      -1.35076480e-005 -1.35076480e-005 -1.35076480e-005
      -1.35076480e-005 -1.35076480e-005 -1.35076480e-005
      -1.60342188e-005 -2.43762724e-006 3.13187456e-006 4.80405834e-006
      5.86256465e-006 4.22771654e-006 -4.17581248e-007 1.01690721e-005
      4.72571628e-006 4.72571628e-006 4.72571628e-006 4.72571628e-006
      4.72571628e-006 4.72571628e-006 4.72571628e-006 4.72571628e-006
      4.93561811e-006 3.71143096e-006 5.23285871e-006 4.51581445e-006
      4.51581445e-006 4.21857339e-006 5.44276054e-006 4.93561811e-006
      4.42847568e-006 5.23285871e-006 4.72571628e-006 4.51581445e-006
      4.51581445e-006 4.72571628e-006 5.44276054e-006 4.42847568e-006
      9.64962419e-006 -3.87946784e-006 8.19845627e-006 8.83191206e-006
      4.31302942e-006 -1.90812989e-006 3.20789673e-006 5.06374545e-006
      8.12602991e-007 8.12602991e-007 8.12602991e-007 8.12602991e-007
      8.12602991e-007 8.12602991e-007 8.12602991e-007 8.12602991e-007
      3.05460361e-007 8.12602991e-007 3.05460361e-007 8.12602991e-007
      8.12602991e-007 8.12602991e-007 8.12602991e-007 3.05460361e-007
      3.05460361e-007 1.82688825e-006 -2.01682269e-007 1.82688825e-006
      3.05460361e-007 1.31974559e-006 -7.08824871e-007 1.31974559e-006
      2.32981006e-006 -1.11398913e-006 -1.46782281e-006 3.92860011e-006
      8.18128501e-006 1.79689130e-006 -2.24125233e-006 4.72909505e-006
      4.72571628e-006 4.72571628e-006 4.72571628e-006 4.72571628e-006
      4.72571628e-006 4.72571628e-006 4.72571628e-006 4.72571628e-006
      4.72571628e-006 4.72571628e-006 4.72571628e-006 4.72571628e-006
      4.72571628e-006 4.72571628e-006 4.72571628e-006 4.72571628e-006
      4.72571628e-006 4.72571628e-006 4.72571628e-006 4.72571628e-006
      4.72571628e-006 4.72571628e-006 4.72571628e-006 4.72571628e-006
      4.72571628e-006 4.72571628e-006 4.72571628e-006 4.72571628e-006
      4.72571628e-006 4.72571628e-006 4.72571628e-006 4.72571628e-006
      4.72571628e-006 4.72571628e-006 4.72571628e-006 4.72571628e-006
      4.72571628e-006 4.72571628e-006 4.72571628e-006 4.72571628e-006
      4.72571628e-006 4.72571628e-006 4.72571628e-006 4.72571628e-006
      4.72571628e-006 4.72571628e-006 4.72571628e-006 4.72571628e-006
      4.72571628e-006 4.72571628e-006 4.72571628e-006 4.72571628e-006
      4.72571628e-006 4.72571628e-006 4.72571628e-006 4.72571628e-006
      4.72571628e-006 4.72571628e-006 4.72571628e-006 4.72571628e-006
      4.72571628e-006 4.72571628e-006 4.72571628e-006 4.72571628e-006
      -1.35076480e-005 -1.35076480e-005 -1.35076480e-005
      -1.35076480e-005 -1.35076480e-005 -1.35076480e-005
      -1.35076480e-005 -1.35076480e-005 -1.35076480e-005
      -1.35076480e-005 -1.35076480e-005 -1.35076480e-005
      -1.35076480e-005 -1.35076480e-005 -1.35076480e-005
      -1.35076480e-005 -1.35076480e-005 -1.35076480e-005
      -1.35076480e-005 -1.35076480e-005 -1.35076480e-005
      -1.35076480e-005 -1.35076480e-005 -1.35076480e-005
      -1.76352532e-005 -1.23282753e-005 -1.06175949e-005
      -7.85311022e-006 -1.71855390e-005 -1.85402841e-005
      -1.28260735e-005 -9.12572523e-006 -1.16752681e-005
      -1.16752681e-005 -1.16752681e-005 -1.16752681e-005
      -1.16752681e-005 -1.16752681e-005 -1.16752681e-005
      -1.16752681e-005 -1.16752681e-005 -1.26895538e-005
      -1.11681256e-005 -1.16752681e-005 -1.16752681e-005
      -1.21824105e-005 -1.11681256e-005 -1.16752681e-005
      -1.21824105e-005 -1.11681256e-005 -1.16752681e-005
      -1.16752681e-005 -1.16752681e-005 -1.16752681e-005
      -1.11681256e-005 -1.21824105e-005 -6.76041145e-006
      -1.70225285e-005 -9.86542909e-006 -1.30213839e-005
      -5.27471366e-006 -2.08623314e-005 -7.81835115e-006
      -1.58428193e-005 -1.24933631e-005 -1.40147904e-005
      -1.40147904e-005 -1.30005055e-005 -1.45219328e-005
      -1.24933631e-005 -1.40147904e-005 -1.40147904e-005
      -1.45219328e-005 -1.30005055e-005 -1.35076480e-005
      -1.35076480e-005 -1.24933631e-005 -1.30005055e-005
      -1.45219328e-005 -1.35076480e-005 -1.45219328e-005
      -1.30005055e-005 -1.35076480e-005 -1.35076480e-005
      -1.24933631e-005 -1.30005055e-005 -1.45219328e-005
      -1.35076480e-005 -1.82248841e-005 1.50397238e-006 1.21810708e-005
      1.75416408e-005 2.40709833e-005 1.23506743e-005 1.19587430e-005
      1.07845417e-005 1.62367196e-005 1.67438629e-005 1.57295763e-005
      1.62367196e-005 1.62367196e-005 1.67438629e-005 1.52224347e-005
      1.62367196e-005 1.41271348e-005 1.67438629e-005 1.57295763e-005
      1.83463035e-005 1.83463035e-005 1.62367196e-005 1.36199924e-005
      1.41271348e-005 1.62746401e-005 8.82397671e-006 1.71848424e-005
      1.63152126e-005 2.65130184e-005 1.11483760e-005 1.89241962e-006
      -2.00069244e-005 -1.35076480e-005 -1.49417374e-005
      -1.27906033e-005 -1.20735585e-005 -1.35076480e-005
      -1.35076480e-005 -1.27906033e-005 -1.49417374e-005
      -1.35076480e-005 -1.39274516e-005 -1.27906033e-005
      -1.35949867e-005 -1.40147904e-005 -1.30005055e-005
      -1.32977457e-005 -1.39274516e-005 -1.38048890e-005
      -1.42246927e-005 -1.22834608e-005 -1.45219328e-005
      -1.32104069e-005 -1.38048890e-005 -1.38048890e-005
      -1.24933631e-005 -8.57956456e-006 2.59499357e-005 2.16819190e-005
      2.81008743e-005 2.35702519e-005 2.79292581e-005 2.62165613e-005
      2.55839404e-005 2.61457553e-005 2.61457553e-005 2.61457553e-005
      2.61457553e-005 2.61457553e-005 2.61457553e-005 2.61457553e-005
      2.61457553e-005 2.61457553e-005 2.61457553e-005 2.61457553e-005
      2.61457553e-005 2.61457553e-005 2.61457553e-005 2.61457553e-005
      2.61457553e-005 2.15674172e-005 2.60016986e-005 2.82736582e-005
      8.00907656e-005 7.18369993e-005 7.60483090e-005 7.49052560e-005
      7.40357937e-005 7.45234356e-005 7.45234356e-005 7.45234356e-005
      7.45234356e-005 7.45234356e-005 7.45234356e-005 7.45234356e-005
      7.45234356e-005 7.45234356e-005 7.45234356e-005 7.45234356e-005
      7.45234356e-005 7.45234356e-005 7.45234356e-005 7.45234356e-005
      7.45234356e-005 7.61775373e-005 7.42302291e-005 7.49323808e-005
      7.55424262e-005 3.47222885e-005 3.53323376e-005 3.60344857e-005
      3.40871738e-005 3.52653005e-005 3.52653005e-005 3.52653005e-005
      3.52653005e-005 3.52653005e-005 3.52653005e-005 3.52653005e-005
      3.52653005e-005 3.52653005e-005 3.52653005e-005 3.52653005e-005
      3.52653005e-005 3.52653005e-005 3.52653005e-005 3.52653005e-005
      3.52653005e-005 3.43048087e-005 3.76750868e-005 3.58411053e-005
      3.69759218e-005 -1.29969294e-005 -1.48725885e-005 -1.48723748e-005
      -1.40297634e-005 -1.35076480e-005 -1.35076480e-005
      -1.35076480e-005 -1.35076480e-005 -1.35076480e-005
      -1.35076480e-005 -1.35076480e-005 -1.35076480e-005
      -1.35076480e-005 -1.35076480e-005 -1.35076480e-005
      -1.35076480e-005 -1.35076480e-005 -1.35076480e-005
      -1.35076480e-005 -1.35076480e-005 -1.26153991e-005
      -1.08169261e-005 -1.58290331e-005 -7.28845680e-006
      -1.10722121e-005 -1.28565634e-005 -1.24318722e-005
      -9.31860177e-006 -1.16752681e-005 -1.16752681e-005
      -1.11681256e-005 -1.21824105e-005 -1.21824105e-005
      -1.11681256e-005 -1.16752681e-005 -1.16752681e-005
      -1.21824105e-005 -1.21824105e-005 -1.06609832e-005
      -1.26895538e-005 -1.11681256e-005 -1.21824105e-005
      -1.21824105e-005 -1.06609832e-005 -9.99690928e-006
      -1.76258072e-005 -1.47623205e-005 -1.12112157e-005
      -1.72643904e-005 -5.19311425e-006 -1.46205812e-005
      -1.20870563e-005 -1.30005055e-005 -1.30005055e-005
      -1.40147904e-005 -1.40147904e-005 -1.40147904e-005
      -1.35076480e-005 -1.35076480e-005 -1.30005055e-005
      -8.76270406e-006 -1.63605091e-005 -1.58493604e-005
      -1.44473543e-005 -1.13847955e-005 -1.21140192e-005
      -1.23093450e-005 -1.83359316e-005 -1.35076480e-005
      -1.35076480e-005 -1.61243752e-005 -1.61243752e-005
      -1.61243752e-005 -1.35076480e-005 -1.08909207e-005
      -1.08909207e-005 -1.08909207e-005 -1.08909207e-005
      -1.35076480e-005 -1.35076480e-005 -1.35076480e-005
      -1.35076480e-005 -1.35076480e-005 -1.35076480e-005
      -1.47502724e-005 -2.51924794e-005 1.02110847e-004 9.45511711e-005
      8.86970447e-005 8.39764907e-005 9.24133783e-005 9.38562371e-005
      8.88361683e-005 9.22572726e-005 9.43668638e-005 9.41569597e-005
      9.15402343e-005 8.91334057e-005 9.24671767e-005 9.14528937e-005
      1.00456491e-004 9.05535271e-005 8.47491101e-005 9.80182303e-005
      8.47812626e-005 1.34761103e-005 2.25931908e-005 1.20054619e-005
      1.85783902e-005 1.85783902e-005 1.85783902e-005 1.85783902e-005
      1.85783902e-005 1.85783902e-005 1.85783902e-005 1.85783902e-005
      2.26812517e-005 1.51451668e-005 9.60779653e-006 2.05639462e-005
      1.48267163e-005 2.66355219e-005 3.13049022e-005 -9.42790430e-005
      -9.45078282e-005 -9.19771192e-005 -9.74567592e-005
      -9.17258440e-005 -9.49226524e-005 7.30436441e-005 7.27421648e-005
      -9.20307139e-005 -9.45887587e-005 -9.99082258e-005
      -9.46747750e-005 -9.72915004e-005 7.55777437e-005 7.53315544e-005
      7.56603695e-005 -9.48970192e-005 7.46915684e-005 7.46915684e-005
      7.46915684e-005 7.46915684e-005 7.46915684e-005 7.46915684e-005
      7.46915684e-005 7.46915684e-005 7.46915684e-005 7.46915684e-005
      7.46915684e-005 7.46915684e-005 7.46915684e-005 7.46915684e-005
      7.46915684e-005 7.46915684e-005 -1.27601932e-004 -1.27601932e-004
      -1.27601932e-004 -1.27601932e-004 -1.27601932e-004
      -1.27601932e-004 -1.27601932e-004 -1.27601932e-004
      -1.27981722e-004 -1.30961096e-004 -1.40437027e-004
      -1.24818340e-004 -1.16287098e-004 -1.23634207e-004
      -1.23234058e-004 -1.83353513e-005 -1.21824105e-005
      -1.11681256e-005 -1.16752681e-005 -1.16752681e-005
      -1.16752681e-005 -1.16752681e-005 -1.11681256e-005
      -1.21824105e-005 -1.50373744e-005 -1.66108312e-005
      -5.43317765e-006 -1.34792672e-005 -9.78767457e-006
      -6.79568848e-006 3.19650189e-006 -7.08618836e-006 -2.47820617e-006
      -9.56778308e-007 -1.46392085e-006 -1.46392085e-006
      -4.49635650e-007 -9.56778308e-007 -2.47820617e-006
      -1.46392085e-006 -5.75610056e-006 -3.23367158e-006
      -1.88062495e-005 -1.00439102e-005 -1.01591531e-005
      -8.09548237e-006 -1.22001165e-005 -1.85832196e-005
      -1.35747932e-005 -1.91074505e-005 5.72283412e-008 -1.91271884e-005
      -4.12426880e-006 -1.97018853e-005 1.02393729e-004 1.00650584e-004
      9.99898039e-005 8.50747165e-005 8.63306632e-005 8.62724410e-005
      8.50074939e-005 8.66479313e-005 8.35839091e-005 8.86253183e-005
      8.20622445e-005 1.02074126e-004 8.09003686e-005 9.11073294e-005
      1.08956454e-004 9.03606560e-005 8.49190765e-005 9.20634775e-005
      8.24779272e-005 9.63945349e-005 8.38212363e-005 -1.52619672e-004
      -1.43498444e-004 -1.58497249e-004 -1.35624621e-004
      -1.47877072e-004 -1.41277444e-004 -1.49930056e-004
      -1.44577905e-004 -1.46863938e-004 1.12883943e-004 1.12437025e-004
      1.13302398e-004 1.07588639e-004 1.02313163e-004 1.06051149e-004
      1.09774555e-004 1.07894644e-004 3.58365578e-005 3.27838134e-005
      3.30785733e-005 4.11536821e-005 3.57417448e-005 2.65691142e-005
      3.42307285e-005 -9.79663382e-005 -1.07559899e-004 -8.43624148e-005
      -1.11496767e-004 -1.02783881e-004 -9.03511682e-005
      -1.59084248e-005 -9.73408805e-006 -6.57072860e-006
      -1.33251551e-005 -1.13105179e-005 -1.28981201e-005
      -8.21719459e-006 -1.63098084e-005 -4.89616468e-006
      -3.87038162e-004 -3.84165440e-004 -3.79196892e-004
      -1.61716423e-004 -1.62266602e-004 -2.24690142e-004 3.75220516e-005
      3.75220516e-005 3.75220516e-005 3.75220516e-005 3.75220516e-005
      3.75220516e-005 3.75220516e-005 3.75220516e-005 3.75220516e-005
      3.75220516e-005 3.75220516e-005 3.75220516e-005 3.75220516e-005
      3.75220516e-005 3.75220516e-005 3.75220516e-005 3.75220516e-005
      3.75220516e-005 3.75220516e-005 3.75220516e-005 3.75220516e-005
      3.75220516e-005 3.75220516e-005 3.75220516e-005 3.75220516e-005
      3.75220516e-005 3.75220516e-005 3.75220516e-005 3.75220516e-005
      3.75220516e-005 3.75220516e-005 3.75220516e-005 3.75220516e-005
      3.75220516e-005 3.75220516e-005 3.75220516e-005 3.75220516e-005
      3.75220516e-005 3.75220516e-005 3.75220516e-005 3.75220516e-005
      3.75220516e-005 3.75220516e-005 3.75220516e-005 3.75220516e-005
      3.75220516e-005 3.75220516e-005 3.75220516e-005 3.75220516e-005
      3.75220516e-005 3.75220516e-005 3.75220516e-005 3.75220516e-005
      3.75220516e-005 3.75220516e-005 3.75220516e-005 3.94299605e-005
      3.97956319e-005 4.53515531e-005 4.41225457e-005 3.50130686e-005
      3.01475357e-005 4.33458154e-005 -4.28684070e-005 -4.02445039e-005
      -4.02445039e-005 -4.02445039e-005 -4.02445039e-005
      -4.02445039e-005 -4.02445039e-005 -4.02445039e-005
      -4.02445039e-005 -4.02445039e-005 -4.02445039e-005
      -4.02445039e-005 -4.02445039e-005 -4.02445039e-005
      -4.02445039e-005 -4.02445039e-005 -4.02445039e-005
      -4.02445039e-005 -4.02445039e-005 -4.02445039e-005
      -4.02445039e-005 -4.02445039e-005 -4.02445039e-005
      -4.02445039e-005 -4.02445039e-005 -4.02445039e-005
      -4.02445039e-005 -4.02445039e-005 -4.02445039e-005
      -4.02445039e-005 -4.02445039e-005 -4.02445039e-005
      -4.02445039e-005 -4.02445039e-005 -4.02445039e-005
      -4.02445039e-005 -4.02445039e-005 -4.02445039e-005
      -4.02445039e-005 -4.02445039e-005 -4.02445039e-005
      -4.02445039e-005 -4.02445039e-005 -4.02445039e-005
      -4.02445039e-005 -4.02445039e-005 -4.02445039e-005
      -4.02445039e-005 -4.02445039e-005 -4.02445039e-005
      -4.02445039e-005 -4.02445039e-005 -4.02445039e-005
      -4.02445039e-005 -4.02445039e-005 -4.02445039e-005
      -4.02445039e-005 -3.68151850e-005 -4.74585540e-005
      -3.43185529e-005 -3.78873810e-005 -4.29917454e-005
      -3.81942955e-005 -3.72910399e-005 -4.07447296e-005
      -3.61653547e-005 -3.61653547e-005 -3.61653547e-005
      -3.61653547e-005 -3.61653547e-005 -3.61653547e-005
      -3.61653547e-005 -3.61653547e-005 -3.61653547e-005
      -3.61653547e-005 -3.61653547e-005 -3.61653547e-005
      -3.61653547e-005 -3.61653547e-005 -3.61653547e-005
      -3.61653547e-005 -3.61653547e-005 -3.61653547e-005
      -3.61653547e-005 -3.61653547e-005 -3.61653547e-005
      -3.61653547e-005 -3.61653547e-005 -3.61653547e-005
      -3.61653547e-005 -3.61653547e-005 -3.61653547e-005
      -3.61653547e-005 -3.61653547e-005 -3.61653547e-005
      -3.61653547e-005 -3.61653547e-005 -3.61653547e-005
      -3.61653547e-005 -3.61653547e-005 -3.61653547e-005
      -3.61653547e-005 -3.61653547e-005 -3.61653547e-005
      -3.61653547e-005 -3.61653547e-005 -3.61653547e-005
      -3.61653547e-005 -3.61653547e-005 -3.61653547e-005
      -3.61653547e-005 -3.61653547e-005 -3.61653547e-005
      -3.61653547e-005 -3.61653547e-005 -3.61653547e-005
      -3.61653547e-005 -3.61653547e-005 -3.61653547e-005
      -3.61653547e-005 -3.61653547e-005 -3.71991955e-005
      -1.93883025e-005 -3.66114255e-005 -2.48515917e-005
      -1.56310525e-005 -2.82714609e-005 -1.41184637e-005
      -2.46390282e-005 -2.34443087e-005 -2.34443087e-005
      -2.34443087e-005 -2.34443087e-005 -2.34443087e-005
      -2.34443087e-005 -2.34443087e-005 -2.34443087e-005
      -2.34443087e-005 -2.34443087e-005 -2.34443087e-005
      -2.34443087e-005 -2.34443087e-005 -2.34443087e-005
      -2.34443087e-005 -2.34443087e-005 -2.34443087e-005
      -2.34443087e-005 -2.34443087e-005 -2.34443087e-005
      -2.34443087e-005 -2.34443087e-005 -2.34443087e-005
      -2.34443087e-005 -2.34443087e-005 -2.34443087e-005
      -2.34443087e-005 -2.34443087e-005 -2.34443087e-005
      -2.34443087e-005 -2.34443087e-005 -2.34443087e-005
      -2.34443087e-005 -2.34443087e-005 -2.34443087e-005
      -2.34443087e-005 -2.34443087e-005 -2.34443087e-005
      -2.34443087e-005 -2.34443087e-005 -2.34443087e-005
      -2.34443087e-005 -2.34443087e-005 -2.34443087e-005
      -2.34443087e-005 -2.34443087e-005 -2.34443087e-005
      -2.34443087e-005 -2.36590695e-005 -2.43868290e-005
      -2.13388685e-005 -2.19255744e-005 -2.44723124e-005
      -2.33931805e-005 -4.26991428e-005 -4.13796297e-005
      -4.03423146e-005 -4.03423146e-005 -4.03423146e-005
      -4.03423146e-005 -4.03423146e-005 -4.03423146e-005
      -4.03423146e-005 -4.03423146e-005 -4.03423146e-005
      -4.03423146e-005 -4.03423146e-005 -4.03423146e-005
      -4.03423146e-005 -4.03423146e-005 -4.03423146e-005
      -4.03423146e-005 -4.03423146e-005 -4.03423146e-005
      -4.03423146e-005 -4.03423146e-005 -4.03423146e-005
      -4.03423146e-005 -4.03423146e-005 -4.03423146e-005
      -4.03423146e-005 -4.03423146e-005 -4.03423146e-005
      -4.03423146e-005 -4.03423146e-005 -4.03423146e-005
      -4.03423146e-005 -4.03423146e-005 -4.03423146e-005
      -4.03423146e-005 -4.03423146e-005 -4.03423146e-005
      -4.03423146e-005 -4.03423146e-005 -4.03423146e-005
      -4.03423146e-005 -4.03423146e-005 -4.03423146e-005
      -4.03423146e-005 -4.03423146e-005 -4.03423146e-005
      -4.03423146e-005 -4.03423146e-005 -4.03423146e-005
      -4.03423146e-005 -4.03423146e-005 -4.03423146e-005
      -4.03423146e-005 -4.03423146e-005 -4.03423146e-005
      -4.03423146e-005 -4.03423146e-005 -4.10925932e-005 1.23216455e-006
      -3.45151275e-005 -5.73383932e-006 -1.63759469e-005
      -1.57556351e-005 -1.86347243e-005 -1.42605768e-005
      -1.18726275e-005 -1.18726275e-005 -1.18726275e-005
      -1.18726275e-005 -1.18726275e-005 -1.18726275e-005
      -1.18726275e-005 -1.18726275e-005 -1.24700346e-005
      -1.18726275e-005 -1.18726275e-005 -1.18726275e-005
      -1.18726275e-005 -1.18726275e-005 -1.16564352e-005
      -1.16564352e-005 -1.18726275e-005 -1.18726275e-005
      -1.18726275e-005 -1.18726275e-005 -1.18726275e-005
      -1.18726275e-005 -1.18726275e-005 -1.18726275e-005
      -1.18726275e-005 -1.18726275e-005 -1.18726275e-005
      -1.18726275e-005 -1.18726275e-005 -1.18726275e-005
      -1.18726275e-005 -1.18726275e-005 -1.18726275e-005
      -1.12752205e-005 -1.18726275e-005 -1.18726275e-005
      -1.18726275e-005 -1.18726275e-005 -1.20888199e-005
      -1.20888199e-005 -1.18726275e-005 -1.18726275e-005
      -1.18726275e-005 -1.12752205e-005 -1.12752205e-005
      -1.18726275e-005 -1.24700346e-005 -1.24700346e-005
      -2.16774424e-005 -8.29390774e-006 -1.45952226e-005 1.50198584e-005
      2.78013904e-005 2.71554527e-005 1.67421404e-005 2.03974814e-005
      1.92097414e-005 1.92097414e-005 1.92097414e-005 1.92097414e-005
      1.92097414e-005 1.92097414e-005 1.92097414e-005 1.92097414e-005
      1.92097414e-005 1.92097414e-005 1.92097414e-005 1.92097414e-005
      1.92097414e-005 1.92097414e-005 1.92097414e-005 1.92097414e-005
      1.92097414e-005 1.92097414e-005 1.92097414e-005 1.92097414e-005
      1.92097414e-005 1.92097414e-005 1.92097414e-005 1.92097414e-005
      1.92097414e-005 1.92097414e-005 1.92097414e-005 1.92097414e-005
      1.92097414e-005 1.92097414e-005 1.92097414e-005 1.92097414e-005
      1.92097414e-005 1.92097414e-005 1.92097414e-005 1.92097414e-005
      1.92097414e-005 1.92097414e-005 1.92097414e-005 1.92097414e-005
      1.92097414e-005 1.92097414e-005 1.92097414e-005 1.92097414e-005
      1.92097414e-005 1.92097414e-005 1.92097414e-005 1.92097414e-005
      1.59187803e-005 3.06546535e-005 1.74553188e-005 5.87425848e-006
      7.52448386e-006 -3.30451508e-006 -1.53343954e-005 -1.93786195e-006
      -4.77449112e-006 -4.77449112e-006 -4.77449112e-006
      -4.77449112e-006 -4.77449112e-006 -4.77449112e-006
      -4.77449112e-006 -4.77449112e-006 -4.77449112e-006
      -4.77449112e-006 -4.77449112e-006 -4.77449112e-006
      -4.77449112e-006 -4.77449112e-006 -4.77449112e-006
      -4.77449112e-006 -4.77449112e-006 -4.77449112e-006
      -4.77449112e-006 -4.77449112e-006 -4.77449112e-006
      -4.77449112e-006 -4.77449112e-006 -4.77449112e-006
      -4.77449112e-006 -4.77449112e-006 -4.77449112e-006
      -4.77449112e-006 -4.77449112e-006 -4.77449112e-006
      -4.77449112e-006 -4.77449112e-006 -4.77449112e-006
      -4.77449112e-006 -4.77449112e-006 -4.77449112e-006
      -4.77449112e-006 -4.77449112e-006 -4.77449112e-006
      -4.77449112e-006 -4.77449112e-006 -4.77449112e-006
      -4.77449112e-006 -4.77449112e-006 -4.77449112e-006
      -4.77449112e-006 -4.77449112e-006 -4.77449112e-006
      -9.50606500e-006 -4.42701094e-006 -6.77865273e-006
      -4.61700665e-006 -2.19182311e-005 -2.15500222e-005
      -2.37571694e-005 -1.82832810e-005 -2.34443087e-005
      -2.34443087e-005 -2.34443087e-005 -2.34443087e-005
      -2.34443087e-005 -2.34443087e-005 -2.34443087e-005
      -2.34443087e-005 -2.34443087e-005 -2.34443087e-005
      -2.34443087e-005 -2.34443087e-005 -2.34443087e-005
      -2.34443087e-005 -2.34443087e-005 -2.34443087e-005
      -2.34443087e-005 -2.34443087e-005 -2.34443087e-005
      -2.34443087e-005 -2.34443087e-005 -2.34443087e-005
      -2.34443087e-005 -2.34443087e-005 -2.34443087e-005
      -2.34443087e-005 -2.34443087e-005 -2.34443087e-005
      -2.34443087e-005 -2.34443087e-005 -2.34443087e-005
      -2.34443087e-005 -2.34443087e-005 -2.34443087e-005
      -2.34443087e-005 -2.34443087e-005 -2.34443087e-005
      -2.34443087e-005 -2.34443087e-005 -2.34443087e-005
      -2.34443087e-005 -2.34443087e-005 -2.34443087e-005
      -2.34443087e-005 -2.34443087e-005 -2.34443087e-005
      -2.34443087e-005 -2.34443087e-005 -2.04661810e-005
      -3.08130329e-005 -1.81595005e-005 -1.42297022e-005
      -2.34935869e-005 -9.81622998e-006 -1.46346902e-005
      -2.11383758e-005 -1.61662847e-005 -1.61662847e-005
      -1.61662847e-005 -1.61662847e-005 -1.61662847e-005
      -1.61662847e-005 -1.61662847e-005 -1.61662847e-005
      -1.61662847e-005 -1.61662847e-005 -1.61662847e-005
      -1.61662847e-005 -1.61662847e-005 -1.61662847e-005
      -1.61662847e-005 -1.61662847e-005 -1.61662847e-005
      -1.61662847e-005 -1.61662847e-005 -1.61662847e-005
      -1.61662847e-005 -1.61662847e-005 -1.61662847e-005
      -1.61662847e-005 -1.61662847e-005 -1.61662847e-005
      -1.61662847e-005 -1.61662847e-005 -1.61662847e-005
      -1.61662847e-005 -1.61662847e-005 -1.61662847e-005
      -1.61662847e-005 -1.61662847e-005 -1.61662847e-005
      -1.61662847e-005 -1.61662847e-005 -1.61662847e-005
      -1.61662847e-005 -1.61662847e-005 -1.61662847e-005
      -1.61662847e-005 -1.61662847e-005 -1.61662847e-005
      -1.61662847e-005 -1.61662847e-005 -1.61662847e-005
      -1.61662847e-005 -1.40167340e-005 -2.79614669e-005
      -3.37801175e-005 -3.67377543e-005 -3.17563063e-005
      -3.20699692e-005 -2.89317486e-005 -3.24849680e-005
      -3.09317584e-005 -3.09317584e-005 -3.09317584e-005
      -3.09317584e-005 -3.09317584e-005 -3.09317584e-005
      -3.09317584e-005 -3.09317584e-005 -3.07155642e-005
      -3.07155642e-005 -3.09317584e-005 -3.09317584e-005
      -3.09317584e-005 -3.09317584e-005 -3.09317584e-005
      -3.15291654e-005 -3.09317584e-005 -3.09317584e-005
      -3.09317584e-005 -3.09317584e-005 -3.09317584e-005
      -3.09317584e-005 -3.09317584e-005 -3.09317584e-005
      -3.03343495e-005 -3.09317584e-005 -3.09317584e-005
      -3.09317584e-005 -3.09317584e-005 -3.15291654e-005
      -3.09317584e-005 -3.03343495e-005 -3.09317584e-005
      -3.09317584e-005 -3.09317584e-005 -3.09317584e-005
      -3.09317584e-005 -3.09317584e-005 -3.09317584e-005
      -3.09317584e-005 -2.37925524e-005 -3.49078000e-005
      -2.41758353e-005 -2.48543038e-005 -2.45668471e-005
      -2.49204550e-005 -1.72752198e-006 -1.49212910e-005
      -8.10882284e-006 -8.10882284e-006 -8.10882284e-006
      -8.10882284e-006 -8.10882284e-006 -8.10882284e-006
      -8.10882284e-006 -8.10882284e-006 -8.10882284e-006
      -8.10882284e-006 -8.10882284e-006 -8.10882284e-006
      -8.10882284e-006 -8.10882284e-006 -8.10882284e-006
      -8.10882284e-006 -8.10882284e-006 -8.10882284e-006
      -8.10882284e-006 -8.10882284e-006 -8.10882284e-006
      -8.10882284e-006 -8.10882284e-006 -8.10882284e-006
      -8.10882284e-006 -8.10882284e-006 -8.10882284e-006
      -8.10882284e-006 -8.10882284e-006 -8.10882284e-006
      -8.10882284e-006 -8.10882284e-006 -8.10882284e-006
      -8.10882284e-006 -8.10882284e-006 -8.10882284e-006
      -8.10882284e-006 -8.10882284e-006 -8.10882284e-006
      -8.10882284e-006 -8.10882284e-006 -8.10882284e-006
      -8.10882284e-006 -8.10882284e-006 -8.10882284e-006
      -8.10882284e-006 -8.10882284e-006 -8.10882284e-006
      -2.50800008e-006 -2.60584366e-005 -1.85157569e-005
      -3.49207148e-005 -3.75156233e-005 -2.14262000e-005
      -3.66477034e-005 -2.58366144e-005 -2.97138467e-005
      -2.97138467e-005 -2.97138467e-005 -2.97138467e-005
      -2.97138467e-005 -2.97138467e-005 -2.97138467e-005
      -2.97138467e-005 -2.97138467e-005 -2.97138467e-005
      -2.97138467e-005 -2.97138467e-005 -2.97138467e-005
      -2.97138467e-005 -2.97138467e-005 -2.97138467e-005
      -2.97138467e-005 -2.97138467e-005 -2.97138467e-005
      -2.97138467e-005 -2.97138467e-005 -2.97138467e-005
      -2.97138467e-005 -2.97138467e-005 -2.97138467e-005
      -2.97138467e-005 -2.97138467e-005 -2.97138467e-005
      -2.97138467e-005 -2.97138467e-005 -2.97138467e-005
      -2.97138467e-005 -2.97138467e-005 -2.97138467e-005
      -2.97138467e-005 -2.97138467e-005 -2.97138467e-005
      -2.97138467e-005 -2.97138467e-005 -2.97138467e-005
      -4.36371338e-005 -2.35972402e-005 -3.03716351e-005
      -2.55927644e-005 -2.96743165e-005 -4.56440139e-005
      -2.82092515e-005 -3.22502419e-005 -3.67341490e-005
      -3.67341490e-005 -3.67341490e-005 -3.67341490e-005
      -3.67341490e-005 -3.67341490e-005 -3.67341490e-005
      -3.67341490e-005 -3.67341490e-005 -3.67341490e-005
      -3.67341490e-005 -3.67341490e-005 -3.67341490e-005
      -3.67341490e-005 -3.67341490e-005 -3.67341490e-005
      -3.67341490e-005 -3.67341490e-005 -3.67341490e-005
      -3.67341490e-005 -3.67341490e-005 -3.67341490e-005
      -3.67341490e-005 -3.67341490e-005 -3.67341490e-005
      -3.67341490e-005 -3.67341490e-005 -3.67341490e-005
      -3.67341490e-005 -3.67341490e-005 -3.67341490e-005
      -3.67341490e-005 -3.67341490e-005 -3.67341490e-005
      -3.67341490e-005 -3.67341490e-005 -3.67341490e-005
      -3.67341490e-005 -3.67341490e-005 -3.67341490e-005
      -2.89207528e-005 -3.88765257e-005 -4.39845680e-005
      -3.82165963e-005 -3.64100088e-005 -4.12638947e-005
      -2.74190952e-005 3.12816737e-005 3.85198000e-005 3.85198000e-005
      3.85198000e-005 3.85198000e-005 3.85198000e-005 3.85198000e-005
      3.85198000e-005 3.85198000e-005 3.85198000e-005 3.85198000e-005
      3.85198000e-005 3.85198000e-005 3.85198000e-005 3.85198000e-005
      3.85198000e-005 3.85198000e-005 3.85198000e-005 3.85198000e-005
      3.85198000e-005 3.85198000e-005 3.85198000e-005 3.85198000e-005
      3.85198000e-005 3.85198000e-005 3.85198000e-005 3.85198000e-005
      3.85198000e-005 3.85198000e-005 3.85198000e-005 3.85198000e-005
      3.85198000e-005 3.85198000e-005 3.85198000e-005 3.85198000e-005
      3.85198000e-005 3.85198000e-005 3.85198000e-005 3.85198000e-005
      3.85198000e-005 3.85198000e-005 3.85198000e-005 3.85198000e-005
      3.85198000e-005 3.85198000e-005 3.85198000e-005 3.85198000e-005
      3.85198000e-005 3.85198000e-005 2.64660684e-005 2.64660684e-005
      2.64660684e-005 2.64660684e-005 2.64660684e-005 2.64660684e-005
      2.64660684e-005 2.64660684e-005 2.64660684e-005 2.70634755e-005
      2.58686614e-005 2.70634755e-005 2.58686614e-005 2.70634755e-005
      2.64660684e-005 2.70634755e-005 2.64660684e-005 2.64660684e-005
      2.64660684e-005 2.64660684e-005 2.64660684e-005 2.64660684e-005
      2.64660684e-005 2.64660684e-005 2.64660684e-005 2.64660684e-005
      2.64660684e-005 2.64660684e-005 2.64660684e-005 2.64660684e-005
      2.70634755e-005 2.64660684e-005 2.64660684e-005 2.64660684e-005
      2.64660684e-005 2.64660684e-005 2.64660684e-005 2.64660684e-005
      2.64660684e-005 2.64660684e-005 2.70634755e-005 2.64660684e-005
      2.64660684e-005 2.64660684e-005 2.64660684e-005 2.58686614e-005
      2.64660684e-005 2.70634755e-005 -1.61662847e-005 -1.61662847e-005
      -1.61662847e-005 -1.61662847e-005 -1.61662847e-005
      -1.61662847e-005 -1.61662847e-005 -1.61662847e-005
      -1.61662847e-005 -1.61662847e-005 -1.61662847e-005
      -1.61662847e-005 -1.61662847e-005 -1.61662847e-005
      -1.61662847e-005 -1.61662847e-005 -1.61662847e-005
      -1.61662847e-005 -1.61662847e-005 -1.61662847e-005
      -1.61662847e-005 -1.61662847e-005 -1.61662847e-005
      -1.61662847e-005 -1.61662847e-005 -1.61662847e-005
      -1.61662847e-005 -1.61662847e-005 -1.61662847e-005
      -1.61662847e-005 -1.61662847e-005 -1.61662847e-005
      -1.61662847e-005 -1.61662847e-005 -1.61662847e-005
      -1.61662847e-005 -1.61662847e-005 -1.61662847e-005
      -1.61662847e-005 -1.61662847e-005 -1.73675071e-005
      -2.46302334e-005 -8.53879646e-006 -1.98991038e-005
      -6.11825817e-006 -7.01171530e-006 -1.02344311e-005 1.47741885e-005
      1.51687045e-005 1.51687045e-005 1.51687045e-005 1.51687045e-005
      1.51687045e-005 1.51687045e-005 1.51687045e-005 1.51687045e-005
      1.51687045e-005 1.51687045e-005 1.51687045e-005 1.51687045e-005
      1.51687045e-005 1.51687045e-005 1.51687045e-005 1.51687045e-005
      1.51687045e-005 1.51687045e-005 1.51687045e-005 1.51687045e-005
      1.51687045e-005 1.51687045e-005 1.51687045e-005 1.51687045e-005
      1.51687045e-005 1.51687045e-005 1.51687045e-005 1.51687045e-005
      1.51687045e-005 1.51687045e-005 1.51687045e-005 1.51687045e-005
      1.51687045e-005 1.51687045e-005 1.51687045e-005 1.51687045e-005
      1.51687045e-005 1.51687045e-005 1.51687045e-005 1.51687045e-005
      1.97064473e-005 2.24077703e-005 2.46377131e-005 1.26804043e-005
      1.73269182e-005 3.41025043e-005 4.36909359e-005 3.50670271e-005
      3.70046400e-005 3.70046400e-005 3.70046400e-005 3.70046400e-005
      3.70046400e-005 3.70046400e-005 3.70046400e-005 3.70046400e-005
      3.70046400e-005 3.70046400e-005 3.70046400e-005 3.70046400e-005
      3.70046400e-005 3.70046400e-005 3.70046400e-005 3.70046400e-005
      3.70046400e-005 3.70046400e-005 3.70046400e-005 3.70046400e-005
      3.70046400e-005 3.70046400e-005 3.70046400e-005 3.70046400e-005
      3.70046400e-005 3.70046400e-005 3.70046400e-005 3.70046400e-005
      3.70046400e-005 3.70046400e-005 3.70046400e-005 3.70046400e-005
      3.70046400e-005 3.70046400e-005 3.70046400e-005 3.70046400e-005
      3.70046400e-005 3.70046400e-005 3.70046400e-005 3.70046400e-005
      3.56449782e-005 3.48904614e-005 -3.88840053e-005 -3.82541439e-005
      -4.53970533e-005 -3.12974407e-005 -4.97435758e-005
      -3.22890774e-005 -4.02445039e-005 -4.02445039e-005
      -4.02445039e-005 -4.02445039e-005 -4.02445039e-005
      -4.02445039e-005 -4.02445039e-005 -4.02445039e-005
      -4.02445039e-005 -4.02445039e-005 -4.02445039e-005
      -4.02445039e-005 -4.02445039e-005 -4.02445039e-005
      -4.02445039e-005 -4.02445039e-005 -4.02445039e-005
      -4.02445039e-005 -4.02445039e-005 -4.02445039e-005
      -4.02445039e-005 -4.02445039e-005 -4.02445039e-005
      -4.02445039e-005 -4.02445039e-005 -4.02445039e-005
      -4.02445039e-005 -4.02445039e-005 -4.02445039e-005
      -4.02445039e-005 -4.02445039e-005 -4.02445039e-005
      -3.14303252e-005 -5.52902711e-005 -2.47930711e-005
      -5.34204628e-005 -2.83934914e-005 -4.14547467e-005
      -4.17086958e-005 -4.09065688e-005 -3.99609708e-005
      -3.99609708e-005 -3.99609708e-005 -3.99609708e-005
      -3.99609708e-005 -3.99609708e-005 -3.99609708e-005
      -3.99609708e-005 -3.99609708e-005 -3.99609708e-005
      -3.99609708e-005 -3.99609708e-005 -3.99609708e-005
      -3.99609708e-005 -3.99609708e-005 -3.99609708e-005
      -3.99609708e-005 -3.99609708e-005 -3.99609708e-005
      -3.99609708e-005 -3.99609708e-005 -3.99609708e-005
      -3.99609708e-005 -3.99609708e-005 -3.99609708e-005
      -3.99609708e-005 -3.99609708e-005 -3.99609708e-005
      -3.99609708e-005 -3.99609708e-005 -3.99609708e-005
      -3.99609708e-005 -3.99609708e-005 -3.99609708e-005
      -3.99609708e-005 -3.99609708e-005 -3.99609708e-005
      -3.99609708e-005 -3.99609708e-005 -3.99609708e-005
      -4.80711678e-005 -2.74779791e-006 -1.94190925e-005
      -1.02878093e-005 -2.75728889e-005 -1.81468440e-005
      -2.47097305e-005 -2.05676151e-005 -2.02642605e-005
      -2.02642605e-005 -2.02642605e-005 -2.15666441e-005
      -2.15666441e-005 -2.15666441e-005 -2.15666441e-005
      -2.15666441e-005 -2.15666441e-005 -2.15666441e-005
      -2.15666441e-005 -2.15666441e-005 -2.15666441e-005
      -2.15666441e-005 -2.15666441e-005 -2.15666441e-005
      -2.15666441e-005 -2.15666441e-005 -2.15666441e-005
      -2.15666441e-005 -2.15666441e-005 -2.15666441e-005
      -2.15666441e-005 -2.15666441e-005 -2.15666441e-005
      -2.15666441e-005 -2.15666441e-005 -2.15666441e-005
      -2.15666441e-005 -2.15666441e-005 -2.15666441e-005
      -2.15666441e-005 -1.88771173e-005 -1.63521163e-005
      -8.99676979e-006 -2.28125209e-005 -2.75802086e-005
      -2.17130964e-005 -2.47103035e-005 -1.55056914e-005
      -2.17060333e-005 -2.17060333e-005 -2.17060333e-005
      -2.17060333e-005 -2.17060333e-005 -2.17060333e-005
      -2.17060333e-005 -2.17060333e-005 -2.17060333e-005
      -2.17060333e-005 -2.17060333e-005 -2.17060333e-005
      -2.17060333e-005 -2.17060333e-005 -2.17060333e-005
      -2.17060333e-005 -2.17060333e-005 -2.17060333e-005
      -2.17060333e-005 -2.17060333e-005 -2.17060333e-005
      -2.17060333e-005 -2.17060333e-005 -2.17060333e-005
      -2.17060333e-005 -2.17060333e-005 -2.17060333e-005
      -2.17060333e-005 -2.17060333e-005 -2.17060333e-005
      -2.17060333e-005 -2.17060333e-005 -2.25274653e-005
      -2.67711184e-005 -2.12187570e-005 -1.06931384e-005 8.75718251e-006
      1.80475454e-005 2.35146235e-005 2.19008252e-005 1.92097414e-005
      1.92097414e-005 1.92097414e-005 1.92097414e-005 1.92097414e-005
      1.92097414e-005 1.92097414e-005 1.92097414e-005 1.92097414e-005
      1.92097414e-005 1.92097414e-005 1.92097414e-005 1.92097414e-005
      1.92097414e-005 1.92097414e-005 1.92097414e-005 1.92097414e-005
      1.92097414e-005 1.92097414e-005 1.92097414e-005 1.92097414e-005
      1.92097414e-005 1.92097414e-005 1.92097414e-005 1.92097414e-005
      1.92097414e-005 1.92097414e-005 1.92097414e-005 1.92097414e-005
      1.92097414e-005 1.92097414e-005 1.92097414e-005 2.04673452e-005
      1.65433812e-005 2.99623334e-005 2.32920738e-005 -2.11420411e-005
      -2.17480701e-005 -1.23451255e-005 -1.76300273e-005
      -1.81828073e-005 -1.81828073e-005 -1.81828073e-005
      -1.81828073e-005 -1.81828073e-005 -1.81828073e-005
      -1.81828073e-005 -1.81828073e-005 -1.81828073e-005
      -1.81828073e-005 -1.81828073e-005 -1.81828073e-005
      -1.81828073e-005 -1.81828073e-005 -1.81828073e-005
      -1.81828073e-005 -1.81828073e-005 -1.81828073e-005
      -1.81828073e-005 -1.81828073e-005 -1.81828073e-005
      -1.81828073e-005 -1.81828073e-005 -1.81828073e-005
      -1.81828073e-005 -1.81828073e-005 -1.81828073e-005
      -1.81828073e-005 -1.81828073e-005 -1.81828073e-005
      -1.81828073e-005 -1.81828073e-005 -2.15870077e-005
      -1.41384508e-005 -2.32266611e-005 -2.61988098e-005
      -3.02417029e-005 -2.18157311e-005 -2.90718999e-005
      -4.24218269e-005 -2.97161641e-005 -2.97161641e-005
      -2.97161641e-005 -2.97161641e-005 -2.97161641e-005
      -2.97161641e-005 -2.97161641e-005 -2.97161641e-005
      -2.97161641e-005 -2.97161641e-005 -2.97161641e-005
      -2.97161641e-005 -2.97161641e-005 -2.97161641e-005
      -2.97161641e-005 -2.97161641e-005 -2.97161641e-005
      -2.97161641e-005 -2.97161641e-005 -2.97161641e-005
      -2.97161641e-005 -2.97161641e-005 -2.97161641e-005
      -2.97161641e-005 -2.97161641e-005 -2.97161641e-005
      -2.97161641e-005 -2.97161641e-005 -2.97161641e-005
      -2.97161641e-005 -2.97161641e-005 -2.97161641e-005
      -3.12303491e-005 -1.83404482e-005 -2.56901203e-005
      -1.22054662e-005 -3.07923838e-005 -9.96741164e-006
      -2.26666016e-005 -1.59095525e-005 -2.41555372e-005
      -2.41555372e-005 -2.41555372e-005 -2.41555372e-005
      -2.41555372e-005 -2.41555372e-005 -2.41555372e-005
      -2.41555372e-005 -2.41555372e-005 -2.41555372e-005
      -2.41555372e-005 -2.41555372e-005 -2.41555372e-005
      -2.41555372e-005 -2.41555372e-005 -2.41555372e-005
      -2.41555372e-005 -2.41555372e-005 -2.41555372e-005
      -2.41555372e-005 -2.41555372e-005 -2.41555372e-005
      -2.41555372e-005 -2.41555372e-005 -1.96816418e-005
      -3.32119780e-005 -1.07972628e-005 -2.65002200e-005
      -1.47618357e-005 -2.87315979e-005 -5.22125174e-006
      -2.44291859e-005 -1.49548241e-005 -1.49548241e-005
      -1.49548241e-005 -1.49548241e-005 -1.49548241e-005
      -1.49548241e-005 -1.49548241e-005 -1.49548241e-005
      -1.49548241e-005 -1.49548241e-005 -1.49548241e-005
      -1.49548241e-005 -1.49548241e-005 -1.49548241e-005
      -1.49548241e-005 -1.49548241e-005 -1.49548241e-005
      -1.49548241e-005 -1.49548241e-005 -1.49548241e-005
      -1.49548241e-005 -1.49548241e-005 -1.49548241e-005
      -1.49548241e-005 -1.49548241e-005 -1.49548241e-005
      -1.49548241e-005 -1.49548241e-005 -1.49548241e-005
      -1.49548241e-005 -1.49548241e-005 -1.49548241e-005
      -2.61419264e-005 -1.21585072e-006 4.46535560e-005 5.67139068e-005
      5.95189122e-005 5.20197027e-005 5.53213613e-005 6.25041212e-005
      5.90127602e-005 5.90127602e-005 5.90127602e-005 5.90127602e-005
      5.90127602e-005 5.90127602e-005 5.90127602e-005 5.90127602e-005
      5.90127602e-005 5.90127602e-005 5.90127602e-005 5.90127602e-005
      5.90127602e-005 5.90127602e-005 5.90127602e-005 5.90127602e-005
      5.90127602e-005 5.90127602e-005 5.90127602e-005 5.90127602e-005
      5.90127602e-005 5.90127602e-005 5.90127602e-005 5.90127602e-005
      6.02654072e-005 5.89743540e-005 5.28582495e-005 5.55009428e-005
      6.04775414e-005 1.39188114e-005 -3.81877680e-006 3.30339776e-006
      1.67177848e-006 1.67177848e-006 1.67177848e-006 1.67177848e-006
      1.67177848e-006 1.67177848e-006 1.67177848e-006 1.67177848e-006
      1.67177848e-006 1.67177848e-006 1.67177848e-006 1.67177848e-006
      1.67177848e-006 1.67177848e-006 1.67177848e-006 1.67177848e-006
      1.67177848e-006 1.67177848e-006 1.67177848e-006 1.67177848e-006
      1.67177848e-006 1.67177848e-006 1.67177848e-006 1.67177848e-006
      1.99630085e-006 -1.01816386e-006 6.19513958e-006 7.04916829e-006
      3.07803771e-006 1.00882280e-005 3.85787462e-006 -4.48920332e-007
      9.02329157e-006 9.02329157e-006 9.02329157e-006 9.02329157e-006
      9.02329157e-006 9.02329157e-006 9.02329157e-006 9.02329157e-006
      9.02329157e-006 9.02329157e-006 9.02329157e-006 9.02329157e-006
      9.02329157e-006 9.02329157e-006 9.02329157e-006 9.02329157e-006
      9.02329157e-006 9.02329157e-006 9.02329157e-006 9.02329157e-006
      9.02329157e-006 9.02329157e-006 9.02329157e-006 9.02329157e-006
      9.02329157e-006 9.02329157e-006 9.02329157e-006 9.02329157e-006
      9.02329157e-006 9.02329157e-006 9.02329157e-006 9.02329157e-006
      -2.34443087e-005 -2.34443087e-005 -2.34443087e-005
      -2.34443087e-005 -2.34443087e-005 -2.34443087e-005
      -2.34443087e-005 -2.34443087e-005 -2.34443087e-005
      -2.34443087e-005 -2.34443087e-005 -2.34443087e-005
      -2.34443087e-005 -2.34443087e-005 -2.28469016e-005
      -2.34443087e-005 -2.34443087e-005 -2.34443087e-005
      -2.34443087e-005 -2.34443087e-005 -2.34443087e-005
      -2.34443087e-005 -2.34443087e-005 -2.34443087e-005
      -2.28469016e-005 -2.34443087e-005 -2.34443087e-005
      -2.34443087e-005 -2.34443087e-005 -2.40417157e-005
      -2.34443087e-005 -2.28469016e-005 -8.67470499e-006
      -8.67470499e-006 -8.67470499e-006 -8.67470499e-006
      -8.67470499e-006 -8.67470499e-006 -8.67470499e-006
      -8.67470499e-006 -8.67470499e-006 -8.67470499e-006
      -8.67470499e-006 -8.67470499e-006 -8.67470499e-006
      -8.67470499e-006 -8.67470499e-006 -8.67470499e-006
      -8.67470499e-006 -8.67470499e-006 -8.67470499e-006
      -8.67470499e-006 -8.67470499e-006 -8.67470499e-006
      -8.67470499e-006 -8.67470499e-006 -1.07508340e-005
      -7.92708306e-006 -7.75854369e-006 -5.91844582e-006
      -1.24041962e-005 -1.21792082e-005 5.89475439e-006 -1.38083542e-005
      -2.21379287e-005 -2.21379287e-005 -2.21379287e-005
      -2.21379287e-005 -2.21379287e-005 -2.21379287e-005
      -2.21379287e-005 -2.21379287e-005 -2.21379287e-005
      -2.21379287e-005 -2.21379287e-005 -2.21379287e-005
      -2.21379287e-005 -2.21379287e-005 -2.21379287e-005
      -2.21379287e-005 -2.21379287e-005 -2.21379287e-005
      -2.21379287e-005 -2.21379287e-005 -2.21379287e-005
      -2.21379287e-005 -2.21379287e-005 -2.21379287e-005
      -9.85652241e-006 -2.18039149e-005 -2.21486007e-005
      -1.63026216e-005 -2.34938798e-005 5.19990817e-006 6.78172910e-006
      1.06515099e-005 7.01815452e-006 7.01815452e-006 7.01815452e-006
      7.01815452e-006 7.01815452e-006 7.01815452e-006 7.01815452e-006
      7.01815452e-006 6.42074747e-006 6.42074747e-006 7.01815452e-006
      7.61556112e-006 7.61556112e-006 7.01815452e-006 7.01815452e-006
      7.01815452e-006 7.01815452e-006 7.01815452e-006 7.01815452e-006
      7.01815452e-006 7.01815452e-006 7.01815452e-006 7.61556112e-006
      7.01815452e-006 8.62377328e-006 9.09159098e-006 -2.50039866e-005
      -2.38022476e-005 -2.47052867e-005 -2.25134318e-005
      -2.39669189e-005 -2.12142604e-005 -2.34443087e-005
      -2.34443087e-005 -2.34443087e-005 -2.34443087e-005
      -2.34443087e-005 -2.34443087e-005 -2.34443087e-005
      -2.34443087e-005 -2.34443087e-005 -2.34443087e-005
      -2.34443087e-005 -2.34443087e-005 -2.34443087e-005
      -2.34443087e-005 -2.34443087e-005 -2.34443087e-005
      -2.78728639e-005 -1.74805409e-005 -1.84196015e-005
      -1.44044097e-005 -1.63938876e-005 -2.80722998e-005 2.81417829e-006
      -9.16573026e-006 2.20933089e-007 2.20933089e-007 2.20933089e-007
      2.20933089e-007 2.20933089e-007 2.20933089e-007 2.20933089e-007
      2.20933089e-007 2.20933089e-007 2.20933089e-007 2.20933089e-007
      2.20933089e-007 2.20933089e-007 2.20933089e-007 2.20933089e-007
      2.20933089e-007 2.20933089e-007 2.20933089e-007 2.20933089e-007
      2.20933089e-007 2.20933089e-007 2.20933089e-007 2.20933089e-007
      2.20933089e-007 3.57613430e-006 -8.33997638e-006 2.80303375e-005
      2.84353464e-005 2.04287153e-005 1.07929063e-005 1.04227101e-005
      1.19023225e-005 1.52603279e-005 1.52603279e-005 1.52603279e-005
      1.52603279e-005 1.52603279e-005 1.52603279e-005 1.52603279e-005
      1.52603279e-005 1.52603279e-005 1.52603279e-005 1.52603279e-005
      1.52603279e-005 1.52603279e-005 1.52603279e-005 1.52603279e-005
      1.52603279e-005 2.73200931e-005 9.32011517e-006 2.21536120e-005
      4.49312320e-005 5.71334749e-005 4.71046842e-005 4.91898791e-005
      6.86070780e-005 5.59438413e-005 5.59438413e-005 5.59438413e-005
      5.59438413e-005 5.59438413e-005 5.59438413e-005 5.59438413e-005
      5.59438413e-005 5.59438413e-005 5.59438413e-005 5.59438413e-005
      5.59438413e-005 5.59438413e-005 5.59438413e-005 5.59438413e-005
      5.59438413e-005 5.92870201e-005 4.78454858e-005 5.15399770e-005
      5.24638599e-005 1.59910542e-005 2.39826695e-005 2.37960867e-005
      7.42480916e-006 1.52603279e-005 1.52603279e-005 1.52603279e-005
      1.52603279e-005 1.52603279e-005 1.52603279e-005 1.52603279e-005
      1.52603279e-005 1.52603279e-005 1.52603279e-005 1.52603279e-005
      1.52603279e-005 1.52603279e-005 1.52603279e-005 1.52603279e-005
      1.52603279e-005 1.14634304e-005 1.30413500e-005 2.01040057e-005
      2.15054715e-005 -7.27554561e-006 -4.95561926e-006 -2.47910111e-006
      3.20091863e-006 -4.77449112e-006 -4.77449112e-006 -4.77449112e-006
      -4.77449112e-006 -4.77449112e-006 -4.77449112e-006
      -4.77449112e-006 -4.77449112e-006 -4.77449112e-006
      -4.77449112e-006 -4.77449112e-006 -4.77449112e-006
      -4.77449112e-006 -4.77449112e-006 -4.77449112e-006
      -4.77449112e-006 -6.32641604e-006 -6.19993489e-006
      -1.96152928e-006 -2.08721776e-005 -3.31602278e-005
      -2.36492178e-005 -2.43118811e-005 -2.45419287e-005
      -2.35970074e-005 -2.35970074e-005 -2.35970074e-005
      -2.35970074e-005 -2.35970074e-005 -2.35970074e-005
      -2.35970074e-005 -2.35970074e-005 -2.35970074e-005
      -2.35970074e-005 -2.35970074e-005 -2.35970074e-005
      -2.35970074e-005 -2.35970074e-005 -2.35970074e-005
      -2.35970074e-005 -2.56561016e-005 -3.74317679e-005
      -4.16347466e-005 -3.94107010e-005 -4.04245693e-005
      -4.07268017e-005 -3.84023697e-005 -4.38546413e-005
      -4.03423146e-005 -4.03423146e-005 -4.03423146e-005
      -4.03423146e-005 -4.03423146e-005 -4.03423146e-005
      -4.03423146e-005 -4.03423146e-005 -4.38058523e-005
      -4.65842604e-005 -3.79070007e-005 -4.97745859e-005
      -3.47538480e-005 -3.22031774e-005 -3.38288082e-005
      -1.67159887e-005 -2.60935212e-005 -2.60935212e-005
      -2.60935212e-005 -2.60935212e-005 -2.60935212e-005
      -2.60935212e-005 -2.60935212e-005 -2.60935212e-005
      -2.60935212e-005 -2.60935212e-005 -2.60935212e-005
      -2.60935212e-005 -2.60935212e-005 -2.60935212e-005
      -2.60935212e-005 -2.60935212e-005 -1.47387664e-005
      -3.95443931e-005 4.96295434e-005 3.62927094e-005 3.13195924e-005
      4.46479644e-005 2.88810661e-005 3.31756855e-005 3.75220516e-005
      3.75220516e-005 3.75220516e-005 3.75220516e-005 3.75220516e-005
      3.75220516e-005 3.75220516e-005 3.75220516e-005 4.03616832e-005
      3.08077724e-005 3.13554046e-005 4.15413888e-005 3.81352911e-005
      -2.79253709e-005 -2.86213963e-005 -2.74960621e-005
      -2.34443087e-005 -2.34443087e-005 -2.34443087e-005
      -2.34443087e-005 -2.34443087e-005 -2.34443087e-005
      -2.34443087e-005 -2.34443087e-005 -2.73261358e-005
      -2.30018522e-005 -2.51394340e-005 -1.43444768e-005
      -2.68080621e-005 -1.93393989e-005 -2.50979847e-005 1.94562690e-005
      2.91709894e-005 2.91709894e-005 2.91709894e-005 2.91709894e-005
      2.91709894e-005 2.91709894e-005 2.91709894e-005 2.91709894e-005
      2.91709894e-005 2.91709894e-005 2.91709894e-005 2.91709894e-005
      2.91709894e-005 2.91709894e-005 2.91709894e-005 2.91709894e-005
      -2.35661064e-005 -2.35661064e-005 -2.35661064e-005
      -2.35661064e-005 -2.35661064e-005 -2.35661064e-005
      -2.35661064e-005 -2.35661064e-005 -2.35661064e-005
      -2.35661064e-005 -2.35661064e-005 -2.35661064e-005
      -2.35661064e-005 -2.35661064e-005 -2.35661064e-005
      -2.35661064e-005 -2.34443087e-005 -2.34443087e-005
      -2.34443087e-005 -2.34443087e-005 -2.34443087e-005
      -2.34443087e-005 -2.34443087e-005 -2.34443087e-005
      -1.43457100e-005 -2.13210351e-005 -2.57919673e-005
      -1.37193047e-005 -1.75070800e-005 -2.40059198e-005
      -1.37499192e-005 -3.11360454e-005 -1.65343099e-005
      -1.65343099e-005 -1.65343099e-005 -1.65343099e-005
      -1.65343099e-005 -1.65343099e-005 -1.65343099e-005
      -1.65343099e-005 -2.03990367e-005 -1.24410235e-005
      -1.78517839e-005 -1.30790831e-005 -1.78377832e-005
      -7.98785113e-005 -1.18470321e-004 -8.90505544e-005
      -9.74178547e-005 -9.74178547e-005 -9.74178547e-005
      -9.74178547e-005 -9.74178547e-005 -9.74178547e-005
      -9.74178547e-005 -9.74178547e-005 -1.00489968e-004
      -1.01085185e-004 9.55177597e-007 1.08557415e-005 6.75169440e-006
      1.70772319e-006 8.57250143e-006 -3.20434106e-006 -4.64989938e-007
      1.38573350e-005 1.70785142e-007 1.04488581e-005 3.76267485e-006
      -1.99234523e-006 -2.34297240e-005 -2.38849643e-005
      -2.31013128e-005 -2.31013128e-005 -2.31013128e-005
      -2.31013128e-005 -2.31013128e-005 -2.31013128e-005
      -2.31013128e-005 -2.31013128e-005 -2.95607406e-005
      -5.81510940e-005 -5.23730087e-005 -4.48818719e-005
      -5.77579049e-005 -5.72356876e-005 -5.59108557e-005
      -5.17262379e-005 -5.40509354e-005 -5.55987317e-005
      -5.63938956e-005 -2.78653897e-005 -1.79147701e-005
      -2.28877561e-005 -2.74953491e-005 -2.29406814e-005
      -1.82832810e-005 -2.24547875e-005 -2.23670995e-005
      -1.94451914e-005 -7.09004689e-006 -5.96157543e-006
      -5.72939416e-006 -9.50606500e-006 -9.69447774e-006
      -5.84523968e-006 -6.90483967e-006 -1.26809778e-006
      -3.44108921e-005 -3.06340480e-005 -3.11951844e-005
      -2.85184469e-005 -3.13323617e-005 -3.53089599e-005
      -2.87975563e-005 -2.30565493e-005 -2.47379357e-005
      -2.45992269e-005 -2.44668045e-005 -2.42402566e-005
      -2.60877950e-005 -6.00710118e-005 -6.25874964e-005
      -5.19393507e-005 -6.53343377e-005 -6.98789299e-005
      -5.36500738e-005 -4.92863401e-005 -3.92945949e-005
      -5.63729118e-005 1.74285262e-004 1.73746099e-004 1.69995721e-004
      -1.36632661e-005 -3.39461076e-005 -3.99187738e-005</_></support_vectors>
  <decision_functions>
    <_>
      <sv_count>1</sv_count>
      <rho>-1.3293200749470142e+000</rho>
      <alpha>
        1.</alpha>
      <index>
        0</index></_></decision_functions></my_svm>
</opencv_storage>
