<?xml version="1.0"?>
<opencv_storage>
<my_svm type_id="opencv-ml-svm">
  <svm_type>C_SVC</svm_type>
  <kernel><type>LINEAR</type></kernel>
  <C>1.</C>
  <term_criteria><epsilon>2.2204460492503131e-016</epsilon>
    <iterations>100</iterations></term_criteria>
  <var_all>4544</var_all>
  <var_count>4544</var_count>
  <class_count>2</class_count>
  <class_labels type_id="opencv-matrix">
    <rows>1</rows>
    <cols>2</cols>
    <dt>i</dt>
    <data>
      6 255</data></class_labels>
  <sv_total>1</sv_total>
  <support_vectors>
    <_>
      -2.24032578e-006 -2.24032578e-006 -1.69496275e-006
      -4.52700476e-007 -4.52700476e-007 -3.07686378e-007
      -8.53049585e-007 -8.53049585e-007 -6.07241702e-007 0.
      -1.11957706e-006 -3.00013085e-006 -1.11957706e-006
      -1.47799983e-006 -3.58422682e-007 -3.58422682e-007
      -2.96895564e-007 -2.96895564e-007 3.10346167e-007 -3.07686378e-007
      0. 0. -6.07241702e-007 -9.00542261e-007 4.37253789e-007
      4.37253789e-007 -1.79511244e-006 -1.50181188e-006 -1.50181188e-006
      -1.38111375e-006 3.10346167e-007 3.10346167e-007 -3.58422682e-007
      -3.58422682e-007 0. 0. 0. 0. -3.58422682e-007 -6.66109088e-007
      -1.16339572e-006 -1.16339572e-006 0. 0. 0. 0. 0. -1.29237674e-006
      -2.45080378e-006 -2.14311740e-006 -1.29237674e-006 0. 0. 0. 0. 0.
      0. -1.20356049e-007 -1.20356049e-007 0. 0. 0. 0. -1.20356049e-007
      1.48793291e-007 0. -4.89709237e-007 0. 0. 0. 0. 0. 0. 0. 0. 0. 0.
      -2.93300502e-007 -2.93300502e-007 -2.93300502e-007 0. 0. 0. 0. 0.
      0. 0. 0. 0. 0. 0. 0. 0. 0. 0. 0. 0. 0. 0. -1.16339572e-006
      -1.16339572e-006 7.30554291e-007 2.49091727e-006 2.68056510e-006
      0. 0. 0. -3.58422682e-007 -3.58422682e-007 0. 0. 0.
      4.59139443e-007 3.38441254e-007 3.38441254e-007 1.48793291e-007
      3.38441254e-007 1.89647963e-007 2.07036692e-006 2.80487234e-006
      3.05206549e-006 2.43825821e-006 1.16747060e-007 1.20698203e-007
      1.20698203e-007 2.11816428e-006 1.99746592e-006 2.61127320e-006 0.
      0. 0. 0. 0. 0. 0. 0. 0. 0. 0. 0. 0. 0. 0. 0. 0. 0. 0. 0. 0. 0. 0.
      0. 0. 0. 0. 0. 0. 0. 0. 0. 0. 0. 0. 0. 0. 0. 0. 0. 0. 0. 0. 0. 0.
      0. 0. 0. 0. 0. 0. 0. 0. 0. 0. 0. 0. 0. 0. 0. 0. 0. 0. 0. 0. 0. 0.
      0. 0. 0. 0. 0. 0. 0. 0. 0. 0. 0. 0. 0. 0. 0. 0. 0. 0. 0. 0. 0. 0.
      0. 0. 0. 0. 0. 0. 0. 0. 0. 0. 0. 0. 0. 0. 0. 0. 0. 0. 0. 0. 0. 0.
      0. 0. 0. 0. 0. 0. 0. 0. 0. 0. 0. 0. 0. 0. 0. 0. 0. 3.45732838e-006
      2.67971927e-006 -2.33236733e-006 -2.96357848e-006 -3.50182199e-006
      -3.20769823e-006 -2.46899413e-006 -4.37702738e-006
      -3.40221078e-008 -1.64684332e-006 -4.11971314e-006
      -3.17686431e-006 -4.76501509e-006 -4.00593672e-006
      -4.67028741e-007 -2.59097783e-006 4.66041365e-006 1.10446081e-006
      9.10292442e-007 -2.77527943e-006 -4.98717100e-006 -2.78424500e-006
      -3.00472834e-007 -2.79534135e-007 -3.87838054e-006
      -6.34862363e-006 -2.42775695e-006 -2.14551733e-007 1.11168333e-006
      -2.80328067e-007 -2.44987677e-006 -5.53585505e-006 6.66261826e-007
      1.58609339e-006 2.24739347e-006 3.25950765e-007 2.66896478e-007
      7.43757596e-007 3.45314470e-006 2.92561276e-006 4.56277530e-006
      4.39966061e-006 5.75935758e-007 7.32530680e-007 -1.98301450e-006
      -8.30367753e-007 -1.63894242e-007 -3.63224757e-007 1.99578892e-007
      2.35720768e-006 -8.16921897e-007 -2.21397340e-006 1.91283084e-006
      3.26927670e-006 2.70251144e-006 2.79758274e-006 5.23203482e-007
      3.18978664e-006 3.16543583e-006 2.18929767e-006 2.10865869e-006
      1.49485152e-006 -1.24429732e-007 1.33171704e-006 7.17459514e-009
      -9.85580527e-007 -4.67778182e-006 -3.64323796e-006
      -2.74698141e-006 -2.39107209e-007 2.67508221e-006 3.73845432e-006
      -2.05448282e-006 3.24107134e-007 5.86793362e-007 -4.64595860e-006
      -5.28412738e-006 -3.91975072e-006 -1.33657272e-006
      -2.10587632e-006 -1.34635707e-006 -9.42041027e-007
      -4.56689395e-006 -3.65820506e-006 -4.09312133e-006 2.49940331e-006
      2.73744945e-006 4.18007312e-006 -5.18180468e-006 -4.00098997e-006
      -3.99972305e-006 1.63857112e-006 4.31501348e-006 3.88303761e-006
      3.10513474e-006 3.30071930e-006 5.92492313e-007 1.30671583e-006
      5.13048008e-006 2.92411278e-006 5.35683012e-006 1.99568558e-006
      -9.25590427e-007 -1.15275964e-006 -1.02404806e-006
      -3.51434792e-008 -2.42335227e-006 -8.04696640e-007
      -1.89711761e-006 -2.30273326e-006 1.23348116e-007 5.81564841e-009
      3.25792627e-007 1.20698203e-007 8.83697624e-007 -1.20356049e-007
      1.06080381e-006 1.36849019e-006 1.10894052e-006 -8.35512878e-007
      2.43350200e-007 2.43350200e-007 5.51036578e-007 8.89711430e-007
      8.89711430e-007 1.01006742e-006 1.60261536e-007 -1.20822858e-006
      -1.59239573e-006 -1.22000120e-006 -1.25616097e-007 8.12118174e-007
      4.37385370e-006 3.81410428e-006 3.04998957e-006 8.67476842e-007
      -2.23500888e-006 -6.62385332e-007 2.11414567e-006 4.97245401e-006
      3.51633366e-006 3.64919561e-006 1.15831824e-006 2.67282072e-008
      -9.71477832e-008 -2.45374082e-007 -4.44643149e-007
      -2.51084884e-006 -2.71795408e-009 2.60610904e-007 2.33943368e-007
      4.39270764e-007 -1.36756785e-006 7.71121790e-007 -1.39265092e-006
      -4.88976684e-006 -5.43043734e-006 -5.14994554e-006
      -2.59472313e-006 1.11918865e-007 -2.60684897e-006 7.48008063e-007
      -2.03323043e-006 -3.49332845e-006 -3.31640626e-006
      -2.49415007e-006 -9.70023621e-007 -5.76326954e-007
      -4.59507737e-006 -7.50669460e-006 -1.38500604e-006
      -3.01987228e-007 3.09308393e-006 2.80500649e-006 -2.42843555e-007
      -1.68725649e-006 -3.70642420e-006 -5.25863072e-007 1.51865106e-006
      1.51795757e-006 -1.90723745e-006 -7.81199503e-007 5.16680132e-007
      1.08635575e-007 -5.16069895e-006 -2.82611200e-006 2.52822474e-007
      2.01602347e-006 1.72190357e-006 -2.51891606e-006 -3.07797927e-006
      -1.89954312e-006 -1.94385029e-006 -2.30733144e-006 2.99832368e-006
      5.13965279e-006 1.94345535e-006 -3.56626146e-007 -3.35429354e-006
      -3.05562662e-006 6.07477841e-006 2.41201701e-006 4.01630314e-006
      7.08089328e-006 3.66556947e-006 -1.98409310e-007 -1.52092605e-006
      2.07178323e-006 -7.98854273e-007 1.02850652e-006 -2.00859773e-007
      7.06933122e-007 2.23518032e-006 -4.26195612e-007 -1.31225602e-006
      -1.87250907e-006 2.67415226e-006 4.01909301e-006 -1.44552280e-006
      -3.07072128e-006 -7.84582824e-007 -4.70949345e-007
      -1.23135817e-006 -1.10866995e-006 1.34911943e-006 -1.90770402e-006
      -3.21097696e-006 -1.44151113e-006 -4.50531797e-006
      -3.12113366e-006 -1.89357337e-007 1.42811814e-006 1.83237239e-006
      2.87523858e-006 3.60222407e-006 4.83252052e-006 5.45703824e-006
      3.32968307e-006 -2.77986743e-007 -4.15704108e-006 -1.40219299e-006
      -4.25396308e-007 -6.57233841e-007 -4.98747625e-007
      -4.79961443e-007 5.65742369e-008 -1.75424304e-006 -9.77019567e-007
      -1.25825068e-006 -8.17458442e-007 -2.40690412e-007
      -1.01040962e-006 -1.01040962e-006 -1.01006742e-006
      -7.67503252e-007 -1.28203430e-008 -6.92167596e-005
      -6.92167596e-005 -6.92167596e-005 -6.92167596e-005
      -6.92167596e-005 -6.92167596e-005 -6.92167596e-005
      -6.92167596e-005 -6.92167596e-005 -6.92167596e-005
      -6.92167596e-005 -6.92167596e-005 -6.92167596e-005
      -6.92167596e-005 -6.92167596e-005 -6.92167596e-005
      -6.92167596e-005 -6.92167596e-005 -6.92167596e-005
      -6.92167596e-005 -6.92167596e-005 -6.92167596e-005
      -6.92167596e-005 -6.92167596e-005 -6.92167596e-005
      -6.92167596e-005 -6.92167596e-005 -6.92167596e-005
      -6.92167596e-005 -6.92167596e-005 -6.92167596e-005
      -6.92167596e-005 -6.92167596e-005 -6.92167596e-005
      -6.92167596e-005 -6.92167596e-005 -6.92167596e-005
      -6.92167596e-005 -6.92167596e-005 -6.92167596e-005
      -6.92167596e-005 -6.92167596e-005 -6.92167596e-005
      -6.92167596e-005 -6.92167596e-005 -6.92167596e-005
      -6.92167596e-005 -6.92167596e-005 -6.92167596e-005
      -6.92167596e-005 -6.92167596e-005 -6.92167596e-005
      -6.92167596e-005 -6.92167596e-005 -6.92167596e-005
      -6.92167596e-005 -8.29185374e-005 -7.18413430e-005
      -7.34108980e-005 -5.91698299e-005 -7.35649810e-005
      -6.62876628e-005 -6.37831617e-005 -5.63307258e-005
      -6.60153455e-005 -6.60153455e-005 -6.60153455e-005
      -6.60153455e-005 -6.60153455e-005 -6.60153455e-005
      -6.60153455e-005 -6.60153455e-005 -6.60153455e-005
      -6.60153455e-005 -6.60153455e-005 -6.60153455e-005
      -6.60153455e-005 -6.60153455e-005 -6.60153455e-005
      -6.60153455e-005 -6.60153455e-005 -6.60153455e-005
      -6.60153455e-005 -6.60153455e-005 -6.60153455e-005
      -6.60153455e-005 -6.60153455e-005 -6.60153455e-005
      -6.60153455e-005 -6.60153455e-005 -6.60153455e-005
      -6.60153455e-005 -6.60153455e-005 -6.60153455e-005
      -6.60153455e-005 -6.60153455e-005 -6.60153455e-005
      -6.60153455e-005 -6.60153455e-005 -6.60153455e-005
      -6.60153455e-005 -6.60153455e-005 -6.60153455e-005
      -6.60153455e-005 -6.60153455e-005 -6.60153455e-005
      -6.60153455e-005 -6.60153455e-005 -6.60153455e-005
      -6.60153455e-005 -6.60153455e-005 -6.60153455e-005
      -6.60153455e-005 -6.60153455e-005 -6.60153455e-005
      -6.60153455e-005 -6.60153455e-005 -6.60153455e-005
      -6.60153455e-005 -6.60153455e-005 -6.38695856e-005
      -5.72167992e-005 -5.56544219e-005 -7.02480320e-005
      -5.11992621e-005 -2.80282657e-005 2.23169127e-006 2.50552898e-006
      -7.76012985e-006 -7.76012985e-006 -7.76012985e-006
      -7.76012985e-006 -7.76012985e-006 -7.76012985e-006
      -7.76012985e-006 -7.76012985e-006 -7.76012985e-006
      -7.76012985e-006 -7.76012985e-006 -7.76012985e-006
      -7.76012985e-006 -7.76012985e-006 -7.76012985e-006
      -7.76012985e-006 -7.76012985e-006 -7.76012985e-006
      -7.76012985e-006 -7.76012985e-006 -7.76012985e-006
      -7.76012985e-006 -7.76012985e-006 -7.76012985e-006
      -7.76012985e-006 -7.76012985e-006 -7.76012985e-006
      -7.76012985e-006 -7.76012985e-006 -7.76012985e-006
      -7.76012985e-006 -7.76012985e-006 -7.76012985e-006
      -7.76012985e-006 -7.76012985e-006 -7.76012985e-006
      -7.76012985e-006 -7.76012985e-006 -7.76012985e-006
      -7.76012985e-006 -7.76012985e-006 -7.76012985e-006
      -7.76012985e-006 -7.76012985e-006 -7.76012985e-006
      -7.76012985e-006 -7.76012985e-006 -7.76012985e-006
      -7.76012985e-006 -7.76012985e-006 -7.76012985e-006
      -7.76012985e-006 -7.76012985e-006 -7.76012985e-006
      -7.76012985e-006 -7.76012985e-006 -7.51368043e-006
      -8.00657926e-006 -7.76012985e-006 -7.76012985e-006
      -7.76012985e-006 -8.25302868e-006 -7.02078114e-006
      -8.25302868e-006 -7.76012985e-006 -7.76012985e-006
      -7.76012985e-006 -7.76012985e-006 -7.76012985e-006
      -7.76012985e-006 -7.76012985e-006 -7.76012985e-006
      -7.76012985e-006 -7.76012985e-006 -7.76012985e-006
      -7.76012985e-006 -7.76012985e-006 -7.76012985e-006
      -7.76012985e-006 -7.76012985e-006 -7.76012985e-006
      -7.76012985e-006 -7.76012985e-006 -7.76012985e-006
      -7.76012985e-006 -7.76012985e-006 -7.76012985e-006
      -7.76012985e-006 -7.76012985e-006 -7.76012985e-006
      -7.76012985e-006 -7.76012985e-006 -7.76012985e-006
      -7.76012985e-006 -7.76012985e-006 -7.76012985e-006
      -7.76012985e-006 -7.76012985e-006 -7.76012985e-006
      -7.76012985e-006 -7.76012985e-006 -7.76012985e-006
      -7.76012985e-006 -7.76012985e-006 -7.76012985e-006
      -7.76012985e-006 -7.76012985e-006 -7.76012985e-006
      -7.76012985e-006 -7.76012985e-006 -7.76012985e-006
      -7.76012985e-006 -7.90441209e-006 -4.84535576e-006
      -1.10793153e-005 -1.11719974e-005 -1.12779580e-005
      -9.74708655e-007 -1.27902258e-005 -1.07682331e-006
      -5.36488142e-006 -5.36488142e-006 -5.36488142e-006
      -5.36488142e-006 -5.36488142e-006 -5.36488142e-006
      -5.36488142e-006 -5.36488142e-006 -5.36488142e-006
      -5.36488142e-006 -5.36488142e-006 -5.36488142e-006
      -5.36488142e-006 -5.36488142e-006 -5.36488142e-006
      -5.36488142e-006 -5.36488142e-006 -5.36488142e-006
      -5.36488142e-006 -5.36488142e-006 -5.36488142e-006
      -5.36488142e-006 -5.36488142e-006 -5.36488142e-006
      -5.36488142e-006 -5.36488142e-006 -5.36488142e-006
      -5.36488142e-006 -5.36488142e-006 -5.36488142e-006
      -5.36488142e-006 -5.36488142e-006 -5.36488142e-006
      -5.36488142e-006 -5.36488142e-006 -5.36488142e-006
      -5.36488142e-006 -5.36488142e-006 -5.36488142e-006
      -5.36488142e-006 -5.36488142e-006 -5.36488142e-006
      -5.36488142e-006 -5.36488142e-006 -5.36488142e-006
      -5.36488142e-006 -5.36488142e-006 -5.36488142e-006
      -5.36488142e-006 -5.36488142e-006 -5.36488142e-006
      -5.36488142e-006 -5.36488142e-006 -5.36488142e-006
      -5.36488142e-006 -5.36488142e-006 -1.12414946e-005 5.70342163e-005
      4.53944049e-005 4.65430967e-005 5.25957003e-005 4.98176778e-005
      5.31146907e-005 5.95676211e-005 5.25607538e-005 5.25607538e-005
      5.25607538e-005 5.25607538e-005 5.25607538e-005 5.25607538e-005
      5.25607538e-005 5.25607538e-005 5.25607538e-005 5.25607538e-005
      5.25607538e-005 5.25607538e-005 5.25607538e-005 5.25607538e-005
      5.25607538e-005 5.25607538e-005 5.25607538e-005 5.25607538e-005
      5.25607538e-005 5.25607538e-005 5.25607538e-005 5.25607538e-005
      5.25607538e-005 5.25607538e-005 5.25607538e-005 5.25607538e-005
      5.25607538e-005 5.25607538e-005 5.25607538e-005 5.25607538e-005
      5.25607538e-005 5.25607538e-005 5.25607538e-005 5.25607538e-005
      5.25607538e-005 5.25607538e-005 5.25607538e-005 5.25607538e-005
      5.25607538e-005 5.25607538e-005 5.25607538e-005 5.25607538e-005
      5.25607538e-005 5.25607538e-005 5.25607538e-005 5.25607538e-005
      5.25607538e-005 5.25607538e-005 5.65626033e-005 6.07523398e-005
      4.78709917e-005 -3.30155090e-005 -3.10584001e-005 -3.40418810e-005
      -2.92749792e-005 -1.98371035e-005 -3.10666146e-005
      -3.10666146e-005 -3.10666146e-005 -3.10666146e-005
      -3.10666146e-005 -3.10666146e-005 -3.10666146e-005
      -3.10666146e-005 -3.10666146e-005 -3.10666146e-005
      -3.10666146e-005 -3.10666146e-005 -3.10666146e-005
      -3.10666146e-005 -3.10666146e-005 -3.10666146e-005
      -3.10666146e-005 -3.10666146e-005 -3.10666146e-005
      -3.10666146e-005 -3.10666146e-005 -3.10666146e-005
      -3.10666146e-005 -3.10666146e-005 -3.10666146e-005
      -3.10666146e-005 -3.10666146e-005 -3.10666146e-005
      -3.10666146e-005 -3.10666146e-005 -3.10666146e-005
      -3.10666146e-005 -3.10666146e-005 -3.10666146e-005
      -3.10666146e-005 -3.10666146e-005 -3.10666146e-005
      -3.10666146e-005 -3.10666146e-005 -3.10666146e-005
      -3.10666146e-005 -3.10666146e-005 -3.10666146e-005
      -3.10666146e-005 -3.10666146e-005 -3.10666146e-005
      -3.10666146e-005 -3.10666146e-005 -4.11635483e-005
      -1.78945284e-005 -3.31545634e-005 -3.05811773e-005
      -1.67247836e-005 -1.29026193e-005 -2.83536519e-005
      -3.52746201e-006 -1.18582238e-005 -1.18582238e-005
      -1.18582238e-005 -1.18582238e-005 -1.18582238e-005
      -1.18582238e-005 -1.18582238e-005 -1.18582238e-005
      -1.18582238e-005 -1.18582238e-005 -1.18582238e-005
      -1.18582238e-005 -1.18582238e-005 -1.18582238e-005
      -1.18582238e-005 -1.18582238e-005 -1.18582238e-005
      -1.18582238e-005 -1.18582238e-005 -1.18582238e-005
      -1.18582238e-005 -1.18582238e-005 -1.18582238e-005
      -1.18582238e-005 -1.18582238e-005 -1.18582238e-005
      -1.18582238e-005 -1.18582238e-005 -1.18582238e-005
      -1.18582238e-005 -1.18582238e-005 -1.18582238e-005
      -1.18582238e-005 -1.18582238e-005 -1.18582238e-005
      -1.18582238e-005 -1.18582238e-005 -1.18582238e-005
      -1.18582238e-005 -1.18582238e-005 -1.18582238e-005
      -1.18582238e-005 -1.18582238e-005 -1.18582238e-005
      -1.18582238e-005 -1.18582238e-005 -1.18582238e-005
      -1.18582238e-005 -2.30911864e-005 -1.53989924e-006
      -1.71237552e-005 -1.22922183e-005 -3.77661891e-005
      -3.16693404e-005 -4.65793782e-005 -2.53351373e-005
      -3.55201773e-005 -3.55201773e-005 -3.55201773e-005
      -3.55201773e-005 -3.55201773e-005 -3.55201773e-005
      -3.55201773e-005 -3.55201773e-005 -3.55201773e-005
      -3.55201773e-005 -3.55201773e-005 -3.55201773e-005
      -3.55201773e-005 -3.55201773e-005 -3.55201773e-005
      -3.55201773e-005 -3.55201773e-005 -3.55201773e-005
      -3.55201773e-005 -3.55201773e-005 -3.55201773e-005
      -3.55201773e-005 -3.55201773e-005 -3.55201773e-005
      -3.55201773e-005 -3.55201773e-005 -3.55201773e-005
      -3.55201773e-005 -3.55201773e-005 -3.55201773e-005
      -3.55201773e-005 -3.55201773e-005 -3.55201773e-005
      -3.55201773e-005 -3.55201773e-005 -3.55201773e-005
      -3.55201773e-005 -3.55201773e-005 -3.55201773e-005
      -3.55201773e-005 -3.55201773e-005 -3.55201773e-005
      -3.55201773e-005 -3.55201773e-005 -3.55201773e-005
      -3.55201773e-005 -3.55201773e-005 -3.55201773e-005
      -3.40841907e-005 -3.16664591e-005 -3.49076254e-005
      -1.77443826e-006 -1.15257008e-005 6.92916456e-006 -6.58417002e-006
      7.01698082e-006 -7.76012985e-006 -7.76012985e-006 -7.76012985e-006
      -7.76012985e-006 -7.76012985e-006 -7.76012985e-006
      -7.76012985e-006 -7.76012985e-006 -7.76012985e-006
      -7.76012985e-006 -7.76012985e-006 -7.76012985e-006
      -7.76012985e-006 -7.76012985e-006 -7.76012985e-006
      -7.76012985e-006 -7.76012985e-006 -7.76012985e-006
      -7.76012985e-006 -7.76012985e-006 -7.76012985e-006
      -7.76012985e-006 -7.76012985e-006 -7.76012985e-006
      -7.76012985e-006 -7.76012985e-006 -7.76012985e-006
      -7.76012985e-006 -7.76012985e-006 -7.76012985e-006
      -7.76012985e-006 -7.76012985e-006 -7.76012985e-006
      -7.76012985e-006 -7.76012985e-006 -7.76012985e-006
      -7.76012985e-006 -7.76012985e-006 -7.76012985e-006
      -7.76012985e-006 -7.76012985e-006 -7.76012985e-006
      -7.76012985e-006 -7.76012985e-006 -7.76012985e-006
      -7.76012985e-006 -7.76012985e-006 -7.76012985e-006
      -3.50931327e-006 -1.01303931e-005 -1.32238947e-005
      -6.54718178e-006 -7.17791772e-006 -5.38986706e-006
      -4.98555073e-006 -9.05847082e-006 -7.76012985e-006
      -7.76012985e-006 -7.76012985e-006 -7.76012985e-006
      -7.76012985e-006 -7.76012985e-006 -7.76012985e-006
      -7.76012985e-006 -7.76012985e-006 -7.76012985e-006
      -7.76012985e-006 -7.76012985e-006 -7.76012985e-006
      -7.76012985e-006 -7.76012985e-006 -7.76012985e-006
      -7.76012985e-006 -7.76012985e-006 -7.76012985e-006
      -7.76012985e-006 -7.76012985e-006 -7.76012985e-006
      -7.76012985e-006 -7.76012985e-006 -7.76012985e-006
      -7.76012985e-006 -7.76012985e-006 -7.76012985e-006
      -7.76012985e-006 -7.76012985e-006 -7.76012985e-006
      -7.76012985e-006 -7.76012985e-006 -7.76012985e-006
      -7.76012985e-006 -7.76012985e-006 -7.76012985e-006
      -7.76012985e-006 -7.76012985e-006 -7.76012985e-006
      -6.89277977e-006 -8.15293606e-006 -8.93684046e-006
      -6.20140327e-006 -1.06746329e-005 -7.38043445e-006
      -6.45318551e-006 -8.35971787e-006 -5.51038238e-006
      -5.51038238e-006 -5.51038238e-006 -5.51038238e-006
      -5.51038238e-006 -5.51038238e-006 -5.51038238e-006
      -5.51038238e-006 -5.51038238e-006 -5.51038238e-006
      -5.51038238e-006 -5.51038238e-006 -5.51038238e-006
      -5.51038238e-006 -5.51038238e-006 -5.51038238e-006
      -5.51038238e-006 -5.51038238e-006 -5.51038238e-006
      -5.51038238e-006 -5.51038238e-006 -5.51038238e-006
      -5.51038238e-006 -5.51038238e-006 -5.51038238e-006
      -5.51038238e-006 -5.51038238e-006 -5.51038238e-006
      -5.51038238e-006 -5.51038238e-006 -5.51038238e-006
      -5.51038238e-006 -5.51038238e-006 -5.51038238e-006
      -5.51038238e-006 -5.51038238e-006 -5.51038238e-006
      -5.51038238e-006 -5.51038238e-006 -5.51038238e-006
      -5.51038238e-006 -5.51038238e-006 -5.51038238e-006
      -5.51038238e-006 -5.51038238e-006 -5.51038238e-006
      -5.51038238e-006 -5.51038238e-006 -1.28139027e-005 1.71758415e-006
      1.47961891e-005 2.41905582e-005 2.28808349e-005 2.57760239e-005
      1.38009946e-005 2.36093019e-005 2.18897967e-005 2.22809213e-005
      2.26720458e-005 2.26720458e-005 2.23787029e-005 2.19875783e-005
      2.17920169e-005 2.17920169e-005 2.17920169e-005 2.17920169e-005
      2.17920169e-005 2.17920169e-005 2.17920169e-005 2.17920169e-005
      2.17920169e-005 2.17920169e-005 2.17920169e-005 2.17920169e-005
      2.17920169e-005 2.17920169e-005 2.17920169e-005 2.17920169e-005
      2.17920169e-005 2.17920169e-005 2.17920169e-005 2.17920169e-005
      2.17920169e-005 2.17920169e-005 2.17920169e-005 2.17920169e-005
      2.17920169e-005 2.17920169e-005 2.17920169e-005 2.17920169e-005
      2.17920169e-005 2.17920169e-005 2.17920169e-005 2.17920169e-005
      2.17920169e-005 2.17920169e-005 3.01626224e-005 2.05040415e-005
      2.27138225e-005 9.11750521e-006 2.81905595e-005 1.08857612e-005
      2.67055912e-005 7.00292185e-006 1.19839133e-005 1.19839133e-005
      1.19839133e-005 1.19839133e-005 1.19839133e-005 1.19839133e-005
      1.19839133e-005 1.19839133e-005 1.19839133e-005 1.19839133e-005
      1.19839133e-005 1.19839133e-005 1.19839133e-005 1.19839133e-005
      1.19839133e-005 1.19839133e-005 1.19839133e-005 1.19839133e-005
      1.19839133e-005 1.19839133e-005 1.19839133e-005 1.19839133e-005
      1.19839133e-005 1.19839133e-005 1.19839133e-005 1.19839133e-005
      1.19839133e-005 1.19839133e-005 1.19839133e-005 1.19839133e-005
      1.19839133e-005 1.19839133e-005 1.19839133e-005 1.19839133e-005
      1.19839133e-005 1.19839133e-005 1.19839133e-005 1.19839133e-005
      1.19839133e-005 1.19839133e-005 -4.57185706e-006 1.59634164e-005
      7.53018730e-006 2.61845162e-005 4.76549985e-006 1.94935601e-005
      4.80735207e-006 2.58990221e-005 1.72215150e-005 1.72215150e-005
      1.72215150e-005 1.72215150e-005 1.72215150e-005 1.72215150e-005
      1.72215150e-005 1.72215150e-005 1.72215150e-005 1.72215150e-005
      1.72215150e-005 1.72215150e-005 1.72215150e-005 1.72215150e-005
      1.72215150e-005 1.72215150e-005 1.72215150e-005 1.72215150e-005
      1.72215150e-005 1.72215150e-005 1.72215150e-005 1.72215150e-005
      1.72215150e-005 1.72215150e-005 1.72215150e-005 1.72215150e-005
      1.72215150e-005 1.72215150e-005 1.72215150e-005 1.72215150e-005
      1.72215150e-005 1.72215150e-005 1.72215150e-005 1.72215150e-005
      1.72215150e-005 1.72215150e-005 1.72215150e-005 1.72215150e-005
      1.72215150e-005 1.72215150e-005 1.72215150e-005 1.72215150e-005
      1.72215150e-005 1.72215150e-005 1.72215150e-005 1.72215150e-005
      1.72215150e-005 1.72215150e-005 -1.26370992e-006 -1.26370992e-006
      -1.26370992e-006 -1.26370992e-006 -1.26370992e-006
      -1.26370992e-006 -1.26370992e-006 -1.26370992e-006
      -1.26370992e-006 -1.26370992e-006 -1.26370992e-006
      -1.26370992e-006 -1.26370992e-006 -1.26370992e-006
      -1.26370992e-006 -1.26370992e-006 -1.26370992e-006
      -1.26370992e-006 -1.26370992e-006 -1.26370992e-006
      -1.26370992e-006 -1.26370992e-006 -1.26370992e-006
      -1.26370992e-006 -1.26370992e-006 -1.26370992e-006
      -1.26370992e-006 -1.26370992e-006 -1.26370992e-006
      -1.26370992e-006 -1.26370992e-006 -1.26370992e-006
      -1.26370992e-006 -1.26370992e-006 -1.26370992e-006
      -1.26370992e-006 -1.26370992e-006 -1.26370992e-006
      -1.26370992e-006 -1.26370992e-006 -1.26370992e-006
      -1.26370992e-006 -1.26370992e-006 -1.26370992e-006
      -1.26370992e-006 -1.26370992e-006 -1.26370992e-006
      -1.26370992e-006 -2.12116629e-005 -2.12116629e-005
      -2.12116629e-005 -2.12116629e-005 -2.12116629e-005
      -2.12116629e-005 -2.12116629e-005 -2.12116629e-005
      -2.12116629e-005 -2.12116629e-005 -2.12116629e-005
      -2.12116629e-005 -2.12116629e-005 -2.12116629e-005
      -2.12116629e-005 -2.12116629e-005 -2.12116629e-005
      -2.12116629e-005 -2.12116629e-005 -2.12116629e-005
      -2.12116629e-005 -2.12116629e-005 -2.12116629e-005
      -2.12116629e-005 -2.12116629e-005 -2.12116629e-005
      -2.12116629e-005 -2.12116629e-005 -2.12116629e-005
      -2.12116629e-005 -2.12116629e-005 -2.12116629e-005
      -2.12116629e-005 -2.12116629e-005 -2.12116629e-005
      -2.12116629e-005 -2.12116629e-005 -2.12116629e-005
      -2.12116629e-005 -2.12116629e-005 -2.40040044e-005
      -1.63414297e-005 -1.73453482e-005 -2.09456011e-005
      -1.80723164e-005 -2.72427424e-005 -2.17760808e-005 2.48652600e-006
      -7.76012985e-006 -7.76012985e-006 -7.76012985e-006
      -7.76012985e-006 -7.76012985e-006 -7.76012985e-006
      -7.76012985e-006 -7.76012985e-006 -7.76012985e-006
      -7.76012985e-006 -7.76012985e-006 -7.76012985e-006
      -7.76012985e-006 -7.76012985e-006 -7.76012985e-006
      -7.76012985e-006 -7.76012985e-006 -7.76012985e-006
      -7.76012985e-006 -7.76012985e-006 -7.76012985e-006
      -7.76012985e-006 -7.76012985e-006 -7.76012985e-006
      -7.76012985e-006 -7.76012985e-006 -7.76012985e-006
      -7.76012985e-006 -7.76012985e-006 -7.76012985e-006
      -7.76012985e-006 -7.76012985e-006 -7.76012985e-006
      -7.76012985e-006 -7.76012985e-006 -7.76012985e-006
      -7.76012985e-006 -7.76012985e-006 -7.76012985e-006
      -7.76012985e-006 6.71560827e-007 -6.97104042e-006 -9.26270241e-006
      -7.72469866e-006 -5.42051396e-007 -1.57665108e-005
      -5.41606994e-007 -1.08376198e-005 -6.57445025e-006
      -6.57445025e-006 -6.57445025e-006 -6.57445025e-006
      -6.57445025e-006 -6.57445025e-006 -6.57445025e-006
      -6.57445025e-006 -6.57445025e-006 -6.57445025e-006
      -6.57445025e-006 -6.57445025e-006 -6.57445025e-006
      -6.57445025e-006 -6.57445025e-006 -6.57445025e-006
      -6.57445025e-006 -6.57445025e-006 -6.57445025e-006
      -6.57445025e-006 -6.57445025e-006 -6.57445025e-006
      -6.57445025e-006 -6.57445025e-006 -6.57445025e-006
      -6.57445025e-006 -6.57445025e-006 -6.57445025e-006
      -6.57445025e-006 -6.57445025e-006 -6.57445025e-006
      -6.57445025e-006 -6.57445025e-006 -6.57445025e-006
      -6.57445025e-006 -6.57445025e-006 -6.57445025e-006
      -6.57445025e-006 -6.57445025e-006 -6.57445025e-006
      -2.32944603e-006 -1.57419527e-005 -4.44627913e-005
      -3.63682811e-005 -5.12070328e-005 -3.67591747e-005
      -4.33288515e-005 -4.76549394e-005 -4.71239982e-005
      -4.71239982e-005 -4.71239982e-005 -4.71239982e-005
      -4.71239982e-005 -4.71239982e-005 -4.71239982e-005
      -4.71239982e-005 -4.71239982e-005 -4.71239982e-005
      -4.71239982e-005 -4.71239982e-005 -4.71239982e-005
      -4.71239982e-005 -4.71239982e-005 -4.71239982e-005
      -4.69662518e-005 -4.79149239e-005 -4.83242657e-005
      -5.47288655e-005 -5.35563595e-005 -5.35802938e-005
      -4.77120957e-005 -4.65264930e-005 -4.69662518e-005
      -4.79149239e-005 -4.83242657e-005 -5.47288655e-005
      -5.35563595e-005 -5.35802938e-005 -4.77120957e-005
      -4.65264930e-005 -4.91346473e-005 -4.43602912e-005
      -4.57027709e-005 -5.14366548e-005 -4.77712056e-005
      -4.70058148e-005 1.06756270e-005 2.29841935e-005 2.01131443e-005
      1.98198013e-005 1.95264583e-005 1.94286786e-005 1.95264583e-005
      1.95264583e-005 1.95264583e-005 1.95264583e-005 1.95264583e-005
      1.95264583e-005 1.95264583e-005 1.95264583e-005 1.95264583e-005
      1.95264583e-005 1.95264583e-005 1.95264583e-005 1.95264583e-005
      1.95264583e-005 1.95264583e-005 1.95264583e-005 1.95264583e-005
      1.95264583e-005 1.95264583e-005 1.95264583e-005 1.95264583e-005
      1.95264583e-005 1.95264583e-005 1.95264583e-005 1.95264583e-005
      1.95264583e-005 1.95264583e-005 1.95264583e-005 1.95264583e-005
      1.95264583e-005 1.95264583e-005 1.95264583e-005 1.95264583e-005
      1.95264583e-005 1.95264583e-005 1.95264583e-005 2.80534441e-005
      2.07041899e-006 -1.19584556e-005 2.62301091e-006 -1.60896107e-005
      -3.39034523e-006 8.58917247e-006 -2.56980661e-006 -4.59388184e-006
      -4.59388184e-006 -4.59388184e-006 -4.59388184e-006
      -4.59388184e-006 -4.59388184e-006 -4.59388184e-006
      -4.59388184e-006 -4.59388184e-006 -4.59388184e-006
      -4.59388184e-006 -4.59388184e-006 -4.59388184e-006
      -4.59388184e-006 -4.59388184e-006 -4.59388184e-006
      -4.59388184e-006 -4.59388184e-006 -4.59388184e-006
      -4.59388184e-006 -4.59388184e-006 -4.59388184e-006
      -4.59388184e-006 -4.59388184e-006 -4.59388184e-006
      -4.59388184e-006 -4.59388184e-006 -4.59388184e-006
      -4.59388184e-006 -4.59388184e-006 -4.59388184e-006
      -4.59388184e-006 1.87714704e-007 -9.23669532e-008 -1.49115194e-005
      3.63958716e-005 3.73529765e-005 2.53689013e-005 2.88114225e-005
      2.77502659e-005 3.13041382e-005 3.13041382e-005 3.13041382e-005
      3.13041382e-005 3.13041382e-005 3.13041382e-005 3.13041382e-005
      3.13041382e-005 3.13041382e-005 3.13041382e-005 3.13041382e-005
      3.13041382e-005 3.13041382e-005 3.13041382e-005 3.13041382e-005
      3.13041382e-005 3.13041382e-005 3.13041382e-005 3.13041382e-005
      3.13041382e-005 3.13041382e-005 3.13041382e-005 3.13041382e-005
      3.13041382e-005 3.13041382e-005 3.13041382e-005 3.13041382e-005
      3.13041382e-005 3.13041382e-005 3.13041382e-005 3.13041382e-005
      3.13041382e-005 2.85064598e-005 2.99249696e-005 3.49549009e-005
      2.70121236e-005 3.46276647e-005 2.36879314e-005 3.20439649e-005
      3.21684274e-005 3.12126504e-005 3.12126504e-005 3.12126504e-005
      3.12126504e-005 3.12126504e-005 3.12126504e-005 3.12126504e-005
      3.12126504e-005 3.12126504e-005 3.12126504e-005 3.12126504e-005
      3.12126504e-005 3.12126504e-005 3.12126504e-005 3.12126504e-005
      3.12126504e-005 3.12126504e-005 3.12126504e-005 3.12126504e-005
      3.12126504e-005 3.12126504e-005 3.12126504e-005 3.12126504e-005
      3.12126504e-005 3.12126504e-005 3.12126504e-005 3.12126504e-005
      3.12126504e-005 3.12126504e-005 3.12126504e-005 3.12126504e-005
      3.12126504e-005 3.15177604e-005 3.70090675e-005 2.92951172e-005
      3.28244314e-005 -1.05816498e-005 -1.09809762e-005 -1.89780712e-005
      -1.15538833e-005 -7.76012985e-006 -7.76012985e-006
      -7.76012985e-006 -7.76012985e-006 -7.76012985e-006
      -7.76012985e-006 -7.76012985e-006 -7.76012985e-006
      -7.76012985e-006 -7.76012985e-006 -7.76012985e-006
      -7.76012985e-006 -7.76012985e-006 -7.76012985e-006
      -7.76012985e-006 -7.76012985e-006 -7.76012985e-006
      -7.76012985e-006 -7.76012985e-006 -7.76012985e-006
      -7.76012985e-006 -7.76012985e-006 -7.76012985e-006
      -7.76012985e-006 -7.76012985e-006 -7.76012985e-006
      -7.76012985e-006 -7.76012985e-006 -7.76012985e-006
      -7.76012985e-006 -7.76012985e-006 -7.76012985e-006
      -5.33206730e-006 -6.51181426e-006 -1.03862058e-005
      -7.09740743e-006 -1.26636096e-005 -1.18111166e-005
      -1.48265735e-005 -1.33229105e-005 -1.33983694e-005
      -1.33983694e-005 -1.33983694e-005 -1.33983694e-005
      -1.33983694e-005 -1.33983694e-005 -1.33983694e-005
      -1.33983694e-005 -1.33983694e-005 -1.33983694e-005
      -1.33983694e-005 -1.33983694e-005 -1.33983694e-005
      -1.33983694e-005 -1.33983694e-005 -1.33983694e-005
      -1.33983694e-005 -1.33983694e-005 -1.33983694e-005
      -1.33983694e-005 -1.33983694e-005 -1.33983694e-005
      -1.33983694e-005 -1.33983694e-005 -1.33983694e-005
      -1.33983694e-005 -1.33983694e-005 -1.33983694e-005
      -1.33983694e-005 -1.33983694e-005 -1.33983694e-005
      -1.33983694e-005 -2.87671651e-006 -1.14735994e-005
      -1.62309279e-005 -3.37342999e-006 -5.98408178e-006 1.28530689e-006
      -1.11003883e-005 -2.26190400e-006 -5.51038238e-006
      -5.51038238e-006 -5.51038238e-006 -5.51038238e-006
      -5.51038238e-006 -5.51038238e-006 -5.51038238e-006
      -5.51038238e-006 -5.51038238e-006 -5.51038238e-006
      -5.51038238e-006 -5.51038238e-006 -5.51038238e-006
      -5.51038238e-006 -5.51038238e-006 -5.51038238e-006
      -5.51038238e-006 -5.51038238e-006 -5.51038238e-006
      -5.51038238e-006 -5.51038238e-006 -5.51038238e-006
      -5.51038238e-006 -5.51038238e-006 -5.60660055e-006
      -1.08612921e-005 -8.22093079e-006 -2.50999528e-006
      -1.14112927e-005 -9.66756397e-006 8.99956731e-008 -7.50470417e-006
      -6.04816705e-006 -6.04816705e-006 -6.04816705e-006
      -6.04816705e-006 -6.04816705e-006 -6.04816705e-006
      -6.04816705e-006 -6.04816705e-006 -6.04816705e-006
      -6.04816705e-006 -6.04816705e-006 -6.04816705e-006
      -6.04816705e-006 -6.04816705e-006 -6.04816705e-006
      -6.04816705e-006 -6.04816705e-006 -6.04816705e-006
      -6.04816705e-006 -6.04816705e-006 -6.04816705e-006
      -6.04816705e-006 -6.04816705e-006 -6.04816705e-006
      -6.04816705e-006 -6.04816705e-006 -6.04816705e-006
      -6.04816705e-006 -6.04816705e-006 -6.04816705e-006
      -6.04816705e-006 -6.04816705e-006 -1.30269364e-005 6.30705415e-007
      7.67959045e-006 9.93048616e-006 1.42629833e-005 1.10322417e-005
      4.99987118e-006 1.25427996e-005 9.09962910e-006 9.09962910e-006
      9.09962910e-006 9.09962910e-006 9.09962910e-006 9.09962910e-006
      9.09962910e-006 9.09962910e-006 9.09962910e-006 9.09962910e-006
      9.09962910e-006 9.09962910e-006 9.09962910e-006 9.09962910e-006
      9.09962910e-006 9.09962910e-006 9.09962910e-006 9.09962910e-006
      9.09962910e-006 9.09962910e-006 9.09962910e-006 9.09962910e-006
      9.09962910e-006 9.09962910e-006 1.42457156e-005 4.44954730e-006
      1.43416373e-005 9.00188661e-006 7.67837537e-006 1.77683105e-005
      2.27830824e-005 1.44696105e-005 2.08381662e-005 2.08381662e-005
      2.08381662e-005 2.08381662e-005 2.08381662e-005 2.08381662e-005
      2.08381662e-005 2.08381662e-005 2.08381662e-005 2.08381662e-005
      2.08381662e-005 2.08381662e-005 2.08381662e-005 2.08381662e-005
      2.08381662e-005 2.08381662e-005 2.08381662e-005 2.08381662e-005
      2.08381662e-005 2.08381662e-005 2.08381662e-005 2.08381662e-005
      2.08381662e-005 2.08381662e-005 1.67395228e-005 3.17661288e-005
      1.86887519e-005 2.47661155e-005 2.08600504e-005 1.89193142e-005
      2.55425966e-005 -4.25905528e-005 -4.69616862e-005 -4.69616862e-005
      -4.69616862e-005 -4.69616862e-005 -4.69616862e-005
      -4.69616862e-005 -4.69616862e-005 -4.69616862e-005
      -4.69616862e-005 -4.69616862e-005 -4.69616862e-005
      -4.69616862e-005 -4.69616862e-005 -4.69616862e-005
      -4.69616862e-005 -4.69616862e-005 -4.69616862e-005
      -4.69616862e-005 -4.69616862e-005 -4.69616862e-005
      -4.69616862e-005 -4.69616862e-005 -4.69616862e-005
      -4.69616862e-005 -4.69616862e-005 -4.69616862e-005
      -4.69616862e-005 -4.69616862e-005 -4.69616862e-005
      -4.69616862e-005 -4.69616862e-005 -4.69616862e-005
      -8.25253119e-006 -8.25253119e-006 -8.25253119e-006
      -8.25253119e-006 -8.25253119e-006 -8.25253119e-006
      -8.25253119e-006 -8.25253119e-006 -8.25253119e-006
      -8.25253119e-006 -8.25253119e-006 -8.25253119e-006
      -8.25253119e-006 -8.25253119e-006 -8.25253119e-006
      -8.25253119e-006 -8.25253119e-006 -8.25253119e-006
      -8.25253119e-006 -8.25253119e-006 -8.25253119e-006
      -8.25253119e-006 -8.25253119e-006 -8.25253119e-006
      -8.25253119e-006 -8.25253119e-006 -8.25253119e-006
      -8.25253119e-006 -8.25253119e-006 -8.25253119e-006
      -8.25253119e-006 -8.25253119e-006 -7.76012985e-006
      -7.76012985e-006 -7.76012985e-006 -7.76012985e-006
      -7.76012985e-006 -7.76012985e-006 -7.76012985e-006
      -7.76012985e-006 -7.76012985e-006 -7.76012985e-006
      -7.76012985e-006 -7.76012985e-006 -7.76012985e-006
      -7.76012985e-006 -7.76012985e-006 -7.76012985e-006
      -7.76012985e-006 -7.76012985e-006 -7.76012985e-006
      -7.76012985e-006 -7.76012985e-006 -7.76012985e-006
      -7.76012985e-006 -7.76012985e-006 -7.87014596e-006
      -6.06229742e-006 -5.58683860e-006 -6.01382726e-006
      -7.65011373e-006 -1.14727673e-005 -9.50643243e-006
      -4.15750856e-006 -7.76012985e-006 -7.76012985e-006
      -7.76012985e-006 -7.76012985e-006 -7.76012985e-006
      -7.76012985e-006 -7.76012985e-006 -7.76012985e-006
      -7.76012985e-006 -7.76012985e-006 -7.76012985e-006
      -7.76012985e-006 -7.76012985e-006 -7.76012985e-006
      -7.76012985e-006 -7.76012985e-006 -7.76012985e-006
      -7.76012985e-006 -7.76012985e-006 -7.76012985e-006
      -7.76012985e-006 -7.76012985e-006 -7.76012985e-006
      -7.76012985e-006 2.39591691e-006 -9.03497858e-006 -7.49811579e-006
      -8.51923960e-006 6.94082347e-009 -1.57728336e-005 5.65498749e-006
      -1.01676924e-005 -4.30889258e-006 -4.30889258e-006
      -4.30889258e-006 -4.30889258e-006 -4.30889258e-006
      -4.30889258e-006 -4.30889258e-006 -4.30889258e-006
      -4.30889258e-006 -4.30889258e-006 -4.30889258e-006
      -4.30889258e-006 -4.30889258e-006 -4.30889258e-006
      -4.30889258e-006 -4.30889258e-006 -4.30889258e-006
      -4.30889258e-006 -4.30889258e-006 -4.30889258e-006
      -4.30889258e-006 -4.30889258e-006 -4.30889258e-006
      -4.30889258e-006 -5.85119915e-006 -8.67370636e-006 7.62911384e-007
      -3.15944794e-006 -4.54583005e-006 -5.07438926e-006
      -6.71449470e-006 -5.35763411e-006 -8.16444572e-006
      -6.95149765e-006 -8.56876159e-006 -7.35581398e-006
      -7.35581398e-006 -8.56876159e-006 -6.95149765e-006
      -8.16444572e-006 -1.00449997e-005 -6.95149765e-006
      -8.56876159e-006 -5.47525997e-006 -5.47525997e-006
      -8.56876159e-006 -8.83205121e-006 -1.00449997e-005
      -5.47525997e-006 -1.00449997e-005 -7.76012985e-006
      -8.16444572e-006 -4.40333861e-006 -9.64068386e-006
      -4.40333861e-006 -1.11169211e-005 -6.95149765e-006
      -7.35581398e-006 -8.56876159e-006 -7.35581398e-006
      -8.16444572e-006 -6.95149765e-006 -8.16444572e-006
      -8.16444572e-006 -7.35581398e-006 -8.16444572e-006
      -6.95149765e-006 -7.35581398e-006 -8.16444572e-006
      -7.76012985e-006 -8.16444572e-006 -7.76012985e-006
      -7.76012985e-006 -8.16444572e-006 -7.76012985e-006
      -6.54718178e-006 -8.97307837e-006 -6.95149765e-006
      -8.56876159e-006 -7.35581398e-006 -4.20470860e-006 4.63568940e-005
      7.84431104e-005 7.34281348e-005 7.22466211e-005 7.31899563e-005
      6.48362548e-005 7.03764163e-005 6.75963893e-005 6.75963893e-005
      6.75963893e-005 6.75963893e-005 6.75963893e-005 6.75963893e-005
      6.75963893e-005 6.75963893e-005 6.75963893e-005 6.75963893e-005
      6.75963893e-005 6.75963893e-005 6.75963893e-005 6.75963893e-005
      6.75963893e-005 6.75963893e-005 5.76582170e-005 6.62198581e-005
      6.85926934e-005 1.35360402e-004 1.42355813e-004 1.40103963e-004
      1.30937857e-004 1.49646439e-004 1.36555289e-004 1.36555289e-004
      1.36555289e-004 1.36555289e-004 1.36555289e-004 1.36555289e-004
      1.36555289e-004 1.36555289e-004 1.36555289e-004 1.36555289e-004
      1.36555289e-004 1.36555289e-004 1.36555289e-004 1.36555289e-004
      1.36555289e-004 1.36555289e-004 1.34113725e-004 1.42511344e-004
      1.56464157e-004 1.29160311e-004 1.83703542e-005 -8.50646484e-006
      6.95918015e-006 1.39168651e-005 6.15807130e-006 6.15807130e-006
      6.15807130e-006 6.15807130e-006 6.15807130e-006 6.15807130e-006
      6.15807130e-006 6.15807130e-006 6.15807130e-006 6.15807130e-006
      6.15807130e-006 6.15807130e-006 6.15807130e-006 6.15807130e-006
      6.15807130e-006 6.15807130e-006 5.43067790e-006 6.66975029e-006
      6.20453920e-006 1.07351971e-005 -1.12918733e-005 -6.85598570e-006
      -7.60159946e-006 -6.28689395e-006 -7.76012985e-006
      -7.76012985e-006 -7.76012985e-006 -7.76012985e-006
      -7.76012985e-006 -7.76012985e-006 -7.76012985e-006
      -7.76012985e-006 -7.76012985e-006 -7.76012985e-006
      -7.76012985e-006 -7.76012985e-006 -7.76012985e-006
      -7.76012985e-006 -7.76012985e-006 -7.76012985e-006
      -7.46682917e-006 -7.76012985e-006 -9.79973265e-006
      -4.71987460e-006 -7.17352896e-006 -6.46617718e-006
      -9.48163415e-006 -5.45202420e-006 -7.76012985e-006
      -7.76012985e-006 -7.76012985e-006 -7.76012985e-006
      -7.76012985e-006 -7.76012985e-006 -7.76012985e-006
      -7.76012985e-006 -7.76012985e-006 -7.76012985e-006
      -7.76012985e-006 -7.76012985e-006 -7.76012985e-006
      -7.76012985e-006 -7.76012985e-006 -7.76012985e-006
      -6.56453085e-006 -1.50272926e-005 -7.31329578e-007
      -1.25302881e-006 -8.77208095e-006 4.02085197e-006 -7.11467919e-006
      -7.84592032e-007 -4.30889258e-006 -4.30889258e-006
      -4.30889258e-006 -4.30889258e-006 -4.30889258e-006
      -4.30889258e-006 -4.30889258e-006 -4.30889258e-006
      -2.50414359e-006 -4.21386767e-006 -1.03896864e-005
      -1.51723748e-006 -5.98305633e-006 -7.36397305e-006 1.26325415e-006
      -8.70898020e-006 -7.76012985e-006 -7.76012985e-006
      -9.64068386e-006 -9.64068386e-006 -9.64068386e-006
      -7.76012985e-006 -5.87957629e-006 -5.87957629e-006
      -5.87957629e-006 -5.87957629e-006 -7.76012985e-006
      -7.76012985e-006 -7.76012985e-006 -7.76012985e-006
      -7.76012985e-006 -7.76012985e-006 -1.23036407e-005
      -5.85969201e-006 1.15678245e-004 1.23968042e-004 1.25130435e-004
      1.23865771e-004 1.21301717e-004 1.26114959e-004 1.22697224e-004
      1.24577782e-004 1.26458341e-004 1.26458341e-004 1.24577782e-004
      1.22697224e-004 1.24577782e-004 1.24577782e-004 1.32975925e-004
      1.10617759e-004 1.37750627e-004 1.24868180e-004 1.23531936e-004
      1.42188828e-005 7.41815256e-006 1.43120278e-005 1.14826889e-005
      1.14826889e-005 1.14826889e-005 1.14826889e-005 1.14826889e-005
      1.14826889e-005 1.14826889e-005 1.14826889e-005 7.88428497e-006
      8.68538700e-006 2.49458344e-006 4.91170795e-006 1.75546138e-005
      2.25889780e-005 5.85925727e-006 8.34918683e-006 -5.12102088e-006
      -3.24161124e-006 -7.40302130e-006 -3.01139607e-006
      -5.63700314e-006 1.15405644e-004 1.16675394e-004 -1.62825791e-006
      -5.29225235e-006 -9.05450361e-006 -5.29339650e-006
      -7.17395005e-006 1.17171665e-004 1.16771364e-004 1.17286203e-004
      -3.79572248e-006 1.57787697e-004 1.57787697e-004 1.57787697e-004
      1.57787697e-004 1.57787697e-004 1.57787697e-004 1.57787697e-004
      1.57787697e-004 1.57787697e-004 1.57787697e-004 1.57787697e-004
      1.57787697e-004 1.57787697e-004 1.57787697e-004 1.57787697e-004
      1.57787697e-004 -7.75491644e-005 -7.75491644e-005 -7.75491644e-005
      -7.75491644e-005 -7.75491644e-005 -7.75491644e-005
      -7.75491644e-005 -7.75491644e-005 -8.46726616e-005
      -5.37172418e-005 -8.20261557e-005 -8.31132566e-005
      -9.11813258e-005 -9.10877789e-005 -8.96500496e-005
      -8.95606536e-006 -7.76012985e-006 -7.76012985e-006
      -7.76012985e-006 -7.76012985e-006 -7.76012985e-006
      -7.76012985e-006 -7.76012985e-006 -7.76012985e-006
      -1.21615012e-005 -2.91998981e-006 -5.80301776e-006
      -1.64361597e-006 -7.02950047e-006 -2.58506770e-006
      -3.57738190e-006 -3.08998438e-006 -3.78260961e-006
      -3.78260961e-006 -3.78260961e-006 -3.78260961e-006
      -3.78260961e-006 -3.78260961e-006 -3.78260961e-006
      -3.78260961e-006 -8.75518890e-006 -4.39147288e-006
      -9.14170596e-006 -3.92039692e-006 -1.82103122e-006 2.20163088e-006
      -7.05675166e-006 -6.30091108e-006 -8.08756795e-006
      -9.73095575e-006 -6.75085630e-006 -3.57402860e-006
      -4.90365755e-006 6.32166166e-006 3.27956077e-005 3.93276387e-005
      3.44834334e-005 2.62539616e-005 2.59095923e-005 2.64896498e-005
      2.55832329e-005 2.70153650e-005 2.50575176e-005 2.67253363e-005
      3.45430599e-005 -2.66756833e-005 -2.36531250e-005 -2.47165390e-005
      -2.40764894e-005 -3.02980116e-005 -4.11786241e-005
      -1.72962809e-005 -3.09223651e-005 -1.51774293e-005
      -3.68979890e-005 -1.77335969e-005 -1.99209735e-005
      -1.85716090e-005 -2.53873241e-005 -2.18969890e-005
      -1.15949151e-005 -2.43710947e-005 -2.72556754e-005
      -3.00171941e-005 2.07450285e-005 1.57376435e-005 1.39629619e-005
      5.01476461e-006 1.16328474e-005 1.17659702e-005 1.09000957e-005
      2.25927906e-005 -7.64848373e-005 -6.36415425e-005 -6.65887055e-005
      -6.47900597e-005 -7.44275021e-005 -6.62041784e-005
      -5.87144023e-005 -3.56243909e-005 -2.77613071e-005
      -2.05331089e-005 -3.21250591e-005 -2.03883283e-005
      -4.24280624e-005 -1.73316437e-006 6.75598631e-006 -1.17541431e-005
      -5.66325025e-006 5.46853698e-007 -6.37898165e-006 -1.11128202e-005
      -4.41116026e-006 -1.35522514e-005 -2.30633203e-004
      -2.12474319e-004 -2.37500208e-004 -7.38464078e-005
      -5.97053877e-005 4.74369881e-005 -4.26454135e-005 -4.26454135e-005
      -4.26454135e-005 -4.26454135e-005 -4.26454135e-005
      -4.26454135e-005 -4.26454135e-005 -4.26454135e-005
      -4.26454135e-005 -4.26454135e-005 -4.26454135e-005
      -4.26454135e-005 -4.26454135e-005 -4.26454135e-005
      -4.26454135e-005 -4.26454135e-005 -4.26454135e-005
      -4.26454135e-005 -4.26454135e-005 -4.26454135e-005
      -4.26454135e-005 -4.26454135e-005 -4.26454135e-005
      -4.26454135e-005 -4.26454135e-005 -4.26454135e-005
      -4.26454135e-005 -4.26454135e-005 -4.26454135e-005
      -4.26454135e-005 -4.26454135e-005 -4.26454135e-005
      -4.26454135e-005 -4.26454135e-005 -4.26454135e-005
      -4.26454135e-005 -4.26454135e-005 -4.26454135e-005
      -4.26454135e-005 -4.26454135e-005 -4.26454135e-005
      -4.26454135e-005 -4.26454135e-005 -4.26454135e-005
      -4.26454135e-005 -4.26454135e-005 -4.26454135e-005
      -4.26454135e-005 -4.26454135e-005 -4.26454135e-005
      -4.26454135e-005 -4.26454135e-005 -4.26454135e-005
      -4.26454135e-005 -4.26454135e-005 -4.26454135e-005
      -4.64350014e-005 -2.12016603e-005 -5.35969120e-005
      -4.54721412e-005 -3.26224581e-005 -5.42954185e-005
      -4.18102572e-005 -1.58607963e-005 -1.71587362e-005
      -1.71587362e-005 -1.71587362e-005 -1.71587362e-005
      -1.71587362e-005 -1.71587362e-005 -1.71587362e-005
      -1.71587362e-005 -1.71587362e-005 -1.71587362e-005
      -1.71587362e-005 -1.71587362e-005 -1.71587362e-005
      -1.71587362e-005 -1.71587362e-005 -1.71587362e-005
      -1.71587362e-005 -1.71587362e-005 -1.71587362e-005
      -1.71587362e-005 -1.71587362e-005 -1.71587362e-005
      -1.71587362e-005 -1.71587362e-005 -1.71587362e-005
      -1.71587362e-005 -1.71587362e-005 -1.71587362e-005
      -1.71587362e-005 -1.71587362e-005 -1.71587362e-005
      -1.71587362e-005 -1.71587362e-005 -1.71587362e-005
      -1.71587362e-005 -1.71587362e-005 -1.71587362e-005
      -1.71587362e-005 -1.71587362e-005 -1.71587362e-005
      -1.71587362e-005 -1.71587362e-005 -1.71587362e-005
      -1.71587362e-005 -1.71587362e-005 -1.71587362e-005
      -1.71587362e-005 -1.71587362e-005 -1.71587362e-005
      -1.71587362e-005 -1.71587362e-005 -1.71587362e-005
      -1.71587362e-005 -1.71587362e-005 -1.71587362e-005
      -1.71587362e-005 -1.75582973e-005 -3.31522278e-005
      -2.20457196e-006 -2.31170343e-005 -1.27066787e-005
      -9.44029398e-006 -2.60542729e-005 -1.94495005e-005
      -1.77619022e-005 -1.77619022e-005 -1.77619022e-005
      -1.77619022e-005 -1.77619022e-005 -1.77619022e-005
      -1.77619022e-005 -1.77619022e-005 -1.77619022e-005
      -1.77619022e-005 -1.77619022e-005 -1.77619022e-005
      -1.77619022e-005 -1.77619022e-005 -1.77619022e-005
      -1.77619022e-005 -1.77619022e-005 -1.77619022e-005
      -1.77619022e-005 -1.77619022e-005 -1.77619022e-005
      -1.77619022e-005 -1.77619022e-005 -1.77619022e-005
      -1.77619022e-005 -1.77619022e-005 -1.77619022e-005
      -1.77619022e-005 -1.77619022e-005 -1.77619022e-005
      -1.77619022e-005 -1.77619022e-005 -1.77619022e-005
      -1.77619022e-005 -1.77619022e-005 -1.77619022e-005
      -1.77619022e-005 -1.77619022e-005 -1.77619022e-005
      -1.77619022e-005 -1.77619022e-005 -1.77619022e-005
      -1.77619022e-005 -1.77619022e-005 -1.77619022e-005
      -1.77619022e-005 -1.77619022e-005 -1.77619022e-005
      -1.77619022e-005 -1.77619022e-005 -1.77619022e-005
      -1.77619022e-005 -1.77619022e-005 -1.77619022e-005
      -1.77619022e-005 -1.77619022e-005 -2.00740669e-005
      -1.46927023e-005 -1.55398914e-006 -5.14326621e-006 1.68816018e-006
      -1.63481291e-005 3.53206951e-006 -6.94921346e-006 -2.76488890e-006
      -2.76488890e-006 -2.76488890e-006 -2.76488890e-006
      -2.76488890e-006 -2.76488890e-006 -2.76488890e-006
      -2.76488890e-006 -2.76488890e-006 -2.76488890e-006
      -2.76488890e-006 -2.76488890e-006 -2.76488890e-006
      -2.76488890e-006 -2.76488890e-006 -2.76488890e-006
      -2.76488890e-006 -2.76488890e-006 -2.76488890e-006
      -2.76488890e-006 -2.76488890e-006 -2.76488890e-006
      -2.76488890e-006 -2.76488890e-006 -2.76488890e-006
      -2.76488890e-006 -2.76488890e-006 -2.76488890e-006
      -2.76488890e-006 -2.76488890e-006 -2.76488890e-006
      -2.76488890e-006 -2.76488890e-006 -2.76488890e-006
      -2.76488890e-006 -2.76488890e-006 -2.76488890e-006
      -2.76488890e-006 -2.76488890e-006 -2.76488890e-006
      -2.76488890e-006 -2.76488890e-006 -2.76488890e-006
      -2.76488890e-006 -2.76488890e-006 -2.76488890e-006
      -2.76488890e-006 -2.76488890e-006 -3.06837114e-006
      -3.54685267e-006 1.69624082e-006 -3.92099446e-006 -2.70643710e-007
      -9.31263276e-006 1.92450898e-005 1.37291590e-005 1.41507762e-005
      1.41507762e-005 1.41507762e-005 1.41507762e-005 1.41507762e-005
      1.41507762e-005 1.41507762e-005 1.41507762e-005 1.41507762e-005
      1.41507762e-005 1.41507762e-005 1.41507762e-005 1.41507762e-005
      1.41507762e-005 1.41507762e-005 1.41507762e-005 1.41507762e-005
      1.41507762e-005 1.41507762e-005 1.41507762e-005 1.41507762e-005
      1.41507762e-005 1.41507762e-005 1.41507762e-005 1.41507762e-005
      1.41507762e-005 1.41507762e-005 1.41507762e-005 1.41507762e-005
      1.41507762e-005 1.41507762e-005 1.41507762e-005 1.41507762e-005
      1.41507762e-005 1.41507762e-005 1.41507762e-005 1.41507762e-005
      1.41507762e-005 1.41507762e-005 1.41507762e-005 1.41507762e-005
      1.41507762e-005 1.41507762e-005 1.41507762e-005 1.41507762e-005
      1.41507762e-005 1.41507762e-005 1.41507762e-005 1.41507762e-005
      1.41507762e-005 1.41507762e-005 1.41507762e-005 1.41507762e-005
      1.41507762e-005 1.41507762e-005 1.41507762e-005 1.50659143e-005
      5.11815888e-005 4.45405058e-005 6.75129122e-005 5.02398361e-005
      5.82998837e-005 5.03659467e-005 6.93465263e-005 5.86039969e-005
      5.88105759e-005 5.88105759e-005 5.85007037e-005 5.85322232e-005
      5.88420953e-005 5.86039969e-005 5.82626053e-005 5.74090809e-005
      5.83658984e-005 5.88736111e-005 5.83658984e-005 5.88420953e-005
      5.75713784e-005 5.66073140e-005 5.72355057e-005 5.86039969e-005
      5.86039969e-005 5.86039969e-005 5.86039969e-005 5.86039969e-005
      5.86039969e-005 5.86039969e-005 5.86039969e-005 5.86039969e-005
      5.85724774e-005 5.87388022e-005 5.86039969e-005 5.86039969e-005
      5.87388022e-005 5.85724774e-005 5.86039969e-005 5.84691879e-005
      6.00685235e-005 5.86757669e-005 5.85724774e-005 6.00536659e-005
      6.05298628e-005 6.19070925e-005 6.17232872e-005 5.86039969e-005
      5.86039969e-005 5.86039969e-005 5.97673898e-005 5.97673898e-005
      5.86039969e-005 5.74406004e-005 5.74406004e-005 5.01197173e-005
      6.83913240e-005 5.98770748e-005 4.54659566e-005 6.09794261e-005
      4.87691905e-005 4.04474231e-005 3.43652282e-005 4.99061498e-005
      4.97223482e-005 4.93896987e-005 5.00409587e-005 4.94929882e-005
      4.97310866e-005 4.94299529e-005 4.98974114e-005 4.97310866e-005
      4.99691851e-005 4.94929882e-005 4.97310866e-005 4.97626061e-005
      4.98343761e-005 4.95962777e-005 4.97310866e-005 4.97310866e-005
      4.97310866e-005 4.97310866e-005 4.97310866e-005 4.97310866e-005
      4.97310866e-005 4.97310866e-005 4.97310866e-005 4.98343761e-005
      4.93896987e-005 4.96277971e-005 5.00322203e-005 4.90167913e-005
      5.03420924e-005 4.94299529e-005 5.00409587e-005 4.98658956e-005
      4.98343761e-005 4.94614724e-005 4.98658956e-005 4.97626061e-005
      4.97310866e-005 5.00724746e-005 4.94929882e-005 4.97310866e-005
      4.97310866e-005 4.97310866e-005 4.97310866e-005 4.97310866e-005
      4.97310866e-005 4.97310866e-005 4.97310866e-005 5.20981303e-005
      4.67410973e-005 5.01788527e-005 5.26614713e-005 1.01223141e-005
      9.70131259e-006 1.58893909e-005 8.79510026e-006 1.36775343e-005
      1.36775343e-005 1.36775343e-005 1.36775343e-005 1.36775343e-005
      1.36775343e-005 1.36775343e-005 1.36775343e-005 1.36775343e-005
      1.36775343e-005 1.36775343e-005 1.36775343e-005 1.36775343e-005
      1.36775343e-005 1.36775343e-005 1.36775343e-005 1.36775343e-005
      1.36775343e-005 1.36775343e-005 1.36775343e-005 1.36775343e-005
      1.36775343e-005 1.36775343e-005 1.36775343e-005 1.36775343e-005
      1.36775343e-005 1.36775343e-005 1.36775343e-005 1.36775343e-005
      1.36775343e-005 1.36775343e-005 1.36775343e-005 1.36775343e-005
      1.36775343e-005 1.36775343e-005 1.36775343e-005 1.36775343e-005
      1.36775343e-005 1.36775343e-005 1.36775343e-005 1.36775343e-005
      1.36775343e-005 1.36775343e-005 1.36775343e-005 1.36775343e-005
      1.36775343e-005 1.36775343e-005 1.36775343e-005 1.48844410e-005
      2.47335574e-005 9.88490592e-006 5.31331307e-006 2.33818300e-005
      1.55993621e-005 8.40100893e-006 1.16344181e-005 1.26805298e-005
      1.26805298e-005 1.26805298e-005 1.26805298e-005 1.26805298e-005
      1.26805298e-005 1.26805298e-005 1.26805298e-005 1.26805298e-005
      1.26805298e-005 1.26805298e-005 1.26805298e-005 1.26805298e-005
      1.26805298e-005 1.26805298e-005 1.26805298e-005 1.26805298e-005
      1.26805298e-005 1.26805298e-005 1.26805298e-005 1.26805298e-005
      1.26805298e-005 1.26805298e-005 1.26805298e-005 1.26805298e-005
      1.26805298e-005 1.26805298e-005 1.26805298e-005 1.26805298e-005
      1.26805298e-005 1.26805298e-005 1.26805298e-005 1.26805298e-005
      1.26805298e-005 1.26805298e-005 1.26805298e-005 1.26805298e-005
      1.26805298e-005 1.26805298e-005 1.26805298e-005 1.26805298e-005
      1.26805298e-005 1.26805298e-005 1.26805298e-005 1.26805298e-005
      1.26805298e-005 1.26805298e-005 1.26805298e-005 2.20737766e-005
      1.06390416e-005 1.00406623e-005 3.96627598e-007 -3.75876311e-006
      -7.18727733e-006 -8.16918146e-007 -4.89049035e-006
      -2.76488890e-006 -2.76488890e-006 -2.76488890e-006
      -2.76488890e-006 -2.76488890e-006 -2.76488890e-006
      -2.76488890e-006 -2.76488890e-006 -2.76488890e-006
      -2.76488890e-006 -2.76488890e-006 -2.76488890e-006
      -2.76488890e-006 -2.76488890e-006 -2.76488890e-006
      -2.76488890e-006 -2.76488890e-006 -2.76488890e-006
      -2.76488890e-006 -2.76488890e-006 -2.76488890e-006
      -2.76488890e-006 -2.76488890e-006 -2.76488890e-006
      -2.76488890e-006 -2.76488890e-006 -2.76488890e-006
      -2.76488890e-006 -2.76488890e-006 -2.76488890e-006
      -2.76488890e-006 -2.76488890e-006 -2.76488890e-006
      -2.76488890e-006 -2.76488890e-006 -2.76488890e-006
      -2.76488890e-006 -2.76488890e-006 -2.76488890e-006
      -2.76488890e-006 -2.76488890e-006 -2.76488890e-006
      -2.76488890e-006 -2.76488890e-006 -2.76488890e-006
      -2.76488890e-006 -2.76488890e-006 -2.76488890e-006
      -3.26086092e-006 -9.56966505e-006 -1.78528426e-005
      -1.12679090e-005 3.13081205e-006 -3.86323291e-006 -1.45049362e-005
      3.54641884e-006 -5.89388173e-006 -5.89388173e-006 -5.89388173e-006
      -5.89388173e-006 -5.89388173e-006 -5.89388173e-006
      -5.89388173e-006 -5.89388173e-006 -7.38272820e-006
      -7.04483136e-006 -6.01423790e-006 -5.65316986e-006
      -5.15405372e-006 -5.25123824e-006 -5.22806704e-006
      -5.95638130e-006 -5.89388173e-006 -5.89388173e-006
      -5.89388173e-006 -5.89388173e-006 -5.89388173e-006
      -5.89388173e-006 -5.89388173e-006 -5.89388173e-006
      -2.39396763e-006 -5.01052637e-006 -5.37159440e-006
      -4.47826096e-006 -5.10771088e-006 -5.85919724e-006
      -5.13088253e-006 -2.27361147e-006 -5.89388173e-006
      -5.89388173e-006 -5.89388173e-006 -5.89388173e-006
      -5.89388173e-006 -5.89388173e-006 -5.89388173e-006
      -5.89388173e-006 -5.14515568e-006 -3.90596915e-006
      -4.67590439e-007 -7.77096193e-006 -7.54588791e-006
      -1.53364508e-005 8.55531744e-006 1.26816485e-005 1.12597527e-005
      1.12597527e-005 1.12597527e-005 1.12597527e-005 1.12597527e-005
      1.12597527e-005 1.12597527e-005 1.12597527e-005 1.12597527e-005
      1.12597527e-005 1.12597527e-005 1.12597527e-005 1.12597527e-005
      1.12597527e-005 1.12597527e-005 1.12597527e-005 1.12597527e-005
      1.12597527e-005 1.12597527e-005 1.12597527e-005 1.12597527e-005
      1.12597527e-005 1.12597527e-005 1.12597527e-005 1.12597527e-005
      1.12597527e-005 1.12597527e-005 1.12597527e-005 1.12597527e-005
      1.12597527e-005 1.12597527e-005 1.12597527e-005 1.12597527e-005
      1.12597527e-005 1.12597527e-005 1.12597527e-005 1.12597527e-005
      1.12597527e-005 1.12597527e-005 1.12597527e-005 1.12597527e-005
      1.12597527e-005 1.12597527e-005 1.12597527e-005 1.12597527e-005
      1.12597527e-005 1.12597527e-005 1.12597527e-005 9.83434529e-006
      -1.69573996e-005 -4.55251029e-005 -7.05549828e-005
      -7.69235339e-005 -6.36822806e-005 -7.76817760e-005
      -6.72825045e-005 -6.96621646e-005 -6.96621646e-005
      -6.96621646e-005 -6.96621646e-005 -6.96621646e-005
      -6.96621646e-005 -6.96621646e-005 -6.96621646e-005
      -6.96621646e-005 -6.96621646e-005 -6.96621646e-005
      -6.96621646e-005 -6.96621646e-005 -6.96621646e-005
      -6.96621646e-005 -6.96621646e-005 -6.96621646e-005
      -6.96621646e-005 -6.96621646e-005 -6.96621646e-005
      -6.96621646e-005 -6.96621646e-005 -6.96621646e-005
      -6.96621646e-005 -6.96621646e-005 -6.96621646e-005
      -6.96621646e-005 -6.96621646e-005 -6.96621646e-005
      -6.96621646e-005 -6.96621646e-005 -6.96621646e-005
      -6.96621646e-005 -6.96621646e-005 -6.96621646e-005
      -6.96621646e-005 -6.96621646e-005 -6.96621646e-005
      -6.96621646e-005 -6.96621646e-005 -8.28358316e-005
      -6.03415538e-005 -5.91100397e-005 -7.67728852e-005
      -6.70781737e-005 -3.09050010e-005 -8.83188659e-006
      -2.93743014e-005 -1.77619022e-005 -1.77619022e-005
      -1.77619022e-005 -1.77619022e-005 -1.77619022e-005
      -1.77619022e-005 -1.77619022e-005 -1.77619022e-005
      -1.77619022e-005 -1.77619022e-005 -1.77619022e-005
      -1.77619022e-005 -1.77619022e-005 -1.77619022e-005
      -1.77619022e-005 -1.77619022e-005 -1.77619022e-005
      -1.77619022e-005 -1.77619022e-005 -1.77619022e-005
      -1.77619022e-005 -1.77619022e-005 -1.77619022e-005
      -1.77619022e-005 -1.77619022e-005 -1.77619022e-005
      -1.77619022e-005 -1.77619022e-005 -1.77619022e-005
      -1.77619022e-005 -1.77619022e-005 -1.77619022e-005
      -1.77619022e-005 -1.77619022e-005 -1.77619022e-005
      -1.77619022e-005 -1.77619022e-005 -1.77619022e-005
      -1.77619022e-005 -1.77619022e-005 -1.76947287e-005
      -1.89244311e-005 -2.62068006e-005 -1.61348016e-005
      -5.38654513e-006 -2.54916886e-005 -1.35642758e-005 3.57356585e-005
      4.27582017e-005 4.27582017e-005 4.27582017e-005 4.27582017e-005
      4.27582017e-005 4.27582017e-005 4.27582017e-005 4.27582017e-005
      4.27582017e-005 4.27582017e-005 4.27582017e-005 4.27582017e-005
      4.27582017e-005 4.27582017e-005 4.27582017e-005 4.27582017e-005
      4.27582017e-005 4.27582017e-005 4.27582017e-005 4.27582017e-005
      4.27582017e-005 4.27582017e-005 4.27582017e-005 4.27582017e-005
      4.27582017e-005 4.27582017e-005 4.27582017e-005 4.27582017e-005
      4.27582017e-005 4.27582017e-005 4.27582017e-005 4.27582017e-005
      4.27582017e-005 4.27582017e-005 4.27582017e-005 4.27582017e-005
      4.27582017e-005 4.27582017e-005 4.27582017e-005 4.27582017e-005
      4.27582017e-005 4.27582017e-005 4.27582017e-005 4.27582017e-005
      4.27582017e-005 4.27582017e-005 4.27582017e-005 4.27582017e-005
      7.84244185e-006 7.84244185e-006 7.84244185e-006 7.84244185e-006
      7.84244185e-006 7.84244185e-006 7.84244185e-006 7.84244185e-006
      7.84244185e-006 9.00583746e-006 6.67904578e-006 9.00583746e-006
      6.67904578e-006 9.00583746e-006 7.84244185e-006 9.00583746e-006
      7.84244185e-006 7.84244185e-006 7.84244185e-006 7.84244185e-006
      7.84244185e-006 7.84244185e-006 7.84244185e-006 7.84244185e-006
      7.84244185e-006 7.84244185e-006 7.84244185e-006 7.84244185e-006
      7.84244185e-006 7.84244185e-006 9.00583746e-006 7.84244185e-006
      7.84244185e-006 7.84244185e-006 7.84244185e-006 7.84244185e-006
      7.84244185e-006 7.84244185e-006 7.84244185e-006 7.84244185e-006
      9.00583746e-006 7.84244185e-006 7.84244185e-006 7.84244185e-006
      7.84244185e-006 6.67904578e-006 7.84244185e-006 9.00583746e-006
      -2.76488890e-006 -2.76488890e-006 -2.76488890e-006
      -2.76488890e-006 -2.76488890e-006 -2.76488890e-006
      -2.76488890e-006 -2.76488890e-006 -2.76488890e-006
      -2.76488890e-006 -2.76488890e-006 -2.76488890e-006
      -2.76488890e-006 -2.76488890e-006 -2.76488890e-006
      -2.76488890e-006 -2.76488890e-006 -2.76488890e-006
      -2.76488890e-006 -2.76488890e-006 -2.76488890e-006
      -2.76488890e-006 -2.76488890e-006 -2.76488890e-006
      -2.76488890e-006 -2.76488890e-006 -2.76488890e-006
      -2.76488890e-006 -2.76488890e-006 -2.76488890e-006
      -2.76488890e-006 -2.76488890e-006 -2.76488890e-006
      -2.76488890e-006 -2.76488890e-006 -2.76488890e-006
      -2.76488890e-006 -2.76488890e-006 -2.76488890e-006
      -2.76488890e-006 -3.61961020e-006 8.39783752e-006 -1.68162351e-005
      -9.40140490e-006 -2.20503034e-006 8.77853745e-006 -1.09081629e-005
      -5.87736358e-005 -5.93195291e-005 -5.93195291e-005
      -5.93195291e-005 -5.93195291e-005 -5.93195291e-005
      -5.93195291e-005 -5.93195291e-005 -5.93195291e-005
      -5.93195291e-005 -5.93195291e-005 -5.93195291e-005
      -5.93195291e-005 -5.93195291e-005 -5.93195291e-005
      -5.93195291e-005 -5.93195291e-005 -5.93195291e-005
      -5.93195291e-005 -5.93195291e-005 -5.93195291e-005
      -5.93195291e-005 -5.93195291e-005 -5.93195291e-005
      -5.93195291e-005 -5.93195291e-005 -5.93195291e-005
      -5.93195291e-005 -5.93195291e-005 -5.93195291e-005
      -5.93195291e-005 -5.93195291e-005 -5.93195291e-005
      -5.93195291e-005 -5.93195291e-005 -5.93195291e-005
      -5.93195291e-005 -5.93195291e-005 -5.93195291e-005
      -5.93195291e-005 -5.93195291e-005 -5.43089991e-005
      -5.73336401e-005 -4.70131999e-005 -6.88484361e-005
      -4.92009094e-005 8.01938586e-006 1.94050481e-005 1.72735815e-006
      1.42850276e-005 1.42850276e-005 1.42850276e-005 1.42850276e-005
      1.42850276e-005 1.42850276e-005 1.42850276e-005 1.42850276e-005
      1.42850276e-005 1.42850276e-005 1.42850276e-005 1.42850276e-005
      1.42850276e-005 1.42850276e-005 1.42850276e-005 1.42850276e-005
      1.42850276e-005 1.42850276e-005 1.42850276e-005 1.42850276e-005
      1.42850276e-005 1.42850276e-005 1.42850276e-005 1.42850276e-005
      1.42850276e-005 1.42850276e-005 1.42850276e-005 1.42850276e-005
      1.42850276e-005 1.42850276e-005 1.42850276e-005 1.42850276e-005
      1.42850276e-005 1.42850276e-005 1.42850276e-005 1.42850276e-005
      1.42850276e-005 1.42850276e-005 1.42850276e-005 1.42850276e-005
      1.80770858e-005 2.00148770e-005 -2.10974831e-005 -1.53633100e-005
      -1.79133112e-005 -1.52209614e-005 -7.68473092e-006
      -1.02759868e-005 -1.71587362e-005 -1.71587362e-005
      -1.71587362e-005 -1.71587362e-005 -1.71587362e-005
      -1.71587362e-005 -1.71587362e-005 -1.71587362e-005
      -1.71587362e-005 -1.71587362e-005 -1.71587362e-005
      -1.71587362e-005 -1.71587362e-005 -1.71587362e-005
      -1.71587362e-005 -1.71587362e-005 -1.71587362e-005
      -1.71587362e-005 -1.71587362e-005 -1.71587362e-005
      -1.71587362e-005 -1.71587362e-005 -1.71587362e-005
      -1.71587362e-005 -1.71587362e-005 -1.71587362e-005
      -1.71587362e-005 -1.71587362e-005 -1.71587362e-005
      -1.71587362e-005 -1.71587362e-005 -1.71587362e-005
      -8.83889243e-006 -1.19247807e-005 -1.43356228e-005
      -1.86556299e-005 -1.58755938e-005 -2.45962274e-005 4.56573935e-006
      -1.17651894e-006 -2.76488890e-006 -2.76488890e-006
      -2.76488890e-006 -2.76488890e-006 -2.76488890e-006
      -2.76488890e-006 -2.76488890e-006 -2.76488890e-006
      -2.76488890e-006 -2.76488890e-006 -2.76488890e-006
      -2.76488890e-006 -2.76488890e-006 -2.76488890e-006
      -2.76488890e-006 -2.76488890e-006 -2.76488890e-006
      -2.76488890e-006 -2.76488890e-006 -2.76488890e-006
      -2.76488890e-006 -2.76488890e-006 -2.76488890e-006
      -2.76488890e-006 -2.76488890e-006 -2.76488890e-006
      -2.76488890e-006 -2.76488890e-006 -2.76488890e-006
      -2.76488890e-006 -2.76488890e-006 -2.76488890e-006
      -2.76488890e-006 -2.76488890e-006 -2.76488890e-006
      -2.76488890e-006 -2.76488890e-006 -2.76488890e-006
      -2.76488890e-006 -2.76488890e-006 -9.40175414e-006 6.66166534e-006
      -2.29568414e-007 1.40344873e-005 -4.32747993e-006 7.70201586e-006
      1.80015249e-005 1.43350098e-006 6.85164787e-006 6.85164787e-006
      6.85164787e-006 5.73207080e-006 5.73207080e-006 5.73207080e-006
      5.73207080e-006 5.73207080e-006 5.73207080e-006 5.73207080e-006
      5.73207080e-006 5.73207080e-006 5.73207080e-006 5.73207080e-006
      5.73207080e-006 5.73207080e-006 5.49135893e-006 5.97278313e-006
      5.73207080e-006 5.85242697e-006 5.73207080e-006 5.61171510e-006
      5.85242697e-006 5.61171510e-006 5.73207080e-006 5.73207080e-006
      5.73207080e-006 5.73207080e-006 5.73207080e-006 5.73207080e-006
      5.73207080e-006 5.73207080e-006 5.93489904e-006 6.25502298e-006
      1.52721841e-005 -1.99126453e-006 -8.44654915e-006 -1.08168808e-006
      4.27797158e-006 -1.31695006e-005 -2.76488890e-006 -2.76488890e-006
      -2.76488890e-006 -2.76488890e-006 -2.76488890e-006
      -2.76488890e-006 -2.76488890e-006 -2.76488890e-006
      -2.76488890e-006 -2.76488890e-006 -2.76488890e-006
      -2.76488890e-006 -2.76488890e-006 -2.76488890e-006
      -2.76488890e-006 -2.76488890e-006 -2.76488890e-006
      -2.76488890e-006 -2.76488890e-006 -2.76488890e-006
      -2.76488890e-006 -2.76488890e-006 -2.76488890e-006
      -2.76488890e-006 -2.76488890e-006 -2.76488890e-006
      -2.76488890e-006 -2.76488890e-006 -2.76488890e-006
      -2.76488890e-006 -2.76488890e-006 -2.76488890e-006
      -4.33622944e-007 -4.36506525e-006 -3.79831340e-006 2.54062502e-006
      1.55474936e-005 1.74130073e-005 2.00537688e-005 1.81105916e-005
      2.06914665e-005 2.06914665e-005 2.06914665e-005 2.06914665e-005
      2.06914665e-005 2.06914665e-005 2.06914665e-005 2.06914665e-005
      2.06914665e-005 2.06914665e-005 2.06914665e-005 2.06914665e-005
      2.06914665e-005 2.06914665e-005 2.06914665e-005 2.06914665e-005
      2.06914665e-005 2.06914665e-005 2.06914665e-005 2.06914665e-005
      2.06914665e-005 2.06914665e-005 2.06914665e-005 2.06914665e-005
      2.06914665e-005 2.06914665e-005 2.06914665e-005 2.06914665e-005
      2.06914665e-005 2.06914665e-005 2.06914665e-005 2.06914665e-005
      1.81363976e-005 2.31741105e-005 2.23540901e-005 1.91398285e-005
      -1.90977262e-005 -1.80877887e-005 -2.06345849e-005
      -1.58079620e-005 -2.07011562e-005 -2.07011562e-005
      -2.07011562e-005 -2.07011562e-005 -2.07011562e-005
      -2.07011562e-005 -2.07011562e-005 -2.07011562e-005
      -2.07011562e-005 -2.07011562e-005 -2.07011562e-005
      -2.07011562e-005 -2.07011562e-005 -2.07011562e-005
      -2.07011562e-005 -2.07011562e-005 -1.99381575e-005
      -1.99381575e-005 -1.99381575e-005 -1.99381575e-005
      -1.99381575e-005 -1.99381575e-005 -1.81470987e-005
      -1.81470987e-005 -2.07011562e-005 -2.07011562e-005
      -2.07011562e-005 -2.07011562e-005 -2.07011562e-005
      -2.07011562e-005 -2.07011562e-005 -2.07011562e-005
      -1.90018109e-005 -2.38870925e-005 -1.87353235e-005 3.81719547e-005
      2.78959214e-005 2.88470856e-005 1.84879482e-005 3.52557472e-005
      3.14367680e-005 3.14367680e-005 3.14367680e-005 3.14367680e-005
      3.14367680e-005 3.14367680e-005 3.14367680e-005 3.14367680e-005
      3.14367680e-005 3.14367680e-005 3.14367680e-005 3.14367680e-005
      3.14367680e-005 3.14367680e-005 3.14367680e-005 3.14367680e-005
      3.14367680e-005 3.14367680e-005 3.14367680e-005 3.14367680e-005
      3.14367680e-005 3.14367680e-005 3.14367680e-005 3.14367680e-005
      3.14367680e-005 3.14367680e-005 3.14367680e-005 3.14367680e-005
      3.14367680e-005 3.14367680e-005 3.14367680e-005 3.14367680e-005
      3.44371656e-005 -9.75055882e-005 -1.00059930e-004 -9.92957575e-005
      -8.66925329e-005 -1.07195556e-004 -9.96578092e-005
      -1.06309039e-004 -1.02166785e-004 -1.02166785e-004
      -1.02166785e-004 -1.02166785e-004 -1.02166785e-004
      -1.02166785e-004 -1.02166785e-004 -1.02166785e-004
      -1.02166785e-004 -1.02166785e-004 -1.02166785e-004
      -1.02166785e-004 -1.02166785e-004 -1.02166785e-004
      -1.02166785e-004 -1.02166785e-004 -1.02166785e-004
      -1.02166785e-004 -1.02166785e-004 -1.02166785e-004
      -1.02166785e-004 -1.02166785e-004 -1.02166785e-004
      -1.02166785e-004 -9.48602683e-005 -9.92986388e-005
      -1.02040001e-004 -9.78430471e-005 -1.08341927e-004
      -1.11098016e-004 4.84143311e-005 2.92545592e-005 3.50243899e-005
      3.50243899e-005 3.50243899e-005 3.50243899e-005 3.50243899e-005
      3.50243899e-005 3.50243899e-005 3.50243899e-005 3.50243899e-005
      3.50243899e-005 3.50243899e-005 3.50243899e-005 3.50243899e-005
      3.50243899e-005 3.50243899e-005 3.50243899e-005 3.50243899e-005
      3.50243899e-005 3.50243899e-005 3.50243899e-005 3.50243899e-005
      3.50243899e-005 3.50243899e-005 3.50243899e-005 3.50243899e-005
      3.50243899e-005 3.50243899e-005 3.50243899e-005 3.50243899e-005
      3.50243899e-005 3.50243899e-005 3.50243899e-005 2.68280164e-005
      4.99420457e-005 -5.52794008e-005 -3.81222380e-005 -3.78416735e-005
      -4.78491129e-005 -4.12767695e-005 -4.55938534e-005
      -4.48304309e-005 -4.48304309e-005 -4.48304309e-005
      -4.48304309e-005 -4.48304309e-005 -4.48304309e-005
      -4.48304309e-005 -4.48304309e-005 -4.48304309e-005
      -4.48304309e-005 -4.48304309e-005 -4.48304309e-005
      -4.48304309e-005 -4.48304309e-005 -4.48304309e-005
      -4.48304309e-005 -4.48304309e-005 -4.48304309e-005
      -4.48304309e-005 -4.48304309e-005 -4.48304309e-005
      -4.48304309e-005 -4.48304309e-005 -4.48304309e-005
      -4.25118778e-005 -3.63769577e-005 -2.90763019e-005
      -6.01166066e-005 -4.74935405e-005 4.00597892e-005 5.46957999e-005
      3.23937238e-005 4.25768776e-005 4.25768776e-005 4.25768776e-005
      4.25768776e-005 4.25768776e-005 4.25768776e-005 4.25768776e-005
      4.25768776e-005 4.25768776e-005 4.25768776e-005 4.25768776e-005
      4.25768776e-005 4.25768776e-005 4.25768776e-005 4.25768776e-005
      4.25768776e-005 4.25768776e-005 4.25768776e-005 4.25768776e-005
      4.25768776e-005 4.25768776e-005 4.25768776e-005 4.25768776e-005
      4.25768776e-005 2.41872149e-005 5.49478500e-005 3.97775839e-005
      3.96900032e-005 4.11709880e-005 3.23782260e-005 5.55995393e-005
      8.43167727e-005 8.89919538e-005 8.89919538e-005 8.89919538e-005
      8.89919538e-005 8.89919538e-005 8.89919538e-005 8.89919538e-005
      8.89919538e-005 8.89919538e-005 8.89919538e-005 8.89919538e-005
      8.89919538e-005 8.89919538e-005 8.89919538e-005 8.89919538e-005
      8.89919538e-005 8.89919538e-005 8.89919538e-005 8.89919538e-005
      8.89919538e-005 8.89919538e-005 8.89919538e-005 8.89919538e-005
      8.89919538e-005 8.89919538e-005 8.89919538e-005 8.89919538e-005
      8.89919538e-005 8.89919538e-005 8.89919538e-005 8.89919538e-005
      8.89919538e-005 1.03529828e-005 1.03529828e-005 1.03529828e-005
      1.03529828e-005 1.03529828e-005 1.03529828e-005 1.03529828e-005
      1.03529828e-005 1.03529828e-005 1.03529828e-005 1.03529828e-005
      1.03529828e-005 1.03529828e-005 1.03529828e-005 1.15163784e-005
      1.03529828e-005 1.03529828e-005 1.03529828e-005 1.03529828e-005
      1.03529828e-005 1.03529828e-005 1.03529828e-005 1.03529828e-005
      1.03529828e-005 1.15163784e-005 1.03529828e-005 1.03529828e-005
      1.03529828e-005 1.03529828e-005 9.18958722e-006 1.03529828e-005
      1.15163784e-005 -5.30603829e-005 -5.30603829e-005 -5.30603829e-005
      -5.30603829e-005 -5.30603829e-005 -5.30603829e-005
      -5.30603829e-005 -5.30603829e-005 -5.30603829e-005
      -5.30603829e-005 -5.30603829e-005 -5.30603829e-005
      -5.30603829e-005 -5.30603829e-005 -5.30603829e-005
      -5.30603829e-005 -5.30603829e-005 -5.30603829e-005
      -5.30603829e-005 -5.30603829e-005 -5.30603829e-005
      -5.30603829e-005 -5.30603829e-005 -5.30603829e-005
      -5.64089751e-005 -4.25280195e-005 -4.17923293e-005
      -6.28682756e-005 -5.34910978e-005 -5.55244769e-005
      -4.86946446e-005 -2.25723056e-006 -2.76488890e-006
      -2.76488890e-006 -2.76488890e-006 -2.76488890e-006
      -2.76488890e-006 -2.76488890e-006 -2.76488890e-006
      -2.76488890e-006 -2.76488890e-006 -2.76488890e-006
      -2.76488890e-006 -2.76488890e-006 -2.76488890e-006
      -2.76488890e-006 -2.76488890e-006 -2.76488890e-006
      -2.76488890e-006 -2.76488890e-006 -2.76488890e-006
      -2.76488890e-006 -2.76488890e-006 -2.76488890e-006
      -2.76488890e-006 -2.76488890e-006 -3.36384574e-006
      -4.16504872e-006 -5.90732043e-006 -2.78371033e-007
      -3.14280351e-006 6.30558861e-006 4.42108649e-006 4.02309115e-006
      5.82719531e-006 5.82719531e-006 5.82719531e-006 5.82719531e-006
      5.82719531e-006 5.82719531e-006 5.82719531e-006 5.82719531e-006
      4.66379970e-006 4.88133992e-006 6.04473553e-006 6.99059092e-006
      6.55551003e-006 5.60965464e-006 5.82719531e-006 6.04473553e-006
      5.60965464e-006 6.04473553e-006 5.60965464e-006 5.82719531e-006
      6.26227620e-006 5.60965464e-006 6.99059092e-006 6.04473553e-006
      3.78557252e-006 1.18474782e-005 -5.54005874e-006 -4.14277253e-007
      -2.85438523e-006 -5.19502464e-006 -1.96346855e-006 1.29023169e-006
      -2.76488890e-006 -2.76488890e-006 -2.76488890e-006
      -2.76488890e-006 -2.76488890e-006 -2.76488890e-006
      -2.76488890e-006 -2.76488890e-006 -2.76488890e-006
      -2.76488890e-006 -2.76488890e-006 -2.76488890e-006
      -2.76488890e-006 -2.76488890e-006 -2.76488890e-006
      -2.76488890e-006 9.10802191e-006 -4.12950067e-006 2.30839896e-006
      8.98723101e-006 -7.01159615e-006 -2.33155424e-005 -1.28610027e-005
      -5.06934848e-005 -3.64917032e-005 -3.64917032e-005
      -3.64917032e-005 -3.64917032e-005 -3.64917032e-005
      -3.64917032e-005 -3.64917032e-005 -3.64917032e-005
      -3.64917032e-005 -3.64917032e-005 -3.64917032e-005
      -3.64917032e-005 -3.64917032e-005 -3.64917032e-005
      -3.64917032e-005 -3.64917032e-005 -3.64917032e-005
      -3.64917032e-005 -3.64917032e-005 -3.64917032e-005
      -3.64917032e-005 -3.64917032e-005 -3.64917032e-005
      -3.64917032e-005 -3.04998630e-005 6.08763112e-005 1.05156490e-004
      8.62965462e-005 8.91383243e-005 8.51064688e-005 8.36071704e-005
      8.00032067e-005 8.89919538e-005 8.89919538e-005 8.89919538e-005
      8.89919538e-005 8.89919538e-005 8.89919538e-005 8.89919538e-005
      8.89919538e-005 8.89919538e-005 8.89919538e-005 8.89919538e-005
      8.89919538e-005 8.89919538e-005 8.89919538e-005 8.89919538e-005
      8.89919538e-005 9.45288994e-005 8.79937506e-005 8.22716975e-005
      1.43535421e-004 1.52013119e-004 1.45564758e-004 1.32907429e-004
      1.61199903e-004 1.48905732e-004 1.48303952e-004 1.49026077e-004
      1.48303952e-004 1.48785373e-004 1.48665014e-004 1.48905732e-004
      1.48544656e-004 1.47902014e-004 1.47902014e-004 1.47902014e-004
      1.47902014e-004 1.47902014e-004 1.47902014e-004 1.47902014e-004
      1.47902014e-004 1.55016663e-004 1.49546104e-004 1.40943317e-004
      1.59713440e-004 8.06402313e-005 1.02476348e-004 9.19175072e-005
      8.17740438e-005 8.89919538e-005 8.89919538e-005 8.89919538e-005
      8.89919538e-005 8.89919538e-005 8.89919538e-005 8.89919538e-005
      8.89919538e-005 8.89919538e-005 8.89919538e-005 8.89919538e-005
      8.89919538e-005 8.89919538e-005 8.89919538e-005 8.89919538e-005
      8.89919538e-005 8.29732817e-005 8.36761101e-005 9.32783369e-005
      9.32027106e-005 4.05021274e-006 4.84034535e-006 1.58959538e-005
      1.69342857e-005 1.36775343e-005 1.36775343e-005 1.36775343e-005
      1.36775343e-005 1.36775343e-005 1.36775343e-005 1.36775343e-005
      1.36775343e-005 1.36775343e-005 1.36775343e-005 1.36775343e-005
      1.36775343e-005 1.36775343e-005 1.36775343e-005 1.36775343e-005
      1.36775343e-005 2.07383109e-005 3.72222439e-006 5.79468087e-006
      7.58380884e-006 -8.14743635e-006 -1.32073797e-006 -1.18901180e-005
      -2.73445335e-006 -2.76488890e-006 -2.76488890e-006
      -2.76488890e-006 -2.76488890e-006 -2.76488890e-006
      -2.76488890e-006 -2.76488890e-006 -2.76488890e-006
      -2.76488890e-006 -2.76488890e-006 -2.76488890e-006
      -2.76488890e-006 -2.76488890e-006 -2.76488890e-006
      -2.76488890e-006 -2.76488890e-006 -2.05117431e-006 2.11116185e-005
      1.19707020e-005 9.68965287e-006 1.76507674e-005 1.53148776e-005
      1.70995863e-005 1.14441900e-005 1.41507762e-005 1.41507762e-005
      1.41507762e-005 1.41507762e-005 1.41507762e-005 1.41507762e-005
      1.41507762e-005 1.41507762e-005 1.71444699e-005 1.41096461e-005
      1.29677728e-005 1.68500119e-005 7.63326807e-006 1.57001250e-005
      2.68347721e-005 3.14275276e-005 2.94770653e-005 2.94770653e-005
      2.94770653e-005 2.94770653e-005 2.94770653e-005 2.94770653e-005
      2.94770653e-005 2.94770653e-005 2.94770653e-005 2.94770653e-005
      2.94770653e-005 2.94770653e-005 2.94770653e-005 2.94770653e-005
      2.94770653e-005 2.94770653e-005 3.89795787e-005 2.84105008e-005
      -3.17686208e-005 -4.52474596e-005 -4.08176493e-005
      -5.09364290e-005 -4.10720531e-005 -4.17729316e-005
      -4.26454135e-005 -4.26454135e-005 -4.26454135e-005
      -4.26454135e-005 -4.26454135e-005 -4.26454135e-005
      -4.26454135e-005 -4.26454135e-005 -4.29628381e-005
      -4.08196611e-005 -4.18494565e-005 -4.31291737e-005
      -3.75930722e-005 1.62642934e-007 1.67606522e-005 1.13958613e-005
      9.28891586e-006 9.28891586e-006 9.28891586e-006 9.28891586e-006
      9.28891586e-006 9.28891586e-006 9.28891586e-006 9.28891586e-006
      2.51939377e-006 1.82085896e-005 1.28172669e-005 1.93005853e-005
      1.95378234e-005 3.05477329e-006 1.40461734e-005 -1.45607875e-004
      -1.37713068e-004 -1.37713068e-004 -1.37713068e-004
      -1.37713068e-004 -1.37713068e-004 -1.37713068e-004
      -1.37713068e-004 -1.37713068e-004 -1.37713068e-004
      -1.37713068e-004 -1.37713068e-004 -1.37713068e-004
      -1.37713068e-004 -1.37713068e-004 -1.37713068e-004
      -1.37713068e-004 1.03529828e-005 1.03529828e-005 1.03529828e-005
      1.03529828e-005 1.03529828e-005 1.03529828e-005 1.03529828e-005
      1.03529828e-005 1.03529828e-005 1.03529828e-005 1.03529828e-005
      1.03529828e-005 1.03529828e-005 1.03529828e-005 1.03529828e-005
      1.03529828e-005 1.26805298e-005 1.26805298e-005 1.26805298e-005
      1.26805298e-005 1.26805298e-005 1.26805298e-005 1.26805298e-005
      1.26805298e-005 2.21416230e-005 1.87438909e-005 1.01735088e-006
      1.31048446e-005 8.84269411e-006 2.73278397e-006 1.56223305e-005
      1.59522751e-004 1.55760426e-004 1.55760426e-004 1.55760426e-004
      1.55760426e-004 1.55760426e-004 1.55760426e-004 1.55760426e-004
      1.55760426e-004 1.57902221e-004 1.62761164e-004 1.62677636e-004
      1.61606877e-004 1.54906214e-004 1.54260069e-005 -1.09306138e-005
      -1.41666192e-006 -2.76488890e-006 -2.76488890e-006
      -2.76488890e-006 -2.76488890e-006 -2.76488890e-006
      -2.76488890e-006 -2.76488890e-006 -2.76488890e-006
      -8.65850234e-006 4.04435377e-006 -1.61246935e-005 -9.07115918e-006
      -7.05476168e-006 -1.23595592e-005 -7.84825988e-006
      -7.73548163e-006 -7.73548163e-006 -8.03559033e-006
      -1.24799153e-005 -7.54977827e-006 -8.88382965e-006
      -1.62507858e-005 4.36593518e-006 -8.10436632e-006 -2.76488890e-006
      -2.76488890e-006 -2.76488890e-006 -2.76488890e-006
      -2.76488890e-006 -2.76488890e-006 -2.76488890e-006
      -2.76488890e-006 -3.49578750e-006 5.24142069e-006 2.79313753e-007
      1.08658105e-005 1.44085025e-005 3.15368152e-006 7.89701062e-006
      1.69031027e-005 1.17037262e-005 -5.95592667e-007 8.61488934e-006
      -4.17183219e-006 9.63465936e-006 -9.27440215e-006 -8.92246226e-006
      2.16610829e-006 -2.69256390e-007 -1.28129323e-005 3.99569353e-006
      1.47194814e-005 -1.12149098e-006 9.72215821e-006 2.65189483e-005
      1.59076462e-005 1.49260823e-005 2.18618443e-005 1.01637697e-005
      5.24919233e-006 2.17076704e-005 1.63147215e-005 5.78678100e-006
      1.35251221e-005 8.30517365e-006 1.20919376e-005 9.70900965e-006
      1.31393981e-005 1.08948552e-005 1.37478446e-005 1.65051861e-005
      8.96640358e-006 1.06823545e-005 -1.17525313e-004 -1.32695714e-004
      -1.26871557e-004 -1.33893700e-004 -1.36054616e-004
      -6.61702961e-006 2.39340134e-005 1.65871461e-005 6.51981054e-006
      7.62972850e-005 6.41466904e-005 8.26670876e-005 1.21495405e-005
      -1.80307452e-005 -2.05179065e-004</_></support_vectors>
  <decision_functions>
    <_>
      <sv_count>1</sv_count>
      <rho>2.1258717301296040e-002</rho>
      <alpha>
        1.</alpha>
      <index>
        0</index></_></decision_functions></my_svm>
</opencv_storage>
