<?xml version="1.0"?>
<opencv_storage>
<my_svm type_id="opencv-ml-svm">
  <svm_type>C_SVC</svm_type>
  <kernel><type>LINEAR</type></kernel>
  <C>1.</C>
  <term_criteria><epsilon>2.2204460492503131e-016</epsilon>
    <iterations>100</iterations></term_criteria>
  <var_all>4544</var_all>
  <var_count>4544</var_count>
  <class_count>2</class_count>
  <class_labels type_id="opencv-matrix">
    <rows>1</rows>
    <cols>2</cols>
    <dt>i</dt>
    <data>
      7 255</data></class_labels>
  <sv_total>1</sv_total>
  <support_vectors>
    <_>
      1.43041837e-006 1.43041837e-006 -6.93610673e-007 -5.91524611e-007
      -6.77027117e-007 -7.51539517e-007 6.45516934e-007 6.45516934e-007
      1.26761529e-006 8.08473075e-008 -9.61641263e-007 -2.35380980e-006
      -9.61641263e-007 -1.53703536e-006 -1.98689477e-007 6.78714002e-007
      -1.40465190e-007 -1.40465190e-007 0. -4.93216419e-007
      3.76704605e-007 4.95926713e-007 3.55461509e-007 2.70751400e-007
      -8.47101163e-008 -8.47101163e-008 -1.00195189e-006
      -9.17241721e-007 -4.21315036e-007 -4.21315036e-007 4.95926713e-007
      4.95926713e-007 4.61245492e-007 4.61245492e-007 1.03663956e-006 0.
      0. 0. -5.75394097e-007 -1.44531509e-006 0. 0. 0. 0. 0. 0. 0.
      -1.00802872e-007 -1.81558892e-006 -9.45667921e-007
      -1.00802872e-007 0. 0. 0. 0. 0. 0. 0. 0. 0. 0. 0. 0. 0. 0. 0.
      -1.46361765e-006 0. 0. 0. 0. 0. 0. 0. 0. 0. 0. -8.47101163e-008
      -8.47101163e-008 -8.47101163e-008 0. 0. 0. 0. 0. 0. 0. 0. 0. 0. 0.
      0. 0. 0. 0. 0. 4.95926713e-007 4.95926713e-007 0. 0. 0. 0.
      8.65761820e-007 8.65761820e-007 0. 0. 0. -5.75394097e-007
      -5.75394097e-007 0. 0. 0. 0. 8.88737929e-007 1.00796001e-006
      1.00796001e-006 0. 0. 0. 2.44565149e-006 0. 0. 0. 0. 0. 0. 0. 0.
      0. 0. 0. 0. 0. 0. 0. 0. 0. 0. 0. 0. 0. 0. 0. 0. 0. 0. 0. 0. 0. 0.
      0. 0. 0. 0. 0. 0. 0. 0. 0. 0. 0. 0. 0. 0. 0. 0. 0. 0. 0. 0. 0. 0.
      0. 0. 0. 0. 0. 0. 0. 0. 0. 0. 0. 0. 0. 0. 0. 0. 0. 0. 0. 0. 0. 0.
      0. 0. 0. 0. 0. 0. 0. 0. 0. 0. 0. 0. 0. 0. 0. 0. 0. 0. 0. 0. 0. 0.
      0. 0. 0. 0. 0. 0. 0. 0. 0. 0. 0. 0. 0. 0. 0. 0. 0. 0. 0. 0. 0. 0.
      0. 0. 0. 0. 0. 0. 0. 0. 0. 0. 0. 0. 0. 0. 0. 0. 0. 0.
      1.29076466e-006 -7.21863103e-007 -2.05291599e-006 -8.46514070e-007
      8.74002126e-007 2.80515769e-006 4.60425554e-006 2.71725889e-006
      -4.74888884e-006 -3.23226027e-006 -3.41819714e-006
      -1.52631333e-006 6.60594196e-007 -3.87172143e-008 2.63034190e-006
      -2.21726779e-007 -1.61647677e-007 -9.18161561e-007
      -5.87564159e-007 -6.58622469e-007 -1.58000273e-006
      -2.77154618e-006 -1.33264405e-006 -2.58682007e-006
      -3.76895377e-006 -4.41742668e-006 -5.51909488e-006
      -3.70557063e-006 -1.62620256e-006 -1.03713546e-006
      -1.78376979e-006 1.02930676e-006 -5.96177756e-007 -3.11375084e-006
      -2.63512197e-006 -4.65065568e-006 -2.07893868e-006
      -1.44817579e-006 -1.43713164e-009 -7.09367896e-007 2.64995697e-006
      -3.07047372e-007 -8.24977917e-007 -4.31373292e-006
      -5.71372948e-006 -3.41675059e-006 -1.54961981e-006
      -1.31004697e-006 -3.61072762e-006 -2.66611892e-006
      -4.24709742e-006 -5.77703759e-006 -5.50604318e-006
      -6.45056389e-007 -2.66920119e-006 -3.23133395e-006 7.14139901e-007
      5.64863967e-007 -6.79765790e-008 -4.91230708e-007 6.51502319e-007
      3.52610277e-006 2.24969199e-006 9.05500713e-007 3.90715559e-006
      1.82948884e-006 3.90697869e-006 -1.45159038e-006 -1.99867372e-006
      1.97136785e-007 3.63339996e-006 5.33011007e-006 -2.28233807e-006
      2.39921235e-007 -9.81167076e-008 -3.47929245e-006 -2.63226616e-006
      1.68893052e-006 1.27819601e-006 8.36762581e-007 2.55063901e-006
      3.77075366e-006 3.60679746e-006 3.09098459e-006 -2.70572923e-006
      3.20013470e-007 -1.40804264e-006 -2.03743843e-006 -3.18515390e-006
      -1.69436316e-006 -2.98191537e-007 1.93843152e-006 5.77392757e-006
      1.81096880e-006 3.67823745e-008 -2.00989712e-006 -1.86676652e-006
      1.02937356e-007 -1.47144362e-006 6.82735731e-007 8.82253460e-007
      4.49030449e-006 4.17974752e-006 2.92318123e-006 5.84779684e-007
      2.37154563e-006 3.49485845e-006 9.19240563e-007 -1.02218689e-006
      -1.10177700e-006 -2.15427440e-006 -5.25501719e-007 4.69852580e-007
      1.10154804e-006 1.10154804e-006 1.46098228e-006 7.82358541e-007
      2.31668764e-006 6.57848091e-007 -2.16554000e-007 9.42170288e-007
      5.43423141e-007 1.41334419e-006 -3.03249550e-007 -3.03249550e-007
      -6.09537878e-008 -5.80656035e-007 7.51931054e-007 4.16376679e-007
      -1.03450486e-006 -2.18856553e-006 6.03886463e-007 3.44939940e-006
      2.75339471e-006 -1.14539269e-007 -3.41651003e-006 7.85011238e-008
      1.14425939e-006 4.34909180e-006 1.29781677e-006 -2.74925185e-007
      -7.67048277e-007 -1.77764093e-006 -7.31958266e-007 7.83445330e-007
      1.23540508e-006 8.61799606e-007 -2.22534823e-006 -2.09359996e-006
      -3.02204654e-007 -2.09464901e-007 -2.95012853e-007
      -1.70374426e-006 2.85526471e-006 2.46329796e-006 2.04415485e-007
      -8.93502516e-008 -1.33349113e-006 -1.41131773e-006
      -9.57328325e-007 -2.39031397e-006 1.25809356e-006 1.17497382e-006
      -3.06763383e-007 -1.48003255e-006 -2.50204130e-006
      -2.54559563e-006 2.94862787e-007 8.23087760e-007 -8.82263521e-007
      1.56587328e-006 -2.47165485e-006 1.96672723e-008 4.09570134e-007
      -1.19112667e-006 -2.72135617e-006 1.62129413e-006 4.17940964e-006
      4.26725182e-006 2.52899372e-006 -9.06516902e-007 -3.26661529e-006
      9.63550590e-008 3.63168112e-007 -3.62007836e-006 -1.43190255e-006
      6.56816428e-006 5.50150162e-006 3.47881428e-006 -3.85796739e-006
      -3.58318766e-006 -1.74644970e-006 -4.57998203e-006
      -6.09671224e-006 -2.09370705e-006 -1.86269006e-006
      -1.49895385e-007 -2.37337076e-006 9.15091562e-007 1.01209218e-006
      6.60418891e-006 3.77669426e-006 3.05915978e-006 8.34809816e-006
      2.48051970e-006 -4.28824751e-006 -5.55998304e-006 -2.87356488e-006
      -3.66856830e-006 -3.55474731e-006 -3.05985282e-006
      -5.27907832e-006 2.30256478e-006 2.21490222e-006 3.62463402e-006
      3.47185437e-006 -2.75605476e-006 -6.17908086e-007 -4.07513681e-007
      -3.48039220e-009 5.30271450e-007 -5.65750668e-007 1.01375872e-006
      4.66954043e-006 1.41167766e-006 3.04580658e-006 2.69525549e-006
      1.09438258e-006 -5.17374838e-006 -2.57704573e-006 2.51531128e-006
      1.69975579e-006 3.50792516e-006 2.50027682e-007 1.86917737e-006
      2.42476722e-006 4.03586500e-006 2.15410205e-006 5.30181865e-007
      1.25315239e-006 8.70667861e-007 9.84981284e-007 2.19020663e-007
      -4.56377023e-007 -2.14882689e-007 -1.98380053e-006
      -2.06579372e-007 3.59967373e-007 9.35387959e-007 9.35387959e-007
      -1.03663956e-006 6.79954155e-007 3.03249550e-007 6.09537878e-008
      4.40190831e-007 -2.46879324e-007 -2.28106983e-005 -2.28106983e-005
      -2.28106983e-005 -2.28106983e-005 -2.28106983e-005
      -2.28106983e-005 -2.28106983e-005 -2.28106983e-005
      -2.28106983e-005 -2.28106983e-005 -2.28106983e-005
      -2.28106983e-005 -2.28106983e-005 -2.28106983e-005
      -2.28106983e-005 -2.28106983e-005 -2.28106983e-005
      -2.28106983e-005 -2.28106983e-005 -2.28106983e-005
      -2.28106983e-005 -2.28106983e-005 -2.28106983e-005
      -2.28106983e-005 -2.28106983e-005 -2.28106983e-005
      -2.28106983e-005 -2.28106983e-005 -2.28106983e-005
      -2.28106983e-005 -2.28106983e-005 -2.28106983e-005
      -2.28106983e-005 -2.28106983e-005 -2.28106983e-005
      -2.28106983e-005 -2.28106983e-005 -2.28106983e-005
      -2.28106983e-005 -2.28106983e-005 -2.28106983e-005
      -2.28106983e-005 -2.28106983e-005 -2.28106983e-005
      -2.28106983e-005 -2.28106983e-005 -2.28106983e-005
      -2.28106983e-005 -2.28106983e-005 -2.28106983e-005
      -2.28106983e-005 -2.28106983e-005 -2.28106983e-005
      -2.28106983e-005 -2.28106983e-005 -2.28106983e-005
      -1.10413112e-005 -4.02767837e-005 -2.32682942e-005
      -1.70132935e-005 -9.07515459e-006 -2.22709441e-005
      -2.57658867e-005 -2.88682095e-005 -2.52807986e-005
      -2.52807986e-005 -2.52807986e-005 -2.52807986e-005
      -2.52807986e-005 -2.52807986e-005 -2.52807986e-005
      -2.52807986e-005 -2.52807986e-005 -2.52807986e-005
      -2.52807986e-005 -2.52807986e-005 -2.52807986e-005
      -2.52807986e-005 -2.52807986e-005 -2.52807986e-005
      -2.52807986e-005 -2.52807986e-005 -2.52807986e-005
      -2.52807986e-005 -2.52807986e-005 -2.52807986e-005
      -2.52807986e-005 -2.52807986e-005 -2.52807986e-005
      -2.52807986e-005 -2.52807986e-005 -2.52807986e-005
      -2.52807986e-005 -2.52807986e-005 -2.52807986e-005
      -2.52807986e-005 -2.52807986e-005 -2.52807986e-005
      -2.52807986e-005 -2.52807986e-005 -2.52807986e-005
      -2.52807986e-005 -2.52807986e-005 -2.52807986e-005
      -2.52807986e-005 -2.52807986e-005 -2.52807986e-005
      -2.52807986e-005 -2.52807986e-005 -2.52807986e-005
      -2.52807986e-005 -2.52807986e-005 -2.52807986e-005
      -2.52807986e-005 -2.52807986e-005 -2.52807986e-005
      -2.52807986e-005 -2.52807986e-005 -2.52807986e-005
      -2.52807986e-005 -1.96594901e-005 -3.04291279e-005
      -3.24358625e-005 -2.46643631e-005 -3.02401877e-005
      -1.99136812e-005 -1.97491809e-005 -1.45444801e-005
      -1.94275817e-005 -1.94275817e-005 -1.94275817e-005
      -1.94275817e-005 -1.94275817e-005 -1.94275817e-005
      -1.94275817e-005 -1.94275817e-005 -1.94275817e-005
      -1.94275817e-005 -1.94275817e-005 -1.94275817e-005
      -1.94275817e-005 -1.94275817e-005 -1.94275817e-005
      -1.94275817e-005 -1.94275817e-005 -1.94275817e-005
      -1.94275817e-005 -1.94275817e-005 -1.94275817e-005
      -1.94275817e-005 -1.94275817e-005 -1.94275817e-005
      -1.94275817e-005 -1.94275817e-005 -1.94275817e-005
      -1.94275817e-005 -1.94275817e-005 -1.94275817e-005
      -1.94275817e-005 -1.94275817e-005 -1.94275817e-005
      -1.94275817e-005 -1.94275817e-005 -1.94275817e-005
      -1.94275817e-005 -1.94275817e-005 -1.94275817e-005
      -1.94275817e-005 -1.94275817e-005 -1.94275817e-005
      -1.94275817e-005 -1.94275817e-005 -1.94275817e-005
      -1.94275817e-005 -1.94275817e-005 -1.94275817e-005
      -1.94275817e-005 -1.94275817e-005 -1.94275817e-005
      -1.94275817e-005 -1.94275817e-005 -1.94275817e-005
      -1.94275817e-005 -1.94275817e-005 -1.85388744e-005
      -2.03162890e-005 -1.94275817e-005 -1.94275817e-005
      -1.94275817e-005 -2.12049963e-005 -1.67614580e-005
      -2.12049963e-005 -1.94275817e-005 -1.94275817e-005
      -1.94275817e-005 -1.94275817e-005 -1.94275817e-005
      -1.94275817e-005 -1.94275817e-005 -1.94275817e-005
      -1.94275817e-005 -1.94275817e-005 -1.94275817e-005
      -1.94275817e-005 -1.94275817e-005 -1.94275817e-005
      -1.94275817e-005 -1.94275817e-005 -1.94275817e-005
      -1.94275817e-005 -1.94275817e-005 -1.94275817e-005
      -1.94275817e-005 -1.94275817e-005 -1.94275817e-005
      -1.94275817e-005 -1.94275817e-005 -1.94275817e-005
      -1.94275817e-005 -1.94275817e-005 -1.94275817e-005
      -1.94275817e-005 -1.94275817e-005 -1.94275817e-005
      -1.94275817e-005 -1.94275817e-005 -1.94275817e-005
      -1.94275817e-005 -1.94275817e-005 -1.94275817e-005
      -1.94275817e-005 -1.94275817e-005 -1.94275817e-005
      -1.94275817e-005 -1.94275817e-005 -1.94275817e-005
      -1.94275817e-005 -1.94275817e-005 -1.94275817e-005
      -1.94275817e-005 -1.88156482e-005 -1.87601527e-005
      -2.01897983e-005 -1.90012015e-005 -2.07744088e-005
      -1.79009403e-005 9.63209459e-006 1.13834822e-005 1.00947391e-005
      1.00947391e-005 1.00947391e-005 1.00947391e-005 1.00947391e-005
      1.00947391e-005 1.00947391e-005 1.00947391e-005 1.00947391e-005
      1.00947391e-005 1.00947391e-005 1.00947391e-005 1.00947391e-005
      1.00947391e-005 1.00947391e-005 1.00947391e-005 1.00947391e-005
      1.00947391e-005 1.00947391e-005 1.00947391e-005 1.00947391e-005
      1.00947391e-005 1.00947391e-005 1.00947391e-005 1.00947391e-005
      1.00947391e-005 1.00947391e-005 1.00947391e-005 1.00947391e-005
      1.00947391e-005 1.00947391e-005 1.00947391e-005 1.00947391e-005
      1.00947391e-005 1.00947391e-005 1.00947391e-005 1.00947391e-005
      1.00947391e-005 1.00947391e-005 1.00947391e-005 1.00947391e-005
      1.00947391e-005 1.00947391e-005 1.00947391e-005 1.00947391e-005
      1.00947391e-005 1.00947391e-005 1.00947391e-005 1.00947391e-005
      1.00947391e-005 1.00947391e-005 1.00947391e-005 1.00947391e-005
      1.00947391e-005 1.00947391e-005 1.00947391e-005 -1.12621831e-006
      6.62934735e-006 -1.27878302e-005 -6.39018253e-006 -9.14695829e-006
      -1.30230428e-005 9.88732609e-006 -7.31200453e-006 -5.87000932e-006
      -5.87000932e-006 -5.87000932e-006 -5.87000932e-006
      -5.87000932e-006 -5.87000932e-006 -5.87000932e-006
      -5.87000932e-006 -5.87000932e-006 -5.87000932e-006
      -5.87000932e-006 -5.87000932e-006 -5.87000932e-006
      -5.87000932e-006 -5.87000932e-006 -5.87000932e-006
      -5.87000932e-006 -5.87000932e-006 -5.87000932e-006
      -5.87000932e-006 -5.87000932e-006 -5.87000932e-006
      -5.87000932e-006 -5.87000932e-006 -5.87000932e-006
      -5.87000932e-006 -5.87000932e-006 -5.87000932e-006
      -5.87000932e-006 -5.87000932e-006 -5.87000932e-006
      -5.87000932e-006 -5.87000932e-006 -5.87000932e-006
      -5.87000932e-006 -5.87000932e-006 -5.87000932e-006
      -5.87000932e-006 -5.87000932e-006 -5.87000932e-006
      -5.87000932e-006 -5.87000932e-006 -5.87000932e-006
      -5.87000932e-006 -5.87000932e-006 -5.87000932e-006
      -5.87000932e-006 -5.87000932e-006 -7.76318484e-006
      -1.71821230e-005 -2.86751265e-006 1.56657134e-005 3.10625219e-005
      3.82227081e-005 2.90395765e-005 2.57707379e-005 2.43366103e-005
      2.43366103e-005 2.43366103e-005 2.43366103e-005 2.43366103e-005
      2.43366103e-005 2.43366103e-005 2.43366103e-005 2.43366103e-005
      2.43366103e-005 2.43366103e-005 2.43366103e-005 2.43366103e-005
      2.43366103e-005 2.43366103e-005 2.43366103e-005 2.43366103e-005
      2.43366103e-005 2.43366103e-005 2.43366103e-005 2.43366103e-005
      2.43366103e-005 2.43366103e-005 2.43366103e-005 2.43366103e-005
      2.43366103e-005 2.43366103e-005 2.43366103e-005 2.43366103e-005
      2.43366103e-005 2.43366103e-005 2.43366103e-005 2.43366103e-005
      2.43366103e-005 2.43366103e-005 2.43366103e-005 2.43366103e-005
      2.43366103e-005 2.43366103e-005 2.43366103e-005 2.43366103e-005
      2.43366103e-005 2.43366103e-005 2.43366103e-005 2.43366103e-005
      2.43366103e-005 2.43366103e-005 2.43366103e-005 1.64888461e-005
      2.64232203e-005 2.34702438e-005 2.59886783e-005 -3.97501353e-005
      -3.25750116e-005 -3.40332736e-005 -2.99414332e-005
      -3.56760502e-005 -3.56760502e-005 -3.56760502e-005
      -3.56760502e-005 -3.56760502e-005 -3.56760502e-005
      -3.56760502e-005 -3.56760502e-005 -3.56760502e-005
      -3.56760502e-005 -3.56760502e-005 -3.56760502e-005
      -3.56760502e-005 -3.56760502e-005 -3.56760502e-005
      -3.56760502e-005 -3.56760502e-005 -3.56760502e-005
      -3.56760502e-005 -3.56760502e-005 -3.56760502e-005
      -3.56760502e-005 -3.56760502e-005 -3.56760502e-005
      -3.56760502e-005 -3.56760502e-005 -3.56760502e-005
      -3.56760502e-005 -3.56760502e-005 -3.56760502e-005
      -3.56760502e-005 -3.56760502e-005 -3.56760502e-005
      -3.56760502e-005 -3.56760502e-005 -3.56760502e-005
      -3.56760502e-005 -3.56760502e-005 -3.56760502e-005
      -3.56760502e-005 -3.56760502e-005 -3.56760502e-005
      -3.56760502e-005 -3.56760502e-005 -3.56760502e-005
      -3.56760502e-005 -3.56760502e-005 -3.56760502e-005
      -4.00683457e-005 -3.41691521e-005 -3.41780760e-005
      -3.30940020e-005 -4.55355657e-005 -4.77883586e-005
      -4.81599964e-005 -4.00839017e-005 -4.30324508e-005
      -4.30324508e-005 -4.30324508e-005 -4.30324508e-005
      -4.30324508e-005 -4.30324508e-005 -4.30324508e-005
      -4.30324508e-005 -4.30324508e-005 -4.30324508e-005
      -4.30324508e-005 -4.30324508e-005 -4.30324508e-005
      -4.30324508e-005 -4.30324508e-005 -4.30324508e-005
      -4.30324508e-005 -4.30324508e-005 -4.30324508e-005
      -4.30324508e-005 -4.30324508e-005 -4.30324508e-005
      -4.30324508e-005 -4.30324508e-005 -4.30324508e-005
      -4.30324508e-005 -4.30324508e-005 -4.30324508e-005
      -4.30324508e-005 -4.30324508e-005 -4.30324508e-005
      -4.30324508e-005 -4.30324508e-005 -4.30324508e-005
      -4.30324508e-005 -4.30324508e-005 -4.30324508e-005
      -4.30324508e-005 -4.30324508e-005 -4.30324508e-005
      -4.30324508e-005 -4.30324508e-005 -4.30324508e-005
      -4.30324508e-005 -4.30324508e-005 -4.30324508e-005
      -4.30324508e-005 -4.30324508e-005 -3.33919597e-005
      -3.87017535e-005 -3.19905739e-005 -2.14125921e-005
      -3.58774050e-005 -2.62188769e-005 -3.41697250e-006
      -7.55194469e-006 -1.94275817e-005 -1.94275817e-005
      -1.94275817e-005 -1.94275817e-005 -1.94275817e-005
      -1.94275817e-005 -1.94275817e-005 -1.94275817e-005
      -1.94275817e-005 -1.94275817e-005 -1.94275817e-005
      -1.94275817e-005 -1.94275817e-005 -1.94275817e-005
      -1.94275817e-005 -1.94275817e-005 -1.94275817e-005
      -1.94275817e-005 -1.94275817e-005 -1.94275817e-005
      -1.94275817e-005 -1.94275817e-005 -1.94275817e-005
      -1.94275817e-005 -1.94275817e-005 -1.94275817e-005
      -1.94275817e-005 -1.94275817e-005 -1.94275817e-005
      -1.94275817e-005 -1.94275817e-005 -1.94275817e-005
      -1.94275817e-005 -1.94275817e-005 -1.94275817e-005
      -1.94275817e-005 -1.94275817e-005 -1.94275817e-005
      -1.94275817e-005 -1.94275817e-005 -1.94275817e-005
      -1.94275817e-005 -1.94275817e-005 -1.94275817e-005
      -1.94275817e-005 -1.94275817e-005 -1.94275817e-005
      -1.94275817e-005 -1.67096277e-005 1.30613034e-005 9.74971590e-006
      1.33700523e-005 1.43951665e-005 1.83195189e-005 1.74499946e-005
      1.41030678e-005 1.58622715e-005 1.58622715e-005 1.58622715e-005
      1.58622715e-005 1.58622715e-005 1.58622715e-005 1.58622715e-005
      1.58622715e-005 1.58622715e-005 1.58622715e-005 1.58622715e-005
      1.58622715e-005 1.58622715e-005 1.58622715e-005 1.58622715e-005
      1.58622715e-005 1.58622715e-005 1.58622715e-005 1.58622715e-005
      1.58622715e-005 1.58622715e-005 1.58622715e-005 1.58622715e-005
      1.58622715e-005 1.58622715e-005 1.58622715e-005 1.58622715e-005
      1.58622715e-005 1.58622715e-005 1.58622715e-005 1.58622715e-005
      1.58622715e-005 1.58622715e-005 1.58622715e-005 1.58622715e-005
      1.58622715e-005 1.58622715e-005 1.58622715e-005 1.58622715e-005
      1.58622715e-005 1.92468069e-005 7.51038306e-006 1.99289243e-005
      1.98863327e-005 7.55178280e-006 2.47344196e-005 -1.96120727e-005
      -2.05455053e-005 -1.83909415e-005 -1.83909415e-005
      -1.83909415e-005 -1.83909415e-005 -1.83909415e-005
      -1.83909415e-005 -1.83909415e-005 -1.83909415e-005
      -1.83909415e-005 -1.83909415e-005 -1.83909415e-005
      -1.83909415e-005 -1.83909415e-005 -1.83909415e-005
      -1.83909415e-005 -1.83909415e-005 -1.83909415e-005
      -1.83909415e-005 -1.83909415e-005 -1.83909415e-005
      -1.83909415e-005 -1.83909415e-005 -1.83909415e-005
      -1.83909415e-005 -1.83909415e-005 -1.83909415e-005
      -1.83909415e-005 -1.83909415e-005 -1.83909415e-005
      -1.83909415e-005 -1.83909415e-005 -1.83909415e-005
      -1.83909415e-005 -1.83909415e-005 -1.83909415e-005
      -1.83909415e-005 -1.83909415e-005 -1.83909415e-005
      -1.83909415e-005 -1.83909415e-005 -1.83909415e-005
      -1.83909415e-005 -1.83909415e-005 -1.83909415e-005
      -1.83909415e-005 -1.83909415e-005 -1.83909415e-005
      -1.83909415e-005 -2.56711137e-005 -1.10307492e-005
      -8.59216652e-006 4.11079509e-006 -5.07639788e-006 1.80828363e-006
      -8.93529614e-006 -3.13375926e-006 -3.80210054e-006
      -3.80210054e-006 -3.80210054e-006 -3.80210054e-006
      -3.80210054e-006 -3.80210054e-006 -3.80210054e-006
      -3.80210054e-006 -3.80210054e-006 -3.80210054e-006
      -3.80210054e-006 -3.80210054e-006 -3.80210054e-006
      -3.80210054e-006 -3.80210054e-006 -3.80210054e-006
      -3.80210054e-006 -3.80210054e-006 -3.80210054e-006
      -3.80210054e-006 -3.80210054e-006 -3.80210054e-006
      -3.80210054e-006 -3.80210054e-006 -3.55588418e-006
      -3.80210054e-006 -3.80210054e-006 -4.04831644e-006
      -4.04831644e-006 -3.80210054e-006 -3.55588418e-006
      -3.55588418e-006 -3.55588418e-006 -3.80210054e-006
      -3.80210054e-006 -4.04831644e-006 -4.04831644e-006
      -3.80210054e-006 -3.55588418e-006 -3.55588418e-006
      -1.03560897e-005 -3.48096955e-006 -4.10591383e-006
      -7.86411510e-006 -3.13758210e-006 9.91872184e-006 1.17995216e-006
      3.40345650e-006 1.77437528e-006 1.77437528e-006 1.77437528e-006
      1.77437528e-006 1.77437528e-006 1.77437528e-006 1.77437528e-006
      1.77437528e-006 1.77437528e-006 1.77437528e-006 1.77437528e-006
      1.77437528e-006 1.77437528e-006 1.77437528e-006 1.77437528e-006
      1.77437528e-006 1.77437528e-006 1.77437528e-006 1.77437528e-006
      1.77437528e-006 1.77437528e-006 1.77437528e-006 1.77437528e-006
      1.77437528e-006 1.77437528e-006 1.77437528e-006 1.77437528e-006
      1.77437528e-006 1.77437528e-006 1.77437528e-006 1.77437528e-006
      1.77437528e-006 1.77437528e-006 1.77437528e-006 1.77437528e-006
      1.77437528e-006 1.77437528e-006 1.77437528e-006 1.77437528e-006
      1.77437528e-006 -1.22831716e-006 -8.15254407e-006 9.62939703e-006
      2.18714176e-005 -8.00962516e-006 -2.88403044e-006 5.30968100e-006
      3.95144089e-005 4.10346984e-005 4.10346984e-005 4.10346984e-005
      4.10346984e-005 4.10346984e-005 4.10346984e-005 4.10346984e-005
      4.10346984e-005 4.10346984e-005 4.10346984e-005 4.10346984e-005
      4.10346984e-005 4.10346984e-005 4.10346984e-005 4.10346984e-005
      4.10346984e-005 4.10346984e-005 4.10346984e-005 4.10346984e-005
      4.10346984e-005 4.10346984e-005 4.10346984e-005 4.10346984e-005
      4.10346984e-005 4.10346984e-005 4.10346984e-005 4.10346984e-005
      4.10346984e-005 4.10346984e-005 4.10346984e-005 4.10346984e-005
      4.10346984e-005 4.10346984e-005 4.10346984e-005 4.10346984e-005
      4.10346984e-005 4.10346984e-005 4.10346984e-005 4.10346984e-005
      4.10346984e-005 4.10346984e-005 4.10346984e-005 4.10346984e-005
      4.10346984e-005 4.10346984e-005 4.10346984e-005 4.10346984e-005
      4.10346984e-005 -3.46833294e-005 -3.46833294e-005 -3.46833294e-005
      -3.46833294e-005 -3.46833294e-005 -3.46833294e-005
      -3.46833294e-005 -3.46833294e-005 -3.46833294e-005
      -3.46833294e-005 -3.46833294e-005 -3.46833294e-005
      -3.46833294e-005 -3.46833294e-005 -3.46833294e-005
      -3.46833294e-005 -3.46833294e-005 -3.46833294e-005
      -3.46833294e-005 -3.46833294e-005 -3.46833294e-005
      -3.46833294e-005 -3.46833294e-005 -3.46833294e-005
      -3.46833294e-005 -3.46833294e-005 -3.46833294e-005
      -3.46833294e-005 -3.46833294e-005 -3.46833294e-005
      -3.46833294e-005 -3.46833294e-005 -3.46833294e-005
      -3.46833294e-005 -3.46833294e-005 -3.46833294e-005
      -3.46833294e-005 -3.46833294e-005 -3.46833294e-005
      -3.46833294e-005 -3.46833294e-005 -3.46833294e-005
      -3.46833294e-005 -3.46833294e-005 -3.46833294e-005
      -3.46833294e-005 -3.46833294e-005 -3.46833294e-005
      -1.94275817e-005 -1.94275817e-005 -1.94275817e-005
      -1.94275817e-005 -1.94275817e-005 -1.94275817e-005
      -1.94275817e-005 -1.94275817e-005 -1.94275817e-005
      -1.94275817e-005 -1.94275817e-005 -1.94275817e-005
      -1.94275817e-005 -1.94275817e-005 -1.94275817e-005
      -1.94275817e-005 -1.94275817e-005 -1.94275817e-005
      -1.94275817e-005 -1.94275817e-005 -1.94275817e-005
      -1.94275817e-005 -1.94275817e-005 -1.94275817e-005
      -1.94275817e-005 -1.94275817e-005 -1.94275817e-005
      -1.94275817e-005 -1.94275817e-005 -1.94275817e-005
      -1.94275817e-005 -1.94275817e-005 -1.94275817e-005
      -1.94275817e-005 -1.94275817e-005 -1.94275817e-005
      -1.94275817e-005 -1.94275817e-005 -1.94275817e-005
      -1.94275817e-005 -1.92226053e-005 -1.84643595e-005
      -1.64456615e-005 -1.86581710e-005 -1.80973566e-005
      -2.16928656e-005 -2.05957804e-005 -1.66432455e-005
      -1.94275817e-005 -1.94275817e-005 -1.94275817e-005
      -1.94275817e-005 -1.94275817e-005 -1.94275817e-005
      -1.94275817e-005 -1.94275817e-005 -1.94275817e-005
      -1.94275817e-005 -1.94275817e-005 -1.94275817e-005
      -1.94275817e-005 -1.94275817e-005 -1.94275817e-005
      -1.94275817e-005 -1.94275817e-005 -1.94275817e-005
      -1.94275817e-005 -1.94275817e-005 -1.94275817e-005
      -1.94275817e-005 -1.94275817e-005 -1.94275817e-005
      -1.94275817e-005 -1.94275817e-005 -1.94275817e-005
      -1.94275817e-005 -1.94275817e-005 -1.94275817e-005
      -1.94275817e-005 -1.94275817e-005 -1.94275817e-005
      -1.94275817e-005 -1.94275817e-005 -1.94275817e-005
      -1.94275817e-005 -1.94275817e-005 -1.94275817e-005
      -1.94275817e-005 -1.75358236e-005 -1.89467191e-005
      -1.94410404e-005 -2.23352163e-005 -1.49396337e-005
      -1.94634104e-005 -2.16738663e-005 -1.86223479e-005
      -1.94275817e-005 -1.94275817e-005 -1.94275817e-005
      -1.94275817e-005 -1.94275817e-005 -1.94275817e-005
      -1.94275817e-005 -1.94275817e-005 -1.94275817e-005
      -1.94275817e-005 -1.94275817e-005 -1.94275817e-005
      -1.94275817e-005 -1.94275817e-005 -1.94275817e-005
      -1.94275817e-005 -1.94275817e-005 -1.94275817e-005
      -1.94275817e-005 -1.94275817e-005 -1.94275817e-005
      -1.94275817e-005 -1.94275817e-005 -1.94275817e-005
      -1.94275817e-005 -1.94275817e-005 -1.94275817e-005
      -1.94275817e-005 -1.94275817e-005 -1.94275817e-005
      -1.94275817e-005 -1.94275817e-005 -1.94275817e-005
      -1.94275817e-005 -1.94275817e-005 -1.94275817e-005
      -1.94275817e-005 -1.94275817e-005 -1.94275817e-005
      -1.94275817e-005 -1.68181141e-005 -1.73492408e-005
      -2.12672549e-005 -1.49885300e-005 -2.15600903e-005
      -1.62393953e-005 -1.65001329e-005 -2.03434392e-005
      -1.94275817e-005 -1.94275817e-005 -1.94275817e-005
      -1.94275817e-005 -1.94275817e-005 -1.94275817e-005
      -1.94275817e-005 -1.94275817e-005 -1.94275817e-005
      -1.94275817e-005 -1.94275817e-005 -1.94275817e-005
      -1.94275817e-005 -1.94275817e-005 -1.94275817e-005
      -1.94275817e-005 -1.96737983e-005 -1.91813651e-005
      -1.94275817e-005 -1.94275817e-005 -1.94275817e-005
      -1.94275817e-005 -1.91813651e-005 -1.96737983e-005
      -1.96737983e-005 -1.91813651e-005 -1.94275817e-005
      -1.94275817e-005 -1.94275817e-005 -1.94275817e-005
      -1.91813651e-005 -1.96737983e-005 -2.01279636e-005
      -1.22422489e-005 -2.60028282e-005 -2.06065379e-005
      -2.42113383e-005 -1.40341263e-005 -7.00250348e-006 2.49066647e-006
      -3.74596675e-006 -3.74596675e-006 -3.74596675e-006
      -3.74596675e-006 -3.74596675e-006 -3.74596675e-006
      -3.74596675e-006 -3.74596675e-006 -3.74596675e-006
      -3.74596675e-006 -3.74596675e-006 -3.74596675e-006
      -3.74596675e-006 -3.74596675e-006 -3.74596675e-006
      -3.74596675e-006 -3.74596675e-006 -4.23839901e-006
      -3.49975062e-006 -3.25353449e-006 -3.74596675e-006
      -3.74596675e-006 -3.49975062e-006 -4.23839901e-006
      -3.74596675e-006 -4.23839901e-006 -3.49975062e-006
      -3.25353449e-006 -3.74596675e-006 -3.74596675e-006
      -3.49975062e-006 -4.23839901e-006 -3.49975062e-006
      -3.99218288e-006 -3.49975062e-006 -3.74596675e-006
      -3.99218288e-006 -3.49975062e-006 -3.49975062e-006
      -3.74596675e-006 -6.56390603e-006 3.72623726e-005 2.96215549e-005
      4.18689306e-005 2.33951032e-005 3.55359734e-005 3.52372335e-005
      3.10951582e-005 3.33539720e-005 3.33539720e-005 3.33539720e-005
      3.33539720e-005 3.33539720e-005 3.33539720e-005 3.33539720e-005
      3.33539720e-005 3.33539720e-005 3.33539720e-005 3.33539720e-005
      3.33539720e-005 3.33539720e-005 3.33539720e-005 3.33539720e-005
      3.33539720e-005 3.33539720e-005 3.33539720e-005 3.33539720e-005
      3.33539720e-005 3.33539720e-005 3.33539720e-005 3.33539720e-005
      3.33539720e-005 3.33539720e-005 3.33539720e-005 3.33539720e-005
      3.33539720e-005 3.33539720e-005 3.33539720e-005 3.33539720e-005
      3.33539720e-005 2.94796228e-005 4.38724965e-005 1.95819866e-005
      2.57574425e-006 -1.97301943e-005 -1.37413781e-005 -1.17679301e-005
      -9.91465367e-006 -1.36664521e-005 -1.36664521e-005
      -1.36664521e-005 -1.36664521e-005 -1.36664521e-005
      -1.36664521e-005 -1.36664521e-005 -1.36664521e-005
      -1.36664521e-005 -1.36664521e-005 -1.36664521e-005
      -1.36664521e-005 -1.36664521e-005 -1.36664521e-005
      -1.36664521e-005 -1.36664521e-005 -1.36664521e-005
      -1.36664521e-005 -1.36664521e-005 -1.36664521e-005
      -1.36664521e-005 -1.36664521e-005 -1.36664521e-005
      -1.36664521e-005 -1.36664521e-005 -1.36664521e-005
      -1.36664521e-005 -1.36664521e-005 -1.36664521e-005
      -1.36664521e-005 -1.36664521e-005 -1.36664521e-005
      -7.95502638e-006 -1.34519523e-005 -1.72630334e-005 2.40589520e-006
      -2.31011709e-005 -3.74071647e-006 -1.18475045e-005
      -1.27166850e-005 -1.14757313e-005 -1.14757313e-005
      -1.14757313e-005 -1.14757313e-005 -1.14757313e-005
      -1.14757313e-005 -1.14757313e-005 -1.14757313e-005
      -1.14757313e-005 -1.14757313e-005 -1.14757313e-005
      -1.14757313e-005 -1.14757313e-005 -1.14757313e-005
      -1.14757313e-005 -1.14757313e-005 -1.14757313e-005
      -1.14757313e-005 -1.14757313e-005 -1.14757313e-005
      -1.14757313e-005 -1.14757313e-005 -1.14757313e-005
      -1.14757313e-005 -1.14757313e-005 -1.14757313e-005
      -1.14757313e-005 -1.14757313e-005 -1.14757313e-005
      -1.14757313e-005 -1.14757313e-005 -1.14757313e-005
      -1.91924064e-005 -1.67235576e-005 -7.32487479e-006
      -2.25923322e-005 -1.11653917e-005 -2.30155147e-005
      -1.61852095e-005 -1.35525315e-005 -1.94275817e-005
      -1.94275817e-005 -1.94275817e-005 -1.94275817e-005
      -1.94275817e-005 -1.94275817e-005 -1.94275817e-005
      -1.94275817e-005 -1.94275817e-005 -1.94275817e-005
      -1.94275817e-005 -1.94275817e-005 -1.94275817e-005
      -1.94275817e-005 -1.94275817e-005 -1.94275817e-005
      -1.94275817e-005 -1.94275817e-005 -1.94275817e-005
      -1.94275817e-005 -1.94275817e-005 -1.94275817e-005
      -1.94275817e-005 -1.94275817e-005 -1.94275817e-005
      -1.94275817e-005 -1.94275817e-005 -1.94275817e-005
      -1.94275817e-005 -1.94275817e-005 -1.94275817e-005
      -1.94275817e-005 -1.96034234e-005 -1.96302808e-005
      -2.07161302e-005 -1.69028554e-005 -1.95122921e-005
      -1.81201231e-005 -2.07895901e-005 -1.78605133e-005
      -1.94275817e-005 -1.94275817e-005 -1.94275817e-005
      -1.94275817e-005 -1.94275817e-005 -1.94275817e-005
      -1.94275817e-005 -1.94275817e-005 -1.94275817e-005
      -1.94275817e-005 -1.94275817e-005 -1.94275817e-005
      -1.94275817e-005 -1.94275817e-005 -1.94275817e-005
      -1.94275817e-005 -1.94275817e-005 -1.94275817e-005
      -1.94275817e-005 -1.94275817e-005 -1.94275817e-005
      -1.94275817e-005 -1.94275817e-005 -1.94275817e-005
      -1.94275817e-005 -1.94275817e-005 -1.94275817e-005
      -1.94275817e-005 -1.94275817e-005 -1.94275817e-005
      -1.94275817e-005 -1.94275817e-005 -1.43233665e-005
      -2.35382395e-005 -2.37400764e-005 -1.98426624e-005
      -1.85370063e-005 -1.66333757e-005 -2.13814619e-005
      -1.72854216e-005 -1.94275817e-005 -1.94275817e-005
      -1.94275817e-005 -1.94275817e-005 -1.94275817e-005
      -1.94275817e-005 -1.94275817e-005 -1.94275817e-005
      -1.94275817e-005 -1.94275817e-005 -1.94275817e-005
      -1.94275817e-005 -1.94275817e-005 -1.94275817e-005
      -1.94275817e-005 -1.94275817e-005 -1.94275817e-005
      -1.94275817e-005 -1.94275817e-005 -1.94275817e-005
      -1.94275817e-005 -1.94275817e-005 -1.94275817e-005
      -1.94275817e-005 -1.64699140e-005 -2.31860613e-005
      -1.44992709e-005 -1.59301453e-005 -2.07358808e-005
      -2.48516262e-005 -4.94066808e-006 -1.23522095e-005
      -1.04330047e-005 -1.04330047e-005 -1.04330047e-005
      -1.04330047e-005 -1.04330047e-005 -1.04330047e-005
      -1.04330047e-005 -1.04330047e-005 -1.04330047e-005
      -1.04330047e-005 -1.04330047e-005 -1.04330047e-005
      -1.04330047e-005 -1.04330047e-005 -1.04330047e-005
      -1.04330047e-005 -1.04330047e-005 -1.04330047e-005
      -1.04330047e-005 -1.04330047e-005 -1.04330047e-005
      -1.04330047e-005 -1.04330047e-005 -1.04330047e-005
      -1.04330047e-005 -1.04330047e-005 -1.04330047e-005
      -1.04330047e-005 -1.04330047e-005 -1.04330047e-005
      -1.04330047e-005 -1.04330047e-005 -9.66629887e-006
      -1.32795849e-005 7.72365001e-006 6.29434737e-007 9.58429155e-007
      -2.85064789e-006 8.09382925e-007 1.90592391e-006 1.56932913e-006
      1.56932913e-006 1.56932913e-006 1.56932913e-006 1.56932913e-006
      1.56932913e-006 1.56932913e-006 1.56932913e-006 1.81554526e-006
      1.56932913e-006 1.56932913e-006 1.32311300e-006 1.32311300e-006
      1.56932913e-006 1.81554526e-006 1.81554526e-006 1.81554526e-006
      1.56932913e-006 1.56932913e-006 1.32311300e-006 1.32311300e-006
      1.56932913e-006 1.81554526e-006 1.81554526e-006 8.03654621e-006
      -7.59572686e-006 5.17760418e-006 -4.96837356e-006 6.63730634e-006
      -5.00070273e-005 -4.16291296e-005 -5.00327114e-005
      -4.74998888e-005 -4.74998888e-005 -4.74998888e-005
      -4.74998888e-005 -4.74998888e-005 -4.74998888e-005
      -4.74998888e-005 -4.74998888e-005 -4.74998888e-005
      -4.74998888e-005 -4.74998888e-005 -4.74998888e-005
      -4.74998888e-005 -4.74998888e-005 -4.74998888e-005
      -4.74998888e-005 -4.74998888e-005 -4.74998888e-005
      -4.74998888e-005 -4.74998888e-005 -4.74998888e-005
      -4.74998888e-005 -4.74998888e-005 -4.74998888e-005
      -5.64460461e-005 -4.44021134e-005 -4.85854471e-005
      -5.14531202e-005 -3.92912734e-005 -5.06033903e-005
      -4.53957618e-005 3.65151718e-005 4.15001778e-005 4.15001778e-005
      4.15001778e-005 4.15001778e-005 4.15001778e-005 4.15001778e-005
      4.15001778e-005 4.15001778e-005 4.15001778e-005 4.15001778e-005
      4.15001778e-005 4.15001778e-005 4.15001778e-005 4.15001778e-005
      4.15001778e-005 4.15001778e-005 4.15001778e-005 4.15001778e-005
      4.15001778e-005 4.15001778e-005 4.15001778e-005 4.15001778e-005
      4.15001778e-005 4.15001778e-005 4.15001778e-005 4.15001778e-005
      4.15001778e-005 4.15001778e-005 4.15001778e-005 4.15001778e-005
      4.15001778e-005 4.15001778e-005 4.15001778e-005 4.15001778e-005
      4.15001778e-005 4.15001778e-005 4.15001778e-005 4.15001778e-005
      4.15001778e-005 4.15001778e-005 4.15001778e-005 4.15001778e-005
      4.15001778e-005 4.15001778e-005 4.15001778e-005 4.15001778e-005
      4.15001778e-005 4.15001778e-005 4.15001778e-005 4.15001778e-005
      4.15001778e-005 4.15001778e-005 4.15001778e-005 4.15001778e-005
      4.15001778e-005 4.15001778e-005 4.15001778e-005 4.15001778e-005
      4.15001778e-005 4.15001778e-005 4.15001778e-005 4.15001778e-005
      4.15001778e-005 4.15001778e-005 -1.94275817e-005 -1.94275817e-005
      -1.94275817e-005 -1.94275817e-005 -1.94275817e-005
      -1.94275817e-005 -1.94275817e-005 -1.94275817e-005
      -1.94275817e-005 -1.94275817e-005 -1.94275817e-005
      -1.94275817e-005 -1.94275817e-005 -1.94275817e-005
      -1.94275817e-005 -1.94275817e-005 -1.94275817e-005
      -1.94275817e-005 -1.94275817e-005 -1.94275817e-005
      -1.94275817e-005 -1.94275817e-005 -1.94275817e-005
      -1.94275817e-005 -2.03587624e-005 -1.85248227e-005
      -1.75818186e-005 -1.72076798e-005 -2.09138871e-005
      -2.08947768e-005 -2.11639872e-005 -1.74410761e-005
      -1.94275817e-005 -1.94275817e-005 -1.94275817e-005
      -1.94275817e-005 -1.94275817e-005 -1.94275817e-005
      -1.94275817e-005 -1.94275817e-005 -1.94275817e-005
      -1.94275817e-005 -1.94275817e-005 -1.94275817e-005
      -1.94275817e-005 -1.94275817e-005 -1.94275817e-005
      -1.94275817e-005 -1.94275817e-005 -1.94275817e-005
      -1.94275817e-005 -1.94275817e-005 -1.94275817e-005
      -1.94275817e-005 -1.94275817e-005 -1.94275817e-005
      -1.70351959e-005 -2.24294090e-005 -1.93965861e-005
      -1.75255864e-005 -1.53929705e-005 -2.32229140e-005
      -1.82803087e-005 -2.04579592e-005 -1.94275817e-005
      -1.94275817e-005 -1.94275817e-005 -1.94275817e-005
      -1.94275817e-005 -1.94275817e-005 -1.94275817e-005
      -1.94275817e-005 -1.94275817e-005 -1.94275817e-005
      -1.94275817e-005 -1.94275817e-005 -1.94275817e-005
      -1.94275817e-005 -1.94275817e-005 -1.94275817e-005
      -1.94275817e-005 -1.94275817e-005 -1.94275817e-005
      -1.94275817e-005 -1.94275817e-005 -1.94275817e-005
      -1.94275817e-005 -1.94275817e-005 -2.60174493e-005
      -1.12868856e-005 -1.40047023e-005 -1.11952249e-005
      -6.71978160e-006 -1.76937319e-005 -1.00941897e-005
      -1.06301968e-005 -1.11776626e-005 -7.51731932e-006
      -1.23977770e-005 -8.73743375e-006 -8.73743375e-006
      -1.23977770e-005 -7.51731932e-006 -1.11776626e-005
      -1.25698316e-005 -7.51731932e-006 -1.23977770e-005
      -7.34526520e-006 -7.34526520e-006 -1.23977770e-005
      -8.90948741e-006 -1.25698316e-005 -1.53263536e-005
      -1.82661097e-005 -4.75442857e-006 -4.71244039e-006
      -6.01388547e-006 -1.85404024e-005 -1.63662412e-006
      -1.18102589e-005 -1.59827209e-006 -3.31081901e-006
      -6.23251435e-006 -2.32595448e-006 -5.25861606e-006
      -1.59827209e-006 -5.01239992e-006 -5.75104832e-006
      -2.81838675e-006 -5.75104832e-006 -1.35205596e-006
      -2.32595448e-006 -5.25861606e-006 -4.03850117e-006
      -5.01239992e-006 -4.53093344e-006 -3.79228504e-006
      -5.50483219e-006 -3.79228504e-006 -3.78157551e-007
      -7.94506104e-006 -1.35205596e-006 -6.23251435e-006
      -2.81838675e-006 3.15661669e-006 -1.33735293e-005 -9.79587276e-006
      -1.78152106e-006 -1.74111774e-005 -1.11480140e-005 2.80623385e-006
      -1.19515598e-005 -1.00793904e-005 -1.00793904e-005
      -1.00793904e-005 -1.00793904e-005 -1.00793904e-005
      -1.00793904e-005 -1.00793904e-005 -1.00793904e-005
      -1.00793904e-005 -1.00793904e-005 -1.00793904e-005
      -1.00793904e-005 -1.00793904e-005 -1.00793904e-005
      -1.00793904e-005 -1.00793904e-005 -9.26648408e-006
      -1.43792049e-005 -1.74138604e-005 -9.04471817e-005
      -1.03343715e-004 -8.88592986e-005 -1.05570973e-004
      -9.20778766e-005 -9.74307914e-005 -9.74307914e-005
      -9.74307914e-005 -9.74307914e-005 -9.74307914e-005
      -9.74307914e-005 -9.74307914e-005 -9.74307914e-005
      -9.74307914e-005 -9.74307914e-005 -9.74307914e-005
      -9.74307914e-005 -9.74307914e-005 -9.74307914e-005
      -9.74307914e-005 -9.74307914e-005 -9.77176678e-005
      -9.43366249e-005 -9.40568425e-005 -9.87887397e-005
      -1.02349906e-004 -1.09651410e-004 -1.07431071e-004
      -1.05880536e-004 -1.06284882e-004 -1.06284882e-004
      -1.06284882e-004 -1.06284882e-004 -1.06284882e-004
      -1.06284882e-004 -1.06284882e-004 -1.06284882e-004
      -1.06284882e-004 -1.06284882e-004 -1.06284882e-004
      -1.06284882e-004 -1.06284882e-004 -1.06284882e-004
      -1.06284882e-004 -1.06284882e-004 -1.04061881e-004
      -1.11346686e-004 -1.14277042e-004 -9.79478937e-005
      -2.69320644e-005 -1.26878049e-005 -1.70731055e-005
      -2.50721678e-005 -1.94275817e-005 -1.94275817e-005
      -1.94275817e-005 -1.94275817e-005 -1.94275817e-005
      -1.94275817e-005 -1.94275817e-005 -1.94275817e-005
      -1.94275817e-005 -1.94275817e-005 -1.94275817e-005
      -1.94275817e-005 -1.94275817e-005 -1.94275817e-005
      -1.94275817e-005 -1.94275817e-005 -1.93428714e-005
      -1.94275817e-005 -2.07651992e-005 -1.69519262e-005
      -1.92581610e-005 -1.82048334e-005 -2.08743004e-005
      -1.78114424e-005 -1.94275817e-005 -1.94275817e-005
      -1.94275817e-005 -1.94275817e-005 -1.94275817e-005
      -1.94275817e-005 -1.94275817e-005 -1.94275817e-005
      -1.94275817e-005 -1.94275817e-005 -1.94275817e-005
      -1.94275817e-005 -1.94275817e-005 -1.94275817e-005
      -1.94275817e-005 -1.94275817e-005 -1.68063889e-005 1.92463431e-005
      2.82948477e-005 2.42363894e-005 2.50463272e-005 2.55005489e-005
      2.23719853e-005 2.19431440e-005 2.51858983e-005 2.51858983e-005
      2.51858983e-005 2.51858983e-005 2.51858983e-005 2.51858983e-005
      2.51858983e-005 2.51858983e-005 3.03429133e-005 2.10854614e-005
      -2.35582684e-005 -2.15656819e-005 -2.89721174e-005
      -2.71136032e-005 -1.30765238e-005 -2.20961865e-005
      -1.94275817e-005 -1.94275817e-005 -2.08197507e-005
      -2.08197507e-005 -2.08197507e-005 -1.94275817e-005
      -1.80354127e-005 -1.80354127e-005 -1.80354127e-005
      -1.80354127e-005 -1.94275817e-005 -1.94275817e-005
      -1.94275817e-005 -1.94275817e-005 -1.94275817e-005
      -1.94275817e-005 -3.55873999e-005 -1.20621680e-005 1.33198882e-005
      9.24125925e-006 -4.14896988e-007 2.98620416e-005 -3.17013692e-005
      1.87071819e-005 4.33736932e-006 5.48332173e-006 6.87548982e-006
      6.62927368e-006 5.23710560e-006 4.09115319e-006 5.72953786e-006
      5.72953786e-006 9.42737097e-006 1.06468369e-005 2.08042438e-005
      1.10375040e-005 8.29386317e-006 1.91446656e-004 1.84032426e-004
      1.80654213e-004 1.86728794e-004 1.86728794e-004 1.86728794e-004
      1.86728794e-004 1.86728794e-004 1.86728794e-004 1.86728794e-004
      1.86728794e-004 1.78729562e-004 1.93836604e-004 1.76816000e-004
      1.89276863e-004 1.89740516e-004 1.81186391e-004 1.87294019e-004
      -3.13424389e-005 -5.15311112e-005 -4.97191832e-005
      -5.54444741e-005 -4.85783276e-005 -5.48326134e-005 3.89480083e-005
      5.88044168e-005 -2.75218536e-005 -5.29114513e-005 -5.52760284e-005
      -5.24916904e-005 -5.38838613e-005 3.95598690e-005 3.66189161e-005
      4.03401755e-005 -3.06549118e-005 1.55743783e-005 1.55743783e-005
      1.55743783e-005 1.55743783e-005 1.55743783e-005 1.55743783e-005
      1.55743783e-005 1.55743783e-005 1.55743783e-005 1.55743783e-005
      1.55743783e-005 1.55743783e-005 1.55743783e-005 1.55743783e-005
      1.55743783e-005 1.55743783e-005 -3.02008993e-005 -3.02008993e-005
      -3.02008993e-005 -3.02008993e-005 -3.02008993e-005
      -3.02008993e-005 -3.02008993e-005 -3.02008993e-005
      -3.28796668e-005 -1.10290193e-005 -3.65827946e-005
      -3.30450493e-005 -3.60766317e-005 -2.03153049e-005
      -3.53986979e-005 -2.74556824e-005 -1.94275817e-005
      -1.94275817e-005 -1.94275817e-005 -1.94275817e-005
      -1.94275817e-005 -1.94275817e-005 -1.94275817e-005
      -1.94275817e-005 -2.12063715e-005 -1.43316320e-005
      -1.57054947e-005 -2.21334176e-005 -2.08576639e-005
      -1.70019848e-005 -1.86420784e-005 -2.09523605e-005
      -1.83909415e-005 -1.83909415e-005 -1.83909415e-005
      -1.83909415e-005 -1.83909415e-005 -1.83909415e-005
      -1.83909415e-005 -1.83909415e-005 -2.21346418e-005
      -1.72565997e-005 2.05302549e-005 1.72059972e-005 1.92385342e-005
      2.60293236e-005 1.37854759e-005 2.36254637e-005 2.41481612e-005
      1.76198864e-005 1.46133452e-005 1.98108100e-005 2.04870303e-005
      1.65027177e-005 -1.01461206e-004 -1.16048082e-004 -1.12170150e-004
      -1.14896335e-004 -1.11062116e-004 -1.07334847e-004
      -1.11745205e-004 -1.08641922e-004 -1.13127913e-004
      -1.07953230e-004 -1.09504828e-004 1.60437776e-005 2.07699813e-005
      1.69805189e-005 1.84757373e-005 3.33814969e-005 1.47448636e-005
      3.16755104e-005 1.72224190e-005 3.56242890e-005 2.04741918e-005
      -5.45928524e-005 -5.17071858e-005 -4.56165508e-005
      -5.40848450e-005 -5.17232293e-005 -5.02959774e-005
      -4.52444256e-005 -4.60792544e-005 -4.59703806e-005
      -1.37955030e-005 -1.85975878e-005 -1.07346114e-005
      -1.67333365e-005 -1.64470548e-005 -1.43446960e-005
      -1.27238836e-005 -1.41295995e-005 -3.97329131e-005
      -3.82434773e-005 -4.04991442e-005 -3.44503133e-005
      -3.86986139e-005 -4.47974890e-005 -4.42803066e-005
      -3.51952476e-005 -2.82197689e-005 -2.64234168e-005
      -3.23002678e-005 -2.36219294e-005 -2.93987268e-005
      -2.24001506e-005 -1.26096265e-005 -1.93114392e-005
      -2.09950249e-005 -1.99535698e-005 -1.79279868e-005
      -2.07871835e-005 -2.00682462e-005 -2.93465037e-005
      -9.59453610e-005 -9.01460007e-005 -8.39522982e-005
      -1.29603359e-004 -1.08628134e-004 2.79503929e-005 -1.68830411e-005
      -1.68830411e-005 -1.68830411e-005 -1.68830411e-005
      -1.68830411e-005 -1.68830411e-005 -1.68830411e-005
      -1.68830411e-005 -1.68830411e-005 -1.68830411e-005
      -1.68830411e-005 -1.68830411e-005 -1.68830411e-005
      -1.68830411e-005 -1.68830411e-005 -1.68830411e-005
      -1.68830411e-005 -1.68830411e-005 -1.68830411e-005
      -1.68830411e-005 -1.68830411e-005 -1.68830411e-005
      -1.68830411e-005 -1.68830411e-005 -1.68830411e-005
      -1.68830411e-005 -1.68830411e-005 -1.68830411e-005
      -1.68830411e-005 -1.68830411e-005 -1.68830411e-005
      -1.68830411e-005 -1.68830411e-005 -1.68830411e-005
      -1.68830411e-005 -1.68830411e-005 -1.68830411e-005
      -1.68830411e-005 -1.68830411e-005 -1.68830411e-005
      -1.68830411e-005 -1.68830411e-005 -1.68830411e-005
      -1.68830411e-005 -1.68830411e-005 -1.68830411e-005
      -1.68830411e-005 -1.68830411e-005 -1.68830411e-005
      -1.68830411e-005 -1.68830411e-005 -1.68830411e-005
      -1.68830411e-005 -1.68830411e-005 -1.68830411e-005
      -1.68830411e-005 -2.08882157e-005 -9.74565683e-006
      -3.12008706e-005 -5.43887882e-006 -9.47128137e-006
      -2.10225226e-005 -2.53157832e-005 -4.85080454e-006
      -8.82197583e-006 -8.82197583e-006 -8.82197583e-006
      -8.82197583e-006 -8.82197583e-006 -8.82197583e-006
      -8.82197583e-006 -8.82197583e-006 -8.82197583e-006
      -8.82197583e-006 -8.82197583e-006 -8.82197583e-006
      -8.82197583e-006 -8.82197583e-006 -8.82197583e-006
      -8.82197583e-006 -8.82197583e-006 -8.82197583e-006
      -8.82197583e-006 -8.82197583e-006 -8.82197583e-006
      -8.82197583e-006 -8.82197583e-006 -8.82197583e-006
      -8.82197583e-006 -8.82197583e-006 -8.82197583e-006
      -8.82197583e-006 -8.82197583e-006 -8.82197583e-006
      -8.82197583e-006 -8.82197583e-006 -8.82197583e-006
      -8.82197583e-006 -8.82197583e-006 -8.82197583e-006
      -8.82197583e-006 -8.82197583e-006 -8.82197583e-006
      -8.82197583e-006 -8.82197583e-006 -8.82197583e-006
      -8.82197583e-006 -8.82197583e-006 -8.82197583e-006
      -8.82197583e-006 -8.82197583e-006 -8.82197583e-006
      -8.82197583e-006 -8.82197583e-006 -8.82197583e-006
      -8.82197583e-006 -8.82197583e-006 -8.82197583e-006
      -8.82197583e-006 -8.82197583e-006 -7.41850045e-006
      -1.36984700e-005 -7.67075835e-006 -1.41864166e-005
      -1.44705984e-006 -2.80248350e-005 -8.30471345e-006
      -6.75728234e-006 -7.66621088e-006 -7.66621088e-006
      -7.66621088e-006 -7.66621088e-006 -7.66621088e-006
      -7.66621088e-006 -7.66621088e-006 -7.66621088e-006
      -7.66621088e-006 -7.66621088e-006 -7.66621088e-006
      -7.66621088e-006 -7.66621088e-006 -7.66621088e-006
      -7.66621088e-006 -7.66621088e-006 -7.66621088e-006
      -7.66621088e-006 -7.66621088e-006 -7.66621088e-006
      -7.66621088e-006 -7.66621088e-006 -7.66621088e-006
      -7.66621088e-006 -7.66621088e-006 -7.66621088e-006
      -7.66621088e-006 -7.66621088e-006 -7.66621088e-006
      -7.66621088e-006 -7.66621088e-006 -7.66621088e-006
      -7.66621088e-006 -7.66621088e-006 -7.66621088e-006
      -7.66621088e-006 -7.66621088e-006 -7.66621088e-006
      -7.66621088e-006 -7.66621088e-006 -7.66621088e-006
      -7.66621088e-006 -7.66621088e-006 -7.66621088e-006
      -7.66621088e-006 -7.66621088e-006 -7.66621088e-006
      -7.66621088e-006 -7.66621088e-006 -7.66621088e-006
      -7.66621088e-006 -7.66621088e-006 -7.66621088e-006
      -7.66621088e-006 -7.66621088e-006 -7.66621088e-006
      -7.58199349e-006 -1.69136765e-005 -2.33533847e-005
      -2.57517786e-005 -2.15893942e-005 -1.80694406e-005
      -1.46927568e-005 -1.78652281e-005 -2.00198429e-005
      -2.00198429e-005 -2.00198429e-005 -2.00198429e-005
      -2.00198429e-005 -2.00198429e-005 -2.00198429e-005
      -2.00198429e-005 -2.00198429e-005 -2.00198429e-005
      -2.00198429e-005 -2.00198429e-005 -2.00198429e-005
      -2.00198429e-005 -2.00198429e-005 -2.00198429e-005
      -2.00198429e-005 -2.00198429e-005 -2.00198429e-005
      -2.00198429e-005 -2.00198429e-005 -2.00198429e-005
      -2.00198429e-005 -2.00198429e-005 -2.00198429e-005
      -2.00198429e-005 -2.00198429e-005 -2.00198429e-005
      -2.00198429e-005 -2.00198429e-005 -2.00198429e-005
      -2.00198429e-005 -2.00198429e-005 -2.00198429e-005
      -2.00198429e-005 -2.00198429e-005 -2.00198429e-005
      -2.00198429e-005 -2.00198429e-005 -2.00198429e-005
      -2.00198429e-005 -2.00198429e-005 -2.00198429e-005
      -2.00198429e-005 -2.00198429e-005 -2.00198429e-005
      -2.00198429e-005 -2.00198429e-005 -1.80292172e-005
      -2.07108278e-005 -1.71637839e-005 -2.22663257e-005
      -1.98781872e-005 -2.28986664e-005 -1.26351028e-006
      -3.14405452e-006 -2.47304797e-006 -2.47304797e-006
      -2.47304797e-006 -2.47304797e-006 -2.47304797e-006
      -2.47304797e-006 -2.47304797e-006 -2.47304797e-006
      -2.47304797e-006 -2.47304797e-006 -2.47304797e-006
      -2.47304797e-006 -2.47304797e-006 -2.47304797e-006
      -2.47304797e-006 -2.47304797e-006 -2.47304797e-006
      -2.47304797e-006 -2.47304797e-006 -2.47304797e-006
      -2.47304797e-006 -2.47304797e-006 -2.47304797e-006
      -2.47304797e-006 -2.47304797e-006 -2.47304797e-006
      -2.47304797e-006 -2.47304797e-006 -2.47304797e-006
      -2.47304797e-006 -2.47304797e-006 -2.47304797e-006
      -2.47304797e-006 -2.47304797e-006 -2.47304797e-006
      -2.47304797e-006 -2.47304797e-006 -2.47304797e-006
      -2.47304797e-006 -2.47304797e-006 -2.47304797e-006
      -2.47304797e-006 -2.47304797e-006 -2.47304797e-006
      -2.47304797e-006 -2.47304797e-006 -2.47304797e-006
      -2.47304797e-006 -2.47304797e-006 -2.47304797e-006
      -2.47304797e-006 -2.47304797e-006 -2.47304797e-006
      -2.47304797e-006 -2.47304797e-006 -2.47304797e-006 2.13623457e-006
      3.78773188e-006 -1.27777503e-006 1.07570968e-005 9.38308347e-007
      -1.14817340e-005 -1.05883146e-005 7.05569437e-006 2.88428646e-006
      2.88428646e-006 2.88428646e-006 2.88428646e-006 2.88428646e-006
      2.88428646e-006 2.88428646e-006 2.88428646e-006 2.88428646e-006
      2.88428646e-006 2.88428646e-006 2.88428646e-006 2.88428646e-006
      2.88428646e-006 2.98884652e-006 2.98884652e-006 2.88428646e-006
      2.88428646e-006 2.88428646e-006 2.88428646e-006 2.88428646e-006
      2.88428646e-006 2.88428646e-006 2.88428646e-006 2.88428646e-006
      2.88428646e-006 2.88428646e-006 2.88428646e-006 2.88428646e-006
      2.88428646e-006 2.88428646e-006 2.88428646e-006 2.88428646e-006
      2.88428646e-006 2.88428646e-006 2.88428646e-006 2.88428646e-006
      2.88428646e-006 2.77972640e-006 2.77972640e-006 2.88428646e-006
      2.88428646e-006 2.88428646e-006 2.88428646e-006 2.88428646e-006
      2.88428646e-006 2.88428646e-006 2.88428646e-006 2.11948100e-005
      -4.00136105e-006 -9.62692866e-006 5.70003067e-005 4.57785100e-005
      3.65606465e-005 4.96489301e-005 2.95116042e-005 4.06370200e-005
      4.06370200e-005 4.06370200e-005 4.06370200e-005 4.06370200e-005
      4.06370200e-005 4.06370200e-005 4.06370200e-005 4.06370200e-005
      4.06370200e-005 4.06370200e-005 4.06370200e-005 4.06370200e-005
      4.06370200e-005 4.06370200e-005 4.06370200e-005 4.06370200e-005
      4.06370200e-005 4.06370200e-005 4.06370200e-005 4.06370200e-005
      4.06370200e-005 4.06370200e-005 4.06370200e-005 4.06370200e-005
      4.06370200e-005 4.06370200e-005 4.06370200e-005 4.06370200e-005
      4.06370200e-005 4.06370200e-005 4.06370200e-005 4.06370200e-005
      4.06370200e-005 4.06370200e-005 4.06370200e-005 4.06370200e-005
      4.06370200e-005 4.06370200e-005 4.06370200e-005 4.06370200e-005
      4.06370200e-005 4.06370200e-005 4.06370200e-005 4.06370200e-005
      4.06370200e-005 4.06370200e-005 4.06370200e-005 3.72431969e-005
      4.48480678e-005 3.66172571e-005 3.72387221e-005 3.48957328e-005
      3.82396283e-005 3.38475184e-005 3.74452793e-005 3.44356777e-005
      3.44356777e-005 3.44356777e-005 3.44356777e-005 3.44356777e-005
      3.44356777e-005 3.44356777e-005 3.44356777e-005 3.44356777e-005
      3.44356777e-005 3.44356777e-005 3.44356777e-005 3.44356777e-005
      3.44356777e-005 3.44356777e-005 3.44356777e-005 3.44356777e-005
      3.44356777e-005 3.44356777e-005 3.44356777e-005 3.44356777e-005
      3.44356777e-005 3.44356777e-005 3.44356777e-005 3.44356777e-005
      3.44356777e-005 3.44356777e-005 3.44356777e-005 3.44356777e-005
      3.44356777e-005 3.44356777e-005 3.44356777e-005 3.44356777e-005
      3.44356777e-005 3.44356777e-005 3.44356777e-005 3.44356777e-005
      3.44356777e-005 3.44356777e-005 3.44356777e-005 3.44356777e-005
      3.44356777e-005 3.44356777e-005 3.44356777e-005 3.44356777e-005
      3.44356777e-005 3.44356777e-005 3.44356777e-005 3.32935488e-005
      3.57806857e-005 3.17786398e-005 4.42537785e-005 -3.09107818e-005
      -1.84555502e-005 -2.12426203e-005 -1.69052673e-005
      -1.99092956e-005 -1.99092956e-005 -1.99092956e-005
      -1.99092956e-005 -1.99092956e-005 -1.99092956e-005
      -1.99092956e-005 -1.99092956e-005 -1.99092956e-005
      -1.99092956e-005 -1.99092956e-005 -1.99092956e-005
      -1.99092956e-005 -1.99092956e-005 -1.99092956e-005
      -1.99092956e-005 -1.99092956e-005 -1.99092956e-005
      -1.99092956e-005 -1.99092956e-005 -1.99092956e-005
      -1.99092956e-005 -1.99092956e-005 -1.99092956e-005
      -1.99092956e-005 -1.99092956e-005 -1.99092956e-005
      -1.99092956e-005 -1.99092956e-005 -1.99092956e-005
      -1.99092956e-005 -1.99092956e-005 -1.99092956e-005
      -1.99092956e-005 -1.99092956e-005 -1.99092956e-005
      -1.99092956e-005 -1.99092956e-005 -1.99092956e-005
      -1.99092956e-005 -1.99092956e-005 -1.99092956e-005
      -1.99092956e-005 -1.99092956e-005 -1.99092956e-005
      -1.99092956e-005 -1.99092956e-005 -1.99092956e-005
      -2.40491445e-005 -1.87820024e-005 -2.81236989e-005 3.50043338e-005
      2.34784766e-005 2.72546858e-005 2.55623363e-005 1.83557131e-005
      2.56485546e-005 2.56485546e-005 2.56485546e-005 2.56485546e-005
      2.56485546e-005 2.56485546e-005 2.56485546e-005 2.56485546e-005
      2.56485546e-005 2.56485546e-005 2.56485546e-005 2.56485546e-005
      2.56485546e-005 2.56485546e-005 2.56485546e-005 2.56485546e-005
      2.56485546e-005 2.56485546e-005 2.56485546e-005 2.56485546e-005
      2.56485546e-005 2.56485546e-005 2.56485546e-005 2.56485546e-005
      2.56485546e-005 2.56485546e-005 2.56485546e-005 2.56485546e-005
      2.56485546e-005 2.56485546e-005 2.56485546e-005 2.56485546e-005
      2.56485546e-005 2.56485546e-005 2.56485546e-005 2.56485546e-005
      2.56485546e-005 2.56485546e-005 2.56485546e-005 2.56485546e-005
      2.56485546e-005 2.56485546e-005 2.56485546e-005 2.56485546e-005
      2.56485546e-005 2.56485546e-005 2.56485546e-005 2.56485546e-005
      3.09868774e-005 -2.44472158e-005 -1.84042783e-005 -1.89673283e-005
      -3.46612724e-005 -1.69805080e-005 -2.73138558e-005
      -1.63798941e-005 -1.99092956e-005 -1.99092956e-005
      -1.99092956e-005 -1.99092956e-005 -1.99092956e-005
      -1.99092956e-005 -1.99092956e-005 -1.99092956e-005
      -1.92130210e-005 -1.93156648e-005 -1.96134370e-005
      -2.02051524e-005 -1.94202239e-005 -1.99092956e-005
      -2.01025086e-005 -1.94202239e-005 -1.99092956e-005
      -1.99092956e-005 -1.99092956e-005 -1.99092956e-005
      -1.99092956e-005 -1.99092956e-005 -1.99092956e-005
      -1.99092956e-005 -2.01025086e-005 -2.02051524e-005
      -2.02051524e-005 -1.87379410e-005 -1.98066518e-005
      -1.89311540e-005 -1.99092956e-005 -2.06942223e-005
      -1.99092956e-005 -1.99092956e-005 -1.99092956e-005
      -1.99092956e-005 -1.99092956e-005 -1.99092956e-005
      -1.99092956e-005 -1.99092956e-005 -1.49509397e-005
      -2.47473326e-005 -1.60494128e-005 -2.24314408e-005
      -2.23200677e-005 -2.84710131e-005 8.37956468e-005 7.37457231e-005
      7.68895334e-005 7.68895334e-005 7.68895334e-005 7.68895334e-005
      7.68895334e-005 7.68895334e-005 7.68895334e-005 7.68895334e-005
      7.68895334e-005 7.68895334e-005 7.68895334e-005 7.68895334e-005
      7.68895334e-005 7.68895334e-005 7.68895334e-005 7.68895334e-005
      7.68895334e-005 7.68895334e-005 7.68895334e-005 7.68895334e-005
      7.68895334e-005 7.68895334e-005 7.68895334e-005 7.68895334e-005
      7.68895334e-005 7.68895334e-005 7.68895334e-005 7.68895334e-005
      7.68895334e-005 7.68895334e-005 7.68895334e-005 7.68895334e-005
      7.68895334e-005 7.68895334e-005 7.68895334e-005 7.68895334e-005
      7.68895334e-005 7.68895334e-005 7.68895334e-005 7.68895334e-005
      7.68895334e-005 7.68895334e-005 7.68895334e-005 7.68895334e-005
      7.68895334e-005 7.68895334e-005 7.68895334e-005 7.68895334e-005
      8.54520695e-005 6.51989467e-005 5.60502599e-007 -3.39236140e-005
      -2.10585513e-005 -1.68993029e-005 -3.72300092e-005
      -1.74953420e-005 -2.41498565e-005 -2.41498565e-005
      -2.41498565e-005 -2.41498565e-005 -2.41498565e-005
      -2.41498565e-005 -2.41498565e-005 -2.41498565e-005
      -2.41498565e-005 -2.41498565e-005 -2.41498565e-005
      -2.41498565e-005 -2.41498565e-005 -2.41498565e-005
      -2.41498565e-005 -2.41498565e-005 -2.41498565e-005
      -2.41498565e-005 -2.41498565e-005 -2.41498565e-005
      -2.41498565e-005 -2.41498565e-005 -2.41498565e-005
      -2.41498565e-005 -2.41498565e-005 -2.41498565e-005
      -2.41498565e-005 -2.41498565e-005 -2.41498565e-005
      -2.41498565e-005 -2.41498565e-005 -2.41498565e-005
      -2.41498565e-005 -2.41498565e-005 -2.41498565e-005
      -2.41498565e-005 -2.41498565e-005 -2.41498565e-005
      -2.41498565e-005 -2.41498565e-005 -2.97841616e-005
      -2.64171576e-005 -1.83584270e-005 -2.89324144e-005
      -1.93339365e-005 -1.95078584e-007 1.78463017e-006 -6.28823545e-006
      -7.66621088e-006 -7.66621088e-006 -7.66621088e-006
      -7.66621088e-006 -7.66621088e-006 -7.66621088e-006
      -7.66621088e-006 -7.66621088e-006 -7.66621088e-006
      -7.66621088e-006 -7.66621088e-006 -7.66621088e-006
      -7.66621088e-006 -7.66621088e-006 -7.66621088e-006
      -7.66621088e-006 -7.66621088e-006 -7.66621088e-006
      -7.66621088e-006 -7.66621088e-006 -7.66621088e-006
      -7.66621088e-006 -7.66621088e-006 -7.66621088e-006
      -7.66621088e-006 -7.66621088e-006 -7.66621088e-006
      -7.66621088e-006 -7.66621088e-006 -7.66621088e-006
      -7.66621088e-006 -7.66621088e-006 -7.66621088e-006
      -7.66621088e-006 -7.66621088e-006 -7.66621088e-006
      -7.66621088e-006 -7.66621088e-006 -7.66621088e-006
      -7.66621088e-006 -1.03995098e-005 -9.79048673e-006
      -8.64959111e-006 -9.78176013e-006 4.09155064e-006 -1.65101683e-005
      3.93131450e-006 1.12489688e-005 4.26183351e-006 4.26183351e-006
      4.26183351e-006 4.26183351e-006 4.26183351e-006 4.26183351e-006
      4.26183351e-006 4.26183351e-006 4.26183351e-006 4.26183351e-006
      4.26183351e-006 4.26183351e-006 4.26183351e-006 4.26183351e-006
      4.26183351e-006 4.26183351e-006 4.26183351e-006 4.26183351e-006
      4.26183351e-006 4.26183351e-006 4.26183351e-006 4.26183351e-006
      4.26183351e-006 4.26183351e-006 4.26183351e-006 4.26183351e-006
      4.26183351e-006 4.26183351e-006 4.26183351e-006 4.26183351e-006
      4.26183351e-006 4.26183351e-006 4.26183351e-006 4.26183351e-006
      4.26183351e-006 4.26183351e-006 4.26183351e-006 4.26183351e-006
      4.26183351e-006 4.26183351e-006 4.26183351e-006 4.26183351e-006
      4.26183351e-006 4.26183351e-006 4.26183351e-006 4.26183351e-006
      4.26183351e-006 4.26183351e-006 2.55514487e-006 2.55514487e-006
      2.55514487e-006 2.55514487e-006 2.55514487e-006 2.55514487e-006
      2.55514487e-006 2.55514487e-006 3.14685940e-006 2.55514487e-006
      1.96343035e-006 2.85100214e-006 2.25928761e-006 2.55514487e-006
      3.14685940e-006 2.25928761e-006 2.55514487e-006 2.55514487e-006
      2.55514487e-006 2.55514487e-006 2.55514487e-006 2.55514487e-006
      2.55514487e-006 2.55514487e-006 2.85100214e-006 2.25928761e-006
      2.55514487e-006 3.14685940e-006 1.66757297e-006 2.55514487e-006
      3.44271666e-006 2.25928761e-006 2.55514487e-006 2.55514487e-006
      2.55514487e-006 2.55514487e-006 2.55514487e-006 2.55514487e-006
      2.55514487e-006 2.55514487e-006 2.85100214e-006 2.25928761e-006
      2.25928761e-006 2.25928761e-006 3.14685940e-006 2.55514487e-006
      2.55514487e-006 2.55514487e-006 2.56485546e-005 2.56485546e-005
      2.56485546e-005 2.56485546e-005 2.56485546e-005 2.56485546e-005
      2.56485546e-005 2.56485546e-005 2.56485546e-005 2.56485546e-005
      2.56485546e-005 2.56485546e-005 2.56485546e-005 2.56485546e-005
      2.56485546e-005 2.56485546e-005 2.56485546e-005 2.56485546e-005
      2.56485546e-005 2.56485546e-005 2.56485546e-005 2.56485546e-005
      2.56485546e-005 2.56485546e-005 2.56485546e-005 2.56485546e-005
      2.56485546e-005 2.56485546e-005 2.56485546e-005 2.56485546e-005
      2.56485546e-005 2.56485546e-005 2.56485546e-005 2.56485546e-005
      2.56485546e-005 2.56485546e-005 2.56485546e-005 2.56485546e-005
      2.56485546e-005 2.56485546e-005 2.36410906e-005 2.93827234e-005
      3.16493388e-005 2.02096235e-005 2.16064327e-005 1.98008202e-005
      3.46714696e-005 7.51008338e-006 7.34164178e-006 7.34164178e-006
      7.34164178e-006 7.34164178e-006 7.34164178e-006 7.34164178e-006
      7.34164178e-006 7.34164178e-006 7.34164178e-006 7.34164178e-006
      7.34164178e-006 7.34164178e-006 7.34164178e-006 7.34164178e-006
      7.34164178e-006 7.34164178e-006 7.34164178e-006 7.34164178e-006
      7.34164178e-006 7.34164178e-006 7.34164178e-006 7.34164178e-006
      7.34164178e-006 7.34164178e-006 7.34164178e-006 7.34164178e-006
      7.34164178e-006 7.34164178e-006 7.34164178e-006 7.34164178e-006
      7.34164178e-006 7.34164178e-006 7.34164178e-006 7.34164178e-006
      7.34164178e-006 7.34164178e-006 7.34164178e-006 7.34164178e-006
      7.34164178e-006 7.34164178e-006 5.01563932e-007 1.31565712e-005
      7.15847045e-006 2.78991320e-006 1.74480992e-005 -7.42565499e-006
      1.67602934e-006 -9.08933907e-006 -2.33378773e-006 -2.33378773e-006
      -2.33378773e-006 -2.33378773e-006 -2.33378773e-006
      -2.33378773e-006 -2.33378773e-006 -2.33378773e-006
      -2.33378773e-006 -2.33378773e-006 -2.33378773e-006
      -2.33378773e-006 -2.33378773e-006 -2.33378773e-006
      -2.33378773e-006 -2.33378773e-006 -2.33378773e-006
      -2.33378773e-006 -2.33378773e-006 -2.33378773e-006
      -2.33378773e-006 -2.33378773e-006 -2.33378773e-006
      -2.33378773e-006 -2.33378773e-006 -2.33378773e-006
      -2.33378773e-006 -2.33378773e-006 -2.33378773e-006
      -2.33378773e-006 -2.33378773e-006 -2.33378773e-006
      -2.33378773e-006 -2.33378773e-006 -2.33378773e-006
      -2.33378773e-006 -2.33378773e-006 -2.33378773e-006
      -2.33378773e-006 -2.33378773e-006 -3.05775893e-006
      -2.39937890e-006 6.67772201e-006 -1.55692105e-005 5.06705555e-006
      -1.30708968e-005 -3.35715617e-006 -4.25893677e-006
      -8.82197583e-006 -8.82197583e-006 -8.82197583e-006
      -8.82197583e-006 -8.82197583e-006 -8.82197583e-006
      -8.82197583e-006 -8.82197583e-006 -8.82197583e-006
      -8.82197583e-006 -8.82197583e-006 -8.82197583e-006
      -8.82197583e-006 -8.82197583e-006 -8.82197583e-006
      -8.82197583e-006 -8.82197583e-006 -8.82197583e-006
      -8.82197583e-006 -8.82197583e-006 -8.82197583e-006
      -8.82197583e-006 -8.82197583e-006 -8.82197583e-006
      -8.82197583e-006 -8.82197583e-006 -8.82197583e-006
      -8.82197583e-006 -8.82197583e-006 -8.82197583e-006
      -8.82197583e-006 -8.82197583e-006 -2.23775100e-006
      -6.52166909e-006 -1.32665555e-005 7.50956679e-006 -1.76911508e-005
      9.97366328e-007 -1.69905179e-005 -2.22280942e-005 -2.14789179e-005
      -2.14789179e-005 -2.14789179e-005 -2.14789179e-005
      -2.14789179e-005 -2.14789179e-005 -2.14789179e-005
      -2.14789179e-005 -2.14789179e-005 -2.14789179e-005
      -2.14789179e-005 -2.14789179e-005 -2.14789179e-005
      -2.14789179e-005 -2.14789179e-005 -2.14789179e-005
      -2.14789179e-005 -2.14789179e-005 -2.14789179e-005
      -2.14789179e-005 -2.14789179e-005 -2.14789179e-005
      -2.14789179e-005 -2.14789179e-005 -2.14789179e-005
      -2.14789179e-005 -2.14789179e-005 -2.14789179e-005
      -2.14789179e-005 -2.14789179e-005 -2.14789179e-005
      -2.14789179e-005 -2.14789179e-005 -2.14789179e-005
      -2.14789179e-005 -2.14789179e-005 -2.14789179e-005
      -2.14789179e-005 -2.14789179e-005 -2.14789179e-005
      -2.44803759e-005 2.92993973e-005 3.08132730e-005 3.06038492e-005
      2.98099658e-005 2.91605047e-005 3.96523210e-005 2.89925829e-005
      3.29939758e-005 3.29939758e-005 3.29939758e-005 3.20323343e-005
      3.20323343e-005 3.20323343e-005 3.20323343e-005 3.20323343e-005
      3.20323343e-005 3.20323343e-005 3.20323343e-005 3.20323343e-005
      3.20323343e-005 3.20323343e-005 3.20323343e-005 3.20323343e-005
      3.20323343e-005 3.20323343e-005 3.20323343e-005 3.20323343e-005
      3.20323343e-005 3.20323343e-005 3.20323343e-005 3.20323343e-005
      3.20323343e-005 3.20323343e-005 3.20323343e-005 3.20323343e-005
      3.20323343e-005 3.20323343e-005 3.20323343e-005 3.20323343e-005
      4.62979624e-005 1.78144765e-005 3.96904943e-005 -2.68058266e-005
      -2.47841035e-005 -2.64532537e-005 -2.46231939e-005
      -1.15500115e-005 -2.13760904e-005 -2.13760904e-005
      -2.13760904e-005 -2.13760904e-005 -2.13760904e-005
      -2.13760904e-005 -2.13760904e-005 -2.13760904e-005
      -2.13760904e-005 -2.13760904e-005 -2.13760904e-005
      -2.13760904e-005 -2.13760904e-005 -2.13760904e-005
      -2.13760904e-005 -2.13760904e-005 -2.13760904e-005
      -2.13760904e-005 -2.13760904e-005 -2.13760904e-005
      -2.13760904e-005 -2.13760904e-005 -2.13760904e-005
      -2.13760904e-005 -2.13760904e-005 -2.13760904e-005
      -2.13760904e-005 -2.13760904e-005 -2.13760904e-005
      -2.13760904e-005 -2.13760904e-005 -2.13760904e-005
      -2.48571650e-005 -1.23882464e-005 -2.24756914e-005
      -2.80736167e-005 3.18124730e-005 2.83740555e-005 2.01409548e-005
      3.36700068e-005 2.91173710e-005 2.91173710e-005 2.91173710e-005
      2.91173710e-005 2.91173710e-005 2.91173710e-005 2.91173710e-005
      2.91173710e-005 2.91173710e-005 2.91173710e-005 2.91173710e-005
      2.91173710e-005 2.91173710e-005 2.91173710e-005 2.91173710e-005
      2.91173710e-005 2.91173710e-005 2.91173710e-005 2.91173710e-005
      2.91173710e-005 2.91173710e-005 2.91173710e-005 2.91173710e-005
      2.91173710e-005 2.91173710e-005 2.91173710e-005 2.91173710e-005
      2.91173710e-005 2.91173710e-005 2.91173710e-005 2.91173710e-005
      2.91173710e-005 2.48922079e-005 2.54305814e-005 3.41849263e-005
      1.89452203e-005 8.15185267e-005 7.07805739e-005 7.99436239e-005
      8.09759149e-005 7.87108074e-005 7.87108074e-005 7.87108074e-005
      7.87108074e-005 7.87108074e-005 7.87108074e-005 7.87108074e-005
      7.87108074e-005 7.87108074e-005 7.87108074e-005 7.87108074e-005
      7.87108074e-005 7.87108074e-005 7.87108074e-005 7.87108074e-005
      7.87108074e-005 7.81190902e-005 7.93025247e-005 7.84149524e-005
      7.78232352e-005 7.90066624e-005 7.87108074e-005 7.84149524e-005
      7.90066624e-005 7.87108074e-005 7.84149524e-005 7.87108074e-005
      7.90066624e-005 7.84149524e-005 7.84149524e-005 7.87108074e-005
      7.90066624e-005 7.35511057e-005 7.90856648e-005 8.57072082e-005
      1.04261590e-005 5.35187110e-006 1.66234040e-005 1.66373338e-005
      5.33445200e-006 1.15719158e-005 1.15719158e-005 1.15719158e-005
      1.15719158e-005 1.15719158e-005 1.15719158e-005 1.15719158e-005
      1.15719158e-005 1.15719158e-005 1.15719158e-005 1.15719158e-005
      1.15719158e-005 1.15719158e-005 1.15719158e-005 1.15719158e-005
      1.15719158e-005 1.15719158e-005 1.15719158e-005 1.15719158e-005
      1.15719158e-005 1.15719158e-005 1.15719158e-005 1.15719158e-005
      1.15719158e-005 1.15719158e-005 1.15719158e-005 1.15719158e-005
      1.15719158e-005 1.15719158e-005 1.15719158e-005 1.15719158e-005
      1.15719158e-005 1.98502967e-005 -5.51949015e-005 -5.72001300e-005
      -4.10116336e-005 -5.39681569e-005 -5.05173484e-005
      -3.92997317e-005 -3.95990028e-005 -4.42783239e-005
      -4.42783239e-005 -4.42783239e-005 -4.42783239e-005
      -4.42783239e-005 -4.42783239e-005 -4.42783239e-005
      -4.42783239e-005 -4.42783239e-005 -4.42783239e-005
      -4.42783239e-005 -4.42783239e-005 -4.42783239e-005
      -4.42783239e-005 -4.42783239e-005 -4.42783239e-005
      -4.42783239e-005 -4.42783239e-005 -4.42783239e-005
      -4.42783239e-005 -4.42783239e-005 -4.42783239e-005
      -4.42783239e-005 -4.42783239e-005 -3.82632425e-005
      -5.15311331e-005 -4.62206299e-005 -4.05402243e-005
      -4.32208908e-005 -5.38562126e-005 4.43524987e-005 2.07299163e-005
      3.26827540e-005 3.26827540e-005 3.26827540e-005 3.26827540e-005
      3.26827540e-005 3.26827540e-005 3.26827540e-005 3.26827540e-005
      3.26827540e-005 3.26827540e-005 3.26827540e-005 3.26827540e-005
      3.26827540e-005 3.26827540e-005 3.26827540e-005 3.26827540e-005
      3.26827540e-005 3.26827540e-005 3.26827540e-005 3.26827540e-005
      3.26827540e-005 3.26827540e-005 3.26827540e-005 3.26827540e-005
      3.26827540e-005 3.26827540e-005 3.26827540e-005 3.26827540e-005
      3.26827540e-005 3.26827540e-005 3.26827540e-005 3.26827540e-005
      3.13594319e-005 4.04945276e-005 5.15137290e-005 6.56249176e-005
      6.17805999e-005 4.35138136e-005 7.38280651e-005 5.24868155e-005
      5.83252840e-005 5.83252840e-005 5.83252840e-005 5.83252840e-005
      5.83252840e-005 5.83252840e-005 5.83252840e-005 5.83252840e-005
      5.83252840e-005 5.83252840e-005 5.83252840e-005 5.83252840e-005
      5.83252840e-005 5.83252840e-005 5.83252840e-005 5.83252840e-005
      5.83252840e-005 5.83252840e-005 5.83252840e-005 5.83252840e-005
      5.83252840e-005 5.83252840e-005 5.83252840e-005 5.83252840e-005
      5.46260380e-005 7.26161816e-005 4.29454412e-005 6.88614382e-005
      5.92945289e-005 -1.95771227e-005 -1.15091179e-005 -2.19754711e-005
      -1.26517143e-005 -1.26517143e-005 -1.26517143e-005
      -1.26517143e-005 -1.26517143e-005 -1.26517143e-005
      -1.26517143e-005 -1.26517143e-005 -1.26517143e-005
      -1.26517143e-005 -1.26517143e-005 -1.26517143e-005
      -1.26517143e-005 -1.26517143e-005 -1.26517143e-005
      -1.26517143e-005 -1.26517143e-005 -1.26517143e-005
      -1.26517143e-005 -1.26517143e-005 -1.26517143e-005
      -1.26517143e-005 -1.26517143e-005 -1.26517143e-005
      -1.18415728e-005 -1.60416785e-005 -2.84548350e-005
      -2.71272220e-005 -7.52483265e-006 -2.31359627e-005
      -2.28221834e-005 2.67391624e-005 2.15026284e-005 2.15026284e-005
      2.15026284e-005 2.15026284e-005 2.15026284e-005 2.15026284e-005
      2.15026284e-005 2.15026284e-005 2.15026284e-005 2.15026284e-005
      2.15026284e-005 2.15026284e-005 2.15026284e-005 2.15026284e-005
      2.15026284e-005 2.15026284e-005 2.15026284e-005 2.15026284e-005
      2.15026284e-005 2.15026284e-005 2.15026284e-005 2.15026284e-005
      2.15026284e-005 2.15026284e-005 2.15026284e-005 2.15026284e-005
      2.15026284e-005 2.15026284e-005 2.15026284e-005 2.15026284e-005
      2.15026284e-005 2.15026284e-005 -2.00198429e-005 -2.00198429e-005
      -2.00198429e-005 -2.00198429e-005 -2.00198429e-005
      -2.00198429e-005 -2.00198429e-005 -2.00198429e-005
      -2.00198429e-005 -2.00198429e-005 -2.00198429e-005
      -2.00198429e-005 -2.00198429e-005 -2.00198429e-005
      -2.00198429e-005 -2.00198429e-005 -2.00198429e-005
      -2.00198429e-005 -2.00198429e-005 -2.00198429e-005
      -2.00198429e-005 -2.00198429e-005 -2.00198429e-005
      -2.00198429e-005 -2.00198429e-005 -2.00198429e-005
      -2.00198429e-005 -2.00198429e-005 -2.00198429e-005
      -2.00198429e-005 -2.00198429e-005 -2.00198429e-005
      -1.02475105e-005 -1.02475105e-005 -1.02475105e-005
      -1.02475105e-005 -1.02475105e-005 -1.02475105e-005
      -1.02475105e-005 -1.02475105e-005 -1.02475105e-005
      -1.02475105e-005 -1.02475105e-005 -1.02475105e-005
      -1.02475105e-005 -1.02475105e-005 -1.02475105e-005
      -1.02475105e-005 -1.02475105e-005 -1.02475105e-005
      -1.02475105e-005 -1.02475105e-005 -1.02475105e-005
      -1.02475105e-005 -1.02475105e-005 -1.02475105e-005
      -9.94615129e-006 -7.13599547e-006 -6.50411607e-007
      -4.16146395e-006 -6.71279213e-006 -1.47027695e-005
      -8.56370934e-006 -2.43610866e-005 -2.00198429e-005
      -2.00198429e-005 -2.00198429e-005 -2.00198429e-005
      -2.00198429e-005 -2.00198429e-005 -2.00198429e-005
      -2.00198429e-005 -2.00198429e-005 -2.00198429e-005
      -2.00198429e-005 -2.00198429e-005 -2.00198429e-005
      -2.00198429e-005 -2.00198429e-005 -2.00198429e-005
      -2.00198429e-005 -2.00198429e-005 -2.00198429e-005
      -2.00198429e-005 -2.00198429e-005 -2.00198429e-005
      -2.00198429e-005 -2.00198429e-005 -2.15651035e-005
      -2.41271046e-005 -2.26462507e-005 -1.72616856e-005
      -2.17540819e-005 -8.62099660e-006 -1.62071119e-005
      -7.42117754e-006 -1.11071849e-005 -1.11071849e-005
      -1.11071849e-005 -1.11071849e-005 -1.11071849e-005
      -1.11071849e-005 -1.11071849e-005 -1.11071849e-005
      -1.08113272e-005 -1.06181142e-005 -1.09139719e-005
      -1.14030427e-005 -1.17894688e-005 -1.15962557e-005
      -1.14030427e-005 -1.06181142e-005 -1.13003980e-005
      -1.09139719e-005 -1.15962557e-005 -1.05154704e-005
      -1.10166156e-005 -1.15962557e-005 -1.02196127e-005
      -1.09139719e-005 -1.37766338e-005 -2.78952371e-006
      -2.52415575e-005 -1.88912854e-005 -1.93907181e-005
      -2.30017249e-005 -1.91486852e-005 -1.75126806e-005
      -2.00198429e-005 -2.00198429e-005 -2.00198429e-005
      -2.00198429e-005 -2.00198429e-005 -2.00198429e-005
      -2.00198429e-005 -2.00198429e-005 -2.00198429e-005
      -2.00198429e-005 -2.00198429e-005 -2.00198429e-005
      -2.00198429e-005 -2.00198429e-005 -2.00198429e-005
      -2.00198429e-005 -1.80692805e-005 -1.81178402e-005
      -2.47037297e-005 -2.67440755e-005 -1.48697445e-005
      -2.38542416e-005 -4.85954442e-005 -5.33704733e-005
      -5.30702637e-005 -5.30702637e-005 -5.30702637e-005
      -5.30702637e-005 -5.30702637e-005 -5.30702637e-005
      -5.30702637e-005 -5.30702637e-005 -5.30702637e-005
      -5.30702637e-005 -5.30702637e-005 -5.30702637e-005
      -5.30702637e-005 -5.30702637e-005 -5.30702637e-005
      -5.30702637e-005 -5.30702637e-005 -5.30702637e-005
      -5.30702637e-005 -5.30702637e-005 -5.30702637e-005
      -5.30702637e-005 -5.30702637e-005 -5.30702637e-005
      -6.26121691e-005 1.62398046e-005 2.16328590e-005 1.79008221e-005
      2.43368340e-005 1.91454455e-005 1.83531884e-005 1.91984618e-005
      2.14171250e-005 2.14171250e-005 2.14171250e-005 2.14171250e-005
      2.14171250e-005 2.14171250e-005 2.14171250e-005 2.14171250e-005
      2.14171250e-005 2.14171250e-005 2.14171250e-005 2.14171250e-005
      2.14171250e-005 2.14171250e-005 2.14171250e-005 2.14171250e-005
      2.64882547e-005 8.55883445e-006 4.82793657e-005 -2.46478048e-005
      -1.28961510e-005 -1.21080120e-005 -1.17987447e-005
      -1.72866658e-005 -1.37728184e-005 -1.37728184e-005
      -1.28852462e-005 -1.37728184e-005 -1.37728184e-005
      -1.37728184e-005 -1.37728184e-005 -1.40686752e-005
      -1.37728184e-005 -1.37728184e-005 -1.37728184e-005
      -1.37728184e-005 -1.37728184e-005 -1.37728184e-005
      -1.37728184e-005 -1.37728184e-005 -1.00482848e-005
      -2.27217497e-005 -1.67407761e-005 -4.18526815e-006 1.40194861e-005
      2.62385365e-005 3.22752130e-005 1.91579165e-005 2.14171250e-005
      2.14171250e-005 2.14171250e-005 2.14171250e-005 2.14171250e-005
      2.14171250e-005 2.14171250e-005 2.14171250e-005 2.14171250e-005
      2.14171250e-005 2.14171250e-005 2.14171250e-005 2.14171250e-005
      2.14171250e-005 2.14171250e-005 2.14171250e-005 2.21815772e-005
      1.74728430e-005 1.26385030e-005 3.74208721e-005 1.80575607e-005
      4.46179547e-005 3.78156255e-005 3.02336794e-005 3.44356777e-005
      3.44356777e-005 3.44356777e-005 3.44356777e-005 3.44356777e-005
      3.44356777e-005 3.44356777e-005 3.44356777e-005 3.44356777e-005
      3.44356777e-005 3.44356777e-005 3.44356777e-005 3.44356777e-005
      3.44356777e-005 3.44356777e-005 3.44356777e-005 4.13166126e-005
      2.89994205e-005 4.09868771e-005 -2.76100454e-005 -2.84288944e-005
      -1.56857241e-005 -3.54496260e-005 -6.88593855e-006
      -2.00198429e-005 -2.00198429e-005 -2.00198429e-005
      -2.00198429e-005 -2.00198429e-005 -2.00198429e-005
      -2.00198429e-005 -2.00198429e-005 -2.00198429e-005
      -2.00198429e-005 -2.00198429e-005 -2.00198429e-005
      -2.00198429e-005 -2.00198429e-005 -2.00198429e-005
      -2.00198429e-005 -2.09307782e-005 -2.92720438e-006
      -3.61239177e-006 4.67103746e-007 -2.77662457e-006 -4.48872879e-006
      2.66411917e-007 -5.04362515e-006 -2.47304797e-006 -2.47304797e-006
      -2.47304797e-006 -2.47304797e-006 -2.47304797e-006
      -2.47304797e-006 -2.47304797e-006 -2.47304797e-006 2.95427117e-006
      -4.94427650e-006 -4.55608756e-007 -7.98081965e-006
      -1.01936603e-005 2.36951314e-006 6.60752703e-005 8.02281647e-005
      7.46747319e-005 7.46747319e-005 7.46747319e-005 7.46747319e-005
      7.46747319e-005 7.46747319e-005 7.46747319e-005 7.46747319e-005
      7.46747319e-005 7.46747319e-005 7.46747319e-005 7.46747319e-005
      7.46747319e-005 7.46747319e-005 7.46747319e-005 7.46747319e-005
      7.67514721e-005 6.73095055e-005 -1.58685743e-005 -1.84246528e-005
      -2.72194920e-005 -1.41406463e-005 -1.84006276e-005
      -9.67466258e-006 -1.68830411e-005 -1.68830411e-005
      -1.68830411e-005 -1.68830411e-005 -1.68830411e-005
      -1.68830411e-005 -1.68830411e-005 -1.68830411e-005
      -1.67490380e-005 -2.10432718e-005 -1.40185130e-005
      -1.82625190e-005 -1.15272560e-005 -2.41071029e-005
      -1.95631637e-005 -2.32810653e-005 -2.00198429e-005
      -2.00198429e-005 -2.00198429e-005 -2.00198429e-005
      -2.00198429e-005 -2.00198429e-005 -2.00198429e-005
      -2.00198429e-005 -1.67201979e-005 -2.15346863e-005
      -1.72361761e-005 -2.34612999e-005 -1.82890635e-005
      -2.08240672e-005 -1.41749242e-005 2.35505595e-005 2.92667610e-005
      2.92667610e-005 2.92667610e-005 2.92667610e-005 2.92667610e-005
      2.92667610e-005 2.92667610e-005 2.92667610e-005 2.92667610e-005
      2.92667610e-005 2.92667610e-005 2.92667610e-005 2.92667610e-005
      2.92667610e-005 2.92667610e-005 2.92667610e-005 -2.00198429e-005
      -2.00198429e-005 -2.00198429e-005 -2.00198429e-005
      -2.00198429e-005 -2.00198429e-005 -2.00198429e-005
      -2.00198429e-005 -2.00198429e-005 -2.00198429e-005
      -2.00198429e-005 -2.00198429e-005 -2.00198429e-005
      -2.00198429e-005 -2.00198429e-005 -2.00198429e-005
      -1.99092956e-005 -1.99092956e-005 -1.99092956e-005
      -1.99092956e-005 -1.99092956e-005 -1.99092956e-005
      -1.99092956e-005 -1.99092956e-005 -2.49101977e-005
      -1.72944638e-005 -2.28906410e-005 -2.68287076e-005
      -1.92649841e-005 -1.27439980e-005 -2.43741943e-005
      -3.61562852e-005 -3.73664843e-005 -3.73664843e-005
      -3.73664843e-005 -3.73664843e-005 -3.73664843e-005
      -3.73664843e-005 -3.73664843e-005 -3.73664843e-005
      -3.35242585e-005 -3.33042444e-005 -4.19726057e-005
      -4.20578908e-005 -4.37965900e-005 -3.33971229e-006
      -2.60323923e-005 -8.49841217e-006 -2.07550474e-005
      -2.07550474e-005 -2.07550474e-005 -2.07550474e-005
      -2.07550474e-005 -2.07550474e-005 -2.07550474e-005
      -2.07550474e-005 -2.33678111e-005 -2.01064959e-005 2.66080606e-005
      3.02840344e-005 4.39432661e-005 4.09662098e-005 3.64734478e-005
      3.26312984e-005 3.94519957e-005 3.54095719e-005 3.30237563e-005
      3.81894752e-005 3.39700709e-005 2.92489549e-005 -1.62505512e-005
      -2.65767485e-005 -2.00198429e-005 -2.00198429e-005
      -2.00198429e-005 -2.00198429e-005 -2.00198429e-005
      -2.00198429e-005 -2.00198429e-005 -2.00198429e-005
      -2.01317125e-005 -2.45808405e-005 -2.05802444e-005
      -1.67111466e-005 -2.34984709e-005 -2.22066810e-005
      -1.78620212e-005 -2.03954223e-005 -1.93089672e-005
      -2.17815232e-005 -2.18100122e-005 -2.12714531e-005
      -1.41332803e-005 -2.10803610e-005 -2.06438654e-005
      -1.95484190e-005 -2.13726089e-005 -2.17853340e-005
      -2.11348852e-005 -1.81454488e-005 2.88489045e-005 3.44579748e-005
      3.64551488e-005 3.48790563e-005 3.68279070e-005 3.25424844e-005
      3.48797439e-005 3.10496689e-005 -2.16149674e-005 -2.13517869e-005
      -1.61951612e-005 -2.30937185e-005 -2.31057238e-005
      -2.09954669e-005 -1.82968924e-005 -2.48926171e-005
      -1.41693135e-005 -2.14781776e-005 -1.90394367e-005
      -2.05568667e-005 -2.41976031e-005 -2.28795179e-005
      -1.31432125e-005 -8.78281844e-006 -1.15223338e-005
      -1.90390583e-005 -3.26082118e-005 -3.58103061e-005
      -2.11754741e-005 -4.33662681e-005 8.10219717e-005 5.26144358e-005
      6.38130514e-005 -1.81003652e-005 -2.17712550e-005 -2.99117582e-005</_></support_vectors>
  <decision_functions>
    <_>
      <sv_count>1</sv_count>
      <rho>-8.4353521592330671e-001</rho>
      <alpha>
        1.</alpha>
      <index>
        0</index></_></decision_functions></my_svm>
</opencv_storage>
