<?xml version="1.0"?>
<opencv_storage>
<my_svm type_id="opencv-ml-svm">
  <svm_type>C_SVC</svm_type>
  <kernel><type>LINEAR</type></kernel>
  <C>1.</C>
  <term_criteria><epsilon>2.2204460492503131e-016</epsilon>
    <iterations>100</iterations></term_criteria>
  <var_all>4544</var_all>
  <var_count>4544</var_count>
  <class_count>2</class_count>
  <class_labels type_id="opencv-matrix">
    <rows>1</rows>
    <cols>2</cols>
    <dt>i</dt>
    <data>
      8 255</data></class_labels>
  <sv_total>1</sv_total>
  <support_vectors>
    <_>
      -1.10740835e-007 -1.10740835e-007 1.25586396e-007 -6.66725157e-007
      -6.66725157e-007 4.70768640e-007 -3.64012720e-007 -3.64012720e-007
      -4.21634837e-007 0. -5.40170277e-007 -1.41443854e-006
      -5.40170277e-007 -9.19620163e-007 -2.21874870e-007 1.12887157e-007
      -4.21634837e-007 7.77883315e-007 1.19951812e-006 1.07183268e-006
      0. 4.38048886e-007 -4.21634837e-007 6.24645651e-008
      -4.27200575e-007 -1.14354712e-007 -2.27819783e-006
      -2.16384319e-006 -2.16384319e-006 -2.16384319e-006
      -3.12845856e-007 -3.12845856e-007 -3.79449943e-007
      -3.79449943e-007 0. 0. 0. 0. -3.79449943e-007 -5.07135439e-007
      -3.64012720e-007 -3.64012720e-007 0. 0. 0. 0. 0. -1.30643130e-007
      -1.55284647e-006 -1.52430971e-006 0. 0. 0. 0. 0. 0. 0. 0. 0.
      5.98454108e-007 5.98454108e-007 5.98454108e-007 5.98454108e-007
      5.98454108e-007 0. 0. -1.22260451e-006 0. 0. 0. 0. 0.
      1.19951812e-006 0. 0. 0. 0. -1.14354712e-007 -1.14354712e-007
      -1.14354712e-007 0. 0. 0. 0. 0. 0. 0. 0. 6.01064016e-007
      6.01064016e-007 6.01064016e-007 0. 0. 0. 0. 0. 0. 0. 0.
      -3.64012720e-007 -3.64012720e-007 0. 5.32128411e-007
      2.13121939e-006 4.10824157e-007 0. 0. -3.79449943e-007
      -3.79449943e-007 0. 0. 0. 9.35826051e-007 9.35826051e-007
      9.35826051e-007 6.01064016e-007 0. 0. 0. 0. 0. 0. 0. 0. 0. 0. 0.
      0. 0. 0. 0. 0. 0. 0. 0. 0. 0. 0. 0. 0. 0. 0. 0. 0. 0. 0. 0. 0. 0.
      0. 0. 0. 0. 0. 0. 0. 0. 0. 0. 0. 0. 0. 0. 0. 0. 0. 0. 0. 0. 0. 0.
      0. 0. 0. 0. 0. 0. 0. 0. 0. 0. 0. 0. 0. 0. 0. 0. 0. 0. 0. 0. 0. 0.
      0. 0. 0. 0. 0. 0. 0. 0. 0. 0. 0. 0. 0. 0. 0. 0. 0. 0. 0. 0. 0. 0.
      0. 0. 0. 0. 0. 0. 0. 0. 0. 0. 0. 0. 0. 0. 0. 0. 0. 0. 0. 0. 0. 0.
      0. 0. 0. 0. 0. 0. 0. 0. 0. 0. 0. 0. 0. 0. 0. 0. 0. 0. 0.
      -1.60002605e-006 1.62129550e-006 3.69676764e-006 4.56902853e-006
      1.36122208e-006 9.40425878e-007 3.30015132e-006 2.21025471e-006
      1.31794707e-006 1.45225715e-006 -1.88136642e-006 6.60191404e-007
      -2.05594415e-006 -7.49734272e-006 -5.01332988e-006
      -1.04622848e-006 -1.62816980e-006 1.40029817e-006 2.73536580e-006
      3.87385762e-006 2.56167732e-006 -6.65599089e-007 -3.26527174e-006
      -3.04303603e-006 7.34425669e-007 1.00866964e-006 3.33138564e-006
      1.58262344e-006 3.04656419e-006 3.04656419e-006 -2.58803357e-006
      -4.57143642e-006 -2.45591605e-006 -2.60368836e-007 1.39839926e-007
      -1.24619373e-006 -2.87712987e-006 7.86409160e-008 7.35383026e-007
      -1.53902283e-006 1.95175176e-006 4.82205587e-006 3.26838108e-006
      4.26638098e-006 4.51070355e-006 1.19096853e-006 1.96026690e-006
      -2.22604535e-006 4.05777058e-007 -1.36788492e-006 -2.04616867e-006
      -4.96917846e-006 -3.46216848e-006 -1.05456832e-006
      -2.60913862e-006 -6.50792845e-006 2.34644335e-006 -3.13788428e-006
      -3.63196068e-006 -2.45100205e-006 -4.34058791e-007
      -2.64358937e-006 -6.35098388e-007 -1.45606771e-006
      -9.89260158e-008 2.71685138e-007 -8.02489637e-007 -1.83443126e-006
      2.81028292e-006 1.14153818e-006 1.33923572e-006 -2.40188251e-006
      -1.60768343e-006 2.33537293e-007 -3.53942210e-006 -3.98343082e-006
      -2.99303383e-006 -3.33657226e-007 3.40945780e-006 4.44219404e-006
      3.80863048e-006 -1.90782202e-007 -6.43597104e-006 -4.38992947e-006
      -1.21812923e-006 1.86835109e-006 1.46327989e-006 6.41261568e-006
      -2.92425852e-006 -3.22460437e-006 -4.55942063e-006
      -2.66968414e-006 1.50672577e-006 -1.42995236e-006 -2.38117286e-006
      1.20021048e-006 1.29706223e-006 1.94273684e-006 -2.71082314e-007
      -1.20746654e-006 -5.86926319e-007 -6.59527700e-007 3.71109013e-006
      4.01018360e-006 -2.11651013e-006 -1.75249727e-006 2.09054406e-007
      2.21692540e-006 7.41036899e-007 -1.63591878e-007 3.04612081e-006
      3.34464471e-006 1.91687855e-006 2.36834603e-006 2.36834603e-006
      2.36834603e-006 2.15320574e-006 -8.74548647e-008 -2.44254556e-006
      -2.73454066e-006 6.09932442e-008 -5.40070801e-007 -1.01083947e-006
      -4.66904794e-007 2.48722495e-006 2.58637351e-006 -1.52675781e-007
      5.35843128e-007 -1.92607172e-006 -9.76287652e-007 -6.19114360e-007
      1.43465411e-006 1.36485312e-006 -1.94733417e-007 -3.93276167e-007
      6.64152751e-008 1.23234628e-007 -1.00618399e-006 -7.36125060e-007
      2.24651142e-008 -1.43858222e-006 9.16991780e-007 1.81120447e-006
      1.17009051e-006 2.00887121e-006 2.33263495e-006 2.05530068e-006
      -7.87250485e-007 -6.92700212e-007 5.31198054e-007 3.60050012e-006
      2.64009964e-006 -1.08721417e-006 -2.11492102e-006 -3.64563130e-006
      -4.23817482e-006 -3.75261152e-006 -2.64759137e-006 8.91203513e-007
      3.03175034e-006 3.07940297e-007 1.74657009e-006 4.84742202e-007
      -2.65875974e-006 -2.59580872e-007 2.07484646e-007 1.53204269e-006
      3.65432561e-006 -4.87738816e-006 -5.79250991e-006 -1.24913834e-006
      -7.30330896e-007 -4.26933354e-007 -2.03212167e-007
      -3.67288266e-007 -1.69964505e-006 -2.39013139e-006 1.92153925e-006
      1.88180979e-006 1.40166605e-006 -2.63091647e-006 -9.33725175e-007
      -1.55732529e-008 2.88679394e-006 -5.62125342e-006 -1.31214051e-006
      1.89663081e-006 2.82543783e-006 4.00908039e-006 1.17752609e-006
      6.75016963e-007 2.28942054e-006 -7.38021299e-007 -1.45547688e-006
      8.62603656e-007 -2.76188416e-006 -4.57776969e-006 -4.04618140e-006
      -2.70180271e-006 -1.99924830e-006 5.46238596e-007 -2.92227242e-007
      3.16715295e-006 3.86637475e-006 3.27616544e-006 6.32759452e-007
      -6.71534337e-007 9.93610229e-007 -2.37491190e-006 2.88744587e-007
      4.27532905e-006 -1.25126792e-006 -2.80086942e-006 -2.08431561e-006
      -1.25869440e-006 -7.16149088e-006 -1.31159265e-006
      -1.35244349e-007 -4.20081591e-007 3.05246630e-007 4.31670060e-006
      5.14862177e-006 1.83535769e-006 8.38341350e-007 2.29944749e-006
      9.03315396e-008 -4.29316970e-007 6.27213467e-007 2.16813248e-007
      5.77299602e-007 3.11549934e-006 -6.32037143e-007 4.24098744e-006
      2.29684179e-006 2.13926660e-006 2.16435865e-006 2.21505161e-006
      1.41139776e-006 -1.53643089e-006 -1.68939300e-006 2.12702233e-007
      8.74111834e-007 -2.03907256e-008 -1.26325030e-008 1.02106867e-006
      1.04145931e-006 3.39655003e-006 1.78478547e-006 4.89987713e-007
      1.09105179e-006 6.00015255e-007 4.66904794e-007 -2.48722495e-006
      -2.58637351e-006 -2.68959042e-007 -9.57477937e-007
      -2.35021344e-005 -2.35021344e-005 -2.35021344e-005
      -2.35021344e-005 -2.35021344e-005 -2.35021344e-005
      -2.35021344e-005 -2.35021344e-005 -2.35021344e-005
      -2.35021344e-005 -2.35021344e-005 -2.35021344e-005
      -2.35021344e-005 -2.35021344e-005 -2.35021344e-005
      -2.35021344e-005 -2.35021344e-005 -2.35021344e-005
      -2.35021344e-005 -2.35021344e-005 -2.35021344e-005
      -2.35021344e-005 -2.35021344e-005 -2.35021344e-005
      -2.35021344e-005 -2.35021344e-005 -2.35021344e-005
      -2.35021344e-005 -2.35021344e-005 -2.35021344e-005
      -2.35021344e-005 -2.35021344e-005 -2.35021344e-005
      -2.35021344e-005 -2.35021344e-005 -2.35021344e-005
      -2.35021344e-005 -2.35021344e-005 -2.35021344e-005
      -2.35021344e-005 -2.35021344e-005 -2.35021344e-005
      -2.35021344e-005 -2.35021344e-005 -2.35021344e-005
      -2.35021344e-005 -2.35021344e-005 -2.35021344e-005
      -2.35021344e-005 -2.35021344e-005 -2.35021344e-005
      -2.35021344e-005 -2.35021344e-005 -2.35021344e-005
      -2.35021344e-005 -2.35021344e-005 -1.67440448e-005
      -2.79423875e-005 -2.04623484e-005 -2.38908506e-005
      -1.63565164e-005 -2.68438962e-005 -1.91726012e-005
      -5.20561298e-005 -5.06863980e-005 -5.06863980e-005
      -5.06863980e-005 -5.06863980e-005 -5.06863980e-005
      -5.06863980e-005 -5.06863980e-005 -5.06863980e-005
      -5.06863980e-005 -5.06863980e-005 -5.06863980e-005
      -5.06863980e-005 -5.06863980e-005 -5.06863980e-005
      -5.06863980e-005 -5.06863980e-005 -5.06863980e-005
      -5.06863980e-005 -5.06863980e-005 -5.06863980e-005
      -5.06863980e-005 -5.06863980e-005 -5.06863980e-005
      -5.06863980e-005 -5.06863980e-005 -5.06863980e-005
      -5.06863980e-005 -5.06863980e-005 -5.06863980e-005
      -5.06863980e-005 -5.06863980e-005 -5.06863980e-005
      -5.06863980e-005 -5.06863980e-005 -5.06863980e-005
      -5.06863980e-005 -5.06863980e-005 -5.06863980e-005
      -5.06863980e-005 -5.06863980e-005 -5.06863980e-005
      -5.06863980e-005 -5.06863980e-005 -5.06863980e-005
      -5.06863980e-005 -5.06863980e-005 -5.06863980e-005
      -5.06863980e-005 -5.06863980e-005 -5.06863980e-005
      -5.06863980e-005 -5.06863980e-005 -5.06863980e-005
      -5.06863980e-005 -5.06863980e-005 -5.06863980e-005
      -4.85163546e-005 -5.70329430e-005 -4.24493119e-005
      -5.27144111e-005 -5.23721646e-005 -1.36738981e-005
      -7.85694738e-006 -1.14564100e-005 -1.32051282e-005
      -1.32051282e-005 -1.32051282e-005 -1.32051282e-005
      -1.32051282e-005 -1.32051282e-005 -1.32051282e-005
      -1.32051282e-005 -1.32051282e-005 -1.32051282e-005
      -1.32051282e-005 -1.32051282e-005 -1.32051282e-005
      -1.32051282e-005 -1.32051282e-005 -1.32051282e-005
      -1.32051282e-005 -1.32051282e-005 -1.32051282e-005
      -1.32051282e-005 -1.32051282e-005 -1.32051282e-005
      -1.32051282e-005 -1.32051282e-005 -1.32051282e-005
      -1.32051282e-005 -1.32051282e-005 -1.32051282e-005
      -1.32051282e-005 -1.32051282e-005 -1.32051282e-005
      -1.32051282e-005 -1.32051282e-005 -1.32051282e-005
      -1.32051282e-005 -1.32051282e-005 -1.32051282e-005
      -1.32051282e-005 -1.32051282e-005 -1.32051282e-005
      -1.32051282e-005 -1.32051282e-005 -1.32051282e-005
      -1.32051282e-005 -1.32051282e-005 -1.32051282e-005
      -1.32051282e-005 -1.32051282e-005 -1.32051282e-005
      -1.32051282e-005 -1.32051282e-005 -1.32051282e-005
      -1.32051282e-005 -1.32051282e-005 -1.32051282e-005
      -1.32051282e-005 -1.32051282e-005 -1.32051282e-005
      -1.32051282e-005 -1.32051282e-005 -1.32051282e-005
      -1.32051282e-005 -1.32051282e-005 -1.32051282e-005
      -1.32051282e-005 -1.32051282e-005 -1.32051282e-005
      -1.32051282e-005 -1.32051282e-005 -1.32051282e-005
      -1.32051282e-005 -1.32051282e-005 -1.32051282e-005
      -1.32051282e-005 -1.32051282e-005 -1.32051282e-005
      -1.32051282e-005 -1.32051282e-005 -1.32051282e-005
      -1.32051282e-005 -1.32051282e-005 -1.32051282e-005
      -1.32051282e-005 -1.32051282e-005 -1.32051282e-005
      -1.32051282e-005 -1.32051282e-005 -1.32051282e-005
      -1.32051282e-005 -1.32051282e-005 -1.32051282e-005
      -1.32051282e-005 -1.32051282e-005 -1.32051282e-005
      -1.32051282e-005 -1.32051282e-005 -1.32051282e-005
      -1.32051282e-005 -1.32051282e-005 -1.32051282e-005
      -1.32051282e-005 -1.32051282e-005 -1.32051282e-005
      -1.32051282e-005 -1.32051282e-005 -1.32051282e-005
      -1.32051282e-005 -1.32051282e-005 -1.32051282e-005
      -1.32051282e-005 -1.32051282e-005 -1.32051282e-005
      -1.12609250e-005 -1.33508256e-005 -1.40792481e-005
      -1.41006994e-005 -1.56296155e-005 -1.25935876e-005 3.34848555e-005
      3.36951962e-005 3.25874062e-005 3.25874062e-005 3.25874062e-005
      3.25874062e-005 3.25874062e-005 3.25874062e-005 3.25874062e-005
      3.25874062e-005 3.25874062e-005 3.25874062e-005 3.25874062e-005
      3.25874062e-005 3.25874062e-005 3.25874062e-005 3.25874062e-005
      3.25874062e-005 3.25874062e-005 3.25874062e-005 3.25874062e-005
      3.25874062e-005 3.25874062e-005 3.25874062e-005 3.25874062e-005
      3.25874062e-005 3.25874062e-005 3.25874062e-005 3.25874062e-005
      3.25874062e-005 3.25874062e-005 3.25874062e-005 3.25874062e-005
      3.25874062e-005 3.25874062e-005 3.25874062e-005 3.25874062e-005
      3.25874062e-005 3.25874062e-005 3.25874062e-005 3.25874062e-005
      3.25874062e-005 3.25874062e-005 3.25874062e-005 3.25874062e-005
      3.25874062e-005 3.25874062e-005 3.25874062e-005 3.25874062e-005
      3.25874062e-005 3.25874062e-005 3.25874062e-005 3.25874062e-005
      3.25874062e-005 3.25874062e-005 3.25874062e-005 3.25874062e-005
      3.25874062e-005 1.86215912e-005 3.30153853e-005 3.02759472e-005
      2.81868979e-005 3.16275509e-005 2.94492038e-005 3.72257673e-005
      3.35089753e-005 3.12795928e-005 3.12795928e-005 3.12795928e-005
      3.12795928e-005 3.12795928e-005 3.12795928e-005 3.12795928e-005
      3.12795928e-005 3.12795928e-005 3.12795928e-005 3.12795928e-005
      3.12795928e-005 3.12795928e-005 3.12795928e-005 3.12795928e-005
      3.12795928e-005 3.12795928e-005 3.12795928e-005 3.12795928e-005
      3.12795928e-005 3.12795928e-005 3.12795928e-005 3.12795928e-005
      3.12795928e-005 3.12795928e-005 3.12795928e-005 3.12795928e-005
      3.12795928e-005 3.12795928e-005 3.12795928e-005 3.12795928e-005
      3.12795928e-005 3.12795928e-005 3.12795928e-005 3.12795928e-005
      3.12795928e-005 3.12795928e-005 3.12795928e-005 3.12795928e-005
      3.12795928e-005 3.12795928e-005 3.12795928e-005 3.12795928e-005
      3.12795928e-005 3.12795928e-005 3.12795928e-005 3.12795928e-005
      3.12795928e-005 3.73262519e-005 2.13060121e-005 3.45718181e-005
      -1.78790087e-005 -1.74173238e-005 -8.82002496e-006
      -1.72840846e-005 -1.79739436e-005 -1.71522533e-005
      -1.71522533e-005 -1.71522533e-005 -1.71522533e-005
      -1.71522533e-005 -1.71522533e-005 -1.71522533e-005
      -1.71522533e-005 -1.71522533e-005 -1.71522533e-005
      -1.71522533e-005 -1.71522533e-005 -1.71522533e-005
      -1.71522533e-005 -1.71522533e-005 -1.71522533e-005
      -1.71522533e-005 -1.71522533e-005 -1.71522533e-005
      -1.71522533e-005 -1.71522533e-005 -1.71522533e-005
      -1.71522533e-005 -1.71522533e-005 -1.71522533e-005
      -1.71522533e-005 -1.71522533e-005 -1.71522533e-005
      -1.71522533e-005 -1.71522533e-005 -1.71522533e-005
      -1.71522533e-005 -1.71522533e-005 -1.71522533e-005
      -1.71522533e-005 -1.71522533e-005 -1.71522533e-005
      -1.71522533e-005 -1.71522533e-005 -1.71522533e-005
      -1.71522533e-005 -1.71522533e-005 -1.71522533e-005
      -1.71522533e-005 -1.71522533e-005 -1.71522533e-005
      -1.71522533e-005 -1.71522533e-005 -2.63309703e-005
      -2.45669162e-005 -1.32811529e-005 -1.28941638e-005 6.75608180e-006
      2.42559395e-009 1.13706892e-005 1.17512955e-005 4.80410381e-006
      4.80410381e-006 4.80410381e-006 4.80410381e-006 4.80410381e-006
      4.80410381e-006 4.80410381e-006 4.80410381e-006 4.80410381e-006
      4.80410381e-006 4.80410381e-006 4.80410381e-006 4.80410381e-006
      4.80410381e-006 4.80410381e-006 4.80410381e-006 4.80410381e-006
      4.80410381e-006 4.80410381e-006 4.80410381e-006 4.80410381e-006
      4.80410381e-006 4.80410381e-006 4.80410381e-006 4.80410381e-006
      4.80410381e-006 4.80410381e-006 4.80410381e-006 4.80410381e-006
      4.80410381e-006 4.80410381e-006 4.80410381e-006 4.80410381e-006
      4.80410381e-006 4.80410381e-006 4.80410381e-006 4.80410381e-006
      4.80410381e-006 4.80410381e-006 4.80410381e-006 4.80410381e-006
      4.80410381e-006 4.80410381e-006 4.80410381e-006 4.80410381e-006
      4.80410381e-006 4.80410381e-006 4.80410381e-006 2.20120251e-006
      1.09798939e-005 1.43368461e-005 3.14897238e-006 -2.82530109e-005
      -4.24454629e-005 -3.78273908e-005 -3.12704360e-005
      -3.54452532e-005 -3.54452532e-005 -3.54452532e-005
      -3.54452532e-005 -3.54452532e-005 -3.54452532e-005
      -3.54452532e-005 -3.54452532e-005 -3.54452532e-005
      -3.54452532e-005 -3.54452532e-005 -3.54452532e-005
      -3.54452532e-005 -3.54452532e-005 -3.54452532e-005
      -3.54452532e-005 -3.54452532e-005 -3.54452532e-005
      -3.54452532e-005 -3.54452532e-005 -3.54452532e-005
      -3.54452532e-005 -3.54452532e-005 -3.54452532e-005
      -3.54452532e-005 -3.54452532e-005 -3.54452532e-005
      -3.54452532e-005 -3.54452532e-005 -3.54452532e-005
      -3.54452532e-005 -3.54452532e-005 -3.54452532e-005
      -3.54452532e-005 -3.54452532e-005 -3.54452532e-005
      -3.54452532e-005 -3.54452532e-005 -3.54452532e-005
      -3.54452532e-005 -3.54452532e-005 -3.54452532e-005
      -3.54452532e-005 -3.54452532e-005 -3.54452532e-005
      -3.54452532e-005 -3.54452532e-005 -3.54452532e-005
      -4.42371747e-005 -2.63630864e-005 -3.71480965e-005
      -7.43339251e-006 -1.50128790e-005 -1.89635066e-005
      -1.57754621e-005 -1.19150163e-005 -1.32051282e-005
      -1.32051282e-005 -1.32051282e-005 -1.32051282e-005
      -1.32051282e-005 -1.32051282e-005 -1.32051282e-005
      -1.32051282e-005 -1.32051282e-005 -1.32051282e-005
      -1.32051282e-005 -1.32051282e-005 -1.32051282e-005
      -1.32051282e-005 -1.32051282e-005 -1.32051282e-005
      -1.32051282e-005 -1.32051282e-005 -1.32051282e-005
      -1.32051282e-005 -1.32051282e-005 -1.32051282e-005
      -1.32051282e-005 -1.32051282e-005 -1.32051282e-005
      -1.38308196e-005 -1.28922829e-005 -1.25794368e-005
      -1.32051282e-005 -1.32051282e-005 -1.28922829e-005
      -1.38308196e-005 -1.32051282e-005 -1.32051282e-005
      -1.28922829e-005 -1.35179744e-005 -1.35179744e-005
      -1.28922829e-005 -1.32051282e-005 -1.32051282e-005
      -1.35179744e-005 -1.35179744e-005 -1.25794368e-005
      -1.38308196e-005 -1.28922829e-005 -1.35179744e-005
      -1.35179744e-005 -1.25794368e-005 -9.29544967e-006
      -1.79493709e-005 -1.48525842e-005 -1.28922829e-005
      -1.59602914e-005 -9.08657694e-006 -1.03379598e-005
      -1.48128802e-005 -1.32051282e-005 -1.32051282e-005
      -1.32051282e-005 -1.32051282e-005 -1.32051282e-005
      -1.32051282e-005 -1.32051282e-005 -1.32051282e-005
      -1.32051282e-005 -1.32051282e-005 -1.32051282e-005
      -1.32051282e-005 -1.32051282e-005 -1.32051282e-005
      -1.32051282e-005 -1.32051282e-005 -1.32051282e-005
      -1.32051282e-005 -1.32051282e-005 -1.32051282e-005
      -1.32051282e-005 -1.32051282e-005 -1.32051282e-005
      -1.32051282e-005 -1.25071347e-005 -1.28922829e-005
      -1.35179744e-005 -1.32051282e-005 -1.32051282e-005
      -1.28922829e-005 -1.38308196e-005 -1.25071347e-005
      -1.14962950e-005 -1.42882700e-005 -1.28199808e-005
      -1.42159679e-005 -1.49139614e-005 -1.04131541e-005
      -1.39031217e-005 -1.28922829e-005 -1.41736964e-005
      -1.52062767e-005 -1.34137872e-005 -1.06899370e-005
      -2.05754586e-005 -9.41607595e-006 -4.51905271e-006 5.99679197e-007
      -7.49922037e-007 -1.06276786e-006 -1.06276786e-006
      -7.49922037e-007 -7.49922037e-007 -1.37561369e-006
      -1.37561369e-006 -1.06276786e-006 -1.06276786e-006
      -1.06276786e-006 -1.06276786e-006 -1.06276786e-006
      -1.06276786e-006 -1.06276786e-006 -1.06276786e-006
      -1.06276786e-006 -1.06276786e-006 -1.06276786e-006
      -1.06276786e-006 -1.06276786e-006 -1.06276786e-006
      -1.06276786e-006 -1.06276786e-006 -1.06276786e-006 2.60917403e-007
      -6.77620164e-007 -2.07360722e-006 -2.14590909e-006
      -2.38645316e-006 -4.37076181e-007 -2.07360722e-006
      -6.77620164e-007 -1.68845963e-006 -7.49922037e-007
      -1.06276786e-006 -3.64774309e-007 2.60917403e-007 -7.49922037e-007
      -1.68845963e-006 -1.06276786e-006 -1.68845963e-006
      -1.44791557e-006 -1.06276786e-006 -1.76076139e-006
      -1.13506974e-006 6.46065132e-007 -1.68845963e-006 -1.06276786e-006
      -3.36847802e-006 -1.27432571e-007 1.77200548e-006 2.89393392e-006
      5.05233584e-006 2.59589524e-006 5.20910635e-006 2.11796942e-006
      3.07787582e-006 3.07787582e-006 3.07787582e-006 3.07787582e-006
      3.07787582e-006 3.07787582e-006 3.07787582e-006 3.07787582e-006
      3.07787582e-006 3.07787582e-006 3.07787582e-006 3.07787582e-006
      3.07787582e-006 3.07787582e-006 3.07787582e-006 3.07787582e-006
      3.07787582e-006 3.07787582e-006 3.07787582e-006 3.07787582e-006
      3.07787582e-006 3.07787582e-006 3.07787582e-006 3.07787582e-006
      2.41031125e-006 3.84817122e-006 2.69272800e-006 4.44343368e-006
      1.65145957e-006 2.76502988e-006 4.11914425e-006 3.80629831e-006
      3.49345237e-006 4.78670881e-006 9.83895006e-007 4.44343368e-006
      1.65145957e-006 3.77586935e-006 3.42115050e-006 3.49345237e-006
      7.17982266e-006 -3.20995969e-006 5.05180242e-006 3.31786100e-006
      1.30943363e-005 1.12889238e-005 4.25216276e-005 1.70667336e-005
      2.66192492e-005 2.66192492e-005 2.66192492e-005 2.66192492e-005
      2.66192492e-005 2.66192492e-005 2.66192492e-005 2.66192492e-005
      2.66192492e-005 2.66192492e-005 2.66192492e-005 2.66192492e-005
      2.66192492e-005 2.66192492e-005 2.66192492e-005 2.66192492e-005
      2.66192492e-005 2.66192492e-005 2.66192492e-005 2.66192492e-005
      2.66192492e-005 2.66192492e-005 2.66192492e-005 2.66192492e-005
      2.63064030e-005 2.66192492e-005 2.63064030e-005 2.59212557e-005
      2.87132298e-005 2.59212557e-005 2.80152362e-005 2.49104160e-005
      2.63064030e-005 2.65469480e-005 2.87855310e-005 2.58489545e-005
      2.56084095e-005 2.76300889e-005 2.42847236e-005 2.83280824e-005
      1.63578497e-005 3.24182183e-005 1.97404570e-005 2.97958577e-005
      4.55331474e-006 3.94290291e-005 2.48091965e-005 1.04140454e-004
      1.07195636e-004 1.07195636e-004 1.07195636e-004 1.07195636e-004
      1.07195636e-004 1.07195636e-004 1.07195636e-004 1.07195636e-004
      1.07195636e-004 1.07195636e-004 1.07195636e-004 1.07195636e-004
      1.07195636e-004 1.07195636e-004 1.07195636e-004 1.07195636e-004
      1.07195636e-004 1.07195636e-004 1.07195636e-004 1.07195636e-004
      1.07195636e-004 1.07195636e-004 1.07195636e-004 1.07195636e-004
      1.07195636e-004 1.07195636e-004 1.07195636e-004 1.07195636e-004
      1.07195636e-004 1.07195636e-004 1.07195636e-004 1.07195636e-004
      1.07195636e-004 1.07195636e-004 1.07195636e-004 1.07195636e-004
      1.07195636e-004 1.07195636e-004 1.07195636e-004 1.07195636e-004
      1.07195636e-004 1.07195636e-004 1.07195636e-004 1.07195636e-004
      1.07195636e-004 1.07195636e-004 1.07195636e-004 1.07195636e-004
      1.50857832e-005 1.50857832e-005 1.50857832e-005 1.50857832e-005
      1.50857832e-005 1.50857832e-005 1.50857832e-005 1.50857832e-005
      1.50857832e-005 1.50857832e-005 1.50857832e-005 1.50857832e-005
      1.50857832e-005 1.50857832e-005 1.50857832e-005 1.50857832e-005
      1.50857832e-005 1.50857832e-005 1.50857832e-005 1.50857832e-005
      1.50857832e-005 1.50857832e-005 1.50857832e-005 1.50857832e-005
      1.50857832e-005 1.50857832e-005 1.50857832e-005 1.50857832e-005
      1.50857832e-005 1.50857832e-005 1.50857832e-005 1.50857832e-005
      1.50857832e-005 1.50857832e-005 1.50857832e-005 1.50857832e-005
      1.50857832e-005 1.50857832e-005 1.50857832e-005 1.50857832e-005
      1.50857832e-005 1.50857832e-005 1.50857832e-005 1.50857832e-005
      1.50857832e-005 1.50857832e-005 1.50857832e-005 1.50857832e-005
      -1.32051282e-005 -1.32051282e-005 -1.32051282e-005
      -1.32051282e-005 -1.32051282e-005 -1.32051282e-005
      -1.32051282e-005 -1.32051282e-005 -1.32051282e-005
      -1.32051282e-005 -1.32051282e-005 -1.32051282e-005
      -1.32051282e-005 -1.32051282e-005 -1.32051282e-005
      -1.32051282e-005 -1.32051282e-005 -1.32051282e-005
      -1.32051282e-005 -1.32051282e-005 -1.32051282e-005
      -1.32051282e-005 -1.32051282e-005 -1.32051282e-005
      -1.32051282e-005 -1.32051282e-005 -1.32051282e-005
      -1.32051282e-005 -1.32051282e-005 -1.32051282e-005
      -1.32051282e-005 -1.32051282e-005 -1.32051282e-005
      -1.32051282e-005 -1.32051282e-005 -1.32051282e-005
      -1.32051282e-005 -1.32051282e-005 -1.32051282e-005
      -1.32051282e-005 -1.26125851e-005 -1.30377584e-005
      -1.14917675e-005 -1.22977117e-005 -1.19056867e-005
      -1.49358248e-005 -1.27136582e-005 -1.20822833e-005
      -1.32051282e-005 -1.32051282e-005 -1.32051282e-005
      -1.32051282e-005 -1.32051282e-005 -1.32051282e-005
      -1.32051282e-005 -1.32051282e-005 -1.32051282e-005
      -1.32051282e-005 -1.32051282e-005 -1.32051282e-005
      -1.32051282e-005 -1.32051282e-005 -1.32051282e-005
      -1.32051282e-005 -1.32051282e-005 -1.32051282e-005
      -1.32051282e-005 -1.32051282e-005 -1.32051282e-005
      -1.32051282e-005 -1.32051282e-005 -1.32051282e-005
      -1.32051282e-005 -1.38308196e-005 -1.28922829e-005
      -1.32051282e-005 -1.32051282e-005 -1.35179744e-005
      -1.28922829e-005 -1.32051282e-005 -1.35179744e-005
      -1.28922829e-005 -1.32051282e-005 -1.32051282e-005
      -1.32051282e-005 -1.32051282e-005 -1.28922829e-005
      -1.35179744e-005 -9.40889549e-006 -1.46212014e-005
      -1.44985870e-005 -9.20254570e-006 -1.17055115e-005
      -2.36155647e-005 7.33155048e-007 -1.87670830e-005 -1.32051282e-005
      -1.32051282e-005 -1.32051282e-005 -1.32051282e-005
      -1.32051282e-005 -1.32051282e-005 -1.32051282e-005
      -1.32051282e-005 -1.32051282e-005 -1.32051282e-005
      -1.32051282e-005 -1.32051282e-005 -1.32051282e-005
      -1.32051282e-005 -1.32051282e-005 -1.32051282e-005
      -1.18814432e-005 -1.28199808e-005 -1.42159679e-005
      -1.42882700e-005 -1.45288141e-005 -1.25794368e-005
      -1.42159679e-005 -1.28199808e-005 -1.38308196e-005
      -1.28922829e-005 -1.32051282e-005 -1.25071347e-005
      -1.18814432e-005 -1.28922829e-005 -1.38308196e-005
      -1.32051282e-005 -1.38308196e-005 -1.35902765e-005
      -1.32051282e-005 -1.39031217e-005 -1.32774303e-005
      -1.14962950e-005 -1.38308196e-005 -1.32051282e-005
      -1.33517060e-005 -1.39979247e-005 3.03671022e-005 3.67799512e-005
      3.71099122e-005 2.52225545e-005 4.23609417e-005 2.25906297e-005
      3.05837020e-005 3.05837020e-005 3.05837020e-005 3.05837020e-005
      3.05837020e-005 3.05837020e-005 3.05837020e-005 3.05837020e-005
      3.05837020e-005 3.05837020e-005 3.05837020e-005 3.05837020e-005
      3.05837020e-005 3.05837020e-005 3.05837020e-005 3.05837020e-005
      3.05532740e-005 3.13121272e-005 3.05837020e-005 3.05837020e-005
      3.05837020e-005 3.05837020e-005 3.13121272e-005 3.05532740e-005
      3.12512675e-005 2.99161384e-005 3.12816956e-005 2.98857085e-005
      2.91877150e-005 3.33756761e-005 3.06141337e-005 2.98552804e-005
      2.63588099e-005 3.44934706e-005 3.26045629e-005 3.57804893e-005
      3.27916423e-005 2.88906340e-005 3.95709276e-006 7.50415893e-006
      2.63982679e-006 2.63982679e-006 2.63982679e-006 2.63982679e-006
      2.63982679e-006 2.63982679e-006 2.63982679e-006 2.63982679e-006
      2.63982679e-006 2.63982679e-006 2.63982679e-006 2.63982679e-006
      2.63982679e-006 2.63982679e-006 2.63982679e-006 2.63982679e-006
      2.63982679e-006 1.18298169e-006 3.36824951e-006 4.09667200e-006
      2.63982679e-006 2.63982679e-006 3.36824951e-006 1.18298169e-006
      2.63982679e-006 1.18298169e-006 3.36824951e-006 4.09667200e-006
      2.63982679e-006 2.63982679e-006 3.36824951e-006 1.18298169e-006
      3.36824951e-006 1.91140430e-006 3.36824951e-006 2.63982679e-006
      1.91140430e-006 3.36824951e-006 3.36824951e-006 2.63982679e-006
      8.24987274e-006 4.01222860e-005 3.98682714e-005 5.37094602e-005
      4.10389039e-005 3.23894819e-005 5.33055427e-005 3.33076532e-005
      4.20994729e-005 4.20994729e-005 4.20994729e-005 4.20994729e-005
      4.20994729e-005 4.20994729e-005 4.20994729e-005 4.20994729e-005
      4.20994729e-005 4.20994729e-005 4.20994729e-005 4.20994729e-005
      4.20994729e-005 4.20994729e-005 4.20994729e-005 4.20994729e-005
      4.20994729e-005 4.24123173e-005 4.24123173e-005 4.17866249e-005
      4.20994729e-005 4.20994729e-005 4.17866249e-005 4.24123173e-005
      4.24123173e-005 4.11609326e-005 4.24123173e-005 4.17866249e-005
      4.27251616e-005 4.14737806e-005 4.27251616e-005 4.17866249e-005
      5.33284183e-005 3.26724039e-005 4.59450312e-005 -3.40851657e-005
      -5.16379150e-005 -3.93930786e-005 -5.18565139e-005
      -3.72867762e-005 -4.40797412e-005 -4.40797412e-005
      -4.40797412e-005 -4.40797412e-005 -4.40797412e-005
      -4.40797412e-005 -4.40797412e-005 -4.40797412e-005
      -4.40797412e-005 -4.40797412e-005 -4.40797412e-005
      -4.40797412e-005 -4.40797412e-005 -4.40797412e-005
      -4.40797412e-005 -4.40797412e-005 -4.40797412e-005
      -4.40797412e-005 -4.40797412e-005 -4.40797412e-005
      -4.40797412e-005 -4.40797412e-005 -4.40797412e-005
      -4.40797412e-005 -4.40797412e-005 -4.40797412e-005
      -4.40797412e-005 -4.40797412e-005 -4.40797412e-005
      -4.40797412e-005 -4.40797412e-005 -4.40797412e-005
      -4.39084797e-005 -4.00102290e-005 -3.37560050e-005
      -4.97562869e-005 -2.63633465e-005 -4.37768504e-005
      -3.89351517e-005 -3.32299896e-005 -3.91124777e-005
      -3.91124777e-005 -3.91124777e-005 -3.91124777e-005
      -3.91124777e-005 -3.91124777e-005 -3.91124777e-005
      -3.91124777e-005 -3.91124777e-005 -3.91124777e-005
      -3.91124777e-005 -3.91124777e-005 -3.91124777e-005
      -3.91124777e-005 -3.91124777e-005 -3.91124777e-005
      -3.91124777e-005 -3.91124777e-005 -3.91124777e-005
      -3.91124777e-005 -3.91124777e-005 -3.91124777e-005
      -3.91124777e-005 -3.91124777e-005 -3.91124777e-005
      -3.91124777e-005 -3.91124777e-005 -3.91124777e-005
      -3.91124777e-005 -3.91124777e-005 -3.91124777e-005
      -3.91124777e-005 -3.47681089e-005 -4.99779853e-005
      -4.40702279e-005 -3.77439028e-005 -1.39190761e-005
      -8.11365044e-006 -3.09326765e-006 -1.86373654e-005
      -1.32051282e-005 -1.32051282e-005 -1.32051282e-005
      -1.32051282e-005 -1.32051282e-005 -1.32051282e-005
      -1.32051282e-005 -1.32051282e-005 -1.32051282e-005
      -1.32051282e-005 -1.32051282e-005 -1.32051282e-005
      -1.32051282e-005 -1.32051282e-005 -1.32051282e-005
      -1.32051282e-005 -1.32051282e-005 -1.32051282e-005
      -1.32051282e-005 -1.32051282e-005 -1.32051282e-005
      -1.32051282e-005 -1.32051282e-005 -1.32051282e-005
      -1.32051282e-005 -1.32051282e-005 -1.32051282e-005
      -1.32051282e-005 -1.32051282e-005 -1.32051282e-005
      -1.32051282e-005 -1.32051282e-005 -1.53388610e-005
      -1.21007060e-005 -1.44768437e-005 -1.32197774e-005
      -1.33194835e-005 -1.18195230e-005 -1.47892251e-005
      -1.06820289e-005 -1.32051282e-005 -1.32051282e-005
      -1.32051282e-005 -1.32051282e-005 -1.32051282e-005
      -1.32051282e-005 -1.32051282e-005 -1.32051282e-005
      -1.32051282e-005 -1.38308196e-005 -1.28922829e-005
      -1.25794368e-005 -1.32051282e-005 -1.32051282e-005
      -1.28922829e-005 -1.38308196e-005 -1.32051282e-005
      -1.32051282e-005 -1.28922829e-005 -1.35179744e-005
      -1.35179744e-005 -1.28922829e-005 -1.32051282e-005
      -1.32051282e-005 -1.35179744e-005 -1.35179744e-005
      -1.25794368e-005 -1.38308196e-005 -1.28922829e-005
      -1.35179744e-005 -1.35179744e-005 -1.25794368e-005
      -1.29069313e-005 -1.71171396e-005 -1.15837011e-005
      -1.42424187e-005 -1.32802716e-005 -1.18592598e-005
      -1.07505330e-005 -1.44149244e-005 -1.32051282e-005
      -1.32051282e-005 -1.32051282e-005 -1.32051282e-005
      -1.32051282e-005 -1.32051282e-005 -1.32051282e-005
      -1.32051282e-005 -1.25071347e-005 -1.28922829e-005
      -1.35179744e-005 -1.32051282e-005 -1.32051282e-005
      -1.28922829e-005 -1.38308196e-005 -1.25071347e-005
      -1.14962950e-005 -1.42882700e-005 -1.28199808e-005
      -1.42159679e-005 -1.49139614e-005 -1.04131541e-005
      -1.39031217e-005 -1.28922829e-005 -1.86596517e-005
      -7.63125536e-006 -2.23473417e-005 -6.61570584e-006
      -1.32910609e-005 -8.02709019e-006 -5.38697132e-005
      -5.19944151e-005 -5.02410003e-005 -5.02410003e-005
      -5.02410003e-005 -5.02410003e-005 -5.02410003e-005
      -5.02410003e-005 -5.02410003e-005 -5.02410003e-005
      -4.95430068e-005 -4.95430068e-005 -5.02410003e-005
      -5.16369873e-005 -5.09389938e-005 -5.02410003e-005
      -5.09389938e-005 -4.88450132e-005 -5.33443854e-005
      -8.50098659e-005 -5.08469493e-005 -5.07025725e-005
      -4.96190587e-005 -5.24669122e-005 -4.92354775e-005
      -4.94098349e-005 -5.26463919e-005 -8.57078558e-005
      -5.08469493e-005 -5.14005660e-005 -5.03170522e-005
      -5.10709251e-005 -4.92354775e-005 -4.94098349e-005
      -5.35143226e-005 -8.08054392e-005 -3.84726081e-006
      -4.95129871e-006 -4.50807420e-006 -5.84237705e-006
      -8.46381499e-006 -3.63835943e-006 -5.64274478e-006
      -5.64274478e-006 -5.64274478e-006 -5.64274478e-006
      -5.64274478e-006 -5.64274478e-006 -5.64274478e-006
      -5.64274478e-006 -4.91432229e-006 -6.26843666e-006
      -5.32989907e-006 -6.37116727e-006 -6.37116727e-006
      -5.95559095e-006 -4.60147658e-006 -4.91432229e-006
      -5.22716800e-006 -5.32989907e-006 -5.64274478e-006
      -6.37116727e-006 -6.37116727e-006 -5.64274478e-006
      -4.60147658e-006 -5.22716800e-006 -5.50193272e-006
      -1.22323536e-005 9.03006992e-007 -1.09461071e-005 -4.47270213e-006
      -4.23040456e-006 -1.26425539e-005 -4.80743165e-006
      -5.64274478e-006 -5.64274478e-006 -5.64274478e-006
      -5.64274478e-006 -5.64274478e-006 -5.64274478e-006
      -5.64274478e-006 -5.64274478e-006 -5.95559095e-006
      -5.64274478e-006 -5.95559095e-006 -5.64274478e-006
      -5.64274478e-006 -5.64274478e-006 -5.64274478e-006
      -5.95559095e-006 -5.95559095e-006 -5.01705335e-006
      -6.26843666e-006 -5.01705335e-006 -5.95559095e-006
      -5.32989907e-006 -6.58128238e-006 -5.32989907e-006
      -8.88272189e-006 -4.82249197e-006 -8.26612177e-006
      -4.38290499e-006 -6.40661369e-007 -4.81606367e-006
      -3.07309392e-006 3.54642034e-005 3.37963720e-005 3.37963720e-005
      3.37963720e-005 3.37963720e-005 3.37963720e-005 3.37963720e-005
      3.37963720e-005 3.37963720e-005 3.37963720e-005 3.37963720e-005
      3.37963720e-005 3.37963720e-005 3.37963720e-005 3.37963720e-005
      3.37963720e-005 3.37963720e-005 3.37963720e-005 3.37963720e-005
      3.37963720e-005 3.37963720e-005 3.37963720e-005 3.37963720e-005
      3.37963720e-005 3.37963720e-005 3.37963720e-005 3.37963720e-005
      3.37963720e-005 3.37963720e-005 3.37963720e-005 3.37963720e-005
      3.37963720e-005 3.37963720e-005 2.40054706e-005 2.40054706e-005
      2.40054706e-005 2.40054706e-005 2.40054706e-005 2.40054706e-005
      2.40054706e-005 2.40054706e-005 2.40054706e-005 2.40054706e-005
      2.40054706e-005 2.40054706e-005 2.40054706e-005 2.40054706e-005
      2.40054706e-005 2.40054706e-005 2.40054706e-005 2.40054706e-005
      2.40054706e-005 2.40054706e-005 2.40054706e-005 2.40054706e-005
      2.40054706e-005 2.40054706e-005 2.40054706e-005 2.40054706e-005
      2.40054706e-005 2.40054706e-005 2.40054706e-005 2.40054706e-005
      2.40054706e-005 2.40054706e-005 -1.32051282e-005 -1.32051282e-005
      -1.32051282e-005 -1.32051282e-005 -1.32051282e-005
      -1.32051282e-005 -1.32051282e-005 -1.32051282e-005
      -1.32051282e-005 -1.32051282e-005 -1.32051282e-005
      -1.32051282e-005 -1.32051282e-005 -1.32051282e-005
      -1.32051282e-005 -1.32051282e-005 -1.32051282e-005
      -1.32051282e-005 -1.32051282e-005 -1.32051282e-005
      -1.32051282e-005 -1.32051282e-005 -1.32051282e-005
      -1.32051282e-005 -1.43824573e-005 -1.23463769e-005
      -1.32616397e-005 -1.05200816e-005 -1.49905172e-005
      -1.46915991e-005 -1.34205566e-005 -1.26825853e-005
      -1.32051282e-005 -1.32051282e-005 -1.32051282e-005
      -1.32051282e-005 -1.32051282e-005 -1.32051282e-005
      -1.32051282e-005 -1.32051282e-005 -1.32051282e-005
      -1.38308196e-005 -1.28922829e-005 -1.32051282e-005
      -1.32051282e-005 -1.35179744e-005 -1.28922829e-005
      -1.32051282e-005 -1.35179744e-005 -1.28922829e-005
      -1.32051282e-005 -1.32051282e-005 -1.32051282e-005
      -1.32051282e-005 -1.28922829e-005 -1.35179744e-005
      -8.47713000e-006 -1.79984290e-005 -1.01895921e-005
      -1.17729760e-005 -1.20693458e-005 -2.45663268e-005 9.37252992e-007
      -2.00419145e-005 -1.18814432e-005 -1.28199808e-005
      -1.42159679e-005 -1.42882700e-005 -1.45288141e-005
      -1.25794368e-005 -1.42159679e-005 -1.28199808e-005
      -1.38308196e-005 -1.28922829e-005 -1.32051282e-005
      -1.25071347e-005 -1.18814432e-005 -1.28922829e-005
      -1.38308196e-005 -1.32051282e-005 -1.38308196e-005
      -1.35902765e-005 -1.32051282e-005 -1.39031217e-005
      -1.32774303e-005 -1.14962950e-005 -1.38308196e-005
      -1.32051282e-005 -1.49604839e-005 -1.46623861e-005
      -4.48220817e-006 -1.91277450e-005 -4.78568336e-006
      -2.05093402e-005 -1.21427556e-005 -1.48575964e-005
      -1.25071347e-005 -1.28922829e-005 -1.35179744e-005
      -1.32051282e-005 -1.32051282e-005 -1.28922829e-005
      -1.38308196e-005 -1.25071347e-005 -1.23705640e-005
      -1.42882700e-005 -1.28199808e-005 -1.33416997e-005
      -1.40396933e-005 -1.04131541e-005 -1.47773899e-005
      -1.37665511e-005 -1.55521611e-005 -1.21751809e-005
      -1.26853647e-005 -1.52258299e-005 -1.27971471e-005
      -1.77161055e-005 -1.40495786e-006 -1.81642190e-006
      -1.06276786e-006 -3.14530462e-006 -2.14994706e-008 1.01976889e-006
      -1.06276786e-006 -1.06276786e-006 -2.14994706e-008
      -3.14530462e-006 -1.06276786e-006 -2.51961296e-006
      -2.14994706e-008 8.12313843e-008 -1.37561369e-006 -7.49922037e-007
      -3.34345316e-007 -2.51961296e-006 -6.47191200e-007
      -2.10403618e-006 2.91346367e-007 -1.68845963e-006 -1.47834453e-006
      -6.47191200e-007 -6.47191200e-007 -4.37076181e-007 2.96466419e-006
      -4.00758108e-005 -3.63751315e-005 -9.02171723e-006
      -4.44270372e-005 -2.20711208e-005 -2.60926809e-005
      -3.06502261e-005 -2.86695686e-005 -2.86695686e-005
      -2.86695686e-005 -2.86695686e-005 -2.86695686e-005
      -2.86695686e-005 -2.86695686e-005 -2.86695686e-005
      -2.86695686e-005 -2.86695686e-005 -2.86695686e-005
      -2.86695686e-005 -2.86695686e-005 -2.86695686e-005
      -2.86695686e-005 -2.86695686e-005 -3.15569559e-005
      -2.03413092e-005 -4.03546292e-005 -7.10794411e-005
      -8.29977653e-005 -7.92340143e-005 -7.91497732e-005
      -7.15712522e-005 -7.77310415e-005 -7.77310415e-005
      -7.77310415e-005 -7.77310415e-005 -7.77310415e-005
      -7.77310415e-005 -7.77310415e-005 -7.77310415e-005
      -7.77310415e-005 -7.77310415e-005 -7.77310415e-005
      -7.77310415e-005 -7.77310415e-005 -7.77310415e-005
      -7.77310415e-005 -7.77310415e-005 -7.77579407e-005
      -7.75897934e-005 -7.76166926e-005 -7.78453978e-005
      -8.85947447e-005 -8.88234499e-005 -8.88503491e-005
      -8.86821945e-005 -8.87090937e-005 -8.87090937e-005
      -8.87090937e-005 -8.87090937e-005 -8.87090937e-005
      -8.87090937e-005 -8.87090937e-005 -8.87090937e-005
      -8.87090937e-005 -8.87090937e-005 -8.87090937e-005
      -8.87090937e-005 -8.87090937e-005 -8.87090937e-005
      -8.87090937e-005 -8.87090937e-005 -8.62970410e-005
      -9.12547184e-005 -8.94788609e-005 -8.49912030e-005
      -1.46572347e-005 -9.98848373e-006 -8.62621800e-006
      -1.46230059e-005 -1.32051282e-005 -1.32051282e-005
      -1.32051282e-005 -1.32051282e-005 -1.32051282e-005
      -1.32051282e-005 -1.32051282e-005 -1.32051282e-005
      -1.32051282e-005 -1.32051282e-005 -1.32051282e-005
      -1.32051282e-005 -1.32051282e-005 -1.32051282e-005
      -1.32051282e-005 -1.32051282e-005 -1.30907738e-005
      -1.25794368e-005 -1.51322893e-005 -1.10596093e-005
      -1.29764194e-005 -1.31852612e-005 -1.30265043e-005
      -1.25293509e-005 -1.32051282e-005 -1.32051282e-005
      -1.28922829e-005 -1.35179744e-005 -1.35179744e-005
      -1.28922829e-005 -1.32051282e-005 -1.32051282e-005
      -1.35179744e-005 -1.35179744e-005 -1.25794368e-005
      -1.38308196e-005 -1.28922829e-005 -1.35179744e-005
      -1.35179744e-005 -1.25794368e-005 -1.69878094e-005
      -8.63471723e-006 2.68547387e-006 5.76684533e-006 -1.84720939e-005
      1.34366301e-005 -2.08602319e-006 1.76722551e-006 6.46065132e-007
      -2.14590909e-006 -6.77620164e-007 -2.07360722e-006
      -2.77160098e-006 1.72920636e-006 -1.76076139e-006 -7.49922037e-007
      9.01587737e-006 -1.04307337e-005 5.70319025e-006 -6.09406197e-006
      -1.51803423e-008 -3.66987001e-006 -7.91300045e-006
      -1.73460030e-005 -1.32051282e-005 -1.32051282e-005
      -1.40793964e-005 -1.33814028e-005 -1.33814028e-005
      -1.32051282e-005 -1.23308600e-005 -1.23308600e-005
      -1.23308600e-005 -1.30288536e-005 -1.32051282e-005
      -1.39031217e-005 -1.39031217e-005 -1.18091411e-005
      -1.32051282e-005 -1.32051282e-005 -1.69366158e-005
      -1.56051537e-005 1.31126537e-004 1.23760576e-004 1.27673033e-004
      1.23878592e-004 1.15805073e-004 1.23087433e-004 1.23672726e-004
      1.24444268e-004 1.25005681e-004 1.24277271e-004 1.23402991e-004
      1.23257152e-004 1.25172694e-004 1.24546990e-004 1.32510409e-004
      1.22646074e-004 1.21937614e-004 1.36642848e-004 1.23523831e-004
      1.46572536e-004 1.69757084e-004 1.53912435e-004 1.59157935e-004
      1.59157935e-004 1.59157935e-004 1.59157935e-004 1.59157935e-004
      1.59157935e-004 1.59157935e-004 1.59157935e-004 1.52563065e-004
      1.52621127e-004 1.52054577e-004 1.64795536e-004 1.70018495e-004
      1.57226837e-004 1.44346064e-004 2.02027339e-004 1.51256172e-004
      1.52736495e-004 1.46423336e-004 1.54565627e-004 1.46080012e-004
      2.09338759e-004 2.41645379e-004 1.88695907e-004 1.49126747e-004
      1.47984261e-004 1.49732805e-004 1.48858540e-004 2.08995436e-004
      2.04430820e-004 2.10213024e-004 1.85080673e-004 2.08094294e-004
      2.08094294e-004 2.08094294e-004 2.08094294e-004 2.08094294e-004
      2.08094294e-004 2.08094294e-004 2.08094294e-004 2.08094294e-004
      2.08094294e-004 2.08094294e-004 2.08094294e-004 2.08094294e-004
      2.08094294e-004 2.08094294e-004 2.08094294e-004 -1.30574714e-004
      -1.30574714e-004 -1.30574714e-004 -1.30574714e-004
      -1.30574714e-004 -1.30574714e-004 -1.30574714e-004
      -1.30574714e-004 -1.36062314e-004 -1.15645096e-004
      -1.33677473e-004 -1.35743889e-004 -1.34128743e-004
      -1.40525459e-004 -1.13172777e-004 2.13302137e-005 3.63746658e-005
      3.70003581e-005 3.66875101e-005 3.66875101e-005 3.66875101e-005
      3.66875101e-005 3.70003581e-005 3.63746658e-005 3.26194531e-005
      3.82286744e-005 3.22868364e-005 4.01888137e-005 3.90353016e-005
      -4.74718991e-006 1.56720398e-005 -1.08979348e-005 -9.90465992e-007
      -1.44791557e-006 -1.06276786e-006 -1.76076139e-006
      -1.13506974e-006 6.46065132e-007 -1.68845963e-006 -1.06276786e-006
      -4.03828381e-007 -6.53442612e-006 -1.12699781e-005
      -1.48976515e-005 -9.84782309e-006 -1.97605841e-005
      -1.01327225e-006 -1.97419777e-005 -1.28527981e-005
      -7.04523882e-006 -1.08081176e-005 -1.75802325e-005
      -9.28588815e-006 -1.61924381e-005 1.35934766e-004 1.43354264e-004
      1.36814444e-004 6.47384295e-005 6.15408935e-005 6.46090557e-005
      6.29945862e-005 6.62898237e-005 6.29718925e-005 6.47229463e-005
      5.35919717e-005 1.17752374e-004 1.08807442e-004 1.18625612e-004
      1.14999639e-004 1.28159518e-004 1.09850866e-004 1.20768738e-004
      1.13003625e-004 1.29206150e-004 9.68194145e-005 -7.81401177e-005
      -7.37769587e-005 -7.37156806e-005 -7.75812005e-005
      -8.17639884e-005 -8.76776176e-005 -7.82443312e-005
      -7.86780583e-005 -7.58152091e-005 -1.24335784e-004
      -1.18059281e-004 -1.20116470e-004 -1.11798930e-004
      -1.23901438e-004 -1.18983131e-004 -1.22657861e-004
      -1.25437073e-004 -2.75615603e-005 -2.74672038e-005
      -3.33296339e-005 -2.87588264e-005 -3.66382665e-005
      -2.29115394e-005 -3.56269593e-005 -3.18076454e-005
      -5.41863710e-006 -4.85658484e-006 -3.17726044e-005
      -7.54444227e-006 -3.06785150e-005 -2.03216823e-005 2.48406195e-006
      -1.74173565e-005 -1.02314575e-008 -9.73513124e-006
      -1.88316335e-005 -1.28173406e-005 -1.04941710e-005
      -1.39852118e-005 1.45441314e-004 1.40871562e-004 1.24126003e-004
      -1.78496757e-005 -1.11557783e-005 -3.38968122e-004 4.27561390e-005
      4.27561390e-005 4.27561390e-005 4.27561390e-005 4.27561390e-005
      4.27561390e-005 4.27561390e-005 4.27561390e-005 4.27561390e-005
      4.20581455e-005 4.41521261e-005 4.13601520e-005 4.34541325e-005
      4.27561390e-005 4.27561390e-005 4.20581455e-005 4.27561390e-005
      4.27561390e-005 4.27561390e-005 4.27561390e-005 4.27561390e-005
      4.27561390e-005 4.27561390e-005 4.27561390e-005 4.13601520e-005
      4.55481131e-005 4.06621584e-005 4.27561390e-005 4.48501196e-005
      4.20581455e-005 4.34541325e-005 4.20581455e-005 4.27561390e-005
      4.27561390e-005 4.27561390e-005 4.27561390e-005 4.27561390e-005
      4.27561390e-005 4.27561390e-005 4.27561390e-005 4.20581455e-005
      4.27561390e-005 4.27561390e-005 4.34541325e-005 4.13601520e-005
      4.41521261e-005 4.20581455e-005 4.27561390e-005 4.27561390e-005
      4.27561390e-005 4.27561390e-005 4.27561390e-005 4.27561390e-005
      4.27561390e-005 4.27561390e-005 4.27561390e-005 3.59549304e-005
      5.93659825e-005 3.52109018e-005 4.14610113e-005 4.33169589e-005
      5.39197317e-005 4.03113590e-005 -4.14131100e-005 -3.11825243e-005
      -3.11825243e-005 -3.11825243e-005 -3.11825243e-005
      -3.11825243e-005 -3.11825243e-005 -3.11825243e-005
      -3.11825243e-005 -3.11825243e-005 -3.11825243e-005
      -3.11825243e-005 -3.11825243e-005 -3.11825243e-005
      -3.11825243e-005 -3.11825243e-005 -3.11825243e-005
      -3.11825243e-005 -3.11825243e-005 -3.11825243e-005
      -3.11825243e-005 -3.11825243e-005 -3.11825243e-005
      -3.11825243e-005 -3.11825243e-005 -3.11825243e-005
      -3.11825243e-005 -3.11825243e-005 -3.11825243e-005
      -3.11825243e-005 -3.11825243e-005 -3.11825243e-005
      -3.11825243e-005 -3.11825243e-005 -3.11825243e-005
      -3.11825243e-005 -3.11825243e-005 -3.11825243e-005
      -3.11825243e-005 -3.11825243e-005 -3.11825243e-005
      -3.11825243e-005 -3.11825243e-005 -3.11825243e-005
      -3.11825243e-005 -3.11825243e-005 -3.11825243e-005
      -3.11825243e-005 -3.11825243e-005 -3.11825243e-005
      -3.11825243e-005 -3.11825243e-005 -3.11825243e-005
      -3.11825243e-005 -3.11825243e-005 -3.11825243e-005
      -3.11825243e-005 -3.51477938e-005 -2.42018614e-005
      -3.26646950e-005 -3.70414527e-005 -3.28421593e-005
      -3.93326809e-005 -3.35153745e-005 -3.63958789e-005
      -2.96425751e-005 -2.96425751e-005 -2.96425751e-005
      -2.96425751e-005 -2.96425751e-005 -2.96425751e-005
      -2.96425751e-005 -2.96425751e-005 -2.96425751e-005
      -2.96425751e-005 -2.96425751e-005 -2.96425751e-005
      -2.96425751e-005 -2.96425751e-005 -2.96425751e-005
      -2.96425751e-005 -2.96425751e-005 -2.96425751e-005
      -2.96425751e-005 -2.96425751e-005 -2.96425751e-005
      -2.96425751e-005 -2.96425751e-005 -2.96425751e-005
      -2.96425751e-005 -2.96425751e-005 -2.96425751e-005
      -2.96425751e-005 -2.96425751e-005 -2.96425751e-005
      -2.96425751e-005 -2.96425751e-005 -2.96425751e-005
      -2.96425751e-005 -2.96425751e-005 -2.96425751e-005
      -2.96425751e-005 -2.96425751e-005 -2.96425751e-005
      -2.96425751e-005 -2.96425751e-005 -2.96425751e-005
      -2.96425751e-005 -2.96425751e-005 -2.96425751e-005
      -2.96425751e-005 -2.96425751e-005 -2.96425751e-005
      -2.96425751e-005 -2.96425751e-005 -2.96425751e-005
      -2.96425751e-005 -2.96425751e-005 -2.96425751e-005
      -2.96425751e-005 -2.96425751e-005 -3.93012888e-005
      -1.10409837e-005 -1.71105294e-005 -5.85596172e-006
      -1.44823525e-005 -1.03585771e-005 -1.79706421e-005
      -6.35035258e-006 -1.10765441e-005 -1.10765441e-005
      -1.10765441e-005 -1.10765441e-005 -1.10765441e-005
      -1.10765441e-005 -1.10765441e-005 -1.10765441e-005
      -1.10765441e-005 -1.10765441e-005 -1.10765441e-005
      -1.10765441e-005 -1.10765441e-005 -1.10765441e-005
      -1.10765441e-005 -1.10765441e-005 -1.10765441e-005
      -1.10765441e-005 -1.10765441e-005 -1.10765441e-005
      -1.10765441e-005 -1.10765441e-005 -1.10765441e-005
      -1.10765441e-005 -1.10765441e-005 -1.10765441e-005
      -1.10765441e-005 -1.10765441e-005 -1.10765441e-005
      -1.10765441e-005 -1.10765441e-005 -1.10765441e-005
      -1.10765441e-005 -1.10765441e-005 -1.10765441e-005
      -1.10765441e-005 -1.10765441e-005 -1.10765441e-005
      -1.10765441e-005 -1.10765441e-005 -1.10765441e-005
      -1.10765441e-005 -1.10765441e-005 -1.10765441e-005
      -1.10765441e-005 -1.10765441e-005 -1.10765441e-005
      -1.10765441e-005 -9.11036204e-006 -1.12944354e-005
      -5.85093494e-006 -1.91949366e-005 -9.75588227e-006
      -9.17943726e-006 -3.33755415e-005 -2.51929050e-005
      -2.82726942e-005 -2.82726942e-005 -2.82726942e-005
      -2.82726942e-005 -2.82726942e-005 -2.82726942e-005
      -2.82726942e-005 -2.82726942e-005 -2.82726942e-005
      -2.82726942e-005 -2.82726942e-005 -2.82726942e-005
      -2.82726942e-005 -2.82726942e-005 -2.82726942e-005
      -2.82726942e-005 -2.82726942e-005 -2.82726942e-005
      -2.82726942e-005 -2.82726942e-005 -2.82726942e-005
      -2.82726942e-005 -2.82726942e-005 -2.82726942e-005
      -2.82726942e-005 -2.82726942e-005 -2.82726942e-005
      -2.82726942e-005 -2.82726942e-005 -2.82726942e-005
      -2.82726942e-005 -2.82726942e-005 -2.82726942e-005
      -2.82726942e-005 -2.82726942e-005 -2.82726942e-005
      -2.82726942e-005 -2.82726942e-005 -2.82726942e-005
      -2.82726942e-005 -2.82726942e-005 -2.82726942e-005
      -2.82726942e-005 -2.82726942e-005 -2.82726942e-005
      -2.82726942e-005 -2.82726942e-005 -2.82726942e-005
      -2.82726942e-005 -2.82726942e-005 -2.82726942e-005
      -2.82726942e-005 -2.82726942e-005 -2.82726942e-005
      -2.82726942e-005 -2.82726942e-005 -2.95699319e-005 6.64430627e-005
      6.97625728e-005 7.67473248e-005 7.43230121e-005 7.94739753e-005
      5.83462825e-005 7.99631016e-005 7.50087274e-005 7.50087274e-005
      7.50087274e-005 7.50087274e-005 7.50087274e-005 7.50087274e-005
      7.50087274e-005 7.50087274e-005 7.39467141e-005 7.50087274e-005
      7.50087274e-005 7.57067173e-005 7.36127404e-005 7.64047145e-005
      7.43981873e-005 7.50961772e-005 7.57067173e-005 7.50087274e-005
      7.50087274e-005 7.57067173e-005 7.57067173e-005 7.43107303e-005
      7.43107303e-005 7.43107303e-005 7.50087274e-005 7.50087274e-005
      7.50087274e-005 7.50087274e-005 7.50087274e-005 7.50087274e-005
      7.50087274e-005 7.50087274e-005 7.50087274e-005 7.74667205e-005
      7.50087274e-005 7.43107303e-005 7.50087274e-005 7.43107303e-005
      7.49212704e-005 7.42232733e-005 7.43107303e-005 7.43107303e-005
      7.43107303e-005 7.60707335e-005 7.60707335e-005 7.50087274e-005
      7.46447113e-005 7.53427012e-005 7.35654103e-005 7.45631696e-005
      7.05879793e-005 4.99577891e-006 7.25139262e-006 8.98442431e-006
      1.76952490e-005 4.16106701e-007 8.61220633e-006 8.61220633e-006
      8.61220633e-006 8.61220633e-006 8.61220633e-006 8.61220633e-006
      8.61220633e-006 8.61220633e-006 8.61220633e-006 8.61220633e-006
      8.61220633e-006 8.61220633e-006 8.61220633e-006 8.61220633e-006
      8.61220633e-006 8.61220633e-006 8.61220633e-006 8.61220633e-006
      8.61220633e-006 8.61220633e-006 8.61220633e-006 8.61220633e-006
      8.61220633e-006 8.61220633e-006 8.61220633e-006 8.61220633e-006
      8.61220633e-006 8.61220633e-006 8.61220633e-006 8.61220633e-006
      8.61220633e-006 8.61220633e-006 8.61220633e-006 8.61220633e-006
      8.61220633e-006 8.61220633e-006 8.61220633e-006 8.61220633e-006
      8.61220633e-006 8.61220633e-006 8.61220633e-006 8.61220633e-006
      8.61220633e-006 8.61220633e-006 8.61220633e-006 8.61220633e-006
      8.61220633e-006 8.61220633e-006 8.86252474e-006 1.27550547e-005
      7.60463692e-008 8.27954409e-006 -4.20787410e-006 1.77864945e-006
      -1.01546957e-005 -2.51465917e-006 -6.31907733e-006
      -6.31907733e-006 -6.31907733e-006 -6.31907733e-006
      -6.31907733e-006 -6.31907733e-006 -6.31907733e-006
      -6.31907733e-006 -6.31907733e-006 -6.31907733e-006
      -6.31907733e-006 -6.31907733e-006 -6.31907733e-006
      -6.31907733e-006 -6.31907733e-006 -6.31907733e-006
      -6.31907733e-006 -6.31907733e-006 -6.31907733e-006
      -6.31907733e-006 -6.31907733e-006 -6.31907733e-006
      -6.31907733e-006 -6.31907733e-006 -6.31907733e-006
      -6.31907733e-006 -6.31907733e-006 -6.31907733e-006
      -6.31907733e-006 -6.31907733e-006 -6.31907733e-006
      -6.31907733e-006 -6.31907733e-006 -6.31907733e-006
      -6.31907733e-006 -6.31907733e-006 -6.31907733e-006
      -6.31907733e-006 -6.31907733e-006 -6.31907733e-006
      -6.31907733e-006 -6.31907733e-006 -6.31907733e-006
      -6.31907733e-006 -6.31907733e-006 -6.31907733e-006
      -6.31907733e-006 -6.31907733e-006 -3.78034451e-006
      -5.97351027e-006 -8.35437095e-006 -1.53028213e-005 3.28845344e-005
      2.61886144e-005 2.43383129e-005 2.21913633e-005 2.78152966e-005
      2.78152966e-005 2.78152966e-005 2.78152966e-005 2.78152966e-005
      2.78152966e-005 2.78152966e-005 2.78152966e-005 2.78152966e-005
      2.78152966e-005 2.78152966e-005 2.78152966e-005 2.78152966e-005
      2.78152966e-005 2.78152966e-005 2.78152966e-005 2.78152966e-005
      2.78152966e-005 2.78152966e-005 2.78152966e-005 2.78152966e-005
      2.78152966e-005 2.78152966e-005 2.78152966e-005 2.78152966e-005
      2.78152966e-005 2.78152966e-005 2.78152966e-005 2.78152966e-005
      2.78152966e-005 2.78152966e-005 2.78152966e-005 2.78152966e-005
      2.78152966e-005 2.78152966e-005 2.78152966e-005 2.78152966e-005
      2.78152966e-005 2.78152966e-005 2.78152966e-005 2.78152966e-005
      2.78152966e-005 2.78152966e-005 2.78152966e-005 2.78152966e-005
      2.78152966e-005 2.78152966e-005 2.78152966e-005 2.93828271e-005
      2.65314029e-005 2.85664155e-005 -1.03645798e-005 -1.14622017e-005
      -9.53076142e-006 -2.17680531e-006 -1.29739028e-005
      -1.10765441e-005 -1.10765441e-005 -1.10765441e-005
      -1.10765441e-005 -1.10765441e-005 -1.10765441e-005
      -1.10765441e-005 -1.10765441e-005 -1.10765441e-005
      -1.10765441e-005 -1.10765441e-005 -1.10765441e-005
      -1.10765441e-005 -1.10765441e-005 -1.10765441e-005
      -1.10765441e-005 -1.10765441e-005 -1.10765441e-005
      -1.10765441e-005 -1.10765441e-005 -1.10765441e-005
      -1.10765441e-005 -1.10765441e-005 -1.10765441e-005
      -1.10765441e-005 -1.10765441e-005 -1.10765441e-005
      -1.10765441e-005 -1.10765441e-005 -1.10765441e-005
      -1.10765441e-005 -1.10765441e-005 -1.10765441e-005
      -1.10765441e-005 -1.10765441e-005 -1.10765441e-005
      -1.10765441e-005 -1.10765441e-005 -1.10765441e-005
      -1.10765441e-005 -1.10765441e-005 -1.10765441e-005
      -1.10765441e-005 -1.10765441e-005 -1.10765441e-005
      -1.10765441e-005 -1.10765441e-005 -1.10765441e-005
      -7.71525538e-006 1.26974128e-005 1.36225899e-005 1.58472922e-005
      2.23933475e-005 1.77555612e-005 8.20196783e-006 2.36082724e-005
      1.66001082e-005 1.66001082e-005 1.66001082e-005 1.66001082e-005
      1.66001082e-005 1.66001082e-005 1.66001082e-005 1.66001082e-005
      1.66875616e-005 1.66875616e-005 1.59021129e-005 1.79960953e-005
      1.52041202e-005 1.72981017e-005 1.72981017e-005 1.62360939e-005
      1.66001082e-005 1.66001082e-005 1.66001082e-005 1.66001082e-005
      1.66001082e-005 1.66001082e-005 1.66001082e-005 1.66001082e-005
      1.76621143e-005 1.66001082e-005 1.66001082e-005 1.52041202e-005
      1.79960953e-005 1.55381003e-005 1.66001082e-005 1.69641207e-005
      1.66001082e-005 1.66001082e-005 1.66001082e-005 1.66001082e-005
      1.66001082e-005 1.66001082e-005 1.66001082e-005 1.66001082e-005
      2.42790284e-005 1.89599596e-005 1.34371076e-005 8.81271535e-006
      2.42217229e-005 1.21057874e-005 -4.78725960e-005 -6.61602462e-005
      -5.71032542e-005 -5.71032542e-005 -5.71032542e-005
      -5.71032542e-005 -5.71032542e-005 -5.71032542e-005
      -5.71032542e-005 -5.71032542e-005 -5.71032542e-005
      -5.71032542e-005 -5.71032542e-005 -5.71032542e-005
      -5.71032542e-005 -5.71032542e-005 -5.71032542e-005
      -5.71032542e-005 -5.71032542e-005 -5.71032542e-005
      -5.71032542e-005 -5.71032542e-005 -5.71032542e-005
      -5.71032542e-005 -5.71032542e-005 -5.71032542e-005
      -5.71032542e-005 -5.71032542e-005 -5.71032542e-005
      -5.71032542e-005 -5.71032542e-005 -5.71032542e-005
      -5.71032542e-005 -5.71032542e-005 -5.71032542e-005
      -5.71032542e-005 -5.71032542e-005 -5.71032542e-005
      -5.71032542e-005 -5.71032542e-005 -5.71032542e-005
      -5.71032542e-005 -5.71032542e-005 -5.71032542e-005
      -5.71032542e-005 -5.71032542e-005 -5.71032542e-005
      -5.71032542e-005 -5.71032542e-005 -5.71032542e-005
      -5.68073956e-005 -6.72616297e-005 1.84784421e-005 1.86405987e-006
      1.80064615e-006 4.23751499e-006 -1.18603214e-006 6.05981541e-006
      1.55971497e-006 1.55971497e-006 1.55971497e-006 1.55971497e-006
      1.55971497e-006 1.55971497e-006 1.55971497e-006 1.55971497e-006
      1.55971497e-006 1.55971497e-006 1.55971497e-006 1.55971497e-006
      1.55971497e-006 1.55971497e-006 1.55971497e-006 1.55971497e-006
      1.55971497e-006 1.55971497e-006 1.55971497e-006 1.55971497e-006
      1.55971497e-006 1.55971497e-006 1.55971497e-006 1.55971497e-006
      1.55971497e-006 1.55971497e-006 1.55971497e-006 1.55971497e-006
      1.55971497e-006 1.55971497e-006 1.55971497e-006 1.55971497e-006
      1.55971497e-006 1.55971497e-006 1.55971497e-006 1.55971497e-006
      1.55971497e-006 1.55971497e-006 1.55971497e-006 1.55971497e-006
      -9.30877559e-006 5.65005166e-006 1.44309042e-005 -7.16979184e-006
      1.72180137e-006 -2.53548133e-005 -3.23164131e-005 -3.37159618e-005
      -2.96425751e-005 -2.96425751e-005 -2.96425751e-005
      -2.96425751e-005 -2.96425751e-005 -2.96425751e-005
      -2.96425751e-005 -2.96425751e-005 -2.96425751e-005
      -2.96425751e-005 -2.96425751e-005 -2.96425751e-005
      -2.96425751e-005 -2.96425751e-005 -2.96425751e-005
      -2.96425751e-005 -2.96425751e-005 -2.96425751e-005
      -2.96425751e-005 -2.96425751e-005 -2.96425751e-005
      -2.96425751e-005 -2.96425751e-005 -2.96425751e-005
      -2.96425751e-005 -2.96425751e-005 -2.96425751e-005
      -2.96425751e-005 -2.96425751e-005 -2.96425751e-005
      -2.96425751e-005 -2.96425751e-005 -2.96425751e-005
      -2.96425751e-005 -2.96425751e-005 -2.96425751e-005
      -2.96425751e-005 -2.96425751e-005 -2.96425751e-005
      -2.96425751e-005 -3.35517507e-005 -2.62465837e-005
      -4.21207114e-005 -3.26915761e-005 -2.64390274e-005
      -3.22211163e-005 -2.83992649e-005 7.36273869e-005 7.88009784e-005
      7.88009784e-005 7.88009784e-005 7.88009784e-005 7.88009784e-005
      7.88009784e-005 7.88009784e-005 7.88009784e-005 7.88009784e-005
      7.88009784e-005 7.88009784e-005 7.88009784e-005 7.88009784e-005
      7.88009784e-005 7.88009784e-005 7.88009784e-005 7.88009784e-005
      7.88009784e-005 7.88009784e-005 7.88009784e-005 7.88009784e-005
      7.88009784e-005 7.88009784e-005 7.88009784e-005 7.88009784e-005
      7.88009784e-005 7.88009784e-005 7.88009784e-005 7.88009784e-005
      7.88009784e-005 7.88009784e-005 7.88009784e-005 7.88009784e-005
      7.88009784e-005 7.88009784e-005 7.88009784e-005 7.88009784e-005
      7.88009784e-005 7.88009784e-005 7.88009784e-005 7.88009784e-005
      7.88009784e-005 7.88009784e-005 7.88009784e-005 7.88009784e-005
      7.88009784e-005 7.88009784e-005 7.88009784e-005 6.95921772e-005
      6.95921772e-005 6.95921772e-005 6.95921772e-005 6.95921772e-005
      6.95921772e-005 6.95921772e-005 6.95921772e-005 6.95921772e-005
      6.99561933e-005 6.92281683e-005 6.99561933e-005 6.92281683e-005
      6.99561933e-005 6.95921772e-005 6.99561933e-005 6.95921772e-005
      6.95921772e-005 6.95921772e-005 6.95921772e-005 6.95921772e-005
      6.95921772e-005 6.95921772e-005 6.95921772e-005 6.95921772e-005
      6.95921772e-005 6.95921772e-005 6.95921772e-005 6.95921772e-005
      6.95921772e-005 6.99561933e-005 6.95921772e-005 6.95921772e-005
      6.95921772e-005 6.95921772e-005 6.95921772e-005 6.95921772e-005
      6.95921772e-005 6.95921772e-005 6.95921772e-005 6.99561933e-005
      6.95921772e-005 6.95921772e-005 6.95921772e-005 6.95921772e-005
      6.92281683e-005 6.95921772e-005 6.99561933e-005 -1.10765441e-005
      -1.10765441e-005 -1.10765441e-005 -1.10765441e-005
      -1.10765441e-005 -1.10765441e-005 -1.10765441e-005
      -1.10765441e-005 -1.10765441e-005 -1.10765441e-005
      -1.10765441e-005 -1.10765441e-005 -1.10765441e-005
      -1.10765441e-005 -1.10765441e-005 -1.10765441e-005
      -1.10765441e-005 -1.10765441e-005 -1.10765441e-005
      -1.10765441e-005 -1.10765441e-005 -1.10765441e-005
      -1.10765441e-005 -1.10765441e-005 -1.10765441e-005
      -1.10765441e-005 -1.10765441e-005 -1.10765441e-005
      -1.10765441e-005 -1.10765441e-005 -1.10765441e-005
      -1.10765441e-005 -1.10765441e-005 -1.10765441e-005
      -1.10765441e-005 -1.10765441e-005 -1.10765441e-005
      -1.10765441e-005 -1.10765441e-005 -1.10765441e-005
      -6.87039255e-006 -2.47153257e-005 3.76762932e-006 -1.39768417e-005
      6.80738310e-007 -1.54788995e-005 -5.81207041e-006 3.56809032e-005
      3.29439608e-005 3.29439608e-005 3.29439608e-005 3.29439608e-005
      3.29439608e-005 3.29439608e-005 3.29439608e-005 3.29439608e-005
      3.29439608e-005 3.29439608e-005 3.29439608e-005 3.29439608e-005
      3.29439608e-005 3.29439608e-005 3.29439608e-005 3.29439608e-005
      3.29439608e-005 3.29439608e-005 3.29439608e-005 3.29439608e-005
      3.29439608e-005 3.29439608e-005 3.29439608e-005 3.29439608e-005
      3.29439608e-005 3.29439608e-005 3.29439608e-005 3.29439608e-005
      3.29439608e-005 3.29439608e-005 3.29439608e-005 3.29439608e-005
      3.29439608e-005 3.29439608e-005 3.29439608e-005 3.29439608e-005
      3.29439608e-005 3.29439608e-005 3.29439608e-005 3.29439608e-005
      3.56037744e-005 4.21994700e-005 2.98647174e-005 2.49156128e-005
      3.94971139e-005 -2.26187422e-005 -1.75878085e-005 -1.58107268e-005
      -1.58761704e-005 -1.58761704e-005 -1.58761704e-005
      -1.58761704e-005 -1.58761704e-005 -1.58761704e-005
      -1.58761704e-005 -1.58761704e-005 -1.58761704e-005
      -1.58761704e-005 -1.58761704e-005 -1.58761704e-005
      -1.58761704e-005 -1.58761704e-005 -1.58761704e-005
      -1.58761704e-005 -1.58761704e-005 -1.58761704e-005
      -1.58761704e-005 -1.58761704e-005 -1.58761704e-005
      -1.58761704e-005 -1.58761704e-005 -1.58761704e-005
      -1.58761704e-005 -1.58761704e-005 -1.58761704e-005
      -1.58761704e-005 -1.58761704e-005 -1.58761704e-005
      -1.58761704e-005 -1.58761704e-005 -1.58761704e-005
      -1.58761704e-005 -1.58761704e-005 -1.58761704e-005
      -1.58761704e-005 -1.58761704e-005 -1.58761704e-005
      -1.58761704e-005 -1.62853212e-005 -1.20146797e-005
      -3.73086950e-005 -3.27395574e-005 -2.45488882e-005
      -3.03870856e-005 -2.53354356e-005 -3.68435904e-005
      -3.11825243e-005 -3.11825243e-005 -3.11825243e-005
      -3.11825243e-005 -3.11825243e-005 -3.11825243e-005
      -3.11825243e-005 -3.11825243e-005 -3.11825243e-005
      -3.11825243e-005 -3.11825243e-005 -3.11825243e-005
      -3.11825243e-005 -3.11825243e-005 -3.11825243e-005
      -3.11825243e-005 -3.11825243e-005 -3.11825243e-005
      -3.11825243e-005 -3.11825243e-005 -3.11825243e-005
      -3.11825243e-005 -3.11825243e-005 -3.11825243e-005
      -3.11825243e-005 -3.11825243e-005 -3.11825243e-005
      -3.11825243e-005 -3.11825243e-005 -3.11825243e-005
      -3.11825243e-005 -3.11825243e-005 -3.37170168e-005
      -2.95922364e-005 -2.74894355e-005 -2.36938122e-005
      -3.74822557e-005 -2.50696776e-005 -2.66895768e-005
      -8.79676463e-006 -1.10765441e-005 -1.10765441e-005
      -1.10765441e-005 -1.10765441e-005 -1.10765441e-005
      -1.10765441e-005 -1.10765441e-005 -1.10765441e-005
      -1.10765441e-005 -1.10765441e-005 -1.10765441e-005
      -1.10765441e-005 -1.10765441e-005 -1.10765441e-005
      -1.10765441e-005 -1.10765441e-005 -1.10765441e-005
      -1.10765441e-005 -1.10765441e-005 -1.10765441e-005
      -1.10765441e-005 -1.10765441e-005 -1.10765441e-005
      -1.10765441e-005 -1.10765441e-005 -1.10765441e-005
      -1.10765441e-005 -1.10765441e-005 -1.10765441e-005
      -1.10765441e-005 -1.10765441e-005 -1.10765441e-005
      -1.10765441e-005 -1.10765441e-005 -1.10765441e-005
      -1.10765441e-005 -1.10765441e-005 -1.10765441e-005
      -1.10765441e-005 -1.10765441e-005 -1.02495624e-005
      -1.37801020e-004 -1.35134527e-004 -1.22625323e-004
      -1.30967834e-004 -1.30186352e-004 -1.36366201e-004
      -1.34367510e-004 -1.28998930e-004 -1.29696928e-004
      -1.29696928e-004 -1.29539098e-004 -1.29539098e-004
      -1.30935092e-004 -1.30935092e-004 -1.30935092e-004
      -1.30237095e-004 -1.30237095e-004 -1.30237095e-004
      -1.30237095e-004 -1.30237095e-004 -1.30237095e-004
      -1.30237095e-004 -1.30237095e-004 -1.30237095e-004
      -1.28143118e-004 -1.30237095e-004 -1.30935092e-004
      -1.30237095e-004 -1.30935092e-004 -1.30237095e-004
      -1.30935092e-004 -1.30935092e-004 -1.30935092e-004
      -1.30935092e-004 -1.29539098e-004 -1.29539098e-004
      -1.30237095e-004 -1.30237095e-004 -1.29539098e-004
      -1.27884254e-004 -1.27225198e-004 -1.37959578e-004 6.43066585e-007
      -1.72534747e-005 -1.41451037e-005 -2.50989046e-006
      -1.44709902e-005 -1.10765441e-005 -1.10765441e-005
      -1.10765441e-005 -1.10765441e-005 -1.10765441e-005
      -1.10765441e-005 -1.10765441e-005 -1.10765441e-005
      -1.10765441e-005 -1.10765441e-005 -1.10765441e-005
      -1.10765441e-005 -1.10765441e-005 -1.10765441e-005
      -1.10765441e-005 -1.10765441e-005 -1.10765441e-005
      -1.10765441e-005 -1.10765441e-005 -1.10765441e-005
      -1.10765441e-005 -1.10765441e-005 -1.10765441e-005
      -1.10765441e-005 -1.10765441e-005 -1.10765441e-005
      -1.10765441e-005 -1.10765441e-005 -1.10765441e-005
      -1.10765441e-005 -1.10765441e-005 -1.10765441e-005
      -7.55176370e-006 -1.58718649e-005 -9.94977654e-006
      -9.42035604e-006 5.13361483e-005 5.01606082e-005 5.95608835e-005
      4.96991670e-005 5.34889077e-005 5.34889077e-005 5.34889077e-005
      5.34889077e-005 5.34889077e-005 5.34889077e-005 5.34889077e-005
      5.34889077e-005 5.34889077e-005 5.34889077e-005 5.34889077e-005
      5.34889077e-005 5.34889077e-005 5.34889077e-005 5.34889077e-005
      5.34889077e-005 5.34889077e-005 5.34889077e-005 5.34889077e-005
      5.34889077e-005 5.34889077e-005 5.34889077e-005 5.34889077e-005
      5.34889077e-005 5.34889077e-005 5.34889077e-005 5.34889077e-005
      5.34889077e-005 5.34889077e-005 5.34889077e-005 5.34889077e-005
      5.34889077e-005 5.18565175e-005 5.14749991e-005 5.92635624e-005
      5.08425001e-005 1.13673050e-004 1.10074354e-004 1.11908172e-004
      1.14091978e-004 1.10035806e-004 1.09337809e-004 1.09337809e-004
      1.10035806e-004 1.10035806e-004 1.08639819e-004 1.08639819e-004
      1.09337809e-004 1.09337809e-004 1.09337809e-004 1.09337809e-004
      1.09337809e-004 1.09337809e-004 1.09337809e-004 1.09337809e-004
      1.09337809e-004 1.09337809e-004 1.11431793e-004 1.09337809e-004
      1.08639819e-004 1.09337809e-004 1.08639819e-004 1.09337809e-004
      1.08639819e-004 1.09337809e-004 1.08639819e-004 1.08639819e-004
      1.10035806e-004 1.10035806e-004 1.09337809e-004 1.09337809e-004
      1.10035806e-004 1.12364345e-004 1.13457718e-004 1.11418587e-004
      1.26005989e-005 2.13896556e-006 1.01630494e-005 2.98854884e-005
      1.03572684e-005 1.60718737e-005 1.60718737e-005 1.60718737e-005
      1.60718737e-005 1.60718737e-005 1.60718737e-005 1.60718737e-005
      1.60718737e-005 1.53738802e-005 1.53738802e-005 1.53738802e-005
      1.67698672e-005 1.67698672e-005 1.60718737e-005 1.60718737e-005
      1.67698672e-005 1.60718737e-005 1.60718737e-005 1.60718737e-005
      1.60718737e-005 1.60718737e-005 1.60718737e-005 1.60718737e-005
      1.60718737e-005 1.53738802e-005 1.60718737e-005 1.60718737e-005
      1.67698672e-005 1.46758866e-005 1.74678607e-005 1.53738802e-005
      1.60718737e-005 1.61982389e-005 4.43903955e-005 5.44763898e-005
      6.10580100e-005 3.35976256e-005 4.86245663e-005 4.76734967e-005
      4.93801199e-005 4.74844928e-005 4.74844928e-005 4.74844928e-005
      4.74844928e-005 4.74844928e-005 4.74844928e-005 4.74844928e-005
      4.74844928e-005 4.74844928e-005 4.74844928e-005 4.74844928e-005
      4.74844928e-005 4.74844928e-005 4.74844928e-005 4.74844928e-005
      4.74844928e-005 4.74844928e-005 4.74844928e-005 4.74844928e-005
      4.74844928e-005 4.74844928e-005 4.74844928e-005 4.74844928e-005
      4.74844928e-005 4.44845537e-005 3.64180923e-005 5.79481348e-005
      5.12669030e-005 4.42574856e-005 3.67850116e-005 -5.30621401e-005
      -6.57687997e-005 -6.67786662e-005 -6.67786662e-005
      -6.67786662e-005 -6.67786662e-005 -6.67786662e-005
      -6.67786662e-005 -6.67786662e-005 -6.67786662e-005
      -6.67786662e-005 -6.67786662e-005 -6.67786662e-005
      -6.67786662e-005 -6.67786662e-005 -6.67786662e-005
      -6.67786662e-005 -6.67786662e-005 -6.67786662e-005
      -6.67786662e-005 -6.67786662e-005 -6.67786662e-005
      -6.67786662e-005 -6.67786662e-005 -6.67786662e-005
      -6.67786662e-005 -6.67786662e-005 -6.67786662e-005
      -6.67786662e-005 -6.67786662e-005 -6.67786662e-005
      -6.67786662e-005 -6.67786662e-005 -6.67786662e-005
      -6.21700819e-005 -6.63891915e-005 -9.03288528e-005
      -7.67797028e-005 -7.64408178e-005 -9.24516498e-005
      -5.81722707e-005 -8.59787542e-005 -8.12493163e-005
      -8.12493163e-005 -8.12493163e-005 -8.12493163e-005
      -8.12493163e-005 -8.12493163e-005 -8.12493163e-005
      -8.12493163e-005 -8.12493163e-005 -8.12493163e-005
      -8.12493163e-005 -8.12493163e-005 -8.12493163e-005
      -8.12493163e-005 -8.12493163e-005 -8.12493163e-005
      -8.12493163e-005 -8.12493163e-005 -8.12493163e-005
      -8.12493163e-005 -8.12493163e-005 -8.12493163e-005
      -8.12493163e-005 -8.12493163e-005 -8.30553254e-005
      -7.06139035e-005 -9.04778208e-005 -7.35113572e-005
      -8.29544224e-005 6.05350442e-006 1.83801785e-005 1.75359457e-006
      8.50236120e-006 8.50236120e-006 8.50236120e-006 8.50236120e-006
      8.50236120e-006 8.50236120e-006 8.50236120e-006 8.50236120e-006
      8.50236120e-006 8.50236120e-006 8.50236120e-006 8.50236120e-006
      8.50236120e-006 8.50236120e-006 8.50236120e-006 8.50236120e-006
      8.50236120e-006 8.50236120e-006 8.50236120e-006 8.50236120e-006
      8.50236120e-006 8.50236120e-006 8.50236120e-006 8.50236120e-006
      1.11022364e-005 1.25900451e-005 -1.84988244e-006 1.77370712e-005
      2.17908291e-006 1.55526664e-006 -3.12672751e-006 1.67965773e-005
      1.11135878e-005 1.11135878e-005 1.11135878e-005 1.11135878e-005
      1.11135878e-005 1.11135878e-005 1.11135878e-005 1.11135878e-005
      1.11135878e-005 1.11135878e-005 1.11135878e-005 1.11135878e-005
      1.11135878e-005 1.11135878e-005 1.11135878e-005 1.11135878e-005
      1.11135878e-005 1.11135878e-005 1.11135878e-005 1.11135878e-005
      1.11135878e-005 1.11135878e-005 1.11135878e-005 1.11135878e-005
      1.11135878e-005 1.11135878e-005 1.11135878e-005 1.11135878e-005
      1.11135878e-005 1.11135878e-005 1.11135878e-005 1.11135878e-005
      -1.10765441e-005 -1.10765441e-005 -1.10765441e-005
      -1.10765441e-005 -1.10765441e-005 -1.10765441e-005
      -1.10765441e-005 -1.10765441e-005 -1.17745376e-005
      -1.10765441e-005 -1.17745376e-005 -1.10765441e-005
      -1.17745376e-005 -1.10765441e-005 -8.61855096e-006
      -1.10765441e-005 -1.10765441e-005 -1.10765441e-005
      -1.10765441e-005 -1.10765441e-005 -1.10765441e-005
      -1.10765441e-005 -1.10765441e-005 -1.10765441e-005
      -1.00145380e-005 -1.10765441e-005 -1.10765441e-005
      -1.24725311e-005 -9.68055701e-006 -1.21385501e-005
      -1.10765441e-005 -1.07125315e-005 1.46867922e-006 1.46867922e-006
      1.46867922e-006 1.46867922e-006 1.46867922e-006 1.46867922e-006
      1.46867922e-006 1.46867922e-006 1.46867922e-006 1.46867922e-006
      1.46867922e-006 1.46867922e-006 1.46867922e-006 1.46867922e-006
      1.46867922e-006 1.46867922e-006 1.46867922e-006 1.46867922e-006
      1.46867922e-006 1.46867922e-006 1.46867922e-006 1.46867922e-006
      1.46867922e-006 1.46867922e-006 3.85598651e-006 -3.47005130e-006
      1.47319179e-006 9.92390960e-006 -5.61597737e-008 3.29799991e-006
      7.14223916e-006 -1.05881090e-005 -1.10765441e-005 -1.10765441e-005
      -1.10765441e-005 -1.10765441e-005 -1.10765441e-005
      -1.10765441e-005 -1.10765441e-005 -1.10765441e-005
      -1.10765441e-005 -1.10765441e-005 -1.10765441e-005
      -1.10765441e-005 -1.10765441e-005 -1.10765441e-005
      -1.10765441e-005 -1.10765441e-005 -1.10765441e-005
      -1.10765441e-005 -1.10765441e-005 -1.10765441e-005
      -1.10765441e-005 -1.10765441e-005 -1.10765441e-005
      -1.10765441e-005 -1.01762589e-005 -1.22628790e-005
      -1.52315324e-005 -1.03642642e-005 -1.31628231e-005
      -8.31186389e-006 -1.27619951e-005 -3.90674859e-006
      -8.34372713e-006 -8.34372713e-006 -8.34372713e-006
      -8.34372713e-006 -8.34372713e-006 -8.34372713e-006
      -8.34372713e-006 -8.34372713e-006 -8.70773965e-006
      -8.70773965e-006 -8.34372713e-006 -7.97971370e-006
      -7.97971370e-006 -8.34372713e-006 -8.34372713e-006
      -8.34372713e-006 -8.34372713e-006 -8.34372713e-006
      -8.34372713e-006 -8.34372713e-006 -8.34372713e-006
      -8.34372713e-006 -7.97971370e-006 -8.34372713e-006
      -1.08037957e-005 -3.54363169e-006 -1.15824951e-005
      -9.18257319e-006 -8.08703953e-006 -1.18283906e-005
      -1.24363296e-005 -9.07558115e-006 -1.10765441e-005
      -1.10765441e-005 -1.10765441e-005 -1.10765441e-005
      -1.10765441e-005 -1.10765441e-005 -1.10765441e-005
      -1.10765441e-005 -1.10765441e-005 -1.10765441e-005
      -1.10765441e-005 -1.10765441e-005 -1.10765441e-005
      -1.10765441e-005 -1.10765441e-005 -1.10765441e-005
      -1.12164935e-005 -3.04136120e-005 1.33317708e-005 -1.86078760e-005
      -8.92132812e-006 -1.88484846e-005 -9.24129345e-005
      -9.54654824e-005 -9.50014000e-005 -9.50014000e-005
      -9.50014000e-005 -9.50014000e-005 -9.50014000e-005
      -9.50014000e-005 -9.50014000e-005 -9.50014000e-005
      -9.50014000e-005 -9.50014000e-005 -9.50014000e-005
      -9.50014000e-005 -9.50014000e-005 -9.50014000e-005
      -9.50014000e-005 -9.50014000e-005 -9.50014000e-005
      -9.50014000e-005 -9.50014000e-005 -9.50014000e-005
      -9.50014000e-005 -9.50014000e-005 -9.50014000e-005
      -9.50014000e-005 -9.07294525e-005 2.83971616e-007 5.27594329e-006
      2.88964529e-005 1.79652743e-005 9.21160699e-006 -7.16390275e-007
      1.11831650e-005 1.11135878e-005 1.11135878e-005 1.11135878e-005
      1.11135878e-005 1.11135878e-005 1.11135878e-005 1.11135878e-005
      1.11135878e-005 1.11135878e-005 1.11135878e-005 1.11135878e-005
      1.11135878e-005 1.11135878e-005 1.11135878e-005 1.11135878e-005
      1.11135878e-005 1.51306867e-005 -6.78028414e-007 2.19536523e-005
      4.55940881e-006 3.95980205e-005 3.43474239e-005 1.02876356e-005
      3.49336842e-005 2.87307303e-005 2.80327367e-005 3.01267191e-005
      2.73347432e-005 2.94287256e-005 2.87307303e-005 2.87307303e-005
      2.80327367e-005 2.87307303e-005 2.87307303e-005 2.87307303e-005
      2.87307303e-005 2.87307303e-005 2.87307303e-005 2.87307303e-005
      2.87307303e-005 3.44184373e-005 2.06843361e-005 2.42268961e-005
      4.21331461e-005 2.81414236e-006 1.64853172e-005 2.06909954e-005
      8.17409637e-006 1.11135878e-005 1.11135878e-005 1.11135878e-005
      1.11135878e-005 1.11135878e-005 1.11135878e-005 1.11135878e-005
      1.11135878e-005 1.11135878e-005 1.11135878e-005 1.11135878e-005
      1.11135878e-005 1.11135878e-005 1.11135878e-005 1.11135878e-005
      1.11135878e-005 1.09773482e-005 2.08845631e-005 1.88049592e-006
      1.47325100e-005 -8.79200070e-006 -2.57290503e-006 -1.83399952e-005
      -9.65673735e-006 -6.31907733e-006 -6.31907733e-006
      -6.31907733e-006 -6.31907733e-006 -6.31907733e-006
      -6.31907733e-006 -6.31907733e-006 -6.31907733e-006
      -6.31907733e-006 -6.31907733e-006 -6.31907733e-006
      -6.31907733e-006 -6.31907733e-006 -6.31907733e-006
      -6.31907733e-006 -6.31907733e-006 4.98459030e-006 -3.26339468e-005
      7.82090683e-006 -2.69382854e-005 -1.54895697e-005 -9.54439111e-006
      -1.22209613e-005 -8.49932167e-006 -1.10765441e-005
      -1.10765441e-005 -1.10765441e-005 -1.10765441e-005
      -1.10765441e-005 -1.10765441e-005 -1.10765441e-005
      -1.10765441e-005 -1.10765441e-005 -1.10765441e-005
      -1.10765441e-005 -1.10765441e-005 -1.10765441e-005
      -1.10765441e-005 -1.10765441e-005 -1.10765441e-005
      -1.01618034e-005 -2.88610481e-005 -3.10751311e-005
      -2.28835033e-005 -2.91546385e-005 -3.14975332e-005
      -2.52885238e-005 -3.03317593e-005 -2.82726942e-005
      -2.82726942e-005 -2.82726942e-005 -2.82726942e-005
      -2.82726942e-005 -2.82726942e-005 -2.82726942e-005
      -2.82726942e-005 -2.63386919e-005 -2.73987316e-005
      -2.62996837e-005 -3.00153824e-005 -3.12719931e-005
      -1.88540798e-005 7.09345622e-005 8.13285878e-005 7.70244878e-005
      7.70244878e-005 7.70244878e-005 7.70244878e-005 7.70244878e-005
      7.70244878e-005 7.70244878e-005 7.70244878e-005 7.70244878e-005
      7.70244878e-005 7.70244878e-005 7.70244878e-005 7.70244878e-005
      7.70244878e-005 7.70244878e-005 7.70244878e-005 8.43098824e-005
      6.78423894e-005 5.58847387e-005 4.49957915e-005 4.02799960e-005
      4.76855057e-005 4.18500931e-005 4.33804707e-005 4.27561390e-005
      4.27561390e-005 4.27561390e-005 4.27561390e-005 4.27561390e-005
      4.27561390e-005 4.27561390e-005 4.27561390e-005 4.00594872e-005
      4.93131738e-005 3.91012363e-005 4.46389931e-005 5.28757009e-005
      -1.26535133e-005 -1.55034559e-005 -1.25617362e-005
      -1.10765441e-005 -1.10765441e-005 -1.10765441e-005
      -1.10765441e-005 -1.10765441e-005 -1.10765441e-005
      -1.10765441e-005 -1.10765441e-005 -1.03035791e-005
      -1.25002589e-005 -1.13717879e-005 -7.77816240e-006
      -6.66973938e-006 -1.56656324e-006 7.01864906e-007 -4.41199008e-005
      -2.86477098e-005 -2.86477098e-005 -2.86477098e-005
      -2.86477098e-005 -2.86477098e-005 -2.86477098e-005
      -2.86477098e-005 -2.86477098e-005 -2.86477098e-005
      -2.86477098e-005 -2.86477098e-005 -2.86477098e-005
      -2.86477098e-005 -2.86477098e-005 -2.86477098e-005
      -2.86477098e-005 2.22207950e-006 2.22207950e-006 2.22207950e-006
      2.22207950e-006 2.22207950e-006 2.22207950e-006 2.22207950e-006
      2.22207950e-006 2.22207950e-006 2.22207950e-006 2.22207950e-006
      2.22207950e-006 2.22207950e-006 2.22207950e-006 2.22207950e-006
      2.22207950e-006 2.78152966e-005 2.78152966e-005 2.78152966e-005
      2.78152966e-005 2.78152966e-005 2.78152966e-005 2.78152966e-005
      2.78152966e-005 3.13981873e-005 2.60135785e-005 2.58376476e-005
      2.03446143e-005 3.03908637e-005 4.06911968e-005 2.15847431e-005
      -1.57839298e-004 -1.50966283e-004 -1.50966283e-004
      -1.50966283e-004 -1.50966283e-004 -1.50966283e-004
      -1.50966283e-004 -1.50966283e-004 -1.50966283e-004
      -1.52300403e-004 -1.60840456e-004 -1.50726235e-004
      -1.43062847e-004 -1.57940769e-004 -3.59503656e-006
      -9.86246687e-006 -1.77733250e-006 -1.10765441e-005
      -1.10765441e-005 -1.10765441e-005 -1.10765441e-005
      -1.10765441e-005 -1.10765441e-005 -1.10765441e-005
      -1.10765441e-005 -1.07676624e-005 -1.24625267e-005
      -1.29599619e-004 -1.18865202e-004 -1.28472471e-004
      -1.15075134e-004 -1.26542989e-004 -1.22170561e-004
      -1.24181635e-004 -1.27190870e-004 -1.20173972e-004
      -1.28700660e-004 -1.20147248e-004 -1.35749622e-004
      -5.74424394e-006 -1.27701487e-005 -1.12473454e-005
      -1.12473454e-005 -1.12473454e-005 -1.12473454e-005
      -1.12473454e-005 -1.12473454e-005 -1.12473454e-005
      -1.12473454e-005 -1.19386877e-005 -1.65835972e-005
      -1.86745401e-005 -5.69785334e-006 -1.51337454e-005
      -1.85692043e-005 -1.11793952e-005 -1.60767049e-005
      -1.13088090e-005 -1.81960822e-005 -1.77136026e-005
      -1.59388292e-005 -7.44387648e-007 -1.04043820e-005
      -1.53741112e-005 -8.12281360e-006 -8.35087485e-006
      -1.13612969e-005 -1.27056874e-005 -1.79888830e-005 7.19659624e-007
      -5.67951747e-006 -6.65808284e-006 -5.98796714e-006
      -8.26920223e-006 -9.23403059e-006 -3.34843685e-006 2.43938757e-006
      -8.85401532e-005 -8.04222946e-005 -7.45320358e-005
      -7.58763344e-005 -7.62886193e-005 -7.64094584e-005
      -6.82960017e-005 -1.38653322e-005 -4.34897311e-006 1.92630068e-006
      -4.21708955e-006 -2.64850814e-006 -1.27747371e-005
      -2.23943371e-005 -2.03619420e-005 -3.65418346e-005
      -2.84799225e-005 -2.46275758e-005 -4.33939640e-005
      -1.66761965e-005 -2.14820593e-005 -3.75368945e-005 1.10531928e-005
      1.81949817e-005 7.52900803e-007 1.22132815e-005 -1.09432458e-005
      -1.34619513e-005</_></support_vectors>
  <decision_functions>
    <_>
      <sv_count>1</sv_count>
      <rho>-4.2664927172770672e-001</rho>
      <alpha>
        1.</alpha>
      <index>
        0</index></_></decision_functions></my_svm>
</opencv_storage>
