<?xml version="1.0"?>
<opencv_storage>
<my_svm type_id="opencv-ml-svm">
  <svm_type>C_SVC</svm_type>
  <kernel><type>LINEAR</type></kernel>
  <C>1.</C>
  <term_criteria><epsilon>2.2204460492503131e-016</epsilon>
    <iterations>100</iterations></term_criteria>
  <var_all>4544</var_all>
  <var_count>4544</var_count>
  <class_count>2</class_count>
  <class_labels type_id="opencv-matrix">
    <rows>1</rows>
    <cols>2</cols>
    <dt>i</dt>
    <data>
      9 255</data></class_labels>
  <sv_total>1</sv_total>
  <support_vectors>
    <_>
      -3.51600562e-007 -3.51600562e-007 8.49042976e-007 2.46303102e-007
      -1.17790114e-006 -4.98824420e-007 -2.98547889e-007
      -2.98547889e-007 -3.99164634e-007 0. -1.94943709e-006
      -2.89139962e-006 -1.94943709e-006 -3.24666303e-006
      -2.54091583e-006 4.35919645e-007 -6.17141666e-007 -6.17141666e-007
      0. -4.98824420e-007 1.35793834e-006 1.52503890e-006
      9.07897174e-007 8.40056543e-007 -1.31153047e-006 -6.78406238e-008
      -8.27135750e-007 -7.59295119e-007 -7.59295119e-007
      -7.59295119e-007 -1.02571278e-006 3.32225511e-007 -1.29722594e-006
      -1.29722594e-006 0. 0. 0. 0. -1.29722594e-006 -1.79605036e-006
      -2.98547889e-007 -2.98547889e-007 0. 0. 0. 0. 6.49839706e-007
      -3.61565924e-008 -1.55973510e-006 -1.06091068e-006
      -6.85996270e-007 0. 0. 0. 0. 0. 0. 0. 0. 0. 0. 0. 0. 0.
      1.61889716e-006 0. -8.83221048e-007 2.17977046e-007
      2.17977046e-007 2.17977046e-007 2.17977046e-007 2.17977046e-007 0.
      0. 0. 0. 0. -6.78406238e-008 -6.78406238e-008 -6.78406238e-008
      1.35793834e-006 1.35793834e-006 1.35793834e-006 1.35793834e-006
      1.35793834e-006 1.35793834e-006 1.35793834e-006 1.35793834e-006 0.
      0. 0. 0. 0. 0. 0. 0. 0. 0. 0. -2.98547889e-007 -2.98547889e-007 0.
      0. 0. 0. 0. 0. -1.29722594e-006 6.07123738e-008 1.57591535e-006
      1.57591535e-006 1.57591535e-006 1.35793834e-006 0. 0. 0. 0. 0. 0.
      1.35793834e-006 0. 0. 0. 0. 0. 0. 0. 0. 0. 0. 0. 2.17977046e-007
      2.17977046e-007 0. 0. 0. 0. 0. 0. 0. 0. 0. 0. 0. 0. 0. 0. 0. 0. 0.
      0. 0. 0. 0. 0. 0. 0. 0. 0. 0. 0. 0. 0. 0. 0. 0. 0. 0. 0. 0. 0. 0.
      0. 0. 0. 0. 0. 0. 0. 0. 0. 0. 0. 0. 0. 0. 0. 0. 0. 0. 0. 0. 0. 0.
      0. 0. 0. 0. 0. 0. 0. 0. 0. 0. 0. 0. 0. 0. 0. 0. 0. 0. 0. 0. 0. 0.
      0. 0. 0. 0. 0. 0. 0. 0. 0. 0. 0. 0. 0. 0. 0. 0. 0. 0. 0. 0. 0. 0.
      0. 0. 0. 0. 0. 0. 0. 0. 0. 0. 0. 0. 0. 0. 0. 0. 0. 0.
      2.14167144e-007 -1.36334165e-006 1.75154253e-006 1.08683037e-006
      -1.35286484e-006 -2.44146395e-006 1.78416019e-006 1.41207443e-006
      -9.92518949e-007 2.11378710e-006 1.33121841e-006 -2.29275869e-007
      -8.92487776e-007 1.09957750e-006 -2.23887582e-007 -3.05218418e-006
      -1.18788091e-006 -6.29959231e-007 6.80884327e-008 -2.94249321e-006
      -5.71287865e-006 -4.85323608e-006 1.68844008e-006 2.87326088e-006
      7.67853749e-007 4.41806151e-007 2.08849406e-006 -2.22132530e-006
      -7.99116833e-007 -2.02837759e-006 -2.75796629e-006
      -2.03266654e-006 1.48458912e-006 -2.86612067e-006 -1.44849298e-006
      -3.77794890e-006 -1.24649580e-006 1.79602523e-006 -7.47753973e-007
      3.69631522e-007 3.95530151e-006 1.56618728e-006 -9.00691816e-007
      3.98797511e-006 -1.05253105e-006 -4.20923561e-006 -3.65765095e-006
      -1.50789640e-006 8.06407883e-008 -4.74970193e-007 -1.15227874e-006
      -1.03324248e-006 2.48189758e-006 2.00473892e-006 -6.97664427e-006
      -6.48390596e-006 -7.72995179e-007 -1.99976898e-006
      -4.70659734e-006 -5.02299463e-006 -3.41261239e-006 2.24584483e-006
      2.67575547e-006 2.66457778e-006 2.27704732e-006 4.68174585e-006
      3.54606027e-006 5.52769279e-006 5.58193460e-006 1.94270319e-006
      2.85959891e-006 1.13944486e-006 -1.99482747e-006 -4.90360605e-007
      -1.07763992e-006 -1.17047250e-006 -3.18064440e-006
      -4.49048321e-006 -1.98145585e-006 -2.56828753e-006 2.47134017e-006
      2.81400253e-006 4.08035504e-007 -3.04843206e-006 -5.89452429e-006
      -1.48742015e-006 -3.54892245e-006 -7.03189826e-008
      -4.91342735e-006 -4.70532041e-006 -4.65301900e-006
      -2.24171572e-006 5.16288367e-007 1.51580792e-007 -3.01167915e-007
      1.64206620e-006 1.55480120e-006 1.31020977e-006 3.03326942e-006
      1.55461578e-006 4.30546334e-006 5.81773338e-006 -4.37814577e-007
      -3.33022558e-006 3.62425658e-006 3.71546048e-006 -2.72486204e-006
      -2.57807142e-006 -4.91265519e-006 -6.27772170e-006
      -4.19772459e-006 -3.93164555e-006 1.45456863e-006 1.35793834e-006
      1.35793834e-006 1.35793834e-006 3.94649305e-007 1.54331349e-006
      -8.52127471e-007 -1.68488884e-006 -1.74251431e-006
      -1.74251431e-006 -1.24368989e-006 -1.76169044e-006
      -1.76169044e-006 -1.76169044e-006 -1.64827134e-006
      -1.18380672e-006 2.38878033e-006 2.52603968e-006 -1.71969987e-006
      -1.00357943e-006 1.20820914e-006 3.31369347e-006 -6.46816574e-008
      -1.43555633e-006 5.47584477e-007 1.17017123e-006 1.03246066e-006
      3.18800375e-007 2.24987684e-006 1.88910690e-006 3.85498106e-006
      4.91873334e-006 3.14599606e-006 3.69569693e-006 4.36833625e-006
      1.39954193e-006 1.39954193e-006 1.65833762e-006 -1.21901076e-006
      -1.76871163e-006 -1.82588667e-006 -1.67174608e-006
      -4.17540468e-006 -6.04164779e-006 -5.03272486e-006
      -3.15801572e-006 1.51343602e-006 4.03583357e-007 -1.67730263e-006
      1.60518141e-006 -9.29590612e-007 -1.71823740e-006 -4.03854483e-006
      -5.14068188e-006 7.29112912e-007 3.67980306e-006 -4.86254066e-006
      -6.40541566e-006 1.30615545e-008 -8.17321165e-007 2.17888214e-006
      4.34896447e-006 3.49072684e-006 1.51746224e-006 -4.60874253e-006
      1.83295839e-007 3.61788193e-006 -2.78690050e-006 -8.74232683e-006
      -1.71479417e-006 5.39723897e-006 9.45790907e-006 -2.21766913e-006
      4.66676192e-006 7.45936268e-006 5.10276095e-006 3.86124202e-006
      2.49007326e-006 -6.63153344e-007 -5.37352162e-006 -3.61737989e-006
      -4.93478728e-006 -1.33061997e-006 1.50988933e-006 -6.12926328e-007
      1.23569271e-006 3.63797722e-006 3.30814510e-006 1.31403635e-006
      8.20606374e-007 2.59114904e-006 1.70470526e-006 -2.19710319e-006
      -1.96687415e-006 -1.15274565e-006 -1.94033578e-006
      -3.70870521e-006 -2.67126325e-006 -1.23614382e-006 2.29937342e-007
      1.12749228e-006 -1.07614289e-006 -1.00190141e-006 -2.82367137e-006
      1.06747507e-006 3.47073228e-006 4.15922523e-006 1.40931922e-006
      3.37001597e-006 2.52988843e-006 -3.14815998e-006 -4.01783655e-006
      3.06043239e-006 2.29898433e-006 1.43381214e-007 -1.44603825e-006
      -3.52515167e-006 -1.41445082e-006 5.08678613e-006 6.60269598e-006
      5.45246121e-006 -2.19959674e-007 1.96430187e-006 4.22765834e-006
      4.03429021e-006 4.54677274e-006 -2.96029771e-006 -4.25613280e-006
      -1.55497787e-006 -1.52769708e-008 -1.25405359e-006
      -1.12589873e-006 -1.25004726e-006 -2.00377167e-006 7.82467623e-007
      7.30187764e-007 4.30909313e-006 4.30909313e-006 1.24368989e-006
      1.76169044e-006 1.76169044e-006 1.76169044e-006 1.03112961e-006
      5.66665051e-007 -1.92835087e-005 -1.92835087e-005 -1.92835087e-005
      -1.92835087e-005 -1.92835087e-005 -1.92835087e-005
      -1.92835087e-005 -1.92835087e-005 -1.92835087e-005
      -1.92835087e-005 -1.92835087e-005 -1.92835087e-005
      -1.92835087e-005 -1.92835087e-005 -1.92835087e-005
      -1.92835087e-005 -1.92835087e-005 -1.92835087e-005
      -1.92835087e-005 -1.92835087e-005 -1.92835087e-005
      -1.92835087e-005 -1.92835087e-005 -1.92835087e-005
      -1.92835087e-005 -1.92835087e-005 -1.92835087e-005
      -1.92835087e-005 -1.92835087e-005 -1.92835087e-005
      -1.92835087e-005 -1.92835087e-005 -1.92835087e-005
      -1.92835087e-005 -1.92835087e-005 -1.92835087e-005
      -1.92835087e-005 -1.92835087e-005 -1.92835087e-005
      -1.92835087e-005 -1.92835087e-005 -1.92835087e-005
      -1.92835087e-005 -1.92835087e-005 -1.92835087e-005
      -1.92835087e-005 -1.92835087e-005 -1.92835087e-005
      -1.92835087e-005 -1.92835087e-005 -1.92835087e-005
      -1.92835087e-005 -1.92835087e-005 -1.92835087e-005
      -1.92835087e-005 -1.92835087e-005 -1.90571755e-005
      -2.17551060e-005 -2.76642386e-005 -9.58881628e-006
      -2.09199152e-005 -1.20655322e-005 -1.65933416e-005
      -5.46074443e-005 -4.93441585e-005 -4.93441585e-005
      -4.93441585e-005 -4.93441585e-005 -4.93441585e-005
      -4.93441585e-005 -4.93441585e-005 -4.93441585e-005
      -4.93441585e-005 -4.93441585e-005 -4.93441585e-005
      -4.93441585e-005 -4.93441585e-005 -4.93441585e-005
      -4.93441585e-005 -4.93441585e-005 -4.93441585e-005
      -4.93441585e-005 -4.93441585e-005 -4.93441585e-005
      -4.93441585e-005 -4.93441585e-005 -4.93441585e-005
      -4.93441585e-005 -4.93441585e-005 -4.93441585e-005
      -4.93441585e-005 -4.93441585e-005 -4.93441585e-005
      -4.93441585e-005 -4.93441585e-005 -4.93441585e-005
      -4.93441585e-005 -4.93441585e-005 -4.93441585e-005
      -4.93441585e-005 -4.93441585e-005 -4.93441585e-005
      -4.93441585e-005 -4.93441585e-005 -4.93441585e-005
      -4.93441585e-005 -4.93441585e-005 -4.93441585e-005
      -4.93441585e-005 -4.93441585e-005 -4.93441585e-005
      -4.93441585e-005 -4.93441585e-005 -4.93441585e-005
      -4.93441585e-005 -4.93441585e-005 -4.93441585e-005
      -4.93441585e-005 -4.93441585e-005 -4.93441585e-005
      -4.52577515e-005 -5.87758113e-005 -5.42689013e-005
      -4.31442713e-005 -5.94248340e-005 -5.02153716e-006
      -9.05143952e-006 -8.52129506e-006 -9.34687250e-006
      -9.34687250e-006 -9.34687250e-006 -9.34687250e-006
      -9.34687250e-006 -9.34687250e-006 -9.34687250e-006
      -9.34687250e-006 -9.34687250e-006 -9.34687250e-006
      -9.34687250e-006 -9.34687250e-006 -9.34687250e-006
      -9.34687250e-006 -9.34687250e-006 -9.34687250e-006
      -9.34687250e-006 -9.34687250e-006 -9.34687250e-006
      -9.34687250e-006 -9.34687250e-006 -9.34687250e-006
      -9.34687250e-006 -9.34687250e-006 -9.34687250e-006
      -9.34687250e-006 -9.34687250e-006 -9.34687250e-006
      -9.34687250e-006 -9.34687250e-006 -9.34687250e-006
      -9.34687250e-006 -9.34687250e-006 -9.34687250e-006
      -9.34687250e-006 -9.34687250e-006 -9.34687250e-006
      -9.34687250e-006 -9.34687250e-006 -9.34687250e-006
      -9.34687250e-006 -9.34687250e-006 -9.34687250e-006
      -9.34687250e-006 -9.34687250e-006 -9.34687250e-006
      -9.34687250e-006 -9.34687250e-006 -9.34687250e-006
      -9.34687250e-006 -9.34687250e-006 -9.34687250e-006
      -9.34687250e-006 -9.34687250e-006 -9.34687250e-006
      -9.34687250e-006 -9.34687250e-006 -9.34687250e-006
      -9.34687250e-006 -9.34687250e-006 -9.34687250e-006
      -9.34687250e-006 -9.34687250e-006 -9.34687250e-006
      -9.34687250e-006 -9.34687250e-006 -9.34687250e-006
      -9.34687250e-006 -9.34687250e-006 -9.34687250e-006
      -9.34687250e-006 -9.34687250e-006 -9.34687250e-006
      -9.34687250e-006 -9.34687250e-006 -9.34687250e-006
      -9.34687250e-006 -9.34687250e-006 -9.34687250e-006
      -9.34687250e-006 -9.34687250e-006 -9.34687250e-006
      -9.34687250e-006 -9.34687250e-006 -9.34687250e-006
      -9.34687250e-006 -9.34687250e-006 -9.34687250e-006
      -9.34687250e-006 -9.34687250e-006 -9.34687250e-006
      -9.34687250e-006 -9.34687250e-006 -9.34687250e-006
      -9.34687250e-006 -9.34687250e-006 -9.34687250e-006
      -9.34687250e-006 -9.34687250e-006 -9.34687250e-006
      -9.34687250e-006 -9.34687250e-006 -9.34687250e-006
      -9.34687250e-006 -9.34687250e-006 -9.34687250e-006
      -9.34687250e-006 -9.34687250e-006 -9.34687250e-006
      -9.34687250e-006 -9.34687250e-006 -9.34687250e-006
      -9.57064640e-006 -8.92884782e-006 -1.24907983e-005
      -9.23892276e-006 -1.45120393e-005 -7.66572703e-006 2.23975567e-005
      2.78897005e-005 2.50570374e-005 2.50570374e-005 2.50570374e-005
      2.50570374e-005 2.50570374e-005 2.50570374e-005 2.50570374e-005
      2.50570374e-005 2.50570374e-005 2.50570374e-005 2.50570374e-005
      2.50570374e-005 2.50570374e-005 2.50570374e-005 2.50570374e-005
      2.50570374e-005 2.50570374e-005 2.50570374e-005 2.50570374e-005
      2.50570374e-005 2.50570374e-005 2.50570374e-005 2.50570374e-005
      2.50570374e-005 2.50570374e-005 2.50570374e-005 2.50570374e-005
      2.50570374e-005 2.50570374e-005 2.50570374e-005 2.50570374e-005
      2.50570374e-005 2.50570374e-005 2.50570374e-005 2.50570374e-005
      2.50570374e-005 2.50570374e-005 2.50570374e-005 2.50570374e-005
      2.50570374e-005 2.50570374e-005 2.50570374e-005 2.50570374e-005
      2.50570374e-005 2.50570374e-005 2.50570374e-005 2.50570374e-005
      2.50570374e-005 2.50570374e-005 2.50570374e-005 2.50570374e-005
      2.50570374e-005 2.50570374e-005 2.50570374e-005 2.50570374e-005
      2.50570374e-005 1.91801519e-005 -3.02120716e-005 -4.67232567e-005
      -4.48943392e-005 -4.01720390e-005 -3.13068558e-005
      -4.66361962e-005 -3.40913684e-005 -4.14186543e-005
      -4.14186543e-005 -4.14186543e-005 -4.14186543e-005
      -4.14186543e-005 -4.14186543e-005 -4.14186543e-005
      -4.14186543e-005 -4.14186543e-005 -4.14186543e-005
      -4.14186543e-005 -4.14186543e-005 -4.14186543e-005
      -4.14186543e-005 -4.14186543e-005 -4.14186543e-005
      -4.14186543e-005 -4.14186543e-005 -4.14186543e-005
      -4.14186543e-005 -4.14186543e-005 -4.14186543e-005
      -4.14186543e-005 -4.14186543e-005 -4.14186543e-005
      -4.14186543e-005 -4.14186543e-005 -4.14186543e-005
      -4.14186543e-005 -4.14186543e-005 -4.14186543e-005
      -4.14186543e-005 -4.14186543e-005 -4.14186543e-005
      -4.14186543e-005 -4.14186543e-005 -4.14186543e-005
      -4.14186543e-005 -4.14186543e-005 -4.14186543e-005
      -4.14186543e-005 -4.14186543e-005 -4.14186543e-005
      -4.14186543e-005 -4.14186543e-005 -4.14186543e-005
      -4.14186543e-005 -4.14186543e-005 -3.99842393e-005
      -4.70143059e-005 -2.11911301e-005 -4.54584260e-005 6.58455235e-007
      -3.06273178e-005 -8.44438091e-006 -3.25088877e-005
      -2.83976206e-005 -2.83976206e-005 -2.83976206e-005
      -2.83976206e-005 -2.83976206e-005 -2.83976206e-005
      -2.83976206e-005 -2.83976206e-005 -2.83976206e-005
      -2.83976206e-005 -2.83976206e-005 -2.83976206e-005
      -2.83976206e-005 -2.83976206e-005 -2.83976206e-005
      -2.83976206e-005 -2.83976206e-005 -2.83976206e-005
      -2.83976206e-005 -2.83976206e-005 -2.83976206e-005
      -2.83976206e-005 -2.83976206e-005 -2.83976206e-005
      -2.83976206e-005 -2.83976206e-005 -2.83976206e-005
      -2.83976206e-005 -2.83976206e-005 -2.83976206e-005
      -2.83976206e-005 -2.83976206e-005 -2.83976206e-005
      -2.83976206e-005 -2.83976206e-005 -2.83976206e-005
      -2.83976206e-005 -2.83976206e-005 -2.83976206e-005
      -2.83976206e-005 -2.83976206e-005 -2.83976206e-005
      -2.83976206e-005 -2.83976206e-005 -2.83976206e-005
      -2.83976206e-005 -2.83976206e-005 -2.83976206e-005
      -2.40796635e-005 -3.57635072e-005 -2.14189604e-005
      -1.22103738e-005 -5.35084873e-005 -4.27017731e-005
      -2.55929790e-005 -3.82281069e-005 -3.91553622e-005
      -3.91553622e-005 -3.91553622e-005 -3.91553622e-005
      -3.91553622e-005 -3.91553622e-005 -3.91553622e-005
      -3.91553622e-005 -3.91553622e-005 -3.91553622e-005
      -3.91553622e-005 -3.91553622e-005 -3.91553622e-005
      -3.91553622e-005 -3.91553622e-005 -3.91553622e-005
      -3.91553622e-005 -3.91553622e-005 -3.91553622e-005
      -3.91553622e-005 -3.91553622e-005 -3.91553622e-005
      -3.91553622e-005 -3.91553622e-005 -3.91553622e-005
      -3.91553622e-005 -3.91553622e-005 -3.91553622e-005
      -3.91553622e-005 -3.91553622e-005 -3.91553622e-005
      -3.91553622e-005 -3.91553622e-005 -3.91553622e-005
      -3.91553622e-005 -3.91553622e-005 -3.91553622e-005
      -3.91553622e-005 -3.91553622e-005 -3.91553622e-005
      -3.91553622e-005 -3.91553622e-005 -3.91553622e-005
      -3.91553622e-005 -3.91553622e-005 -3.91553622e-005
      -3.91553622e-005 -3.91553622e-005 -5.38805725e-005
      -2.75423736e-005 -4.15680624e-005 -4.41268130e-005
      -4.51185915e-005 -4.41967459e-005 -5.47571217e-005
      -3.19212995e-005 -4.63743054e-005 -4.63743054e-005
      -4.63743054e-005 -4.63743054e-005 -4.63743054e-005
      -4.63743054e-005 -4.63743054e-005 -4.63743054e-005
      -4.63743054e-005 -4.63743054e-005 -4.63743054e-005
      -4.63743054e-005 -4.63743054e-005 -4.63743054e-005
      -4.63743054e-005 -4.63743054e-005 -4.63743054e-005
      -4.63743054e-005 -4.63743054e-005 -4.63743054e-005
      -4.63743054e-005 -4.63743054e-005 -4.63743054e-005
      -4.63743054e-005 -4.63743054e-005 -4.63743054e-005
      -4.63743054e-005 -4.63743054e-005 -4.63743054e-005
      -4.63743054e-005 -4.63743054e-005 -4.63743054e-005
      -4.63743054e-005 -4.63743054e-005 -4.63743054e-005
      -4.63743054e-005 -4.63743054e-005 -4.63743054e-005
      -4.63743054e-005 -4.63743054e-005 -4.63743054e-005
      -4.63743054e-005 -4.63743054e-005 -4.63743054e-005
      -4.63743054e-005 -4.63743054e-005 -4.63743054e-005
      -4.63743054e-005 -5.26589429e-005 -3.78840123e-005
      -4.32111665e-005 -7.51059360e-006 -1.02364575e-005
      -2.13087642e-005 -7.13645841e-006 -1.64621033e-005
      -9.73767055e-006 -9.73767055e-006 -9.73767055e-006
      -9.73767055e-006 -9.73767055e-006 -9.73767055e-006
      -9.73767055e-006 -9.73767055e-006 -9.73767055e-006
      -9.73767055e-006 -9.73767055e-006 -9.73767055e-006
      -9.73767055e-006 -9.73767055e-006 -9.73767055e-006
      -9.73767055e-006 -9.73767055e-006 -9.73767055e-006
      -9.73767055e-006 -9.73767055e-006 -9.73767055e-006
      -9.73767055e-006 -9.73767055e-006 -9.73767055e-006
      -9.73767055e-006 -1.22250503e-005 -8.49398111e-006
      -7.25029122e-006 -9.73767055e-006 -9.73767055e-006
      -8.49398111e-006 -1.22250503e-005 -9.73767055e-006
      -9.73767055e-006 -8.49398111e-006 -1.09813609e-005
      -1.09813609e-005 -8.49398111e-006 -9.73767055e-006
      -9.73767055e-006 -1.09813609e-005 -1.09813609e-005
      -7.25029122e-006 -1.22250503e-005 -8.49398111e-006
      -1.09813609e-005 -1.09813609e-005 -7.25029122e-006
      -2.55086366e-006 -3.27217494e-005 -2.35909956e-005
      -2.10188336e-005 -2.62948834e-005 -2.09388309e-005
      -2.21010014e-005 -2.37095355e-005 -2.33593655e-005
      -2.33593655e-005 -2.33593655e-005 -2.33593655e-005
      -2.33593655e-005 -2.33593655e-005 -2.33593655e-005
      -2.33593655e-005 -2.33593655e-005 -2.33593655e-005
      -2.33593655e-005 -2.33593655e-005 -2.33593655e-005
      -2.33593655e-005 -2.33593655e-005 -2.33593655e-005
      -2.33593655e-005 -2.33593655e-005 -2.33593655e-005
      -2.33593655e-005 -2.33593655e-005 -2.33593655e-005
      -2.33593655e-005 -2.33593655e-005 -2.33593655e-005
      -2.21156752e-005 -2.46030559e-005 -2.33593655e-005
      -2.33593655e-005 -2.21156752e-005 -2.58467444e-005
      -2.33593655e-005 -2.21156752e-005 -2.21156752e-005
      -2.46030559e-005 -2.46030559e-005 -2.46030559e-005
      -2.33593655e-005 -2.33593655e-005 -2.21156752e-005
      -2.36590968e-005 -2.33264655e-005 -2.40523168e-005
      -2.18863806e-005 -2.52957016e-005 -1.89245475e-005
      -8.83728808e-006 -5.09219080e-006 -3.50776440e-006
      -4.75145407e-006 -4.75145407e-006 -3.50776440e-006
      -3.50776440e-006 -5.99514397e-006 -5.99514397e-006
      -4.75145407e-006 -4.75145407e-006 -4.75145407e-006
      -4.75145407e-006 -4.75145407e-006 -4.75145407e-006
      -4.75145407e-006 -4.75145407e-006 -4.75145407e-006
      -4.75145407e-006 -4.75145407e-006 -4.75145407e-006
      -4.75145407e-006 -4.75145407e-006 -4.75145407e-006
      -4.75145407e-006 -4.75145407e-006 -2.26407451e-006
      -5.99514397e-006 -5.99514397e-006 -3.50776440e-006
      -7.23883386e-006 -2.26407451e-006 -5.99514397e-006
      -5.99514397e-006 -7.23883386e-006 -3.50776440e-006
      -4.75145407e-006 -4.75145407e-006 -2.26407451e-006
      -3.50776440e-006 -7.23883386e-006 -4.75145407e-006
      -7.23883386e-006 -3.50776440e-006 -4.75145407e-006
      -4.75145407e-006 -2.26407451e-006 -3.50776440e-006
      -7.23883386e-006 -4.75145407e-006 2.40787676e-006 -7.73429929e-006
      -4.96189532e-005 -4.03867052e-005 -5.48780226e-005
      -4.00061363e-005 -4.68219223e-005 -5.63055182e-005
      -4.55076552e-005 -4.55076552e-005 -4.55076552e-005
      -4.55076552e-005 -4.55076552e-005 -4.55076552e-005
      -4.55076552e-005 -4.55076552e-005 -4.55076552e-005
      -4.55076552e-005 -4.55076552e-005 -4.55076552e-005
      -4.55076552e-005 -4.55076552e-005 -4.55076552e-005
      -4.55076552e-005 -4.55076552e-005 -4.55076552e-005
      -4.55076552e-005 -4.55076552e-005 -4.55076552e-005
      -4.55076552e-005 -4.55076552e-005 -4.55076552e-005
      -4.55076552e-005 -4.79950359e-005 -4.42639648e-005
      -4.55076552e-005 -4.55076552e-005 -4.67513455e-005
      -4.42639648e-005 -4.55076552e-005 -4.67513455e-005
      -4.42639648e-005 -4.55076552e-005 -4.55076552e-005
      -4.55076552e-005 -4.55076552e-005 -4.42639648e-005
      -4.67513455e-005 -4.55464324e-005 -4.23622296e-005
      -4.14688475e-005 -5.86526949e-005 -4.25465259e-005
      -2.47833832e-005 -3.29256363e-005 -3.48507601e-005
      -3.41262748e-005 -3.41262748e-005 -3.41262748e-005
      -3.41262748e-005 -3.41262748e-005 -3.41262748e-005
      -3.41262748e-005 -3.41262748e-005 -3.41262748e-005
      -3.41262748e-005 -3.41262748e-005 -3.41262748e-005
      -3.41262748e-005 -3.41262748e-005 -3.41262748e-005
      -3.41262748e-005 -3.41262748e-005 -3.41262748e-005
      -3.41262748e-005 -3.41262748e-005 -3.41262748e-005
      -3.41262748e-005 -3.41262748e-005 -3.41262748e-005
      -3.53699652e-005 -3.41262748e-005 -3.53699652e-005
      -3.41262748e-005 -3.41262748e-005 -3.41262748e-005
      -3.41262748e-005 -3.53699652e-005 -3.53699652e-005
      -3.16388941e-005 -3.66136555e-005 -3.16388941e-005
      -3.53699652e-005 -3.28825845e-005 -3.78573422e-005
      -3.28825845e-005 -3.87974615e-005 -4.01137913e-005
      -4.10207285e-005 -1.34026368e-005 -3.59533551e-005
      -2.83198733e-005 -4.02286641e-005 5.15137763e-005 3.66814493e-005
      3.66814493e-005 3.66814493e-005 3.66814493e-005 3.66814493e-005
      3.66814493e-005 3.66814493e-005 3.66814493e-005 3.66814493e-005
      3.66814493e-005 3.66814493e-005 3.66814493e-005 3.66814493e-005
      3.66814493e-005 3.66814493e-005 3.66814493e-005 3.66814493e-005
      3.66814493e-005 3.66814493e-005 3.66814493e-005 3.66814493e-005
      3.66814493e-005 3.66814493e-005 3.66814493e-005 3.66814493e-005
      3.66814493e-005 3.66814493e-005 3.66814493e-005 3.66814493e-005
      3.66814493e-005 3.66814493e-005 3.66814493e-005 3.66814493e-005
      3.66814493e-005 3.66814493e-005 3.66814493e-005 3.66814493e-005
      3.66814493e-005 3.66814493e-005 3.66814493e-005 3.66814493e-005
      3.66814493e-005 3.66814493e-005 3.66814493e-005 3.66814493e-005
      3.66814493e-005 3.66814493e-005 3.66814493e-005 -5.55967417e-005
      -5.55967417e-005 -5.55967417e-005 -5.55967417e-005
      -5.55967417e-005 -5.55967417e-005 -5.55967417e-005
      -5.55967417e-005 -5.55967417e-005 -5.55967417e-005
      -5.55967417e-005 -5.55967417e-005 -5.55967417e-005
      -5.55967417e-005 -5.55967417e-005 -5.55967417e-005
      -5.55967417e-005 -5.55967417e-005 -5.55967417e-005
      -5.55967417e-005 -5.55967417e-005 -5.55967417e-005
      -5.55967417e-005 -5.55967417e-005 -5.55967417e-005
      -5.55967417e-005 -5.55967417e-005 -5.55967417e-005
      -5.55967417e-005 -5.55967417e-005 -5.55967417e-005
      -5.55967417e-005 -5.55967417e-005 -5.55967417e-005
      -5.55967417e-005 -5.55967417e-005 -5.55967417e-005
      -5.55967417e-005 -5.55967417e-005 -5.55967417e-005
      -5.55967417e-005 -5.55967417e-005 -5.55967417e-005
      -5.55967417e-005 -5.55967417e-005 -5.55967417e-005
      -5.55967417e-005 -5.55967417e-005 -9.34687250e-006
      -9.34687250e-006 -9.34687250e-006 -9.34687250e-006
      -9.34687250e-006 -9.34687250e-006 -9.34687250e-006
      -9.34687250e-006 -9.34687250e-006 -9.34687250e-006
      -9.34687250e-006 -9.34687250e-006 -9.34687250e-006
      -9.34687250e-006 -9.34687250e-006 -9.34687250e-006
      -9.34687250e-006 -9.34687250e-006 -9.34687250e-006
      -9.34687250e-006 -9.34687250e-006 -9.34687250e-006
      -9.34687250e-006 -9.34687250e-006 -9.34687250e-006
      -9.34687250e-006 -9.34687250e-006 -9.34687250e-006
      -9.34687250e-006 -9.34687250e-006 -9.34687250e-006
      -9.34687250e-006 -9.34687250e-006 -9.34687250e-006
      -9.34687250e-006 -9.34687250e-006 -9.34687250e-006
      -9.34687250e-006 -9.34687250e-006 -9.34687250e-006
      -9.37863479e-006 -8.57160467e-006 -1.13169554e-005
      -6.27761619e-006 -8.55886083e-006 -1.48998406e-005
      -5.11561939e-006 -9.95032769e-006 -9.34687250e-006
      -9.34687250e-006 -9.34687250e-006 -9.34687250e-006
      -9.34687250e-006 -9.34687250e-006 -9.34687250e-006
      -9.34687250e-006 -9.34687250e-006 -9.34687250e-006
      -9.34687250e-006 -9.34687250e-006 -9.34687250e-006
      -9.34687250e-006 -9.34687250e-006 -9.34687250e-006
      -9.34687250e-006 -9.34687250e-006 -9.34687250e-006
      -9.34687250e-006 -9.34687250e-006 -9.34687250e-006
      -9.34687250e-006 -9.34687250e-006 -9.34687250e-006
      -1.18342523e-005 -8.10318306e-006 -9.34687250e-006
      -9.34687250e-006 -1.05905629e-005 -8.10318306e-006
      -9.34687250e-006 -1.05905629e-005 -8.10318306e-006
      -9.34687250e-006 -9.34687250e-006 -9.34687250e-006
      -9.34687250e-006 -8.10318306e-006 -1.05905629e-005
      -5.76109642e-006 -1.36616700e-005 -7.42369593e-006
      -1.02185468e-005 -7.47835247e-006 -8.17584896e-006 9.95108280e-007
      -8.56338465e-006 -4.75145407e-006 -4.75145407e-006
      -4.75145407e-006 -4.75145407e-006 -4.75145407e-006
      -4.75145407e-006 -4.75145407e-006 -4.75145407e-006
      -4.75145407e-006 -4.75145407e-006 -4.75145407e-006
      -4.75145407e-006 -4.75145407e-006 -4.75145407e-006
      -4.75145407e-006 -4.75145407e-006 -2.26407451e-006
      -5.99514397e-006 -5.99514397e-006 -3.50776440e-006
      -7.23883386e-006 -2.26407451e-006 -5.99514397e-006
      -5.99514397e-006 -7.23883386e-006 -3.50776440e-006
      -4.75145407e-006 -4.75145407e-006 -2.26407451e-006
      -3.50776440e-006 -7.23883386e-006 -4.75145407e-006
      -7.23883386e-006 -3.50776440e-006 -4.75145407e-006
      -4.75145407e-006 -2.26407451e-006 -3.50776440e-006
      -7.23883386e-006 -4.75145407e-006 -4.82837413e-006
      -2.85605370e-006 -1.26197856e-005 -4.80884273e-006
      -1.56558799e-005 -6.28532962e-006 -9.22929303e-006
      -9.57274096e-006 -9.34687250e-006 -9.34687250e-006
      -9.34687250e-006 -9.34687250e-006 -9.34687250e-006
      -9.34687250e-006 -9.34687250e-006 -9.34687250e-006
      -9.34687250e-006 -9.34687250e-006 -9.34687250e-006
      -9.34687250e-006 -9.34687250e-006 -9.34687250e-006
      -9.34687250e-006 -9.34687250e-006 -9.34687250e-006
      -9.34687250e-006 -9.34687250e-006 -9.34687250e-006
      -9.34687250e-006 -9.34687250e-006 -9.34687250e-006
      -9.34687250e-006 -9.34687250e-006 -9.34687250e-006
      -9.34687250e-006 -9.34687250e-006 -9.34687250e-006
      -9.34687250e-006 -9.34687250e-006 -9.34687250e-006
      -9.85297993e-006 -7.79974016e-006 -9.40998325e-006
      -1.18162379e-005 -9.56509211e-006 -1.12746920e-005 3.20713698e-005
      3.40486622e-005 3.30334005e-005 3.30334005e-005 3.30334005e-005
      3.30334005e-005 3.30334005e-005 3.30334005e-005 3.30334005e-005
      3.30334005e-005 3.30334005e-005 3.30334005e-005 3.30334005e-005
      3.30334005e-005 3.30334005e-005 3.30334005e-005 3.30334005e-005
      3.30334005e-005 3.30334005e-005 3.30334005e-005 3.30334005e-005
      3.30334005e-005 3.30334005e-005 3.30334005e-005 3.30334005e-005
      3.30334005e-005 3.30334005e-005 3.30334005e-005 3.30334005e-005
      3.30334005e-005 3.30334005e-005 3.30334005e-005 3.30334005e-005
      3.30334005e-005 3.30334005e-005 3.30334005e-005 3.30334005e-005
      3.30334005e-005 3.30334005e-005 3.30334005e-005 3.30334005e-005
      3.30334005e-005 2.87952971e-005 8.32825244e-005 8.67286726e-005
      9.17521465e-005 7.48231469e-005 9.08887596e-005 8.48251730e-005
      8.51088189e-005 8.09403282e-005 8.09403282e-005 8.09403282e-005
      8.09403282e-005 8.09403282e-005 8.09403282e-005 8.09403282e-005
      8.09403282e-005 8.09403282e-005 8.09403282e-005 8.09403282e-005
      8.09403282e-005 8.09403282e-005 8.09403282e-005 8.09403282e-005
      8.09403282e-005 8.09403282e-005 8.21840149e-005 8.21840149e-005
      7.96966342e-005 8.09403282e-005 8.09403282e-005 7.96966342e-005
      8.21840149e-005 8.21840149e-005 7.72092608e-005 8.21840149e-005
      7.96966342e-005 8.34277089e-005 7.84529475e-005 8.34277089e-005
      7.96966342e-005 8.04552838e-005 9.49110545e-005 7.36746806e-005
      1.69776467e-004 1.78601200e-004 1.76932837e-004 1.49836313e-004
      1.71718464e-004 1.65782927e-004 1.65782927e-004 1.65782927e-004
      1.65782927e-004 1.65782927e-004 1.65782927e-004 1.65782927e-004
      1.65782927e-004 1.65782927e-004 1.65782927e-004 1.65782927e-004
      1.65782927e-004 1.65782927e-004 1.65782927e-004 1.65782927e-004
      1.65782927e-004 1.65782927e-004 1.65782927e-004 1.65782927e-004
      1.65782927e-004 1.65782927e-004 1.65782927e-004 1.65782927e-004
      1.65782927e-004 1.65782927e-004 1.65782927e-004 1.65782927e-004
      1.65782927e-004 1.65782927e-004 1.65782927e-004 1.65782927e-004
      1.65782927e-004 1.62833618e-004 1.66677433e-004 1.64871526e-004
      1.72948843e-004 -1.30116983e-004 -1.20662044e-004 -1.20522549e-004
      -1.17375872e-004 -1.19496719e-004 -1.19496719e-004
      -1.19496719e-004 -1.19496719e-004 -1.19496719e-004
      -1.19496719e-004 -1.19496719e-004 -1.19496719e-004
      -1.19496719e-004 -1.19496719e-004 -1.19496719e-004
      -1.19496719e-004 -1.19496719e-004 -1.19496719e-004
      -1.19496719e-004 -1.19496719e-004 -1.19496719e-004
      -1.19496719e-004 -1.19496719e-004 -1.19496719e-004
      -1.19496719e-004 -1.19496719e-004 -1.19496719e-004
      -1.19496719e-004 -1.19496719e-004 -1.19496719e-004
      -1.19496719e-004 -1.19496719e-004 -1.19496719e-004
      -1.19496719e-004 -1.19496719e-004 -1.19496719e-004
      -1.24063372e-004 -1.21168843e-004 -1.30450178e-004
      -1.30270491e-004 -2.09274258e-005 -2.07892172e-005
      -2.67176947e-005 -2.45009778e-005 -2.32465263e-005
      -2.32465263e-005 -2.32465263e-005 -2.32465263e-005
      -2.32465263e-005 -2.32465263e-005 -2.32465263e-005
      -2.32465263e-005 -2.32465263e-005 -2.32465263e-005
      -2.32465263e-005 -2.32465263e-005 -2.32465263e-005
      -2.32465263e-005 -2.32465263e-005 -2.32465263e-005
      -2.32465263e-005 -2.32465263e-005 -2.32465263e-005
      -2.32465263e-005 -2.32465263e-005 -2.32465263e-005
      -2.32465263e-005 -2.32465263e-005 -2.32465263e-005
      -2.32465263e-005 -2.32465263e-005 -2.32465263e-005
      -2.32465263e-005 -2.32465263e-005 -2.32465263e-005
      -2.32465263e-005 -2.54666666e-005 -2.43726045e-005
      -2.12405666e-005 -1.49233847e-005 -1.38424266e-005
      -7.75968419e-006 -1.15944895e-005 -5.35498202e-006
      -9.34687250e-006 -9.34687250e-006 -9.34687250e-006
      -9.34687250e-006 -9.34687250e-006 -9.34687250e-006
      -9.34687250e-006 -9.34687250e-006 -9.34687250e-006
      -1.18342523e-005 -8.10318306e-006 -6.85949317e-006
      -9.34687250e-006 -9.34687250e-006 -8.10318306e-006
      -1.18342523e-005 -9.34687250e-006 -9.34687250e-006
      -8.10318306e-006 -1.05905629e-005 -1.05905629e-005
      -8.10318306e-006 -9.34687250e-006 -9.34687250e-006
      -1.05905629e-005 -1.05905629e-005 -6.85949317e-006
      -1.18342523e-005 -8.10318306e-006 -1.05905629e-005
      -1.05905629e-005 -6.85949317e-006 -2.77903268e-006 2.25004915e-005
      4.05761130e-005 2.87155635e-005 3.28156311e-005 4.27510677e-005
      2.51859128e-005 4.15107606e-005 3.41100094e-005 3.41100094e-005
      3.41100094e-005 3.41100094e-005 3.41100094e-005 3.41100094e-005
      3.41100094e-005 3.41100094e-005 3.41100094e-005 3.53536961e-005
      3.28663191e-005 3.41100094e-005 3.41100094e-005 3.53536961e-005
      3.16226287e-005 3.41100094e-005 3.53536961e-005 3.53536961e-005
      3.28663191e-005 3.28663191e-005 3.28663191e-005 3.41100094e-005
      3.41100094e-005 3.53536961e-005 3.78222539e-005 2.70643686e-005
      4.72601132e-005 2.86182585e-005 3.82900471e-005 2.89778764e-005
      1.80259485e-006 -6.42829082e-006 -9.34687250e-006 -9.34687250e-006
      -9.34687250e-006 -9.34687250e-006 -9.34687250e-006
      -9.34687250e-006 -9.34687250e-006 -9.34687250e-006
      -9.34687250e-006 -9.34687250e-006 -9.34687250e-006
      -9.34687250e-006 -9.34687250e-006 -9.34687250e-006
      -9.34687250e-006 -9.34687250e-006 -9.34687250e-006
      -9.34687250e-006 -9.34687250e-006 -9.34687250e-006
      -9.34687250e-006 -9.34687250e-006 -9.34687250e-006
      -9.34687250e-006 -9.34687250e-006 -9.34687250e-006
      -9.34687250e-006 -9.34687250e-006 -9.34687250e-006
      -9.34687250e-006 -9.34687250e-006 -9.34687250e-006
      -1.63781406e-005 6.22842936e-006 7.72734256e-006 1.98596153e-005
      2.04861626e-005 1.84831897e-005 1.12692423e-005 1.85319459e-005
      1.79452472e-005 1.79452472e-005 1.79452472e-005 1.79452472e-005
      1.79452472e-005 1.79452472e-005 1.79452472e-005 1.79452472e-005
      1.79452472e-005 1.54578684e-005 1.91889376e-005 1.79452472e-005
      1.79452472e-005 1.67015587e-005 1.91889376e-005 1.79452472e-005
      1.67015587e-005 1.91889376e-005 1.79452472e-005 1.79452472e-005
      1.79452472e-005 1.79452472e-005 1.91889376e-005 1.67015587e-005
      1.45061831e-005 1.10624578e-005 2.39204855e-005 2.09998179e-005
      2.11385068e-005 3.37501951e-005 4.21080513e-005 3.55851735e-005
      4.04158891e-005 4.04158891e-005 4.04158891e-005 4.04158891e-005
      4.04158891e-005 4.04158891e-005 4.04158891e-005 4.04158891e-005
      3.91721987e-005 4.04158891e-005 3.91721987e-005 4.04158891e-005
      4.04158891e-005 4.04158891e-005 4.04158891e-005 3.91721987e-005
      3.91721987e-005 4.29032698e-005 3.79285084e-005 4.29032698e-005
      3.91721987e-005 4.16595794e-005 3.66848180e-005 4.16595794e-005
      4.01557227e-005 4.07143780e-005 4.05057872e-005 3.96289797e-005
      3.71107053e-005 4.63497672e-005 3.17154554e-005 2.45111223e-005
      8.45921841e-006 8.45921841e-006 8.45921841e-006 8.45921841e-006
      8.45921841e-006 8.45921841e-006 8.45921841e-006 8.45921841e-006
      8.45921841e-006 8.45921841e-006 8.45921841e-006 8.45921841e-006
      8.45921841e-006 8.45921841e-006 8.45921841e-006 8.45921841e-006
      8.45921841e-006 8.45921841e-006 8.45921841e-006 8.45921841e-006
      8.45921841e-006 8.45921841e-006 8.45921841e-006 8.45921841e-006
      8.45921841e-006 8.45921841e-006 8.45921841e-006 8.45921841e-006
      8.45921841e-006 8.45921841e-006 8.45921841e-006 8.45921841e-006
      1.79452472e-005 1.79452472e-005 1.79452472e-005 1.79452472e-005
      1.79452472e-005 1.79452472e-005 1.79452472e-005 1.79452472e-005
      1.79452472e-005 1.79452472e-005 1.79452472e-005 1.79452472e-005
      1.79452472e-005 1.79452472e-005 1.79452472e-005 1.79452472e-005
      1.79452472e-005 1.79452472e-005 1.79452472e-005 1.79452472e-005
      1.79452472e-005 1.79452472e-005 1.79452472e-005 1.79452472e-005
      1.79452472e-005 1.79452472e-005 1.79452472e-005 1.79452472e-005
      1.79452472e-005 1.79452472e-005 1.79452472e-005 1.79452472e-005
      -9.34687250e-006 -9.34687250e-006 -9.34687250e-006
      -9.34687250e-006 -9.34687250e-006 -9.34687250e-006
      -9.34687250e-006 -9.34687250e-006 -9.34687250e-006
      -9.34687250e-006 -9.34687250e-006 -9.34687250e-006
      -9.34687250e-006 -9.34687250e-006 -9.34687250e-006
      -9.34687250e-006 -9.34687250e-006 -9.34687250e-006
      -9.34687250e-006 -9.34687250e-006 -9.34687250e-006
      -9.34687250e-006 -9.34687250e-006 -9.34687250e-006
      -6.12866097e-006 -1.08761533e-005 -5.30544730e-006
      -1.91937797e-005 -8.55185863e-006 -1.10121646e-005 8.57849864e-006
      -2.65418203e-005 -2.71522858e-005 -2.71522858e-005
      -2.71522858e-005 -2.71522858e-005 -2.71522858e-005
      -2.71522858e-005 -2.71522858e-005 -2.71522858e-005
      -2.71522858e-005 -2.96396665e-005 -2.59085973e-005
      -2.71522858e-005 -2.71522858e-005 -2.83959762e-005
      -2.59085973e-005 -2.71522858e-005 -2.83959762e-005
      -2.59085973e-005 -2.71522858e-005 -2.71522858e-005
      -2.71522858e-005 -2.71522858e-005 -2.59085973e-005
      -2.83959762e-005 -3.27674970e-005 -2.97673414e-005
      -2.67886644e-005 -1.56586593e-005 -3.02265944e-005
      -1.46041803e-005 -5.13192799e-006 -2.61799505e-005
      -1.63455225e-005 -2.00765917e-005 -2.00765917e-005
      -1.75892128e-005 -2.13202820e-005 -1.63455225e-005
      -2.00765917e-005 -2.00765917e-005 -2.13202820e-005
      -1.75892128e-005 -1.88329013e-005 -1.88329013e-005
      -1.63455225e-005 -1.75892128e-005 -2.13202820e-005
      -1.88329013e-005 -2.13202820e-005 -1.75892128e-005
      -1.88329013e-005 -1.88329013e-005 -1.63455225e-005
      -1.75892128e-005 -2.13202820e-005 -1.88329013e-005
      -2.09407535e-005 -1.63537625e-005 -1.68275801e-005
      -2.34520576e-005 -1.27420417e-005 -2.31247523e-005
      -1.78738337e-005 -1.92849930e-005 -1.89364291e-005
      -1.72809614e-005 -2.03173786e-005 -1.86619109e-005
      -1.86619109e-005 -1.78299997e-005 -2.10120306e-005
      -1.89364291e-005 -1.86347024e-005 -1.72809614e-005
      -2.03173786e-005 -1.89636394e-005 -1.89636394e-005
      -1.90736901e-005 -1.94666136e-005 -1.86347024e-005
      -1.80350889e-005 -1.90583432e-005 -1.79450617e-005
      -1.94202785e-005 -1.66288173e-005 -1.75388395e-005
      -1.12227754e-005 -1.08737986e-005 -9.07235335e-006
      -1.16969932e-005 -8.37770131e-006 -6.72223359e-006
      -9.48413162e-006 -9.07235335e-006 -8.24044218e-006
      -1.19715114e-005 -9.20961338e-006 -9.48413162e-006
      -7.82866391e-006 -1.04533028e-005 -1.07278220e-005
      -8.10318306e-006 -9.48413162e-006 -9.34687250e-006
      -1.05905629e-005 -1.07278220e-005 -6.85949317e-006
      -1.14224740e-005 -8.51496134e-006 -1.03160437e-005
      -1.08650811e-005 -6.72223359e-006 -7.27371162e-006
      -1.27946714e-005 -1.19810302e-005 -9.83703012e-006
      -1.10310093e-005 -1.29497766e-005 -1.22994552e-005
      -1.32747600e-005 -1.24346898e-005 -1.24346898e-005
      -1.24346898e-005 -1.24346898e-005 -1.24346898e-005
      -1.24346898e-005 -1.24346898e-005 -1.24346898e-005
      -1.24346898e-005 -1.24346898e-005 -1.24346898e-005
      -1.24346898e-005 -1.24346898e-005 -1.24346898e-005
      -1.24346898e-005 -1.24346898e-005 -1.24741091e-005
      -1.26203731e-005 -1.46180628e-005 2.36670735e-006 -7.73490774e-006
      -1.69014606e-006 -3.01698879e-006 -1.28775275e-006
      -2.83417307e-006 -2.83417307e-006 -2.83417307e-006
      -2.83417307e-006 -2.83417307e-006 -2.83417307e-006
      -2.83417307e-006 -2.83417307e-006 -2.83417307e-006
      -2.83417307e-006 -2.83417307e-006 -2.83417307e-006
      -2.83417307e-006 -2.83417307e-006 -2.83417307e-006
      -2.83417307e-006 -1.76915626e-006 -3.57011777e-006
      -2.61811329e-006 -2.21372807e-006 -9.68848235e-006
      -9.28409736e-006 -8.48031232e-006 -1.02812737e-005
      -9.34687250e-006 -9.34687250e-006 -9.34687250e-006
      -9.34687250e-006 -9.34687250e-006 -9.34687250e-006
      -9.34687250e-006 -9.34687250e-006 -9.34687250e-006
      -9.34687250e-006 -9.34687250e-006 -9.34687250e-006
      -9.34687250e-006 -9.34687250e-006 -9.34687250e-006
      -9.34687250e-006 -9.14964767e-006 -9.13940676e-006
      -1.02300937e-005 -7.54344001e-006 -1.07553496e-005
      -7.58043052e-006 -9.55433916e-006 -9.54409734e-006
      -9.34687250e-006 -9.34687250e-006 -9.34687250e-006
      -9.34687250e-006 -9.34687250e-006 -9.34687250e-006
      -9.34687250e-006 -9.34687250e-006 -9.34687250e-006
      -9.34687250e-006 -9.34687250e-006 -9.34687250e-006
      -9.34687250e-006 -9.34687250e-006 -9.34687250e-006
      -9.34687250e-006 -9.27903238e-006 -6.85949317e-006
      -1.39571293e-005 -5.24186498e-006 -9.21119135e-006
      -1.10279716e-005 -6.62054072e-006 -9.45014381e-006
      -9.34687250e-006 -9.34687250e-006 -8.10318306e-006
      -1.05905629e-005 -1.05905629e-005 -8.10318306e-006
      -9.34687250e-006 -9.34687250e-006 -1.05905629e-005
      -1.05905629e-005 -6.85949317e-006 -1.18342523e-005
      -8.10318306e-006 -1.05905629e-005 -1.05905629e-005
      -6.85949317e-006 -6.27790041e-006 -1.18157723e-005
      -8.55152393e-006 -6.77443768e-006 -1.50895430e-005
      -7.05350112e-006 -5.44371642e-006 -9.06834521e-006
      -8.10318306e-006 -8.10318306e-006 -1.05905629e-005
      -1.05905629e-005 -1.05905629e-005 -9.34687250e-006
      -9.34687250e-006 -8.10318306e-006 -5.85125190e-006
      -1.56845908e-005 -7.17939156e-006 -7.84037275e-006
      -1.19261776e-005 -7.41254826e-006 -8.80133848e-006
      -1.20745553e-005 -9.34687250e-006 -9.34687250e-006
      -1.02888353e-005 -1.02888353e-005 -1.02888353e-005
      -9.34687250e-006 -8.40491066e-006 -8.40491066e-006
      -8.40491066e-006 -8.40491066e-006 -9.34687250e-006
      -9.34687250e-006 -9.34687250e-006 -9.34687250e-006
      -9.34687250e-006 -9.34687250e-006 -1.04081919e-005
      -2.28192948e-006 5.82713583e-005 6.49136637e-005 5.86057613e-005
      6.34773824e-005 5.48031239e-005 6.06028261e-005 5.65070404e-005
      5.99363848e-005 5.96346545e-005 5.96346545e-005 5.86926944e-005
      5.77507308e-005 5.99363848e-005 5.74490041e-005 6.76074269e-005
      5.66305716e-005 5.50895857e-005 5.48238058e-005 5.38462700e-005
      1.01740006e-004 1.03039660e-004 9.99432377e-005 9.89626205e-005
      9.89626205e-005 9.89626205e-005 9.89626205e-005 9.89626205e-005
      9.89626205e-005 9.89626205e-005 9.89626205e-005 9.71804184e-005
      1.00358120e-004 9.21342871e-005 1.06795320e-004 1.01476624e-004
      9.45659995e-005 8.80519510e-005 7.26237486e-005 5.54412509e-005
      5.65906776e-005 5.28940909e-005 5.73597426e-005 5.33477869e-005
      1.16562973e-004 1.28944579e-004 7.04370759e-005 5.46051197e-005
      5.29286590e-005 5.48125863e-005 5.38706227e-005 1.17016672e-004
      1.15204006e-004 1.17504933e-004 6.83781836e-005 2.08107565e-004
      2.08107565e-004 2.08107565e-004 2.08107565e-004 2.08107565e-004
      2.08107565e-004 2.08107565e-004 2.08107565e-004 2.08107565e-004
      2.08107565e-004 2.08107565e-004 2.08107565e-004 2.08107565e-004
      2.08107565e-004 2.08107565e-004 2.08107565e-004 -7.80592891e-005
      -7.80592891e-005 -7.80592891e-005 -7.80592891e-005
      -7.80592891e-005 -7.80592891e-005 -7.80592891e-005
      -7.80592891e-005 -8.07951947e-005 -6.83177350e-005
      -8.09129997e-005 -7.27092556e-005 -8.09811099e-005
      -8.05872260e-005 -7.60923358e-005 -1.61565131e-005
      -2.00765917e-005 -1.75892128e-005 -1.88329013e-005
      -1.88329013e-005 -1.88329013e-005 -1.88329013e-005
      -1.75892128e-005 -2.00765917e-005 -1.94066288e-005
      -2.08858801e-005 -1.52538450e-005 -2.17503875e-005
      -1.57908216e-005 -2.15971086e-005 -1.69861214e-005
      -2.17546840e-005 -2.12865507e-005 -1.75554815e-005
      -1.87991700e-005 -1.87991700e-005 -1.63117911e-005
      -1.75554815e-005 -2.12865507e-005 -1.87991700e-005
      -1.86991565e-005 -1.99612750e-005 -8.99418683e-006
      -1.00370644e-005 -1.07913156e-005 -5.72311365e-006
      -1.01621590e-005 -8.08463028e-006 -9.15826695e-006 5.46562796e-006
      -8.38187225e-006 -1.31109282e-005 -4.03243303e-006
      -3.06641741e-005 9.08694565e-005 8.41742440e-005 7.91371931e-005
      -6.30759532e-005 -7.07041399e-005 -6.62575330e-005
      -6.53151365e-005 -6.28147245e-005 -7.02311081e-005
      -6.34501339e-005 -6.44582396e-005 3.54413532e-005 2.15600812e-005
      3.47033201e-005 4.48504215e-005 2.24554497e-005 2.97841289e-005
      4.90464736e-005 2.37657750e-005 3.16968108e-005 3.10104042e-005
      -1.39627082e-004 -1.39962911e-004 -1.26804924e-004
      -1.33958616e-004 -1.37822019e-004 -1.24037426e-004
      -1.32727699e-004 -1.36220740e-004 -1.38398347e-004 7.48135353e-005
      7.95477972e-005 7.35095455e-005 7.18801239e-005 6.41605802e-005
      8.33810482e-005 6.01001921e-005 7.11337925e-005 -1.21871512e-004
      -1.07963664e-004 -1.32268193e-004 -1.12738759e-004
      -1.20650264e-004 -1.05343417e-004 -1.29587090e-004
      -2.56839958e-005 -2.07370631e-005 -2.34807558e-005
      -3.55738484e-005 -1.92950210e-005 -1.67351081e-005
      -1.37330971e-005 -3.65172991e-006 -1.34060992e-005
      -3.07788787e-006 -8.21785670e-006 -1.33456933e-005
      -5.66299013e-006 -3.02561057e-006 -3.16949481e-005 1.22296828e-004
      1.11066642e-004 1.13756367e-004 2.76678493e-005 4.13396119e-005
      1.06659463e-004 3.57009194e-005 3.57009194e-005 3.57009194e-005
      3.57009194e-005 3.57009194e-005 3.57009194e-005 3.57009194e-005
      3.57009194e-005 3.57009194e-005 3.57009194e-005 3.57009194e-005
      3.57009194e-005 3.57009194e-005 3.57009194e-005 3.57009194e-005
      3.57009194e-005 3.57009194e-005 3.57009194e-005 3.57009194e-005
      3.57009194e-005 3.57009194e-005 3.57009194e-005 3.57009194e-005
      3.57009194e-005 3.57009194e-005 3.57009194e-005 3.57009194e-005
      3.57009194e-005 3.57009194e-005 3.57009194e-005 3.57009194e-005
      3.57009194e-005 3.57009194e-005 3.57009194e-005 3.57009194e-005
      3.57009194e-005 3.57009194e-005 3.57009194e-005 3.57009194e-005
      3.57009194e-005 3.57009194e-005 3.57009194e-005 3.57009194e-005
      3.57009194e-005 3.57009194e-005 3.57009194e-005 3.57009194e-005
      3.57009194e-005 3.57009194e-005 3.57009194e-005 3.57009194e-005
      3.57009194e-005 3.57009194e-005 3.57009194e-005 3.57009194e-005
      3.57009194e-005 2.14982902e-005 5.60877525e-005 3.46966917e-005
      3.29952709e-005 2.93565645e-005 3.62747451e-005 3.30574221e-005
      -2.72104762e-006 -4.39976611e-006 -4.39976611e-006
      -4.39976611e-006 -4.39976611e-006 -4.39976611e-006
      -4.39976611e-006 -4.39976611e-006 -4.39976611e-006
      -4.39976611e-006 -4.39976611e-006 -4.39976611e-006
      -4.39976611e-006 -4.39976611e-006 -4.39976611e-006
      -4.39976611e-006 -4.39976611e-006 -4.39976611e-006
      -4.39976611e-006 -4.39976611e-006 -4.39976611e-006
      -4.39976611e-006 -4.39976611e-006 -4.39976611e-006
      -4.39976611e-006 -4.39976611e-006 -4.39976611e-006
      -4.39976611e-006 -4.39976611e-006 -4.39976611e-006
      -4.39976611e-006 -4.39976611e-006 -4.39976611e-006
      -4.39976611e-006 -4.39976611e-006 -4.39976611e-006
      -4.39976611e-006 -4.39976611e-006 -4.39976611e-006
      -4.39976611e-006 -4.39976611e-006 -4.39976611e-006
      -4.39976611e-006 -4.39976611e-006 -4.39976611e-006
      -4.39976611e-006 -4.39976611e-006 -4.39976611e-006
      -4.39976611e-006 -4.39976611e-006 -4.39976611e-006
      -4.39976611e-006 -4.39976611e-006 -4.39976611e-006
      -4.39976611e-006 -4.39976611e-006 -4.39976611e-006
      -7.56863847e-006 -1.32418472e-005 -7.40440873e-006
      -1.36848948e-005 -1.14823240e-006 -5.55545148e-006
      -1.63685104e-006 -1.42704394e-005 -6.54927589e-006
      -6.54927589e-006 -6.54927589e-006 -6.54927589e-006
      -6.54927589e-006 -6.54927589e-006 -6.54927589e-006
      -6.54927589e-006 -6.54927589e-006 -6.54927589e-006
      -6.54927589e-006 -6.54927589e-006 -6.54927589e-006
      -6.54927589e-006 -6.54927589e-006 -6.54927589e-006
      -6.54927589e-006 -6.54927589e-006 -6.54927589e-006
      -6.54927589e-006 -6.54927589e-006 -6.54927589e-006
      -6.54927589e-006 -6.54927589e-006 -6.54927589e-006
      -6.54927589e-006 -6.54927589e-006 -6.54927589e-006
      -6.54927589e-006 -6.54927589e-006 -6.54927589e-006
      -6.54927589e-006 -6.54927589e-006 -6.54927589e-006
      -6.54927589e-006 -6.54927589e-006 -6.54927589e-006
      -6.54927589e-006 -6.54927589e-006 -6.54927589e-006
      -6.54927589e-006 -6.54927589e-006 -6.54927589e-006
      -6.54927589e-006 -6.54927589e-006 -6.54927589e-006
      -6.54927589e-006 -6.54927589e-006 -6.54927589e-006
      -6.54927589e-006 -6.54927589e-006 -6.54927589e-006
      -6.54927589e-006 -6.54927589e-006 -6.54927589e-006
      -6.54927589e-006 -7.38151084e-006 8.71987766e-007 6.96696225e-006
      -3.70363978e-006 9.60245052e-006 1.35846385e-005 -6.05342893e-006
      1.11289064e-005 1.81373048e-006 1.81373048e-006 1.81373048e-006
      1.81373048e-006 1.81373048e-006 1.81373048e-006 1.81373048e-006
      1.81373048e-006 1.81373048e-006 1.81373048e-006 1.81373048e-006
      1.81373048e-006 1.81373048e-006 1.81373048e-006 1.81373048e-006
      1.81373048e-006 1.81373048e-006 1.81373048e-006 1.81373048e-006
      1.81373048e-006 1.81373048e-006 1.81373048e-006 1.81373048e-006
      1.81373048e-006 1.81373048e-006 1.81373048e-006 1.81373048e-006
      1.81373048e-006 1.81373048e-006 1.81373048e-006 1.81373048e-006
      1.81373048e-006 1.81373048e-006 1.81373048e-006 1.81373048e-006
      1.81373048e-006 1.81373048e-006 1.81373048e-006 1.81373048e-006
      1.81373048e-006 1.81373048e-006 1.81373048e-006 1.81373048e-006
      1.81373048e-006 1.81373048e-006 1.81373048e-006 1.81373048e-006
      1.81373048e-006 3.26840291e-006 3.77063770e-006 3.49509901e-006
      -1.11124928e-006 4.02414435e-006 -2.88600677e-006 2.02950905e-005
      1.69519972e-005 1.82713156e-005 1.82713156e-005 1.82713156e-005
      1.82713156e-005 1.82713156e-005 1.82713156e-005 1.82713156e-005
      1.82713156e-005 1.82713156e-005 1.82713156e-005 1.82713156e-005
      1.82713156e-005 1.82713156e-005 1.82713156e-005 1.82713156e-005
      1.82713156e-005 1.82713156e-005 1.82713156e-005 1.82713156e-005
      1.82713156e-005 1.82713156e-005 1.82713156e-005 1.82713156e-005
      1.82713156e-005 1.82713156e-005 1.82713156e-005 1.82713156e-005
      1.82713156e-005 1.82713156e-005 1.82713156e-005 1.82713156e-005
      1.82713156e-005 1.82713156e-005 1.82713156e-005 1.82713156e-005
      1.82713156e-005 1.82713156e-005 1.82713156e-005 1.82713156e-005
      1.82713156e-005 1.82713156e-005 1.82713156e-005 1.82713156e-005
      1.82713156e-005 1.82713156e-005 1.82713156e-005 1.82713156e-005
      1.82713156e-005 1.82713156e-005 1.82713156e-005 1.82713156e-005
      1.82713156e-005 1.82713156e-005 1.82713156e-005 1.82713156e-005
      1.82713156e-005 2.30745936e-005 4.50937259e-005 7.45015541e-006
      5.06631004e-005 4.38363604e-005 2.33668179e-005 3.27692578e-005
      5.32334961e-005 3.79859448e-005 3.79859448e-005 3.79859448e-005
      3.79859448e-005 3.79859448e-005 3.79859448e-005 3.79859448e-005
      3.79859448e-005 3.94352064e-005 3.36785888e-005 3.66812310e-005
      3.89030720e-005 3.99294258e-005 4.12847658e-005 3.78748045e-005
      4.00227073e-005 3.79859448e-005 3.79859448e-005 3.79859448e-005
      3.79859448e-005 3.79859448e-005 3.79859448e-005 3.79859448e-005
      3.79859448e-005 3.79859448e-005 3.79859448e-005 3.79859448e-005
      3.79859448e-005 3.79859448e-005 3.79859448e-005 3.79859448e-005
      3.79859448e-005 4.54405272e-005 3.10101605e-005 4.34428293e-005
      4.26430452e-005 3.62670580e-005 4.03566082e-005 3.52728493e-005
      3.76072639e-005 3.84446321e-005 4.00694262e-005 3.62048922e-005
      3.45057415e-005 3.46944471e-005 4.05424216e-005 4.15283175e-005
      4.20473079e-005 2.06089935e-005 2.89466989e-005 4.13384223e-005
      3.40163569e-005 4.85439450e-005 4.07009647e-005 2.60286524e-005
      2.54181468e-005 3.46613851e-005 3.46613851e-005 3.46613851e-005
      3.46613851e-005 3.46613851e-005 3.46613851e-005 3.46613851e-005
      3.46613851e-005 3.46613851e-005 3.46613851e-005 3.46613851e-005
      3.46613851e-005 3.46613851e-005 3.46613851e-005 3.46613851e-005
      3.46613851e-005 3.46613851e-005 3.46613851e-005 3.46613851e-005
      3.46613851e-005 3.46613851e-005 3.46613851e-005 3.46613851e-005
      3.46613851e-005 3.46613851e-005 3.46613851e-005 3.46613851e-005
      3.46613851e-005 3.46613851e-005 3.46613851e-005 3.46613851e-005
      3.46613851e-005 3.46613851e-005 3.46613851e-005 3.46613851e-005
      3.46613851e-005 3.46613851e-005 3.46613851e-005 3.46613851e-005
      3.46613851e-005 3.46613851e-005 3.46613851e-005 3.46613851e-005
      3.46613851e-005 3.46613851e-005 3.46613851e-005 3.46613851e-005
      3.46613851e-005 3.42148887e-005 3.12754964e-005 3.71407550e-005
      3.61553175e-005 2.66030256e-005 2.42668521e-005 2.85202696e-005
      2.69904958e-005 2.21781174e-005 2.21781174e-005 2.21781174e-005
      2.21781174e-005 2.21781174e-005 2.21781174e-005 2.21781174e-005
      2.21781174e-005 2.21781174e-005 2.21781174e-005 2.21781174e-005
      2.21781174e-005 2.21781174e-005 2.21781174e-005 2.21781174e-005
      2.21781174e-005 2.21781174e-005 2.21781174e-005 2.21781174e-005
      2.21781174e-005 2.21781174e-005 2.21781174e-005 2.21781174e-005
      2.21781174e-005 2.21781174e-005 2.21781174e-005 2.21781174e-005
      2.21781174e-005 2.21781174e-005 2.21781174e-005 2.21781174e-005
      2.21781174e-005 2.21781174e-005 2.21781174e-005 2.21781174e-005
      2.21781174e-005 2.21781174e-005 2.21781174e-005 2.21781174e-005
      2.21781174e-005 2.21781174e-005 2.21781174e-005 2.21781174e-005
      2.21781174e-005 2.21781174e-005 2.21781174e-005 2.21781174e-005
      2.21781174e-005 2.30823862e-005 3.46579473e-005 1.49287780e-005
      1.94662825e-005 5.41516101e-006 1.09907778e-005 -1.25551169e-005
      4.18506215e-006 1.81373048e-006 1.81373048e-006 1.81373048e-006
      1.81373048e-006 1.81373048e-006 1.81373048e-006 1.81373048e-006
      1.81373048e-006 1.81373048e-006 1.81373048e-006 1.81373048e-006
      1.81373048e-006 1.81373048e-006 1.81373048e-006 1.81373048e-006
      1.81373048e-006 1.81373048e-006 1.81373048e-006 1.81373048e-006
      1.81373048e-006 1.81373048e-006 1.81373048e-006 1.81373048e-006
      1.81373048e-006 1.81373048e-006 1.81373048e-006 1.81373048e-006
      1.81373048e-006 1.81373048e-006 1.81373048e-006 1.81373048e-006
      1.81373048e-006 1.81373048e-006 1.81373048e-006 1.81373048e-006
      1.81373048e-006 1.81373048e-006 1.81373048e-006 1.81373048e-006
      1.81373048e-006 1.81373048e-006 1.81373048e-006 1.81373048e-006
      1.81373048e-006 1.81373048e-006 1.81373048e-006 1.81373048e-006
      1.81373048e-006 6.49730691e-006 -6.26565088e-006 2.88518390e-006
      5.25361702e-006 -4.11353585e-006 4.04480033e-006 4.38518373e-006
      -2.49493155e-006 1.81373048e-006 1.81373048e-006 1.81373048e-006
      1.81373048e-006 1.81373048e-006 1.81373048e-006 1.81373048e-006
      1.81373048e-006 1.81373048e-006 1.81373048e-006 1.81373048e-006
      1.81373048e-006 1.81373048e-006 1.81373048e-006 1.81373048e-006
      1.81373048e-006 1.81373048e-006 1.81373048e-006 1.81373048e-006
      1.81373048e-006 1.81373048e-006 1.81373048e-006 1.81373048e-006
      1.81373048e-006 1.81373048e-006 1.81373048e-006 1.81373048e-006
      1.81373048e-006 1.81373048e-006 1.81373048e-006 1.81373048e-006
      1.81373048e-006 1.81373048e-006 1.81373048e-006 1.81373048e-006
      1.81373048e-006 1.81373048e-006 1.81373048e-006 1.81373048e-006
      1.81373048e-006 1.81373048e-006 1.81373048e-006 1.81373048e-006
      1.81373048e-006 1.81373048e-006 1.81373048e-006 1.81373048e-006
      1.81373048e-006 -2.80301015e-006 -4.94550841e-006 -6.94250275e-006
      -1.61572655e-006 -7.41626354e-006 -1.41324080e-007
      -4.20618790e-006 -4.84903603e-006 -3.28483702e-006
      -3.28483702e-006 -3.28483702e-006 -3.28483702e-006
      -3.28483702e-006 -3.28483702e-006 -3.28483702e-006
      -3.28483702e-006 -2.82037240e-006 -2.82037240e-006
      -3.28483702e-006 -3.28483702e-006 -3.28483702e-006
      -3.28483702e-006 -3.28483702e-006 -3.58338502e-006
      -3.28483702e-006 -3.28483702e-006 -3.28483702e-006
      -3.28483702e-006 -3.28483702e-006 -3.28483702e-006
      -3.28483702e-006 -3.28483702e-006 -2.98628925e-006
      -3.28483702e-006 -3.28483702e-006 -3.28483702e-006
      -3.28483702e-006 -3.58338502e-006 -3.28483702e-006
      -2.98628925e-006 -3.28483702e-006 -3.28483702e-006
      -3.28483702e-006 -3.28483702e-006 -3.28483702e-006
      -3.28483702e-006 -3.28483702e-006 -3.28483702e-006
      -3.75453442e-006 -2.37536169e-005 7.66961966e-006 -4.65126323e-006
      -3.60841796e-006 -5.21756101e-006 6.14981836e-005 4.54620495e-005
      4.24147365e-005 4.24147365e-005 4.24147365e-005 4.24147365e-005
      4.24147365e-005 4.24147365e-005 4.24147365e-005 4.24147365e-005
      4.24147365e-005 4.24147365e-005 4.24147365e-005 4.24147365e-005
      4.24147365e-005 4.24147365e-005 4.24147365e-005 4.24147365e-005
      4.24147365e-005 4.24147365e-005 4.24147365e-005 4.24147365e-005
      4.24147365e-005 4.24147365e-005 4.24147365e-005 4.24147365e-005
      4.24147365e-005 4.24147365e-005 4.24147365e-005 4.24147365e-005
      4.24147365e-005 4.24147365e-005 4.24147365e-005 4.24147365e-005
      4.24147365e-005 4.24147365e-005 4.24147365e-005 4.24147365e-005
      4.24147365e-005 4.24147365e-005 4.24147365e-005 4.24147365e-005
      4.24147365e-005 4.24147365e-005 4.24147365e-005 4.24147365e-005
      4.24147365e-005 4.24147365e-005 4.24147365e-005 4.24147365e-005
      4.94852939e-005 2.57381489e-005 5.17305989e-006 -1.69024788e-005
      -2.90668886e-005 -5.10623340e-006 -2.96292565e-005
      -6.14662804e-006 -1.58435960e-005 -1.58435960e-005
      -1.58435960e-005 -1.58435960e-005 -1.58435960e-005
      -1.58435960e-005 -1.58435960e-005 -1.58435960e-005
      -1.58435960e-005 -1.58435960e-005 -1.58435960e-005
      -1.58435960e-005 -1.58435960e-005 -1.58435960e-005
      -1.58435960e-005 -1.58435960e-005 -1.58435960e-005
      -1.58435960e-005 -1.58435960e-005 -1.58435960e-005
      -1.58435960e-005 -1.58435960e-005 -1.58435960e-005
      -1.58435960e-005 -1.58435960e-005 -1.58435960e-005
      -1.58435960e-005 -1.58435960e-005 -1.58435960e-005
      -1.58435960e-005 -1.58435960e-005 -1.58435960e-005
      -1.58435960e-005 -1.58435960e-005 -1.58435960e-005
      -1.58435960e-005 -1.58435960e-005 -1.58435960e-005
      -1.58435960e-005 -1.58435960e-005 -2.38250868e-005
      -7.93573872e-006 -1.55632788e-005 -1.63668228e-005
      -1.74705037e-005 -2.40818135e-005 -2.41357866e-005
      -3.87215405e-005 -3.37324200e-005 -3.37324200e-005
      -3.37324200e-005 -3.37324200e-005 -3.37324200e-005
      -3.37324200e-005 -3.37324200e-005 -3.37324200e-005
      -3.37324200e-005 -3.37324200e-005 -3.37324200e-005
      -3.37324200e-005 -3.37324200e-005 -3.37324200e-005
      -3.37324200e-005 -3.37324200e-005 -3.37324200e-005
      -3.37324200e-005 -3.37324200e-005 -3.37324200e-005
      -3.37324200e-005 -3.37324200e-005 -3.37324200e-005
      -3.37324200e-005 -3.37324200e-005 -3.37324200e-005
      -3.37324200e-005 -3.37324200e-005 -3.37324200e-005
      -3.37324200e-005 -3.37324200e-005 -3.37324200e-005
      -3.37324200e-005 -3.37324200e-005 -3.37324200e-005
      -3.37324200e-005 -3.37324200e-005 -3.37324200e-005
      -3.37324200e-005 -3.37324200e-005 -3.02407425e-005
      -4.02879923e-005 -2.76649207e-005 -2.96194412e-005
      -3.32584095e-005 -3.56705750e-005 -1.88817685e-005 4.89602244e-005
      4.87538309e-005 4.87538309e-005 4.87538309e-005 4.87538309e-005
      4.87538309e-005 4.87538309e-005 4.87538309e-005 4.87538309e-005
      4.87538309e-005 4.87538309e-005 4.87538309e-005 4.87538309e-005
      4.87538309e-005 4.87538309e-005 4.87538309e-005 4.87538309e-005
      4.87538309e-005 4.87538309e-005 4.87538309e-005 4.87538309e-005
      4.87538309e-005 4.87538309e-005 4.87538309e-005 4.87538309e-005
      4.87538309e-005 4.87538309e-005 4.87538309e-005 4.87538309e-005
      4.87538309e-005 4.87538309e-005 4.87538309e-005 4.87538309e-005
      4.87538309e-005 4.87538309e-005 4.87538309e-005 4.87538309e-005
      4.87538309e-005 4.87538309e-005 4.87538309e-005 4.87538309e-005
      4.87538309e-005 4.87538309e-005 4.87538309e-005 4.87538309e-005
      4.87538309e-005 4.87538309e-005 4.87538309e-005 4.87538309e-005
      2.96741200e-005 2.96741200e-005 2.96741200e-005 2.96741200e-005
      2.96741200e-005 2.96741200e-005 2.96741200e-005 2.96741200e-005
      2.96741200e-005 2.99726671e-005 2.93755711e-005 2.99726671e-005
      2.93755711e-005 2.99726671e-005 2.96741200e-005 2.99726671e-005
      2.96741200e-005 2.96741200e-005 2.96741200e-005 2.96741200e-005
      2.96741200e-005 2.96741200e-005 2.96741200e-005 2.96741200e-005
      2.96741200e-005 2.96741200e-005 2.96741200e-005 2.96741200e-005
      2.96741200e-005 2.96741200e-005 2.99726671e-005 2.96741200e-005
      2.96741200e-005 2.96741200e-005 2.96741200e-005 2.96741200e-005
      2.96741200e-005 2.96741200e-005 2.96741200e-005 2.96741200e-005
      2.99726671e-005 2.96741200e-005 2.96741200e-005 2.96741200e-005
      2.96741200e-005 2.93755711e-005 2.96741200e-005 2.99726671e-005
      8.99420229e-007 8.99420229e-007 8.99420229e-007 8.99420229e-007
      8.99420229e-007 8.99420229e-007 8.99420229e-007 8.99420229e-007
      8.99420229e-007 8.99420229e-007 8.99420229e-007 8.99420229e-007
      8.99420229e-007 8.99420229e-007 8.99420229e-007 8.99420229e-007
      8.99420229e-007 8.99420229e-007 8.99420229e-007 8.99420229e-007
      8.99420229e-007 8.99420229e-007 8.99420229e-007 8.99420229e-007
      8.99420229e-007 8.99420229e-007 8.99420229e-007 8.99420229e-007
      8.99420229e-007 8.99420229e-007 8.99420229e-007 8.99420229e-007
      8.99420229e-007 8.99420229e-007 8.99420229e-007 8.99420229e-007
      8.99420229e-007 8.99420229e-007 8.99420229e-007 8.99420229e-007
      -8.95574033e-008 -1.90192097e-007 5.56571149e-006 1.65261827e-006
      -1.41315504e-005 6.39631253e-006 1.80877869e-005 4.15685208e-005
      5.79041734e-005 5.79041734e-005 5.79041734e-005 5.79041734e-005
      5.79041734e-005 5.79041734e-005 5.79041734e-005 5.79041734e-005
      5.79041734e-005 5.79041734e-005 5.79041734e-005 5.79041734e-005
      5.79041734e-005 5.79041734e-005 5.79041734e-005 5.79041734e-005
      5.79041734e-005 5.79041734e-005 5.79041734e-005 5.79041734e-005
      5.79041734e-005 5.79041734e-005 5.79041734e-005 5.79041734e-005
      5.79041734e-005 5.79041734e-005 5.79041734e-005 5.79041734e-005
      5.79041734e-005 5.79041734e-005 5.79041734e-005 5.79041734e-005
      5.79041734e-005 5.79041734e-005 5.79041734e-005 5.79041734e-005
      5.79041734e-005 5.79041734e-005 5.79041734e-005 5.79041734e-005
      6.46106710e-005 6.41262377e-005 5.80565829e-005 6.83182589e-005
      4.12978807e-005 3.67605826e-005 2.84313210e-005 1.58691614e-006
      1.84019300e-005 1.84019300e-005 1.84019300e-005 1.84019300e-005
      1.84019300e-005 1.84019300e-005 1.84019300e-005 1.84019300e-005
      1.84019300e-005 1.84019300e-005 1.84019300e-005 1.84019300e-005
      1.84019300e-005 1.84019300e-005 1.84019300e-005 1.84019300e-005
      1.84019300e-005 1.84019300e-005 1.84019300e-005 1.84019300e-005
      1.84019300e-005 1.84019300e-005 1.84019300e-005 1.84019300e-005
      1.84019300e-005 1.84019300e-005 1.84019300e-005 1.84019300e-005
      1.84019300e-005 1.84019300e-005 1.84019300e-005 1.84019300e-005
      1.84019300e-005 1.84019300e-005 1.84019300e-005 1.84019300e-005
      1.84019300e-005 1.84019300e-005 1.84019300e-005 1.84019300e-005
      1.46858329e-005 1.38992036e-005 5.83747033e-006 -5.95422762e-006
      -1.10845100e-007 6.05977675e-006 -1.02193871e-005 1.04352885e-005
      -4.39976611e-006 -4.39976611e-006 -4.39976611e-006
      -4.39976611e-006 -4.39976611e-006 -4.39976611e-006
      -4.39976611e-006 -4.39976611e-006 -4.39976611e-006
      -4.39976611e-006 -4.39976611e-006 -4.39976611e-006
      -4.39976611e-006 -4.39976611e-006 -4.39976611e-006
      -4.39976611e-006 -4.39976611e-006 -4.39976611e-006
      -4.39976611e-006 -4.39976611e-006 -4.39976611e-006
      -4.39976611e-006 -4.39976611e-006 -4.39976611e-006
      -4.39976611e-006 -4.39976611e-006 -4.39976611e-006
      -4.39976611e-006 -4.39976611e-006 -4.39976611e-006
      -4.39976611e-006 -4.39976611e-006 9.23521020e-006 -1.49565067e-005
      7.85360044e-006 -9.26661585e-007 -5.38496806e-006 -1.67106111e-006
      3.79809967e-006 -8.69786277e-007 6.55674512e-006 6.55674512e-006
      6.55674512e-006 6.55674512e-006 6.55674512e-006 6.55674512e-006
      6.55674512e-006 6.55674512e-006 6.55674512e-006 6.55674512e-006
      6.55674512e-006 6.55674512e-006 6.55674512e-006 6.55674512e-006
      6.55674512e-006 6.55674512e-006 6.55674512e-006 6.55674512e-006
      6.55674512e-006 6.55674512e-006 6.55674512e-006 6.55674512e-006
      6.55674512e-006 6.55674512e-006 6.55674512e-006 6.55674512e-006
      6.55674512e-006 6.55674512e-006 6.55674512e-006 6.55674512e-006
      6.55674512e-006 6.55674512e-006 6.55674512e-006 6.55674512e-006
      6.55674512e-006 6.55674512e-006 6.55674512e-006 6.55674512e-006
      6.55674512e-006 6.55674512e-006 -6.71048355e-008 -8.47679112e-005
      -8.53546662e-005 -6.22364096e-005 -6.82517421e-005
      -9.73786155e-005 -6.80054291e-005 -8.04707161e-005
      -7.96120075e-005 -7.96120075e-005 -7.96120075e-005
      -8.15614476e-005 -8.15614476e-005 -8.15614476e-005
      -8.15614476e-005 -8.15614476e-005 -8.15614476e-005
      -8.15614476e-005 -8.15614476e-005 -8.15614476e-005
      -8.15614476e-005 -8.15614476e-005 -8.15614476e-005
      -8.15614476e-005 -8.15614476e-005 -8.15614476e-005
      -8.15614476e-005 -8.15614476e-005 -8.15614476e-005
      -8.15614476e-005 -8.15614476e-005 -8.15614476e-005
      -8.15614476e-005 -8.15614476e-005 -8.15614476e-005
      -8.15614476e-005 -8.15614476e-005 -8.15614476e-005
      -8.15614476e-005 -8.15614476e-005 -7.52788183e-005
      -1.03013568e-004 -6.94282862e-005 -1.58836192e-005
      -2.90231146e-005 -4.27168416e-005 -2.91583237e-005
      -2.86051200e-005 -2.53522721e-005 -2.53522721e-005
      -2.53522721e-005 -2.53522721e-005 -2.53522721e-005
      -2.53522721e-005 -2.53522721e-005 -2.53522721e-005
      -2.53522721e-005 -2.53522721e-005 -2.53522721e-005
      -2.53522721e-005 -2.53522721e-005 -2.53522721e-005
      -2.53522721e-005 -2.53522721e-005 -2.53522721e-005
      -2.53522721e-005 -2.53522721e-005 -2.53522721e-005
      -2.53522721e-005 -2.53522721e-005 -2.53522721e-005
      -2.53522721e-005 -2.53522721e-005 -2.53522721e-005
      -2.53522721e-005 -2.53522721e-005 -2.53522721e-005
      -2.53522721e-005 -2.53522721e-005 -2.53522721e-005
      -2.79719807e-005 -2.81959383e-005 -1.81548839e-005
      -2.75766615e-005 3.89724082e-005 2.63283728e-005 3.94071903e-005
      3.77403157e-005 3.45131666e-005 3.45131666e-005 3.45131666e-005
      3.45131666e-005 3.45131666e-005 3.45131666e-005 3.45131666e-005
      3.45131666e-005 3.45131666e-005 3.45131666e-005 3.45131666e-005
      3.45131666e-005 3.45131666e-005 3.45131666e-005 3.45131666e-005
      3.45131666e-005 3.45131666e-005 3.45131666e-005 3.45131666e-005
      3.45131666e-005 3.45131666e-005 3.45131666e-005 3.45131666e-005
      3.45131666e-005 3.45131666e-005 3.45131666e-005 3.45131666e-005
      3.45131666e-005 3.45131666e-005 3.45131666e-005 3.45131666e-005
      3.45131666e-005 3.67914035e-005 3.56821256e-005 5.34952051e-005
      3.23515160e-005 5.02722032e-005 3.52358875e-005 4.84319280e-005
      5.09796555e-005 4.74086919e-005 4.74086919e-005 4.74086919e-005
      4.74086919e-005 4.74086919e-005 4.74086919e-005 4.74086919e-005
      4.74086919e-005 4.74086919e-005 4.74086919e-005 4.74086919e-005
      4.74086919e-005 4.74086919e-005 4.74086919e-005 4.74086919e-005
      4.74086919e-005 4.74086919e-005 4.74086919e-005 4.74086919e-005
      4.74086919e-005 4.74086919e-005 4.74086919e-005 4.74086919e-005
      4.74086919e-005 4.74086919e-005 4.74086919e-005 4.74086919e-005
      4.74086919e-005 4.74086919e-005 4.74086919e-005 4.74086919e-005
      4.74086919e-005 4.19457101e-005 4.32139932e-005 6.04485431e-005
      1.85502813e-005 1.31363822e-005 5.47572836e-006 2.77184554e-005
      2.06593431e-005 2.13551666e-005 2.13551666e-005 2.13551666e-005
      2.13551666e-005 2.13551666e-005 2.13551666e-005 2.13551666e-005
      2.13551666e-005 2.13551666e-005 2.13551666e-005 2.13551666e-005
      2.13551666e-005 2.13551666e-005 2.13551666e-005 2.13551666e-005
      2.13551666e-005 2.13551666e-005 2.13551666e-005 2.13551666e-005
      2.13551666e-005 2.13551666e-005 2.13551666e-005 2.13551666e-005
      2.13551666e-005 2.13551666e-005 2.13551666e-005 2.13551666e-005
      2.13551666e-005 2.13551666e-005 2.13551666e-005 2.13551666e-005
      2.13551666e-005 1.85368826e-005 -8.25942116e-005 -8.71733064e-005
      -4.58256873e-005 -8.05224408e-005 -8.73184763e-005
      -6.60852311e-005 -7.47852901e-005 -7.13753034e-005
      -7.13753034e-005 -7.13753034e-005 -7.13753034e-005
      -7.13753034e-005 -7.13753034e-005 -7.13753034e-005
      -7.13753034e-005 -7.13753034e-005 -7.13753034e-005
      -7.13753034e-005 -7.13753034e-005 -7.13753034e-005
      -7.13753034e-005 -7.13753034e-005 -7.13753034e-005
      -7.13753034e-005 -7.13753034e-005 -7.13753034e-005
      -7.13753034e-005 -7.13753034e-005 -7.13753034e-005
      -7.13753034e-005 -7.13753034e-005 -8.10872880e-005
      -6.72306778e-005 -8.26746764e-005 -4.89751510e-005
      -7.52244014e-005 -8.21934445e-005 -5.64102584e-006
      -3.37807433e-005 -2.97546194e-005 -2.97546194e-005
      -2.97546194e-005 -2.97546194e-005 -2.97546194e-005
      -2.97546194e-005 -2.97546194e-005 -2.97546194e-005
      -2.97546194e-005 -2.97546194e-005 -2.97546194e-005
      -2.97546194e-005 -2.97546194e-005 -2.97546194e-005
      -2.97546194e-005 -2.97546194e-005 -2.97546194e-005
      -2.97546194e-005 -2.97546194e-005 -2.97546194e-005
      -2.97546194e-005 -2.97546194e-005 -2.97546194e-005
      -2.97546194e-005 -2.97546194e-005 -2.97546194e-005
      -2.97546194e-005 -2.97546194e-005 -2.97546194e-005
      -2.97546194e-005 -2.97546194e-005 -2.97546194e-005
      -3.42427556e-005 -3.89658344e-005 1.84420614e-007 -2.88210003e-006
      -7.49544915e-006 -1.00853640e-005 4.08253300e-006 8.63539299e-006
      -7.17194894e-007 -7.17194894e-007 -7.17194894e-007
      -7.17194894e-007 -7.17194894e-007 -7.17194894e-007
      -7.17194894e-007 -7.17194894e-007 -7.17194894e-007
      -7.17194894e-007 -7.17194894e-007 -7.17194894e-007
      -7.17194894e-007 -7.17194894e-007 -7.17194894e-007
      -7.17194894e-007 -7.17194894e-007 -7.17194894e-007
      -7.17194894e-007 -7.17194894e-007 -7.17194894e-007
      -7.17194894e-007 -7.17194894e-007 -7.17194894e-007
      -3.29213913e-006 3.03603474e-006 -4.64547747e-006 -1.61390835e-005
      9.44861404e-006 -4.07224725e-005 -9.05337311e-006 -2.78257121e-005
      -2.58165001e-005 -2.58165001e-005 -2.58165001e-005
      -2.58165001e-005 -2.58165001e-005 -2.58165001e-005
      -2.58165001e-005 -2.58165001e-005 -2.58165001e-005
      -2.58165001e-005 -2.58165001e-005 -2.58165001e-005
      -2.58165001e-005 -2.58165001e-005 -2.58165001e-005
      -2.58165001e-005 -2.58165001e-005 -2.58165001e-005
      -2.58165001e-005 -2.58165001e-005 -2.58165001e-005
      -2.58165001e-005 -2.58165001e-005 -2.58165001e-005
      -2.19156518e-005 -2.33868232e-005 -3.43351167e-005
      -1.55243943e-005 -2.90515200e-005 -3.21578955e-005
      -1.47951623e-005 2.09435893e-005 2.13167386e-005 2.13167386e-005
      2.13167386e-005 2.13167386e-005 2.13167386e-005 2.13167386e-005
      2.13167386e-005 2.13167386e-005 2.13167386e-005 2.13167386e-005
      2.13167386e-005 2.13167386e-005 2.13167386e-005 2.13167386e-005
      2.13167386e-005 2.13167386e-005 2.13167386e-005 2.13167386e-005
      2.13167386e-005 2.13167386e-005 2.13167386e-005 2.13167386e-005
      2.13167386e-005 2.13167386e-005 2.13167386e-005 2.13167386e-005
      2.13167386e-005 2.13167386e-005 2.13167386e-005 2.13167386e-005
      2.13167386e-005 2.13167386e-005 6.55674512e-006 6.55674512e-006
      6.55674512e-006 6.55674512e-006 6.55674512e-006 6.55674512e-006
      6.55674512e-006 6.55674512e-006 6.55674512e-006 6.55674512e-006
      6.55674512e-006 6.55674512e-006 6.55674512e-006 6.55674512e-006
      6.85529312e-006 6.55674512e-006 6.55674512e-006 6.55674512e-006
      6.55674512e-006 6.55674512e-006 6.55674512e-006 6.55674512e-006
      6.55674512e-006 6.55674512e-006 6.85529312e-006 6.55674512e-006
      6.55674512e-006 6.55674512e-006 6.55674512e-006 6.25819712e-006
      6.55674512e-006 6.85529312e-006 -1.50612250e-004 -1.50612250e-004
      -1.50612250e-004 -1.50612250e-004 -1.50612250e-004
      -1.50612250e-004 -1.50612250e-004 -1.50612250e-004
      -1.50612250e-004 -1.50612250e-004 -1.50612250e-004
      -1.50612250e-004 -1.50612250e-004 -1.50612250e-004
      -1.50612250e-004 -1.50612250e-004 -1.50612250e-004
      -1.50612250e-004 -1.50612250e-004 -1.50612250e-004
      -1.50612250e-004 -1.50612250e-004 -1.50612250e-004
      -1.50612250e-004 -1.52271794e-004 -1.47036306e-004
      -1.52667038e-004 -1.34274131e-004 -1.63720091e-004
      -1.59978183e-004 -1.42661607e-004 -8.74848502e-006 1.81373048e-006
      1.81373048e-006 1.81373048e-006 1.81373048e-006 1.81373048e-006
      1.81373048e-006 1.81373048e-006 1.81373048e-006 1.81373048e-006
      1.81373048e-006 1.81373048e-006 1.81373048e-006 1.81373048e-006
      1.81373048e-006 1.81373048e-006 1.81373048e-006 1.81373048e-006
      1.81373048e-006 1.81373048e-006 1.81373048e-006 1.81373048e-006
      1.81373048e-006 1.81373048e-006 1.81373048e-006 3.72376326e-006
      -1.95870243e-007 8.76325828e-007 3.47203468e-006 1.76983281e-006
      1.28495813e-005 1.67351864e-005 1.59687916e-005 1.49161533e-005
      1.49161533e-005 1.49161533e-005 1.49161533e-005 1.49161533e-005
      1.49161533e-005 1.49161533e-005 1.49161533e-005 1.46176053e-005
      1.46176053e-005 1.49161533e-005 1.52147013e-005 1.52147013e-005
      1.49161533e-005 1.49161533e-005 1.49161533e-005 1.49161533e-005
      1.49161533e-005 1.49161533e-005 1.49161533e-005 1.49161533e-005
      1.49161533e-005 1.52147013e-005 1.49161533e-005 1.28125666e-005
      1.85712543e-005 5.74325531e-006 7.96197583e-006 8.09078847e-006
      2.50438302e-006 7.99348527e-006 7.11003213e-006 6.55674512e-006
      6.55674512e-006 6.55674512e-006 6.55674512e-006 6.55674512e-006
      6.55674512e-006 6.55674512e-006 6.55674512e-006 6.55674512e-006
      6.55674512e-006 6.55674512e-006 6.55674512e-006 6.55674512e-006
      6.55674512e-006 6.55674512e-006 6.55674512e-006 8.98080543e-006
      -2.26161569e-006 8.08990171e-006 9.23918196e-006 1.61809783e-006
      5.46112005e-006 4.73033178e-005 3.88086373e-005 3.59845471e-005
      3.59845471e-005 3.59845471e-005 3.59845471e-005 3.59845471e-005
      3.59845471e-005 3.59845471e-005 3.59845471e-005 3.59845471e-005
      3.59845471e-005 3.59845471e-005 3.59845471e-005 3.59845471e-005
      3.59845471e-005 3.59845471e-005 3.59845471e-005 3.59845471e-005
      3.59845471e-005 3.59845471e-005 3.59845471e-005 3.59845471e-005
      3.59845471e-005 3.59845471e-005 3.59845471e-005 3.83088700e-005
      6.12944568e-005 8.71355951e-005 9.89639739e-005 7.05720304e-005
      5.82199209e-005 7.91907005e-005 5.82615248e-005 7.55066867e-005
      7.55066867e-005 7.55066867e-005 7.55066867e-005 7.55066867e-005
      7.55066867e-005 7.55066867e-005 7.55066867e-005 7.55066867e-005
      7.55066867e-005 7.55066867e-005 7.55066867e-005 7.55066867e-005
      7.55066867e-005 7.55066867e-005 7.55066867e-005 7.04466147e-005
      6.11389187e-005 9.65735017e-005 5.97614780e-005 7.22010955e-005
      6.61601807e-005 6.29203132e-005 6.87896390e-005 6.62576422e-005
      6.62576422e-005 6.62576422e-005 6.62576422e-005 6.62576422e-005
      6.62576422e-005 6.62576422e-005 6.62576422e-005 6.62576422e-005
      6.62576422e-005 6.62576422e-005 6.62576422e-005 6.62576422e-005
      6.62576422e-005 6.62576422e-005 6.62576422e-005 5.88958465e-005
      7.17713410e-005 7.14781199e-005 6.88030705e-005 7.53013301e-005
      7.23321864e-005 7.93675936e-005 8.75992046e-005 7.55066867e-005
      7.55066867e-005 7.55066867e-005 7.55066867e-005 7.55066867e-005
      7.55066867e-005 7.55066867e-005 7.55066867e-005 7.55066867e-005
      7.55066867e-005 7.55066867e-005 7.55066867e-005 7.55066867e-005
      7.55066867e-005 7.55066867e-005 7.55066867e-005 7.40676405e-005
      6.68923312e-005 7.73224820e-005 8.06001117e-005 1.74418019e-005
      2.27304554e-005 3.04022433e-005 2.44113908e-005 2.21781174e-005
      2.21781174e-005 2.21781174e-005 2.21781174e-005 2.21781174e-005
      2.21781174e-005 2.21781174e-005 2.21781174e-005 2.21781174e-005
      2.21781174e-005 2.21781174e-005 2.21781174e-005 2.21781174e-005
      2.21781174e-005 2.21781174e-005 2.21781174e-005 2.62977956e-005
      1.27230032e-005 3.80961064e-005 -6.68337407e-006 -7.17420244e-006
      -6.29687247e-006 6.91755349e-006 2.69967040e-006 1.81373048e-006
      1.81373048e-006 1.81373048e-006 1.81373048e-006 1.81373048e-006
      1.81373048e-006 1.81373048e-006 1.81373048e-006 1.81373048e-006
      1.81373048e-006 1.81373048e-006 1.81373048e-006 1.81373048e-006
      1.81373048e-006 1.81373048e-006 1.81373048e-006 1.30512217e-006
      1.81822652e-005 1.77492948e-005 2.00435225e-005 1.78861737e-005
      1.70607073e-005 2.00917948e-005 1.67944108e-005 1.82713156e-005
      1.82713156e-005 1.82713156e-005 1.82713156e-005 1.82713156e-005
      1.82713156e-005 1.82713156e-005 1.82713156e-005 8.40379562e-006
      1.69142550e-005 1.99528422e-005 1.11740010e-005 2.76563205e-005
      2.20149777e-005 6.07942675e-005 7.51822663e-005 6.93373586e-005
      6.93373586e-005 6.93373586e-005 6.93373586e-005 6.93373586e-005
      6.93373586e-005 6.93373586e-005 6.93373586e-005 6.93373586e-005
      6.93373586e-005 6.93373586e-005 6.93373586e-005 6.93373586e-005
      6.93373586e-005 6.93373586e-005 6.93373586e-005 7.52706619e-005
      5.57786188e-005 4.74657863e-005 4.43521603e-005 3.52085663e-005
      3.37932725e-005 4.02561054e-005 2.96793532e-005 3.60917184e-005
      3.60917184e-005 3.60917184e-005 3.60917184e-005 3.60917184e-005
      3.60917184e-005 3.60917184e-005 3.60917184e-005 4.68604158e-005
      3.50727059e-005 2.73435162e-005 4.57368697e-005 4.53658249e-005
      2.38335833e-005 3.75274067e-005 2.50642242e-005 3.74805131e-005
      3.74805131e-005 3.74805131e-005 3.74805131e-005 3.74805131e-005
      3.74805131e-005 3.74805131e-005 3.74805131e-005 4.50220541e-005
      3.39467551e-005 4.02651713e-005 4.83748445e-005 2.88592837e-005
      4.26211227e-005 3.24231187e-005 8.00780181e-005 7.65017467e-005
      7.65017467e-005 7.65017467e-005 7.65017467e-005 7.65017467e-005
      7.65017467e-005 7.65017467e-005 7.65017467e-005 7.65017467e-005
      7.65017467e-005 7.65017467e-005 7.65017467e-005 7.65017467e-005
      7.65017467e-005 7.65017467e-005 7.65017467e-005 1.81373048e-006
      1.81373048e-006 1.81373048e-006 1.81373048e-006 1.81373048e-006
      1.81373048e-006 1.81373048e-006 1.81373048e-006 1.81373048e-006
      1.81373048e-006 1.81373048e-006 1.81373048e-006 1.81373048e-006
      1.81373048e-006 1.81373048e-006 1.81373048e-006 1.81373048e-006
      1.81373048e-006 1.81373048e-006 1.81373048e-006 1.81373048e-006
      1.81373048e-006 1.81373048e-006 1.81373048e-006 1.15405901e-005
      -1.01627829e-005 7.84112490e-006 4.12537474e-006 8.17459386e-006
      8.87345959e-006 1.40441136e-006 6.02405999e-005 6.94988339e-005
      6.94988339e-005 6.94988339e-005 6.94988339e-005 6.94988339e-005
      6.94988339e-005 6.94988339e-005 6.94988339e-005 7.47189551e-005
      7.73932043e-005 6.40246071e-005 5.98831430e-005 7.99103000e-005
      -1.10125939e-006 3.59954947e-006 1.12406678e-005 1.81373048e-006
      1.81373048e-006 1.81373048e-006 1.81373048e-006 1.81373048e-006
      1.81373048e-006 1.81373048e-006 1.81373048e-006 8.12738676e-007
      2.02351771e-006 -1.19585500e-004 -1.19080796e-004 -1.12320755e-004
      -1.07607659e-004 -1.13251655e-004 -1.13176793e-004
      -1.13176793e-004 -1.13750481e-004 -1.07607659e-004
      -1.13318405e-004 -1.18581971e-004 -1.19585500e-004 2.65295807e-006
      1.31156310e-006 1.81373048e-006 1.81373048e-006 1.81373048e-006
      1.81373048e-006 1.81373048e-006 1.81373048e-006 1.81373048e-006
      1.81373048e-006 4.09330551e-006 -4.33787682e-006 8.51263667e-006
      1.32840569e-005 -1.92685593e-006 1.84255782e-006 1.37162560e-005
      6.37189532e-006 6.20116407e-006 4.04013690e-006 1.22814981e-006
      -2.08703182e-006 8.68701227e-006 4.63074866e-006 -2.37951076e-006
      2.88837850e-006 4.18506215e-006 -1.06056796e-005 9.04134049e-006
      7.59406794e-006 1.72873752e-005 1.68782153e-005 3.27085108e-005
      2.30823862e-005 2.14782267e-005 3.28323513e-005 1.98883481e-005
      1.61617372e-005 7.83648647e-006 5.73266107e-006 -9.84629969e-006
      5.49067317e-006 3.79491985e-006 -9.62475838e-007 6.58444378e-006
      4.94274127e-006 4.76076639e-006 4.58566501e-006 6.64975323e-006
      7.48966795e-006 6.17571686e-006 -4.41495104e-005 -4.64409204e-005
      -5.32744743e-005 -5.33798739e-005 -5.88364783e-005
      -4.42497658e-005 -3.20193358e-005 -1.98379366e-005
      -6.38131605e-005 1.23475373e-004 1.10690831e-004 1.21842095e-004
      -4.81937286e-006 -2.72074658e-006 5.62765479e-007</_></support_vectors>
  <decision_functions>
    <_>
      <sv_count>1</sv_count>
      <rho>4.8760012819970439e-001</rho>
      <alpha>
        1.</alpha>
      <index>
        0</index></_></decision_functions></my_svm>
</opencv_storage>
